tree
version=v4
num_class=1
num_tree_per_iteration=1
label_index=0
max_feature_idx=85
objective=binary sigmoid:1
feature_names=Column_0 Column_1 Column_2 Column_3 Column_4 Column_5 Column_6 Column_7 Column_8 Column_9 Column_10 Column_11 Column_12 Column_13 Column_14 Column_15 Column_16 Column_17 Column_18 Column_19 Column_20 Column_21 Column_22 Column_23 Column_24 Column_25 Column_26 Column_27 Column_28 Column_29 Column_30 Column_31 Column_32 Column_33 Column_34 Column_35 Column_36 Column_37 Column_38 Column_39 Column_40 Column_41 Column_42 Column_43 Column_44 Column_45 Column_46 Column_47 Column_48 Column_49 Column_50 Column_51 Column_52 Column_53 Column_54 Column_55 Column_56 Column_57 Column_58 Column_59 Column_60 Column_61 Column_62 Column_63 Column_64 Column_65 Column_66 Column_67 Column_68 Column_69 Column_70 Column_71 Column_72 Column_73 Column_74 Column_75 Column_76 Column_77 Column_78 Column_79 Column_80 Column_81 Column_82 Column_83 Column_84 Column_85
feature_infos=[-0.052292794720634118:0.034486176071169404] [-0.045827033384820096:0.054413421723794202] [-0.050189744523855162:0.069869679960486] [-0.045996866263819214:0.093114789240889298] [-0.065063593347061882:0.10111811979775881] [0:0.050949050440069435] [0:0.036739379601155121] [0:0.023692003714787784] [0:1] [0:0.059940059341258137] none [0:0.999999782608743] [0:0.99999968750009771] [0:5] [0:5] [-0.028695069133510942:0.037775880329203648] [-0.036112947654458827:0.061843629342912543] [-0.052359160496925239:0.076228350970558578] [-0.077829164908051918:0.095750695798858976] [-0.10125372462044058:0.12370051486981359] [-0.023476655236085553:0.044095504409550346] [-0.017529773852535735:0.025894643254056326] [-0.01288319238900637:0.012687107005731502] [-0.0065063649222066866:0.008487340226329243] [-0.0040731581522673865:0.005230300246377606] [0:1] [-0.10125372462044058:0.12370051486981359] [-0.0214533141936607:0.030501723736926278] [-0.031833964755347277:0.049744527505353187] [-0.045704595514720614:0.066928145483511781] [-0.023557912036179712:0.022676403212794346] [-0.020481733524316245:0.02006687139228519] [-0.0066720596607409465:0.0080624947217991464] [-2.5535594293824146e-05:2.3514905020617115e-05] [0:1] [0:1] [-0.0089743868914716682:0.012589083025209447] [-7.0235012842643867e-05:4.3871658239035754e-05] [6.3960099876261722:96.024080482815535] [0.28555087418830283:99.881000619472275] [-37.45318514115224:37.004577716584365] [-0.87207980024747656:0.92048160965631065] [0:1] [0:1] [-0.10426557673744463:0.021798165188526619] [-0.011878096972129271:0.14582411592520206] [-0.46605274022689569:1.5621322910292881] [0.001799901950250904:0.15308108696200148] [0:1] [0.0001302109520999835:0.024646955436883312] [4.5401239788046638e-05:0.035604879125678071] [0.21447131837504463:1.6541829400371617] [0:5.77578851991536] [0:0.033523894967853116] [0:0.025662923895503006] [0.00038164127668971335:0.017940622913071917] [0:1] [0:4.975023014508043] [0:9.8854430147731787] [-1:253246.5] [-1.8274278132267319:2.8459671101133153] [0:1] [0:0.99999984848487145] [0:0.999999870129887] [0:0.999999870129887] [0:0.99999992907801916] [-0.088122617009928295:-9.3370680076532153e-09] [-1.4064697406723781e-08:0.10894494141118183] [-0.077073179735871467:-9.3370680076532153e-09] [-1.4064697406723781e-08:0.097587707263292689] [0:0.999999870129887] [0:0.99999981067824861] [-0.66666552381153688:0.66666500000416662] [0:1] [0:1] [-0.99999979591840893:0] [-4.6022353714661275:4.6494723914107405] [-6.0935755724834353:4.9509952510732855] [-0.048951048951048848:0.072368421052631637] [-0.044955044955044876:0.097587719298245723] [-0.062992125984251968:0.10640732265446218] [-0.044955044955044876:0.097587719298245723] [-0.062992125984251968:0.10640732265446218] [0:1] [0:0.96610169491525422] [0:1]
tree_sizes=2645

Tree=0
num_leaves=24
num_cat=0
split_feature=49 49 17 83 24 54 44 51 2 32 1 53 5 22 61 51 41 53 77 50 47 27 54
split_gain=3531.54 848.785 442.804 331.524 266.271 239.049 218.676 331.416 197.923 178.78 181.686 161.635 169.082 156.951 148.293 183.255 160.576 145.536 100.707 252.758 177.809 100.219 49.7246
threshold=0.0033615232664602917 0.0014906774687385657 0.011209407928692296 0.10869565217391305 0.0015086238928917475 0.0042921311885896207 -0.010356280715850206 0.77842477049104775 0.0012903232967458611 0.00085056438488924401 -0.0023487981316292054 0.0050829573359137967 0.0024125452061212953 -0.00022315869873990032 0.078907176495077017 1.1928702397621762 -0.23214167130435306 0.0018609826831300494 0.16634829219154387 0.0044508110255739699 0.020190132398809072 -0.0056538086225817455 0.0032388157259743439
decision_type=2 2 2 2 2 2 2 2 2 2 2 2 2 2 2 2 2 2 2 2 2 2 2
left_child=1 6 3 8 14 -5 7 -1 -3 10 -8 12 -6 -9 15 16 -2 -11 20 -20 -16 -13 -14
right_child=4 2 -4 5 11 -7 9 13 -10 17 -12 21 22 -15 18 -17 -18 -19 19 -21 -22 -23 -24
leaf_value=-2.1318683890134555 -2.1402905391588982 -2.6663082313151234 -2.0760427273114943 -2.3213483546470401 -2.5134649199821824 -2.592354713998084 -2.4512856946430057 -2.6652302857785086 -2.3899341864646826 -2.2497730415493709 -2.6678426355754383 -2.2843802386335028 -1.9675938905628811 -2.2727231731367663 -2.4263354858923343 -2.6598089559377032 -2.4684896682449518 -2.6596512797050038 -2.4398191684227255 -2.1606477210461108 -2.0998376766600644 -1.984815350864833 -2.2497328488815218
leaf_weight=7.1792355850338962 11.181818269193176 13.278409592807295 14.527892626821993 147.14256475120783 4.0449381321668652 8.7463845908641797 12.17716973274946 8.8946284353733063 11.838326707482336 6.0779959484934789 40.53409244120121 4.8920455276966086 4.4049586579203588 3.0072314441204044 5.2308885529637328 3.1131199523806563 6.4380166977643976 3.0495868921279907 11.541839130222796 37.209194578230381 84.837810479104519 53.494834721088409 7.7086777910590172
leaf_count=37 62 209 64 1366 51 125 141 140 123 45 638 39 6 22 57 49 76 48 131 231 436 158 58
internal_value=-2.27546 -2.39713 -2.34084 -2.36355 -2.13257 -2.3364 -2.53407 -2.38832 -2.53439 -2.58058 -2.61665 -2.04915 -2.21609 -2.55666 -2.17323 -2.31358 -2.25258 -2.38244 -2.15346 -2.22419 -2.1176 -2.00681 -2.12515
internal_weight=510.552 276.454 195.534 181.006 234.098 155.889 80.9199 19.0811 25.1167 61.8388 52.7113 74.5455 16.1586 11.9019 159.553 20.733 17.6198 9.12758 138.82 48.751 90.0687 58.3869 12.1136
internal_count=4312 2958 1887 1823 1354 1491 1071 199 332 872 779 312 115 162 1042 187 138 93 855 362 493 197 64
is_linear=0
shrinkage=1


end of trees

feature_importances:
Column_49=2
Column_51=2
Column_53=2
Column_54=2
Column_1=1
Column_2=1
Column_5=1
Column_17=1
Column_22=1
Column_24=1
Column_27=1
Column_32=1
Column_41=1
Column_44=1
Column_47=1
Column_50=1
Column_61=1
Column_77=1
Column_83=1

parameters:
[boosting: gbdt]
[objective: binary]
[metric: binary_logloss]
[tree_learner: serial]
[device_type: cpu]
[data_sample_strategy: bagging]
[data: ]
[valid: ]
[num_iterations: 500]
[learning_rate: 0.05]
[num_leaves: 31]
[num_threads: 8]
[seed: 42]
[deterministic: 0]
[force_col_wise: 0]
[force_row_wise: 0]
[histogram_pool_size: -1]
[max_depth: 5]
[min_data_in_leaf: 30]
[min_sum_hessian_in_leaf: 0.001]
[bagging_fraction: 0.8]
[pos_bagging_fraction: 1]
[neg_bagging_fraction: 1]
[bagging_freq: 0]
[bagging_seed: 400]
[bagging_by_query: 0]
[feature_fraction: 0.8]
[feature_fraction_bynode: 1]
[feature_fraction_seed: 30056]
[extra_trees: 0]
[extra_seed: 12879]
[early_stopping_round: 0]
[early_stopping_min_delta: 0]
[first_metric_only: 0]
[max_delta_step: 0]
[lambda_l1: 0.1]
[lambda_l2: 0.5]
[linear_lambda: 0]
[min_gain_to_split: 0]
[drop_rate: 0.1]
[max_drop: 50]
[skip_drop: 0.5]
[xgboost_dart_mode: 0]
[uniform_drop: 0]
[drop_seed: 17869]
[top_rate: 0.2]
[other_rate: 0.1]
[min_data_per_group: 100]
[max_cat_threshold: 32]
[cat_l2: 10]
[cat_smooth: 10]
[max_cat_to_onehot: 4]
[top_k: 20]
[monotone_constraints: ]
[monotone_constraints_method: basic]
[monotone_penalty: 0]
[feature_contri: ]
[forcedsplits_filename: ]
[refit_decay_rate: 0.9]
[cegb_tradeoff: 1]
[cegb_penalty_split: 0]
[cegb_penalty_feature_lazy: ]
[cegb_penalty_feature_coupled: ]
[path_smooth: 0]
[interaction_constraints: ]
[verbosity: -1]
[saved_feature_importance_type: 0]
[use_quantized_grad: 0]
[num_grad_quant_bins: 4]
[quant_train_renew_leaf: 0]
[stochastic_rounding: 1]
[linear_tree: 0]
[max_bin: 255]
[max_bin_by_feature: ]
[min_data_in_bin: 3]
[bin_construct_sample_cnt: 200000]
[data_random_seed: 175]
[is_enable_sparse: 1]
[enable_bundle: 1]
[use_missing: 1]
[zero_as_missing: 0]
[feature_pre_filter: 1]
[pre_partition: 0]
[two_round: 0]
[header: 0]
[label_column: ]
[weight_column: ]
[group_column: ]
[ignore_column: ]
[categorical_feature: ]
[forcedbins_filename: ]
[precise_float_parser: 0]
[parser_config_file: ]
[objective_seed: 16083]
[num_class: 1]
[is_unbalance: 0]
[scale_pos_weight: 13.6667]
[sigmoid: 1]
[boost_from_average: 1]
[reg_sqrt: 0]
[alpha: 0.9]
[fair_c: 1]
[poisson_max_delta_step: 0.7]
[tweedie_variance_power: 1.5]
[lambdarank_truncation_level: 30]
[lambdarank_norm: 1]
[label_gain: ]
[lambdarank_position_bias_regularization: 0]
[eval_at: ]
[multi_error_top_k: 1]
[auc_mu_weights: ]
[num_machines: 1]
[local_listen_port: 12400]
[time_out: 120]
[machine_list_filename: ]
[machines: ]
[gpu_platform_id: -1]
[gpu_device_id: -1]
[gpu_use_dp: 0]
[num_gpu: 1]

end of parameters

pandas_categorical:null
