tree
version=v4
num_class=1
num_tree_per_iteration=1
label_index=0
max_feature_idx=85
objective=binary sigmoid:1
feature_names=Column_0 Column_1 Column_2 Column_3 Column_4 Column_5 Column_6 Column_7 Column_8 Column_9 Column_10 Column_11 Column_12 Column_13 Column_14 Column_15 Column_16 Column_17 Column_18 Column_19 Column_20 Column_21 Column_22 Column_23 Column_24 Column_25 Column_26 Column_27 Column_28 Column_29 Column_30 Column_31 Column_32 Column_33 Column_34 Column_35 Column_36 Column_37 Column_38 Column_39 Column_40 Column_41 Column_42 Column_43 Column_44 Column_45 Column_46 Column_47 Column_48 Column_49 Column_50 Column_51 Column_52 Column_53 Column_54 Column_55 Column_56 Column_57 Column_58 Column_59 Column_60 Column_61 Column_62 Column_63 Column_64 Column_65 Column_66 Column_67 Column_68 Column_69 Column_70 Column_71 Column_72 Column_73 Column_74 Column_75 Column_76 Column_77 Column_78 Column_79 Column_80 Column_81 Column_82 Column_83 Column_84 Column_85
feature_infos=[-0.075009821004866695:0.056239718322876317] [-0.072906770808087787:0.081345639453952401] [-0.079229236547574938:0.11254774032393178] [-0.063497396629160596:0.11145544092532297] [-0.088292607145678312:0.11364123414530306] [0:0.072265624294281114] [0:0.020782395833956045] [0:0.027225130604972437] [0:1] [0:0.072265624294281114] none [0:0.99999986486488313] [0:0.99999980392160703] [0:5] [0:5] [-0.036670556493300865:0.074276111264413691] [-0.045008664695050271:0.09460180550933428] [-0.066406262156168516:0.10690734940106639] [-0.093306968306234306:0.12493685287505341] [-0.10764431690927534:0.13930965809886819] [-0.030553420445811108:0.049242424242424088] [-0.023523192810889437:0.025359066427288912] [-0.013932089165370587:0.016056952816462022] [-0.0074689006081096743:0.0099952304916741674] [-0.0041149625679416379:0.0045901967405852506] [0:1] [-0.10764431690927534:0.13930965809886819] [-0.02930898413128713:0.058172901894195217] [-0.039480588866907862:0.081642366052938842] [-0.058441861479341939:0.098863421258761797] [-0.026533006686628953:0.025629276974396577] [-0.022893654793444969:0.023592593154892087] [-0.010083601347126082:0.0091033478668309832] [-2.6486269867274676e-05:4.8621523996545279e-05] [0:1] [0:1] [-0.012756854516387009:0.016379945696095626] [-7.3238432399771742e-05:9.0341780225583137e-05] [9.2141381950135752:91.16262361742838] [2.0567762841596959:99.056255130519801] [-34.716080113067463:28.952366674139057] [-0.81571723609972846:0.82325247234856758] [0:1] [0:1] [-0.1218832424275974:0.04633368511393221] [-0.01706220903221789:0.17492535861526082] [-0.340393460640183:1.4815058413707876] [0.0044699528298873309:0.15631786160827549] [0:1] [0.00038768448286894465:0.026604196994604964] [0.00014887726453086106:0.0402669969950488] [0.38400429393436669:1.64677973394872] [0:5.1990234046790231] [0:0.049636797075622713] [0.00039234214146015588:0.033629355690830851] [0.00083125203624538147:0.023693881851836969] [0:1] [0:4.9713607536932942] [0:9.6102943521379718] [-1:9175.1499999999996] [-1.6913589183267521:2.8437206956503442] [0:1] [0:0.99999989583334414] [0:0.99999990740741596] [0:0.99999990825688911] [0:0.99999992647059366] [-0.096080921667750618:-9.9403577591417047e-09] [-1.3986013680522547e-08:0.13904336886492374] [-0.077073179735871467:-9.9108026230254609e-09] [-1.4025245187454516e-08:0.12280700523237953] [0:0.99999990740741596] [0:0.99999966666677909] [-0.56410213017784361:0.61904673469514337] [0:1] [0:1] [-0.99999975609762048:0] [-3.6893218933351917:3.8788772601629207] [-2.6397813346023984:3.3165551552099384] [-0.076171875000000111:0.11912568306010929] [-0.0615234375:0.11790393013100453] [-0.084507042253521125:0.12035010940919033] [-0.0615234375:0.11790393013100453] [-0.084507042253521125:0.12035010940919033] [0:1] [0:0.93220338983050843] [0:1]
tree_sizes=2950

Tree=0
num_leaves=27
num_cat=0
split_feature=49 21 33 5 24 83 0 75 50 23 51 68 2 59 21 83 4 49 77 24 41 51 23 59 20 24
split_gain=585.974 151.984 92.4469 99.6426 74.3817 57.5546 66.9871 56.6786 55.6535 50.5575 45.3851 44.2731 82.5641 42.9293 42.4373 55.5735 42.1813 38.6212 33.9093 30.8987 30.6099 29.3506 23.9173 37.9202 18.5856 0.960815
threshold=0.0041733345872705671 -0.0011500862987254277 8.895894731438307e-07 0.0025657482966328 0.0012005882483591137 0.19565217391304349 0.0010565288515740556 -0.66666636904774979 0.003201882363210807 -0.00089710492522965246 0.91803792101183224 -0.012238667004722091 -0.0010204085174263223 4.4750187602711433 0.0019688834475724008 1.0000000180025095e-35 0.0092013466307806473 0.0061380591959721521 -1.0752279503870048 0.00094950265500093345 -0.28904140161363395 1.2319167175821106 -0.0012849492443242625 0.48992945475670918 -0.00092464293655142294 0.001325486126677933
decision_type=2 2 2 2 2 2 2 2 2 2 2 2 2 2 2 2 2 2 2 2 2 2 2 2 2 2
left_child=1 5 11 9 14 22 7 -7 -8 20 25 13 17 18 15 -3 -16 -13 -2 -11 -4 -12 -1 -24 -14 -5
right_child=2 4 3 10 -6 6 8 -9 -10 19 21 12 24 -15 16 -17 -18 -19 -20 -21 -22 -23 23 -25 -26 -27
leaf_value=-1.3948964173635787 -1.5636441926120359 -1.5006621721380791 -1.5699015630485031 -1.4055228663244619 -1.4969869670616984 -1.5237696972589139 -1.7227400444259766 -1.6500781417631061 -1.5690493715358442 -1.5996985576722105 -1.5068588186484606 -1.5325112163890229 -1.4155991034794506 -1.5430017143775379 -1.70054733372236 -1.6045300306085992 -1.6136114851268439 -1.6595517013582777 -1.4289601040164281 -1.4782747150471449 -1.7014682003510357 -1.6197422292642709 -1.5644747270153192 -1.4524486099751359 -1.4903646586603421 -1.4746358731218123
leaf_weight=6.7683500647544852 6.17078673839569 13.701597332954405 6.438051342964175 12.789872050285341 15.784748435020445 78.129512429237366 9.8887903690338153 10.274054825305937 13.143367290496824 12.262906908988954 51.536179959774017 26.978596925735474 20.894545137882233 12.648171365261076 21.593467235565186 180.46109539270401 37.378215670585632 7.8293401002883902 100.25902181863785 10.282123208045958 11.665343582630156 7.2005118727684012 17.671233117580414 16.036380589008331 29.92657595872879 12.231642007827757
leaf_count=12 29 51 31 27 58 327 74 64 64 66 201 116 49 56 153 994 211 50 265 34 83 41 85 47 108 40
internal_value=-1.53909 -1.57838 -1.48909 -1.52455 -1.60121 -1.53834 -1.55795 -1.53822 -1.63504 -1.59038 -1.4933 -1.46796 -1.49836 -1.44694 -1.60805 -1.59677 -1.64555 -1.56044 -1.4362 -1.54122 -1.65361 -1.5201 -1.48645 -1.50868 -1.45738 -1.43469
internal_weight=749.944 420.831 329.114 124.407 268.919 151.912 111.436 88.4036 23.0322 40.6484 83.7582 204.707 85.6291 119.078 253.134 194.163 58.9717 34.8079 106.43 22.545 18.1034 58.7367 40.476 33.7076 50.8211 25.0215
internal_count=3336 2140 1196 523 1467 673 529 391 138 214 309 673 323 350 1409 1045 364 166 294 100 114 242 144 132 157 67
is_linear=0
shrinkage=1


end of trees

feature_importances:
Column_24=3
Column_21=2
Column_23=2
Column_49=2
Column_51=2
Column_59=2
Column_83=2
Column_0=1
Column_2=1
Column_4=1
Column_5=1
Column_20=1
Column_33=1
Column_41=1
Column_50=1
Column_68=1
Column_75=1
Column_77=1

parameters:
[boosting: gbdt]
[objective: binary]
[metric: binary_logloss]
[tree_learner: serial]
[device_type: cpu]
[data_sample_strategy: bagging]
[data: ]
[valid: ]
[num_iterations: 500]
[learning_rate: 0.05]
[num_leaves: 31]
[num_threads: 8]
[seed: 42]
[deterministic: 0]
[force_col_wise: 0]
[force_row_wise: 0]
[histogram_pool_size: -1]
[max_depth: 5]
[min_data_in_leaf: 30]
[min_sum_hessian_in_leaf: 0.001]
[bagging_fraction: 0.8]
[pos_bagging_fraction: 1]
[neg_bagging_fraction: 1]
[bagging_freq: 0]
[bagging_seed: 400]
[bagging_by_query: 0]
[feature_fraction: 0.8]
[feature_fraction_bynode: 1]
[feature_fraction_seed: 30056]
[extra_trees: 0]
[extra_seed: 12879]
[early_stopping_round: 0]
[early_stopping_min_delta: 0]
[first_metric_only: 0]
[max_delta_step: 0]
[lambda_l1: 0.1]
[lambda_l2: 0.5]
[linear_lambda: 0]
[min_gain_to_split: 0]
[drop_rate: 0.1]
[max_drop: 50]
[skip_drop: 0.5]
[xgboost_dart_mode: 0]
[uniform_drop: 0]
[drop_seed: 17869]
[top_rate: 0.2]
[other_rate: 0.1]
[min_data_per_group: 100]
[max_cat_threshold: 32]
[cat_l2: 10]
[cat_smooth: 10]
[max_cat_to_onehot: 4]
[top_k: 20]
[monotone_constraints: ]
[monotone_constraints_method: basic]
[monotone_penalty: 0]
[feature_contri: ]
[forcedsplits_filename: ]
[refit_decay_rate: 0.9]
[cegb_tradeoff: 1]
[cegb_penalty_split: 0]
[cegb_penalty_feature_lazy: ]
[cegb_penalty_feature_coupled: ]
[path_smooth: 0]
[interaction_constraints: ]
[verbosity: -1]
[saved_feature_importance_type: 0]
[use_quantized_grad: 0]
[num_grad_quant_bins: 4]
[quant_train_renew_leaf: 0]
[stochastic_rounding: 1]
[linear_tree: 0]
[max_bin: 255]
[max_bin_by_feature: ]
[min_data_in_bin: 3]
[bin_construct_sample_cnt: 200000]
[data_random_seed: 175]
[is_enable_sparse: 1]
[enable_bundle: 1]
[use_missing: 1]
[zero_as_missing: 0]
[feature_pre_filter: 1]
[pre_partition: 0]
[two_round: 0]
[header: 0]
[label_column: ]
[weight_column: ]
[group_column: ]
[ignore_column: ]
[categorical_feature: ]
[forcedbins_filename: ]
[precise_float_parser: 0]
[parser_config_file: ]
[objective_seed: 16083]
[num_class: 1]
[is_unbalance: 0]
[scale_pos_weight: 5.29434]
[sigmoid: 1]
[boost_from_average: 1]
[reg_sqrt: 0]
[alpha: 0.9]
[fair_c: 1]
[poisson_max_delta_step: 0.7]
[tweedie_variance_power: 1.5]
[lambdarank_truncation_level: 30]
[lambdarank_norm: 1]
[label_gain: ]
[lambdarank_position_bias_regularization: 0]
[eval_at: ]
[multi_error_top_k: 1]
[auc_mu_weights: ]
[num_machines: 1]
[local_listen_port: 12400]
[time_out: 120]
[machine_list_filename: ]
[machines: ]
[gpu_platform_id: -1]
[gpu_device_id: -1]
[gpu_use_dp: 0]
[num_gpu: 1]

end of parameters

pandas_categorical:null
