tree
version=v4
num_class=1
num_tree_per_iteration=1
label_index=0
max_feature_idx=85
objective=binary sigmoid:1
feature_names=Column_0 Column_1 Column_2 Column_3 Column_4 Column_5 Column_6 Column_7 Column_8 Column_9 Column_10 Column_11 Column_12 Column_13 Column_14 Column_15 Column_16 Column_17 Column_18 Column_19 Column_20 Column_21 Column_22 Column_23 Column_24 Column_25 Column_26 Column_27 Column_28 Column_29 Column_30 Column_31 Column_32 Column_33 Column_34 Column_35 Column_36 Column_37 Column_38 Column_39 Column_40 Column_41 Column_42 Column_43 Column_44 Column_45 Column_46 Column_47 Column_48 Column_49 Column_50 Column_51 Column_52 Column_53 Column_54 Column_55 Column_56 Column_57 Column_58 Column_59 Column_60 Column_61 Column_62 Column_63 Column_64 Column_65 Column_66 Column_67 Column_68 Column_69 Column_70 Column_71 Column_72 Column_73 Column_74 Column_75 Column_76 Column_77 Column_78 Column_79 Column_80 Column_81 Column_82 Column_83 Column_84 Column_85
feature_infos=[-0.060253035759022446:0.056239718322876317] [-0.052911628900654664:0.055918730779022284] [-0.053957107302207548:0.055918730779022284] [-0.075009821004866695:0.056239718322876317] [-0.072906770808087787:0.081345639453952401] [0:0.058473735793124551] [0:0.011984021145352556] [0:0.021052631357340781] [0:1] [0:0.058884296912352418] none [0:0.99999983050850327] [0:0.99999972222229949] [0:5] [0:5] [-0.043303131487380297:0.040861953233767512] [-0.038850677470146922:0.056977693466374157] [-0.037370955965576491:0.085205584090657371] [-0.049123824101083846:0.10356718284764321] [-0.069634120326877436:0.11161769565538027] [-0.034133756697757422:0.025150472914875266] [-0.017241379310344862:0.023001665278934214] [-0.0086425503286239325:0.015455950540958385] [-0.0052917087698772791:0.0062439235173381569] [-0.0029780482729920843:0.0036089702477362096] [0:1] [-0.069634120326877436:0.11161769565538027] [-0.034258103639434601:0.036994134857599725] [-0.032793721340807269:0.053726380743627011] [-0.032697933122958878:0.073386502912639262] [-0.014241959850476072:0.022132507886151537] [-0.012317442764419217:0.018939224185439432] [-0.0064877438957511848:0.0070468295454704051] [-4.4147740294221265e-05:2.5209087725996364e-05] [0:1] [0:1] [-0.012332166720976636:0.0087233404724283391] [-8.8277702703626972e-05:5.5592502201740377e-05] [0.020533187001788633:99.993266073167774] [1.9945214688732449e-06:99.999999684314361] [-77.975916328642555:58.418527085051551] [-0.99958933625996427:0.99986532146335549] [0:1] [0:1] [-0.078780702959030835:0.026053351261994484] [-0.0093648306266232995:0.16335853873424533] [-0.5621322893277606:1.5621322908475006] [0.001089369930461107:0.14829935169504088] [0:1] [2.022621448285218e-05:0.02232267063131245] [2.7562679399894345e-06:0.029006136132716045] [0.068151143379991258:1.8526033595338065] [0:7.409802167805327] [0:0.030113743323503493] [0:0.028777207057514919] [0.00022632266978711181:0.021820563842566469] [0:1] [0:4.9923560773977051] [0:9.9847121547953996] [-1:145935] [-1.7842097081233868:2.8460465981610144] [0:1] [0:0.99999980392160703] [0:0.99999984126986641] [0:0.99999988095239511] [0:0.99999990740741596] [-0.077073179735871467:-9.2850509503250578e-09] [-1.4064697406723781e-08:0.12280700523237953] [-0.072265634059905937:-9.2850509503250578e-09] [-1.4064697406723781e-08:0.060041396893981469] [0:0.99999986301371735] [0:0.9999998155929376] [-0.66666583333437512:0.66666615384654815] [0:1] [0:1] [-0.99999978723408789:0] [-4.6637555326401943:4.6558031260370258] [-9.300287369258557:9.2468251245732702] [-0.052527254707631199:0.057511737089201986] [-0.072265625000000111:0.057851239669421739] [-0.0703125:0.084745762711864403] [-0.072265625000000111:0.057851239669421739] [-0.0703125:0.084745762711864403] [0:1] [0:1] [0:1]
tree_sizes=3179

Tree=0
num_leaves=29
num_cat=0
split_feature=49 24 49 18 5 68 19 79 49 50 49 47 36 79 77 22 77 1 84 22 28 54 49 24 47 66 22 54
split_gain=8917.12 1613.23 956.42 652.477 629.059 585.073 442.172 439.798 433.599 349.576 342.642 341.757 283.968 366.714 276.489 270.402 257.481 250.627 584.789 196.499 172.487 156.257 117.673 117.443 177.187 110.81 53.778 5.13173
threshold=0.001425757192193085 0.00056613595935772764 0.0010199899727665539 -0.011167764735457384 0.0010460250936608737 -1.0498690417026778e-08 0.0095078967794980391 0.0024494804041567124 0.0021195762987401461 0.00040732828941602721 0.0035068011620316762 0.024027498947006756 0.0011337243865608435 0.011421978693908154 0.063620515244894607 0.001663477126424673 -0.46837427245836255 0.0010893250496111283 0.093220338983050863 6.4983649339489538e-05 0.0019474144318381017 0.0032198815705858923 0.0038506731283894703 7.7528545757821212e-05 0.014700034675569238 -1.1594206594800481e-08 -0.002698214414885491 0.0046257525824736061
decision_type=2 2 2 2 2 2 2 2 2 2 2 2 2 2 2 2 2 2 2 2 2 2 2 2 2 2 2 2
left_child=2 3 5 17 6 9 15 8 -5 25 12 -9 21 -14 -11 -4 19 22 -19 -6 -8 -3 -2 24 -7 -1 -12 -28
right_child=1 10 4 7 16 23 20 11 -10 14 26 -13 13 -15 -16 -17 -18 18 -20 -21 -22 -23 -24 -25 -26 -27 27 -29
leaf_value=-2.8099496755603983 -2.2255231220005207 -2.1173356211806471 -2.4985604240593822 -2.5549880447137037 -2.3186237063591175 -2.8010460336113643 -2.0662736877845238 -2.2356586167297663 -2.335505771216015 -2.6906010191416421 -2.3285711637023345 -2.5707603349143984 -2.8045061404707381 -2.2305523562933556 -2.5550955721394382 -2.1618522122997383 -2.8086427875048221 -2.0729545311747288 -2.8054014566960714 -2.8016741510859018 -2.4383548612219133 -2.3389241260526159 -2.0568498835697473 -2.1716483449463113 -2.2460792099091798 -2.4469872934952024 -2.1616535156205918 -2.0233966176631064
leaf_weight=38.091821379959583 39.935103662312031 50.67422454059124 50.054454080760479 45.801548510789871 5.9492591992020625 2.7488943263888341 13.290329873561861 68.05450301617384 47.634144902229309 78.379552662372589 4.4479194283485404 9.4408091232180578 4.54409062117338 6.328601285815239 73.562977038323879 6.8201431408524504 14.361570358276365 4.8700042963027936 5.3855888843536377 2.9732938632369041 5.9065164178609839 14.577955737709997 28.797940909862518 6.9323429092764854 2.3294809311628342 1.7257393077015866 16.530766054987907 92.612895719707012
leaf_count=679 269 239 597 595 47 49 45 475 421 1220 35 124 81 39 957 33 256 13 96 53 61 127 100 35 12 16 88 278
internal_value=-2.36541 -2.22162 -2.5745 -2.30715 -2.4475 -2.63705 -2.37821 -2.36472 -2.44139 -2.65899 -2.11046 -2.27496 -2.20366 -2.46238 -2.62451 -2.45326 -2.67732 -2.18588 -2.4424 -2.47392 -2.16949 -2.1632 -2.15023 -2.30509 -2.52434 -2.79044 -2.05075 -2.04148
internal_weight=742.762 439.636 303.126 249.92 99.3556 203.771 76.0714 170.931 93.4357 191.76 189.716 77.4953 76.1249 10.8727 151.943 56.8746 23.2841 78.9886 10.2556 8.92255 19.1968 65.2522 68.733 12.0107 5.07838 39.8176 113.592 109.144
internal_count=7040 2980 4060 2093 1092 2968 736 1615 1016 2872 887 599 486 120 2177 630 356 478 109 100 106 366 369 96 61 695 401 366
is_linear=0
shrinkage=1


end of trees

feature_importances:
Column_49=5
Column_22=3
Column_24=2
Column_47=2
Column_54=2
Column_77=2
Column_79=2
Column_1=1
Column_5=1
Column_18=1
Column_19=1
Column_28=1
Column_36=1
Column_50=1
Column_66=1
Column_68=1
Column_84=1

parameters:
[boosting: gbdt]
[objective: binary]
[metric: binary_logloss]
[tree_learner: serial]
[device_type: cpu]
[data_sample_strategy: bagging]
[data: ]
[valid: ]
[num_iterations: 500]
[learning_rate: 0.05]
[num_leaves: 31]
[num_threads: 8]
[seed: 42]
[deterministic: 0]
[force_col_wise: 0]
[force_row_wise: 0]
[histogram_pool_size: -1]
[max_depth: 5]
[min_data_in_leaf: 30]
[min_sum_hessian_in_leaf: 0.001]
[bagging_fraction: 0.8]
[pos_bagging_fraction: 1]
[neg_bagging_fraction: 1]
[bagging_freq: 0]
[bagging_seed: 400]
[bagging_by_query: 0]
[feature_fraction: 0.8]
[feature_fraction_bynode: 1]
[feature_fraction_seed: 30056]
[extra_trees: 0]
[extra_seed: 12879]
[early_stopping_round: 0]
[early_stopping_min_delta: 0]
[first_metric_only: 0]
[max_delta_step: 0]
[lambda_l1: 0.1]
[lambda_l2: 0.5]
[linear_lambda: 0]
[min_gain_to_split: 0]
[drop_rate: 0.1]
[max_drop: 50]
[skip_drop: 0.5]
[xgboost_dart_mode: 0]
[uniform_drop: 0]
[drop_seed: 17869]
[top_rate: 0.2]
[other_rate: 0.1]
[min_data_per_group: 100]
[max_cat_threshold: 32]
[cat_l2: 10]
[cat_smooth: 10]
[max_cat_to_onehot: 4]
[top_k: 20]
[monotone_constraints: ]
[monotone_constraints_method: basic]
[monotone_penalty: 0]
[feature_contri: ]
[forcedsplits_filename: ]
[refit_decay_rate: 0.9]
[cegb_tradeoff: 1]
[cegb_penalty_split: 0]
[cegb_penalty_feature_lazy: ]
[cegb_penalty_feature_coupled: ]
[path_smooth: 0]
[interaction_constraints: ]
[verbosity: -1]
[saved_feature_importance_type: 0]
[use_quantized_grad: 0]
[num_grad_quant_bins: 4]
[quant_train_renew_leaf: 0]
[stochastic_rounding: 1]
[linear_tree: 0]
[max_bin: 255]
[max_bin_by_feature: ]
[min_data_in_bin: 3]
[bin_construct_sample_cnt: 200000]
[data_random_seed: 175]
[is_enable_sparse: 1]
[enable_bundle: 1]
[use_missing: 1]
[zero_as_missing: 0]
[feature_pre_filter: 1]
[pre_partition: 0]
[two_round: 0]
[header: 0]
[label_column: ]
[weight_column: ]
[group_column: ]
[ignore_column: ]
[categorical_feature: ]
[forcedbins_filename: ]
[precise_float_parser: 0]
[parser_config_file: ]
[objective_seed: 16083]
[num_class: 1]
[is_unbalance: 0]
[scale_pos_weight: 15.7619]
[sigmoid: 1]
[boost_from_average: 1]
[reg_sqrt: 0]
[alpha: 0.9]
[fair_c: 1]
[poisson_max_delta_step: 0.7]
[tweedie_variance_power: 1.5]
[lambdarank_truncation_level: 30]
[lambdarank_norm: 1]
[label_gain: ]
[lambdarank_position_bias_regularization: 0]
[eval_at: ]
[multi_error_top_k: 1]
[auc_mu_weights: ]
[num_machines: 1]
[local_listen_port: 12400]
[time_out: 120]
[machine_list_filename: ]
[machines: ]
[gpu_platform_id: -1]
[gpu_device_id: -1]
[gpu_use_dp: 0]
[num_gpu: 1]

end of parameters

pandas_categorical:null
