tree
version=v4
num_class=1
num_tree_per_iteration=1
label_index=0
max_feature_idx=85
objective=binary sigmoid:1
feature_names=Column_0 Column_1 Column_2 Column_3 Column_4 Column_5 Column_6 Column_7 Column_8 Column_9 Column_10 Column_11 Column_12 Column_13 Column_14 Column_15 Column_16 Column_17 Column_18 Column_19 Column_20 Column_21 Column_22 Column_23 Column_24 Column_25 Column_26 Column_27 Column_28 Column_29 Column_30 Column_31 Column_32 Column_33 Column_34 Column_35 Column_36 Column_37 Column_38 Column_39 Column_40 Column_41 Column_42 Column_43 Column_44 Column_45 Column_46 Column_47 Column_48 Column_49 Column_50 Column_51 Column_52 Column_53 Column_54 Column_55 Column_56 Column_57 Column_58 Column_59 Column_60 Column_61 Column_62 Column_63 Column_64 Column_65 Column_66 Column_67 Column_68 Column_69 Column_70 Column_71 Column_72 Column_73 Column_74 Column_75 Column_76 Column_77 Column_78 Column_79 Column_80 Column_81 Column_82 Column_83 Column_84 Column_85
feature_infos=[-0.035718082602079232:0.06042830600911004] [-0.047790663836348439:0.074994389875649353] [-0.075405830869321802:0.077086440847873347] [-0.094674249735198959:0.082745765516774858] [-0.10731664315037533:0.14127968123603665] [0:0.062291434234800484] [0:0.079449151700750578] [0:0.027225130604972437] [0:1] [0:0.096398304063577397] none [0:0.9999998113207903] [0:0.99999968750009771] [0:5] [0:5] [-0.048696127611813078:0.058288995364705443] [-0.07082522325113394:0.080561200717795822] [-0.096766054866522677:0.1089504271934576] [-0.1092784643552116:0.11815328643639478] [-0.12380673352932203:0.1753695877252468] [-0.043848336342532934:0.044600454263886036] [-0.027549601920889843:0.038296536570053608] [-0.017975031047781087:0.022246941045606317] [-0.0074025462659140784:0.0099426059868996663] [-0.0051848819757128739:0.0065263464794733661] [0:1] [-0.12380673352932203:0.1753695877252468] [-0.041220369467396267:0.049432791973341716] [-0.06392858355223574:0.070248402657007825] [-0.084733637858806721:0.089428048802291604] [-0.031253082834240109:0.031343578047202135] [-0.028942524000611036:0.026390961486423958] [-0.011419427488958914:0.012007908684195876] [-4.0872591232941197e-05:3.6004286027924032e-05] [0:1] [0:1] [-0.015926493493515981:0.01642163647398158] [-7.3219288289050365e-05:7.0579788483086239e-05] [14.241244258054536:83.288084122088492] [6.4348278209300673:95.210328845400198] [-16.898913688373995:24.510615088319092] [-0.71517511483890928:0.66576168244176981] [0:1] [0:1] [-0.15888172728330952:0.036783757313668675] [-0.024744493154105318:0.24052534442047535] [-0.29533843712913493:1.3350427997256096] [0.0088700928932284335:0.22772549383092647] [0:1] [0.0018057018382784055:0.033247348292122454] [0.00094950774507534196:0.040892189764481189] [0.5258350150379133:1.4946710155242906] [0:4.2671799953500669] [0.00067097100222455748:0.035484927322008766] [0.0013256277607975274:0.026866865157121441] [0.0021644328234462274:0.021504183569586558] [0:1] [0:4.9166137100980034] [0:9.4105161588111876] [-1:21986.375] [-1.9754231458114293:2.8450691442628497] [0:1] [0:0.99999977777782723] [0:0.99999980769234464] [0:0.99999986486488313] [0:0.99999992125984871] [-0.12804879112135625:-1.0010009821037613e-08] [-1.3568520751405799e-08:0.17483294905531244] [-0.090330800377470766:-1.0010009821037613e-08] [-1.3986013680522547e-08:0.099770629589786219] [0:0.99999982456143433] [0:0.9999996588132456] [-0.54444394629675152:0.59523781292529943] [0:1] [0:1] [-0.99999987804879542:0] [-2.9982243250449789:3.2911165736743784] [-2.465301659692023:3.6697316805064202] [-0.072632944228274932:0.080135440180586937] [-0.090330788804071305:0.086265607264472299] [-0.10175879396984921:0.15174672489082974] [-0.090330788804071305:0.086265607264472299] [-0.10175879396984921:0.15174672489082974] [0:1] [0:0.76271186440677963] [0:1]
tree_sizes=2320 2457

Tree=0
num_leaves=21
num_cat=0
split_feature=49 77 70 53 23 29 32 2 41 15 63 45 69 51 44 37 66 83 18 18
split_gain=95.554 54.8071 48.0024 45.3459 32.3561 26.4396 23.9033 49.8234 36.2722 34.5076 33.1724 20.9728 23.2229 20.0878 18.601 27.9208 13.2679 10.442 10.2159 21.7138
threshold=0.0075334261166948744 -0.10468810117503922 0.65108665224494533 0.0060840326893715786 0.0030122736147937261 0.0022028180070871044 -0.00089097771869195072 -0.0048485014702929945 -0.14863396098199988 0.00097595496876512488 0.12122445330113706 0.028172148939601852 0.0085035194391296382 1.0087548917723095 0.0014582673333238818 -1.1206543992930067e-06 -0.031787268511320958 0.63043478260869579 0.020901061885603259 0.0021482075219046996
decision_type=2 2 2 2 2 2 2 2 2 2 2 2 2 2 2 2 2 2 2 2
left_child=2 4 6 13 18 -4 9 17 -9 10 -1 12 -7 -3 15 -5 -6 -8 19 -2
right_child=1 3 5 14 16 11 7 8 -10 -11 -12 -13 -14 -15 -16 -17 -18 -19 -20 -21
leaf_value=-1.101792180793747 -1.0127871307783656 -1.2070247023176717 -1.2217757197231198 -1.0254958955415279 -1.064750859080742 -1.1798628003662224 -1.0200778741206067 -1.0352657656138169 -1.1349065194018229 -1.0444471014914067 -1.1917993735162158 -1.194347628147072 -1.095871234146272 -1.0945839239269297 -1.0087600050272332 -1.1027524417674923 -1.1527499023084757 -1.0851652017344005 -0.96467937233799594 -1.0965439058963375
leaf_weight=20.358376637101173 46.870926395058632 10.211113288998606 9.8132776916027051 15.589261263608931 13.565702408552172 10.825057119131086 27.588179126381874 11.384974032640455 42.077252611517906 10.225848108530043 19.582351490855217 10.972403615713118 30.481082141399384 5.8054526448249808 9.9311551153659803 51.713714733719826 6.4636003673076621 11.065723195672033 10.613860681653021 10.849614962935446
leaf_count=77 120 54 54 42 44 53 73 32 179 30 99 56 113 21 24 197 29 39 19 40
internal_value=-1.08798 -1.06155 -1.11167 -1.08908 -1.03313 -1.14857 -1.0957 -1.08052 -1.11264 -1.12418 -1.1459 -1.13428 -1.11798 -1.16523 -1.07329 -1.08393 -1.09204 -1.03739 -1.01655 -1.02777
internal_weight=385.989 181.614 204.375 93.2507 88.3637 62.0918 142.283 92.1161 53.4622 50.1666 39.9407 52.2785 41.3061 16.0166 77.2341 67.303 20.0293 38.6539 68.3344 57.7205
internal_count=1395 590 805 338 252 276 529 323 211 206 176 222 166 75 263 239 73 112 179 160
is_linear=0
shrinkage=1


Tree=1
num_leaves=22
num_cat=0
split_feature=49 77 64 49 76 21 85 2 32 31 58 57 62 54 57 2 31 21 7 68 54
split_gain=77.3794 42.5625 42.2221 29.4563 31.0282 32.2062 28.8896 37.1454 39.6001 26.496 20.6009 30.3063 41.5962 18.9967 17.9612 16.3234 11.1109 10.5193 5.75518 7.55935 4.34905
threshold=0.0075334261166948744 -0.10468810117503922 0.62499977213550006 0.013809582113465864 1.6254729869179412 0.0021643790557571711 0.41666666666666669 0.0049535723998923109 -0.00089097771869195072 0.0071045823725118936 0.46256131502157077 1.8808853840700974 0.73333284444476965 0.011653880818265355 1.5326956825995066 -1.0000000180025095e-35 -0.00031257562188961044 -0.00025966002723581955 0.0056625431424222111 -0.010836861112319017 0.0051062601974900977
decision_type=2 2 2 2 2 2 2 2 2 2 2 2 2 2 2 2 2 2 2 2 2
left_child=2 9 6 4 5 -3 14 8 -8 18 16 12 -12 -5 17 -11 -4 -1 19 -2 -18
right_child=1 3 10 13 -6 -7 7 -9 -10 15 11 -13 -14 -15 -16 -17 20 -19 -20 -21 -22
leaf_value=0.080150691401922713 0.14702761591483421 0.045520775026972514 0.02101688581872637 0.12924086055809322 0.13133791640070186 -0.061924704316678458 0.0088464053677152731 -0.046961804997725703 0.079094957608182276 0.016921854378807166 -0.019365080901608808 -0.044880919876927605 0.10296563192751221 0.042574769519699712 0.017523148784743068 0.11127721037131844 -0.062836184638154241 0.1374007204516183 0.090488019386481058 0.098634620593577138 -0.0077722382079210344
leaf_weight=24.658001869916916 43.39167508482933 48.148522391915321 8.9817320108413714 22.36543507874012 8.4642437994480115 7.6596648693084708 31.789157897233963 9.7918231487274152 55.350649610161781 11.223078697919847 10.640309289097788 8.8410525321960431 18.503363355994225 9.9354332238435727 7.4201142042875281 7.706673100590705 11.719698011875154 16.027922585606575 14.768968418240545 16.914100989699364 5.6085875779390326
leaf_count=81 94 184 38 56 20 41 140 51 181 46 52 46 56 37 31 21 64 39 43 48 26
internal_value=0.0657997 0.0888915 0.0445912 0.0648583 0.0445649 0.0302662 0.0595103 0.0433106 0.0537216 0.113055 0.0106596 0.0340843 0.0585609 0.103791 0.0912678 0.0574682 -0.022978 0.10422 0.126531 0.13446 -0.0460121
internal_weight=399.91 190.578 209.332 96.5733 64.2724 55.8082 145.038 96.9316 87.1398 94.0045 64.2947 37.9847 29.1437 32.3009 48.106 18.9298 26.31 40.6859 75.0747 60.3058 17.3283
internal_count=1395 590 805 338 245 225 523 372 321 252 282 154 108 93 151 67 128 120 185 142 90
is_linear=0
shrinkage=0.05


end of trees

feature_importances:
Column_2=3
Column_49=3
Column_18=2
Column_21=2
Column_31=2
Column_32=2
Column_54=2
Column_57=2
Column_77=2
Column_7=1
Column_15=1
Column_23=1
Column_29=1
Column_37=1
Column_41=1
Column_44=1
Column_45=1
Column_51=1
Column_53=1
Column_58=1
Column_62=1
Column_63=1
Column_64=1
Column_66=1
Column_68=1
Column_69=1
Column_70=1
Column_76=1
Column_83=1
Column_85=1

parameters:
[boosting: gbdt]
[objective: binary]
[metric: binary_logloss]
[tree_learner: serial]
[device_type: cpu]
[data_sample_strategy: bagging]
[data: ]
[valid: ]
[num_iterations: 500]
[learning_rate: 0.05]
[num_leaves: 31]
[num_threads: 8]
[seed: 42]
[deterministic: 0]
[force_col_wise: 0]
[force_row_wise: 0]
[histogram_pool_size: -1]
[max_depth: 5]
[min_data_in_leaf: 30]
[min_sum_hessian_in_leaf: 0.001]
[bagging_fraction: 0.8]
[pos_bagging_fraction: 1]
[neg_bagging_fraction: 1]
[bagging_freq: 0]
[bagging_seed: 400]
[bagging_by_query: 0]
[feature_fraction: 0.8]
[feature_fraction_bynode: 1]
[feature_fraction_seed: 30056]
[extra_trees: 0]
[extra_seed: 12879]
[early_stopping_round: 0]
[early_stopping_min_delta: 0]
[first_metric_only: 0]
[max_delta_step: 0]
[lambda_l1: 0.1]
[lambda_l2: 0.5]
[linear_lambda: 0]
[min_gain_to_split: 0]
[drop_rate: 0.1]
[max_drop: 50]
[skip_drop: 0.5]
[xgboost_dart_mode: 0]
[uniform_drop: 0]
[drop_seed: 17869]
[top_rate: 0.2]
[other_rate: 0.1]
[min_data_per_group: 100]
[max_cat_threshold: 32]
[cat_l2: 10]
[cat_smooth: 10]
[max_cat_to_onehot: 4]
[top_k: 20]
[monotone_constraints: ]
[monotone_constraints_method: basic]
[monotone_penalty: 0]
[feature_contri: ]
[forcedsplits_filename: ]
[refit_decay_rate: 0.9]
[cegb_tradeoff: 1]
[cegb_penalty_split: 0]
[cegb_penalty_feature_lazy: ]
[cegb_penalty_feature_coupled: ]
[path_smooth: 0]
[interaction_constraints: ]
[verbosity: -1]
[saved_feature_importance_type: 0]
[use_quantized_grad: 0]
[num_grad_quant_bins: 4]
[quant_train_renew_leaf: 0]
[stochastic_rounding: 1]
[linear_tree: 0]
[max_bin: 255]
[max_bin_by_feature: ]
[min_data_in_bin: 3]
[bin_construct_sample_cnt: 200000]
[data_random_seed: 175]
[is_enable_sparse: 1]
[enable_bundle: 1]
[use_missing: 1]
[zero_as_missing: 0]
[feature_pre_filter: 1]
[pre_partition: 0]
[two_round: 0]
[header: 0]
[label_column: ]
[weight_column: ]
[group_column: ]
[ignore_column: ]
[categorical_feature: ]
[forcedbins_filename: ]
[precise_float_parser: 0]
[parser_config_file: ]
[objective_seed: 16083]
[num_class: 1]
[is_unbalance: 0]
[scale_pos_weight: 3.18919]
[sigmoid: 1]
[boost_from_average: 1]
[reg_sqrt: 0]
[alpha: 0.9]
[fair_c: 1]
[poisson_max_delta_step: 0.7]
[tweedie_variance_power: 1.5]
[lambdarank_truncation_level: 30]
[lambdarank_norm: 1]
[label_gain: ]
[lambdarank_position_bias_regularization: 0]
[eval_at: ]
[multi_error_top_k: 1]
[auc_mu_weights: ]
[num_machines: 1]
[local_listen_port: 12400]
[time_out: 120]
[machine_list_filename: ]
[machines: ]
[gpu_platform_id: -1]
[gpu_device_id: -1]
[gpu_use_dp: 0]
[num_gpu: 1]

end of parameters

pandas_categorical:null
