{"learner":{"attributes":{"best_iteration":"499","best_score":"0.06754575470595174","scikit_learn":"{\"_estimator_type\": \"classifier\"}"},"feature_names":[],"feature_types":[],"gradient_booster":{"model":{"cats":{"enc":[],"feature_segments":[],"sorted_idx":[]},"gbtree_model_param":{"num_parallel_tree":"1","num_trees":"500"},"iteration_indptr":[0,1,2,3,4,5,6,7,8,9,10,11,12,13,14,15,16,17,18,19,20,21,22,23,24,25,26,27,28,29,30,31,32,33,34,35,36,37,38,39,40,41,42,43,44,45,46,47,48,49,50,51,52,53,54,55,56,57,58,59,60,61,62,63,64,65,66,67,68,69,70,71,72,73,74,75,76,77,78,79,80,81,82,83,84,85,86,87,88,89,90,91,92,93,94,95,96,97,98,99,100,101,102,103,104,105,106,107,108,109,110,111,112,113,114,115,116,117,118,119,120,121,122,123,124,125,126,127,128,129,130,131,132,133,134,135,136,137,138,139,140,141,142,143,144,145,146,147,148,149,150,151,152,153,154,155,156,157,158,159,160,161,162,163,164,165,166,167,168,169,170,171,172,173,174,175,176,177,178,179,180,181,182,183,184,185,186,187,188,189,190,191,192,193,194,195,196,197,198,199,200,201,202,203,204,205,206,207,208,209,210,211,212,213,214,215,216,217,218,219,220,221,222,223,224,225,226,227,228,229,230,231,232,233,234,235,236,237,238,239,240,241,242,243,244,245,246,247,248,249,250,251,252,253,254,255,256,257,258,259,260,261,262,263,264,265,266,267,268,269,270,271,272,273,274,275,276,277,278,279,280,281,282,283,284,285,286,287,288,289,290,291,292,293,294,295,296,297,298,299,300,301,302,303,304,305,306,307,308,309,310,311,312,313,314,315,316,317,318,319,320,321,322,323,324,325,326,327,328,329,330,331,332,333,334,335,336,337,338,339,340,341,342,343,344,345,346,347,348,349,350,351,352,353,354,355,356,357,358,359,360,361,362,363,364,365,366,367,368,369,370,371,372,373,374,375,376,377,378,379,380,381,382,383,384,385,386,387,388,389,390,391,392,393,394,395,396,397,398,399,400,401,402,403,404,405,406,407,408,409,410,411,412,413,414,415,416,417,418,419,420,421,422,423,424,425,426,427,428,429,430,431,432,433,434,435,436,437,438,439,440,441,442,443,444,445,446,447,448,449,450,451,452,453,454,455,456,457,458,459,460,461,462,463,464,465,466,467,468,469,470,471,472,473,474,475,476,477,478,479,480,481,482,483,484,485,486,487,488,489,490,491,492,493,494,495,496,497,498,499,500],"tree_info":[0,0,0,0,0,0,0,0,0,0,0,0,0,0,0,0,0,0,0,0,0,0,0,0,0,0,0,0,0,0,0,0,0,0,0,0,0,0,0,0,0,0,0,0,0,0,0,0,0,0,0,0,0,0,0,0,0,0,0,0,0,0,0,0,0,0,0,0,0,0,0,0,0,0,0,0,0,0,0,0,0,0,0,0,0,0,0,0,0,0,0,0,0,0,0,0,0,0,0,0,0,0,0,0,0,0,0,0,0,0,0,0,0,0,0,0,0,0,0,0,0,0,0,0,0,0,0,0,0,0,0,0,0,0,0,0,0,0,0,0,0,0,0,0,0,0,0,0,0,0,0,0,0,0,0,0,0,0,0,0,0,0,0,0,0,0,0,0,0,0,0,0,0,0,0,0,0,0,0,0,0,0,0,0,0,0,0,0,0,0,0,0,0,0,0,0,0,0,0,0,0,0,0,0,0,0,0,0,0,0,0,0,0,0,0,0,0,0,0,0,0,0,0,0,0,0,0,0,0,0,0,0,0,0,0,0,0,0,0,0,0,0,0,0,0,0,0,0,0,0,0,0,0,0,0,0,0,0,0,0,0,0,0,0,0,0,0,0,0,0,0,0,0,0,0,0,0,0,0,0,0,0,0,0,0,0,0,0,0,0,0,0,0,0,0,0,0,0,0,0,0,0,0,0,0,0,0,0,0,0,0,0,0,0,0,0,0,0,0,0,0,0,0,0,0,0,0,0,0,0,0,0,0,0,0,0,0,0,0,0,0,0,0,0,0,0,0,0,0,0,0,0,0,0,0,0,0,0,0,0,0,0,0,0,0,0,0,0,0,0,0,0,0,0,0,0,0,0,0,0,0,0,0,0,0,0,0,0,0,0,0,0,0,0,0,0,0,0,0,0,0,0,0,0,0,0,0,0,0,0,0,0,0,0,0,0,0,0,0,0,0,0,0,0,0,0,0,0,0,0,0,0,0,0,0,0,0,0,0,0,0,0,0,0,0,0,0,0,0,0,0,0,0,0,0,0,0,0,0,0,0,0,0,0,0,0,0,0,0,0,0,0,0,0,0,0,0,0,0,0,0,0,0,0,0,0,0,0,0,0,0,0,0,0,0,0,0,0,0,0],"trees":[{"base_weights":[4.546838E-2,-6.7099434E-1,1.0078906E0,2.985258E-1,-8.74364E-1,5.98507E-1,1.4000572E0,4.7307032E-1,-9.487805E-2,-1.0335633E0,6.127617E-1,-9.408451E-2,6.756611E-1,1.1806443E0,1.6798673E0,-2.6955383E-2,1.2099215E0,-4.885209E-1,-1.3302126E0,8.530003E-1,-9.106383E-2,-9.263158E-2,7.400172E-1,5.8480865E-1,1.400731E0,3.59497E-2,1.717763E0,3.3804394E-2,-9.746988E-2,7.361979E-2,-8.053488E-3,-4.417204E-2,2.3963915E-2,-8.095192E-2,-2.767056E-2,-2.6828632E-2,5.822734E-2,3.9727535E-2,-9.106383E-2,4.8594687E-2,-9.2075475E-2,-0E0,7.452575E-2,9.77565E-2,8.0933206E-2],"categories":[],"categories_nodes":[],"categories_segments":[],"categories_sizes":[],"default_left":[0,0,0,0,0,0,0,0,0,0,0,0,0,0,0,0,0,0,0,0,0,0,0,0,0,0,0,0,0,0,0,0,0,0,0,0,0,0,0,0,0,0,0,0,0],"id":0,"left_children":[1,3,5,7,9,11,13,15,-1,17,19,-1,21,23,25,27,29,31,33,35,-1,-1,37,39,41,-1,43,-1,-1,-1,-1,-1,-1,-1,-1,-1,-1,-1,-1,-1,-1,-1,-1,-1,-1],"loss_changes":[1.9121626E3,3.137481E2,1.8895898E2,1.0666124E2,3.1184515E2,1.12306564E2,3.47854E1,9.476369E1,0E0,1.9119995E2,7.610806E1,0E0,9.304996E1,4.3811462E1,8.087097E0,2.094181E2,3.7761658E1,1.6109991E2,1.7128284E2,5.1301544E1,0E0,0E0,7.828934E1,9.003459E1,3.1178223E1,0E0,2.4036865E0,0E0,0E0,0E0,0E0,0E0,0E0,0E0,0E0,0E0,0E0,0E0,0E0,0E0,0E0,0E0,0E0,0E0,0E0],"parents":[2147483647,0,0,1,1,2,2,3,3,4,4,5,5,6,6,7,7,9,9,10,10,12,12,13,13,14,14,15,15,16,16,17,17,18,18,19,19,22,22,23,23,24,24,26,26],"right_children":[2,4,6,8,10,12,14,16,-1,18,20,-1,22,24,26,28,30,32,34,36,-1,-1,38,40,42,-1,44,-1,-1,-1,-1,-1,-1,-1,-1,-1,-1,-1,-1,-1,-1,-1,-1,-1,-1],"split_conditions":[2.2882887E-3,-1.23818135E-2,4.007381E-3,4.9999937E-1,1.4975031E-2,-2.4363244E-2,3.4957435E-2,3.988757E-3,-9.487805E-2,-4.4490965E-3,2.048619E-3,-9.408451E-2,-9.498752E-3,5.5852276E-1,1.001001E-3,-6.389798E-3,-4.26387E-3,-5.6588636E-3,1.3825218E-3,1.4517247E-3,-9.106383E-2,-9.263158E-2,2.380949E-1,4.2918455E-3,-2.1939954E-2,3.59497E-2,1.933337E-3,3.3804394E-2,-9.746988E-2,7.361979E-2,-8.053488E-3,-4.417204E-2,2.3963915E-2,-8.095192E-2,-2.767056E-2,-2.6828632E-2,5.822734E-2,3.9727535E-2,-9.106383E-2,4.8594687E-2,-9.2075475E-2,-0E0,7.452575E-2,9.77565E-2,8.0933206E-2],"split_indices":[49,44,49,62,19,66,19,45,0,19,49,0,2,57,5,3,17,19,30,49,0,0,72,9,80,0,29,0,0,0,0,0,0,0,0,0,0,0,0,0,0,0,0,0,0],"split_type":[0,0,0,0,0,0,0,0,0,0,0,0,0,0,0,0,0,0,0,0,0,0,0,0,0,0,0,0,0,0,0,0,0,0,0,0,0,0,0,0,0,0,0,0,0],"sum_hessian":[2.7710708E3,1.5886327E3,1.182438E3,2.7528983E2,1.3133429E3,5.7988055E2,6.025575E2,2.5578983E2,1.95E1,1.1866792E3,1.2666372E2,1.675E1,5.6313055E2,3.4085397E2,2.6170355E2,1.528761E2,1.0291372E2,4.1928983E2,7.673894E2,1.1591372E2,1.075E1,1.325E1,5.4988055E2,9.305089E1,2.478031E2,1.0787611E1,2.5091592E2,1.1237611E2,4.05E1,8.637611E1,1.6537611E1,2.9791373E2,1.2137611E2,5.5851324E2,2.088761E2,2.1037611E1,9.487611E1,5.3913055E2,1.075E1,8.080089E1,1.225E1,1.5037611E1,2.3276549E2,6.808849E1,1.8282744E2],"tree_param":{"num_deleted":"0","num_feature":"86","num_nodes":"45","size_leaf_vector":"1"}},{"base_weights":[3.4601234E-2,-7.17403E-1,8.913693E-1,-1.0392379E0,-5.139444E-2,4.8381922E-1,1.421454E0,-2.9589313E-1,-1.3425344E0,4.417852E-1,-7.590268E-1,1.0124465E0,2.29934E-1,1.9098388E-1,1.4831016E0,-7.171256E-1,5.474753E-1,-1.4391425E0,2.3352191E-1,-1.3441162E-1,1.0498536E0,-1.3431964E0,9.8115414E-1,1.1331072E0,-1.9477513E-2,-1.3637196E0,4.0737492E-1,-9.175266E-2,8.3006896E-2,-1.1136894E-3,1.5267829E0,4.6363773E-4,-7.955515E-2,5.9934985E-2,-4.454307E-2,-5.0862003E-2,-8.8496104E-2,-9.064421E-2,6.0164668E-2,-7.037979E-2,3.3454977E-2,7.030211E-2,9.838502E-3,5.5912263E-3,-9.733623E-2,-1.563224E-2,8.493461E-2,-1.5580636E-2,6.332888E-2,4.3704018E-2,-9.7490735E-2,-9.241968E-2,2.4627734E-2,2.2689242E-2,7.752671E-2],"categories":[],"categories_nodes":[],"categories_segments":[],"categories_sizes":[],"default_left":[0,0,0,0,0,0,0,0,0,0,0,0,0,0,0,0,0,0,0,0,0,0,0,0,0,0,0,0,0,0,0,0,0,0,0,0,0,0,0,0,0,0,0,0,0,0,0,0,0,0,0,0,0,0,0],"id":1,"left_children":[1,3,5,7,9,11,13,15,17,19,21,23,25,27,29,31,33,35,37,39,41,43,45,47,-1,49,51,-1,-1,-1,53,-1,-1,-1,-1,-1,-1,-1,-1,-1,-1,-1,-1,-1,-1,-1,-1,-1,-1,-1,-1,-1,-1,-1,-1],"loss_changes":[1.7855137E3,3.1617175E2,2.7898267E2,2.2373206E2,1.6856918E2,9.8151855E1,4.221411E1,1.0331499E2,1.0797998E2,9.993675E1,2.0303783E2,4.0729813E1,1.4107693E2,8.655109E1,3.5389893E1,1.2313964E2,9.193291E1,9.0809204E1,8.4653114E1,1.5131386E2,4.169423E1,1.3124557E2,4.7456165E1,4.2758606E1,0E0,6.738138E1,8.690886E1,0E0,0E0,0E0,1.2357544E1,0E0,0E0,0E0,0E0,0E0,0E0,0E0,0E0,0E0,0E0,0E0,0E0,0E0,0E0,0E0,0E0,0E0,0E0,0E0,0E0,0E0,0E0,0E0,0E0],"parents":[2147483647,0,0,1,1,2,2,3,3,4,4,5,5,6,6,7,7,8,8,9,9,10,10,11,11,12,12,13,13,14,14,15,15,16,16,17,17,18,18,19,19,20,20,21,21,22,22,23,23,25,25,26,26,30,30],"right_children":[2,4,6,8,10,12,14,16,18,20,22,24,26,28,30,32,34,36,38,40,42,44,46,48,-1,50,52,-1,-1,-1,54,-1,-1,-1,-1,-1,-1,-1,-1,-1,-1,-1,-1,-1,-1,-1,-1,-1,-1,-1,-1,-1,-1,-1,-1],"split_conditions":[2.1887321E-3,1.4605247E-2,8.945753E-4,-4.09221E-3,-1.3175231E-8,-7.372717E-4,3.132579E-3,-4.9208663E-3,1.0330094E-3,1E0,1.4967122E-2,5.288001E-3,-2.2367171E-3,9.4696967E-4,4.303675E1,-1.1559209E-3,-2.8775205E-4,-1.2468953E-3,7.165035E-4,2.0097295E-2,1.8918914E-1,1.331678E-1,6.4834724E-3,2.3552913E-3,-1.9477513E-2,-2.2184214E-2,-1.7445089E-3,-9.175266E-2,8.3006896E-2,-1.1136894E-3,4.5239944E-3,4.6363773E-4,-7.955515E-2,5.9934985E-2,-4.454307E-2,-5.0862003E-2,-8.8496104E-2,-9.064421E-2,6.0164668E-2,-7.037979E-2,3.3454977E-2,7.030211E-2,9.838502E-3,5.5912263E-3,-9.733623E-2,-1.563224E-2,8.493461E-2,-1.5580636E-2,6.332888E-2,4.3704018E-2,-9.7490735E-2,-9.241968E-2,2.4627734E-2,2.2689242E-2,7.752671E-2],"split_indices":[50,47,24,18,16,24,55,18,23,48,18,50,31,7,38,21,24,68,21,47,70,61,16,55,0,4,32,0,0,0,19,0,0,0,0,0,0,0,0,0,0,0,0,0,0,0,0,0,0,0,0,0,0,0,0],"split_type":[0,0,0,0,0,0,0,0,0,0,0,0,0,0,0,0,0,0,0,0,0,0,0,0,0,0,0,0,0,0,0,0,0,0,0,0,0,0,0,0,0,0,0,0,0,0,0,0,0,0,0,0,0,0,0],"sum_hessian":[2.7692556E3,1.4748197E3,1.2944358E3,9.9385114E2,4.8096854E2,7.3298737E2,5.614484E2,2.8866705E2,7.051841E2,2.835704E2,1.9739813E2,2.3671967E2,4.9626773E2,2.7059948E1,5.343885E2,1.9269235E2,9.597469E1,6.6459644E2,4.0587666E1,1.4591652E2,1.376539E2,1.4800067E2,4.939746E1,2.1820345E2,1.851622E1,4.8993385E1,4.4727432E2,1.1240968E1,1.5818979E1,1.5018289E1,5.193702E2,1.05708595E2,8.698376E1,6.6226135E1,2.9748562E1,2.939926E2,3.7060382E2,1.2737196E1,2.785047E1,5.6215015E1,8.97015E1,9.656827E1,4.1085625E1,4.3581318E1,1.0441936E2,1.7773972E1,3.1623487E1,1.8277613E1,1.9992583E2,1.0031109E1,3.8962276E1,1.5478984E1,4.3179535E2,1.1774072E1,5.0759613E2],"tree_param":{"num_deleted":"0","num_feature":"86","num_nodes":"55","size_leaf_vector":"1"}},{"base_weights":[4.2164426E-2,-7.1198225E-1,8.586495E-1,-8.6402756E-1,3.990377E-1,4.8019075E-1,1.283889E0,-2.276089E-1,-1.1400263E0,8.569655E-1,-9.2888676E-2,6.181729E-1,-9.8124343E-1,-5.614722E-1,1.3466073E0,-6.0058266E-1,9.365622E-1,-1.4535334E0,-7.245844E-1,1.2883803E0,-3.9589208E-1,-1.0190318E0,7.0529747E-1,4.1619042E-1,-9.56846E-2,4.033546E-2,-9.305481E-2,4.9712217E-1,1.4546784E0,-3.9849444E-3,-6.9366865E-2,-4.138383E-4,7.056775E-2,-8.225704E-2,-3.1599637E-2,-1.5264793E-2,-7.2344296E-2,7.8345895E-2,-1.0971656E-2,-9.353997E-2,7.882603E-2,4.3536406E-2,-9.435354E-2,3.778555E-2,-9.134139E-2,4.4042658E-2,2.337265E-3,-9.5951475E-2,5.4770697E-2,-2.475494E-3,7.495028E-2],"categories":[],"categories_nodes":[],"categories_segments":[],"categories_sizes":[],"default_left":[0,0,0,0,0,0,0,0,0,0,0,0,0,0,0,0,0,0,0,0,0,0,0,0,0,0,0,0,0,0,0,0,0,0,0,0,0,0,0,0,0,0,0,0,0,0,0,0,0,0,0],"id":2,"left_children":[1,3,5,7,9,11,13,15,17,19,-1,21,23,25,27,29,31,33,35,37,39,41,43,45,-1,-1,-1,47,49,-1,-1,-1,-1,-1,-1,-1,-1,-1,-1,-1,-1,-1,-1,-1,-1,-1,-1,-1,-1,-1,-1],"loss_changes":[1.7063531E3,2.4373505E2,2.1335223E2,2.2224542E2,1.8132806E2,1.4288808E2,7.327075E1,1.6760019E2,1.1383215E2,7.9178604E1,0E0,9.276912E1,8.070516E1,3.9348118E1,5.468213E1,1.1944234E2,4.2180542E1,7.783826E1,1.15137955E2,4.6020706E1,1.1336334E2,5.582585E1,7.959912E1,4.205047E0,0E0,0E0,0E0,1.0317578E2,3.6002075E1,0E0,0E0,0E0,0E0,0E0,0E0,0E0,0E0,0E0,0E0,0E0,0E0,0E0,0E0,0E0,0E0,0E0,0E0,0E0,0E0,0E0,0E0],"parents":[2147483647,0,0,1,1,2,2,3,3,4,4,5,5,6,6,7,7,8,8,9,9,11,11,12,12,13,13,14,14,15,15,16,16,17,17,18,18,19,19,20,20,21,21,22,22,23,23,27,27,28,28],"right_children":[2,4,6,8,10,12,14,16,18,20,-1,22,24,26,28,30,32,34,36,38,40,42,44,46,-1,-1,-1,48,50,-1,-1,-1,-1,-1,-1,-1,-1,-1,-1,-1,-1,-1,-1,-1,-1,-1,-1,-1,-1,-1,-1],"split_conditions":[2.175112E-3,2.1765538E-2,3.9146E-3,-4.09221E-3,9.078323E-2,5.6445923E0,3.860083E-3,-4.556272E-3,4.2921086E-4,1.544897E-3,-9.2888676E-2,-5.519558E-3,1.0984358E0,-7.110238E-3,1.2406948E-3,9.374997E-2,2.999999E-1,2.1858653E-3,1E0,3.7149474E-4,1.0560104E-2,-1.2330456E-8,2.6088946E0,-4.816193E-4,-9.56846E-2,4.033546E-2,-9.305481E-2,-1.026694E-8,-1.1708768E-2,-3.9849444E-3,-6.9366865E-2,-4.138383E-4,7.056775E-2,-8.225704E-2,-3.1599637E-2,-1.5264793E-2,-7.2344296E-2,7.8345895E-2,-1.0971656E-2,-9.353997E-2,7.882603E-2,4.3536406E-2,-9.435354E-2,3.778555E-2,-9.134139E-2,4.4042658E-2,2.337265E-3,-9.5951475E-2,5.4770697E-2,-2.475494E-3,7.495028E-2],"split_indices":[50,47,49,18,77,40,55,18,22,53,0,20,51,3,5,64,64,54,56,32,29,67,60,28,0,0,0,15,28,0,0,0,0,0,0,0,0,0,0,0,0,0,0,0,0,0,0,0,0,0,0],"split_type":[0,0,0,0,0,0,0,0,0,0,0,0,0,0,0,0,0,0,0,0,0,0,0,0,0,0,0,0,0,0,0,0,0,0,0,0,0,0,0,0,0,0,0,0,0,0,0,0,0,0,0],"sum_hessian":[2.7691643E3,1.4395392E3,1.3296252E3,1.2665249E3,1.7301419E2,7.047603E2,6.2486487E2,3.8377493E2,8.8275E2,1.4438228E2,2.863191E1,6.445502E2,6.0210133E1,2.0225388E1,6.046395E2,2.9108725E2,9.268768E1,5.0153482E2,3.8121518E2,1.07438034E2,3.694424E1,3.1968525E1,6.1258167E2,2.4275522E1,3.5934612E1,1.0000097E1,1.022529E1,6.897686E1,5.3566266E2,1.7587485E2,1.1521241E2,3.125737E1,6.143031E1,4.0577252E2,9.5762314E1,2.4218843E2,1.3902675E2,9.0708595E1,1.6729437E1,2.119644E1,1.5747803E1,1.0025111E1,2.1943413E1,6.013501E2,1.1231568E1,1.0019165E1,1.4256357E1,1.3218876E1,5.5757988E1,1.5265746E1,5.203969E2],"tree_param":{"num_deleted":"0","num_feature":"86","num_nodes":"51","size_leaf_vector":"1"}},{"base_weights":[7.591705E-3,-7.630578E-1,6.770497E-1,-6.1728116E-2,-1.1230422E0,2.9219317E-1,1.2434953E0,7.8540856E-1,-3.4938776E-1,-1.2238934E0,5.249931E-1,-3.307357E-1,6.0060847E-1,-7.777962E-3,1.3078898E0,-8.970307E-2,1.1083761E0,-9.366318E-2,1.2180311E-1,-1.0080361E0,-1.6918999E0,1.3958327E0,-5.5886805E-1,8.1646875E-2,-9.6068986E-2,-6.09745E-1,8.054166E-1,-9.293357E-2,6.2823996E-2,-1.0126371E-2,1.3512583E0,-1.3381094E-2,7.09889E-2,1.8305965E-2,-8.944478E-2,-6.358503E-2,-3.6954524E-3,-9.0160385E-2,-1.5869336E-2,9.043808E-2,3.55197E-2,-8.575567E-2,3.717244E-2,2.115448E-2,-9.3319565E-2,-9.841531E-2,2.6171688E-2,4.9086E-2,8.114351E-3,5.222493E-4,6.9354355E-2],"categories":[],"categories_nodes":[],"categories_segments":[],"categories_sizes":[],"default_left":[0,0,0,0,0,0,0,0,0,0,0,0,0,0,0,0,0,0,0,0,0,0,0,0,0,0,0,0,0,0,0,0,0,0,0,0,0,0,0,0,0,0,0,0,0,0,0,0,0,0,0],"id":3,"left_children":[1,3,5,7,9,11,13,15,17,19,21,23,25,27,29,-1,31,-1,33,35,37,39,41,43,-1,45,47,-1,-1,-1,49,-1,-1,-1,-1,-1,-1,-1,-1,-1,-1,-1,-1,-1,-1,-1,-1,-1,-1,-1,-1],"loss_changes":[1.3997424E3,3.1821906E2,3.1600842E2,1.04755066E2,1.3920398E2,1.665954E2,4.7436462E1,9.268358E1,2.3087816E2,7.7383545E1,4.682343E1,1.8879785E2,1.4420323E2,7.177136E1,3.696222E1,0E0,4.2263412E1,0E0,1.15377045E2,1.328258E2,3.6903503E1,6.20047E0,3.5036003E1,1.530043E2,0E0,1.3109193E2,5.5996613E1,0E0,0E0,0E0,2.5928833E1,0E0,0E0,0E0,0E0,0E0,0E0,0E0,0E0,0E0,0E0,0E0,0E0,0E0,0E0,0E0,0E0,0E0,0E0,0E0,0E0],"parents":[2147483647,0,0,1,1,2,2,3,3,4,4,5,5,6,6,7,7,8,8,9,9,10,10,11,11,12,12,13,13,14,14,16,16,18,18,19,19,20,20,21,21,22,22,23,23,25,25,26,26,30,30],"right_children":[2,4,6,8,10,12,14,16,18,20,22,24,26,28,30,-1,32,-1,34,36,38,40,42,44,-1,46,48,-1,-1,-1,50,-1,-1,-1,-1,-1,-1,-1,-1,-1,-1,-1,-1,-1,-1,-1,-1,-1,-1,-1,-1],"split_conditions":[1.7150085E-3,-4.09221E-3,4.007381E-3,-2.4842243E-3,1.0495723E-2,-4.2745483E-4,-1.2834401E-2,-4.0628324E-6,-3.2822867E-3,-1.222506E-3,9.259247E-1,6.440678E-1,-3.5731243E-6,6.8428335E-3,1.0169491E-1,-8.970307E-2,-9.808946E-3,-9.366318E-2,7.2019863E-1,-2.0811758E-3,1.0330094E-3,1.9721705E-3,5.699482E-3,-2.5706942E-4,-9.6068986E-2,9.999975E-1,1.0127207E-3,-9.293357E-2,6.2823996E-2,-1.0126371E-2,3.5055354E-3,-1.3381094E-2,7.09889E-2,1.8305965E-2,-8.944478E-2,-6.358503E-2,-3.6954524E-3,-9.0160385E-2,-1.5869336E-2,9.043808E-2,3.55197E-2,-8.575567E-2,3.717244E-2,2.115448E-2,-9.3319565E-2,-9.841531E-2,2.6171688E-2,4.9086E-2,8.114351E-3,5.222493E-4,6.9354355E-2],"split_indices":[49,18,49,27,4,22,2,37,68,66,71,84,37,18,84,0,18,0,61,66,23,21,20,20,0,11,23,0,0,0,55,0,0,0,0,0,0,0,0,0,0,0,0,0,0,0,0,0,0,0,0],"split_type":[0,0,0,0,0,0,0,0,0,0,0,0,0,0,0,0,0,0,0,0,0,0,0,0,0,0,0,0,0,0,0,0,0,0,0,0,0,0,0,0,0,0,0,0,0,0,0,0,0,0,0],"sum_hessian":[2.7111277E3,1.2601785E3,1.4509492E3,4.2792822E2,8.322503E2,8.6496436E2,5.8598486E2,1.0794883E2,3.199794E2,7.845575E2,4.769281E1,2.8630222E2,5.786621E2,2.8647676E1,5.573372E2,1.1470662E1,9.6478165E1,7.491946E1,2.4505994E2,5.392215E2,2.45336E2,2.6336725E1,2.1356085E1,2.2806183E2,5.8240395E1,8.338962E1,4.9527252E2,1.1467705E1,1.7179972E1,1.5389322E1,5.419479E2,1.777128E1,7.870689E1,2.1804039E2,2.7019547E1,4.201598E2,1.190617E2,2.2660126E2,1.8734755E1,1.5321727E1,1.10149975E1,1.1185235E1,1.0170851E1,1.9475948E2,3.3302353E1,3.7628414E1,4.5761204E1,3.8817795E2,1.0709457E2,1.421113E1,5.2773676E2],"tree_param":{"num_deleted":"0","num_feature":"86","num_nodes":"51","size_leaf_vector":"1"}},{"base_weights":[4.590412E-2,-6.785031E-1,6.788799E-1,2.1162858E-2,-1.027352E0,4.3865082E-1,1.3609755E0,6.875476E-1,-3.2680824E-1,-1.1865757E0,1.9745776E-1,5.449401E-1,-8.624258E-1,1.1111995E0,1.5747143E0,-6.412845E-2,1.2504406E0,-1.0021229E0,6.914428E-1,3.3034045E-2,-1.301966E0,-8.6692065E-2,5.3459424E-1,-7.737366E-1,6.145271E-1,3.5637242E-1,-9.46452E-2,1.3237667E0,-6.1896276E-2,1.3263406E0,1.6655719E0,-8.916338E-2,6.571361E-2,-1.15526095E-2,8.16506E-2,-6.779389E-2,-6.7382874E-3,-8.564094E-2,4.840485E-2,5.3732544E-2,-8.363548E-2,-7.657864E-2,-3.0882334E-2,5.1051855E-2,-3.3037834E-2,7.63164E-2,-9.4208024E-2,2.2487083E-2,5.6881934E-2,-8.6297594E-2,5.9885275E-2,7.354187E-2,-5.2483194E-3,-1.00218095E-1,7.5220875E-2,7.5117424E-2,2.2943387E-2,8.554768E-2,6.1640795E-2],"categories":[],"categories_nodes":[],"categories_segments":[],"categories_sizes":[],"default_left":[0,0,0,0,0,0,0,0,0,0,0,0,0,0,0,0,0,0,0,0,0,0,0,0,0,0,0,0,0,0,0,0,0,0,0,0,0,0,0,0,0,0,0,0,0,0,0,0,0,0,0,0,0,0,0,0,0,0,0],"id":4,"left_children":[1,3,5,7,9,11,13,15,17,19,21,23,25,27,29,31,33,35,37,39,41,-1,43,45,47,49,-1,51,53,55,57,-1,-1,-1,-1,-1,-1,-1,-1,-1,-1,-1,-1,-1,-1,-1,-1,-1,-1,-1,-1,-1,-1,-1,-1,-1,-1,-1,-1],"loss_changes":[1.256337E3,3.1196448E2,2.3882953E2,9.903426E1,1.6662012E2,1.5020557E2,1.8283447E1,6.2204323E1,1.9355011E2,1.063927E2,6.5188324E1,9.239517E1,1.0395073E2,4.483641E1,2.0571594E0,1.5316153E2,4.8081665E1,5.1543457E1,7.631319E1,1.1925179E2,1.0719995E2,0E0,5.0131027E1,1.3212148E2,8.141843E1,6.9312294E1,0E0,3.2152557E1,8.928402E1,8.182289E0,4.2279053E-1,0E0,0E0,0E0,0E0,0E0,0E0,0E0,0E0,0E0,0E0,0E0,0E0,0E0,0E0,0E0,0E0,0E0,0E0,0E0,0E0,0E0,0E0,0E0,0E0,0E0,0E0,0E0,0E0],"parents":[2147483647,0,0,1,1,2,2,3,3,4,4,5,5,6,6,7,7,8,8,9,9,10,10,11,11,12,12,13,13,14,14,15,15,16,16,17,17,18,18,19,19,20,20,22,22,23,23,24,24,25,25,27,27,28,28,29,29,30,30],"right_children":[2,4,6,8,10,12,14,16,18,20,22,24,26,28,30,32,34,36,38,40,42,-1,44,46,48,50,-1,52,54,56,58,-1,-1,-1,-1,-1,-1,-1,-1,-1,-1,-1,-1,-1,-1,-1,-1,-1,-1,-1,-1,-1,-1,-1,-1,-1,-1,-1,-1],"split_conditions":[1.7150085E-3,-4.191553E-3,2.6608218E-2,-5.332492E-1,2.255014E-3,5.4005737E0,9.325923E-3,-5.972826E-1,2.3749308E-3,-1.4128072E0,1.7391305E-1,-1.1806375E-8,2E0,1.2255055E-2,6.3761957E-3,1.8223502E-2,-6.2573017E-3,-5.0116484E-3,-2.3524663E-3,6.249997E-1,4.2149107E-4,-8.6692065E-2,8.148139E-1,1.3413571E1,3.6363637E-3,-1.6946933E-1,-9.46452E-2,1.0859076E0,2.0209483E-3,6.0308944E-3,4E0,-8.916338E-2,6.571361E-2,-1.15526095E-2,8.16506E-2,-6.779389E-2,-6.7382874E-3,-8.564094E-2,4.840485E-2,5.3732544E-2,-8.363548E-2,-7.657864E-2,-3.0882334E-2,5.1051855E-2,-3.3037834E-2,7.63164E-2,-9.4208024E-2,2.2487083E-2,5.6881934E-2,-8.6297594E-2,5.9885275E-2,7.354187E-2,-5.2483194E-3,-1.00218095E-1,7.5220875E-2,7.5117424E-2,2.2943387E-2,8.554768E-2,6.1640795E-2],"split_indices":[49,18,19,60,31,40,16,60,53,77,83,69,13,4,5,47,18,18,30,71,23,0,71,38,5,59,0,51,36,53,13,0,0,0,0,0,0,0,0,0,0,0,0,0,0,0,0,0,0,0,0,0,0,0,0,0,0,0,0],"split_type":[0,0,0,0,0,0,0,0,0,0,0,0,0,0,0,0,0,0,0,0,0,0,0,0,0,0,0,0,0,0,0,0,0,0,0,0,0,0,0,0,0,0,0,0,0,0,0,0,0,0,0,0,0,0,0,0,0,0,0],"sum_hessian":[2.7379053E3,1.2766346E3,1.4612705E3,4.249633E2,8.5167145E2,1.081991E3,3.792796E2,1.4554593E2,2.7941736E2,7.5379224E2,9.787916E1,1.0008834E3,8.110748E1,1.7796992E2,2.013097E2,6.2625496E1,8.292043E1,1.6806737E2,1.1134998E2,6.5140564E1,6.886517E2,1.3887074E1,8.399209E1,4.959024E1,9.512932E2,3.7413635E1,4.369385E1,1.5063193E2,2.7337988E1,5.839002E1,1.4291968E2,2.776983E1,3.4855667E1,1.7045822E1,6.587461E1,1.1889648E2,4.917089E1,1.0917642E1,1.0043234E2,4.070969E1,2.4430876E1,5.1460443E2,1.7404729E2,5.9861282E1,2.4130806E1,1.599486E1,3.3595383E1,7.2497095E2,2.2632227E2,1.0429645E1,2.698399E1,1.366101E2,1.4021816E1,1.2107293E1,1.5230695E1,4.78369E1,1.0553118E1,1.26472244E2,1.6447433E1],"tree_param":{"num_deleted":"0","num_feature":"86","num_nodes":"59","size_leaf_vector":"1"}},{"base_weights":[-3.3007902E-3,-5.70657E-1,8.696733E-1,-4.9286544E-2,-8.5059893E-1,5.9801537E-1,1.3483087E0,7.865019E-2,-8.894848E-2,-1.2780888E0,-1.378395E-1,-1.0837353E0,6.831963E-1,1.1282042E0,1.5115223E0,-8.914827E-2,1.7475708E-1,4.1756745E-2,-1.3490014E0,-9.213456E-2,1.4607361E-1,3.6359712E-2,-9.673295E-2,1.058081E0,3.6328614E-1,1.2594426E0,-9.422478E-3,4.5541994E-2,7.8014635E-2,-4.479533E-2,1.5592389E-2,-4.5394234E-2,-8.230257E-2,1.8196141E-2,-8.8954315E-2,2.2136321E-2,6.680002E-2,-6.789207E-2,3.1108502E-2,1.3336453E-2,6.7177616E-2],"categories":[],"categories_nodes":[],"categories_segments":[],"categories_sizes":[],"default_left":[0,0,0,0,0,0,0,0,0,0,0,0,0,0,0,0,0,0,0,0,0,0,0,0,0,0,0,0,0,0,0,0,0,0,0,0,0,0,0,0,0],"id":5,"left_children":[1,3,5,7,9,11,13,15,-1,17,19,21,23,25,27,-1,29,-1,31,-1,33,-1,-1,35,37,39,-1,-1,-1,-1,-1,-1,-1,-1,-1,-1,-1,-1,-1,-1,-1],"loss_changes":[1.3233601E3,2.3624329E2,1.3584229E2,1.2577565E2,3.206964E2,9.7154495E1,1.1686279E1,9.476583E1,0E0,9.983533E1,1.9220865E2,5.205483E1,7.641098E1,2.9038528E1,4.632202E0,0E0,7.417226E1,0E0,8.177222E1,0E0,1.4331416E2,0E0,0E0,4.9632477E1,1.5574493E2,1.2105789E1,0E0,0E0,0E0,0E0,0E0,0E0,0E0,0E0,0E0,0E0,0E0,0E0,0E0,0E0,0E0],"parents":[2147483647,0,0,1,1,2,2,3,3,4,4,5,5,6,6,7,7,9,9,10,10,11,11,12,12,13,13,14,14,16,16,18,18,20,20,23,23,24,24,25,25],"right_children":[2,4,6,8,10,12,14,16,-1,18,20,22,24,26,28,-1,30,-1,32,-1,34,-1,-1,36,38,40,-1,-1,-1,-1,-1,-1,-1,-1,-1,-1,-1,-1,-1,-1,-1],"split_conditions":[2.5109819E-3,-4.09221E-3,2.6608218E-2,3.787866E-3,1.3829811E-3,1.0169491E-1,8.368201E-3,8.056758E-4,-8.894848E-2,-1.7082498E-3,-2.0429017E-3,3.0610685E1,9.6339786E-1,6.673105E-3,3.333322E-1,-8.914827E-2,-1.5465728E-2,4.1756745E-2,-2.0917172E-4,-9.213456E-2,3.5107455E0,3.6359712E-2,-9.673295E-2,4.0593115E-3,3.3404215E-3,2.475097E-2,-9.422478E-3,4.5541994E-2,7.8014635E-2,-4.479533E-2,1.5592389E-2,-4.5394234E-2,-8.230257E-2,1.8196141E-2,-8.8954315E-2,2.2136321E-2,6.680002E-2,-6.789207E-2,3.1108502E-2,1.3336453E-2,6.7177616E-2],"split_indices":[49,18,19,69,49,84,9,54,0,36,3,38,51,53,62,0,19,0,18,0,40,0,0,54,53,47,0,0,0,0,0,0,0,0,0,0,0,0,0,0,0],"split_type":[0,0,0,0,0,0,0,0,0,0,0,0,0,0,0,0,0,0,0,0,0,0,0,0,0,0,0,0,0,0,0,0,0,0,0,0,0,0,0,0,0],"sum_hessian":[2.6699622E3,1.6185245E3,1.0514375E3,5.659741E2,1.0525504E3,6.7231287E2,3.7912463E2,5.278297E2,3.8144432E1,6.5735614E2,3.9519427E2,3.1789381E1,6.405235E2,1.6505806E2,2.1406657E2,2.4999054E1,5.0283066E2,2.0946766E1,6.3640936E2,5.5683838E1,3.3951044E2,1.0171134E1,2.1618246E1,2.9371518E2,3.4680832E2,1.5020561E2,1.4852438E1,1.7706785E1,1.9635979E2,5.6364594E1,4.4646606E2,2.57869E2,3.785404E2,3.0577246E2,3.3738003E1,9.2300644E1,2.0141454E2,4.4739197E1,3.0206912E2,1.215109E1,1.3805453E2],"tree_param":{"num_deleted":"0","num_feature":"86","num_nodes":"41","size_leaf_vector":"1"}},{"base_weights":[6.407231E-2,-5.303564E-1,7.3276156E-1,-2.7646495E-2,-7.83548E-1,3.746227E-1,1.1334863E0,1.06202394E-1,-8.955812E-2,-9.6893156E-1,2.1123992E-1,5.0505495E-1,-9.156127E-1,-1.6900297E-2,1.1778939E0,-8.5652284E-2,2.2065848E-1,-5.462983E-1,-1.2521061E0,5.210578E-1,-8.805876E-2,-1.083774E0,5.990492E-1,-8.734994E-2,6.3170487E-1,-1.0007418E-2,1.2161349E0,1.5666923E-2,-8.425707E-2,-4.070456E-2,2.6758254E-2,-2.0844815E-2,-7.271933E-2,-8.3706476E-2,4.0117744E-2,-9.276756E-2,3.5504982E-2,5.1540226E-2,1.8578684E-2,2.2652714E-2,3.8221415E-2,3.746881E-2,6.490735E-2],"categories":[],"categories_nodes":[],"categories_segments":[],"categories_sizes":[],"default_left":[0,0,0,0,0,0,0,0,0,0,0,0,0,0,0,0,0,0,0,0,0,0,0,0,0,0,0,0,0,0,0,0,0,0,0,0,0,0,0,0,0,0,0],"id":6,"left_children":[1,3,5,7,9,11,13,15,-1,17,19,21,23,-1,25,-1,27,29,31,33,-1,35,37,-1,39,-1,41,-1,-1,-1,-1,-1,-1,-1,-1,-1,-1,-1,-1,-1,-1,-1,-1],"loss_changes":[1.0823948E3,1.8338004E2,1.8334088E2,1.1460895E2,1.7704956E2,1.145779E2,3.9961975E1,9.408905E1,0E0,9.586365E1,9.32537E1,9.271051E1,8.16983E1,0E0,3.1266113E1,0E0,7.546237E1,9.492805E1,8.081506E1,8.250627E1,0E0,4.9525227E1,5.6738205E1,0E0,6.682873E-2,0E0,2.0685242E1,0E0,0E0,0E0,0E0,0E0,0E0,0E0,0E0,0E0,0E0,0E0,0E0,0E0,0E0,0E0,0E0],"parents":[2147483647,0,0,1,1,2,2,3,3,4,4,5,5,6,6,7,7,9,9,10,10,11,11,12,12,14,14,16,16,17,17,18,18,19,19,21,21,22,22,24,24,26,26],"right_children":[2,4,6,8,10,12,14,16,-1,18,20,22,24,-1,26,-1,28,30,32,34,-1,36,38,-1,40,-1,42,-1,-1,-1,-1,-1,-1,-1,-1,-1,-1,-1,-1,-1,-1,-1,-1],"split_conditions":[2.175112E-3,-4.09221E-3,4.007381E-3,1.7827601E-3,2.255014E-3,5.6445923E0,-1.1708768E-2,8.056758E-4,-8.955812E-2,5E-1,5.6817976E-7,-2.0637608E-3,4.206683E-3,-1.6900297E-2,3.5055354E-3,-8.5652284E-2,2.4662393E-6,2.7503911E-3,6.314867E-4,1.7391305E-1,-8.805876E-2,7.100567E-4,1.4420635E-2,-8.734994E-2,2.275314E-3,-1.0007418E-2,-7.485337E-1,1.5666923E-2,-8.425707E-2,-4.070456E-2,2.6758254E-2,-2.0844815E-2,-7.271933E-2,-8.3706476E-2,4.0117744E-2,-9.276756E-2,3.5504982E-2,5.1540226E-2,1.8578684E-2,2.2652714E-2,3.8221415E-2,3.746881E-2,6.490735E-2],"split_indices":[50,18,49,49,31,40,28,54,0,85,37,36,54,0,55,0,37,53,54,83,0,24,47,0,3,0,59,0,0,0,0,0,0,0,0,0,0,0,0,0,0,0,0],"split_type":[0,0,0,0,0,0,0,0,0,0,0,0,0,0,0,0,0,0,0,0,0,0,0,0,0,0,0,0,0,0,0,0,0,0,0,0,0,0,0,0,0,0,0],"sum_hessian":[2.7210588E3,1.4405471E3,1.2805116E3,4.8301956E2,9.575276E2,6.773392E2,6.0317236E2,4.4976593E2,3.325366E1,8.0722394E2,1.5030362E2,6.157754E2,6.1563786E1,1.7410015E1,5.857624E2,2.5743265E1,4.2402264E2,3.251802E2,4.8204373E2,1.3057935E2,1.9724276E1,3.374662E1,5.820288E2,4.0004585E1,2.15592E1,1.563122E1,5.7013116E2,4.0520538E2,1.8817276E1,2.609125E2,6.4267685E1,9.46777E1,3.8736606E2,1.4229347E1,1.1635E2,2.3612104E1,1.0134515E1,1.9946577E2,3.8256302E2,1.1392052E1,1.0167149E1,8.690151E1,4.832296E2],"tree_param":{"num_deleted":"0","num_feature":"86","num_nodes":"43","size_leaf_vector":"1"}},{"base_weights":[-1.9339502E-2,-5.3762364E-1,7.014704E-1,-1.01293445E-1,-8.1440634E-1,3.9454326E-1,1.0769794E0,-8.621933E-2,2.8068796E-2,-1.096514E0,9.6860975E-3,-5.110644E-1,6.1052936E-1,7.131083E-1,1.1728771E0,2.4548852E-1,-1.0861702E0,-1.4833118E0,-6.784442E-1,-8.781619E-2,5.05663E-1,-9.7050205E-2,2.1809448E-1,7.7751577E-1,-1.3885693E-1,1.0360537E0,-1.0316428E-1,-6.5959655E-3,1.2254716E0,-1.042536E-3,4.9294956E-2,3.2567207E-2,-8.41991E-2,3.493289E-2,-7.8030854E-2,2.2097988E-2,-6.1669003E-2,9.164818E-2,6.4120926E-3,3.4866434E-2,-9.521862E-2,4.5373004E-2,-1.0038998E-2,-9.914332E-2,4.7868006E-2,6.5672174E-2,-2.1405188E-2,3.148123E-2,6.45565E-2],"categories":[],"categories_nodes":[],"categories_segments":[],"categories_sizes":[],"default_left":[0,0,0,0,0,0,0,0,0,0,0,0,0,0,0,0,0,0,0,0,0,0,0,0,0,0,0,0,0,0,0,0,0,0,0,0,0,0,0,0,0,0,0,0,0,0,0,0,0],"id":7,"left_children":[1,3,5,7,9,11,13,-1,15,17,19,21,23,25,27,29,31,33,35,-1,37,-1,39,41,43,45,-1,-1,47,-1,-1,-1,-1,-1,-1,-1,-1,-1,-1,-1,-1,-1,-1,-1,-1,-1,-1,-1,-1],"loss_changes":[9.7917114E2,1.8397302E2,1.2577612E2,1.2475041E2,2.1695312E2,1.1864731E2,1.6154236E1,0E0,1.3348474E2,1.1115338E2,2.0989178E2,1.22532646E2,6.1362778E1,9.658912E1,2.6888367E1,9.1085884E1,9.4630165E1,6.1900146E1,2.0949034E2,0E0,9.336075E1,0E0,8.085705E1,5.1120865E1,1.8361836E2,3.9301575E1,0E0,0E0,1.3587891E1,0E0,0E0,0E0,0E0,0E0,0E0,0E0,0E0,0E0,0E0,0E0,0E0,0E0,0E0,0E0,0E0,0E0,0E0,0E0,0E0],"parents":[2147483647,0,0,1,1,2,2,3,3,4,4,5,5,6,6,8,8,9,9,10,10,11,11,12,12,13,13,14,14,15,15,16,16,17,17,18,18,20,20,22,22,23,23,24,24,25,25,28,28],"right_children":[2,4,6,8,10,12,14,-1,16,18,20,22,24,26,28,30,32,34,36,-1,38,-1,40,42,44,46,-1,-1,48,-1,-1,-1,-1,-1,-1,-1,-1,-1,-1,-1,-1,-1,-1,-1,-1,-1,-1,-1,-1],"split_conditions":[2.2882887E-3,-9.215958E-4,8.945753E-4,5.6897406E-4,4.0491647E-4,-8.6016744E-1,-1.4214759E-3,-8.621933E-2,1.7968529E-6,9.309933E-3,-4.4712615E-3,-4.6780746E-4,7.631131E-4,-4.055355E-3,2.9381649E-3,-1.881979E-4,-1.0142928E-3,1.6949153E-2,1.0864024E-2,-8.781619E-2,-2.3117199E-4,-9.7050205E-2,2.9946896E-3,5.3151493E-4,-1.0212455E-3,-6.2772743E-3,-1.0316428E-1,-6.5959655E-3,-4.6651118E-4,-1.042536E-3,4.9294956E-2,3.2567207E-2,-8.41991E-2,3.493289E-2,-7.8030854E-2,2.2097988E-2,-6.1669003E-2,9.164818E-2,6.4120926E-3,3.4866434E-2,-9.521862E-2,4.5373004E-2,-1.0038998E-2,-9.914332E-2,4.7868006E-2,6.5672174E-2,-2.1405188E-2,3.148123E-2,6.45565E-2],"split_indices":[49,30,24,53,24,59,15,0,37,47,44,23,36,15,54,23,36,84,47,0,16,0,49,24,44,16,0,0,22,0,0,0,0,0,0,0,0,0,0,0,0,0,0,0,0,0,0,0,0],"split_type":[0,0,0,0,0,0,0,0,0,0,0,0,0,0,0,0,0,0,0,0,0,0,0,0,0,0,0,0,0,0,0,0,0,0,0,0,0,0,0,0,0,0,0,0,0,0,0,0,0],"sum_hessian":[2.6190522E3,1.5237922E3,1.0952599E3,5.9210455E2,9.316877E2,6.0393933E2,4.913206E2,4.2854694E1,5.492499E2,6.93929E2,2.3775868E2,1.1594878E2,4.8799054E2,1.04455826E2,3.8686475E2,4.603014E2,8.894846E1,3.5899762E2,3.349314E2,5.1531006E1,1.8622768E2,3.8642624E1,7.730615E1,3.991447E2,8.884584E1,9.416551E1,1.0290316E1,1.4857672E1,3.7200708E2,3.3914243E2,1.2115896E2,2.2703856E1,6.6244606E1,1.1964491E1,3.470331E2,1.1094967E2,2.2398172E2,4.0317852E1,1.4590982E2,6.3652542E1,1.3653611E1,3.5249802E2,4.6646694E1,3.2857224E1,5.598862E1,7.9311E1,1.4854515E1,3.812614E1,3.3388095E2],"tree_param":{"num_deleted":"0","num_feature":"86","num_nodes":"49","size_leaf_vector":"1"}},{"base_weights":[4.1501723E-2,-6.558869E-1,4.9828103E-1,-1.8908255E-2,-9.3205696E-1,2.121527E-1,1.093983E0,-8.1582054E-2,2.3773119E-1,-1.0181054E0,1.2372723E0,-3.8927385E-1,3.162977E-1,-8.926205E-3,1.1308722E0,3.8700378E-1,-8.382209E-2,-3.0792898E-1,-1.150876E0,9.1194816E-2,2.0577213E-2,1.4771357E-1,-9.243535E-2,2.2325991E-1,1.2568338E0,8.6465347E-1,1.2923235E0,8.013966E-2,7.6049305E-3,4.833299E-2,-5.710109E-2,-8.221754E-2,-4.7057834E-2,4.1344166E-2,-5.726985E-2,1.6499776E-2,-5.226742E-2,2.557996E-2,7.45878E-2,4.982252E-2,-2.8582504E-2,2.6021028E-2,6.713053E-2],"categories":[],"categories_nodes":[],"categories_segments":[],"categories_sizes":[],"default_left":[0,0,0,0,0,0,0,0,0,0,0,0,0,0,0,0,0,0,0,0,0,0,0,0,0,0,0,0,0,0,0,0,0,0,0,0,0,0,0,0,0,0,0],"id":8,"left_children":[1,3,5,7,9,11,13,-1,15,17,19,21,23,-1,25,27,-1,29,31,-1,-1,33,-1,35,37,39,41,-1,-1,-1,-1,-1,-1,-1,-1,-1,-1,-1,-1,-1,-1,-1,-1],"loss_changes":[8.503272E2,1.8572195E2,2.7456473E2,1.3322998E2,1.3876874E2,6.844916E1,2.4848083E1,0E0,7.978939E1,6.637555E1,1.2839119E1,1.26882805E2,8.100648E1,0E0,2.05224E1,7.332606E1,0E0,1.2146378E2,5.9983948E1,0E0,0E0,1.0526574E2,0E0,1.15120575E2,1.3647736E1,3.7566742E1,1.1314026E1,0E0,0E0,0E0,0E0,0E0,0E0,0E0,0E0,0E0,0E0,0E0,0E0,0E0,0E0,0E0,0E0],"parents":[2147483647,0,0,1,1,2,2,3,3,4,4,5,5,6,6,8,8,9,9,10,10,11,11,12,12,14,14,15,15,17,17,18,18,21,21,23,23,24,24,25,25,26,26],"right_children":[2,4,6,8,10,12,14,-1,16,18,20,22,24,-1,26,28,-1,30,32,-1,-1,34,-1,36,38,40,42,-1,-1,-1,-1,-1,-1,-1,-1,-1,-1,-1,-1,-1,-1,-1,-1],"split_conditions":[1.4427877E-3,1.4285709E-1,9.832222E-4,8.4722566E-4,2.6277957E-2,-1.8035221E-3,-1.8770102E-2,-8.1582054E-2,1.429104E-6,6.314867E-4,-1.22474E-3,2.0748092E-1,5.0874837E-3,-8.926205E-3,3.4364262E-3,-2.725802E-3,-8.382209E-2,-7.828301E-2,0E0,9.1194816E-2,2.0577213E-2,-3.6354542E-3,-9.243535E-2,2.3445373E-6,4.201717E-3,2.4271845E-3,-7.924528E-1,8.013966E-2,7.6049305E-3,4.833299E-2,-5.710109E-2,-8.221754E-2,-4.7057834E-2,4.1344166E-2,-5.726985E-2,1.6499776E-2,-5.226742E-2,2.557996E-2,7.45878E-2,4.982252E-2,-2.8582504E-2,2.6021028E-2,6.713053E-2],"split_indices":[49,65,24,54,47,22,4,0,37,54,3,61,55,0,5,31,0,72,1,0,0,31,0,33,72,5,59,0,0,0,0,0,0,0,0,0,0,0,0,0,0,0,0],"split_type":[0,0,0,0,0,0,0,0,0,0,0,0,0,0,0,0,0,0,0,0,0,0,0,0,0,0,0,0,0,0,0,0,0,0,0,0,0,0,0,0,0,0,0],"sum_hessian":[2.6673691E3,1.0553923E3,1.6119768E3,3.1962244E2,7.3576984E2,1.0899667E3,5.220102E2,4.3197777E1,2.7642465E2,7.082531E2,2.751674E1,1.6033733E2,9.2962933E2,1.4521903E1,5.0748828E2,2.5721628E2,1.9208387E1,1.1219673E2,5.960564E2,1.5310047E1,1.2206694E1,1.1781753E2,4.2519802E1,8.471709E2,8.2458435E1,1.9421677E2,3.132715E2,4.0638153E1,2.1657812E2,4.426933E1,6.792741E1,1.7558447E2,4.204719E2,7.753326E1,4.028427E1,7.821801E2,6.4990776E1,2.0627148E1,6.1831284E1,1.7823735E2,1.5979419E1,1.9976152E1,2.9329535E2],"tree_param":{"num_deleted":"0","num_feature":"86","num_nodes":"43","size_leaf_vector":"1"}},{"base_weights":[2.2463063E-2,-3.9681974E-1,7.168675E-1,6.936565E-2,-6.402318E-1,-8.958911E-2,7.5953364E-1,1.5071678E-1,-8.020758E-2,-9.036111E-1,1.0495646E-1,4.720712E-1,1.0442874E0,-1.7078196E-1,5.613861E-1,-1.2211609E0,-4.8123205E-1,1.282551E0,-2.0304482E-1,-5.712447E-1,6.7274487E-1,-1.991557E-2,1.0906041E0,9.703037E-3,-5.7065804E-2,-8.358937E-2,3.5710394E-2,-6.6417344E-2,1.3332068E-2,4.5864386E-4,-6.034707E-2,4.506658E-3,8.8244386E-2,-7.953502E-2,6.9228373E-3,-9.662995E-2,1.4498082E-2,7.107489E-3,4.242697E-2,2.0277876E-2,5.694397E-2],"categories":[],"categories_nodes":[],"categories_segments":[],"categories_sizes":[],"default_left":[0,0,0,0,0,0,0,0,0,0,0,0,0,0,0,0,0,0,0,0,0,0,0,0,0,0,0,0,0,0,0,0,0,0,0,0,0,0,0,0,0],"id":9,"left_children":[1,3,5,7,9,-1,11,13,-1,15,17,19,21,23,25,27,29,31,33,35,37,-1,39,-1,-1,-1,-1,-1,-1,-1,-1,-1,-1,-1,-1,-1,-1,-1,-1,-1,-1],"loss_changes":[7.6441705E2,1.858511E2,1.07059784E2,7.6645424E1,2.1128915E2,0E0,7.89765E1,7.105819E1,0E0,1.05866394E2,1.0253883E2,1.02156075E2,3.308673E1,1.0722721E2,8.1724014E1,7.270166E1,1.22183876E2,3.3362564E1,1.065575E2,9.318861E1,3.7853516E1,0E0,1.5020142E1,0E0,0E0,0E0,0E0,0E0,0E0,0E0,0E0,0E0,0E0,0E0,0E0,0E0,0E0,0E0,0E0,0E0,0E0],"parents":[2147483647,0,0,1,1,2,2,3,3,4,4,6,6,7,7,9,9,10,10,11,11,12,12,13,13,14,14,15,15,16,16,17,17,18,18,19,19,20,20,22,22],"right_children":[2,4,6,8,10,-1,12,14,-1,16,18,20,22,24,26,28,30,32,34,36,38,-1,40,-1,-1,-1,-1,-1,-1,-1,-1,-1,-1,-1,-1,-1,-1,-1,-1,-1,-1],"split_conditions":[2.5109819E-3,-4.3150606E-3,1.7965788E1,2.3640674E-3,4.1600483E-4,-8.958911E-2,8.945753E-4,2.3244382E-1,-8.020758E-2,4.2921086E-4,6.583686E-3,-5.784859E-1,-1.08150676E-1,2.0511271E-3,-1.572807E-2,-1.049318E-8,8.461532E-1,4.2149527E-3,1.2815201E-3,5.331038E-1,7.952982E-1,-1.991557E-2,3.364744E-3,9.703037E-3,-5.7065804E-2,-8.358937E-2,3.5710394E-2,-6.6417344E-2,1.3332068E-2,4.5864386E-4,-6.034707E-2,4.506658E-3,8.8244386E-2,-7.953502E-2,6.9228373E-3,-9.662995E-2,1.4498082E-2,7.107489E-3,4.242697E-2,2.0277876E-2,5.694397E-2],"split_indices":[49,18,39,3,24,0,24,77,0,22,47,60,41,77,19,68,64,67,49,61,52,0,54,0,0,0,0,0,0,0,0,0,0,0,0,0,0,0,0,0,0],"split_type":[0,0,0,0,0,0,0,0,0,0,0,0,0,0,0,0,0,0,0,0,0,0,0,0,0,0,0,0,0,0,0,0,0,0,0,0,0,0,0,0,0],"sum_hessian":[2.6234058E3,1.6359191E3,9.874867E2,5.61271E2,1.0746481E3,1.5789145E1,9.716975E2,5.3617664E2,2.5094318E1,7.939544E2,2.8069363E2,4.8504636E2,4.8665118E2,3.009298E2,2.3524686E2,4.5200424E2,3.419502E2,5.7606144E1,2.230875E2,7.786679E1,4.0717957E2,1.4835E1,4.7181616E2,2.1921835E2,8.171145E1,1.4388918E1,2.2085794E2,4.2179144E2,3.0212795E1,2.0456381E2,1.3738638E2,1.6992353E1,4.061379E1,4.3394283E1,1.7969322E2,2.9735062E1,4.8131725E1,1.0192372E2,3.0525586E2,3.18154E1,4.4000076E2],"tree_param":{"num_deleted":"0","num_feature":"86","num_nodes":"41","size_leaf_vector":"1"}},{"base_weights":[2.6352918E-2,-5.268533E-1,6.051347E-1,-6.224354E-1,1.0309495E0,2.58897E-1,9.5977974E-1,1.9175136E-1,-8.324998E-1,-8.838128E-3,1.3374823E0,3.3548144E-1,-8.954135E-2,2.2942616E-2,1.0213691E0,3.7381214E-1,-7.8092605E-2,7.5156164E-1,-8.882561E-1,8.051257E-2,1.1434402E-2,8.3032674E-1,4.9455655E-3,5.8178913E-2,-9.209063E-2,-1.9242156E-2,1.0605202E0,-5.1408387E-3,5.6159258E-2,-2.866557E-3,8.40679E-2,-6.577667E-2,-3.5714235E-2,4.762003E-2,-7.8967005E-2,-9.108202E-2,1.3419318E-2,-9.178464E-3,5.4806303E-2],"categories":[],"categories_nodes":[],"categories_segments":[],"categories_sizes":[],"default_left":[0,0,0,0,0,0,0,0,0,0,0,0,0,0,0,0,0,0,0,0,0,0,0,0,0,0,0,0,0,0,0,0,0,0,0,0,0,0,0],"id":10,"left_children":[1,3,5,7,9,11,13,15,17,-1,19,21,-1,23,25,27,-1,29,31,-1,-1,33,35,-1,-1,-1,37,-1,-1,-1,-1,-1,-1,-1,-1,-1,-1,-1,-1],"loss_changes":[8.2224603E2,1.9609634E2,1.537402E2,2.1191501E2,2.8568466E1,1.0038187E2,3.561615E1,8.173725E1,8.760449E1,0E0,1.7888306E1,1.00427505E2,0E0,8.574582E1,3.2470947E1,8.289513E1,0E0,2.5788229E1,6.9565735E1,0E0,0E0,7.379549E1,1.7816484E2,0E0,0E0,0E0,2.5353333E1,0E0,0E0,0E0,0E0,0E0,0E0,0E0,0E0,0E0,0E0,0E0,0E0],"parents":[2147483647,0,0,1,1,2,2,3,3,4,4,5,5,6,6,7,7,8,8,10,10,11,11,13,13,14,14,15,15,17,17,18,18,21,21,22,22,26,26],"right_children":[2,4,6,8,10,12,14,16,18,-1,20,22,-1,24,26,28,-1,30,32,-1,-1,34,36,-1,-1,-1,38,-1,-1,-1,-1,-1,-1,-1,-1,-1,-1,-1,-1],"split_conditions":[2.5846497E-3,8.669248E-3,4.0023695E-3,6.2499963E-2,1.2492194E-3,9.5833266E-1,-1.2834401E-2,-2.4595931E-3,1.6949153E-2,-8.838128E-3,2.2023655E-3,2.527711E-3,-8.954135E-2,-1.0061561E0,2.5010964E-2,-2.4142913E-3,-7.8092605E-2,8.082921E-4,-2.2612698E-1,8.051257E-2,1.1434402E-2,1.997821E-6,3.1030918E-3,5.8178913E-2,-9.209063E-2,-1.9242156E-2,3.364744E-3,-5.1408387E-3,5.6159258E-2,-2.866557E-3,8.40679E-2,-6.577667E-2,-3.5714235E-2,4.762003E-2,-7.8967005E-2,-9.108202E-2,1.3419318E-2,-9.178464E-3,5.4806303E-2],"split_indices":[55,29,50,65,0,71,2,29,84,0,55,54,0,77,58,28,0,23,77,0,0,33,54,0,0,0,54,0,0,0,0,0,0,0,0,0,0,0,0],"split_type":[0,0,0,0,0,0,0,0,0,0,0,0,0,0,0,0,0,0,0,0,0,0,0,0,0,0,0,0,0,0,0,0,0,0,0,0,0,0,0],"sum_hessian":[2.566008E3,1.3119491E3,1.254059E3,1.2367317E3,7.5217476E1,6.355689E2,6.1849005E2,2.5356244E2,9.8316925E2,1.5246147E1,5.997133E1,6.135305E2,2.2038395E1,3.8337242E1,5.8015283E2,2.3047786E2,2.3084572E1,3.2943947E1,9.502253E2,4.7695545E1,1.22757845E1,2.449705E2,3.6855997E2,2.4053692E1,1.4283548E1,1.5406462E1,5.6474634E2,1.4132152E2,8.915634E1,1.8061668E1,1.4882278E1,2.728829E2,6.773424E2,2.3377377E2,1.11967325E1,4.566235E1,3.2289764E2,1.5519586E1,5.4922675E2],"tree_param":{"num_deleted":"0","num_feature":"86","num_nodes":"39","size_leaf_vector":"1"}},{"base_weights":[2.7069028E-2,-3.7079394E-1,6.7838615E-1,3.3446908E-1,-5.427806E-1,2.4128705E-1,9.005857E-1,4.6760848E-1,-7.627174E-2,1.060486E0,-6.1872715E-1,-8.894748E-2,3.775831E-1,-8.3014077E-1,9.5896834E-1,5.6914324E-1,-8.476133E-2,-3.0773315E-3,1.4810723E0,-5.421722E-1,-9.305904E-2,4.9099258E-1,-9.3271054E-2,1.3516483E-2,-9.26857E-2,3.315938E-1,1.0624102E0,2.0053308E-2,7.332883E-2,8.471582E-2,3.8127687E-2,-4.1395172E-2,-5.6405864E-3,2.9385502E-2,-9.525348E-2,4.53638E-2,-5.388009E-2,4.827828E-2,6.767374E-2],"categories":[],"categories_nodes":[],"categories_segments":[],"categories_sizes":[],"default_left":[0,0,0,0,0,0,0,0,0,0,0,0,0,0,0,0,0,0,0,0,0,0,0,0,0,0,0,0,0,0,0,0,0,0,0,0,0,0,0],"id":11,"left_children":[1,3,5,7,9,11,13,15,-1,17,19,-1,21,23,25,27,-1,-1,29,31,-1,33,-1,-1,-1,35,37,-1,-1,-1,-1,-1,-1,-1,-1,-1,-1,-1,-1],"loss_changes":[6.6281226E2,1.9278563E2,9.387634E1,7.7812454E1,1.56095E2,9.0963524E1,6.573566E1,6.492528E1,0E0,2.7633003E1,1.1478003E2,0E0,7.9264114E1,2.4818935E1,3.9881226E1,4.1380882E1,0E0,0E0,4.949028E0,1.4096524E2,0E0,6.924124E1,0E0,0E0,0E0,7.368567E1,1.3498535E1,0E0,0E0,0E0,0E0,0E0,0E0,0E0,0E0,0E0,0E0,0E0,0E0],"parents":[2147483647,0,0,1,1,2,2,3,3,4,4,5,5,6,6,7,7,9,9,10,10,12,12,13,13,14,14,15,15,18,18,19,19,21,21,25,25,26,26],"right_children":[2,4,6,8,10,12,14,16,-1,18,20,-1,22,24,26,28,-1,-1,30,32,-1,34,-1,-1,-1,36,38,-1,-1,-1,-1,-1,-1,-1,-1,-1,-1,-1,-1],"split_conditions":[2.5109819E-3,7.142852E-2,3.9307345E-3,-2.3034024E-3,1.6949153E-2,-3.4150884E-3,-1.2834401E-2,8.8135594E-1,-7.627174E-2,-3.211036E-1,2.3079326E-3,-8.894748E-2,1.9064287E0,-6.694336E-1,1.3812154E-3,7.966102E-1,-8.476133E-2,-3.0773315E-3,-4.288087E-4,1.2815201E-3,-9.305904E-2,3.7198109E-3,-9.3271054E-2,1.3516483E-2,-9.26857E-2,-2.2727284E-3,2.6838966E-2,2.0053308E-2,7.332883E-2,8.471582E-2,3.8127687E-2,-4.1395172E-2,-5.6405864E-3,2.9385502E-2,-9.525348E-2,4.53638E-2,-5.388009E-2,4.827828E-2,6.767374E-2],"split_indices":[49,65,55,17,84,21,2,84,0,60,50,0,60,59,9,84,0,0,28,49,0,55,0,0,0,3,80,0,0,0,0,0,0,0,0,0,0,0,0],"split_type":[0,0,0,0,0,0,0,0,0,0,0,0,0,0,0,0,0,0,0,0,0,0,0,0,0,0,0,0,0,0,0,0,0,0,0,0,0,0,0],"sum_hessian":[2.5556982E3,1.5867157E3,9.6898254E2,3.107797E2,1.275936E3,3.2742523E2,6.415573E2,2.907677E2,2.0011972E1,5.70615E1,1.2188745E3,1.9885672E1,3.0753955E2,2.0448175E1,6.2110913E2,2.784776E2,1.2290106E1,1.5725417E1,4.1336082E1,1.1495602E3,6.931433E1,2.9352423E2,1.4015319E1,1.01614895E1,1.0286685E1,8.864575E1,5.324634E2,2.3586215E2,4.261545E1,3.0721287E1,1.0614798E1,6.8952997E2,4.600302E2,2.8290134E2,1.0622907E1,6.3238716E1,2.5407036E1,4.0302686E2,1.2943654E2],"tree_param":{"num_deleted":"0","num_feature":"86","num_nodes":"39","size_leaf_vector":"1"}},{"base_weights":[8.6859815E-2,-4.344788E-1,5.327688E-1,7.457434E-2,-7.095213E-1,2.574238E-1,9.2702156E-1,-7.891931E-2,2.3015042E-1,-8.755199E-1,4.0901846E-1,-3.401476E-1,4.1997108E-1,-2.4204123E-1,9.9073106E-1,3.7157828E-1,-7.451864E-2,2.715021E-1,-9.9176884E-1,-8.453646E-1,9.592848E-1,4.6980268E-1,-1.424332E0,9.921037E-1,1.9015853E-1,-9.3227975E-2,4.8548065E-2,5.4421264E-1,1.0591887E0,-1.708932E-2,4.337009E-2,-7.148721E-2,6.154556E-2,-4.508569E-3,-5.546816E-2,3.6031768E-2,-8.045116E-2,-1.0805189E-3,6.364068E-2,-8.4433295E-2,3.8174298E-2,-8.675223E-2,2.946426E-2,5.8606368E-2,-2.2579966E-2,-3.59959E-2,2.1633966E-2,6.1928965E-2,-2.487834E-2,6.518407E-2,4.7561083E-2],"categories":[],"categories_nodes":[],"categories_segments":[],"categories_sizes":[],"default_left":[0,0,0,0,0,0,0,0,0,0,0,0,0,0,0,0,0,0,0,0,0,0,0,0,0,0,0,0,0,0,0,0,0,0,0,0,0,0,0,0,0,0,0,0,0,0,0,0,0,0,0],"id":12,"left_children":[1,3,5,7,9,11,13,-1,15,17,19,21,23,25,27,29,-1,31,33,35,37,39,41,43,45,-1,-1,47,49,-1,-1,-1,-1,-1,-1,-1,-1,-1,-1,-1,-1,-1,-1,-1,-1,-1,-1,-1,-1,-1,-1],"loss_changes":[6.14416E2,1.7070766E2,1.5428534E2,1.103365E2,1.4731976E2,8.1771545E1,4.390451E1,0E0,9.589133E1,9.2264465E1,7.1817276E1,1.5892833E2,8.662721E1,6.2849174E1,1.6237E1,1.2885725E2,0E0,1.0643693E2,6.617615E1,3.932332E1,2.2300507E1,6.699249E1,4.951207E1,4.975168E1,1.04694824E2,0E0,0E0,5.57155E1,1.1210815E1,0E0,0E0,0E0,0E0,0E0,0E0,0E0,0E0,0E0,0E0,0E0,0E0,0E0,0E0,0E0,0E0,0E0,0E0,0E0,0E0,0E0,0E0],"parents":[2147483647,0,0,1,1,2,2,3,3,4,4,5,5,6,6,8,8,9,9,10,10,11,11,12,12,13,13,14,14,15,15,17,17,18,18,19,19,20,20,21,21,22,22,23,23,24,24,27,27,28,28],"right_children":[2,4,6,8,10,12,14,-1,16,18,20,22,24,26,28,30,-1,32,34,36,38,40,42,44,46,-1,-1,48,50,-1,-1,-1,-1,-1,-1,-1,-1,-1,-1,-1,-1,-1,-1,-1,-1,-1,-1,-1,-1,-1,-1],"split_conditions":[1.7150085E-3,-1.0918098E-3,3.9146E-3,5.6897406E-4,2.255014E-3,-1.8047612E-3,3.9307345E-3,-7.891931E-2,2.366864E-3,-1.4128072E0,-1.6342483E-15,-7.513932E-4,1.9098829E-3,5.567929E-3,-9.108717E-3,-2.6041795E-3,-7.451864E-2,6.864911E-3,-2.218388E-3,1.02291405E-2,6.086956E-1,-1.1508805E-3,2.0673599E-3,2.4271845E-3,2.2882887E-3,-9.3227975E-2,4.8548065E-2,-9.307273E-1,-7.360673E-3,-1.708932E-2,4.337009E-2,-7.148721E-2,6.154556E-2,-4.508569E-3,-5.546816E-2,3.6031768E-2,-8.045116E-2,-1.0805189E-3,6.364068E-2,-8.4433295E-2,3.8174298E-2,-8.675223E-2,2.946426E-2,5.8606368E-2,-2.2579966E-2,-3.59959E-2,2.1633966E-2,6.1928965E-2,-2.487834E-2,6.518407E-2,4.7561083E-2],"split_indices":[49,30,49,53,31,31,55,0,79,77,72,24,49,5,2,68,0,47,20,47,83,24,19,9,49,0,0,77,79,0,0,0,0,0,0,0,0,0,0,0,0,0,0,0,0,0,0,0,0,0,0],"split_type":[0,0,0,0,0,0,0,0,0,0,0,0,0,0,0,0,0,0,0,0,0,0,0,0,0,0,0,0,0,0,0,0,0,0,0,0,0,0,0,0,0,0,0,0,0,0,0,0,0,0,0],"sum_hessian":[2.6409578E3,1.2174113E3,1.4235464E3,4.2716766E2,7.9024365E2,8.3929315E2,5.8425323E2,3.5904312E1,3.9126337E2,6.883889E2,1.0185473E2,1.7911311E2,6.6018E2,2.9968353E1,5.542849E2,3.6232242E2,2.8940931E1,6.3145023E1,6.252439E2,3.0838196E1,7.101653E1,1.02794174E2,7.631893E1,1.881118E2,4.720682E2,1.2625593E1,1.734276E1,7.5067024E1,4.792179E2,1.4861377E2,2.1370866E2,2.2555183E1,4.058984E1,7.244261E1,5.528013E2,1.0084258E1,2.0753939E1,1.734953E1,5.3667004E1,1.1701535E1,9.109264E1,6.627962E1,1.0039311E1,1.6748456E2,2.0627241E1,9.882806E1,3.7324014E2,4.4988426E1,3.0078596E1,1.4311998E2,3.360979E2],"tree_param":{"num_deleted":"0","num_feature":"86","num_nodes":"51","size_leaf_vector":"1"}},{"base_weights":[2.4562454E-2,-4.174996E-1,5.023176E-1,4.727457E-1,-5.4021835E-1,1.8483248E-1,8.849748E-1,7.3587555E-1,-7.932539E-2,-6.2989473E-1,8.9214474E-1,5.4148203E-1,-2.1910463E-1,-2.2818317E-1,9.453184E-1,1.0074582E0,-7.705694E-2,-4.1965413E-1,-1.218385E0,1.3258876E0,-1.7269285E-2,-8.7613076E-2,7.589174E-1,-1.0846179E0,3.16561E-1,4.7245655E-2,-9.082617E-2,5.2489585E-4,9.9407154E-1,1.11145815E-2,6.87915E-2,-4.5302134E-2,-5.221084E-3,3.345182E-2,-6.538895E-2,7.401561E-2,3.2333765E-2,4.2432543E-2,-9.2677854E-2,-7.317225E-2,9.463274E-3,2.9269425E-2,-5.3332448E-2,-1.712854E-2,2.637204E-2,4.1886233E-3,5.1572908E-2],"categories":[],"categories_nodes":[],"categories_segments":[],"categories_sizes":[],"default_left":[0,0,0,0,0,0,0,0,0,0,0,0,0,0,0,0,0,0,0,0,0,0,0,0,0,0,0,0,0,0,0,0,0,0,0,0,0,0,0,0,0,0,0,0,0,0,0],"id":13,"left_children":[1,3,5,7,9,11,13,15,-1,17,19,21,23,25,27,29,-1,31,33,35,-1,-1,37,39,41,-1,-1,43,45,-1,-1,-1,-1,-1,-1,-1,-1,-1,-1,-1,-1,-1,-1,-1,-1,-1,-1],"loss_changes":[5.3592755E2,1.4424443E2,1.4789798E2,8.783171E1,1.4938531E2,9.6382385E1,3.740915E1,8.973522E1,0E0,1.3433264E2,3.7391396E1,1.783699E2,1.4590788E2,5.6095684E1,2.4059296E1,3.6592117E1,0E0,1.2332703E2,4.9290497E1,4.1877365E0,0E0,0E0,7.7698044E1,5.844136E1,7.291525E1,0E0,0E0,5.0510592E0,1.677301E1,0E0,0E0,0E0,0E0,0E0,0E0,0E0,0E0,0E0,0E0,0E0,0E0,0E0,0E0,0E0,0E0,0E0,0E0],"parents":[2147483647,0,0,1,1,2,2,3,3,4,4,5,5,6,6,7,7,9,9,10,10,11,11,12,12,13,13,14,14,15,15,17,17,18,18,19,19,22,22,23,23,24,24,27,27,28,28],"right_children":[2,4,6,8,10,12,14,16,-1,18,20,22,24,26,28,30,-1,32,34,36,-1,-1,38,40,42,-1,-1,44,46,-1,-1,-1,-1,-1,-1,-1,-1,-1,-1,-1,-1,-1,-1,-1,-1,-1,-1],"split_conditions":[2.5846497E-3,5.711531E0,3.9146E-3,-1.9339424E-7,8.669248E-3,3.4381476E-1,-1.2834401E-2,-9.7098545E-4,-7.932539E-2,6.566634E1,9.862968E-4,-4.8619215E-3,2.6164684E-3,-3.56053E-2,3.860083E-3,2.234371E0,-7.705694E-2,-7.637602E-4,-1.7865473E0,2.7119801E-3,-1.7269285E-2,-8.7613076E-2,4.6254895E-3,3.7198109E-3,2.3445373E-6,4.7245655E-2,-9.082617E-2,2.004008E-3,-3.8978506E-2,1.11145815E-2,6.87915E-2,-4.5302134E-2,-5.221084E-3,3.345182E-2,-6.538895E-2,7.401561E-2,3.2333765E-2,4.2432543E-2,-9.2677854E-2,-7.317225E-2,9.463274E-3,2.9269425E-2,-5.3332448E-2,-1.712854E-2,2.637204E-2,4.1886233E-3,5.1572908E-2],"split_indices":[55,39,49,33,29,61,2,30,0,39,23,20,49,66,55,39,0,15,77,50,0,0,54,55,33,0,0,7,66,0,0,0,0,0,0,0,0,0,0,0,0,0,0,0,0,0,0],"split_type":[0,0,0,0,0,0,0,0,0,0,0,0,0,0,0,0,0,0,0,0,0,0,0,0,0,0,0,0,0,0,0,0,0,0,0,0,0,0,0,0,0,0,0,0,0,0,0],"sum_hessian":[2.5355334E3,1.3169187E3,1.2186147E3,1.5909804E2,1.1578207E3,6.6697754E2,5.5163727E2,1.4168486E2,1.7413174E1,1.0901964E3,6.762421E1,3.5417325E2,3.128043E2,2.8137964E1,5.234993E2,1.2712406E2,1.4560794E1,8.0462415E2,2.855723E2,5.0080772E1,1.7543432E1,3.0015766E1,3.2415747E2,1.1926355E2,1.9354074E2,1.6381361E1,1.1756604E1,2.5838242E1,4.9766107E2,4.1194637E1,8.592943E1,3.1555164E2,4.890725E2,1.2570113E1,2.7300217E2,3.9722786E1,1.03579855E1,3.1408276E2,1.0074709E1,9.1872284E1,2.7391268E1,1.6259033E2,3.095042E1,1.5745682E1,1.009256E1,1.986632E1,4.7779474E2],"tree_param":{"num_deleted":"0","num_feature":"86","num_nodes":"47","size_leaf_vector":"1"}},{"base_weights":[3.8042855E-2,-3.5371268E-1,4.690149E-1,-4.9494237E-1,3.2858583E-1,1.8160331E-1,7.3405975E-1,-2.2089072E-1,-9.6285516E-1,-1.4723408E-1,1.1362258E0,4.0599227E-1,-8.7180114E-1,3.1551915E-1,8.8495016E-1,-1.1941565E-1,-7.8011334E-2,-1.2208141E0,2.4370894E-1,6.6662765E-1,-1.2735274E0,3.9385995E-4,1.4303088E0,6.901249E-1,-6.17712E-2,-9.035965E-2,-1.03813864E-1,5.510753E-1,-1.0117581E0,-1.0878115E-2,9.247968E-1,-2.354135E-2,1.6223198E-2,-6.5015286E-2,4.7691237E-2,-7.884561E-2,4.207727E-2,-3.1100119E-2,6.704129E-2,-8.396165E-2,3.3345435E-2,9.348722E-2,5.059992E-2,-7.953957E-2,3.9481454E-2,-2.2514904E-2,5.9487205E-2,3.0064303E-2,-9.6253976E-2,3.6989313E-2,-3.4630608E-2,-9.835257E-2,1.9894883E-2,6.255843E-2,3.991021E-2],"categories":[],"categories_nodes":[],"categories_segments":[],"categories_sizes":[],"default_left":[0,0,0,0,0,0,0,0,0,0,0,0,0,0,0,0,0,0,0,0,0,0,0,0,0,0,0,0,0,0,0,0,0,0,0,0,0,0,0,0,0,0,0,0,0,0,0,0,0,0,0,0,0,0,0],"id":14,"left_children":[1,3,5,7,9,11,13,15,17,19,21,23,25,27,29,31,-1,33,35,37,39,-1,41,43,45,-1,47,49,51,-1,53,-1,-1,-1,-1,-1,-1,-1,-1,-1,-1,-1,-1,-1,-1,-1,-1,-1,-1,-1,-1,-1,-1,-1,-1],"loss_changes":[4.2841907E2,1.2825435E2,9.182126E1,1.4094312E2,8.8044044E1,1.3768927E2,3.926828E1,9.426738E1,1.269137E2,1.3340327E2,2.8008324E1,6.3888283E1,7.311313E1,5.3089325E1,2.0521698E1,1.012969E2,0E0,5.9207153E1,8.001734E1,7.433072E1,4.926503E1,0E0,1.0181625E1,6.898514E1,8.902477E1,0E0,7.487132E1,3.4204044E1,3.5461555E1,0E0,1.7187958E1,0E0,0E0,0E0,0E0,0E0,0E0,0E0,0E0,0E0,0E0,0E0,0E0,0E0,0E0,0E0,0E0,0E0,0E0,0E0,0E0,0E0,0E0,0E0,0E0],"parents":[2147483647,0,0,1,1,2,2,3,3,4,4,5,5,6,6,7,7,8,8,9,9,10,10,11,11,12,12,13,13,14,14,15,15,17,17,18,18,19,19,20,20,22,22,23,23,24,24,26,26,27,27,28,28,30,30],"right_children":[2,4,6,8,10,12,14,16,18,20,22,24,26,28,30,32,-1,34,36,38,40,-1,42,44,46,-1,48,50,52,-1,54,-1,-1,-1,-1,-1,-1,-1,-1,-1,-1,-1,-1,-1,-1,-1,-1,-1,-1,-1,-1,-1,-1,-1,-1],"split_conditions":[2.5989783E-3,4.0491647E-4,3.9307345E-3,4.5945933E-1,9.9754393E-1,1.6497462E-3,-2.4546997E-4,2.3869255E0,2.4975569E-3,2.7530953E-1,5.112464E-3,3.256404E-1,3.3176132E-3,1.1588524E-2,1.4846156E-4,1.2343655E-1,-7.8011334E-2,1E0,9.64822E-3,-4.3608556E-3,1.3995972E0,3.9385995E-4,7.8908616E-4,-6.311803E-3,7.681E0,-9.035965E-2,-6.416365E-1,-7.382993E-4,1.5666736E0,-1.0878115E-2,3.1778315E-4,-2.354135E-2,1.6223198E-2,-6.5015286E-2,4.7691237E-2,-7.884561E-2,4.207727E-2,-3.1100119E-2,6.704129E-2,-8.396165E-2,3.3345435E-2,9.348722E-2,5.059992E-2,-7.953957E-2,3.9481454E-2,-2.2514904E-2,5.9487205E-2,3.0064303E-2,-9.6253976E-2,3.6989313E-2,-3.4630608E-2,-9.835257E-2,1.9894883E-2,6.255843E-2,3.991021E-2],"split_indices":[55,24,55,65,61,21,23,40,54,61,69,61,30,45,24,61,0,84,45,44,51,0,36,20,59,0,59,23,58,0,23,0,0,0,0,0,0,0,0,0,0,0,0,0,0,0,0,0,0,0,0,0,0,0,0],"split_type":[0,0,0,0,0,0,0,0,0,0,0,0,0,0,0,0,0,0,0,0,0,0,0,0,0,0,0,0,0,0,0,0,0,0,0,0,0,0,0,0,0,0,0,0,0,0,0,0,0,0,0,0,0,0,0],"sum_hessian":[2.5354404E3,1.3281204E3,1.2073201E3,1.1007053E3,2.2741498E2,5.802098E2,6.2711035E2,6.952124E2,4.0549292E2,1.4354156E2,8.387342E1,4.78906E2,1.0130374E2,1.6716925E2,4.599411E2,6.4733105E2,4.7881344E1,3.3412854E2,7.136437E1,8.3513725E1,6.002784E1,1.762314E1,6.625028E1,2.9777036E2,1.8113565E2,4.5005116E1,5.6298626E1,1.4253352E2,2.463573E1,1.5800107E1,4.44141E2,3.613899E2,2.859412E2,3.2277777E2,1.1350761E1,1.7194904E1,5.4169468E1,2.8661192E1,5.485253E1,4.9801506E1,1.0226333E1,3.0500578E1,3.5749706E1,1.1778635E1,2.8599173E2,1.3877403E2,4.236162E1,4.102919E1,1.5269436E1,1.24177086E2,1.8356436E1,1.4491013E1,1.0144718E1,1.2142332E2,3.2271768E2],"tree_param":{"num_deleted":"0","num_feature":"86","num_nodes":"55","size_leaf_vector":"1"}},{"base_weights":[5.4919135E-2,-3.24402E-1,4.722408E-1,4.929675E-2,-5.963605E-1,2.7368283E-1,8.6798877E-1,-7.941995E-2,1.7400703E-1,-8.4576696E-1,1.15234375E-1,4.4249597E-1,-2.4014117E-1,-2.447815E-2,9.375621E-1,-6.220264E-1,3.7107083E-1,-2.9362634E-1,-1.2422177E0,1.2317517E0,-1.5509592E-1,5.460159E-1,-7.2311133E-1,-9.0016656E-2,6.3561544E-2,-1.7670443E-2,9.8363537E-1,7.49011E-2,-5.2008044E-2,2.4620045E-2,-7.459629E-2,3.785518E-2,-4.4013415E-2,-1.3798376E-2,-7.3793046E-2,8.5591115E-2,1.1567428E-2,-7.966458E-2,8.338779E-3,1.812194E-2,5.6694206E-2,2.8529614E-2,-8.87201E-2,-4.0772926E-2,2.1950355E-2,-1.46278655E-2,5.119024E-2],"categories":[],"categories_nodes":[],"categories_segments":[],"categories_sizes":[],"default_left":[0,0,0,0,0,0,0,0,0,0,0,0,0,0,0,0,0,0,0,0,0,0,0,0,0,0,0,0,0,0,0,0,0,0,0,0,0,0,0,0,0,0,0,0,0,0,0],"id":15,"left_children":[1,3,5,7,9,11,13,-1,15,17,19,21,23,-1,25,27,29,31,33,35,37,39,41,-1,43,-1,45,-1,-1,-1,-1,-1,-1,-1,-1,-1,-1,-1,-1,-1,-1,-1,-1,-1,-1,-1,-1],"loss_changes":[3.9617566E2,1.3331715E2,9.328998E1,1.1306982E2,1.3487445E2,6.91001E1,3.804892E1,0E0,8.096024E1,1.22553955E2,5.9987267E1,7.265815E1,9.370211E1,0E0,2.2926483E1,9.2307945E1,9.4070496E1,1.4639339E2,7.320526E1,1.801101E1,7.448625E1,5.888307E1,6.806534E1,0E0,5.5082664E1,0E0,1.9127258E1,0E0,0E0,0E0,0E0,0E0,0E0,0E0,0E0,0E0,0E0,0E0,0E0,0E0,0E0,0E0,0E0,0E0,0E0,0E0,0E0],"parents":[2147483647,0,0,1,1,2,2,3,3,4,4,5,5,6,6,8,8,9,9,10,10,11,11,12,12,14,14,15,15,16,16,17,17,18,18,19,19,20,20,21,21,22,22,24,24,26,26],"right_children":[2,4,6,8,10,12,14,-1,16,18,20,22,24,-1,26,28,30,32,34,36,38,40,42,-1,44,-1,46,-1,-1,-1,-1,-1,-1,-1,-1,-1,-1,-1,-1,-1,-1,-1,-1,-1,-1,-1,-1],"split_conditions":[2.5846497E-3,-4.4490965E-3,5.0874837E-3,-1.1717011E-3,4.0491647E-4,1.1070534E0,3.6461342E-3,-7.941995E-2,-2.2612698E-1,9.9174535E-1,4.3513472E-4,2.3445373E-6,2.2522523E-3,-2.447815E-2,3.377825E1,-1.1254769E-3,4.283838E0,-2.0704037E-3,-1.0061561E0,1.3326744E-3,-2.4390365E-3,3.6275694E-3,-1.4628212E-2,-9.0016656E-2,4.5762712E-1,-1.7670443E-2,1.0169491E-1,7.49011E-2,-5.2008044E-2,2.4620045E-2,-7.459629E-2,3.785518E-2,-4.4013415E-2,-1.3798376E-2,-7.3793046E-2,8.5591115E-2,1.1567428E-2,-7.966458E-2,8.338779E-3,1.812194E-2,5.6694206E-2,2.8529614E-2,-8.87201E-2,-4.0772926E-2,2.1950355E-2,-1.46278655E-2,5.119024E-2],"split_indices":[55,19,55,23,24,51,50,0,77,51,24,33,9,0,39,23,40,68,77,55,68,9,19,0,84,0,84,0,0,0,0,0,0,0,0,0,0,0,0,0,0,0,0,0,0,0,0],"split_type":[0,0,0,0,0,0,0,0,0,0,0,0,0,0,0,0,0,0,0,0,0,0,0,0,0,0,0,0,0,0,0,0,0,0,0,0,0,0,0,0,0,0,0,0,0,0,0],"sum_hessian":[2.5006445E3,1.3099548E3,1.1906897E3,5.5195856E2,7.5799634E2,7.9417426E2,3.9651547E2,3.8170105E1,5.1378845E2,5.6123975E2,1.9675658E2,5.980295E2,1.9614479E2,1.8966036E1,3.7754944E2,1.0142424E2,4.123642E2,2.3539532E2,3.2584442E2,3.7731503E1,1.5902509E2,5.498165E2,4.8212955E1,3.1210497E1,1.649343E2,1.2705347E1,3.648441E2,1.6243547E1,8.5180695E1,3.8789163E2,2.4472574E1,8.417288E1,1.5122244E2,6.395646E1,2.6188794E2,2.4948294E1,1.2783209E1,2.8416086E1,1.30609E2,4.203408E2,1.2947572E2,2.1776823E1,2.6436132E1,4.8932255E1,1.1600204E2,1.0865695E1,3.539784E2],"tree_param":{"num_deleted":"0","num_feature":"86","num_nodes":"47","size_leaf_vector":"1"}},{"base_weights":[6.1402846E-2,-5.060518E-1,3.9512315E-1,2.1030533E-1,-7.134551E-1,2.3508592E-1,9.862509E-1,4.3977642E-1,-7.228386E-2,-9.243325E-1,-2.1120648E-1,3.3299544E-1,-9.207986E-1,6.855738E-1,1.1087737E0,-5.2993212E-2,1.2003325E0,-1.093596E0,2.2965854E-1,3.1797808E-1,-6.930573E-2,3.7314007E-1,-9.8539434E-2,-1.266669E0,3.6195883E-1,1.0258627E0,-4.286205E-1,7.159529E-1,1.1946845E0,-8.6787336E-2,4.241146E-2,1.4619273E-2,7.020735E-2,-1.796626E-2,-6.499701E-2,8.796733E-2,-3.569747E-2,-3.366859E-3,8.284743E-2,2.548222E-2,-5.202369E-3,3.897838E-2,-7.952242E-2,2.8463691E-2,5.700499E-3,6.302912E-2,3.1176547E-2,-1.093361E-1,5.9322584E-2,5.873654E-2,-2.8517494E-2,7.482829E-2,5.312522E-2],"categories":[],"categories_nodes":[],"categories_segments":[],"categories_sizes":[],"default_left":[0,0,0,0,0,0,0,0,0,0,0,0,0,0,0,0,0,0,0,0,0,0,0,0,0,0,0,0,0,0,0,0,0,0,0,0,0,0,0,0,0,0,0,0,0,0,0,0,0,0,0,0,0],"id":16,"left_children":[1,3,5,7,9,11,13,15,-1,17,19,21,23,25,27,29,31,33,35,37,-1,39,-1,41,43,45,47,49,51,-1,-1,-1,-1,-1,-1,-1,-1,-1,-1,-1,-1,-1,-1,-1,-1,-1,-1,-1,-1,-1,-1,-1,-1],"loss_changes":[4.7456763E2,1.3807474E2,1.489327E2,7.996077E1,7.594476E1,1.4095285E2,1.14296875E1,6.928611E1,0E0,9.929666E1,1.3380956E2,1.0665617E2,4.3706543E1,3.8438354E1,6.9414673E0,1.7258844E2,1.28585205E1,6.63465E1,9.5985916E1,7.69017E1,0E0,7.3585526E1,0E0,5.226951E1,9.654918E-1,6.298622E0,7.097585E1,2.739277E1,5.835846E0,0E0,0E0,0E0,0E0,0E0,0E0,0E0,0E0,0E0,0E0,0E0,0E0,0E0,0E0,0E0,0E0,0E0,0E0,0E0,0E0,0E0,0E0,0E0,0E0],"parents":[2147483647,0,0,1,1,2,2,3,3,4,4,5,5,6,6,7,7,9,9,10,10,11,11,12,12,13,13,14,14,15,15,16,16,17,17,18,18,19,19,21,21,23,23,24,24,25,25,26,26,27,27,28,28],"right_children":[2,4,6,8,10,12,14,16,-1,18,20,22,24,26,28,30,32,34,36,38,-1,40,-1,42,44,46,48,50,52,-1,-1,-1,-1,-1,-1,-1,-1,-1,-1,-1,-1,-1,-1,-1,-1,-1,-1,-1,-1,-1,-1,-1,-1],"split_conditions":[1.4637788E-3,8.333326E-2,2.6608218E-2,-2.4595931E-3,2.7221754E-1,5.4005737E0,-1.4292717E-1,-1.0376135E-3,-7.228386E-2,3.7053074E-3,6.127568E1,1.6568761E-3,5.094203E-3,-6.3972248E-6,6.874996E-1,-1.3197906E-3,6.816714E-4,-6.070432E-1,7.800247E1,6.666659E-1,-6.930573E-2,7.8908616E-4,-9.8539434E-2,2.6384851E1,-6.6401195E-3,1.88751E-2,9.999994E-1,3.0392143E-1,4.0113144E-3,-8.6787336E-2,4.241146E-2,1.4619273E-2,7.020735E-2,-1.796626E-2,-6.499701E-2,8.796733E-2,-3.569747E-2,-3.366859E-3,8.284743E-2,2.548222E-2,-5.202369E-3,3.897838E-2,-7.952242E-2,2.8463691E-2,5.700499E-3,6.302912E-2,3.1176547E-2,-1.093361E-1,5.9322584E-2,5.873654E-2,-2.8517494E-2,7.482829E-2,5.312522E-2],"split_indices":[50,65,26,29,77,40,77,20,0,16,39,23,54,37,64,30,53,60,39,71,0,36,0,38,68,18,62,71,16,0,0,0,0,0,0,0,0,0,0,0,0,0,0,0,0,0,0,0,0,0,0,0,0],"split_type":[0,0,0,0,0,0,0,0,0,0,0,0,0,0,0,0,0,0,0,0,0,0,0,0,0,0,0,0,0,0,0,0,0,0,0,0,0,0,0,0,0,0,0,0,0,0,0,0,0,0,0,0,0],"sum_hessian":[2.5040215E3,9.269793E2,1.5770422E3,2.0801465E2,7.1896466E2,1.2422832E3,3.3475906E2,1.8339609E2,2.4618553E1,5.0562863E2,2.1333606E2,1.1460085E3,9.627457E1,9.906364E1,2.3569543E2,1.1177508E2,7.162102E1,4.4107257E2,6.4556046E1,1.475314E2,6.580465E1,1.1272472E3,1.8761421E1,7.590009E1,2.0374474E1,7.601633E1,2.3047306E1,4.418063E1,1.9151482E2,3.869993E1,7.307515E1,1.366624E1,5.7954777E1,9.746649E1,3.4360608E2,2.4339933E1,4.0216114E1,1.1524298E2,3.2288425E1,8.76622E2,2.5062515E2,1.0134571E1,6.5765526E1,1.017103E1,1.0203444E1,4.6504143E1,2.9512186E1,1.0895203E1,1.2152103E1,3.2686874E1,1.14937525E1,5.494633E1,1.3656848E2],"tree_param":{"num_deleted":"0","num_feature":"86","num_nodes":"53","size_leaf_vector":"1"}},{"base_weights":[7.854853E-4,-5.011723E-1,3.5144737E-1,-9.52722E-2,-7.9852957E-1,1.4193623E-1,7.50528E-1,2.8091314E-1,-1.0355841E0,-1.0175481E0,2.375665E-1,5.4368067E-1,-2.9744834E-1,1.5720786E-1,8.601835E-1,-1.4726458E-1,9.4474965E-1,-1.3941399E0,3.8993856E-1,3.3386815E-1,-1.1653029E0,1.2275484E0,-6.020868E-1,6.5864956E-1,-8.65772E-2,-6.399182E-1,8.470807E-1,8.8899964E-1,-9.104356E-2,5.1925164E-1,1.01404E0,1.3010529E-2,-7.249796E-2,3.373112E-2,9.900582E-2,-8.209156E-2,7.3019797E-3,5.3651403E-3,3.6172926E-2,-6.830974E-2,9.5498644E-2,-6.1338015E-2,2.917285E-2,7.897474E-2,1.753127E-2,3.685039E-2,-7.698498E-2,-2.7790708E-2,3.9044496E-2,1.8215073E-2,-5.6652702E-2,7.0868984E-2,9.488024E-3,5.7290025E-2,-2.7579512E-4,3.9358567E-2,-4.8049252E-2,6.14375E-2,4.034467E-2],"categories":[],"categories_nodes":[],"categories_segments":[],"categories_sizes":[],"default_left":[0,0,0,0,0,0,0,0,0,0,0,0,0,0,0,0,0,0,0,0,0,0,0,0,0,0,0,0,0,0,0,0,0,0,0,0,0,0,0,0,0,0,0,0,0,0,0,0,0,0,0,0,0,0,0,0,0,0,0],"id":17,"left_children":[1,3,5,7,9,11,13,15,17,19,21,23,25,27,29,31,33,35,37,39,41,43,45,47,-1,49,51,53,-1,55,57,-1,-1,-1,-1,-1,-1,-1,-1,-1,-1,-1,-1,-1,-1,-1,-1,-1,-1,-1,-1,-1,-1,-1,-1,-1,-1,-1,-1],"loss_changes":[4.2063895E2,1.1845204E2,1.17452255E2,1.4780873E2,1.2897385E2,1.6330489E2,3.1252197E1,8.504333E1,6.167006E1,9.397839E1,8.364637E1,1.2742543E2,1.7372772E2,1.1278827E2,2.0728546E1,9.720382E1,3.1188126E1,3.6887833E1,2.169585E0,1.282337E2,4.6179443E1,1.3487587E1,6.969607E1,6.8852234E1,0E0,1.6923764E2,3.7857437E1,1.3171543E1,0E0,5.196271E1,1.1257019E1,0E0,0E0,0E0,0E0,0E0,0E0,0E0,0E0,0E0,0E0,0E0,0E0,0E0,0E0,0E0,0E0,0E0,0E0,0E0,0E0,0E0,0E0,0E0,0E0,0E0,0E0,0E0,0E0],"parents":[2147483647,0,0,1,1,2,2,3,3,4,4,5,5,6,6,7,7,8,8,9,9,10,10,11,11,12,12,13,13,14,14,15,15,16,16,17,17,18,18,19,19,20,20,21,21,22,22,23,23,25,25,26,26,27,27,29,29,30,30],"right_children":[2,4,6,8,10,12,14,16,18,20,22,24,26,28,30,32,34,36,38,40,42,44,46,48,-1,50,52,54,-1,56,58,-1,-1,-1,-1,-1,-1,-1,-1,-1,-1,-1,-1,-1,-1,-1,-1,-1,-1,-1,-1,-1,-1,-1,-1,-1,-1,-1,-1],"split_conditions":[2.1881044E-3,-4.4490965E-3,8.689934E-4,1.1008955E-2,5.0207105E-4,2.4745028E-1,3.364744E-3,-5.9828474E-3,-3.875969E-5,-1.4128072E0,5.573676E-4,1.3861615E-3,8.944112E-3,9.6826017E-1,7.3945033E-4,-1.2706607E-3,5.112464E-3,2.2149783E-2,7.3913044E-1,-1.5629766E0,9.9999946E-1,2.0338982E-1,1.3043478E-1,-2.350579E-3,-8.65772E-2,2.6086956E-1,1.0634716E0,2.9318025E-3,-9.104356E-2,4.210524E-1,5.973716E-3,1.3010529E-2,-7.249796E-2,3.373112E-2,9.900582E-2,-8.209156E-2,7.3019797E-3,5.3651403E-3,3.6172926E-2,-6.830974E-2,9.5498644E-2,-6.1338015E-2,2.917285E-2,7.897474E-2,1.753127E-2,3.685039E-2,-7.698498E-2,-2.7790708E-2,3.9044496E-2,1.8215073E-2,-5.6652702E-2,7.0868984E-2,9.488024E-3,5.7290025E-2,-2.7579512E-4,3.9358567E-2,-4.8049252E-2,6.14375E-2,4.034467E-2],"split_indices":[55,26,24,47,24,61,54,26,24,77,24,21,29,51,15,68,69,47,83,77,65,84,83,36,0,83,51,55,0,63,79,0,0,0,0,0,0,0,0,0,0,0,0,0,0,0,0,0,0,0,0,0,0,0,0,0,0,0,0],"split_type":[0,0,0,0,0,0,0,0,0,0,0,0,0,0,0,0,0,0,0,0,0,0,0,0,0,0,0,0,0,0,0,0,0,0,0,0,0,0,0,0,0,0,0,0,0,0,0,0,0,0,0,0,0,0,0,0,0,0,0],"sum_hessian":[2.3878413E3,9.817677E2,1.4060736E3,4.158199E2,5.6594775E2,9.230781E2,4.8299548E2,2.9742545E2,1.1839444E2,4.672839E2,9.8663864E1,4.8218762E2,4.408905E2,7.58632E1,4.071323E2,1.8118669E2,1.1623877E2,9.467372E1,2.372072E1,4.5863594E1,4.2142032E2,4.5121315E1,5.3542553E1,4.5971243E2,2.2475166E1,3.3975586E2,1.0113464E2,5.5815384E1,2.0047812E1,1.2816194E2,2.7897034E2,1.3856718E2,4.2619503E1,9.357358E1,2.2665188E1,8.155671E1,1.3117007E1,1.3717566E1,1.0003155E1,2.209769E1,2.3765903E1,4.0745657E2,1.3963733E1,3.154554E1,1.3575775E1,2.2094534E1,3.1448017E1,4.1641094E1,4.1807135E2,1.1191372E2,2.2784215E2,5.3451256E1,4.7683388E1,4.3234375E1,1.2581011E1,1.0897371E2,1.9188238E1,1.3432559E2,1.4464476E2],"tree_param":{"num_deleted":"0","num_feature":"86","num_nodes":"59","size_leaf_vector":"1"}},{"base_weights":[4.562602E-2,-3.5644013E-1,4.930448E-1,-7.2062515E-2,-2.8025624E-1,3.621964E-1,9.808411E-1,-3.813525E-1,4.6536297E-1,7.889199E-1,1.1576242E-1,4.5271292E-1,1.1347927E0,-2.0990516E-1,-1.1095828E0,6.2635165E-1,-7.2305046E-2,8.970057E-1,-1.0163417E-1,3.112633E-1,-6.4417624E-1,-3.621263E-2,9.590087E-1,1.1885055E0,2.1760851E-2,-7.920133E-2,-6.8516256E-3,5.578187E-2,-6.1733585E-2,3.359747E-3,6.542747E-2,2.6207343E-3,4.9616374E-2,-1.2288324E-3,4.9957946E-2,-8.894121E-2,-4.5001818E-4,6.0945456E-3,6.1927468E-2,4.529154E-2,6.431352E-2],"categories":[],"categories_nodes":[],"categories_segments":[],"categories_sizes":[],"default_left":[0,0,0,0,0,0,0,0,0,0,0,0,0,0,0,0,0,0,0,0,0,0,0,0,0,0,0,0,0,0,0,0,0,0,0,0,0,0,0,0,0],"id":18,"left_children":[1,3,5,-1,7,9,11,13,15,17,19,21,23,25,27,29,-1,31,-1,33,35,-1,37,39,-1,-1,-1,-1,-1,-1,-1,-1,-1,-1,-1,-1,-1,-1,-1,-1,-1],"loss_changes":[4.3954242E2,1.0577292E2,7.332675E1,0E0,9.0903435E1,9.589561E1,1.9154999E1,1.3206082E2,4.515214E1,1.0361723E2,8.640951E1,3.4595844E1,6.385071E0,8.571491E1,5.7554596E1,5.0740097E1,0E0,2.581131E1,0E0,1.0696726E2,8.55685E1,0E0,9.129894E0,3.4212952E0,0E0,0E0,0E0,0E0,0E0,0E0,0E0,0E0,0E0,0E0,0E0,0E0,0E0,0E0,0E0,0E0,0E0],"parents":[2147483647,0,0,1,1,2,2,4,4,5,5,6,6,7,7,8,8,9,9,10,10,11,11,12,12,13,13,14,14,15,15,17,17,19,19,20,20,22,22,23,23],"right_children":[2,4,6,-1,8,10,12,14,16,18,20,22,24,26,28,30,-1,32,-1,34,36,-1,38,40,-1,-1,-1,-1,-1,-1,-1,-1,-1,-1,-1,-1,-1,-1,-1,-1,-1],"split_conditions":[2.175112E-3,8.695652E-2,1.4941291E-2,-7.2062515E-2,2.255014E-3,9.6339786E-1,1.2939051E-3,5.86074E1,-1.2919896E-8,2.7776491E-6,7.999984E-1,2.7427373E-2,2.4660912E-3,-1.5465728E-2,-1.7865473E0,-3.602395E-3,-7.2305046E-2,2.542373E-1,-1.0163417E-1,2.9187116E-1,1.3394444E-1,-3.621263E-2,2.4159653E-2,6.7710175E1,2.1760851E-2,-7.920133E-2,-6.8516256E-3,5.578187E-2,-6.1733585E-2,3.359747E-3,6.542747E-2,2.6207343E-3,4.9616374E-2,-1.2288324E-3,4.9957946E-2,-8.894121E-2,-4.5001818E-4,6.0945456E-3,6.1927468E-2,4.529154E-2,6.431352E-2],"split_indices":[50,83,69,0,31,51,31,38,66,33,12,47,6,19,77,44,0,84,0,77,60,0,67,38,0,0,0,0,0,0,0,0,0,0,0,0,0,0,0,0,0],"split_type":[0,0,0,0,0,0,0,0,0,0,0,0,0,0,0,0,0,0,0,0,0,0,0,0,0,0,0,0,0,0,0,0,0,0,0,0,0,0,0,0,0],"sum_hessian":[2.4413164E3,1.2858165E3,1.1554998E3,8.311275E1,1.2027037E3,9.126378E2,2.4286198E2,1.0596515E3,1.4305229E2,3.3315005E2,5.7948773E2,5.5852192E1,1.870098E2,8.5887256E2,2.0077892E2,1.3260829E2,1.0443995E1,3.2155014E2,1.1599924E1,4.6148795E2,1.179998E2,1.6610476E1,3.9241714E1,1.7289334E2,1.4116454E1,4.2140583E1,8.16732E2,1.0221919E1,1.9055699E2,7.356035E1,5.9047947E1,3.2873756E1,2.886764E2,3.106455E2,1.5084244E2,4.1646507E1,7.63533E1,1.0272692E1,2.8969023E1,4.7330734E1,1.25562614E2],"tree_param":{"num_deleted":"0","num_feature":"86","num_nodes":"41","size_leaf_vector":"1"}},{"base_weights":[5.6902297E-2,-3.0315584E-1,4.4373548E-1,3.628587E-2,-5.7037085E-1,2.2821744E-1,7.5292367E-1,-7.6163016E-2,1.556746E-1,-8.369866E-1,1.2946369E-1,5.572529E-1,-1.8467215E-1,-1.6347948E-1,8.2446194E-1,-8.0586046E-2,2.5011137E-1,-1.2573258E0,-4.2122674E-1,3.661675E-1,-7.522939E-2,6.2212324E-1,-8.446759E-2,-9.364598E-2,1.4403896E-1,7.4662083E-1,-1.0308845E-1,4.6021175E-1,9.1339296E-1,1.7115612E-2,-7.134164E-2,5.6238145E-2,-6.803612E-2,5.7828934E-3,-4.5214158E-2,-7.428651E-2,2.8773997E-2,2.3709567E-2,7.3700614E-2,-8.272553E-2,1.6392117E-2,-2.0646211E-4,6.474594E-2,-4.4356756E-2,4.225881E-2,2.00181E-2,4.8857484E-2],"categories":[],"categories_nodes":[],"categories_segments":[],"categories_sizes":[],"default_left":[0,0,0,0,0,0,0,0,0,0,0,0,0,0,0,0,0,0,0,0,0,0,0,0,0,0,0,0,0,0,0,0,0,0,0,0,0,0,0,0,0,0,0,0,0,0,0],"id":19,"left_children":[1,3,5,7,9,11,13,-1,15,17,19,21,23,25,27,-1,29,31,33,35,-1,37,-1,-1,39,41,-1,43,45,-1,-1,-1,-1,-1,-1,-1,-1,-1,-1,-1,-1,-1,-1,-1,-1,-1,-1],"loss_changes":[3.3738232E2,1.13859474E2,7.7543945E1,1.0312682E2,1.3118858E2,9.384428E1,3.1604218E1,0E0,8.621627E1,8.819858E1,7.565222E1,5.6941017E1,1.7053679E2,6.2863083E1,1.3844238E1,0E0,7.610343E1,6.3700623E1,6.6927E1,6.693724E1,0E0,4.6265976E1,0E0,0E0,8.551166E1,1.0277078E1,0E0,4.7158596E1,1.1119293E1,0E0,0E0,0E0,0E0,0E0,0E0,0E0,0E0,0E0,0E0,0E0,0E0,0E0,0E0,0E0,0E0,0E0,0E0],"parents":[2147483647,0,0,1,1,2,2,3,3,4,4,5,5,6,6,8,8,9,9,10,10,11,11,12,12,13,13,14,14,16,16,17,17,18,18,19,19,21,21,24,24,25,25,27,27,28,28],"right_children":[2,4,6,8,10,12,14,-1,16,18,20,22,24,26,28,-1,30,32,34,36,-1,38,-1,-1,40,42,-1,44,46,-1,-1,-1,-1,-1,-1,-1,-1,-1,-1,-1,-1,-1,-1,-1,-1,-1,-1],"split_conditions":[2.5846497E-3,-4.4490965E-3,8.2224165E-4,-1.149048E-3,4.0491647E-4,-3.7429864E-3,8.618525E-3,-7.6163016E-2,-1.2970168E-8,9.099585E-3,9.677416E-1,6.752026E-4,-1.2232418E-3,2E0,-1.501514E-3,-8.0586046E-2,4.283838E0,-1.4395316E-3,9.9174535E-1,-7.410611E-3,-7.522939E-2,9.554319E-4,-8.446759E-2,-9.364598E-2,-2.2720185E-3,3.5370506E-2,-1.0308845E-1,1.8057696E-3,2.220446E-16,1.7115612E-2,-7.134164E-2,5.6238145E-2,-6.803612E-2,5.7828934E-3,-4.5214158E-2,-7.428651E-2,2.8773997E-2,2.3709567E-2,7.3700614E-2,-8.272553E-2,1.6392117E-2,-2.0646211E-4,6.474594E-2,-4.4356756E-2,4.225881E-2,2.00181E-2,4.8857484E-2],"split_indices":[55,19,24,23,24,4,19,0,69,47,65,23,1,13,15,0,40,30,51,44,0,22,0,0,30,47,0,24,22,0,0,0,0,0,0,0,0,0,0,0,0,0,0,0,0,0,0],"split_type":[0,0,0,0,0,0,0,0,0,0,0,0,0,0,0,0,0,0,0,0,0,0,0,0,0,0,0,0,0,0,0,0,0,0,0,0,0,0,0,0,0,0,0,0,0,0,0],"sum_hessian":[2.4202224E3,1.2534701E3,1.1667522E3,5.523337E2,7.011364E2,6.887347E2,4.7801746E2,3.8380615E1,5.1395306E2,5.0767465E2,1.9346178E2,3.832288E2,3.0550592E2,3.4419662E1,4.435978E2,2.5200325E1,4.8875278E2,2.5132092E2,2.5635373E2,1.6971454E2,2.3747229E1,3.7321973E2,1.0009068E1,4.9073383E1,2.5643253E2,2.3639935E1,1.0779727E1,8.848281E1,3.55115E2,4.6409183E2,2.466095E1,1.0003812E1,2.4131711E2,1.216744E2,1.3467934E2,1.6566454E1,1.5314809E2,3.1942508E2,5.3794655E1,2.2984024E1,2.334485E2,1.0319785E1,1.332015E1,1.9315563E1,6.9167244E1,4.023159E1,3.148834E2],"tree_param":{"num_deleted":"0","num_feature":"86","num_nodes":"47","size_leaf_vector":"1"}},{"base_weights":[4.051475E-2,-3.6858606E-1,4.5525807E-1,-4.8399466E-1,3.6892012E-1,2.0467705E-1,7.996454E-1,-7.869589E-2,-8.778572E-1,-7.0840254E-2,5.77662E-1,5.0426686E-1,-2.1354665E-1,-2.2875672E-2,8.3204347E-1,-7.6459366E-1,2.2613065E-1,-4.0937677E-1,-1.2215259E0,1.0147346E0,-2.2245333E-1,6.297767E-1,-8.698279E-2,-1.3389971E0,2.330121E-1,6.261586E-2,8.679212E-1,2.0156806E-2,-5.7165693E-2,-2.380188E-3,5.7846703E-2,2.2300655E-2,-4.7158938E-2,-6.958698E-2,5.0867338E-2,7.4513376E-2,-2.655553E-3,-7.497333E-2,4.399115E-2,-8.374589E-2,3.6103606E-2,2.8497878E-2,-9.37847E-2,6.3939996E-2,-9.005896E-3,1.4295021E-2,-6.5608094E-3,4.5964826E-2,1.9366449E-2],"categories":[],"categories_nodes":[],"categories_segments":[],"categories_sizes":[],"default_left":[0,0,0,0,0,0,0,0,0,0,0,0,0,0,0,0,0,0,0,0,0,0,0,0,0,0,0,0,0,0,0,0,0,0,0,0,0,0,0,0,0,0,0,0,0,0,0,0,0],"id":20,"left_children":[1,3,5,7,9,11,13,15,17,-1,19,21,23,-1,25,27,29,31,33,35,37,39,-1,41,43,45,47,-1,-1,-1,-1,-1,-1,-1,-1,-1,-1,-1,-1,-1,-1,-1,-1,-1,-1,-1,-1,-1,-1],"loss_changes":[4.0491165E2,1.02438156E2,1.0200641E2,1.6574097E2,6.1493355E1,8.627584E1,2.0726318E1,1.0757621E2,8.41629E1,0E0,5.1607216E1,1.1391758E2,1.449122E2,0E0,1.3283112E1,7.054373E1,9.0906364E1,1.0301302E2,1.1703256E2,4.8531807E1,7.537344E1,8.205707E1,0E0,8.508859E1,8.9607635E1,1.0430993E0,1.0985535E1,0E0,0E0,0E0,0E0,0E0,0E0,0E0,0E0,0E0,0E0,0E0,0E0,0E0,0E0,0E0,0E0,0E0,0E0,0E0,0E0,0E0,0E0],"parents":[2147483647,0,0,1,1,2,2,3,3,4,4,5,5,6,6,7,7,8,8,10,10,11,11,12,12,14,14,15,15,16,16,17,17,18,18,19,19,20,20,21,21,23,23,24,24,25,25,26,26],"right_children":[2,4,6,8,10,12,14,16,18,-1,20,22,24,-1,26,28,30,32,34,36,38,40,-1,42,44,46,48,-1,-1,-1,-1,-1,-1,-1,-1,-1,-1,-1,-1,-1,-1,-1,-1,-1,-1,-1,-1,-1,-1],"split_conditions":[2.5846497E-3,5.3151493E-4,8.2224165E-4,-4.4490965E-3,4.1551106E-3,8.44345E-3,-3.8978506E-2,-1.6347736E-3,1.0034276E0,-7.0840254E-2,8.6111E-1,3.8201656E-4,-2.3283004E-3,-2.2875672E-2,4.6289405E-3,7.946653E-1,7.0912856E-1,-1.3698767E-3,4.341553E0,1.5347309E-3,1.0113688E-2,1.2969749E1,-8.698279E-2,-9.478744E-3,1.331678E-1,4.0933098E1,9.3995035E-1,2.0156806E-2,-5.7165693E-2,-2.380188E-3,5.7846703E-2,2.2300655E-2,-4.7158938E-2,-6.958698E-2,5.0867338E-2,7.4513376E-2,-2.655553E-3,-7.497333E-2,4.399115E-2,-8.374589E-2,3.6103606E-2,2.8497878E-2,-9.37847E-2,6.3939996E-2,-9.005896E-3,1.4295021E-2,-6.5608094E-3,4.5964826E-2,1.9366449E-2],"split_indices":[55,24,24,19,67,45,66,31,51,0,71,23,68,0,19,51,61,68,52,53,17,39,0,3,61,39,71,0,0,0,0,0,0,0,0,0,0,0,0,0,0,0,0,0,0,0,0,0,0],"split_type":[0,0,0,0,0,0,0,0,0,0,0,0,0,0,0,0,0,0,0,0,0,0,0,0,0,0,0,0,0,0,0,0,0,0,0,0,0,0,0,0,0,0,0,0,0,0,0,0,0],"sum_hessian":[2.3844E3,1.2002999E3,1.1841E3,1.0383009E3,1.619991E2,6.864871E2,4.9761282E2,5.124377E2,5.2586316E2,1.6299059E1,1.4570004E2,3.9999127E2,2.8649585E2,1.2094496E1,4.855183E2,1.5730394E2,3.5513373E2,2.2357437E2,3.022888E2,9.413462E1,5.1565426E1,3.79527E2,2.0464275E1,8.088043E1,2.0561542E2,2.1877146E1,4.6364117E2,3.844274E1,1.18861206E2,2.7507886E2,8.005488E1,8.5900475E1,1.3767389E2,2.813238E2,2.0965017E1,6.4921745E1,2.9212875E1,2.3764303E1,2.7801123E1,1.3911606E1,3.656154E2,1.7694674E1,6.318576E1,5.7700462E1,1.4791495E2,1.0185218E1,1.1691928E1,4.1785187E2,4.5789295E1],"tree_param":{"num_deleted":"0","num_feature":"86","num_nodes":"49","size_leaf_vector":"1"}},{"base_weights":[2.5374847E-2,-3.4552398E-1,4.4456697E-1,3.5256565E-1,-5.0730515E-1,5.1318336E-1,-2.4434498E-1,-7.8599386E-2,4.9262795E-1,5.4789245E-2,-6.8835515E-1,5.3739625E-1,-8.2477346E-2,-1.2022133E0,9.604736E-1,6.154054E-1,-6.8830624E-2,-1.1208434E0,4.219752E-1,-8.804148E-1,3.18252E-1,3.6650863E-1,8.4046614E-1,1.8560482E-2,-8.111155E-2,1.1175471E-2,6.489995E-2,9.399547E-3,5.9109606E-2,4.1459072E-2,-7.805701E-2,-7.081343E-2,3.31476E-2,1.4130595E-2,-5.07511E-2,-7.143138E-2,3.3549443E-2,2.1644482E-2,-1.0212652E-1,-3.0005291E-2,4.525395E-2],"categories":[],"categories_nodes":[],"categories_segments":[],"categories_sizes":[],"default_left":[0,0,0,0,0,0,0,0,0,0,0,0,0,0,0,0,0,0,0,0,0,0,0,0,0,0,0,0,0,0,0,0,0,0,0,0,0,0,0,0,0],"id":21,"left_children":[1,3,5,7,9,11,13,-1,15,17,19,21,-1,23,25,27,-1,29,31,33,35,37,39,-1,-1,-1,-1,-1,-1,-1,-1,-1,-1,-1,-1,-1,-1,-1,-1,-1,-1],"loss_changes":[3.6242572E2,1.3985779E2,5.188298E1,6.351178E1,1.0232608E2,5.2914917E1,1.16204956E2,0E0,5.0833443E1,1.063858E2,1.4726303E2,5.0608887E1,0E0,3.7746605E1,1.0665302E1,4.9407394E1,0E0,5.171569E1,8.4087E1,1.00328125E2,7.631763E1,1.0180988E2,3.355417E1,0E0,0E0,0E0,0E0,0E0,0E0,0E0,0E0,0E0,0E0,0E0,0E0,0E0,0E0,0E0,0E0,0E0,0E0],"parents":[2147483647,0,0,1,1,2,2,3,3,4,4,5,5,6,6,8,8,9,9,10,10,11,11,13,13,14,14,15,15,17,17,18,18,19,19,20,20,21,21,22,22],"right_children":[2,4,6,8,10,12,14,-1,16,18,20,22,-1,24,26,28,-1,30,32,34,36,38,40,-1,-1,-1,-1,-1,-1,-1,-1,-1,-1,-1,-1,-1,-1,-1,-1,-1,-1],"split_conditions":[2.175112E-3,-1.23818135E-2,5.6445923E0,-1.1505273E-2,-1.3143338E-3,6.282566E0,2.472908E-2,-7.8599386E-2,4.9999937E-1,-7.2992803E-3,2.3800556E-3,3.6363637E-3,-8.2477346E-2,4.683844E-2,1.0681697E1,1.0658141E-16,-6.8830624E-2,-2.0857996E-3,8.9450617E-4,2.0052368E1,1.216177E-3,9.465926E-3,2.0451479E-1,1.8560482E-2,-8.111155E-2,1.1175471E-2,6.489995E-2,9.399547E-3,5.9109606E-2,4.1459072E-2,-7.805701E-2,-7.081343E-2,3.31476E-2,1.4130595E-2,-5.07511E-2,-7.143138E-2,3.3549443E-2,2.1644482E-2,-1.0212652E-1,-3.0005291E-2,4.525395E-2],"split_indices":[50,44,40,80,31,58,26,0,62,66,31,5,0,61,40,72,0,22,53,38,50,2,57,0,0,0,0,0,0,0,0,0,0,0,0,0,0,0,0,0,0],"split_type":[0,0,0,0,0,0,0,0,0,0,0,0,0,0,0,0,0,0,0,0,0,0,0,0,0,0,0,0,0,0,0,0,0,0,0,0,0,0,0,0,0],"sum_hessian":[2.3289922E3,1.2356411E3,1.0933511E3,2.3214262E2,1.0034985E3,9.9468005E2,9.867101E1,1.5006425E1,2.171362E2,2.4451463E2,7.589838E2,9.844563E2,1.0223725E1,5.5016415E1,4.36546E1,2.044327E2,1.2703499E1,5.7640396E1,1.8687424E2,6.375623E2,1.2142155E2,6.311297E2,3.5332663E2,1.1566272E1,4.345014E1,1.4328265E1,2.9326334E1,1.1740533E2,8.7027374E1,1.0412821E1,4.7227577E1,2.1044935E1,1.658293E2,6.594501E1,5.716173E2,1.9838844E1,1.015827E2,6.15044E2,1.6085705E1,1.4745001E1,3.3858163E2],"tree_param":{"num_deleted":"0","num_feature":"86","num_nodes":"41","size_leaf_vector":"1"}},{"base_weights":[3.9654795E-2,-4.8328447E-1,3.1812838E-1,1.1544042E0,-5.9723556E-1,2.0193094E-1,8.018226E-1,7.725313E-3,1.4277495E0,-2.4359697E-1,-8.8801014E-1,3.0120623E-1,-1.1361712E0,6.240336E-1,1.1838452E0,3.7055817E-2,8.111716E-2,-1.307895E0,9.5757894E-2,5.02954E-2,-9.8377514E-1,4.0660614E-1,-2.7408427E-1,-8.5276954E-2,3.6412895E-2,1.821817E-1,1.0196127E0,5.6515986E-1,1.3526256E0,2.9442534E-2,-7.925644E-2,1.6062504E-2,-7.164027E-2,4.7575023E-2,-5.1965177E-2,-8.787454E-2,2.1867892E-2,6.6910214E-3,-7.940328E-2,3.830267E-2,-1.0968161E-1,1.9530283E-2,5.5628907E-2,-2.8432675E-3,5.767569E-2,7.506184E-2,2.9837338E-2],"categories":[],"categories_nodes":[],"categories_segments":[],"categories_sizes":[],"default_left":[0,0,0,0,0,0,0,0,0,0,0,0,0,0,0,0,0,0,0,0,0,0,0,0,0,0,0,0,0,0,0,0,0,0,0,0,0,0,0,0,0,0,0,0,0,0,0],"id":22,"left_children":[1,3,5,7,9,11,13,-1,15,17,19,21,23,25,27,-1,-1,29,31,-1,33,35,37,-1,-1,39,41,43,45,-1,-1,-1,-1,-1,-1,-1,-1,-1,-1,-1,-1,-1,-1,-1,-1,-1,-1],"loss_changes":[3.3944305E2,1.517738E2,8.5229904E1,1.4099037E1,7.760739E1,1.633833E2,1.9057632E1,0E0,4.0928116E0,1.2431989E2,7.6328674E1,6.949304E1,9.152067E1,3.5177956E1,8.662994E0,0E0,0E0,4.4779144E1,9.0425804E1,0E0,4.3548737E1,6.501857E1,9.554445E1,0E0,0E0,1.3641788E2,5.659027E0,8.076149E0,6.9294434E0,0E0,0E0,0E0,0E0,0E0,0E0,0E0,0E0,0E0,0E0,0E0,0E0,0E0,0E0,0E0,0E0,0E0,0E0],"parents":[2147483647,0,0,1,1,2,2,3,3,4,4,5,5,6,6,8,8,9,9,10,10,11,11,12,12,13,13,14,14,17,17,18,18,20,20,21,21,22,22,25,25,26,26,27,27,28,28],"right_children":[2,4,6,8,10,12,14,-1,16,18,20,22,24,26,28,-1,-1,30,32,-1,34,36,38,-1,-1,40,42,44,46,-1,-1,-1,-1,-1,-1,-1,-1,-1,-1,-1,-1,-1,-1,-1,-1,-1,-1],"split_conditions":[1.3382899E-3,-3.2638074E-3,8.944112E-3,-3.753111E-3,-3.5521635E-3,8.873024E-4,7.826087E-1,7.725313E-3,8.758261E-1,-7.528243E-3,-1.162792E-2,2.3869255E0,4E0,4.2394053E-2,7.2505254E-1,3.7055817E-2,8.111716E-2,-2.8754294E0,9.830034E-4,5.02954E-2,-7.7319713E-3,-1.4154634E1,1.1703833E0,-8.5276954E-2,3.6412895E-2,2.8372552E-2,4.9949163E-1,3.4722222E-3,3.896104E-3,2.9442534E-2,-7.925644E-2,1.6062504E-2,-7.164027E-2,4.7575023E-2,-5.1965177E-2,-8.787454E-2,2.1867892E-2,6.6910214E-3,-7.940328E-2,3.830267E-2,-1.0968161E-1,1.9530283E-2,5.5628907E-2,-2.8432675E-3,5.767569E-2,7.506184E-2,2.9837338E-2],"split_indices":[49,30,29,30,19,32,83,0,51,66,66,40,13,45,61,0,0,76,49,0,68,40,51,0,0,45,58,6,9,0,0,0,0,0,0,0,0,0,0,0,0,0,0,0,0,0,0],"split_type":[0,0,0,0,0,0,0,0,0,0,0,0,0,0,0,0,0,0,0,0,0,0,0,0,0,0,0,0,0,0,0,0,0,0,0,0,0,0,0,0,0,0,0,0,0,0,0],"sum_hessian":[2.3290007E3,8.08897E2,1.5201039E3,5.197087E1,7.569261E2,1.2269734E3,2.9313052E2,1.1571905E1,4.0398968E1,3.425275E2,4.143986E2,1.143021E3,8.395237E1,2.0201175E2,9.111877E1,1.0096257E1,3.030271E1,8.2192566E1,2.6033493E2,1.9437643E1,3.9496094E2,9.664273E2,1.7659367E2,6.441874E1,1.9533634E1,9.623406E1,1.0577769E2,2.058884E1,7.052992E1,1.0292155E1,7.190041E1,2.2761293E2,3.272199E1,1.0516131E1,3.844448E2,1.27081785E1,9.537191E2,1.3538698E2,4.1206688E1,7.782718E1,1.8406883E1,1.4428873E1,9.1348816E1,1.0364532E1,1.0224308E1,5.800696E1,1.2522963E1],"tree_param":{"num_deleted":"0","num_feature":"86","num_nodes":"47","size_leaf_vector":"1"}},{"base_weights":[4.1780762E-2,-2.6170918E-1,4.7511482E-1,-7.359825E-1,-7.4047E-2,-8.291324E-2,5.1400733E-1,2.793527E-1,-9.146841E-1,-6.6333994E-2,1.7106637E-2,-7.991082E-2,5.4315096E-1,-7.39018E-1,1.2326406E0,2.5577673E-1,-1.0639573E0,-8.010309E-2,9.0279184E-2,-4.3821958E-1,5.925969E-1,3.9529234E-2,-8.017155E-2,7.911971E-2,4.0707078E-2,4.827532E-2,-7.1722955E-2,-6.2445696E-2,-6.1380706E-4,9.492617E-3,-4.815589E-2,3.3338387E-2,-7.773299E-2,5.3819686E-2,2.4326129E-2],"categories":[],"categories_nodes":[],"categories_segments":[],"categories_sizes":[],"default_left":[0,0,0,0,0,0,0,0,0,0,0,0,0,0,0,0,0,0,0,0,0,0,0,0,0,0,0,0,0,0,0,0,0,0,0],"id":23,"left_children":[1,3,5,7,9,-1,11,13,15,-1,17,-1,19,21,23,25,27,-1,29,31,33,-1,-1,-1,-1,-1,-1,-1,-1,-1,-1,-1,-1,-1,-1],"loss_changes":[3.0438074E2,1.2099933E2,7.983864E1,7.02818E1,1.1164379E2,0E0,5.8446976E1,5.7646084E1,5.769586E1,0E0,1.07939766E2,0E0,4.516623E1,3.9436634E1,2.9487724E0,4.6746765E1,5.6530426E1,0E0,9.164467E1,5.6459175E1,4.4545074E1,0E0,0E0,0E0,0E0,0E0,0E0,0E0,0E0,0E0,0E0,0E0,0E0,0E0,0E0],"parents":[2147483647,0,0,1,1,2,2,3,3,4,4,6,6,7,7,8,8,10,10,12,12,13,13,14,14,15,15,16,16,18,18,19,19,20,20],"right_children":[2,4,6,8,10,-1,12,14,16,-1,18,-1,20,22,24,26,28,-1,30,32,34,-1,-1,-1,-1,-1,-1,-1,-1,-1,-1,-1,-1,-1,-1],"split_conditions":[1.2987013E-3,-1.3225251E-1,-2.3589694E0,-1.0618703E-3,3.6711214E-4,-8.291324E-2,2.5010964E-2,-2.3529422E-3,-7.372717E-4,-6.6333994E-2,-1.1885065E-3,-7.991082E-2,-1.2019231E-8,2.8657879E1,1.5254237E-1,-1.0504307E-3,2.6341977E-3,-8.010309E-2,4.9999875E-1,4.162346E-1,1.3333325E-1,3.9529234E-2,-8.017155E-2,7.911971E-2,4.0707078E-2,4.827532E-2,-7.1722955E-2,-6.2445696E-2,-6.1380706E-4,9.492617E-3,-4.815589E-2,3.3338387E-2,-7.773299E-2,5.3819686E-2,2.4326129E-2],"split_indices":[5,77,76,36,50,0,58,1,24,0,23,0,69,38,84,15,27,0,12,58,65,0,0,0,0,0,0,0,0,0,0,0,0,0,0],"split_type":[0,0,0,0,0,0,0,0,0,0,0,0,0,0,0,0,0,0,0,0,0,0,0,0,0,0,0,0,0,0,0,0,0,0,0],"sum_hessian":[2.3123538E3,1.3600172E3,9.523367E2,3.8459262E2,9.7542456E2,1.625919E1,9.3607745E2,5.739076E1,3.2720184E2,6.532137E1,9.101032E2,1.1960397E1,9.2411707E2,2.7806126E1,2.9584633E1,3.685285E1,2.90349E2,3.8388054E1,8.7171515E2,4.385364E1,8.802634E2,1.0029092E1,1.7777033E1,1.4470821E1,1.5113812E1,2.6298185E1,1.0554666E1,2.4668286E2,4.366614E1,7.972675E2,7.444762E1,2.2197275E1,2.1656364E1,1.5647997E2,7.237835E2],"tree_param":{"num_deleted":"0","num_feature":"86","num_nodes":"35","size_leaf_vector":"1"}},{"base_weights":[2.2801338E-2,-3.2666966E-1,3.787203E-1,3.8683388E-1,-4.5262378E-1,1.06259905E-1,5.8205247E-1,5.8421916E-1,-6.8679824E-2,-3.0979535E-1,-9.6753144E-1,-1.3540081E0,2.4190155E-1,6.7796063E-1,-4.0673125E-3,-6.2303163E-2,7.8292066E-1,-6.834719E-1,3.2262668E-2,-1.1985825E0,6.9106233E-1,-9.213261E-2,5.661854E-3,3.365967E-1,-8.663701E-2,-2.938503E-1,7.267304E-1,-1.0998989E0,8.4476066E-1,1.02985024E-1,2.023866E-2,-5.0221354E-2,1.6282995E-3,-2.7765543E-3,9.640809E-2,-6.608429E-2,2.126197E-3,1.0610527E-1,-6.911863E-2,-8.530295E-2,2.126994E-2,-9.167271E-2,5.3094216E-2,5.0721385E-2,2.6467716E-2,2.4665156E-2,-8.345073E-2,-0E0,5.9555292E-2],"categories":[],"categories_nodes":[],"categories_segments":[],"categories_sizes":[],"default_left":[0,0,0,0,0,0,0,0,0,0,0,0,0,0,0,0,0,0,0,0,0,0,0,0,0,0,0,0,0,0,0,0,0,0,0,0,0,0,0,0,0,0,0,0,0,0,0,0,0],"id":24,"left_children":[1,3,5,7,9,11,13,15,-1,17,19,21,23,25,27,-1,29,31,33,35,37,-1,-1,39,-1,41,43,45,47,-1,-1,-1,-1,-1,-1,-1,-1,-1,-1,-1,-1,-1,-1,-1,-1,-1,-1,-1,-1],"loss_changes":[2.813954E2,1.02755486E2,6.1967896E1,6.037748E1,7.0961136E1,9.538276E1,3.612851E1,5.734292E1,0E0,9.74257E1,8.141876E1,2.972313E1,8.281903E1,2.6390594E1,8.5646645E1,0E0,6.679891E1,8.381297E1,6.660775E1,2.8432007E1,8.098135E1,0E0,0E0,7.701136E1,0E0,5.8305008E1,2.9145447E1,3.7416542E1,1.5044388E1,0E0,0E0,0E0,0E0,0E0,0E0,0E0,0E0,0E0,0E0,0E0,0E0,0E0,0E0,0E0,0E0,0E0,0E0,0E0,0E0],"parents":[2147483647,0,0,1,1,2,2,3,3,4,4,5,5,6,6,7,7,9,9,10,10,11,11,12,12,13,13,14,14,16,16,17,17,18,18,19,19,20,20,23,23,25,25,26,26,27,27,28,28],"right_children":[2,4,6,8,10,12,14,16,-1,18,20,22,24,26,28,-1,30,32,34,36,38,-1,-1,40,-1,42,44,46,48,-1,-1,-1,-1,-1,-1,-1,-1,-1,-1,-1,-1,-1,-1,-1,-1,-1,-1,-1,-1],"split_conditions":[2.5989783E-3,1.0169491E-1,1.3037809E-3,1.5811183E0,-1.2722646E-8,-8.201424E-3,5.2038403E0,4.6492938E-4,-6.8679824E-2,-1.0922994E-3,1.0330094E-3,6.666644E-1,1.0240657E-3,-1.2834401E-2,9.606148E-3,-6.2303163E-2,5.7335076E-4,-1.2889375E-1,1E0,5.573676E-4,9.741719E-4,-9.213261E-2,5.661854E-3,-1.638077E0,-8.663701E-2,8.8135594E-1,7.2449856E-3,2.048619E-3,1.2708749E0,1.02985024E-1,2.023866E-2,-5.0221354E-2,1.6282995E-3,-2.7765543E-3,9.640809E-2,-6.608429E-2,2.126197E-3,1.0610527E-1,-6.911863E-2,-8.530295E-2,2.126994E-2,-9.167271E-2,5.3094216E-2,5.0721385E-2,2.6467716E-2,2.4665156E-2,-8.345073E-2,-0E0,5.9555292E-2],"split_indices":[55,84,5,52,68,17,40,49,0,1,23,62,0,2,9,0,53,59,35,24,15,0,0,40,0,84,45,49,51,0,0,0,0,0,0,0,0,0,0,0,0,0,0,0,0,0,0,0,0],"split_type":[0,0,0,0,0,0,0,0,0,0,0,0,0,0,0,0,0,0,0,0,0,0,0,0,0,0,0,0,0,0,0,0,0,0,0,0,0,0,0,0,0,0,0,0,0,0,0,0,0],"sum_hessian":[2.2602874E3,1.140374E3,1.1199133E3,1.706744E2,9.696996E2,4.7946097E2,6.404523E2,1.54119E2,1.6555391E1,7.605337E2,2.0916591E2,3.9924885E1,4.395361E2,5.504026E2,9.0049736E1,1.4527625E1,1.3959138E2,3.6313074E2,3.9740295E2,1.8388708E2,2.527882E1,2.9809555E1,1.011533E1,4.2026233E2,1.9273756E1,2.5963583E1,5.2443896E2,3.9228287E1,5.0821453E1,3.0819828E1,1.0877155E2,2.5055809E2,1.1257266E2,3.8069214E2,1.6710817E1,1.6730775E2,1.6579332E1,1.4970936E1,1.0307884E1,1.6703554E1,4.0355878E2,1.2026921E1,1.3936663E1,2.1150336E2,3.129356E2,1.0313582E1,2.8914703E1,1.5151242E1,3.5670208E1],"tree_param":{"num_deleted":"0","num_feature":"86","num_nodes":"49","size_leaf_vector":"1"}},{"base_weights":[3.3778798E-2,-2.6243296E-1,3.68688E-1,-6.6541016E-2,-1.7510855E-1,-1.1852477E0,4.0903327E-1,-1.0226264E-1,-1.332464E0,-9.410141E-3,-8.850711E-2,2.3083854E-1,7.7533567E-1,2.370394E-2,-8.3853215E-1,-8.116326E-2,1.2291055E-2,1.0496541E0,1.3128781E-1,-2.6816973E-2,8.2773316E-1,-5.431523E-3,2.748308E-2,-6.390096E-2,5.496533E-2,6.360066E-2,-1.4735475E-2,-8.646416E-2,9.8064495E-3,-1.4366607E-2,4.336048E-2],"categories":[],"categories_nodes":[],"categories_segments":[],"categories_sizes":[],"default_left":[0,0,0,0,0,0,0,0,0,0,0,0,0,0,0,0,0,0,0,0,0,0,0,0,0,0,0,0,0,0,0],"id":25,"left_children":[1,3,5,-1,7,9,11,13,15,-1,-1,17,19,21,23,-1,-1,25,27,-1,29,-1,-1,-1,-1,-1,-1,-1,-1,-1,-1],"loss_changes":[2.2527065E2,1.1202523E2,6.722893E1,0E0,9.372933E1,1.53134575E1,6.7583176E1,9.750211E1,3.0765892E1,0E0,0E0,5.6887848E1,2.3816086E1,6.2580627E1,1.3221107E2,0E0,0E0,2.3113655E1,7.574278E1,0E0,1.4703964E1,0E0,0E0,0E0,0E0,0E0,0E0,0E0,0E0,0E0,0E0],"parents":[2147483647,0,0,1,1,2,2,4,4,5,5,6,6,7,7,8,8,11,11,12,12,13,13,14,14,17,17,18,18,20,20],"right_children":[2,4,6,-1,8,10,12,14,16,-1,-1,18,20,22,24,-1,-1,26,28,-1,30,-1,-1,-1,-1,-1,-1,-1,-1,-1,-1],"split_conditions":[2.175112E-3,5.4872833E-4,-1.2834401E-2,-6.6541016E-2,1.8804685E-3,4.6578813E-3,5.0874837E-3,-1.5189532E-3,2.548939E-3,-9.410141E-3,-8.850711E-2,-1.0246129E-2,3.377825E1,2.5846497E-3,9.9999946E-1,-8.116326E-2,1.2291055E-2,-1.4333006E-3,-1.1709602E-8,-2.6816973E-2,-9.493054E-1,-5.431523E-3,2.748308E-2,-6.390096E-2,5.496533E-2,6.360066E-2,-1.4735475E-2,-8.646416E-2,9.8064495E-3,-1.4366607E-2,4.336048E-2],"split_indices":[50,53,2,0,49,53,55,44,49,0,0,16,39,55,65,0,0,31,69,0,59,0,0,0,0,0,0,0,0,0,0],"split_type":[0,0,0,0,0,0,0,0,0,0,0,0,0,0,0,0,0,0,0,0,0,0,0,0,0,0,0,0,0,0,0],"sum_hessian":[2.2686985E3,1.2038586E3,1.0648397E3,8.9799866E1,1.1140587E3,2.6166258E1,1.0386735E3,1.0491954E3,6.486337E1,1.0226434E1,1.5939825E1,7.000326E2,3.3864093E2,8.9662585E2,1.5256956E2,5.4801064E1,1.0062312E1,7.473994E1,6.252926E2,1.257997E1,3.2606097E2,7.16862E2,1.7976385E2,1.24684235E2,2.788533E1,6.4242386E1,1.0497551E1,2.014128E1,6.0515137E2,1.084747E1,3.152135E2],"tree_param":{"num_deleted":"0","num_feature":"86","num_nodes":"31","size_leaf_vector":"1"}},{"base_weights":[9.432474E-2,-1.8659301E-1,4.301121E-1,9.4475694E-2,-4.122035E-1,3.527619E-1,9.629842E-1,5.998757E-1,-2.641425E-1,3.4461632E-1,-7.3507166E-1,3.85992E-1,-9.408089E-2,5.4397746E-3,1.0647008E0,-7.388483E-2,7.326856E-1,4.9356782E-1,-6.1446893E-1,-8.325867E-2,1.0802923E0,-8.4344345E-1,1.0274409E0,1.0291994E0,2.9708257E-1,1.1501639E0,2.5351003E-2,4.595957E-2,-3.1082457E-2,-2.2944242E-3,7.753608E-2,9.359372E-3,-5.2772146E-2,2.1935698E-2,-7.298473E-2,7.473611E-2,1.1305316E-2,2.2120057E-2,-4.846507E-2,-1.2414957E-3,9.5060624E-2,6.1400037E-2,-8.587142E-3,-5.4217536E-2,1.8313332E-2,3.7571218E-2,5.938163E-2],"categories":[],"categories_nodes":[],"categories_segments":[],"categories_sizes":[],"default_left":[0,0,0,0,0,0,0,0,0,0,0,0,0,0,0,0,0,0,0,0,0,0,0,0,0,0,0,0,0,0,0,0,0,0,0,0,0,0,0,0,0,0,0,0,0,0,0],"id":26,"left_children":[1,3,5,7,9,11,13,15,17,19,21,23,-1,-1,25,-1,27,29,31,33,35,37,39,41,43,45,-1,-1,-1,-1,-1,-1,-1,-1,-1,-1,-1,-1,-1,-1,-1,-1,-1,-1,-1,-1,-1],"loss_changes":[2.177392E2,7.976515E1,4.286609E1,1.0172987E2,1.7074059E2,6.8877335E1,1.1282043E1,6.528332E1,8.745484E1,6.603545E1,9.4320496E1,5.144664E1,0E0,0E0,4.8852844E0,0E0,5.6086304E1,5.9676926E1,7.983146E1,9.637095E1,2.6776459E1,7.518765E1,2.6663498E1,2.6492882E1,7.665431E1,4.31015E-1,0E0,0E0,0E0,0E0,0E0,0E0,0E0,0E0,0E0,0E0,0E0,0E0,0E0,0E0,0E0,0E0,0E0,0E0,0E0,0E0,0E0],"parents":[2147483647,0,0,1,1,2,2,3,3,4,4,5,5,6,6,7,7,8,8,9,9,10,10,11,11,14,14,16,16,17,17,18,18,19,19,20,20,21,21,22,22,23,23,24,24,25,25],"right_children":[2,4,6,8,10,12,14,16,18,20,22,24,-1,-1,26,-1,28,30,32,34,36,38,40,42,44,46,-1,-1,-1,-1,-1,-1,-1,-1,-1,-1,-1,-1,-1,-1,-1,-1,-1,-1,-1,-1,-1],"split_conditions":[2.2113812E-3,5E-1,4.2394053E-2,-5.1732194E-1,-1.2958813E0,9.6666616E-1,6.999993E-1,-8.242142E-3,-1.4333006E-3,-1.519638E0,9.9999946E-1,1.841528E-3,-9.408089E-2,5.4397746E-3,9.3995035E-1,-7.388483E-2,7.2328036E-4,-2.4545388E-3,-5.214201E-4,-2.1335914E0,-5.064735E-7,-1.3395849E-3,2.1178837E0,4.9999875E-1,2.4160002E-3,3.6091176E-3,2.5351003E-2,4.595957E-2,-3.1082457E-2,-2.2944242E-3,7.753608E-2,9.359372E-3,-5.2772146E-2,2.1935698E-2,-7.298473E-2,7.473611E-2,1.1305316E-2,2.2120057E-2,-4.846507E-2,-1.2414957E-3,9.5060624E-2,6.1400037E-2,-8.587142E-3,-5.4217536E-2,1.8313332E-2,3.7571218E-2,5.938163E-2],"split_indices":[50,85,45,60,76,71,64,18,31,76,65,53,0,0,71,0,36,18,32,76,37,0,57,11,54,31,0,0,0,0,0,0,0,0,0,0,0,0,0,0,0,0,0,0,0,0,0],"split_type":[0,0,0,0,0,0,0,0,0,0,0,0,0,0,0,0,0,0,0,0,0,0,0,0,0,0,0,0,0,0,0,0,0,0,0,0,0,0,0,0,0,0,0,0,0,0,0],"sum_hessian":[2.3061958E3,1.2557712E3,1.0504244E3,5.592223E2,6.96549E2,9.1889056E2,1.3153387E2,2.3194653E2,3.2727573E2,2.0818213E2,4.8836685E2,9.062841E2,1.2606408E1,1.4321176E1,1.1721269E2,1.3282734E1,2.186638E2,1.0325479E2,2.2402095E2,1.3210165E2,7.608047E1,4.6062268E2,2.7744164E1,1.0863964E2,7.9764453E2,1.00560356E2,1.6652336E1,1.925437E2,2.6120104E1,6.893822E1,3.431657E1,7.962239E1,1.4439856E2,9.622122E1,3.5880436E1,5.0642857E1,2.5437609E1,4.0770977E1,4.198517E2,1.2975311E1,1.4768851E1,9.3261986E1,1.5377655E1,3.7273163E1,7.6037134E2,1.0675523E1,8.9884834E1],"tree_param":{"num_deleted":"0","num_feature":"86","num_nodes":"47","size_leaf_vector":"1"}},{"base_weights":[8.231973E-2,-1.9025639E-1,3.968127E-1,3.7799832E-1,-3.3424827E-1,3.207313E-1,8.7050426E-1,5.1357454E-1,-6.342387E-2,-6.0997057E-1,6.3916616E-2,3.5704008E-1,-9.757315E-2,-2.3629544E-2,9.7316676E-1,2.2737365E-2,9.015831E-1,-4.805202E-2,-9.994657E-1,1.2204325E0,-1.9678959E-1,3.93901E-1,-8.04712E-2,6.4497447E-1,1.0665067E0,2.930275E-2,-7.818694E-2,2.905627E-2,9.31497E-2,1.0566976E-2,-6.8557486E-2,2.4466915E-2,-5.8395635E-2,1.200961E-1,3.3861898E-2,4.2048715E-2,-2.0478783E-2,2.1091148E-2,-8.631754E-2,-2.1673776E-3,5.6042284E-2,3.224347E-2,5.57293E-2],"categories":[],"categories_nodes":[],"categories_segments":[],"categories_sizes":[],"default_left":[0,0,0,0,0,0,0,0,0,0,0,0,0,0,0,0,0,0,0,0,0,0,0,0,0,0,0,0,0,0,0,0,0,0,0,0,0,0,0,0,0,0,0],"id":27,"left_children":[1,3,5,7,9,11,13,15,-1,17,19,21,-1,-1,23,25,27,29,31,33,35,37,-1,39,41,-1,-1,-1,-1,-1,-1,-1,-1,-1,-1,-1,-1,-1,-1,-1,-1,-1,-1],"loss_changes":[1.9851569E2,1.0162184E2,3.8350464E1,5.6629124E1,1.0881781E2,7.7111046E1,2.092067E1,4.421833E1,0E0,1.2796907E2,1.2274481E2,6.679698E1,0E0,0E0,3.3656921E0,9.368035E1,3.8683014E1,8.305088E1,8.730698E1,4.6127342E1,7.363052E1,5.378914E1,0E0,1.1065489E1,1.2461395E0,0E0,0E0,0E0,0E0,0E0,0E0,0E0,0E0,0E0,0E0,0E0,0E0,0E0,0E0,0E0,0E0,0E0,0E0],"parents":[2147483647,0,0,1,1,2,2,3,3,4,4,5,5,6,6,7,7,9,9,10,10,11,11,14,14,15,15,16,16,17,17,18,18,19,19,20,20,21,21,23,23,24,24],"right_children":[2,4,6,8,10,12,14,16,-1,18,20,22,-1,-1,24,26,28,30,32,34,36,38,-1,40,42,-1,-1,-1,-1,-1,-1,-1,-1,-1,-1,-1,-1,-1,-1,-1,-1,-1,-1],"split_conditions":[2.175112E-3,6.2499963E-2,3.8082805E-2,-2.4595931E-3,4.2921086E-4,1.7875351E-2,-2.3445474E-2,-1.519638E0,-6.342387E-2,-1.3143338E-3,3.3333266E-1,2.6088946E0,-9.757315E-2,-2.3629544E-2,3.999992E-1,-7.106394E-4,-9.5104515E-5,1.9726788E-6,-1.4705114E-3,6.063084E-4,1.7583596E-4,9.999995E-1,-8.04712E-2,9.416515E-3,5.0370055E-3,2.930275E-2,-7.818694E-2,2.905627E-2,9.31497E-2,1.0566976E-2,-6.8557486E-2,2.4466915E-2,-5.8395635E-2,1.200961E-1,3.3861898E-2,4.2048715E-2,-2.0478783E-2,2.1091148E-2,-8.631754E-2,-2.1673776E-3,5.6042284E-2,3.224347E-2,5.57293E-2],"split_indices":[50,65,45,29,22,4,66,76,0,31,71,60,0,0,12,45,31,37,30,54,30,65,0,55,53,0,0,0,0,0,0,0,0,0,0,0,0,0,0,0,0,0,0],"split_type":[0,0,0,0,0,0,0,0,0,0,0,0,0,0,0,0,0,0,0,0,0,0,0,0,0,0,0,0,0,0,0,0,0,0,0,0,0,0,0,0,0,0,0],"sum_hessian":[2.3136516E3,1.2394647E3,1.0741869E3,2.5010843E2,9.893563E2,9.271604E2,1.4702654E2,2.3177234E2,1.833608E1,5.843933E2,4.04963E2,9.134507E2,1.3709698E1,1.011524E1,1.369113E2,1.0290817E2,1.2886418E2,2.3980724E2,3.4458606E2,7.3888664E1,3.3107437E2,8.974782E2,1.5972486E1,3.2305035E1,1.0460626E2,7.6454666E1,2.6453499E1,9.793044E1,3.0933735E1,2.011389E2,3.866833E1,3.477059E1,3.0981546E2,2.2135763E1,5.17529E1,5.5751335E1,2.7532303E2,8.8664996E2,1.0828236E1,1.349051E1,1.8814526E1,1.2395434E1,9.221083E1],"tree_param":{"num_deleted":"0","num_feature":"86","num_nodes":"43","size_leaf_vector":"1"}},{"base_weights":[5.4850828E-2,-2.5039756E-1,3.6148286E-1,-5.040767E-1,1.0729646E-1,2.5876212E-1,7.651687E-1,-1.9980854E-1,-9.296193E-1,-7.6808535E-2,2.3078959E-1,3.9100266E-1,-3.4467936E-1,8.488514E-1,-1.2257456E-2,2.6854327E-1,-9.431502E-1,-1.0095057E0,4.7389567E-2,-9.9142647E-1,3.770721E-1,-1.4148413E-1,5.1298815E-1,-1.2921913E0,2.2895236E-1,1.1860717E-1,9.459762E-1,-2.2130571E-3,7.867642E-2,-7.263052E-2,3.364764E-2,4.1128304E-3,-5.780926E-2,-7.213666E-2,2.986288E-2,2.289736E-2,-7.637068E-2,-5.981146E-2,2.0916373E-2,3.3787575E-2,5.358662E-4,2.5821432E-2,-8.315844E-2,-7.882812E-2,3.4307443E-2,5.1188935E-2,-4.5818362E-2,5.919528E-2,3.491598E-2],"categories":[],"categories_nodes":[],"categories_segments":[],"categories_sizes":[],"default_left":[0,0,0,0,0,0,0,0,0,0,0,0,0,0,0,0,0,0,0,0,0,0,0,0,0,0,0,0,0,0,0,0,0,0,0,0,0,0,0,0,0,0,0,0,0,0,0,0,0],"id":28,"left_children":[1,3,5,7,9,11,13,15,17,-1,19,21,23,25,-1,27,29,31,-1,33,35,37,39,41,43,45,47,-1,-1,-1,-1,-1,-1,-1,-1,-1,-1,-1,-1,-1,-1,-1,-1,-1,-1,-1,-1,-1,-1],"loss_changes":[2.104103E2,1.0230495E2,4.6204285E1,8.507622E1,9.521837E1,7.161668E1,1.9441574E1,1.346637E2,4.2131012E1,0E0,7.831184E1,4.7872246E1,8.812774E1,1.4657547E1,0E0,9.714025E1,1.24109985E2,4.2450806E1,0E0,3.4526955E1,6.0728645E1,8.187467E1,4.886258E1,4.195684E1,8.462986E1,2.5199932E1,9.877853E0,0E0,0E0,0E0,0E0,0E0,0E0,0E0,0E0,0E0,0E0,0E0,0E0,0E0,0E0,0E0,0E0,0E0,0E0,0E0,0E0,0E0,0E0],"parents":[2147483647,0,0,1,1,2,2,3,3,4,4,5,5,6,6,7,7,8,8,10,10,11,11,12,12,13,13,15,15,16,16,17,17,19,19,20,20,21,21,22,22,23,23,24,24,25,25,26,26],"right_children":[2,4,6,8,10,12,14,16,18,-1,20,22,24,26,-1,28,30,32,-1,34,36,38,40,42,44,46,48,-1,-1,-1,-1,-1,-1,-1,-1,-1,-1,-1,-1,-1,-1,-1,-1,-1,-1,-1,-1,-1,-1],"split_conditions":[2.5846497E-3,1.9863553E-3,1.3157883E-2,-1.2468953E-3,-1.6192459E-3,8.414429E-4,8.135593E-1,1.3657664E-3,2.0756555E0,-7.6808535E-2,1.7391305E-1,-1.2916682E-3,3.5751532E-3,-5.784859E-1,-1.2257456E-2,5.866135E-4,1.1827323E-3,-1.0566456E-2,4.7389567E-2,-1.1723329E-8,2.4934297E-3,4.2857113E-1,6.666667E-1,1.5415157E-3,3.2551314E-3,-3.5038602E-1,1.0233522E-2,-2.2130571E-3,7.867642E-2,-7.263052E-2,3.364764E-2,4.1128304E-3,-5.780926E-2,-7.213666E-2,2.986288E-2,2.289736E-2,-7.637068E-2,-5.981146E-2,2.0916373E-2,3.3787575E-2,5.358662E-4,2.5821432E-2,-8.315844E-2,-7.882812E-2,3.4307443E-2,5.1188935E-2,-4.5818362E-2,5.919528E-2,3.491598E-2],"split_indices":[55,54,69,68,22,36,84,55,77,0,83,32,19,60,0,22,1,19,0,68,55,11,85,54,55,77,18,0,0,0,0,0,0,0,0,0,0,0,0,0,0,0,0,0,0,0,0,0,0],"split_type":[0,0,0,0,0,0,0,0,0,0,0,0,0,0,0,0,0,0,0,0,0,0,0,0,0,0,0,0,0,0,0,0,0,0,0,0,0,0,0,0,0,0,0,0,0,0,0,0,0],"sum_hessian":[2.245913E3,1.1254243E3,1.1204886E3,6.583723E2,4.6705197E2,8.947116E2,2.2577707E2,3.848817E2,2.734906E2,3.1786247E1,4.3526575E2,7.343098E2,1.604018E2,2.0874585E2,1.7031216E1,2.36424E2,1.4845772E2,2.6282266E2,1.0667921E1,4.5836082E1,3.8942966E2,1.3668362E2,5.976262E2,6.0081764E1,1.0032003E2,2.4886284E1,1.8385956E2,1.9142819E2,4.499581E1,1.12998985E2,3.5458736E1,3.1099636E1,2.3172304E2,3.5816338E1,1.0019744E1,3.7434494E2,1.5084727E1,4.7059765E1,8.962386E1,4.5094937E2,1.4667686E2,1.0113581E1,4.9968185E1,1.973146E1,8.058857E1,1.3332947E1,1.1553337E1,9.16373E1,9.222227E1],"tree_param":{"num_deleted":"0","num_feature":"86","num_nodes":"49","size_leaf_vector":"1"}},{"base_weights":[3.8772956E-2,-6.1452754E-2,7.242395E-1,8.782021E-3,-8.5809934E-1,-4.7689894E-1,8.3692867E-1,3.6822807E-2,-8.688962E-2,-1.1336429E0,7.856984E-1,-7.556289E-2,4.3609127E-2,-1.9280715E-2,8.9693046E-1,-1.5513697E-1,2.843944E-1,3.2311406E-2,-6.432193E-2,2.473922E-2,5.2052468E-2,6.96651E-1,1.2345988E0,1.5724548E-4,-6.511807E-2,-6.0393143E-2,2.0196486E-2,-3.7490893E-2,4.035012E-2,2.7078409E-2,6.7917764E-2],"categories":[],"categories_nodes":[],"categories_segments":[],"categories_sizes":[],"default_left":[0,0,0,0,0,0,0,0,0,0,0,0,0,0,0,0,0,0,0,0,0,0,0,0,0,0,0,0,0,0,0],"id":29,"left_children":[1,3,5,7,9,11,13,15,-1,17,19,-1,-1,-1,21,23,25,-1,-1,-1,-1,27,29,-1,-1,-1,-1,-1,-1,-1,-1],"loss_changes":[1.5000565E2,1.0664267E2,3.8135376E1,8.5644394E1,7.086471E1,3.5501347E1,1.9108109E1,8.200051E1,0E0,3.698564E1,1.0180569E0,0E0,0E0,0E0,1.5415726E1,1.765676E2,1.3483809E2,0E0,0E0,0E0,0E0,2.5406052E1,6.723343E0,0E0,0E0,0E0,0E0,0E0,0E0,0E0,0E0],"parents":[2147483647,0,0,1,1,2,2,3,3,4,4,5,5,6,6,7,7,9,9,10,10,14,14,15,15,16,16,21,21,22,22],"right_children":[2,4,6,8,10,12,14,16,-1,18,20,-1,-1,-1,22,24,26,-1,-1,-1,-1,28,30,-1,-1,-1,-1,-1,-1,-1,-1],"split_conditions":[7.175113E-3,7.800247E1,1.694914E-2,1.2209703E-3,1.54041E0,2.8528037E0,-1.3170025E-4,6.150049E-3,-8.688962E-2,-8.0130094E-1,5.189272E-4,-7.556289E-2,4.3609127E-2,-1.9280715E-2,7.3913044E-1,4.7768596E-1,1.7391305E-1,3.2311406E-2,-6.432193E-2,2.473922E-2,5.2052468E-2,3.0218386E-3,1.4398606E-3,1.5724548E-4,-6.511807E-2,-6.0393143E-2,2.0196486E-2,-3.7490893E-2,4.035012E-2,2.7078409E-2,6.7917764E-2],"split_indices":[16,39,67,32,51,76,22,67,0,60,32,0,0,0,83,46,83,0,0,0,0,15,32,0,0,0,0,0,0,0,0],"split_type":[0,0,0,0,0,0,0,0,0,0,0,0,0,0,0,0,0,0,0,0,0,0,0,0,0,0,0,0,0,0,0],"sum_hessian":[2.1808325E3,1.9033046E3,2.7752783E2,1.7498922E3,1.5341235E2,2.3450699E1,2.5407712E2,1.723262E3,2.663034E1,1.3170613E2,2.1706213E1,1.3247542E1,1.0203156E1,1.1554739E1,2.4252238E2,9.7063184E2,7.5263007E2,1.0105563E1,1.2160057E2,1.1702817E1,1.0003397E1,1.5433922E2,8.818317E1,8.537504E2,1.1688138E2,5.508E1,6.975501E2,1.0464973E1,1.4387424E2,1.4298172E1,7.3884995E1],"tree_param":{"num_deleted":"0","num_feature":"86","num_nodes":"31","size_leaf_vector":"1"}},{"base_weights":[7.194263E-3,-2.6937506E-1,3.204471E-1,-1.9848292E-1,-1.3095473E0,-8.7056026E-2,3.6642814E-1,5.457212E-1,-3.3986577E-1,1.3673025E-2,-7.862712E-2,3.9323565E-1,-9.010319E-2,-7.428694E-2,7.35667E-1,-4.4555038E-1,7.4649876E-1,7.104237E-2,5.9809554E-1,4.710992E-2,-2.635393E-2,-7.490423E-2,-1.7887084E-2,-6.81377E-2,5.332836E-2,-3.529989E-2,1.3530254E-2,-8.712065E-2,3.2256488E-2],"categories":[],"categories_nodes":[],"categories_segments":[],"categories_sizes":[],"default_left":[0,0,0,0,0,0,0,0,0,0,0,0,0,0,0,0,0,0,0,0,0,0,0,0,0,0,0,0,0],"id":30,"left_children":[1,3,5,7,9,-1,11,13,15,-1,-1,17,-1,-1,19,21,23,25,27,-1,-1,-1,-1,-1,-1,-1,-1,-1,-1],"loss_changes":[1.8779398E2,8.446619E1,9.6860825E1,1.1367954E2,3.1023743E1,0E0,5.8422318E1,6.7583496E1,1.0447679E2,0E0,0E0,6.4835205E1,0E0,0E0,4.186705E1,7.576788E1,5.5927353E1,5.965841E1,6.719356E1,0E0,0E0,0E0,0E0,0E0,0E0,0E0,0E0,0E0,0E0],"parents":[2147483647,0,0,1,1,2,2,3,3,4,4,6,6,7,7,8,8,11,11,14,14,15,15,16,16,17,17,18,18],"right_children":[2,4,6,8,10,-1,12,14,16,-1,-1,18,-1,-1,20,22,24,26,28,-1,-1,-1,-1,-1,-1,-1,-1,-1,-1],"split_conditions":[2.2113812E-3,1.8969175E-3,-1.2752391E-2,-1.162792E-2,6.8617535E-1,-8.7056026E-2,4.180989E1,-1.2048193E-8,1.764122E-3,1.3673025E-2,-7.862712E-2,-4.088186E-1,-9.010319E-2,-7.428694E-2,1.999996E-1,-8.958578E-3,2.220446E-16,3.2325222E-3,1.3980934E1,4.710992E-2,-2.635393E-2,-7.490423E-2,-1.7887084E-2,-6.81377E-2,5.332836E-2,-3.529989E-2,1.3530254E-2,-8.712065E-2,3.2256488E-2],"split_indices":[50,49,78,66,51,0,59,67,49,0,0,59,0,0,71,66,22,53,39,0,0,0,0,0,0,0,0,0,0],"split_type":[0,0,0,0,0,0,0,0,0,0,0,0,0,0,0,0,0,0,0,0,0,0,0,0,0,0,0,0,0],"sum_hessian":[2.1655623E3,1.1500287E3,1.01553357E3,1.0778552E3,7.217344E1,2.1304445E1,9.942291E2,1.7150874E2,9.063465E2,1.0222511E1,6.195093E1,9.829425E2,1.1286646E1,1.4036869E1,1.5747188E2,8.2661316E2,7.9733345E1,3.8277234E2,6.0017017E2,1.356228E2,2.1849072E1,6.2326466E1,7.642867E2,1.0034673E1,6.969868E1,7.759618E1,3.0517618E2,1.1071282E1,5.890989E2],"tree_param":{"num_deleted":"0","num_feature":"86","num_nodes":"29","size_leaf_vector":"1"}},{"base_weights":[7.144212E-2,-1.767542E-1,3.37998E-1,-7.39147E-2,-1.22632846E-1,2.4481711E-1,7.67204E-1,8.50004E-1,-2.260874E-1,3.3495343E-1,-4.1704872E-1,-1.3425067E-2,8.41181E-1,-6.777111E-2,1.0954932E0,-1.146343E0,-8.348609E-2,6.945325E-1,1.8314542E-1,-1.60572E0,3.456932E-1,1.1373979E0,6.253322E-1,7.7030264E-2,2.6930207E-2,5.1507395E-2,-6.718367E-2,-1.1859265E-2,3.783331E-2,4.2065505E-2,-3.1944897E-2,5.6126744E-2,3.1141916E-3,-6.689971E-3,-1.0343703E-1,-2.3315633E-2,4.9290575E-2,6.1171312E-2,2.977523E-2,-2.5176063E-2,4.1184526E-2],"categories":[],"categories_nodes":[],"categories_segments":[],"categories_sizes":[],"default_left":[0,0,0,0,0,0,0,0,0,0,0,0,0,0,0,0,0,0,0,0,0,0,0,0,0,0,0,0,0,0,0,0,0,0,0,0,0,0,0,0,0],"id":31,"left_children":[1,3,5,-1,7,9,11,13,15,17,19,-1,21,-1,23,25,27,29,31,33,35,37,39,-1,-1,-1,-1,-1,-1,-1,-1,-1,-1,-1,-1,-1,-1,-1,-1,-1,-1],"loss_changes":[1.4657803E2,8.046611E1,4.2434654E1,0E0,1.1107052E2,5.2592903E1,1.4832237E1,5.8909607E1,1.30672E2,4.207096E1,9.6527504E1,0E0,1.0465561E1,0E0,2.2778137E1,5.88161E1,1.11795685E2,