tree
version=v4
num_class=1
num_tree_per_iteration=1
label_index=0
max_feature_idx=85
objective=binary sigmoid:1
feature_names=Column_0 Column_1 Column_2 Column_3 Column_4 Column_5 Column_6 Column_7 Column_8 Column_9 Column_10 Column_11 Column_12 Column_13 Column_14 Column_15 Column_16 Column_17 Column_18 Column_19 Column_20 Column_21 Column_22 Column_23 Column_24 Column_25 Column_26 Column_27 Column_28 Column_29 Column_30 Column_31 Column_32 Column_33 Column_34 Column_35 Column_36 Column_37 Column_38 Column_39 Column_40 Column_41 Column_42 Column_43 Column_44 Column_45 Column_46 Column_47 Column_48 Column_49 Column_50 Column_51 Column_52 Column_53 Column_54 Column_55 Column_56 Column_57 Column_58 Column_59 Column_60 Column_61 Column_62 Column_63 Column_64 Column_65 Column_66 Column_67 Column_68 Column_69 Column_70 Column_71 Column_72 Column_73 Column_74 Column_75 Column_76 Column_77 Column_78 Column_79 Column_80 Column_81 Column_82 Column_83 Column_84 Column_85
feature_infos=[-0.075009821004866695:0.056239718322876317] [-0.072906770808087787:0.081345639453952401] [-0.079229236547574938:0.11254774032393178] [-0.063497396629160596:0.11145544092532297] [-0.088292607145678312:0.11364123414530306] [0:0.072265624294281114] [0:0.020782395833956045] [0:0.027225130604972437] [0:1] [0:0.072265624294281114] none [0:0.99999986486488313] [0:0.99999980392160703] [0:5] [0:5] [-0.036670556493300865:0.074276111264413691] [-0.045008664695050271:0.09460180550933428] [-0.066406262156168516:0.10690734940106639] [-0.093306968306234306:0.12493685287505341] [-0.10764431690927534:0.13930965809886819] [-0.030553420445811108:0.049242424242424088] [-0.023523192810889437:0.025359066427288912] [-0.013932089165370587:0.016056952816462022] [-0.0074689006081096743:0.0099952304916741674] [-0.0041149625679416379:0.0045901967405852506] [0:1] [-0.10764431690927534:0.13930965809886819] [-0.02930898413128713:0.058172901894195217] [-0.039480588866907862:0.081642366052938842] [-0.058441861479341939:0.098863421258761797] [-0.026533006686628953:0.025629276974396577] [-0.022893654793444969:0.023592593154892087] [-0.010083601347126082:0.0091033478668309832] [-2.6486269867274676e-05:4.8621523996545279e-05] [0:1] [0:1] [-0.012756854516387009:0.016379945696095626] [-7.3238432399771742e-05:9.0341780225583137e-05] [9.2141381950135752:91.16262361742838] [2.0567762841596959:99.056255130519801] [-34.716080113067463:28.952366674139057] [-0.81571723609972846:0.82325247234856758] [0:1] [0:1] [-0.1218832424275974:0.04633368511393221] [-0.01706220903221789:0.17492535861526082] [-0.340393460640183:1.4815058413707876] [0.0044699528298873309:0.15631786160827549] [0:1] [0.00038768448286894465:0.026604196994604964] [0.00014887726453086106:0.0402669969950488] [0.38400429393436669:1.64677973394872] [0:5.1990234046790231] [0:0.049636797075622713] [0.00039234214146015588:0.033629355690830851] [0.00083125203624538147:0.023693881851836969] [0:1] [0:4.9713607536932942] [0:9.6102943521379718] [-1:9175.1499999999996] [-1.6913589183267521:2.8437206956503442] [0:1] [0:0.99999989583334414] [0:0.99999990740741596] [0:0.99999990825688911] [0:0.99999992647059366] [-0.096080921667750618:-9.9403577591417047e-09] [-1.3986013680522547e-08:0.13904336886492374] [-0.077073179735871467:-9.9108026230254609e-09] [-1.4025245187454516e-08:0.12280700523237953] [0:0.99999990740741596] [0:0.99999966666677909] [-0.56410213017784361:0.61904673469514337] [0:1] [0:1] [-0.99999975609762048:0] [-3.6893218933351917:3.8788772601629207] [-2.6397813346023984:3.3165551552099384] [-0.076171875000000111:0.11912568306010929] [-0.0615234375:0.11790393013100453] [-0.084507042253521125:0.12035010940919033] [-0.0615234375:0.11790393013100453] [-0.084507042253521125:0.12035010940919033] [0:1] [0:0.93220338983050843] [0:1]
tree_sizes=2526

Tree=0
num_leaves=23
num_cat=0
split_feature=68 47 49 66 32 2 31 53 83 23 41 61 22 63 59 23 50 69 47 51 1 0
split_gain=423.461 171.416 86.2211 72.6339 51.7763 38.8929 37.4753 36.8045 44.4913 32.8907 45.7902 28.9691 28.5394 23.6738 15.773 12.1325 10.3554 12.3759 8.56957 3.32254 1.95145 1.41254
threshold=-0.012238667004722091 0.016850845001896309 0.0077263975131146379 -1.2292567463934033e-08 0.0032678558607287197 -0.0048573276735254965 0.0018841409086569137 0.0039680208640669136 1.0000000180025095e-35 0.0011496442793901276 -0.20966706845445929 0.55889300376797824 0.0018934940359678356 0.61111085648160246 7.5291253897093835 0.00085358656848610892 0.0049088091092254543 0.0089435569451981074 0.02274216797776597 1.0301466218392343 0.0013377952358994596 0.0031966256894936864
decision_type=2 2 2 2 2 2 2 2 2 2 2 2 2 2 2 2 2 2 2 2 2 2
left_child=5 6 3 4 -3 14 7 8 -2 10 -7 -9 13 -4 16 -8 18 -18 -1 -14 -17 -5
right_child=1 2 12 21 -6 9 15 11 -10 -11 -12 -13 19 -15 -16 20 17 -19 -20 -21 -22 -23
leaf_value=-1.234361369909849 -1.2681186045195478 -1.3271772189708304 -1.2722579830862535 -1.4710882122371243 -1.2157372793518935 -1.2857152936313174 -1.3892146080939958 -1.2833811363591561 -1.3832542926254812 -1.2500833328280299 -1.4456055766087121 -1.409610118524552 -1.2128458380047924 -1.3907285899658421 -1.3002446537567778 -1.473330993431941 -1.2127826475726602 -1.2739828158063125 -1.3035332505659751 -1.2686610508080329 -1.4306160922154565 -1.4306160922154565
leaf_weight=13.186525970697405 8.4987285286188108 391.59596545994282 11.698627308011057 5.8194012790918332 10.633843809366224 10.404194071888925 9.1946733295917529 19.846609294414524 144.94902196526527 16.858268097043037 7.2530234754085532 6.0128667056560507 21.424968734383583 6.9746455550193778 12.466940730810164 9.9087102860212308 84.544630661606789 15.860304936766623 13.900562927126883 13.464903891086577 4.7365256249904624 4.7365256249904633
leaf_count=34 26 1602 37 37 24 35 46 67 716 48 43 32 49 35 45 63 198 51 51 42 27 27
internal_value=-1.31791 -1.33611 -1.3194 -1.32738 -1.32398 -1.24852 -1.37463 -1.3668 -1.37639 -1.29977 -1.35071 -1.31189 -1.25939 -1.31447 -1.23638 -1.43305 -1.23064 -1.22166 -1.26702 -1.23188 -1.46083 -1.45492
internal_weight=843.97 669.496 466.349 412.786 402.23 174.474 203.147 179.307 153.448 34.5155 17.6572 25.8595 53.5631 18.6733 139.959 23.8399 127.492 100.405 27.0871 34.8899 14.6452 10.5559
internal_count=3335 2830 1853 1690 1626 505 977 841 742 126 78 99 163 72 379 136 334 249 85 91 90 64
is_linear=0
shrinkage=1


end of trees

feature_importances:
Column_23=2
Column_47=2
Column_0=1
Column_1=1
Column_2=1
Column_22=1
Column_31=1
Column_32=1
Column_41=1
Column_49=1
Column_50=1
Column_51=1
Column_53=1
Column_59=1
Column_61=1
Column_63=1
Column_66=1
Column_68=1
Column_69=1
Column_83=1

parameters:
[boosting: gbdt]
[objective: binary]
[metric: binary_logloss]
[tree_learner: serial]
[device_type: cpu]
[data_sample_strategy: bagging]
[data: ]
[valid: ]
[num_iterations: 500]
[learning_rate: 0.05]
[num_leaves: 31]
[num_threads: 8]
[seed: 42]
[deterministic: 0]
[force_col_wise: 0]
[force_row_wise: 0]
[histogram_pool_size: -1]
[max_depth: 5]
[min_data_in_leaf: 30]
[min_sum_hessian_in_leaf: 0.001]
[bagging_fraction: 0.8]
[pos_bagging_fraction: 1]
[neg_bagging_fraction: 1]
[bagging_freq: 0]
[bagging_seed: 400]
[bagging_by_query: 0]
[feature_fraction: 0.8]
[feature_fraction_bynode: 1]
[feature_fraction_seed: 30056]
[extra_trees: 0]
[extra_seed: 12879]
[early_stopping_round: 0]
[early_stopping_min_delta: 0]
[first_metric_only: 0]
[max_delta_step: 0]
[lambda_l1: 0.1]
[lambda_l2: 0.5]
[linear_lambda: 0]
[min_gain_to_split: 0]
[drop_rate: 0.1]
[max_drop: 50]
[skip_drop: 0.5]
[xgboost_dart_mode: 0]
[uniform_drop: 0]
[drop_seed: 17869]
[top_rate: 0.2]
[other_rate: 0.1]
[min_data_per_group: 100]
[max_cat_threshold: 32]
[cat_l2: 10]
[cat_smooth: 10]
[max_cat_to_onehot: 4]
[top_k: 20]
[monotone_constraints: ]
[monotone_constraints_method: basic]
[monotone_penalty: 0]
[feature_contri: ]
[forcedsplits_filename: ]
[refit_decay_rate: 0.9]
[cegb_tradeoff: 1]
[cegb_penalty_split: 0]
[cegb_penalty_feature_lazy: ]
[cegb_penalty_feature_coupled: ]
[path_smooth: 0]
[interaction_constraints: ]
[verbosity: -1]
[saved_feature_importance_type: 0]
[use_quantized_grad: 0]
[num_grad_quant_bins: 4]
[quant_train_renew_leaf: 0]
[stochastic_rounding: 1]
[linear_tree: 0]
[max_bin: 255]
[max_bin_by_feature: ]
[min_data_in_bin: 3]
[bin_construct_sample_cnt: 200000]
[data_random_seed: 175]
[is_enable_sparse: 1]
[enable_bundle: 1]
[use_missing: 1]
[zero_as_missing: 0]
[feature_pre_filter: 1]
[pre_partition: 0]
[two_round: 0]
[header: 0]
[label_column: ]
[weight_column: ]
[group_column: ]
[ignore_column: ]
[categorical_feature: ]
[forcedbins_filename: ]
[precise_float_parser: 0]
[parser_config_file: ]
[objective_seed: 16083]
[num_class: 1]
[is_unbalance: 0]
[scale_pos_weight: 4.11503]
[sigmoid: 1]
[boost_from_average: 1]
[reg_sqrt: 0]
[alpha: 0.9]
[fair_c: 1]
[poisson_max_delta_step: 0.7]
[tweedie_variance_power: 1.5]
[lambdarank_truncation_level: 30]
[lambdarank_norm: 1]
[label_gain: ]
[lambdarank_position_bias_regularization: 0]
[eval_at: ]
[multi_error_top_k: 1]
[auc_mu_weights: ]
[num_machines: 1]
[local_listen_port: 12400]
[time_out: 120]
[machine_list_filename: ]
[machines: ]
[gpu_platform_id: -1]
[gpu_device_id: -1]
[gpu_use_dp: 0]
[num_gpu: 1]

end of parameters

pandas_categorical:null
