tree
version=v4
num_class=1
num_tree_per_iteration=1
label_index=0
max_feature_idx=85
objective=binary sigmoid:1
feature_names=Column_0 Column_1 Column_2 Column_3 Column_4 Column_5 Column_6 Column_7 Column_8 Column_9 Column_10 Column_11 Column_12 Column_13 Column_14 Column_15 Column_16 Column_17 Column_18 Column_19 Column_20 Column_21 Column_22 Column_23 Column_24 Column_25 Column_26 Column_27 Column_28 Column_29 Column_30 Column_31 Column_32 Column_33 Column_34 Column_35 Column_36 Column_37 Column_38 Column_39 Column_40 Column_41 Column_42 Column_43 Column_44 Column_45 Column_46 Column_47 Column_48 Column_49 Column_50 Column_51 Column_52 Column_53 Column_54 Column_55 Column_56 Column_57 Column_58 Column_59 Column_60 Column_61 Column_62 Column_63 Column_64 Column_65 Column_66 Column_67 Column_68 Column_69 Column_70 Column_71 Column_72 Column_73 Column_74 Column_75 Column_76 Column_77 Column_78 Column_79 Column_80 Column_81 Column_82 Column_83 Column_84 Column_85
feature_infos=[-0.052292794720634118:0.034486176071169404] [-0.045827033384820096:0.054413421723794202] [-0.050189744523855162:0.069869679960486] [-0.045996866263819214:0.093114789240889298] [-0.065063593347061882:0.10111811979775881] [0:0.050949050440069435] [0:0.036739379601155121] [0:0.023692003714787784] [0:1] [0:0.059940059341258137] none [0:0.999999782608743] [0:0.99999968750009771] [0:5] [0:5] [-0.028695069133510942:0.037775880329203648] [-0.036112947654458827:0.061843629342912543] [-0.052359160496925239:0.076228350970558578] [-0.077829164908051918:0.095750695798858976] [-0.10125372462044058:0.12370051486981359] [-0.023476655236085553:0.044095504409550346] [-0.017529773852535735:0.025894643254056326] [-0.01288319238900637:0.012687107005731502] [-0.0065063649222066866:0.008487340226329243] [-0.0040731581522673865:0.005230300246377606] [0:1] [-0.10125372462044058:0.12370051486981359] [-0.0214533141936607:0.030501723736926278] [-0.031833964755347277:0.049744527505353187] [-0.045704595514720614:0.066928145483511781] [-0.023557912036179712:0.022676403212794346] [-0.020481733524316245:0.02006687139228519] [-0.0066720596607409465:0.0080624947217991464] [-2.5535594293824146e-05:2.3514905020617115e-05] [0:1] [0:1] [-0.0089743868914716682:0.012589083025209447] [-7.0235012842643867e-05:4.3871658239035754e-05] [6.3960099876261722:96.024080482815535] [0.28555087418830283:99.881000619472275] [-37.45318514115224:37.004577716584365] [-0.87207980024747656:0.92048160965631065] [0:1] [0:1] [-0.10426557673744463:0.021798165188526619] [-0.011878096972129271:0.14582411592520206] [-0.46605274022689569:1.5621322910292881] [0.001799901950250904:0.15308108696200148] [0:1] [0.0001302109520999835:0.024646955436883312] [4.5401239788046638e-05:0.035604879125678071] [0.21447131837504463:1.6541829400371617] [0:5.77578851991536] [0:0.033523894967853116] [0:0.025662923895503006] [0.00038164127668971335:0.017940622913071917] [0:1] [0:4.975023014508043] [0:9.8854430147731787] [-1:253246.5] [-1.8274278132267319:2.8459671101133153] [0:1] [0:0.99999984848487145] [0:0.999999870129887] [0:0.999999870129887] [0:0.99999992907801916] [-0.088122617009928295:-9.3370680076532153e-09] [-1.4064697406723781e-08:0.10894494141118183] [-0.077073179735871467:-9.3370680076532153e-09] [-1.4064697406723781e-08:0.097587707263292689] [0:0.999999870129887] [0:0.99999981067824861] [-0.66666552381153688:0.66666500000416662] [0:1] [0:1] [-0.99999979591840893:0] [-4.6022353714661275:4.6494723914107405] [-6.0935755724834353:4.9509952510732855] [-0.048951048951048848:0.072368421052631637] [-0.044955044955044876:0.097587719298245723] [-0.062992125984251968:0.10640732265446218] [-0.044955044955044876:0.097587719298245723] [-0.062992125984251968:0.10640732265446218] [0:1] [0:0.96610169491525422] [0:1]
tree_sizes=2954

Tree=0
num_leaves=27
num_cat=0
split_feature=49 66 19 63 24 36 84 53 24 50 79 49 49 53 61 24 85 85 79 45 66 2 4 46 4 4
split_gain=1601.7 315.192 187.059 145.535 138.766 168.005 146.952 136.836 135.169 94.3064 86.3106 82.174 128.188 77.4908 74.5732 70.6738 65.7291 64.4023 61.3755 86.6835 47.5029 21.8335 70.1385 27.2786 15.2786 20.091
threshold=0.0030483053637047311 -0.012353321422575834 0.021338996789569745 0.35714260204099968 -0.00013517294789361364 0.0023008800705774587 0.73728813559322048 0.0018217584754317833 -2.4594620662066188e-05 0.0018098236373238535 0.0039682609114052312 0.0020981405116267571 0.0014467697323748046 0.0014205847083130123 0.29634991217877804 0.00049878148720650117 0.58333333333333337 0.58333333333333337 -0.017518251939953596 0.0083848001133575174 -0.014384520607284621 0.010010103625673202 0.024893283822550388 1.0253019289742322 0.017631655310355345 0.0078918134776956948
decision_type=2 2 2 2 2 2 2 2 2 2 2 2 2 2 2 2 2 2 2 2 2 2 2 2 2 2
left_child=1 7 3 18 5 9 8 13 -6 -3 14 12 -9 20 -5 -8 -12 -13 -2 -20 -1 24 23 -23 25 -4
right_child=2 4 21 10 6 -7 15 11 -10 -11 16 17 -14 -15 -16 -17 -18 -19 19 -21 -22 22 -24 -25 -26 -27
leaf_value=-1.7989566550495328 -1.6554262987931747 -1.9266213620768247 -1.6753243240670279 -1.7938211342275905 -1.7547308395028443 -1.7230923342873228 -2.0043939103627375 -1.6973335582892237 -1.8755240228063277 -2.0237721895592604 -1.7331013264793531 -1.684666546857998 -1.9444929105964084 -2.0392812599264176 -1.9104059391413066 -1.8698958837561723 -1.8540517940275643 -1.8051098102806258 -1.7201226087847339 -1.8444402441136238 -1.9771572028970184 -1.9278979765461524 -1.6760000917808955 -1.7635586680954165 -1.6292881041877523 -1.7704398556519216
leaf_weight=13.005098171532158 31.490578420460224 71.342858619987965 50.046215325593948 30.239178210496902 28.604363486170769 7.5345055162906638 28.19647541642189 7.9897084310650852 131.90931879729033 37.816103860735893 52.40543894469738 32.064884580671787 14.44086357206106 7.1054073795676223 27.034810706973076 14.321760326623915 16.928979858756065 22.523570470511913 77.329021945595741 19.748301103711128 5.3335423097014436 6.0008469372987765 18.405534170567989 4.7902356386184692 34.752050191164017 12.930046804249285
leaf_count=66 83 528 151 153 125 27 247 25 860 344 211 101 111 67 192 91 103 118 295 117 44 44 54 20 76 59
internal_value=-1.80806 -1.87541 -1.73389 -1.75979 -1.90014 -1.94392 -1.87517 -1.7991 -1.85331 -1.96034 -1.79967 -1.76586 -1.85184 -1.90223 -1.84763 -1.95837 -1.7614 -1.73217 -1.72145 -1.7445 -1.84889 -1.68295 -1.73594 -1.84785 -1.66853 -1.69292
internal_weight=804.29 422.188 382.101 255.176 319.725 116.693 203.032 102.463 160.514 109.159 126.608 77.019 22.4306 25.444 57.274 42.5182 69.3344 54.5885 128.568 97.0773 18.3386 126.925 29.1966 10.7911 97.7283 62.9763
internal_count=4312 2754 1558 1154 2222 899 1323 532 985 872 659 355 136 177 345 338 314 219 495 412 110 404 118 64 286 210
is_linear=0
shrinkage=1


end of trees

feature_importances:
Column_4=3
Column_24=3
Column_49=3
Column_53=2
Column_66=2
Column_79=2
Column_85=2
Column_2=1
Column_19=1
Column_36=1
Column_45=1
Column_46=1
Column_50=1
Column_61=1
Column_63=1
Column_84=1

parameters:
[boosting: gbdt]
[objective: binary]
[metric: binary_logloss]
[tree_learner: serial]
[device_type: cpu]
[data_sample_strategy: bagging]
[data: ]
[valid: ]
[num_iterations: 500]
[learning_rate: 0.05]
[num_leaves: 31]
[num_threads: 8]
[seed: 42]
[deterministic: 0]
[force_col_wise: 0]
[force_row_wise: 0]
[histogram_pool_size: -1]
[max_depth: 5]
[min_data_in_leaf: 30]
[min_sum_hessian_in_leaf: 0.001]
[bagging_fraction: 0.8]
[pos_bagging_fraction: 1]
[neg_bagging_fraction: 1]
[bagging_freq: 0]
[bagging_seed: 400]
[bagging_by_query: 0]
[feature_fraction: 0.8]
[feature_fraction_bynode: 1]
[feature_fraction_seed: 30056]
[extra_trees: 0]
[extra_seed: 12879]
[early_stopping_round: 0]
[early_stopping_min_delta: 0]
[first_metric_only: 0]
[max_delta_step: 0]
[lambda_l1: 0.1]
[lambda_l2: 0.5]
[linear_lambda: 0]
[min_gain_to_split: 0]
[drop_rate: 0.1]
[max_drop: 50]
[skip_drop: 0.5]
[xgboost_dart_mode: 0]
[uniform_drop: 0]
[drop_seed: 17869]
[top_rate: 0.2]
[other_rate: 0.1]
[min_data_per_group: 100]
[max_cat_threshold: 32]
[cat_l2: 10]
[cat_smooth: 10]
[max_cat_to_onehot: 4]
[top_k: 20]
[monotone_constraints: ]
[monotone_constraints_method: basic]
[monotone_penalty: 0]
[feature_contri: ]
[forcedsplits_filename: ]
[refit_decay_rate: 0.9]
[cegb_tradeoff: 1]
[cegb_penalty_split: 0]
[cegb_penalty_feature_lazy: ]
[cegb_penalty_feature_coupled: ]
[path_smooth: 0]
[interaction_constraints: ]
[verbosity: -1]
[saved_feature_importance_type: 0]
[use_quantized_grad: 0]
[num_grad_quant_bins: 4]
[quant_train_renew_leaf: 0]
[stochastic_rounding: 1]
[linear_tree: 0]
[max_bin: 255]
[max_bin_by_feature: ]
[min_data_in_bin: 3]
[bin_construct_sample_cnt: 200000]
[data_random_seed: 175]
[is_enable_sparse: 1]
[enable_bundle: 1]
[use_missing: 1]
[zero_as_missing: 0]
[feature_pre_filter: 1]
[pre_partition: 0]
[two_round: 0]
[header: 0]
[label_column: ]
[weight_column: ]
[group_column: ]
[ignore_column: ]
[categorical_feature: ]
[forcedbins_filename: ]
[precise_float_parser: 0]
[parser_config_file: ]
[objective_seed: 16083]
[num_class: 1]
[is_unbalance: 0]
[scale_pos_weight: 7.29231]
[sigmoid: 1]
[boost_from_average: 1]
[reg_sqrt: 0]
[alpha: 0.9]
[fair_c: 1]
[poisson_max_delta_step: 0.7]
[tweedie_variance_power: 1.5]
[lambdarank_truncation_level: 30]
[lambdarank_norm: 1]
[label_gain: ]
[lambdarank_position_bias_regularization: 0]
[eval_at: ]
[multi_error_top_k: 1]
[auc_mu_weights: ]
[num_machines: 1]
[local_listen_port: 12400]
[time_out: 120]
[machine_list_filename: ]
[machines: ]
[gpu_platform_id: -1]
[gpu_device_id: -1]
[gpu_use_dp: 0]
[num_gpu: 1]

end of parameters

pandas_categorical:null
