tree
version=v4
num_class=1
num_tree_per_iteration=1
label_index=0
max_feature_idx=85
objective=binary sigmoid:1
feature_names=Column_0 Column_1 Column_2 Column_3 Column_4 Column_5 Column_6 Column_7 Column_8 Column_9 Column_10 Column_11 Column_12 Column_13 Column_14 Column_15 Column_16 Column_17 Column_18 Column_19 Column_20 Column_21 Column_22 Column_23 Column_24 Column_25 Column_26 Column_27 Column_28 Column_29 Column_30 Column_31 Column_32 Column_33 Column_34 Column_35 Column_36 Column_37 Column_38 Column_39 Column_40 Column_41 Column_42 Column_43 Column_44 Column_45 Column_46 Column_47 Column_48 Column_49 Column_50 Column_51 Column_52 Column_53 Column_54 Column_55 Column_56 Column_57 Column_58 Column_59 Column_60 Column_61 Column_62 Column_63 Column_64 Column_65 Column_66 Column_67 Column_68 Column_69 Column_70 Column_71 Column_72 Column_73 Column_74 Column_75 Column_76 Column_77 Column_78 Column_79 Column_80 Column_81 Column_82 Column_83 Column_84 Column_85
feature_infos=[-0.035718082602079232:0.06042830600911004] [-0.047790663836348439:0.074994389875649353] [-0.075405830869321802:0.077086440847873347] [-0.094674249735198959:0.082745765516774858] [-0.10731664315037533:0.14127968123603665] [0:0.062291434234800484] [0:0.079449151700750578] [0:0.027225130604972437] [0:1] [0:0.096398304063577397] none [0:0.9999998113207903] [0:0.99999968750009771] [0:5] [0:5] [-0.048696127611813078:0.058288995364705443] [-0.07082522325113394:0.080561200717795822] [-0.096766054866522677:0.1089504271934576] [-0.1092784643552116:0.11815328643639478] [-0.12380673352932203:0.1753695877252468] [-0.043848336342532934:0.044600454263886036] [-0.027549601920889843:0.038296536570053608] [-0.017975031047781087:0.022246941045606317] [-0.0074025462659140784:0.0099426059868996663] [-0.0051848819757128739:0.0065263464794733661] [0:1] [-0.12380673352932203:0.1753695877252468] [-0.041220369467396267:0.049432791973341716] [-0.06392858355223574:0.070248402657007825] [-0.084733637858806721:0.089428048802291604] [-0.031253082834240109:0.031343578047202135] [-0.028942524000611036:0.026390961486423958] [-0.011419427488958914:0.012007908684195876] [-4.0872591232941197e-05:3.6004286027924032e-05] [0:1] [0:1] [-0.015926493493515981:0.01642163647398158] [-7.3219288289050365e-05:7.0579788483086239e-05] [14.241244258054536:83.288084122088492] [6.4348278209300673:95.210328845400198] [-16.898913688373995:24.510615088319092] [-0.71517511483890928:0.66576168244176981] [0:1] [0:1] [-0.15888172728330952:0.036783757313668675] [-0.024744493154105318:0.24052534442047535] [-0.29533843712913493:1.3350427997256096] [0.0088700928932284335:0.22772549383092647] [0:1] [0.0018057018382784055:0.033247348292122454] [0.00094950774507534196:0.040892189764481189] [0.5258350150379133:1.4946710155242906] [0:4.2671799953500669] [0.00067097100222455748:0.035484927322008766] [0.0013256277607975274:0.026866865157121441] [0.0021644328234462274:0.021504183569586558] [0:1] [0:4.9166137100980034] [0:9.4105161588111876] [-1:21986.375] [-1.9754231458114293:2.8450691442628497] [0:1] [0:0.99999977777782723] [0:0.99999980769234464] [0:0.99999986486488313] [0:0.99999992125984871] [-0.12804879112135625:-1.0010009821037613e-08] [-1.3568520751405799e-08:0.17483294905531244] [-0.090330800377470766:-1.0010009821037613e-08] [-1.3986013680522547e-08:0.099770629589786219] [0:0.99999982456143433] [0:0.9999996588132456] [-0.54444394629675152:0.59523781292529943] [0:1] [0:1] [-0.99999987804879542:0] [-2.9982243250449789:3.2911165736743784] [-2.465301659692023:3.6697316805064202] [-0.072632944228274932:0.080135440180586937] [-0.090330788804071305:0.086265607264472299] [-0.10175879396984921:0.15174672489082974] [-0.090330788804071305:0.086265607264472299] [-0.10175879396984921:0.15174672489082974] [0:1] [0:0.76271186440677963] [0:1]
tree_sizes=2328

Tree=0
num_leaves=21
num_cat=0
split_feature=0 18 18 9 0 46 67 24 77 9 59 71 36 5 61 33 19 59 41 61
split_gain=80.8523 31.7602 53.2831 29.7837 23.6835 23.6573 26.9772 21.2862 20.5973 19.9623 19.5451 24.8149 19.0634 16.2591 15.9945 9.94738 9.38638 7.29118 5.37621 2.91608
threshold=0.0026562736096567823 0.0021482075219046996 -0.0085351595552128883 0.0024891110760021803 0.0020898672013540342 1.0132406903144668 0.024929875408813976 0.00029547405292307266 0.27657352427508514 0.0077936539134612027 -0.66178012046957324 0.72072342598543637 -0.0027494985356541217 0.012978590638825125 0.68139671710429861 -5.028908299901081e-07 0.020734501869995484 -0.30734693429315685 0.049667834380710478 0.39233668471693089
decision_type=2 2 2 2 2 2 2 2 2 2 2 2 2 2 2 2 2 2 2 2
left_child=1 2 8 -4 10 6 7 9 12 -2 11 -3 -1 -7 -5 -8 -12 -10 -9 -17
right_child=5 4 3 14 -6 13 15 18 17 -11 16 -13 -14 -15 -16 19 -18 -19 -20 -21
leaf_value=-0.94127788528438805 -1.0279157970379362 -1.0574529572521703 -1.1099686062270204 -1.045340065296136 -1.0473406623367167 -1.0505340760165576 -0.9802760271715284 -0.91162038361263154 -1.0163289535522422 -0.95281352336022318 -0.9769702557836597 -0.96488517595315049 -0.99631298452574613 -0.95508005329974233 -0.97140889934997088 -0.95366748275333257 -0.93870355613248513 -1.0851463423359151 -0.97268761268374926 -0.89505377488260784
leaf_weight=22.091728031635284 18.34030294418335 13.131580650806429 15.207751542329786 33.974424988031387 11.014045625925062 9.3117447793483752 6.1712382137775412 17.339604049921039 8.6737796068191511 17.490743100643158 38.537226945161819 15.109112948179243 62.176935613155365 7.813083440065383 8.7755993604660016 5.9485072195529929 37.30266073346138 6.1298740804195395 7.8433112502098075 34.943303227424622
leaf_count=65 75 59 79 147 48 41 21 44 34 54 132 49 229 24 29 18 109 30 26 82
internal_value=-0.982661 -0.998144 -1.013 -1.05098 -0.97815 -0.949368 -0.940668 -0.964077 -0.990804 -0.990355 -0.970803 -1.00757 -0.9813 -1.00596 -1.02961 -0.911594 -0.957511 -1.04488 -0.92867 -0.902255
internal_weight=397.327 272.125 157.03 57.9578 115.095 125.202 108.077 61.014 99.0723 35.831 104.081 28.2407 84.2687 17.1248 42.75 47.063 75.8399 14.8037 25.1829 40.8918
internal_count=1395 1010 613 255 397 385 320 199 358 129 349 108 294 65 176 121 241 64 70 100
is_linear=0
shrinkage=1


end of trees

feature_importances:
Column_0=2
Column_9=2
Column_18=2
Column_59=2
Column_61=2
Column_5=1
Column_19=1
Column_24=1
Column_33=1
Column_36=1
Column_41=1
Column_46=1
Column_67=1
Column_71=1
Column_77=1

parameters:
[boosting: gbdt]
[objective: binary]
[metric: binary_logloss]
[tree_learner: serial]
[device_type: cpu]
[data_sample_strategy: bagging]
[data: ]
[valid: ]
[num_iterations: 500]
[learning_rate: 0.05]
[num_leaves: 31]
[num_threads: 8]
[seed: 42]
[deterministic: 0]
[force_col_wise: 0]
[force_row_wise: 0]
[histogram_pool_size: -1]
[max_depth: 5]
[min_data_in_leaf: 30]
[min_sum_hessian_in_leaf: 0.001]
[bagging_fraction: 0.8]
[pos_bagging_fraction: 1]
[neg_bagging_fraction: 1]
[bagging_freq: 0]
[bagging_seed: 400]
[bagging_by_query: 0]
[feature_fraction: 0.8]
[feature_fraction_bynode: 1]
[feature_fraction_seed: 30056]
[extra_trees: 0]
[extra_seed: 12879]
[early_stopping_round: 0]
[early_stopping_min_delta: 0]
[first_metric_only: 0]
[max_delta_step: 0]
[lambda_l1: 0.1]
[lambda_l2: 0.5]
[linear_lambda: 0]
[min_gain_to_split: 0]
[drop_rate: 0.1]
[max_drop: 50]
[skip_drop: 0.5]
[xgboost_dart_mode: 0]
[uniform_drop: 0]
[drop_seed: 17869]
[top_rate: 0.2]
[other_rate: 0.1]
[min_data_per_group: 100]
[max_cat_threshold: 32]
[cat_l2: 10]
[cat_smooth: 10]
[max_cat_to_onehot: 4]
[top_k: 20]
[monotone_constraints: ]
[monotone_constraints_method: basic]
[monotone_penalty: 0]
[feature_contri: ]
[forcedsplits_filename: ]
[refit_decay_rate: 0.9]
[cegb_tradeoff: 1]
[cegb_penalty_split: 0]
[cegb_penalty_feature_lazy: ]
[cegb_penalty_feature_coupled: ]
[path_smooth: 0]
[interaction_constraints: ]
[verbosity: -1]
[saved_feature_importance_type: 0]
[use_quantized_grad: 0]
[num_grad_quant_bins: 4]
[quant_train_renew_leaf: 0]
[stochastic_rounding: 1]
[linear_tree: 0]
[max_bin: 255]
[max_bin_by_feature: ]
[min_data_in_bin: 3]
[bin_construct_sample_cnt: 200000]
[data_random_seed: 175]
[is_enable_sparse: 1]
[enable_bundle: 1]
[use_missing: 1]
[zero_as_missing: 0]
[feature_pre_filter: 1]
[pre_partition: 0]
[two_round: 0]
[header: 0]
[label_column: ]
[weight_column: ]
[group_column: ]
[ignore_column: ]
[categorical_feature: ]
[forcedbins_filename: ]
[precise_float_parser: 0]
[parser_config_file: ]
[objective_seed: 16083]
[num_class: 1]
[is_unbalance: 0]
[scale_pos_weight: 2.84298]
[sigmoid: 1]
[boost_from_average: 1]
[reg_sqrt: 0]
[alpha: 0.9]
[fair_c: 1]
[poisson_max_delta_step: 0.7]
[tweedie_variance_power: 1.5]
[lambdarank_truncation_level: 30]
[lambdarank_norm: 1]
[label_gain: ]
[lambdarank_position_bias_regularization: 0]
[eval_at: ]
[multi_error_top_k: 1]
[auc_mu_weights: ]
[num_machines: 1]
[local_listen_port: 12400]
[time_out: 120]
[machine_list_filename: ]
[machines: ]
[gpu_platform_id: -1]
[gpu_device_id: -1]
[gpu_use_dp: 0]
[num_gpu: 1]

end of parameters

pandas_categorical:null
