tree
version=v4
num_class=1
num_tree_per_iteration=1
label_index=0
max_feature_idx=85
objective=binary sigmoid:1
feature_names=Column_0 Column_1 Column_2 Column_3 Column_4 Column_5 Column_6 Column_7 Column_8 Column_9 Column_10 Column_11 Column_12 Column_13 Column_14 Column_15 Column_16 Column_17 Column_18 Column_19 Column_20 Column_21 Column_22 Column_23 Column_24 Column_25 Column_26 Column_27 Column_28 Column_29 Column_30 Column_31 Column_32 Column_33 Column_34 Column_35 Column_36 Column_37 Column_38 Column_39 Column_40 Column_41 Column_42 Column_43 Column_44 Column_45 Column_46 Column_47 Column_48 Column_49 Column_50 Column_51 Column_52 Column_53 Column_54 Column_55 Column_56 Column_57 Column_58 Column_59 Column_60 Column_61 Column_62 Column_63 Column_64 Column_65 Column_66 Column_67 Column_68 Column_69 Column_70 Column_71 Column_72 Column_73 Column_74 Column_75 Column_76 Column_77 Column_78 Column_79 Column_80 Column_81 Column_82 Column_83 Column_84 Column_85
feature_infos=[-0.075009821004866695:0.056239718322876317] [-0.072906770808087787:0.081345639453952401] [-0.079229236547574938:0.11254774032393178] [-0.063497396629160596:0.11145544092532297] [-0.088292607145678312:0.11364123414530306] [0:0.072265624294281114] [0:0.020782395833956045] [0:0.027225130604972437] [0:1] [0:0.072265624294281114] none [0:0.99999986486488313] [0:0.99999980392160703] [0:5] [0:5] [-0.036670556493300865:0.074276111264413691] [-0.045008664695050271:0.09460180550933428] [-0.066406262156168516:0.10690734940106639] [-0.093306968306234306:0.12493685287505341] [-0.10764431690927534:0.13930965809886819] [-0.030553420445811108:0.049242424242424088] [-0.023523192810889437:0.025359066427288912] [-0.013932089165370587:0.016056952816462022] [-0.0074689006081096743:0.0099952304916741674] [-0.0041149625679416379:0.0045901967405852506] [0:1] [-0.10764431690927534:0.13930965809886819] [-0.02930898413128713:0.058172901894195217] [-0.039480588866907862:0.081642366052938842] [-0.058441861479341939:0.098863421258761797] [-0.026533006686628953:0.025629276974396577] [-0.022893654793444969:0.023592593154892087] [-0.010083601347126082:0.0091033478668309832] [-2.6486269867274676e-05:4.8621523996545279e-05] [0:1] [0:1] [-0.012756854516387009:0.016379945696095626] [-7.3238432399771742e-05:9.0341780225583137e-05] [9.2141381950135752:91.16262361742838] [2.0567762841596959:99.056255130519801] [-34.716080113067463:28.952366674139057] [-0.81571723609972846:0.82325247234856758] [0:1] [0:1] [-0.1218832424275974:0.04633368511393221] [-0.01706220903221789:0.17492535861526082] [-0.340393460640183:1.4815058413707876] [0.0044699528298873309:0.15631786160827549] [0:1] [0.00038768448286894465:0.026604196994604964] [0.00014887726453086106:0.0402669969950488] [0.38400429393436669:1.64677973394872] [0:5.1990234046790231] [0:0.049636797075622713] [0.00039234214146015588:0.033629355690830851] [0.00083125203624538147:0.023693881851836969] [0:1] [0:4.9713607536932942] [0:9.6102943521379718] [-1:9175.1499999999996] [-1.6913589183267521:2.8437206956503442] [0:1] [0:0.99999989583334414] [0:0.99999990740741596] [0:0.99999990825688911] [0:0.99999992647059366] [-0.096080921667750618:-9.9403577591417047e-09] [-1.3986013680522547e-08:0.13904336886492374] [-0.077073179735871467:-9.9108026230254609e-09] [-1.4025245187454516e-08:0.12280700523237953] [0:0.99999990740741596] [0:0.99999966666677909] [-0.56410213017784361:0.61904673469514337] [0:1] [0:1] [-0.99999975609762048:0] [-3.6893218933351917:3.8788772601629207] [-2.6397813346023984:3.3165551552099384] [-0.076171875000000111:0.11912568306010929] [-0.0615234375:0.11790393013100453] [-0.084507042253521125:0.12035010940919033] [-0.0615234375:0.11790393013100453] [-0.084507042253521125:0.12035010940919033] [0:1] [0:0.93220338983050843] [0:1]
tree_sizes=2731

Tree=0
num_leaves=25
num_cat=0
split_feature=50 50 0 79 32 68 53 61 67 84 14 76 45 31 76 47 66 6 83 51 52 54 64 23
split_gain=1279.01 187.993 201.003 172.093 165.508 147.886 130.079 120.355 243.694 117.037 115.516 103.873 92.9142 84.3717 81.3856 69.7757 135.874 69.2614 65.7249 49.7042 97.8448 26.604 19.2174 5.96744
threshold=0.0046138230886137331 0.0025554079438236811 -0.0012048198600765612 0.005945605836732649 -0.00051950450822738764 -0.0012113995817739085 0.0023482241986292913 0.31835021223185861 0.0050093819890779665 0.12711864406779663 3.5000000000000004 1.5747173004385937 0.00048815137898261535 0.0018061191767815784 -2.3062495025059317 0.019851949531505181 -0.015311714961144305 0.0023134767448083813 0.84782608695652184 1.0008279535464115 0.41564356197025659 0.0078020517539382208 0.85329971061246535 0.0014748419135000026
decision_type=2 2 2 2 2 2 2 2 2 2 2 2 2 2 2 2 2 2 2 2 2 2 2 2
left_child=1 4 10 14 12 6 -6 8 -4 -9 18 -7 -1 -12 -2 16 -16 -17 -3 20 -5 -22 23 -21
right_child=3 2 7 19 5 11 -8 9 -10 -11 13 -13 -14 -15 15 17 -18 -19 -20 22 21 -23 -24 -25
leaf_value=-2.0214260312100811 -2.2312015474678546 -2.2425719608443866 -1.9111285631368955 -2.2316977217302338 -1.9706842288812831 -2.1832743498474465 -2.1093981618755482 -2.1278191383013572 -2.1603343507646393 -1.9126143443474115 -1.9962019961626511 -1.98596451410973 -2.2432854770910438 -2.2375436296345912 -1.8697800056546372 -1.9300310058769297 -2.2387722486093877 -1.8370682293719822 -2.0118002163796525 -1.9086366197745501 -1.9486064894140425 -1.798197285339894 -1.7726984714510026 -1.8090157417913992
leaf_weight=5.5962425619363811 1.9020755141973484 13.857978746294977 18.296154841780663 1.9926505386829401 53.316340953111649 28.867554202675819 26.033849835395813 7.323637679219245 20.896952047944069 74.814969807863235 24.726981580257419 8.2099789679050428 20.379380509257317 3.9853010773658744 4.3217225670814514 94.579733997583389 4.8910513222217542 33.493349894881248 3.4289116263389579 15.501268386840822 11.632420942187311 8.546400457620619 43.987113326787949 12.86812302470207
leaf_count=38 21 153 91 22 327 287 224 65 199 382 162 51 225 44 16 513 54 124 22 76 65 23 113 39
internal_value=-1.96905 -2.03613 -2 -1.8807 -2.07913 -2.05376 -2.01535 -1.96618 -2.04184 -1.93125 -2.09075 -2.13733 -2.19303 -2.03012 -1.91871 -1.91421 -2.05866 -1.90441 -2.19281 -1.82651 -1.9091 -1.87675 -1.80336 -1.85747
internal_weight=543.45 309.734 167.331 233.716 142.403 116.428 79.3502 121.332 39.1931 82.1386 45.9992 37.0775 25.9756 28.7123 139.188 137.286 9.21277 128.073 17.2869 94.528 22.1715 20.1788 72.3565 28.3694
internal_count=3336 2270 1118 1066 1152 889 551 737 290 447 381 338 263 206 728 707 70 637 175 338 110 88 228 115
is_linear=0
shrinkage=1


end of trees

feature_importances:
Column_50=2
Column_76=2
Column_0=1
Column_6=1
Column_14=1
Column_23=1
Column_31=1
Column_32=1
Column_45=1
Column_47=1
Column_51=1
Column_52=1
Column_53=1
Column_54=1
Column_61=1
Column_64=1
Column_66=1
Column_67=1
Column_68=1
Column_79=1
Column_83=1
Column_84=1

parameters:
[boosting: gbdt]
[objective: binary]
[metric: binary_logloss]
[tree_learner: serial]
[device_type: cpu]
[data_sample_strategy: bagging]
[data: ]
[valid: ]
[num_iterations: 500]
[learning_rate: 0.05]
[num_leaves: 31]
[num_threads: 8]
[seed: 42]
[deterministic: 0]
[force_col_wise: 0]
[force_row_wise: 0]
[histogram_pool_size: -1]
[max_depth: 5]
[min_data_in_leaf: 30]
[min_sum_hessian_in_leaf: 0.001]
[bagging_fraction: 0.8]
[pos_bagging_fraction: 1]
[neg_bagging_fraction: 1]
[bagging_freq: 0]
[bagging_seed: 400]
[bagging_by_query: 0]
[feature_fraction: 0.8]
[feature_fraction_bynode: 1]
[feature_fraction_seed: 30056]
[extra_trees: 0]
[extra_seed: 12879]
[early_stopping_round: 0]
[early_stopping_min_delta: 0]
[first_metric_only: 0]
[max_delta_step: 0]
[lambda_l1: 0.1]
[lambda_l2: 0.5]
[linear_lambda: 0]
[min_gain_to_split: 0]
[drop_rate: 0.1]
[max_drop: 50]
[skip_drop: 0.5]
[xgboost_dart_mode: 0]
[uniform_drop: 0]
[drop_seed: 17869]
[top_rate: 0.2]
[other_rate: 0.1]
[min_data_per_group: 100]
[max_cat_threshold: 32]
[cat_l2: 10]
[cat_smooth: 10]
[max_cat_to_onehot: 4]
[top_k: 20]
[monotone_constraints: ]
[monotone_constraints_method: basic]
[monotone_penalty: 0]
[feature_contri: ]
[forcedsplits_filename: ]
[refit_decay_rate: 0.9]
[cegb_tradeoff: 1]
[cegb_penalty_split: 0]
[cegb_penalty_feature_lazy: ]
[cegb_penalty_feature_coupled: ]
[path_smooth: 0]
[interaction_constraints: ]
[verbosity: -1]
[saved_feature_importance_type: 0]
[use_quantized_grad: 0]
[num_grad_quant_bins: 4]
[quant_train_renew_leaf: 0]
[stochastic_rounding: 1]
[linear_tree: 0]
[max_bin: 255]
[max_bin_by_feature: ]
[min_data_in_bin: 3]
[bin_construct_sample_cnt: 200000]
[data_random_seed: 175]
[is_enable_sparse: 1]
[enable_bundle: 1]
[use_missing: 1]
[zero_as_missing: 0]
[feature_pre_filter: 1]
[pre_partition: 0]
[two_round: 0]
[header: 0]
[label_column: ]
[weight_column: ]
[group_column: ]
[ignore_column: ]
[categorical_feature: ]
[forcedbins_filename: ]
[precise_float_parser: 0]
[parser_config_file: ]
[objective_seed: 16083]
[num_class: 1]
[is_unbalance: 0]
[scale_pos_weight: 8.92857]
[sigmoid: 1]
[boost_from_average: 1]
[reg_sqrt: 0]
[alpha: 0.9]
[fair_c: 1]
[poisson_max_delta_step: 0.7]
[tweedie_variance_power: 1.5]
[lambdarank_truncation_level: 30]
[lambdarank_norm: 1]
[label_gain: ]
[lambdarank_position_bias_regularization: 0]
[eval_at: ]
[multi_error_top_k: 1]
[auc_mu_weights: ]
[num_machines: 1]
[local_listen_port: 12400]
[time_out: 120]
[machine_list_filename: ]
[machines: ]
[gpu_platform_id: -1]
[gpu_device_id: -1]
[gpu_use_dp: 0]
[num_gpu: 1]

end of parameters

pandas_categorical:null
