tree
version=v4
num_class=1
num_tree_per_iteration=1
label_index=0
max_feature_idx=85
objective=binary sigmoid:1
feature_names=Column_0 Column_1 Column_2 Column_3 Column_4 Column_5 Column_6 Column_7 Column_8 Column_9 Column_10 Column_11 Column_12 Column_13 Column_14 Column_15 Column_16 Column_17 Column_18 Column_19 Column_20 Column_21 Column_22 Column_23 Column_24 Column_25 Column_26 Column_27 Column_28 Column_29 Column_30 Column_31 Column_32 Column_33 Column_34 Column_35 Column_36 Column_37 Column_38 Column_39 Column_40 Column_41 Column_42 Column_43 Column_44 Column_45 Column_46 Column_47 Column_48 Column_49 Column_50 Column_51 Column_52 Column_53 Column_54 Column_55 Column_56 Column_57 Column_58 Column_59 Column_60 Column_61 Column_62 Column_63 Column_64 Column_65 Column_66 Column_67 Column_68 Column_69 Column_70 Column_71 Column_72 Column_73 Column_74 Column_75 Column_76 Column_77 Column_78 Column_79 Column_80 Column_81 Column_82 Column_83 Column_84 Column_85
feature_infos=[-0.060253035759022446:0.056239718322876317] [-0.052911628900654664:0.055918730779022284] [-0.053957107302207548:0.055918730779022284] [-0.075009821004866695:0.056239718322876317] [-0.072906770808087787:0.081345639453952401] [0:0.058473735793124551] [0:0.011984021145352556] [0:0.021052631357340781] [0:1] [0:0.058884296912352418] none [0:0.99999983050850327] [0:0.99999972222229949] [0:5] [0:5] [-0.043303131487380297:0.040861953233767512] [-0.038850677470146922:0.056977693466374157] [-0.037370955965576491:0.085205584090657371] [-0.049123824101083846:0.10356718284764321] [-0.069634120326877436:0.11161769565538027] [-0.034133756697757422:0.025150472914875266] [-0.017241379310344862:0.023001665278934214] [-0.0086425503286239325:0.015455950540958385] [-0.0052917087698772791:0.0062439235173381569] [-0.0029780482729920843:0.0036089702477362096] [0:1] [-0.069634120326877436:0.11161769565538027] [-0.034258103639434601:0.036994134857599725] [-0.032793721340807269:0.053726380743627011] [-0.032697933122958878:0.073386502912639262] [-0.014241959850476072:0.022132507886151537] [-0.012317442764419217:0.018939224185439432] [-0.0064877438957511848:0.0070468295454704051] [-4.4147740294221265e-05:2.5209087725996364e-05] [0:1] [0:1] [-0.012332166720976636:0.0087233404724283391] [-8.8277702703626972e-05:5.5592502201740377e-05] [0.020533187001788633:99.993266073167774] [1.9945214688732449e-06:99.999999684314361] [-77.975916328642555:58.418527085051551] [-0.99958933625996427:0.99986532146335549] [0:1] [0:1] [-0.078780702959030835:0.026053351261994484] [-0.0093648306266232995:0.16335853873424533] [-0.5621322893277606:1.5621322908475006] [0.001089369930461107:0.14829935169504088] [0:1] [2.022621448285218e-05:0.02232267063131245] [2.7562679399894345e-06:0.029006136132716045] [0.068151143379991258:1.8526033595338065] [0:7.409802167805327] [0:0.030113743323503493] [0:0.028777207057514919] [0.00022632266978711181:0.021820563842566469] [0:1] [0:4.9923560773977051] [0:9.9847121547953996] [-1:145935] [-1.7842097081233868:2.8460465981610144] [0:1] [0:0.99999980392160703] [0:0.99999984126986641] [0:0.99999988095239511] [0:0.99999990740741596] [-0.077073179735871467:-9.2850509503250578e-09] [-1.4064697406723781e-08:0.12280700523237953] [-0.072265634059905937:-9.2850509503250578e-09] [-1.4064697406723781e-08:0.060041396893981469] [0:0.99999986301371735] [0:0.9999998155929376] [-0.66666583333437512:0.66666615384654815] [0:1] [0:1] [-0.99999978723408789:0] [-4.6637555326401943:4.6558031260370258] [-9.300287369258557:9.2468251245732702] [-0.052527254707631199:0.057511737089201986] [-0.072265625000000111:0.057851239669421739] [-0.0703125:0.084745762711864403] [-0.072265625000000111:0.057851239669421739] [-0.0703125:0.084745762711864403] [0:1] [0:1] [0:1]
tree_sizes=2228

Tree=0
num_leaves=20
num_cat=0
split_feature=49 24 24 84 68 41 36 4 54 51 21 52 66 0 84 84 44 47 59
split_gain=18302.2 4085.37 2254.42 1791.78 1933.93 1459.16 1654.46 1619.57 1178.7 937.182 916.264 762.792 602.875 499.686 398.316 345.153 212.767 200.506 119.808
threshold=0.0015407896091068152 0.0011446521103010145 0.00029276952169665643 0.11016949152542375 -0.014110874671334038 -0.46445022859380108 0.0014546705934875446 -0.0048810365229291003 0.0049986516117614043 1.3099828050851858 -0.00023132136497217012 3.1050230788080881 -0.0062965799107139167 -0.001278773075558575 0.95762711864406791 0.63559322033898313 -0.034658343528024819 0.015354781667219567 1.3039720198380476
decision_type=2 2 2 2 2 2 2 2 2 2 2 2 2 2 2 2 2 2 2
left_child=2 3 5 16 18 7 11 13 -6 10 14 -7 -12 -1 -4 -8 -2 -18 -5
right_child=1 -3 9 4 8 6 15 -9 -10 -11 12 -13 -14 -15 -16 -17 17 -19 -20
leaf_value=-3.4259757287972032 -3.403368029466201 -2.0643157600350639 -3.434141869633847 -2.4423982950589207 -2.6584815410794493 -3.3142284291256408 -3.0282154989906283 -3.4362054159762176 -3.4342057403533488 -3.4329706418133341 -2.1206260407121791 -2.7531764290865874 -2.6793557684934721 -2.5584363476389429 -2.55066372122476 -2.2736730322600227 -2.5898905209907053 -2.1309573942592466 -1.9897237231011555
leaf_weight=1.7381701804697574 0.34763403609394927 77.011249121278524 4.9932888820767394 8.4270341657102126 107.53571497276425 94.015083603560925 3.1479430571198455 8.1852013953030092 5.0564950704574576 4.0451960563659659 7.3717656955122903 5.9990919046103945 24.837284799665216 21.36094443872571 1.188551217317581 4.5961893983185291 6.4923750497400752 32.318974897265434 11.765970166772602
leaf_count=55 11 377 158 95 1772 2746 71 259 160 128 33 104 414 304 9 31 91 193 29
internal_value=-2.64956 -2.37143 -3.03288 -2.51246 -2.60656 -3.13194 -3.22076 -2.83359 -2.69341 -2.71519 -2.63983 -3.27753 -2.53391 -2.62335 -3.21508 -2.53936 -2.20737 -2.19647 -2.15098
internal_weight=430.434 248.955 181.479 171.944 132.785 139.043 107.758 31.2843 112.592 42.4361 38.3909 100.014 32.2091 23.0991 6.18184 7.74413 39.159 38.8113 20.193
internal_count=7040 2728 4312 2351 2056 3570 2952 618 1932 742 614 2850 447 359 167 102 295 284 124
is_linear=0
shrinkage=1


end of trees

feature_importances:
Column_84=3
Column_24=2
Column_0=1
Column_4=1
Column_21=1
Column_36=1
Column_41=1
Column_44=1
Column_47=1
Column_49=1
Column_51=1
Column_52=1
Column_54=1
Column_59=1
Column_66=1
Column_68=1

parameters:
[boosting: gbdt]
[objective: binary]
[metric: binary_logloss]
[tree_learner: serial]
[device_type: cpu]
[data_sample_strategy: bagging]
[data: ]
[valid: ]
[num_iterations: 500]
[learning_rate: 0.05]
[num_leaves: 31]
[num_threads: 8]
[seed: 42]
[deterministic: 0]
[force_col_wise: 0]
[force_row_wise: 0]
[histogram_pool_size: -1]
[max_depth: 5]
[min_data_in_leaf: 30]
[min_sum_hessian_in_leaf: 0.001]
[bagging_fraction: 0.8]
[pos_bagging_fraction: 1]
[neg_bagging_fraction: 1]
[bagging_freq: 0]
[bagging_seed: 400]
[bagging_by_query: 0]
[feature_fraction: 0.8]
[feature_fraction_bynode: 1]
[feature_fraction_seed: 30056]
[extra_trees: 0]
[extra_seed: 12879]
[early_stopping_round: 0]
[early_stopping_min_delta: 0]
[first_metric_only: 0]
[max_delta_step: 0]
[lambda_l1: 0.1]
[lambda_l2: 0.5]
[linear_lambda: 0]
[min_gain_to_split: 0]
[drop_rate: 0.1]
[max_drop: 50]
[skip_drop: 0.5]
[xgboost_dart_mode: 0]
[uniform_drop: 0]
[drop_seed: 17869]
[top_rate: 0.2]
[other_rate: 0.1]
[min_data_per_group: 100]
[max_cat_threshold: 32]
[cat_l2: 10]
[cat_smooth: 10]
[max_cat_to_onehot: 4]
[top_k: 20]
[monotone_constraints: ]
[monotone_constraints_method: basic]
[monotone_penalty: 0]
[feature_contri: ]
[forcedsplits_filename: ]
[refit_decay_rate: 0.9]
[cegb_tradeoff: 1]
[cegb_penalty_split: 0]
[cegb_penalty_feature_lazy: ]
[cegb_penalty_feature_coupled: ]
[path_smooth: 0]
[interaction_constraints: ]
[verbosity: -1]
[saved_feature_importance_type: 0]
[use_quantized_grad: 0]
[num_grad_quant_bins: 4]
[quant_train_renew_leaf: 0]
[stochastic_rounding: 1]
[linear_tree: 0]
[max_bin: 255]
[max_bin_by_feature: ]
[min_data_in_bin: 3]
[bin_construct_sample_cnt: 200000]
[data_random_seed: 175]
[is_enable_sparse: 1]
[enable_bundle: 1]
[use_missing: 1]
[zero_as_missing: 0]
[feature_pre_filter: 1]
[pre_partition: 0]
[two_round: 0]
[header: 0]
[label_column: ]
[weight_column: ]
[group_column: ]
[ignore_column: ]
[categorical_feature: ]
[forcedbins_filename: ]
[precise_float_parser: 0]
[parser_config_file: ]
[objective_seed: 16083]
[num_class: 1]
[is_unbalance: 0]
[scale_pos_weight: 29.6087]
[sigmoid: 1]
[boost_from_average: 1]
[reg_sqrt: 0]
[alpha: 0.9]
[fair_c: 1]
[poisson_max_delta_step: 0.7]
[tweedie_variance_power: 1.5]
[lambdarank_truncation_level: 30]
[lambdarank_norm: 1]
[label_gain: ]
[lambdarank_position_bias_regularization: 0]
[eval_at: ]
[multi_error_top_k: 1]
[auc_mu_weights: ]
[num_machines: 1]
[local_listen_port: 12400]
[time_out: 120]
[machine_list_filename: ]
[machines: ]
[gpu_platform_id: -1]
[gpu_device_id: -1]
[gpu_use_dp: 0]
[num_gpu: 1]

end of parameters

pandas_categorical:null
