tree
version=v4
num_class=1
num_tree_per_iteration=1
label_index=0
max_feature_idx=85
objective=binary sigmoid:1
feature_names=Column_0 Column_1 Column_2 Column_3 Column_4 Column_5 Column_6 Column_7 Column_8 Column_9 Column_10 Column_11 Column_12 Column_13 Column_14 Column_15 Column_16 Column_17 Column_18 Column_19 Column_20 Column_21 Column_22 Column_23 Column_24 Column_25 Column_26 Column_27 Column_28 Column_29 Column_30 Column_31 Column_32 Column_33 Column_34 Column_35 Column_36 Column_37 Column_38 Column_39 Column_40 Column_41 Column_42 Column_43 Column_44 Column_45 Column_46 Column_47 Column_48 Column_49 Column_50 Column_51 Column_52 Column_53 Column_54 Column_55 Column_56 Column_57 Column_58 Column_59 Column_60 Column_61 Column_62 Column_63 Column_64 Column_65 Column_66 Column_67 Column_68 Column_69 Column_70 Column_71 Column_72 Column_73 Column_74 Column_75 Column_76 Column_77 Column_78 Column_79 Column_80 Column_81 Column_82 Column_83 Column_84 Column_85
feature_infos=[-0.067368063427213673:0.028778964550043327] [-0.073605089882761376:0.052062029075145011] [-0.072635862765452627:0.045825002619597245] [-0.071180258432751997:0.042019433985400513] [-0.065580730716014876:0.047719220266718605] [0:0.065148944898305944] [0:0.013572203757540532] [0:0.027851779417491441] [0:1] [0:0.093000724315797381] none [0:0.99999973958340116] [0:0.99999852941392742] [0:5] [0:5] [-0.051876619869409057:0.021608683627215131] [-0.054732483048059666:0.029160953013843027] [-0.060494757274191513:0.034282367246888379] [-0.064084382113071325:0.043200477901352397] [-0.06011385933530633:0.043392525655943315] [-0.033843165816945797:0.022741557625278519] [-0.01553218424384073:0.013851836650933702] [-0.0089510489510489233:0.0074268915364379406] [-0.0044354296137190108:0.0032236278298969356] [-0.0025012820093176513:0.0013692022374622859] [0:1] [-0.06011385933530633:0.043392525655943315] [-0.043029336395146389:0.017238750921341861] [-0.05119813504695736:0.024681178756264854] [-0.05599783426981142:0.02963263656239179] [-0.012271519049424379:0.010582749764633161] [-0.011043490128956368:0.008467345020682561] [-0.0068502360573196672:0.005986399172137156] [-1.6767888629761918e-05:8.334742206350736e-06] [0:1] [0:1] [-0.012802781952423492:0.0083372025093842068] [-3.6495554503455036e-05:2.2790779174437167e-05] [7.3574833574611347:86.807016262590537] [0.33789730737036905:98.142888650763382] [-43.861090959139858:38.375650358757056] [-0.85285033285077727:0.73614032525181072] [0:1] [0:1] [-0.096437207427731653:0.013427834456214871] [-0.030948790744911747:0.073011705188177567] [-0.53845925184019006:1.3664502390833193] [0.0012902805654337304:0.09274349522598288] [0:1] [0.00032719796667731409:0.020447743859378458] [0.00017477853492503626:0.027551318062859546] [0.39454597000510494:1.7028947715466209] [0:6.2775953056659333] [0:0.037620087680442914] [9.0817853536853427e-05:0.025438361181402559] [0.00031536773170663646:0.018344108212835976] [0:1] [0:4.9912554771607018] [0:9.6590350667187312] [-1:23618.75] [-1.7137720443378988:2.8455818689499592] [0:1] [0:0.99999920000063991] [0:0.99999939393976123] [0:0.99999945945975166] [0:0.99999957081563484] [-0.075439887311643972:-2.4113816499138352e-08] [-3.0740853640409682e-08:0.081708916376263874] [-0.075439887311643972:-2.4113816499138352e-08] [-3.0740853640409682e-08:0.079038689478272639] [0:0.99999939393976123] [0:0.9999986095367831] [-0.60745265540448168:0.66666315791320385] [0:1] [0:1] [-0.99999941860498909:0] [-4.4541981630496092:3.7324090220817006] [-5.8545433644248224:3.9502998573795751] [-0.070060606060606156:0.046891191709844682] [-0.06870599660111687:0.042914746543778914] [-0.0634765625:0.048876110820700536] [-0.06870599660111687:0.042914746543778914] [-0.0634765625:0.048876110820700536] [0:1] [0:0.96610169491525422] [0:1]
tree_sizes=2431

Tree=0
num_leaves=22
num_cat=0
split_feature=49 49 83 20 31 66 46 19 28 31 23 85 4 85 19 83 50 61 67 24 77
split_gain=1208.99 369.576 239.892 252.786 280.144 173.695 236.824 162.345 169.482 159.778 151.824 139.933 118.002 99.7731 66.1609 61.8188 68.6173 43.4636 25.0874 21.4744 18.6336
threshold=0.0029043928126369456 0.00088043517393025957 0.1521739130434783 0.0014836372045129444 0.0026547675474198422 -0.017912567819595878 0.83631588543728652 0.0055534087745279246 0.0032116704208671192 0.00021424776524530008 0.00075705231268030648 0.91666666666666685 0.01197864136368792 0.25000000000000006 0.023396396516155552 0.23913043478260873 0.0074155549228828574 0.999999999999998 0.016595195083951134 -0.00057490093919082541 0.60417526633810292
decision_type=2 2 2 2 2 2 2 2 2 2 2 2 2 2 2 2 2 2 2 2 2
left_child=1 17 10 4 -4 15 7 9 -9 -7 13 -5 -12 -3 18 -2 19 20 -8 -17 -1
right_child=5 2 3 11 -6 6 14 8 -10 -11 12 -13 -14 -15 -16 16 -18 -19 -20 -21 -22
leaf_value=-2.2048991151540123 -1.943568667583274 -1.8296248148852539 -1.9894876153279097 -2.1133807603224115 -1.8212634078586885 -1.9442758419894415 -1.8878211825450542 -2.0675042052007444 -1.8555176762986909 -1.7968567921098444 -2.2023617336706192 -1.9570874835256142 -1.8650087283013348 -1.936718005836382 -1.9626099051255799 -1.827009231530021 -1.9279896955435458 -2.023212949766132 -1.772843268294398 -1.7411516029509475 -2.0820597833472512
leaf_weight=20.828258492052562 9.390572212636469 41.734716556966305 274.78705033659935 59.745583772659302 27.436784721910954 52.01332388818264 11.70415163040161 33.670061931014061 13.028603963553904 32.063943557441235 7.5654212459921819 18.539219439029694 3.3409823030233383 60.096292428672314 8.4014451280236226 26.727858424186707 10.379699297249315 4.3132607266306868 50.071880266070366 49.396651290357113 3.1373331174254409
leaf_count=223 55 166 1887 541 104 314 57 277 56 108 81 115 13 355 52 104 58 31 149 119 26
internal_value=-1.93891 -1.98507 -1.975 -1.99445 -1.97368 -1.85825 -1.88652 -1.92816 -2.00576 -1.88624 -1.91039 -2.07531 -2.09147 -1.89142 -1.81111 -1.80073 -1.78656 -2.16053 -1.79226 -1.76892 -2.18754
internal_weight=818.373 521.525 493.246 380.509 302.224 296.848 200.953 130.776 46.6987 84.0773 112.737 78.2848 10.9064 101.831 70.1775 95.8948 86.5042 28.2789 61.776 76.1245 23.9656
internal_count=4891 3542 3262 2647 1991 1349 1013 755 333 422 615 656 94 521 258 336 281 280 206 223 249
is_linear=0
shrinkage=1


end of trees

feature_importances:
Column_19=2
Column_31=2
Column_49=2
Column_83=2
Column_85=2
Column_4=1
Column_20=1
Column_23=1
Column_24=1
Column_28=1
Column_46=1
Column_50=1
Column_61=1
Column_66=1
Column_67=1
Column_77=1

parameters:
[boosting: gbdt]
[objective: binary]
[metric: binary_logloss]
[tree_learner: serial]
[device_type: cpu]
[data_sample_strategy: bagging]
[data: ]
[valid: ]
[num_iterations: 500]
[learning_rate: 0.05]
[num_leaves: 31]
[num_threads: 8]
[seed: 42]
[deterministic: 0]
[force_col_wise: 0]
[force_row_wise: 0]
[histogram_pool_size: -1]
[max_depth: 5]
[min_data_in_leaf: 30]
[min_sum_hessian_in_leaf: 0.001]
[bagging_fraction: 0.8]
[pos_bagging_fraction: 1]
[neg_bagging_fraction: 1]
[bagging_freq: 0]
[bagging_seed: 400]
[bagging_by_query: 0]
[feature_fraction: 0.8]
[feature_fraction_bynode: 1]
[feature_fraction_seed: 30056]
[extra_trees: 0]
[extra_seed: 12879]
[early_stopping_round: 0]
[early_stopping_min_delta: 0]
[first_metric_only: 0]
[max_delta_step: 0]
[lambda_l1: 0.1]
[lambda_l2: 0.5]
[linear_lambda: 0]
[min_gain_to_split: 0]
[drop_rate: 0.1]
[max_drop: 50]
[skip_drop: 0.5]
[xgboost_dart_mode: 0]
[uniform_drop: 0]
[drop_seed: 17869]
[top_rate: 0.2]
[other_rate: 0.1]
[min_data_per_group: 100]
[max_cat_threshold: 32]
[cat_l2: 10]
[cat_smooth: 10]
[max_cat_to_onehot: 4]
[top_k: 20]
[monotone_constraints: ]
[monotone_constraints_method: basic]
[monotone_penalty: 0]
[feature_contri: ]
[forcedsplits_filename: ]
[refit_decay_rate: 0.9]
[cegb_tradeoff: 1]
[cegb_penalty_split: 0]
[cegb_penalty_feature_lazy: ]
[cegb_penalty_feature_coupled: ]
[path_smooth: 0]
[interaction_constraints: ]
[verbosity: -1]
[saved_feature_importance_type: 0]
[use_quantized_grad: 0]
[num_grad_quant_bins: 4]
[quant_train_renew_leaf: 0]
[stochastic_rounding: 1]
[linear_tree: 0]
[max_bin: 255]
[max_bin_by_feature: ]
[min_data_in_bin: 3]
[bin_construct_sample_cnt: 200000]
[data_random_seed: 175]
[is_enable_sparse: 1]
[enable_bundle: 1]
[use_missing: 1]
[zero_as_missing: 0]
[feature_pre_filter: 1]
[pre_partition: 0]
[two_round: 0]
[header: 0]
[label_column: ]
[weight_column: ]
[group_column: ]
[ignore_column: ]
[categorical_feature: ]
[forcedbins_filename: ]
[precise_float_parser: 0]
[parser_config_file: ]
[objective_seed: 16083]
[num_class: 1]
[is_unbalance: 0]
[scale_pos_weight: 8.5902]
[sigmoid: 1]
[boost_from_average: 1]
[reg_sqrt: 0]
[alpha: 0.9]
[fair_c: 1]
[poisson_max_delta_step: 0.7]
[tweedie_variance_power: 1.5]
[lambdarank_truncation_level: 30]
[lambdarank_norm: 1]
[label_gain: ]
[lambdarank_position_bias_regularization: 0]
[eval_at: ]
[multi_error_top_k: 1]
[auc_mu_weights: ]
[num_machines: 1]
[local_listen_port: 12400]
[time_out: 120]
[machine_list_filename: ]
[machines: ]
[gpu_platform_id: -1]
[gpu_device_id: -1]
[gpu_use_dp: 0]
[num_gpu: 1]

end of parameters

pandas_categorical:null
