tree
version=v4
num_class=1
num_tree_per_iteration=1
label_index=0
max_feature_idx=85
objective=binary sigmoid:1
feature_names=Column_0 Column_1 Column_2 Column_3 Column_4 Column_5 Column_6 Column_7 Column_8 Column_9 Column_10 Column_11 Column_12 Column_13 Column_14 Column_15 Column_16 Column_17 Column_18 Column_19 Column_20 Column_21 Column_22 Column_23 Column_24 Column_25 Column_26 Column_27 Column_28 Column_29 Column_30 Column_31 Column_32 Column_33 Column_34 Column_35 Column_36 Column_37 Column_38 Column_39 Column_40 Column_41 Column_42 Column_43 Column_44 Column_45 Column_46 Column_47 Column_48 Column_49 Column_50 Column_51 Column_52 Column_53 Column_54 Column_55 Column_56 Column_57 Column_58 Column_59 Column_60 Column_61 Column_62 Column_63 Column_64 Column_65 Column_66 Column_67 Column_68 Column_69 Column_70 Column_71 Column_72 Column_73 Column_74 Column_75 Column_76 Column_77 Column_78 Column_79 Column_80 Column_81 Column_82 Column_83 Column_84 Column_85
feature_infos=[-0.079356739725725822:0.029791622864429452] [-0.079114521001034194:0.035019026299581354] [-0.079841001236400116:0.032992683154348813] [-0.078832493317913047:0.041864204098698891] [-0.078347997184404605:0.051019819496701264] [0:0.076289656665302519] [0:0.012428535609531945] [0:0.018091242315384327] [0:1] [0:0.088399125977255341] none [0:0.99999972602747234] [0:0.99999807692677511] [0:5] [0:5] [-0.061838956515005483:0.023409958996013058] [-0.069006784265218557:0.031604180751450661] [-0.069801495785534851:0.030412811429718856] [-0.070318464189503271:0.03602687231106616] [-0.071375550652507114:0.043994462766233866] [-0.04330905099291471:0.019750412541254203] [-0.021659488093469959:0.012762665979115573] [-0.0098628523761622455:0.0062640765765766826] [-0.0041104996138771055:0.0030725207536681509] [-0.0023322759674393456:0.00151467197178623] [0:1] [-0.071375550652507114:0.043994462766233866] [-0.051962842046013535:0.015763073714070375] [-0.062407914272568754:0.019775946892230944] [-0.067257639920065837:0.026178234283805502] [-0.018595645898358285:0.0094452346236317299] [-0.012700715844048307:0.0086546499729223333] [-0.0090625254445908712:0.0037588629582623709] [-2.0446102962938103e-05:1.1277884472898066e-05] [0:1] [0:1] [-0.014730039221405925:0.0092486974566741778] [-4.2690796279764286e-05:2.6262772420660772e-05] [0.037723745198775305:99.512385257379918] [5.5530118459046207e-06:99.996567701051291] [-49.661123277107613:45.583570257953042] [-0.99924552509602449:0.99024770514759841] [0:1] [0:1] [-0.11342516093599853:0.0069361841923496481] [-0.037414570421229976:0.081010842884605694] [-0.56213229160215761:1.5363285231539183] [0.00035359255429921293:0.13530911430036868] [0:1] [5.254918026721078e-05:0.017269373888094894] [1.1962198631274491e-05:0.025852186447494152] [0.2115084931785145:1.8226132811982247] [0:6.757541354501746] [0:0.035552171518214271] [0:0.027395406113378651] [6.4217920089696976e-05:0.020167880013042361] [0:1] [0:4.9951372609065627] [0:9.9475623752196576] [-1:33618.5] [-1.657842745221493:2.8460150345494162] [0:1] [0:0.99999893617134461] [0:0.99999904761995473] [0:0.99999936305773052] [0:0.99999955555575304] [-0.080742369709752349:-2.4113816499138352e-08] [-3.0740853640409682e-08:0.079038689478272639] [-0.076736889936168118:-2.4113816499138352e-08] [-3.0740853640409682e-08:0.042752840387048074] [0:0.99999922480680237] [0:0.99999898295774925] [-0.66666243388972868:0.66666000006666681] [0:1] [0:1] [-0.99999925925980793:0] [-4.5002426006949658:4.6280666216550648] [-8.5555010676830801:6.5964560245000676] [-0.076736867586540747:0.033542976939203273] [-0.075805279728747843:0.042752867570385877] [-0.075357402471528889:0.052343750000000133] [-0.075805279728747843:0.042752867570385877] [-0.075357402471528889:0.052343750000000133] [0:1] [0:1] [0:1]
tree_sizes=2653

Tree=0
num_leaves=24
num_cat=0
split_feature=49 49 83 84 21 47 19 45 11 83 11 83 61 54 45 66 29 83 69 69 9 54 1
split_gain=12378 1698.71 1691.08 1042.62 949.049 1056.29 924.719 1373.9 922.718 828.027 728.064 712.594 688.548 606.021 732.985 555.129 475.035 442.125 371.698 293.798 961.451 236.374 220.853
threshold=0.0012440459313597209 0.0020345129556937334 0.80434782608695665 0.27966101694915263 0.00053733416091883434 0.006593733556482192 -0.00035445125159888619 0.010472850961048554 0.1428551020699306 1.0000000180025095e-35 0.9999250062494377 0.36956521739130438 0.03566078343143627 0.001378191087688803 0.0051363836869861021 -0.010728666292000864 0.00084558436664816672 0.71739130434782616 0.00056936654337014236 0.00086865716574546792 0.0037707389700668502 0.0019987360757543885 -0.0032759728226296123
decision_type=2 2 2 2 2 2 2 2 2 2 2 2 2 2 2 2 2 2 2 2 2 2 2
left_child=2 9 3 4 15 -6 8 -8 -5 -2 12 -12 -11 22 -15 -1 -16 19 -19 20 -3 -21 -4
right_child=1 17 13 6 5 -7 7 -9 -10 10 11 -13 -14 14 16 -17 -18 18 -20 21 -22 -23 -24
leaf_value=-2.4705731648044136 -3.2214041346107329 -2.9347911993576741 -2.7405985380377387 -2.5465741797358228 -2.3290528993016131 -3.0277654019966214 -2.9375359219935731 -2.39321978279433 -2.9552402559924622 -2.9142123032864742 -3.0942963337944875 -2.565321164365391 -2.3842742721890797 -3.2239282500327087 -2.148119359346401 -3.1602587410665173 -2.9479822723345839 -2.4006863165368002 -3.21845822620875 -2.480692935200687 -2.208726673666912 -2.1966014797794933 -3.2277597356821928
leaf_weight=2.6889219209551802 3.7682685628533354 7.7260972447693375 1.998140200972556 92.635587241500616 10.178911883383991 11.532817527651785 65.423239640891552 13.867578525096176 17.105618450790644 7.1877731643617144 8.573384325951336 26.626803372055292 108.79137960076332 6.0369200445711595 3.9551302008330822 34.834559865295887 3.8438227623701096 2.4197598807513705 2.5378135219216347 13.945831205695866 12.443515643477438 138.8410590402782 33.337641265243292
leaf_count=24 98 155 29 1192 81 254 1334 131 353 141 200 348 1061 157 11 860 77 17 66 156 71 855 867
internal_value=-2.57899 -2.36954 -2.81436 -2.76137 -2.94749 -2.68826 -2.70383 -2.83796 -2.60894 -2.49625 -2.47805 -2.69106 -2.41581 -3.08351 -2.80929 -3.10207 -2.50422 -2.26144 -2.78571 -2.24761 -2.47403 -2.22015 -3.19437
internal_weight=630.301 332.862 297.439 248.267 59.2352 21.7117 189.032 79.2908 109.741 154.948 151.179 35.2002 115.979 49.1717 13.8359 37.5235 7.79895 177.914 4.95757 172.957 20.1696 152.787 35.3358
internal_count=8538 3168 5370 4229 1219 335 3010 1465 1545 1848 1750 548 1202 1141 245 884 88 1320 83 1237 226 1011 896
is_linear=0
shrinkage=1


end of trees

feature_importances:
Column_83=4
Column_11=2
Column_45=2
Column_49=2
Column_54=2
Column_69=2
Column_1=1
Column_9=1
Column_19=1
Column_21=1
Column_29=1
Column_47=1
Column_61=1
Column_66=1
Column_84=1

parameters:
[boosting: gbdt]
[objective: binary]
[metric: binary_logloss]
[tree_learner: serial]
[device_type: cpu]
[data_sample_strategy: bagging]
[data: ]
[valid: ]
[num_iterations: 500]
[learning_rate: 0.05]
[num_leaves: 31]
[num_threads: 8]
[seed: 42]
[deterministic: 0]
[force_col_wise: 0]
[force_row_wise: 0]
[histogram_pool_size: -1]
[max_depth: 5]
[min_data_in_leaf: 30]
[min_sum_hessian_in_leaf: 0.001]
[bagging_fraction: 0.8]
[pos_bagging_fraction: 1]
[neg_bagging_fraction: 1]
[bagging_freq: 0]
[bagging_seed: 400]
[bagging_by_query: 0]
[feature_fraction: 0.8]
[feature_fraction_bynode: 1]
[feature_fraction_seed: 30056]
[extra_trees: 0]
[extra_seed: 12879]
[early_stopping_round: 0]
[early_stopping_min_delta: 0]
[first_metric_only: 0]
[max_delta_step: 0]
[lambda_l1: 0.1]
[lambda_l2: 0.5]
[linear_lambda: 0]
[min_gain_to_split: 0]
[drop_rate: 0.1]
[max_drop: 50]
[skip_drop: 0.5]
[xgboost_dart_mode: 0]
[uniform_drop: 0]
[drop_seed: 17869]
[top_rate: 0.2]
[other_rate: 0.1]
[min_data_per_group: 100]
[max_cat_threshold: 32]
[cat_l2: 10]
[cat_smooth: 10]
[max_cat_to_onehot: 4]
[top_k: 20]
[monotone_constraints: ]
[monotone_constraints_method: basic]
[monotone_penalty: 0]
[feature_contri: ]
[forcedsplits_filename: ]
[refit_decay_rate: 0.9]
[cegb_tradeoff: 1]
[cegb_penalty_split: 0]
[cegb_penalty_feature_lazy: ]
[cegb_penalty_feature_coupled: ]
[path_smooth: 0]
[interaction_constraints: ]
[verbosity: -1]
[saved_feature_importance_type: 0]
[use_quantized_grad: 0]
[num_grad_quant_bins: 4]
[quant_train_renew_leaf: 0]
[stochastic_rounding: 1]
[linear_tree: 0]
[max_bin: 255]
[max_bin_by_feature: ]
[min_data_in_bin: 3]
[bin_construct_sample_cnt: 200000]
[data_random_seed: 175]
[is_enable_sparse: 1]
[enable_bundle: 1]
[use_missing: 1]
[zero_as_missing: 0]
[feature_pre_filter: 1]
[pre_partition: 0]
[two_round: 0]
[header: 0]
[label_column: ]
[weight_column: ]
[group_column: ]
[ignore_column: ]
[categorical_feature: ]
[forcedbins_filename: ]
[precise_float_parser: 0]
[parser_config_file: ]
[objective_seed: 16083]
[num_class: 1]
[is_unbalance: 0]
[scale_pos_weight: 23.9649]
[sigmoid: 1]
[boost_from_average: 1]
[reg_sqrt: 0]
[alpha: 0.9]
[fair_c: 1]
[poisson_max_delta_step: 0.7]
[tweedie_variance_power: 1.5]
[lambdarank_truncation_level: 30]
[lambdarank_norm: 1]
[label_gain: ]
[lambdarank_position_bias_regularization: 0]
[eval_at: ]
[multi_error_top_k: 1]
[auc_mu_weights: ]
[num_machines: 1]
[local_listen_port: 12400]
[time_out: 120]
[machine_list_filename: ]
[machines: ]
[gpu_platform_id: -1]
[gpu_device_id: -1]
[gpu_use_dp: 0]
[num_gpu: 1]

end of parameters

pandas_categorical:null
