{"learner":{"attributes":{"best_iteration":"184","best_score":"0.4805994714424014","scikit_learn":"{\"_estimator_type\": \"classifier\"}"},"feature_names":[],"feature_types":[],"gradient_booster":{"model":{"cats":{"enc":[],"feature_segments":[],"sorted_idx":[]},"gbtree_model_param":{"num_parallel_tree":"1","num_trees":"235"},"iteration_indptr":[0,1,2,3,4,5,6,7,8,9,10,11,12,13,14,15,16,17,18,19,20,21,22,23,24,25,26,27,28,29,30,31,32,33,34,35,36,37,38,39,40,41,42,43,44,45,46,47,48,49,50,51,52,53,54,55,56,57,58,59,60,61,62,63,64,65,66,67,68,69,70,71,72,73,74,75,76,77,78,79,80,81,82,83,84,85,86,87,88,89,90,91,92,93,94,95,96,97,98,99,100,101,102,103,104,105,106,107,108,109,110,111,112,113,114,115,116,117,118,119,120,121,122,123,124,125,126,127,128,129,130,131,132,133,134,135,136,137,138,139,140,141,142,143,144,145,146,147,148,149,150,151,152,153,154,155,156,157,158,159,160,161,162,163,164,165,166,167,168,169,170,171,172,173,174,175,176,177,178,179,180,181,182,183,184,185,186,187,188,189,190,191,192,193,194,195,196,197,198,199,200,201,202,203,204,205,206,207,208,209,210,211,212,213,214,215,216,217,218,219,220,221,222,223,224,225,226,227,228,229,230,231,232,233,234,235],"tree_info":[0,0,0,0,0,0,0,0,0,0,0,0,0,0,0,0,0,0,0,0,0,0,0,0,0,0,0,0,0,0,0,0,0,0,0,0,0,0,0,0,0,0,0,0,0,0,0,0,0,0,0,0,0,0,0,0,0,0,0,0,0,0,0,0,0,0,0,0,0,0,0,0,0,0,0,0,0,0,0,0,0,0,0,0,0,0,0,0,0,0,0,0,0,0,0,0,0,0,0,0,0,0,0,0,0,0,0,0,0,0,0,0,0,0,0,0,0,0,0,0,0,0,0,0,0,0,0,0,0,0,0,0,0,0,0,0,0,0,0,0,0,0,0,0,0,0,0,0,0,0,0,0,0,0,0,0,0,0,0,0,0,0,0,0,0,0,0,0,0,0,0,0,0,0,0,0,0,0,0,0,0,0,0,0,0,0,0,0,0,0,0,0,0,0,0,0,0,0,0,0,0,0,0,0,0,0,0,0,0,0,0,0,0,0,0,0,0,0,0,0,0,0,0,0,0,0,0,0,0,0,0,0,0,0,0],"trees":[{"base_weights":[5.6569017E-2,-1.0383253E-1,1.2252558E0,-1.862997E-1,5.592165E-2,3.004975E-2,8.095158E-2,-3.2956746E-1,6.508262E-1,-2.2620635E-1,-7.653036E-2,6.394601E-2,-6.4501166E-3,-2.764272E-3,-5.6100763E-2],"categories":[],"categories_nodes":[],"categories_segments":[],"categories_sizes":[],"default_left":[0,0,0,0,0,0,0,0,0,0,0,0,0,0,0],"id":0,"left_children":[1,3,5,7,-1,-1,-1,9,11,13,-1,-1,-1,-1,-1],"loss_changes":[4.2304634E1,2.0089258E1,5.4997864E0,2.2558409E1,0E0,0E0,0E0,1.934963E1,1.3748802E1,2.257865E1,0E0,0E0,0E0,0E0,0E0],"parents":[2147483647,0,0,1,1,2,2,3,3,7,7,8,8,9,9],"right_children":[2,4,6,8,-1,-1,-1,10,12,14,-1,-1,-1,-1,-1],"split_conditions":[8.756472E-1,8.177332E-3,4.1527473E-3,1.5819209E-2,5.592165E-2,3.004975E-2,8.095158E-2,9.520433E-3,-1.9282112E-3,3.511856E-3,-7.653036E-2,6.394601E-2,-6.4501166E-3,-2.764272E-3,-5.6100763E-2],"split_indices":[65,21,31,9,0,0,0,54,22,0,0,0,0,0,0],"split_type":[0,0,0,0,0,0,0,0,0,0,0,0,0,0,0],"sum_hessian":[2.2339696E2,1.9716216E2,2.6234797E1,1.8557094E2,1.1591216E1,1.1222973E1,1.5011824E1,1.5907263E2,2.649831E1,1.4763852E2,1.1434122E1,1.4393581E1,1.210473E1,1.249679E2,2.2670609E1],"tree_param":{"num_deleted":"0","num_feature":"86","num_nodes":"15","size_leaf_vector":"1"}},{"base_weights":[-6.6797934E-2,-1.0233252E0,1.5884651E-1,-1.4440549E-2,-1.5755534E0,-5.8612708E-2,9.6136045E-1,-9.16375E-2,-5.6489903E-2,2.6143277E-1,-8.7172246E-1,1.6392542E-2,8.046828E-2,5.0466776E-2,7.711382E-2,-1.247561E0,6.8528294E-3,-2.4067251E-2,2.1115998E-2,-6.3832845E-3,-9.2961915E-2],"categories":[],"categories_nodes":[],"categories_segments":[],"categories_sizes":[],"default_left":[0,0,0,0,0,0,0,0,0,0,0,0,0,0,0,0,0,0,0,0,0],"id":1,"left_children":[1,3,5,-1,7,9,11,-1,-1,13,15,-1,-1,-1,17,19,-1,-1,-1,-1,-1],"loss_changes":[4.589495E1,1.58209E1,3.0145515E1,0E0,2.5456238E-1,3.5705193E1,1.4387604E1,0E0,0E0,1.3369627E1,1.4976389E1,0E0,0E0,0E0,1.5636309E1,1.9024014E1,0E0,0E0,0E0,0E0,0E0],"parents":[2147483647,0,0,1,1,2,2,4,4,5,5,6,6,9,9,10,10,14,14,15,15],"right_children":[2,4,6,-1,8,10,12,-1,-1,14,16,-1,-1,-1,18,20,-1,-1,-1,-1,-1],"split_conditions":[3.9761146E-3,-3.9689004E-1,2.0808877E-2,-1.4440549E-2,7.5014145E-3,3.1903487E-1,7.9999465E-1,-9.16375E-2,-5.6489903E-2,-2.9865848E-3,8.359782E-1,1.6392542E-2,8.046828E-2,5.0466776E-2,-1.0749507E-2,-2.6961546E-3,6.8528294E-3,-2.4067251E-2,2.1115998E-2,-6.3832845E-3,-9.2961915E-2],"split_indices":[69,77,18,0,50,77,12,0,0,24,77,0,0,0,68,28,0,0,0,0,0],"split_type":[0,0,0,0,0,0,0,0,0,0,0,0,0,0,0,0,0,0,0,0,0],"sum_hessian":[2.1048534E2,3.9585762E1,1.7089958E2,1.7720263E1,2.18655E1,1.3509492E2,3.5804657E1,1.1749977E1,1.0115522E1,9.733766E1,3.7757263E1,1.8944345E1,1.6860312E1,1.8253338E1,7.908432E1,2.7408258E1,1.0349007E1,2.9949432E1,4.9134888E1,1.0166685E1,1.7241573E1],"tree_param":{"num_deleted":"0","num_feature":"86","num_nodes":"21","size_leaf_vector":"1"}},{"base_weights":[-1.4438964E-2,-3.074004E-1,5.6177586E-1,-1.6509187E-1,-7.839834E-2,1.1519134E-1,1.437672E0,3.7460137E-2,-3.1029212E-1,4.33304E-2,-3.19543E-1,5.0128307E-2,8.423798E-2,-7.5120574E-1,1.1365312E-1,-4.5076516E-2,2.4691373E-2,-7.334201E-2,-5.8093155E-3,-4.201023E-2,1.720747E-2],"categories":[],"categories_nodes":[],"categories_segments":[],"categories_sizes":[],"default_left":[0,0,0,0,0,0,0,0,0,0,0,0,0,0,0,0,0,0,0,0,0],"id":2,"left_children":[1,3,5,7,-1,9,11,-1,13,-1,15,-1,-1,17,19,-1,-1,-1,-1,-1,-1],"loss_changes":[3.721525E1,2.5818655E1,2.872341E1,1.7802498E1,0E0,1.6776154E1,7.20356E-1,0E0,2.170089E1,0E0,1.5887822E1,0E0,0E0,2.5467506E1,1.3328447E1,0E0,0E0,0E0,0E0,0E0,0E0],"parents":[2147483647,0,0,1,1,2,2,3,3,5,5,6,6,8,8,10,10,13,13,14,14],"right_children":[2,4,6,8,-1,10,12,-1,14,-1,16,-1,-1,18,20,-1,-1,-1,-1,-1,-1],"split_conditions":[4.97076E-3,4.4667856E-3,4.791104E-3,-1.6330326E0,-7.839834E-2,6.245597E-4,2.5108938E0,3.7460137E-2,-4.0984392E-4,4.33304E-2,6.5217394E-1,5.0128307E-2,8.423798E-2,6.257584E-3,1.2671229E-1,-4.5076516E-2,2.4691373E-2,-7.334201E-2,-5.8093155E-3,-4.201023E-2,1.720747E-2],"split_indices":[78,1,30,76,0,36,40,0,36,0,83,0,0,55,65,0,0,0,0,0,0],"split_type":[0,0,0,0,0,0,0,0,0,0,0,0,0,0,0,0,0,0,0,0,0],"sum_hessian":[2.1858578E2,1.4533437E2,7.325141E1,1.3167908E2,1.365529E1,4.9340397E1,2.3911018E1,1.7381708E1,1.1429737E2,1.780388E1,3.1536516E1,1.0638868E1,1.3272149E1,5.5764664E1,5.8532703E1,1.839149E1,1.3145024E1,2.5528246E1,3.0236418E1,1.0792264E1,4.774044E1],"tree_param":{"num_deleted":"0","num_feature":"86","num_nodes":"21","size_leaf_vector":"1"}},{"base_weights":[2.4029616E-2,-1.4680344E-1,1.2555342E0,7.8636E-1,-2.7570012E-1,4.604553E-2,7.9709694E-2,1.3044581E-2,6.028362E-2,-4.169405E-1,5.9357965E-1,-5.377876E-1,3.0477911E-2,-0E0,5.4157544E-2,-1.6429173E-2,-6.0350675E-2],"categories":[],"categories_nodes":[],"categories_segments":[],"categories_sizes":[],"default_left":[0,0,0,0,0,0,0,0,0,0,0,0,0,0,0,0,0],"id":3,"left_children":[1,3,5,7,9,-1,-1,-1,-1,11,13,15,-1,-1,-1,-1,-1],"loss_changes":[4.81723E1,2.4303104E1,1.4419861E0,4.941452E0,2.1980272E1,0E0,0E0,0E0,0E0,1.9310013E1,7.2918024E0,1.8710876E1,0E0,0E0,0E0,0E0,0E0],"parents":[2147483647,0,0,1,1,2,2,3,3,4,4,9,9,10,10,11,11],"right_children":[2,4,6,8,10,-1,-1,-1,-1,12,14,16,-1,-1,-1,-1,-1],"split_conditions":[8.756472E-1,-3.3152725E-3,-2.9681867E-3,-5.753233E-3,3.3843154E-3,4.604553E-2,7.9709694E-2,1.3044581E-2,6.028362E-2,1.1060241E-3,-5.122864E-4,-1.3336158E-2,3.0477911E-2,-0E0,5.4157544E-2,-1.6429173E-2,-6.0350675E-2],"split_indices":[65,24,66,1,36,0,0,0,0,24,24,44,0,0,0,0,0],"split_type":[0,0,0,0,0,0,0,0,0,0,0,0,0,0,0,0,0],"sum_hessian":[2.2657262E2,1.9967368E2,2.6898935E1,2.3520151E1,1.7615352E2,1.5549405E1,1.134953E1,1.1264512E1,1.2255639E1,1.5207915E2,2.4074383E1,1.3657413E2,1.5505014E1,1.132889E1,1.2745493E1,1.052978E2,3.127633E1],"tree_param":{"num_deleted":"0","num_feature":"86","num_nodes":"17","size_leaf_vector":"1"}},{"base_weights":[-3.857992E-2,-2.7988532E-1,4.3700832E-1,-1.22675076E-1,-6.908963E-2,-1.1983033E-2,1.2250148E0,-2.4977922E-1,5.1929172E-2,5.7626355E-2,-3.574633E-1,2.3700768E-2,8.179247E-2,-8.2983357E-1,-2.4629911E-2,-5.450048E-2,1.2790237E-1,-0E0,-7.886706E-2,-1.0047769E-2,4.6902925E-2,3.398836E-2,-1.8756112E-2],"categories":[],"categories_nodes":[],"categories_segments":[],"categories_sizes":[],"default_left":[0,0,0,0,0,0,0,0,0,0,0,0,0,0,0,0,0,0,0,0,0,0,0],"id":4,"left_children":[1,3,5,7,-1,9,11,13,-1,-1,15,-1,-1,17,19,-1,21,-1,-1,-1,-1,-1,-1],"loss_changes":[2.5205755E1,2.4943901E1,2.6270765E1,1.9192516E1,0E0,1.9629591E1,7.3138313E0,1.5171961E1,0E0,0E0,1.3682772E1,0E0,0E0,2.0180223E1,1.4615776E1,0E0,6.826024E0,0E0,0E0,0E0,0E0,0E0,0E0],"parents":[2147483647,0,0,1,1,2,2,3,3,5,5,6,6,7,7,10,10,13,13,14,14,16,16],"right_children":[2,4,6,8,-1,10,12,14,-1,-1,16,-1,-1,18,20,-1,22,-1,-1,-1,-1,-1,-1],"split_conditions":[4.97076E-3,2.803933E0,3.7408522E-3,8.5681134E-1,-6.908963E-2,3.552312E-4,3.3802849E-3,5.8616645E-4,5.1929172E-2,5.7626355E-2,5.07243E-1,2.3700768E-2,8.179247E-2,3.6147892E1,6.506016E-1,-5.450048E-2,3.673354E-3,-0E0,-7.886706E-2,-1.0047769E-2,4.6902925E-2,3.398836E-2,-1.8756112E-2],"split_indices":[78,40,31,61,0,16,0,7,0,0,58,0,0,39,63,0,5,0,0,0,0,0,0],"split_type":[0,0,0,0,0,0,0,0,0,0,0,0,0,0,0,0,0,0,0,0,0,0,0],"sum_hessian":[2.1770615E2,1.4483904E2,7.286711E1,1.2780679E2,1.7032246E1,4.696514E1,2.5901966E1,1.15983025E2,1.1823763E1,1.0144754E1,3.682039E1,1.00068245E1,1.5895141E1,3.1555761E1,8.442726E1,1.4259413E1,2.2560974E1,1.5434058E1,1.6121704E1,7.211403E1,1.2313233E1,1.0685464E1,1.1875511E1],"tree_param":{"num_deleted":"0","num_feature":"86","num_nodes":"23","size_leaf_vector":"1"}},{"base_weights":[6.0037833E-2,-1.1560793E-1,7.645105E-1,-2.721182E-1,5.379118E-1,-5.7004235E-4,1.1540347E0,-1.5831777E-1,-6.405022E-2,8.481833E-2,6.047324E-2,7.2210945E-2,4.2504888E-2,-7.052174E-1,1.0659291E-1,3.96613E-2,-2.812686E-2,7.362099E-3,-4.9054965E-2,1.4877061E-2,-4.741515E-2],"categories":[],"categories_nodes":[],"categories_segments":[],"categories_sizes":[],"default_left":[0,0,0,0,0,0,0,0,0,0,0,0,0,0,0,0,0,0,0,0,0],"id":5,"left_children":[1,3,5,7,9,-1,11,13,-1,15,-1,-1,-1,17,19,-1,-1,-1,-1,-1,-1],"loss_changes":[2.8306473E1,1.8824348E1,1.3925095E1,1.6682743E1,1.0583805E1,0E0,1.2319221E0,1.9624308E1,0E0,1.0737026E1,0E0,0E0,0E0,1.0611269E1,1.862163E1,0E0,0E0,0E0,0E0,0E0,0E0],"parents":[2147483647,0,0,1,1,2,2,3,3,4,4,6,6,7,7,9,9,13,13,14,14],"right_children":[2,4,6,8,10,-1,12,14,-1,16,-1,-1,-1,18,20,-1,-1,-1,-1,-1,-1],"split_conditions":[-2.2033879E-1,5.4383043E-2,1.004181E-3,5.349099E-3,5.0602347E-1,-5.7004235E-4,8.245926E-1,6.8760914E-1,-6.405022E-2,-2.7965035E-2,6.047324E-2,7.2210945E-2,4.2504888E-2,-6.38625E-3,3.767311E0,3.96613E-2,-2.812686E-2,7.362099E-3,-4.9054965E-2,1.4877061E-2,-4.741515E-2],"split_indices":[75,47,31,6,63,0,52,52,0,17,0,0,0,1,40,0,0,0,0,0,0],"split_type":[0,0,0,0,0,0,0,0,0,0,0,0,0,0,0,0,0,0,0,0,0],"sum_hessian":[2.2652332E2,1.8187137E2,4.465194E1,1.4732532E2,3.454605E1,1.5162687E1,2.948925E1,1.3352051E2,1.3804815E1,2.1389723E1,1.3156328E1,1.2998351E1,1.64909E1,4.3151333E1,9.036917E1,1.0179422E1,1.1210301E1,1.0575975E1,3.257536E1,7.720662E1,1.316255E1],"tree_param":{"num_deleted":"0","num_feature":"86","num_nodes":"21","size_leaf_vector":"1"}},{"base_weights":[-3.4610316E-2,-1.2376153E-1,5.2523594E-2,7.843984E-1,-2.3167956E-1,5.7398338E-2,1.7756566E-2,-1.260409E0,-5.7950974E-2,-2.0417059E-2,-8.970665E-2,4.35708E-2,-1.8603693E-1,-3.704466E-2,5.7645687E-3],"categories":[],"categories_nodes":[],"categories_segments":[],"categories_sizes":[],"default_left":[0,0,0,0,0,0,0,0,0,0,0,0,0,0,0],"id":6,"left_children":[1,3,-1,5,7,-1,-1,9,11,-1,-1,-1,13,-1,-1],"loss_changes":[2.1116392E1,1.9956966E1,0E0,2.8161983E0,3.2271713E1,0E0,0E0,1.092701E1,1.8734484E1,0E0,0E0,0E0,2.3312008E1,0E0,0E0],"parents":[2147483647,0,0,1,1,3,3,4,4,7,7,8,8,12,12],"right_children":[2,4,-1,6,8,-1,-1,10,12,-1,-1,-1,14,-1,-1],"split_conditions":[2.794593E-2,-3.3461056E-3,5.2523594E-2,-1.1412789E-2,-1.0921165E-2,5.7398338E-2,1.7756566E-2,6.949841E-1,3.6147892E1,-2.0417059E-2,-8.970665E-2,4.35708E-2,-9.876571E-3,-3.704466E-2,5.7645687E-3],"split_indices":[4,24,0,2,29,0,0,52,39,0,0,0,68,0,0],"split_type":[0,0,0,0,0,0,0,0,0,0,0,0,0,0,0],"sum_hessian":[2.1690201E2,2.0133803E2,1.556399E1,2.0619997E1,1.8071803E2,1.0131719E1,1.0488279E1,2.5122879E1,1.5559515E2,1.0427792E1,1.4695088E1,1.8049242E1,1.375459E2,4.8011738E1,8.9534164E1],"tree_param":{"num_deleted":"0","num_feature":"86","num_nodes":"15","size_leaf_vector":"1"}},{"base_weights":[-1.1439188E-2,-1.1205674E-1,8.4226376E-1,-8.6565244E-1,-6.1638863E-3,2.388121E-2,5.6038618E-2,-6.859218E-2,-1.7685285E-2,2.793433E-1,-3.207262E-1,-5.132174E-1,5.42978E-1,-9.5263255E-1,-3.7509244E-2,1.2407909E-2,-6.813922E-2,-2.1048194E-2,3.8449313E-2,-6.607545E-3,-8.515682E-2,3.3606764E-2,-2.2029322E-2],"categories":[],"categories_nodes":[],"categories_segments":[],"categories_sizes":[],"default_left":[0,0,0,0,0,0,0,0,0,0,0,0,0,0,0,0,0,0,0,0,0,0,0],"id":7,"left_children":[1,3,5,7,9,-1,-1,-1,-1,11,13,15,17,19,21,-1,-1,-1,-1,-1,-1,-1,-1],"loss_changes":[1.867175E1,1.5486033E1,1.6309528E0,5.5430737E0,1.5567119E1,0E0,0E0,0E0,0E0,1.9229801E1,1.4649029E1,1.5362478E1,1.531003E1,1.5241415E1,1.6918074E1,0E0,0E0,0E0,0E0,0E0,0E0,0E0,0E0],"parents":[2147483647,0,0,1,1,2,2,3,3,4,4,9,9,10,10,11,11,12,12,13,13,14,14],"right_children":[2,4,6,8,10,-1,-1,-1,-1,12,14,16,18,20,22,-1,-1,-1,-1,-1,-1,-1,-1],"split_conditions":[8.756472E-1,2.4621112E-2,-1.1764697E-1,5.084746E-1,5.8621312E-3,2.388121E-2,5.6038618E-2,-6.859218E-2,-1.7685285E-2,-2.0276299E-3,9.6227E-3,-7.849089E-3,2E0,-5.522714E-7,-7.991837E-3,1.2407909E-2,-6.813922E-2,-2.1048194E-2,3.8449313E-2,-6.607545E-3,-8.515682E-2,3.3606764E-2,-2.2029322E-2],"split_indices":[65,47,75,84,53,0,0,0,0,23,49,30,13,33,17,0,0,0,0,0,0,0,0],"split_type":[0,0,0,0,0,0,0,0,0,0,0,0,0,0,0,0,0,0,0,0,0,0,0],"sum_hessian":[2.1612375E2,1.9421896E2,2.1904797E1,2.2928333E1,1.7129062E2,1.0816804E1,1.1087994E1,1.0586178E1,1.2342156E1,8.9684265E1,8.160635E1,2.2054916E1,6.762935E1,2.4415167E1,5.719119E1,1.19424095E1,1.0112507E1,1.2597032E1,5.503232E1,1.2289312E1,1.21258545E1,2.0385515E1,3.680567E1],"tree_param":{"num_deleted":"0","num_feature":"86","num_nodes":"23","size_leaf_vector":"1"}},{"base_weights":[-6.676355E-2,-2.9874286E-1,3.9865908E-1,-1.603344E-1,-6.370038E-2,-1.2222154E-1,8.8069886E-1,-4.8527825E-1,1.9737616E-1,3.74754E-1,-5.7315957E-2,2.0854985E-2,1.2104938E0,1.07041925E-1,-1.2806123E0,7.474426E-1,-2.2090243E-1,4.9871348E-2,-2.062917E-2,4.2582057E-2,7.242348E-2,2.6068166E-2,-4.9418412E-2,-8.401554E-2,-3.553887E-2,3.2390857E-3,6.1051607E-2,3.0967861E-2,-3.599855E-2],"categories":[],"categories_nodes":[],"categories_segments":[],"categories_sizes":[],"default_left":[0,0,0,0,0,0,0,0,0,0,0,0,0,0,0,0,0,0,0,0,0,0,0,0,0,0,0,0,0],"id":8,"left_children":[1,3,5,7,-1,9,11,13,15,17,-1,-1,19,21,23,25,27,-1,-1,-1,-1,-1,-1,-1,-1,-1,-1,-1,-1],"loss_changes":[2.3174986E1,1.8994032E1,1.8097736E1,1.4853273E1,0E0,1.8355934E1,5.0316944E0,3.1739264E1,1.4225161E1,1.238313E1,0E0,0E0,3.4087372E-1,1.8239851E1,5.0981293E0,8.401421E0,1.52386055E1,0E0,0E0,0E0,0E0,0E0,0E0,0E0,0E0,0E0,0E0,0E0,0E0],"parents":[2147483647,0,0,1,1,2,2,3,3,5,5,6,6,7,7,8,8,9,9,12,12,13,13,14,14,15,15,16,16],"right_children":[2,4,6,8,-1,10,12,14,16,18,-1,-1,20,22,24,26,28,-1,-1,-1,-1,-1,-1,-1,-1,-1,-1,-1,-1],"split_conditions":[4.9584466E-3,2.803933E0,1.3775681E-3,-4.0984392E-4,-6.370038E-2,-3.4652657E-3,7.826053E-1,-1.8489537E-3,5.1318563E-4,3.161995E-1,-5.7315957E-2,2.0854985E-2,8.361204E-4,-9.583617E-1,8.572315E-3,-1.2178437E-7,3.6771548E-1,4.9871348E-2,-2.062917E-2,4.2582057E-2,7.242348E-2,2.6068166E-2,-4.9418412E-2,-8.401554E-2,-3.553887E-2,3.2390857E-3,6.1051607E-2,3.0967861E-2,-3.599855E-2],"split_indices":[2,40,31,36,0,31,12,36,36,77,0,0,7,76,49,33,58,0,0,0,0,0,0,0,0,0,0,0,0],"split_type":[0,0,0,0,0,0,0,0,0,0,0,0,0,0,0,0,0,0,0,0,0,0,0,0,0,0,0,0,0],"sum_hessian":[2.1263545E2,1.4228815E2,7.0347305E1,1.2571391E2,1.657424E1,3.4070515E1,3.6276787E1,6.583364E1,5.9880272E1,2.3299917E1,1.0770598E1,1.6146826E1,2.0129961E1,3.81565E1,2.767714E1,2.562875E1,3.4251522E1,1.2932392E1,1.0367525E1,1.0019729E1,1.0110232E1,2.8131535E1,1.0024967E1,1.5018488E1,1.2658652E1,1.1049405E1,1.4579345E1,1.2598531E1,2.1652992E1],"tree_param":{"num_deleted":"0","num_feature":"86","num_nodes":"29","size_leaf_vector":"1"}},{"base_weights":[1.0601902E-1,-2.1137828E-1,5.1200426E-1,9.206243E-3,-6.787329E-2,-2.1471525E-2,6.519689E-1,9.078384E-1,-2.4353458E-1,9.5075893E-1,3.6852214E-1,2.045425E-2,6.725824E-2,-3.5523508E-2,-6.677497E-2,1.08434465E-2,1.2170964E0,-2.4813761E-1,8.969202E-1,-5.6322522E-2,8.97875E-3,8.068662E-2,4.378701E-2,-4.318906E-2,2.1043545E-2,2.3033632E-2,6.644784E-2],"categories":[],"categories_nodes":[],"categories_segments":[],"categories_sizes":[],"default_left":[0,0,0,0,0,0,0,0,0,0,0,0,0,0,0,0,0,0,0,0,0,0,0,0,0,0,0],"id":9,"left_children":[1,3,5,7,-1,-1,9,11,13,15,17,-1,-1,19,-1,-1,21,23,25,-1,-1,-1,-1,-1,-1,-1,-1],"loss_changes":[2.9060907E1,3.2137627E1,1.333576E1,2.4597569E1,0E0,0E0,6.8519745E0,4.4641933E0,1.8950157E1,7.675892E0,1.5356297E1,0E0,0E0,1.7160866E1,0E0,0E0,2.4031715E0,9.484062E0,3.9601498E0,0E0,0E0,0E0,0E0,0E0,0E0,0E0,0E0],"parents":[2147483647,0,0,1,1,2,2,3,3,6,6,7,7,8,8,9,9,10,10,13,13,16,16,17,17,18,18],"right_children":[2,4,6,8,-1,-1,10,12,14,16,18,-1,-1,20,-1,-1,22,24,26,-1,-1,-1,-1,-1,-1,-1,-1],"split_conditions":[5.813949E-1,-2.9495586E-2,-4.8598835E-1,-3.3152725E-3,-6.787329E-2,-2.1471525E-2,1.2910441E-2,8.469918E-3,3.0155015E0,2.7188688E-4,6.5447856E-3,2.045425E-2,6.725824E-2,-1.8534447E-6,-6.677497E-2,1.08434465E-2,1.3931456E-3,2.0393722E-3,4.4407365E-3,-5.6322522E-2,8.97875E-3,8.068662E-2,4.378701E-2,-4.318906E-2,2.1043545E-2,2.3033632E-2,6.644784E-2],"split_indices":[64,41,77,24,0,0,69,69,40,7,27,0,0,33,0,0,7,32,30,0,0,0,0,0,0,0,0],"split_type":[0,0,0,0,0,0,0,0,0,0,0,0,0,0,0,0,0,0,0,0,0,0,0,0,0,0,0],"sum_hessian":[2.2345235E2,1.2553934E2,9.791302E1,1.06035645E2,1.9503693E1,1.2312654E1,8.5600365E1,2.2794037E1,8.324161E1,4.035443E1,4.524593E1,1.1660167E1,1.1133871E1,7.0866234E1,1.2375374E1,1.1328527E1,2.9025904E1,2.10366E1,2.4209332E1,1.105022E1,5.981601E1,1.1566242E1,1.7459661E1,1.0881461E1,1.015514E1,1.3189259E1,1.1020072E1],"tree_param":{"num_deleted":"0","num_feature":"86","num_nodes":"27","size_leaf_vector":"1"}},{"base_weights":[-1.9288534E-2,-2.6645127E-1,4.767723E-1,-1.2048111E-1,-9.225917E-1,9.311651E-1,-1.3505623E-1,-3.4149545E-1,4.3353957E-1,-6.843609E-2,-2.0705806E-2,1.2798212E0,2.3837633E-2,-4.8263934E-2,3.7590098E-2,3.4348804E-1,-6.393916E-1,5.5536058E-2,-2.8902255E-2,7.432257E-2,4.6018243E-2,-1.6265979E-2,5.3047627E-2,1.370865E-2,-4.477295E-2,2.4733094E-2,-2.6349036E-2],"categories":[],"categories_nodes":[],"categories_segments":[],"categories_sizes":[],"default_left":[0,0,0,0,0,0,0,0,0,0,0,0,0,0,0,0,0,0,0,0,0,0,0,0,0,0,0],"id":10,"left_children":[1,3,5,7,9,11,13,15,17,-1,-1,19,-1,-1,-1,21,23,-1,25,-1,-1,-1,-1,-1,-1,-1,-1],"loss_changes":[2.7522173E1,1.415324E1,2.0941107E1,1.5321721E1,5.3857937E0,6.0300217E0,2.4725067E1,1.8476295E1,1.1310955E1,0E0,0E0,1.4594269E-1,0E0,0E0,0E0,1.367292E1,1.4976007E1,0E0,6.022684E0,0E0,0E0,0E0,0E0,0E0,0E0,0E0,0E0],"parents":[2147483647,0,0,1,1,2,2,3,3,4,4,5,5,6,6,7,7,8,8,11,11,15,15,16,16,18,18],"right_children":[2,4,6,8,10,12,14,16,18,-1,-1,20,-1,-1,-1,22,24,-1,26,-1,-1,-1,-1,-1,-1,-1,-1],"split_conditions":[5.1384643E-3,9.797769E-7,1.5823891E-3,4.516124E-1,9.4891465E-7,1.1709601E-3,8.039208E-1,-1.9178367E-3,-4.9740916E-1,-6.843609E-2,-2.0705806E-2,3.3927757E-2,2.3837633E-2,-4.8263934E-2,3.7590098E-2,1.1572207E0,-9.1044706E-1,5.5536058E-2,1.4247774E-2,7.432257E-2,4.6018243E-2,-1.6265979E-2,5.3047627E-2,1.370865E-2,-4.477295E-2,2.4733094E-2,-2.6349036E-2],"split_indices":[2,37,36,62,33,6,12,24,60,0,0,47,0,0,0,58,75,0,45,0,0,0,0,0,0,0,0],"split_type":[0,0,0,0,0,0,0,0,0,0,0,0,0,0,0,0,0,0,0,0,0,0,0,0,0,0,0],"sum_hessian":[2.2260876E2,1.4902258E2,7.3586174E1,1.22995964E2,2.602662E1,4.2020153E1,3.1566021E1,8.832483E1,3.467114E1,1.2857302E1,1.316932E1,2.2624561E1,1.9395592E1,1.631616E1,1.524986E1,2.6621809E1,6.170302E1,1.3587915E1,2.1083223E1,1.2198749E1,1.0425814E1,1.3988847E1,1.2632962E1,1.3407655E1,4.8295364E1,1.0184105E1,1.0899118E1],"tree_param":{"num_deleted":"0","num_feature":"86","num_nodes":"27","size_leaf_vector":"1"}},{"base_weights":[-2.520269E-2,-6.153111E-1,1.5067358E-1,1.3620538E-2,-1.10154E0,-9.706765E-2,5.8419687E-1,-1.7024403E-2,-7.223431E-2,-2.3551656E-1,4.9654398E-2,-8.532495E-3,7.7706987E-1,-3.9693362E-1,3.7531648E-2,-3.6731263E-4,1.0741743E0,1.5496825E-2,-3.2087006E-2,1.876589E-2,6.720754E-2],"categories":[],"categories_nodes":[],"categories_segments":[],"categories_sizes":[],"default_left":[0,0,0,0,0,0,0,0,0,0,0,0,0,0,0,0,0,0,0,0,0],"id":11,"left_children":[1,3,5,-1,7,9,11,-1,-1,13,-1,-1,15,17,-1,-1,19,-1,-1,-1,-1],"loss_changes":[2.1630394E1,2.104658E1,1.7311111E1,0E0,7.4780617E0,1.565177E1,8.7168865E0,0E0,0E0,1.4903401E1,0E0,0E0,1.1048624E1,1.4037656E1,0E0,0E0,5.762535E0,0E0,0E0,0E0,0E0],"parents":[2147483647,0,0,1,1,2,2,4,4,5,5,6,6,9,9,12,12,13,13,16,16],"right_children":[2,4,6,-1,8,10,12,-1,-1,14,-1,-1,16,18,-1,-1,20,-1,-1,-1,-1],"split_conditions":[-6.2424257E-2,3.3333334E-1,2.7027025E-3,1.3620538E-2,6.666644E-1,1.4135101E-2,-2.4882525E-2,-1.7024403E-2,-7.223431E-2,8.683058E-1,4.9654398E-2,-8.532495E-3,3.3333334E-1,4.477763E-3,3.7531648E-2,-3.6731263E-4,-3.9011368E-1,1.5496825E-2,-3.2087006E-2,1.876589E-2,6.720754E-2],"split_indices":[72,85,7,0,11,49,18,0,0,61,0,0,85,54,0,0,59,0,0,0,0],"split_type":[0,0,0,0,0,0,0,0,0,0,0,0,0,0,0,0,0,0,0,0,0],"sum_hessian":[2.0607231E2,4.687273E1,1.5919958E2,1.6670681E1,3.0202051E1,1.0165388E2,5.7545696E1,1.0095428E1,2.0106623E1,9.097572E1,1.0678156E1,1.162921E1,4.591649E1,7.877964E1,1.2196084E1,1.2789168E1,3.312732E1,2.0091524E1,5.8688114E1,1.0000581E1,2.3126738E1],"tree_param":{"num_deleted":"0","num_feature":"86","num_nodes":"21","size_leaf_vector":"1"}},{"base_weights":[-7.661051E-2,-2.7739564E-1,5.0561863E-1,-4.7272468E-1,3.3823735E-1,9.0014344E-1,8.572861E-3,-6.059358E-1,3.2548618E-2,8.695857E-1,-2.1893214E-2,6.6019945E-2,1.6464155E-2,3.2318275E-2,-3.513203E-2,-7.29232E-1,1.639585E-2,7.087466E-2,6.4918413E-3,-1.8853376E-2,-7.020102E-2],"categories":[],"categories_nodes":[],"categories_segments":[],"categories_sizes":[],"default_left":[0,0,0,0,0,0,0,0,0,0,0,0,0,0,0,0,0,0,0,0,0],"id":12,"left_children":[1,3,5,7,9,11,13,15,-1,17,-1,-1,-1,-1,-1,19,-1,-1,-1,-1,-1],"loss_changes":[2.5028948E1,1.9320415E1,1.0661208E1,1.856443E1,1.6428783E1,6.7096996E0,1.1971033E1,1.28462105E1,0E0,9.165638E0,0E0,0E0,0E0,0E0,0E0,2.2300373E1,0E0,0E0,0E0,0E0,0E0],"parents":[2147483647,0,0,1,1,2,2,3,3,4,4,5,5,6,6,7,7,9,9,15,15],"right_children":[2,4,6,8,10,12,14,16,-1,18,-1,-1,-1,-1,-1,20,-1,-1,-1,-1,-1],"split_conditions":[7.4825995E-3,7.5028694E-1,1.440507E-3,1.0600623E-3,1.6348815E0,2.7306178E-3,-1.7047988E-1,8.3410513E-1,3.2548618E-2,-2.511228E-3,-2.1893214E-2,6.6019945E-2,1.6464155E-2,3.2318275E-2,-3.513203E-2,4.4853863E-1,1.639585E-2,7.087466E-2,6.4918413E-3,-1.8853376E-2,-7.020102E-2],"split_indices":[16,60,6,24,60,36,59,61,0,30,0,0,0,0,0,61,0,0,0,0,0],"split_type":[0,0,0,0,0,0,0,0,0,0,0,0,0,0,0,0,0,0,0,0,0],"sum_hessian":[2.1209567E2,1.5822588E2,5.3869797E1,1.2041498E2,3.7810898E1,2.946784E1,2.4401958E1,1.0814451E2,1.2270472E1,2.2449512E1,1.5361385E1,1.6115658E1,1.33521805E1,1.29872265E1,1.1414732E1,9.581967E1,1.2324835E1,1.2293076E1,1.0156438E1,6.408264E1,3.173703E1],"tree_param":{"num_deleted":"0","num_feature":"86","num_nodes":"21","size_leaf_vector":"1"}},{"base_weights":[2.4324296E-2,-3.9332098E-1,2.0442094E-1,-5.8251012E-2,-1.5328307E-1,-4.2622983E-3,6.760926E-1,2.8103533E-1,-4.5314435E-2,-3.1642544E-1,4.5696968E-1,3.05275E-3,1.0061852E0,-2.5823358E-2,7.3125017E-1,1.349035E-1,-1.0853608E0,8.4285975E-1,-3.1052282E-2,2.7940217E-2,6.401985E-2,6.1125994E-2,8.543595E-3,2.4459908E-2,-2.5737688E-2,-1.6544394E-2,-8.141765E-2,6.2504835E-2,1.3175762E-2],"categories":[],"categories_nodes":[],"categories_segments":[],"categories_sizes":[],"default_left":[0,0,0,0,0,0,0,0,0,0,0,0,0,0,0,0,0,0,0,0,0,0,0,0,0,0,0,0,0],"id":13,"left_children":[1,3,5,-1,7,9,11,13,-1,15,17,-1,19,-1,21,23,25,27,-1,-1,-1,-1,-1,-1,-1,-1,-1,-1,-1],"loss_changes":[1.6036983E1,1.1575824E1,1.4758323E1,0E0,1.6732891E1,1.5147723E1,9.155451E0,1.2072615E1,0E0,2.2078196E1,1.817487E1,0E0,2.7459164E0,0E0,5.5086985E0,9.561311E0,8.878267E0,6.998188E0,0E0,0E0,0E0,0E0,0E0,0E0,0E0,0E0,0E0,0E0,0E0],"parents":[2147483647,0,0,1,1,2,2,4,4,5,5,6,6,7,7,9,9,10,10,12,12,14,14,15,15,16,16,17,17],"right_children":[2,4,6,-1,8,10,12,14,-1,16,18,-1,20,-1,22,24,26,28,-1,-1,-1,-1,-1,-1,-1,-1,-1,-1,-1],"split_conditions":[5.6131002E-3,-5.787033E-2,3.3598044E-3,-5.8251012E-2,1.6689851E-3,5.1384643E-3,-3.1088032E-2,8.2214305E-4,-4.5314435E-2,2.7777702E-1,2.204769E-2,3.05275E-3,7.142806E-1,-2.5823358E-2,-8.392311E-3,7.0618355E-1,-1.3710396E-2,8.576619E-3,-3.1052282E-2,2.7940217E-2,6.401985E-2,6.1125994E-2,8.543595E-3,2.4459908E-2,-2.5737688E-2,-1.6544394E-2,-8.141765E-2,6.2504835E-2,1.3175762E-2],"split_indices":[55,72,7,0,0,2,72,6,0,12,69,0,12,0,29,58,68,2,0,0,0,0,0,0,0,0,0,0,0],"split_type":[0,0,0,0,0,0,0,0,0,0,0,0,0,0,0,0,0,0,0,0,0,0,0,0,0,0,0,0,0],"sum_hessian":[2.1139313E2,6.3167675E1,1.4822545E2,1.3973645E1,4.919403E1,1.03300735E2,4.4924725E1,3.1512335E1,1.7681696E1,6.1922302E1,4.137843E1,1.6209898E1,2.8714825E1,1.1237376E1,2.027496E1,3.9457256E1,2.2465048E1,3.069989E1,1.0678538E1,1.220489E1,1.6509935E1,1.0078948E1,1.0196011E1,2.5792223E1,1.3665032E1,1.0152279E1,1.231277E1,1.7246483E1,1.3453407E1],"tree_param":{"num_deleted":"0","num_feature":"86","num_nodes":"29","size_leaf_vector":"1"}},{"base_weights":[3.0504867E-2,-7.4011445E-1,1.4990367E-1,-7.732628E-2,-5.1400233E-3,4.259382E-2,9.5045537E-1,1.490426E-1,-3.5289045E-2,5.9035927E-2,3.166607E-2,-3.6411074E-1,3.2979646E-1,1.0648589E-2,-6.150791E-2,1.0569011E-2,5.6489766E-2],"categories":[],"categories_nodes":[],"categories_segments":[],"categories_sizes":[],"default_left":[0,0,0,0,0,0,0,0,0,0,0,0,0,0,0,0,0],"id":14,"left_children":[1,3,5,-1,-1,7,9,11,-1,-1,-1,13,15,-1,-1,-1,-1],"loss_changes":[1.9609924E1,1.4360232E1,1.5752129E1,0E0,0E0,1.3136712E1,6.560936E-1,1.354434E1,0E0,0E0,0E0,1.9375784E1,9.832178E0,0E0,0E0,0E0,0E0],"parents":[2147483647,0,0,1,1,2,2,5,5,6,6,7,7,11,11,12,12],"right_children":[2,4,6,-1,-1,8,10,12,-1,-1,-1,14,16,-1,-1,-1,-1],"split_conditions":[6.367093E-3,-8.636266E-5,8.756472E-1,-7.732628E-2,-5.1400233E-3,-4.74598E-3,2.325885E-2,1.6666527E-1,-3.5289045E-2,5.9035927E-2,3.166607E-2,1E0,2.4832988E-2,1.0648589E-2,-6.150791E-2,1.0569011E-2,5.6489766E-2],"split_indices":[50,36,65,0,0,68,45,12,0,0,0,56,4,0,0,0,0],"split_type":[0,0,0,0,0,0,0,0,0,0,0,0,0,0,0,0,0],"sum_hessian":[2.1156148E2,2.7571878E1,1.839896E2,1.1472219E1,1.6099659E1,1.6328076E2,2.070883E1,1.4376598E2,1.9514797E1,1.0237337E1,1.0471493E1,3.704083E1,1.0672514E2,2.2612095E1,1.4428735E1,9.417459E1,1.2550549E1],"tree_param":{"num_deleted":"0","num_feature":"86","num_nodes":"17","size_leaf_vector":"1"}},{"base_weights":[2.6210628E-3,-2.3978864E-1,3.2724133E-1,3.4654036E-2,-1.0965676E0,5.7919973E-1,-2.0225067E-1,-4.6513423E-1,3.1981203E-1,-2.7351785E-2,-7.227036E-2,8.64181E-2,8.826125E-1,-3.5296638E-2,2.9522765E-2,1.1431475E-2,-8.8561636E-1,6.5490085E-1,-2.306102E-1,-2.8053552E-2,3.012592E-2,6.539972E-2,1.8523304E-2,-6.678065E-2,-1.5943078E-2,4.0642484E-3,5.946684E-2,-4.307611E-2,2.2888375E-2],"categories":[],"categories_nodes":[],"categories_segments":[],"categories_sizes":[],"default_left":[0,0,0,0,0,0,0,0,0,0,0,0,0,0,0,0,0,0,0,0,0,0,0,0,0,0,0,0,0],"id":15,"left_children":[1,3,5,7,9,11,13,15,17,-1,-1,19,21,-1,-1,-1,23,25,27,-1,-1,-1,-1,-1,-1,-1,-1,-1,-1],"loss_changes":[1.6896845E1,2.8994032E1,1.2418078E1,1.3503672E1,4.739071E0,9.19709E0,1.2506705E1,1.02912445E1,1.1342752E1,0E0,0E0,8.735382E0,7.7468777E0,0E0,0E0,0E0,4.9399223E0,1.1409601E1,1.064157E1,0E0,0E0,0E0,0E0,0E0,0E0,0E0,0E0,0E0,0E0],"parents":[2147483647,0,0,1,1,2,2,3,3,4,4,5,5,6,6,7,7,8,8,11,11,12,12,16,16,17,17,18,18],"right_children":[2,4,6,8,10,12,14,16,18,-1,-1,20,22,-1,-1,-1,24,26,28,-1,-1,-1,-1,-1,-1,-1,-1,-1,-1],"split_conditions":[5.813949E-1,3.7762213E-1,7.7494663E-1,3.6110558E1,3.3333334E-1,5E-1,2.581684E-2,-9.483112E-3,-7.013201E-1,-2.7351785E-2,-7.227036E-2,4.0350807E-1,1E0,-3.5296638E-2,2.9522765E-2,1.1431475E-2,-3.5500765E-2,-1.0253578E-2,3.216781E-1,-2.8053552E-2,3.012592E-2,6.539972E-2,1.8523304E-2,-6.678065E-2,-1.5943078E-2,4.0642484E-3,5.946684E-2,-4.307611E-2,2.2888375E-2],"split_indices":[64,64,71,38,85,85,4,20,76,0,0,11,56,0,0,0,19,3,64,0,0,0,0,0,0,0,0,0,0],"split_type":[0,0,0,0,0,0,0,0,0,0,0,0,0,0,0,0,0,0,0,0,0,0,0,0,0,0,0,0,0],"sum_hessian":[2.1261539E2,1.2169391E2,9.092147E1,9.280843E1,2.8885477E1,6.167056E1,2.9250914E1,3.3359085E1,5.944935E1,1.2324827E1,1.656065E1,2.4116554E1,3.7554005E1,1.8030209E1,1.1220705E1,1.2671128E1,2.0687958E1,3.6947887E1,2.250146E1,1.0572104E1,1.354445E1,1.95592E1,1.7994806E1,1.0677283E1,1.0010674E1,1.8466646E1,1.8481243E1,1.1685348E1,1.0816112E1],"tree_param":{"num_deleted":"0","num_feature":"86","num_nodes":"29","size_leaf_vector":"1"}},{"base_weights":[6.784285E-2,-2.3357083E-1,3.9170367E-1,4.0393478E-1,-4.757081E-1,1.340532E-1,1.0166302E0,-2.2682084E-2,5.5590976E-2,-1.2267455E0,-1.2171715E-1,-2.395926E-2,4.6586458E-2,6.692222E-2,2.3049982E-2,-3.1270448E-2,-7.8889325E-2,1.9308853E-1,-4.313634E-2,2.136489E-1,-4.0316217E-2,3.6120404E-2,-2.9193262E-2,-2.308517E-2,2.1433717E-2],"categories":[],"categories_nodes":[],"categories_segments":[],"categories_sizes":[],"default_left":[0,0,0,0,0,0,0,0,0,0,0,0,0,0,0,0,0,0,0,0,0,0,0,0,0],"id":16,"left_children":[1,3,5,7,9,11,13,-1,-1,15,17,19,-1,-1,-1,-1,-1,21,-1,23,-1,-1,-1,-1,-1],"loss_changes":[2.0630922E1,1.7081276E1,1.6153214E1,1.9104893E1,2.0940262E1,9.365397E0,4.473934E0,0E0,0E0,4.1491013E0,1.3170797E1,1.1783031E1,0E0,0E0,0E0,0E0,0E0,1.6740278E1,0E0,7.2168074E0,0E0,0E0,0E0,0E0,0E0],"parents":[2147483647,0,0,1,1,2,2,3,3,4,4,5,5,6,6,9,9,10,10,11,11,17,17,19,19],"right_children":[2,4,6,8,10,12,14,-1,-1,16,18,20,-1,-1,-1,-1,-1,22,-1,24,-1,-1,-1,-1,-1],"split_conditions":[5.283009E-1,-9.0579647E-1,3.7689018E-3,7.035172E-2,8.361204E-4,5.6712683E-2,3.2184562E-3,-2.2682084E-2,5.5590976E-2,8.9578977E-4,4E0,7.1887653E-3,4.6586458E-2,6.692222E-2,2.3049982E-2,-3.1270448E-2,-7.8889325E-2,4.320449E-1,-4.313634E-2,-2.095432E-3,-4.0316217E-2,3.6120404E-2,-2.9193262E-2,-2.308517E-2,2.1433717E-2],"split_indices":[62,75,31,64,7,47,21,0,0,6,14,55,0,0,0,0,0,61,0,21,0,0,0,0,0],"split_type":[0,0,0,0,0,0,0,0,0,0,0,0,0,0,0,0,0,0,0,0,0,0,0,0,0],"sum_hessian":[2.0924832E2,1.083646E2,1.0088372E2,2.9531658E1,7.883295E1,7.240602E1,2.8477695E1,1.3452427E1,1.6079231E1,2.437349E1,5.4459457E1,6.1139446E1,1.1266577E1,1.7027014E1,1.1450681E1,1.0114209E1,1.4259281E1,3.864587E1,1.5813584E1,4.7356228E1,1.378322E1,2.3104353E1,1.5541517E1,1.1047127E1,3.63091E1],"tree_param":{"num_deleted":"0","num_feature":"86","num_nodes":"25","size_leaf_vector":"1"}},{"base_weights":[6.835621E-2,-5.5706087E-2,5.912001E-1,-1.6391122E-1,3.6621243E-2,-9.178981E-3,8.51779E-1,1.18640885E-1,-4.399415E-1,6.269456E-2,1.9234134E-2,-3.2178307E-1,5.4182273E-1,-8.5951036E-1,2.3558857E-1,2.6301224E-2,-3.601593E-2,-1.935885E-2,4.4556823E-2,-6.282927E-2,3.1904913E-3,-2.2463433E-2,3.1923056E-2],"categories":[],"categories_nodes":[],"categories_segments":[],"categories_sizes":[],"default_left":[0,0,0,0,0,0,0,0,0,0,0,0,0,0,0,0,0,0,0,0,0,0,0],"id":17,"left_children":[1,3,5,7,-1,-1,9,11,13,-1,-1,15,17,19,21,-1,-1,-1,-1,-1,-1,-1,-1],"loss_changes":[1.3968869E1,1.4879218E1,8.558228E0,1.2071043E1,0E0,0E0,5.2079487E0,1.4464864E1,2.2410381E1,0E0,0E0,1.3246444E1,1.322364E1,1.7982502E1,8.756644E0,0E0,0E0,0E0,0E0,0E0,0E0,0E0,0E0],"parents":[2147483647,0,0,1,1,2,2,3,3,6,6,7,7,8,8,11,11,12,12,13,13,14,14],"right_children":[2,4,6,8,-1,-1,10,12,14,-1,-1,16,18,20,22,-1,-1,-1,-1,-1,-1,-1,-1],"split_conditions":[5.4383043E-2,8.756472E-1,-7.2661536E-3,3.7762213E-1,3.6621243E-2,-9.178981E-3,-1.1302656E-2,8.655482E-3,4.7890752E-4,6.269456E-2,1.9234134E-2,-8.739869E-3,-4.452546E-3,7.9488885E-1,2.6590947E-2,2.6301224E-2,-3.601593E-2,-1.935885E-2,4.4556823E-2,-6.282927E-2,3.1904913E-3,-2.2463433E-2,3.1923056E-2],"split_indices":[47,65,1,64,0,0,68,67,24,0,0,30,21,61,67,0,0,0,0,0,0,0,0],"split_type":[0,0,0,0,0,0,0,0,0,0,0,0,0,0,0,0,0,0,0,0,0,0,0],"sum_hessian":[2.1301897E2,1.7273416E2,4.0284794E1,1.5268979E2,2.0044384E1,1.0116655E1,3.0168139E1,7.555625E1,7.713353E1,1.5191561E1,1.4976579E1,3.7025494E1,3.8530758E1,4.7504417E1,2.9629112E1,1.1656893E1,2.5368603E1,1.0421121E1,2.8109636E1,3.3042023E1,1.4462399E1,1.0839419E1,1.8789692E1],"tree_param":{"num_deleted":"0","num_feature":"86","num_nodes":"23","size_leaf_vector":"1"}},{"base_weights":[1.1783104E-2,-4.4800684E-1,1.6661717E-1,-7.4135375E-1,2.1156074E-2,-4.4956732E-1,2.8551307E-1,-5.545603E-3,-1.190482E0,-6.7910366E-2,3.0601585E-2,1.1105356E-1,8.383901E-1,-3.0633E-2,-7.938314E-2,3.18984E-1,-6.3467205E-1,1.4397238E-2,5.612774E-2,2.4795417E-2,-2.9977178E-2,-6.9775045E-2,4.7848644E-3],"categories":[],"categories_nodes":[],"categories_segments":[],"categories_sizes":[],"default_left":[0,0,0,0,0,0,0,0,0,0,0,0,0,0,0,0,0,0,0,0,0,0,0],"id":18,"left_children":[1,3,5,7,-1,9,11,-1,13,-1,-1,15,17,-1,-1,19,21,-1,-1,-1,-1,-1,-1],"loss_changes":[1.5240656E1,1.4112704E1,1.1874367E1,1.1276693E1,0E0,2.6199062E1,1.2865352E1,0E0,4.2240944E0,0E0,0E0,1.6322044E1,4.5677643E0,0E0,0E0,1.3648664E1,1.3011218E1,0E0,0E0,0E0,0E0,0E0,0E0],"parents":[2147483647,0,0,1,1,2,2,3,3,5,5,6,6,8,8,11,11,12,12,15,15,16,16],"right_children":[2,4,6,8,-1,10,12,-1,14,-1,-1,16,18,-1,-1,20,22,-1,-1,-1,-1,-1,-1],"split_conditions":[-5.8260825E-2,-4.789858E-4,-7.519155E-1,-5.4825413E-1,2.1156074E-2,2.2440942E-2,3.9175064E-3,-5.545603E-3,5.565946E-3,-6.7910366E-2,3.0601585E-2,8.352535E-3,4.1728765E-3,-3.0633E-2,-7.938314E-2,3.7648422E-3,8.436417E-3,1.4397238E-2,5.612774E-2,2.4795417E-2,-2.9977178E-2,-6.9775045E-2,4.7848644E-3],"split_indices":[72,15,60,60,0,45,31,0,54,0,0,81,78,0,0,6,15,0,0,0,0,0,0],"split_type":[0,0,0,0,0,0,0,0,0,0,0,0,0,0,0,0,0,0,0,0,0,0,0],"sum_hessian":[2.1242749E2,5.2874344E1,1.5955316E2,3.9751907E1,1.3122434E1,2.5221111E1,1.3433205E2,1.7149187E1,2.260272E1,1.3489784E1,1.1731326E1,1.0316137E2,3.1170675E1,1.0345823E1,1.2256897E1,8.122092E1,2.1940454E1,1.1418164E1,1.9752512E1,6.858016E1,1.2640751E1,1.0367169E1,1.1573285E1],"tree_param":{"num_deleted":"0","num_feature":"86","num_nodes":"23","size_leaf_vector":"1"}},{"base_weights":[-5.94692E-2,-1.3962188E-1,5.401181E-2,-3.2301047E-1,2.6969588E-1,1.4929925E-1,-6.511461E-1,5.018352E-1,-2.2053411E-2,3.9898857E-2,-2.4083385E-1,-8.7265694E-1,1.591153E-2,9.211754E-2,8.6524737E-1,-3.157304E-2,1.6803848E-2,-6.384212E-2,-1.9969288E-2,2.76189E-2,-1.9772349E-2,6.187588E-2,2.1364706E-2],"categories":[],"categories_nodes":[],"categories_segments":[],"categories_sizes":[],"default_left":[0,0,0,0,0,0,0,0,0,0,0,0,0,0,0,0,0,0,0,0,0,0,0],"id":19,"left_children":[1,3,-1,5,7,9,11,13,-1,-1,15,17,-1,19,21,-1,-1,-1,-1,-1,-1,-1,-1],"loss_changes":[1.8388205E1,1.4238573E1,0E0,2.041407E1,9.910309E0,1.3988583E1,1.6968594E1,6.4967823E0,0E0,0E0,8.033819E0,1.1452705E1,0E0,5.24112E0,3.1359482E0,0E0,0E0,0E0,0E0,0E0,0E0,0E0,0E0],"parents":[2147483647,0,0,1,1,3,3,4,4,5,5,6,6,7,7,10,10,11,11,13,13,14,14],"right_children":[2,4,-1,6,8,10,12,14,-1,-1,16,18,-1,20,22,-1,-1,-1,-1,-1,-1,-1,-1],"split_conditions":[8.177332E-3,4.9108843E-4,5.401181E-2,-1.6408288E-3,8.217788E-3,6.7396797E-3,5.0307433E-3,8.821716E-3,-2.2053411E-2,3.9898857E-2,1.3078556E0,5.692299E-1,1.591153E-2,8.3426025E-4,3.7499884E-1,-3.157304E-2,1.6803848E-2,-6.384212E-2,-1.9969288E-2,2.76189E-2,-1.9772349E-2,6.187588E-2,2.1364706E-2],"split_indices":[21,24,0,24,53,9,7,49,0,0,52,62,0,6,12,0,0,0,0,0,0,0,0],"split_type":[0,0,0,0,0,0,0,0,0,0,0,0,0,0,0,0,0,0,0,0,0,0,0],"sum_hessian":[1.9967162E2,1.8745369E2,1.2217922E1,1.2976819E2,5.7685493E1,5.329584E1,7.647236E1,4.3811176E1,1.3874321E1,1.9719301E1,3.3576538E1,6.2413315E1,1.4059039E1,2.1312128E1,2.2499046E1,2.0067556E1,1.3508983E1,3.2633926E1,2.977939E1,1.1000157E1,1.0311971E1,1.10512295E1,1.1447816E1],"tree_param":{"num_deleted":"0","num_feature":"86","num_nodes":"23","size_leaf_vector":"1"}},{"base_weights":[7.4888304E-2,-1.2351345E-1,3.3968222E-1,1.0658335E-1,-7.546743E-2,1.4287902E-1,8.313671E-1,2.514152E-1,-3.57141E-2,4.318979E-2,-1.3403054E-1,6.26712E-2,1.9997666E-2,1.0679702E-1,5.8967363E-2,2.269176E-1,-3.4306634E-2,1.628661E-2,-4.577538E-2,-2.3509834E-2,4.0675048E-2],"categories":[],"categories_nodes":[],"categories_segments":[],"categories_sizes":[],"default_left":[0,0,0,0,0,0,0,0,0,0,0,0,0,0,0,0,0,0,0,0,0],"id":20,"left_children":[1,3,5,7,-1,9,11,13,-1,-1,15,-1,-1,17,-1,19,-1,-1,-1,-1,-1],"loss_changes":[1.1376142E1,3.9719193E1,8.755473E0,1.2840667E1,0E0,1.3676885E1,4.0947666E0,1.2051004E1,0E0,0E0,1.00821495E1,0E0,0E0,1.8262695E1,0E0,1.2938891E1,0E0,0E0,0E0,0E0,0E0],"parents":[2147483647,0,0,1,1,2,2,3,3,5,5,6,6,7,7,10,10,13,13,15,15],"right_children":[2,4,6,8,-1,10,12,14,-1,-1,16,-1,-1,18,-1,20,-1,-1,-1,-1,-1],"split_conditions":[5.813949E-1,4.852522E1,2.1988893E-2,3.0155015E0,-7.546743E-2,5.2361256E1,1.0196805E0,7.45581E-1,-3.57141E-2,4.318979E-2,2.906337E-3,6.26712E-2,1.9997666E-2,4.96909E-1,5.8967363E-2,2.7761716E-4,-3.4306634E-2,1.628661E-2,-4.577538E-2,-2.3509834E-2,4.0675048E-2],"split_indices":[64,38,18,40,0,38,52,61,0,0,31,0,0,61,0,31,0,0,0,0,0],"split_type":[0,0,0,0,0,0,0,0,0,0,0,0,0,0,0,0,0,0,0,0,0],"sum_hessian":[2.1433157E2,1.2261552E2,9.171606E1,1.05885735E2,1.6729782E1,6.656609E1,2.5149965E1,9.06986E1,1.5187137E1,1.7984995E1,4.85811E1,1.163254E1,1.3517426E1,7.952715E1,1.1171446E1,2.9622591E1,1.895851E1,6.614157E1,1.3385583E1,1.3548756E1,1.6073835E1],"tree_param":{"num_deleted":"0","num_feature":"86","num_nodes":"21","size_leaf_vector":"1"}},{"base_weights":[8.65296E-3,-4.1199693E-1,1.5404518E-1,4.471875E-1,-1.0344619E0,-1.1750526E-1,6.26053E-1,6.3603245E-2,-2.1945646E-2,-1.7600909E-2,-8.12669E-2,-3.8864323E-1,4.8984984E-1,7.986124E-1,-7.4257986E-3,-5.8288914E-1,1.4452131E-2,-7.031106E-4,4.6985127E-2,5.9260048E-2,5.472157E-1,1.5260205E-3,-4.9029972E-2,6.2727327E-3,6.1578136E-2],"categories":[],"categories_nodes":[],"categories_segments":[],"categories_sizes":[],"default_left":[0,0,0,0,0,0,0,0,0,0,0,0,0,0,0,0,0,0,0,0,0,0,0,0,0],"id":21,"left_children":[1,3,5,7,9,11,13,-1,-1,-1,-1,15,17,19,-1,21,-1,-1,-1,-1,23,-1,-1,-1,-1],"loss_changes":[1.3057362E1,2.9816097E1,2.0517668E1,1.7922804E1,1.2187386E1,1.6929125E1,7.9891415E0,0E0,0E0,0E0,0E0,9.542543E0,7.2961555E0,3.8452473E0,0E0,1.3693863E1,0E0,0E0,0E0,0E0,8.689988E0,0E0,0E0,0E0,0E0],"parents":[2147483647,0,0,1,1,2,2,3,3,4,4,5,5,6,6,11,11,12,12,13,13,15,15,20,20],"right_children":[2,4,6,8,10,12,14,-1,-1,-1,-1,16,18,20,-1,22,-1,-1,-1,-1,24,-1,-1,-1,-1],"split_conditions":[-5.8260825E-2,3.3333334E-1,1.3222478E-1,9.597938E-1,-1.5825798E-6,2.7027025E-3,2.5764186E0,6.3603245E-2,-2.1945646E-2,-1.7600909E-2,-8.12669E-2,1.5560775E-2,5.232012E1,-8.819639E-4,-7.4257986E-3,5.0187525E-3,1.4452131E-2,-7.031106E-4,4.6985127E-2,5.9260048E-2,8.2692146E-1,1.5260205E-3,-4.9029972E-2,6.2727327E-3,6.1578136E-2],"split_indices":[72,85,60,51,33,7,57,0,0,0,0,80,38,0,0,54,0,0,0,0,62,0,0,0,0],"split_type":[0,0,0,0,0,0,0,0,0,0,0,0,0,0,0,0,0,0,0,0,0,0,0,0,0],"sum_hessian":[2.1188188E2,5.377581E1,1.5810608E2,2.2642897E1,3.1132914E1,1.00707375E2,5.7398697E1,1.1559423E1,1.1083472E1,1.526607E1,1.5866843E1,6.998786E1,3.0719517E1,4.7021294E1,1.0377401E1,5.4619617E1,1.5368242E1,1.4841236E1,1.5878281E1,1.690822E1,3.0113075E1,2.174814E1,3.287148E1,1.9453428E1,1.0659646E1],"tree_param":{"num_deleted":"0","num_feature":"86","num_nodes":"25","size_leaf_vector":"1"}},{"base_weights":[-0E0,-2.6282406E-1,3.405542E-1,-0E0,-1.0600038E0,2.0257843E-1,6.432135E-2,-4.2285466E-1,3.7986636E-1,-7.43354E-2,-3.1282295E-2,5.4005325E-1,-2.7340215E-1,-9.509027E-1,2.6484136E-2,-7.455657E-2,7.6133776E-1,6.0225036E-2,2.7232283E-1,-6.2206592E-2,2.0947553E-1,-2.4488857E-2,-7.446325E-2,2.8846746E-2,-3.789444E-2,1.2924224E-2,6.1343074E-2,-9.007639E-3,5.5151086E-2,-1.5277132E-2,3.398777E-2],"categories":[],"categories_nodes":[],"categories_segments":[],"categories_sizes":[],"default_left":[0,0,0,0,0,0,0,0,0,0,0,0,0,0,0,0,0,0,0,0,0,0,0,0,0,0,0,0,0,0,0],"id":22,"left_children":[1,3,5,7,9,11,-1,13,15,-1,-1,17,19,21,-1,23,25,-1,27,-1,29,-1,-1,-1,-1,-1,-1,-1,-1,-1,-1],"loss_changes":[1.8383762E1,2.4253212E1,1.1253336E1,1.43586445E1,4.1820717E0,1.2907265E1,0E0,2.1860523E1,8.272208E0,0E0,0E0,7.857068E0,1.6032581E1,5.9463634E0,0E0,1.035561E1,5.5639677E0,0E0,1.3366645E1,0E0,5.8423266E0,0E0,0E0,0E0,0E0,0E0,0E0,0E0,0E0,0E0,0E0],"parents":[2147483647,0,0,1,1,2,2,3,3,4,4,5,5,7,7,8,8,11,11,12,12,13,13,15,15,16,16,18,18,20,20],"right_children":[2,4,6,8,10,12,-1,14,16,-1,-1,18,20,22,-1,24,26,-1,28,-1,30,-1,-1,-1,-1,-1,-1,-1,-1,-1,-1],"split_conditions":[5.813949E-1,3.7762213E-1,1.0829294E0,8.734861E-3,-5.4585254E-3,1E0,6.432135E-2,1.5144823E0,-1.2245632E-2,-7.43354E-2,-3.1282295E-2,3.331694E-2,1.4370516E-1,-5.664133E-3,2.6484136E-2,9.420283E-2,2.908494E-1,6.0225036E-2,2.08484E-2,-6.2206592E-2,2.4766098E-3,-2.4488857E-2,-7.446325E-2,2.8846746E-2,-3.789444E-2,1.2924224E-2,6.1343074E-2,-9.007639E-3,5.5151086E-2,-1.5277132E-2,3.398777E-2],"split_indices":[64,64,77,49,19,56,0,58,3,0,0,41,41,3,0,63,71,0,18,0,7,0,0,0,0,0,0,0,0,0,0],"split_type":[0,0,0,0,0,0,0,0,0,0,0,0,0,0,0,0,0,0,0,0,0,0,0,0,0,0,0,0,0,0,0],"sum_hessian":[2.0346027E2,1.1509499E2,8.836527E1,8.737266E1,2.772233E1,7.826809E1,1.0097182E1,4.137642E1,4.5996243E1,1.2646085E1,1.5076246E1,4.5841503E1,3.2426586E1,2.668824E1,1.4688178E1,2.123853E1,2.4757713E1,1.2053917E1,3.3787586E1,1.0316969E1,2.2109617E1,1.5504023E1,1.1184218E1,1.0877367E1,1.0361161E1,1.2752585E1,1.2005127E1,2.230239E1,1.1485198E1,1.0618559E1,1.1491058E1],"tree_param":{"num_deleted":"0","num_feature":"86","num_nodes":"31","size_leaf_vector":"1"}},{"base_weights":[1.8258309E-2,-1.7681526E-1,3.89572E-1,-8.1007935E-2,-5.9069652E-2,1.3616507E-1,9.3901974E-1,-2.168099E-1,3.8050104E-2,4.8222538E-2,-1.490209E-1,6.16859E-2,2.9632304E-2,7.649991E-2,-9.470577E-1,-5.2942455E-1,1.8983545E-2,-2.8709669E-2,2.2990342E-2,-2.3490714E-3,-6.990439E-2,-2.5666456E-3,-5.173498E-2],"categories":[],"categories_nodes":[],"categories_segments":[],"categories_sizes":[],"default_left":[0,0,0,0,0,0,0,0,0,0,0,0,0,0,0,0,0,0,0,0,0,0,0],"id":23,"left_children":[1,3,5,7,-1,9,11,13,-1,-1,15,-1,-1,17,19,21,-1,-1,-1,-1,-1,-1,-1],"loss_changes":[1.5304943E1,1.3080936E1,9.905608E0,1.4672373E1,0E0,1.2305215E1,1.4027805E0,2.3836351E1,0E0,0E0,8.022888E0,0E0,0E0,2.0129145E1,1.2719368E1,5.4190965E0,0E0,0E0,0E0,0E0,0E0,0E0,0E0],"parents":[2147483647,0,0,1,1,2,2,3,3,5,5,6,6,7,7,10,10,13,13,14,14,15,15],"right_children":[2,4,6,8,-1,10,12,14,-1,-1,16,-1,-1,18,20,22,-1,-1,-1,-1,-1,-1,-1],"split_conditions":[4.9584466E-3,1.808288E-3,3.7408522E-3,6.5476114E-1,-5.9069652E-2,1.3623694E-3,7.3752548E-3,-3.3333474E-3,3.8050104E-2,4.8222538E-2,8.1581646E-1,6.16859E-2,2.9632304E-2,-2.4403192E-2,1.1389521E-3,5.8751136E-1,1.8983545E-2,-2.8709669E-2,2.2990342E-2,-2.3490714E-3,-6.990439E-2,-2.5666456E-3,-5.173498E-2],"split_indices":[2,15,31,63,0,16,53,29,0,0,61,0,0,18,5,61,0,0,0,0,0,0,0],"split_type":[0,0,0,0,0,0,0,0,0,0,0,0,0,0,0,0,0,0,0,0,0,0,0],"sum_hessian":[2.0905182E2,1.3721759E2,7.183421E1,1.2634789E2,1.0869708E1,5.0139534E1,2.1694681E1,1.0954191E2,1.6805983E1,1.2321667E1,3.7817867E1,1.0181573E1,1.1513108E1,7.869267E1,3.0849232E1,2.210248E1,1.5715389E1,2.8890285E1,4.9802387E1,1.0740784E1,2.0108448E1,1.2024446E1,1.0078034E1],"tree_param":{"num_deleted":"0","num_feature":"86","num_nodes":"23","size_leaf_vector":"1"}},{"base_weights":[-1.4471833E-2,-8.0348484E-2,3.981141E-2,2.7526889E-2,-9.234814E-1,-6.0333735E-1,1.2410838E-1,-7.0431836E-2,-1.5769249E-2,2.0009608E-3,-5.7460513E-2,-2.6441088E-1,2.7289063E-1,1.5483302E-2,-3.8909096E-2,4.465008E-2,5.235224E-3],"categories":[],"categories_nodes":[],"categories_segments":[],"categories_sizes":[],"default_left":[0,0,0,0,0,0,0,0,0,0,0,0,0,0,0,0,0],"id":24,"left_children":[1,3,-1,5,7,9,11,-1,-1,-1,-1,13,15,-1,-1,-1,-1],"loss_changes":[1.0937133E1,1.7446634E1,0E0,1.0373198E1,5.7998295E0,8.086071E0,8.641287E0,0E0,0E0,0E0,0E0,1.2488796E1,1.1055984E1,0E0,0E0,0E0,0E0],"parents":[2147483647,0,0,1,1,3,3,4,4,5,5,6,6,11,11,12,12],"right_children":[2,4,-1,6,8,10,12,-1,-1,-1,-1,14,16,-1,-1,-1,-1],"split_conditions":[9.148273E-1,3.767311E0,3.981141E-2,4.1666493E-2,8.103998E-3,-6.216018E-1,5.7108505E-3,-7.0431836E-2,-1.5769249E-2,2.0009608E-3,-5.7460513E-2,-6.0939705E-1,6.849315E-3,1.5483302E-2,-3.8909096E-2,4.465008E-2,5.235224E-3],"split_indices":[77,40,0,12,0,59,9,0,0,0,0,59,9,0,0,0,0],"split_type":[0,0,0,0,0,0,0,0,0,0,0,0,0,0,0,0,0],"sum_hessian":[2.0393399E2,1.8955516E2,1.43788185E1,1.688059E2,2.074927E1,2.1577925E1,1.4722797E2,1.0717584E1,1.0031686E1,1.0245842E1,1.1332084E1,4.0367058E1,1.06860916E2,1.9160334E1,2.1206722E1,2.1752851E1,8.510806E1],"tree_param":{"num_deleted":"0","num_feature":"86","num_nodes":"17","size_leaf_vector":"1"}},{"base_weights":[6.946012E-2,-2.5762012E-3,6.250728E-1,5.8817144E-2,-4.632514E-2,4.8964158E-2,6.0480554E-3,1.40837E-1,-3.3542443E-2,3.9174736E-2,6.4167745E-2,-4.9657155E-2,8.082406E-3],"categories":[],"categories_nodes":[],"categories_segments":[],"categories_sizes":[],"default_left":[0,0,0,0,0,0,0,0,0,0,0,0,0],"id":25,"left_children":[1,3,5,7,-1,-1,-1,9,-1,-1,11,-1,-1],"loss_changes":[8.56233E0,1.0850531E1,4.152211E0,1.0686764E1,0E0,0E0,0E0,7.790391E0,0E0,0E0,1.5015349E1,0E0,0E0],"parents":[2147483647,0,0,1,1,2,2,3,3,7,7,10,10],"right_children":[2,4,6,8,-1,-1,-1,10,-1,-1,12,-1,-1],"split_conditions":[7.004272E-3,6.3001146E-3,1.8140629E-3,3.8190079E0,-4.632514E-2,4.8964158E-2,6.0480554E-3,-3.3461056E-3,-3.3542443E-2,3.9174736E-2,-3.6782715E-2,-4.9657155E-2,8.082406E-3],"split_indices":[27,7,32,40,0,0,0,24,0,0,44,0,0],"split_type":[0,0,0,0,0,0,0,0,0,0,0,0,0],"sum_hessian":[2.1133281E2,1.8779959E2,2.3533218E1,1.7687468E2,1.0924915E1,1.3151473E1,1.0381745E1,1.5985036E2,1.7024328E1,1.5915964E1,1.4393439E2,1.1287854E1,1.3264653E2],"tree_param":{"num_deleted":"0","num_feature":"86","num_nodes":"13","size_leaf_vector":"1"}},{"base_weights":[6.226898E-2,-2.2986425E-1,2.3716946E-1,3.388E-1,-6.206004E-1,-5.4229146E-1,4.5606053E-1,5.2453395E-2,-8.216391E-3,-7.282638E-2,-3.2824868E-1,-1.7866143E-4,-6.303411E-2,-2.3061415E-2,6.19984E-1,2.3013085E-2,-6.6365695E-1,8.859548E-1,2.7082872E-1,-6.8966635E-2,1.647617E-3,2.5340933E-2,5.886475E-2,4.134534E-2,-2.5132669E-3],"categories":[],"categories_nodes":[],"categories_segments":[],"categories_sizes":[],"default_left":[0,0,0,0,0,0,0,0,0,0,0,0,0,0,0,0,0,0,0,0,0,0,0,0,0],"id":26,"left_children":[1,3,5,7,9,11,13,-1,-1,-1,15,-1,-1,-1,17,-1,19,21,23,-1,-1,-1,-1,-1,-1],"loss_changes":[1.0499169E1,1.731251E1,2.2173773E1,1.1638379E1,1.0586023E1,1.0916062E1,1.5491539E1,0E0,0E0,0E0,9.704826E0,0E0,0E0,0E0,7.6514244E0,0E0,1.2832417E1,4.5742493E0,7.0621033E0,0E0,0E0,0E0,0E0,0E0,0E0],"parents":[2147483647,0,0,1,1,2,2,3,3,4,4,5,5,6,6,10,10,14,14,16,16,17,17,18,18],"right_children":[2,4,6,8,10,12,14,-1,-1,-1,16,-1,-1,-1,18,-1,20,22,24,-1,-1,-1,-1,-1,-1],"split_conditions":[5E-1,-2.5270507E-1,-5.8260825E-2,-2.5034415E-2,4.516124E-1,-1.4543368E-2,-7.519155E-1,5.2453395E-2,-8.216391E-3,-7.282638E-2,9.1757154E-4,-1.7866143E-4,-6.303411E-2,-2.3061415E-2,3.203237E-1,2.3013085E-2,9.6889514E-1,4.1463313E-1,1.6393429E-1,-6.8966635E-2,1.647617E-3,2.5340933E-2,5.886475E-2,4.134534E-2,-2.5132669E-3],"split_indices":[85,77,72,66,62,68,60,0,0,0,1,0,0,0,59,0,57,11,70,0,0,0,0,0,0],"split_type":[0,0,0,0,0,0,0,0,0,0,0,0,0,0,0,0,0,0,0,0,0,0,0,0,0],"sum_hessian":[2.0340506E2,7.58418E1,1.27563255E2,3.0838081E1,4.5003716E1,2.7544449E1,1.0001881E2,1.2419327E1,1.8418755E1,1.0540602E1,3.4463116E1,1.6394474E1,1.1149975E1,1.4796468E1,8.5222336E1,1.0084681E1,2.4378435E1,4.7338306E1,3.7884033E1,1.1612047E1,1.2766388E1,2.1909365E1,2.5428942E1,1.3405039E1,2.4478994E1],"tree_param":{"num_deleted":"0","num_feature":"86","num_nodes":"25","size_leaf_vector":"1"}},{"base_weights":[1.2482431E-1,3.9815556E-2,5.230955E-2,-3.7961002E-2,1.4793402E-1,3.5568062E-2,6.879454E-1,-3.3679503E-1,2.5987896E-1,5.242988E-2,8.205768E-4,-4.4715002E-2,1.1360368E-4,3.8993347E-2,6.0183665E-4],"categories":[],"categories_nodes":[],"categories_segments":[],"categories_sizes":[],"default_left":[0,0,0,0,0,0,0,0,0,0,0,0,0,0,0],"id":27,"left_children":[1,-1,3,-1,5,7,9,11,13,-1,-1,-1,-1,-1,-1],"loss_changes":[1.0455673E1,0E0,1.5365869E1,0E0,1.0673272E1,1.2452361E1,7.230089E0,1.066851E1,1.1919268E1,0E0,0E0,0E0,0E0,0E0,0E0],"parents":[2147483647,0,0,2,2,4,4,5,5,6,6,7,7,8,8],"right_children":[2,-1,4,-1,6,8,10,12,14,-1,-1,-1,-1,-1,-1],"split_conditions":[-1.5315512E0,3.9815556E-2,-1.2560368E-1,-3.7961002E-2,1E0,2.826173E-4,2.9347028E-4,7.714542E-1,1.6875301E-3,5.242988E-2,8.205768E-4,-4.4715002E-2,1.1360368E-4,3.8993347E-2,6.0183665E-4],"split_indices":[76,0,72,0,85,15,3,52,15,0,0,0,0,0,0],"split_type":[0,0,0,0,0,0,0,0,0,0,0,0,0,0,0],"sum_hessian":[2.1632603E2,1.9977154E1,1.9634888E2,1.985568E1,1.764932E2,1.4712944E2,2.936375E1,5.495506E1,9.2174385E1,1.864169E1,1.0722063E1,2.0275244E1,3.4679817E1,2.8929157E1,6.3245228E1],"tree_param":{"num_deleted":"0","num_feature":"86","num_nodes":"15","size_leaf_vector":"1"}},{"base_weights":[1.6859578E-2,-5.2545764E-2,4.1855462E-2,-1.2042205E-1,3.0653676E-2,6.6664503E-3,-6.3544846E-1,3.155346E-1,-3.3864054E-1,4.3939464E-4,-6.5813795E-2,-2.6178002E-2,2.4676958E-2,-4.63423E-2,4.0336098E-3],"categories":[],"categories_nodes":[],"categories_segments":[],"categories_sizes":[],"default_left":[0,0,0,0,0,0,0,0,0,0,0,0,0,0,0],"id":28,"left_children":[1,3,-1,5,-1,7,9,11,13,-1,-1,-1,-1,-1,-1],"loss_changes":[1.1569951E1,8.438068E0,0E0,1.1191818E1,0E0,1.4732925E1,1.496981E1,1.1169173E1,1.6212826E1,0E0,0E0,0E0,0E0,0E0,0E0],"parents":[2147483647,0,0,1,1,3,3,5,5,6,6,7,7,8,8],"right_children":[2,4,-1,6,-1,8,10,12,14,-1,-1,-1,-1,-1,-1],"split_conditions":[5.0573234E-2,8.7401503E-1,4.1855462E-2,6.552701E-2,3.0653676E-2,-9.3546655E-4,-4.1104518E-4,7.035172E-2,3.584899E-1,4.3939464E-4,-6.5813795E-2,-2.6178002E-2,2.4676958E-2,-4.63423E-2,4.0336098E-3],"split_indices":[45,63,0,72,0,22,32,64,62,0,0,0,0,0,0],"split_type":[0,0,0,0,0,0,0,0,0,0,0,0,0,0,0],"sum_hessian":[2.0008147E2,1.8522289E2,1.485859E1,1.6896233E2,1.6260553E1,1.3615697E2,3.2805355E1,7.206897E1,6.4088E1,1.7287338E1,1.5518018E1,1.21748705E1,5.9894096E1,2.6267895E1,3.7820107E1],"tree_param":{"num_deleted":"0","num_feature":"86","num_nodes":"15","size_leaf_vector":"1"}},{"base_weights":[3.1291373E-2,-3.792263E-2,4.1568745E-2,5.0355446E-1,-1.2830366E-1,-1.1673853E-3,5.0041106E-2,-5.502502E-1,6.47454E-2,7.834956E-3,-9.712681E-1,5.554062E-1,-1.5869322E-1,-7.240575E-2,-2.221161E-2,4.293249E-2,-8.824608E-3,-5.342691E-2,1.998222E-3],"categories":[],"categories_nodes":[],"categories_segments":[],"categories_sizes":[],"default_left":[0,0,0,0,0,0,0,0,0,0,0,0,0,0,0,0,0,0,0],"id":29,"left_children":[1,3,-1,5,7,-1,-1,9,11,-1,13,15,17,-1,-1,-1,-1,-1,-1],"loss_changes":[1.1412561E1,9.260857E0,0E0,7.204158E0,1.333264E1,0E0,0E0,1.5509236E1,1.2441991E1,0E0,7.3085384E0,8.100403E0,1.4210413E1,0E0,0E0,0E0,0E0,0E0,0E0],"parents":[2147483647,0,0,1,1,3,3,4,4,7,7,8,8,10,10,11,11,12,12],"right_children":[2,4,-1,6,8,-1,-1,10,12,-1,14,16,18,-1,-1,-1,-1,-1,-1],"split_conditions":[9.1471696E-1,-3.0327672E-3,4.1568745E-2,-7.831458E-3,-2.955998E-4,-1.1673853E-3,5.0041106E-2,-1.4843311E-3,4.946387E-4,7.834956E-3,-4.018653E-4,5.527755E-4,-3.1034022E-3,-7.240575E-2,-2.221161E-2,4.293249E-2,-8.824608E-3,-5.342691E-2,1.998222E-3],"split_indices":[61,36,0,20,36,0,0,32,36,0,32,21,1,0,0,0,0,0,0],"split_type":[0,0,0,0,0,0,0,0,0,0,0,0,0,0,0,0,0,0,0],"sum_hessian":[2.030864E2,1.8767825E2,1.5408144E1,2.6033346E1,1.616449E2,1.3005128E1,1.3028217E1,5.0322636E1,1.11322266E2,1.8928787E1,3.1393847E1,3.4507416E1,7.681485E1,1.5464562E1,1.5929284E1,2.4372665E1,1.0134751E1,1.3071668E1,6.3743183E1],"tree_param":{"num_deleted":"0","num_feature":"86","num_nodes":"19","size_leaf_vector":"1"}},{"base_weights":[-6.097969E-3,-1.8804967E-1,3.1425056E-1,3.239852E-2,-3.299387E-1,-2.61311E-2,4.5415604E-1,-7.0217425E-1,-3.0677367E-2,6.641963E-1,-3.744537E-3,-3.9039552E-1,-6.46272E-2,-2.2122163E-1,4.1554913E-2,1.0342855E0,2.776089E-1,-4.6887033E-2,-3.8487313E-4,1.688551E-2,-3.204235E-2,3.1054601E-2,6.633059E-2,-1.435279E-2,3.770817E-2],"categories":[],"categories_nodes":[],"categories_segments":[],"categories_sizes":[],"default_left":[0,0,0,0,0,0,0,0,0,0,0,0,0,0,0,0,0,0,0,0,0,0,0,0,0],"id":30,"left_children":[1,3,5,-1,7,-1,9,11,13,15,-1,17,-1,19,-1,21,23,-1,-1,-1,-1,-1,-1,-1,-1],"loss_changes":[1.1995631E1,1.5788798E1,8.945539E0,0E0,1.251992E1,0E0,7.266061E0,8.580673E0,1.062702E1,6.2119904E0,0E0,7.1128893E0,0E0,1.27410345E1,0E0,1.7808208E0,6.765861E0,0E0,0E0,0E0,0E0,0E0,0E0,0E0,0E0],"parents":[2147483647,0,0,1,1,2,2,4,4,6,6,7,7,8,8,9,9,11,11,13,13,15,15,16,16],"right_children":[2,4,6,-1,8,-1,10,12,14,16,-1,18,-1,20,-1,22,24,-1,-1,-1,-1,-1,-1,-1,-1],"split_conditions":[2.708209E-2,-3.3461056E-3,-2.1134182E-3,3.239852E-2,-2.955998E-4,-2.61311E-2,4.1141505E-3,4.667765E-3,8.136924E-3,6.623368E-1,-3.744537E-3,6.9154215E-1,-6.46272E-2,3.6881175E-3,4.1554913E-2,4.807683E-1,1.1321822E-2,-4.6887033E-2,-3.8487313E-4,1.688551E-2,-3.204235E-2,3.1054601E-2,6.633059E-2,-1.435279E-2,3.770817E-2],"split_indices":[67,24,23,0,36,0,22,5,5,62,0,52,0,53,0,62,9,0,0,0,0,0,0,0,0],"split_type":[0,0,0,0,0,0,0,0,0,0,0,0,0,0,0,0,0,0,0,0,0,0,0,0,0],"sum_hessian":[2.0400214E2,1.3056749E2,7.343464E1,1.832483E1,1.1224267E2,1.0023968E1,6.3410667E1,4.9273464E1,6.29692E1,4.5342506E1,1.8068161E1,3.3442753E1,1.5830713E1,5.227106E1,1.069814E1,2.2177435E1,2.3165073E1,1.30568495E1,2.0385902E1,2.2396421E1,2.9874638E1,1.062545E1,1.1551985E1,1.0688354E1,1.247672E1],"tree_param":{"num_deleted":"0","num_feature":"86","num_nodes":"25","size_leaf_vector":"1"}},{"base_weights":[1.1699056E-1,5.6814265E-2,4.072204E-2,-5.0487566E-1,1.5249303E-1,1.7856177E-2,-6.590252E-2,3.3828637E-1,-3.0350706E-1,7.02589E-1,1.5265362E-1,1.2556511E-2,-4.0116046E-2,1.1419783E-2,5.0355442E-2,-2.2725688E-2,1.9519927E-2,-2.2113986E-2,3.2711994E-2],"categories":[],"categories_nodes":[],"categories_segments":[],"categories_sizes":[],"default_left":[0,0,0,0,0,0,0,0,0,0,0,0,0,0,0,0,0,0,0],"id":31,"left_children":[1,3,-1,5,7,-1,-1,9,11,13,15,17,-1,-1,-1,-1,-1,-1,-1],"loss_changes":[8.85507E0,1.0702016E1,0E0,2.0860094E1,1.4543577E1,0E0,0E0,8.0378065E0,7.925132E0,5.512451E0,1.2019851E1,9.441997E0,0E0,0E0,0E0,0E0,0E0,0E0,0E0],"parents":[2147483647,0,0,1,1,3,3,4,4,7,7,8,8,9,9,10,10,11,11],"right_children":[2,4,-1,6,8,-1,-1,10,12,14,16,18,-1,-1,-1,-1,-1,-1,-1],"split_conditions":[9.1471696E-1,-7.784939E-1,4.072204E-2,1.5265772E-1,1.1934937E0,1.7856177E-2,-6.590252E-2,-4.1116006E-3,-4.7194856E-4,-7.831458E-3,-1.4385339E-3,-6.5390775E-3,-4.0116046E-2,1.1419783E-2,5.0355442E-2,-2.2725688E-2,1.9519927E-2,-2.2113986E-2,3.2711994E-2],"split_indices":[61,60,0,58,59,0,0,20,20,20,15,29,0,0,0,0,0,0,0],"split_type":[0,0,0,0,0,0,0,0,0,0,0,0,0,0,0,0,0,0,0],"sum_hessian":[2.1316428E2,1.9736075E2,1.5803527E1,2.7950886E1,1.6940987E2,1.3780661E1,1.4170224E1,1.2070648E2,4.870338E1,3.962306E1,8.108342E1,3.0286982E1,1.8416399E1,1.6307573E1,2.3315483E1,2.2440676E1,5.8642746E1,1.7814598E1,1.24723835E1],"tree_param":{"num_deleted":"0","num_feature":"86","num_nodes":"19","size_leaf_vector":"1"}},{"base_weights":[3.8348187E-2,-1.0465657E-2,4.1408136E-2,-8.164675E-2,5.3476506E-1,2.4624346E-2,-7.153524E-1,4.1896265E-2,8.964605E-3,1.705497E-1,-7.12602E-1,-6.6185325E-2,-9.289467E-3,2.2046524E-3,3.752685E-2,-6.865018E-2,1.4506828E-3],"categories":[],"categories_nodes":[],"categories_segments":[],"categories_sizes":[],"default_left":[0,0,0,0,0,0,0,0,0,0,0,0,0,0,0,0,0],"id":32,"left_children":[1,3,-1,5,7,9,11,-1,-1,13,15,-1,-1,-1,-1,-1,-1],"loss_changes":[7.871141E0,7.4085627E0,0E0,1.1529636E1,2.1209016E0,1.5811188E1,7.5188923E0,0E0,0E0,8.914871E0,1.2056367E1,0E0,0E0,0E0,0E0,0E0,0E0],"parents":[2147483647,0,0,1,1,3,3,4,4,5,5,6,6,9,9,10,10],"right_children":[2,4,-1,6,8,10,12,-1,-1,14,16,-1,-1,-1,-1,-1,-1],"split_conditions":[8.177332E-3,8.756472E-1,4.1408136E-2,1.2042526E-2,3.939543E-4,2.803933E0,4.2075734E-3,4.1896265E-2,8.964605E-3,1.0196023E-3,2.2388856E-6,-6.6185325E-2,-9.289467E-3,2.2046524E-3,3.752685E-2,-6.865018E-2,1.4506828E-3],"split_indices":[21,65,0,18,32,40,5,0,0,23,33,0,0,0,0,0,0],"split_type":[0,0,0,0,0,0,0,0,0,0,0,0,0,0,0,0,0],"sum_hessian":[2.0081374E2,1.8993509E2,1.0878646E1,1.6891635E2,2.1018745E1,1.4534555E2,2.3570797E1,1.0459757E1,1.0558988E1,1.22084625E2,2.3260923E1,1.018359E1,1.3387208E1,1.0125589E2,2.0828735E1,1.1925158E1,1.1335766E1],"tree_param":{"num_deleted":"0","num_feature":"86","num_nodes":"17","size_leaf_vector":"1"}},{"base_weights":[3.377441E-2,1.2439376E-1,-5.4009116E-1,2.663407E-1,-3.0382645E-1,-5.7584483E-2,1.4679712E-2,-5.381389E-3,5.9167486E-1,-6.0735244E-1,1.6275546E-2,3.3155773E-2,-1.8964086E-1,2.1133228E-1,9.612499E-1,-5.4053526E-2,8.825952E-3,-2.875547E-2,1.002501E-2,-1.1236344E-2,3.745435E-2,6.3502066E-2,2.973775E-2],"categories":[],"categories_nodes":[],"categories_segments":[],"categories_sizes":[],"default_left":[0,0,0,0,0,0,0,0,0,0,0,0,0,0,0,0,0,0,0,0,0,0,0],"id":33,"left_children":[1,3,5,7,9,-1,-1,11,13,15,-1,-1,17,19,21,-1,-1,-1,-1,-1,-1,-1,-1],"loss_changes":[1.0688502E1,1.0899436E1,1.47003145E1,1.1945158E1,8.748585E0,0E0,0E0,9.202358E0,8.303873E0,1.1627733E1,0E0,0E0,9.019854E0,7.642904E0,2.5327663E0,0E0,0E0,0E0,0E0,0E0,0E0,0E0,0E0],"parents":[2147483647,0,0,1,1,2,2,3,3,4,4,7,7,8,8,9,9,12,12,13,13,14,14],"right_children":[2,4,6,8,10,-1,-1,12,14,16,-1,-1,18,20,22,-1,-1,-1,-1,-1,-1,-1,-1],"split_conditions":[3.767311E0,7.533311E-3,1.1346462E-2,8.901744E-3,5.5737697E-2,-5.7584483E-2,1.4679712E-2,3.4964073E-3,-4.0984392E-4,6.176197E-1,1.6275546E-2,3.3155773E-2,-4.2199634E-4,9.275335E-4,9.5803564E-4,-5.4053526E-2,8.825952E-3,-2.875547E-2,1.002501E-2,-1.1236344E-2,3.745435E-2,6.3502066E-2,2.973775E-2],"split_indices":[40,53,0,49,47,0,0,54,36,40,0,0,28,23,36,0,0,0,0,0,0,0,0],"split_type":[0,0,0,0,0,0,0,0,0,0,0,0,0,0,0,0,0,0,0,0,0,0,0],"sum_hessian":[2.0404242E2,1.7704298E2,2.699944E1,1.3342624E2,4.3616737E1,1.542329E1,1.1576148E1,7.307195E1,6.035429E1,2.9555912E1,1.4060825E1,1.511023E1,5.7961723E1,3.0651827E1,2.9702463E1,1.8265768E1,1.1290145E1,2.9045902E1,2.8915821E1,1.7145157E1,1.3506669E1,1.463417E1,1.5068294E1],"tree_param":{"num_deleted":"0","num_feature":"86","num_nodes":"23","size_leaf_vector":"1"}},{"base_weights":[1.1662461E-1,-4.460846E-1,2.2011575E-1,2.0794999E-2,-8.6924654E-1,-9.975494E-2,4.0513107E-1,-1.0177163E-2,-7.379615E-2,4.7613263E-1,-5.725464E-1,-3.871288E-1,6.0815287E-1,5.6510866E-2,-2.0809926E-3,-7.289665E-2,7.945258E-3,4.015762E-3,-3.8479727E-2,2.668635E-1,8.134413E-1,3.6538262E-2,-1.1950078E-2,5.740581E-2,2.899905E-2],"categories":[],"categories_nodes":[],"categories_segments":[],"categories_sizes":[],"default_left":[0,0,0,0,0,0,0,0,0,0,0,0,0,0,0,0,0,0,0,0,0,0,0,0,0],"id":34,"left_children":[1,3,5,-1,7,9,11,-1,-1,13,15,17,19,-1,-1,-1,-1,-1,-1,21,23,-1,-1,-1,-1],"loss_changes":[1.1956976E1,1.2033324E1,1.0318073E1,0E0,8.328049E0,1.7722734E1,1.7965754E1,0E0,0E0,1.00884E1,2.349795E1,4.236996E0,5.849251E0,0E0,0E0,0E0,0E0,0E0,0E0,8.383453E0,3.4083023E0,0E0,0E0,0E0,0E0],"parents":[2147483647,0,0,1,1,2,2,4,4,5,5,6,6,9,9,10,10,11,11,12,12,19,19,20,20],"right_children":[2,4,6,-1,8,10,12,-1,-1,14,16,18,20,-1,-1,-1,-1,-1,-1,22,24,-1,-1,-1,-1],"split_conditions":[-7.835425E-1,-8.192211E-2,5E-1,2.0794999E-2,2.3207958E-1,-1.9119412E-1,-5.9182458E-2,-1.0177163E-2,-7.379615E-2,4.234537E-4,5.1516886E-3,7.7923737E-3,-1.483824E-3,5.6510866E-2,-2.0809926E-3,-7.289665E-2,7.945258E-3,4.015762E-3,-3.8479727E-2,3.9130265E-1,-4.2352662E-3,3.6538262E-2,-1.1950078E-2,5.740581E-2,2.899905E-2],"split_indices":[60,72,85,0,57,77,72,0,0,22,78,45,23,0,0,0,0,0,0,12,20,0,0,0,0],"split_type":[0,0,0,0,0,0,0,0,0,0,0,0,0,0,0,0,0,0,0,0,0,0,0,0,0],"sum_hessian":[2.030233E2,3.0874376E1,1.7214893E2,1.0093887E1,2.0780489E1,6.3054726E1,1.090942E2,1.06236E1,1.0156889E1,2.8329351E1,3.4725376E1,2.1968048E1,8.712615E1,1.2079432E1,1.624992E1,1.5322159E1,1.9403217E1,1.0123634E1,1.1844414E1,3.3770382E1,5.335577E1,1.7487047E1,1.6283337E1,2.0139215E1,3.3216557E1],"tree_param":{"num_deleted":"0","num_feature":"86","num_nodes":"25","size_leaf_vector":"1"}},{"base_weights":[7.76464E-2,3.92468E-2,2.0489618E-2,-1.812209E-1,2.6720437E-1,-1.9191004E-2,-6.727273E-2,-9.394427E-2,5.571895E-1,1.3127814E-1,-5.61251E-2,2.2794987E-1,-3.1079097E-2,-3.55759E-3,7.9929084E-1,-8.878946E-3,3.430286E-2,3.8240112E-2,-2.491383E-2,4.9685784E-2,1.7870054E-2],"categories":[],"categories_nodes":[],"categories_segments":[],"categories_sizes":[],"default_left":[0,0,0,0,0,0,0,0,0,0,0,0,0,0,0,0,0,0,0,0,0],"id":35,"left_children":[1,-1,3,5,7,9,-1,11,13,15,-1,17,-1,-1,19,-1,-1,-1,-1,-1,-1],"loss_changes":[8.435615E0,0E0,9.832521E0,2.0295158E1,9.418048E0,1.623159E1,0E0,7.031307E0,7.683159E0,1.4831001E1,0E0,1.041365E1,0E0,0E0,2.6060886E0,0E0,0E0,0E0,0E0,0E0,0E0],"parents":[2147483647,0,0,2,2,3,3,4,4,5,5,7,7,8,8,9,9,11,11,14,14],"right_children":[2,-1,4,6,8,10,-1,12,14,16,-1,18,-1,-1,20,-1,-1,-1,-1,-1,-1],"split_conditions":[-3.585593E-3,3.92468E-2,5.813949E-1,3.0155015E0,5E-1,8.217365E-3,-6.727273E-2,1.0050253E0,-3.205125E-2,9.3614E-3,-5.61251E-2,6.623368E-1,-3.1079097E-2,-3.55759E-3,8.50928E-3,-8.878946E-3,3.430286E-2,3.8240112E-2,-2.491383E-2,4.9685784E-2,1.7870054E-2],"split_indices":[24,0,64,40,85,54,0,52,72,49,0,62,0,0,54,0,0,0,0,0,0],"split_type":[0,0,0,0,0,0,0,0,0,0,0,0,0,0,0,0,0,0,0,0,0],"sum_hessian":[2.1005617E2,1.4622811E1,1.9543335E2,1.0744663E2,8.798672E1,9.528755E1,1.2159079E1,3.9332752E1,4.865397E1,8.4547386E1,1.0740165E1,2.4664324E1,1.4668426E1,1.3613922E1,3.5040047E1,5.4632175E1,2.9915215E1,1.4229761E1,1.0434564E1,2.3309246E1,1.1730802E1],"tree_param":{"num_deleted":"0","num_feature":"86","num_nodes":"21","size_leaf_vector":"1"}},{"base_weights":[5.241389E-2,-3.530298E-2,6.366082E-1,-4.3155618E-2,1.954979E-2,1.1223371E-2,5.8513936E-2,2.9237008E-1,-1.4711942E-1,-1.05201066E-1,6.6268426E-1,-3.570303E-1,3.6637098E-1,3.2468077E-2,-2.5233565E-2,-6.2915534E-3,5.2804243E-2,-4.4911973E-2,-2.3761592E-3,4.179858E-2,2.596206E-3],"categories":[],"categories_nodes":[],"categories_segments":[],"categories_sizes":[],"default_left":[0,0,0,0,0,0,0,0,0,0,0,0,0,0,0,0,0,0,0,0,0],"id":36,"left_children":[1,3,5,-1,7,-1,-1,9,11,13,15,17,19,-1,-1,-1,-1,-1,-1,-1,-1],"loss_changes":[1.035875E1,8.05456E0,5.400237E0,0E0,7.566288E0,0E0,0E0,9.428177E0,1.1226257E1,9.719098E0,1.0456987E1,1.2211339E1,4.331359E0,0E0,0E0,0E0,0E0,0E0,0E0,0E0,0E0],"parents":[2147483647,0,0,1,1,2,2,4,4,7,7,8,8,9,9,10,10,11,11,12,12],"right_children":[2,4,6,-1,8,-1,-1,10,12,14,16,18,20,-1,-1,-1,-1,-1,-1,-1,-1],"split_conditions":[5.756923E-2,1.2338749E-1,2.8200808E-3,-4.3155618E-2,9.580603E-1,1.1223371E-2,5.8513936E-2,7.1948826E-1,1.4328326E0,-1.2540924E-3,5.6131002E-3,3.9999732E-1,2.642586E-1,3.2468077E-2,-2.5233565E-2,-6.2915534E-3,5.2804243E-2,-4.4911973E-2,-2.3761592E-3,4.179858E-2,2.596206E-3],"split_indices":[47,58,0,0,51,0,0,52,52,24,55,11,61,0,0,0,0,0,0,0,0],"split_type":[0,0,0,0,0,0,0,0,0,0,0,0,0,0,0,0,0,0,0,0,0],"sum_hessian":[1.9953485E2,1.7415399E2,2.5380857E1,1.0020334E1,1.6413367E2,1.5228358E1,1.0152498E1,6.2186527E1,1.0194713E2,3.0204597E1,3.1981932E1,7.271944E1,2.9227697E1,1.0152177E1,2.005242E1,1.0786961E1,2.1194971E1,2.5647154E1,4.707228E1,1.0929227E1,1.8298471E1],"tree_param":{"num_deleted":"0","num_feature":"86","num_nodes":"21","size_leaf_vector":"1"}},{"base_weights":[4.7211137E-2,-6.8228026E-3,3.9209526E-2,5.6074426E-2,-4.323047E-2,1.2472792E-1,-3.5434965E-2,2.8199255E-3,6.4129233E-1,1.1066135E-2,-2.1213278E-2,5.4178715E-2,1.5860993E-2],"categories":[],"categories_nodes":[],"categories_segments":[],"categories_sizes":[],"default_left":[0,0,0,0,0,0,0,0,0,0,0,0,0],"id":37,"left_children":[1,3,-1,5,-1,7,-1,9,11,-1,-1,-1,-1],"loss_changes":[8.08255E0,1.0273671E1,0E0,9.271257E0,0E0,1.0165743E1,0E0,1.2449461E1,3.939764E0,0E0,0E0,0E0,0E0],"parents":[2147483647,0,0,1,1,3,3,5,5,7,7,8,8],"right_children":[2,4,-1,6,-1,8,-1,10,12,-1,-1,-1,-1],"split_conditions":[8.177332E-3,4.1141505E-3,3.9209526E-2,1.1541348E0,-4.323047E-2,5.787038E1,-3.5434965E-2,-2.1173604E-2,5.759396E-3,1.1066135E-2,-2.1213278E-2,5.4178715E-2,1.5860993E-2],"split_indices":[21,22,0,76,0,39,0,44,55,0,0,0,0],"split_type":[0,0,0,0,0,0,0,0,0,0,0,0,0],"sum_hessian":[1.9988098E2,1.870238E2,1.2857179E1,1.750093E2,1.2014511E1,1.6148087E2,1.352842E1,1.316183E2,2.9862568E1,8.7545006E1,4.407329E1,1.1506599E1,1.8355968E1],"tree_param":{"num_deleted":"0","num_feature":"86","num_nodes":"13","size_leaf_vector":"1"}},{"base_weights":[2.7642164E-2,9.0376444E-2,-4.5524962E-2,-8.683515E-3,7.5001407E-1,-6.2819816E-2,9.073776E-2,6.4324826E-2,8.372961E-4,1.9595526E-1,-3.7175342E-2,5.455471E-2,5.314798E-3],"categories":[],"categories_nodes":[],"categories_segments":[],"categories_sizes":[],"default_left":[0,0,0,0,0,0,0,0,0,0,0,0,0],"id":38,"left_children":[1,3,-1,5,7,-1,9,-1,-1,11,-1,-1,-1],"loss_changes":[1.1633402E1,1.2253017E1,0E0,2.0427881E1,9.472445E0,0E0,1.3403143E1,0E0,0E0,1.0644918E1,0E0,0E0,0E0],"parents":[2147483647,0,0,1,1,3,3,4,4,6,6,9,9],"right_children":[2,4,-1,6,8,-1,10,-1,-1,12,-1,-1,-1],"split_conditions":[1.6348815E0,8.088795E-1,-4.5524962E-2,7.53968E-2,4.0506202E-1,-6.2819816E-2,1.314102E0,6.4324826E-2,8.372961E-4,9.230755E-2,-3.7175342E-2,5.455471E-2,5.314798E-3],"split_indices":[60,60,0,65,71,0,57,0,0,70,0,0,0],"split_type":[0,0,0,0,0,0,0,0,0,0,0,0,0],"sum_hessian":[1.9666202E2,1.852823E2,1.1379721E1,1.6181696E2,2.3465347E1,1.1157815E1,1.5065913E2,1.3036548E1,1.0428801E1,1.3457153E2,1.6087597E1,1.1133403E1,1.2343813E2],"tree_param":{"num_deleted":"0","num_feature":"86","num_nodes":"13","size_leaf_vector":"1"}},{"base_weights":[9.4408385E-2,-2.8583097E-1,2.075498E-1,2.6648402E-1,-5.0783824E-2,-3.760886E-1,3.6930007E-1,-1.1365968E-2,3.3983245E-2,-6.8752587E-1,1.1697138E-2,4.395817E-2,5.374129E-1,-1.5760876E-2,-4.873835E-2,3.2492217E-2,-2.6492214E-1,2.3973528E-1,8.358347E-1,-5.2423086E-2,1.5617979E-2,3.4120318E-2,-1.17426645E-2,5.5114836E-2,2.2760784E-2],"categories":[],"categories_nodes":[],"categories_segments":[],"categories_sizes":[],"default_left":[0,0,0,0,0,0,0,0,0,0,0,0,0,0,0,0,0,0,0,0,0,0,0,0,0],"id":39,"left_children":[1,3,5,7,-1,9,11,-1,-1,13,-1,15,17,-1,-1,-1,19,21,23,-1,-1,-1,-1,-1,-1],"loss_changes":[8.202926E0,1.7948536E1,1.3997419E1,5.4171133E0,0E0,6.327337E0,6.2402906E0,0E0,0E0,1.8835211E0,0E0,7.8221297E0,6.4361134E0,0E0,0E0,0E0,1.2857757E1,8.519462E0,3.129675E0,0E0,0E0,0E0,0E0,0E0,0E0],"parents":[2147483647,0,0,1,1,2,2,3,3,5,5,6,6,9,9,11,11,12,12,16,16,17,17,18,18],"right_children":[2,4,6,8,-1,10,12,-1,-1,14,-1,16,18,-1,-1,-1,20,22,24,-1,-1,-1,-1,-1,-1],"split_conditions":[-6.2424257E-2,9.935554E-1,3.3333334E-1,3.2378678E-4,-5.0783824E-2,6.8571234E-1,-3.2352185E-1,-1.1365968E-2,3.3983245E-2,5.814537E1,1.1697138E-2,-4.3668123E-3,-2.3948682E-4,-1.5760876E-2,-4.873835E-2,3.2492217E-2,9.8448527E-1,-4.1116006E-3,6.8404893E-3,-5.2423086E-2,1.5617979E-2,3.4120318E-2,-1.17426645E-2,5.5114836E-2,2.2760784E-2],"split_indices":[72,51,85,32,0,11,59,0,0,39,0,22,23,0,0,0,51,20,55,0,0,0,0,0,0],"split_type":[0,0,0,0,0,0,0,0,0,0,0,0,0,0,0,0,0,0,0,0,0,0,0,0,0],"sum_hessian":[1.8847641E2,4.2668457E1,1.4580795E2,2.4571606E1,1.8096851E1,3.1218798E1,1.1458916E2,1.1288377E1,1.3283229E1,2.0691916E1,1.0526883E1,3.9671276E1,7.491788E1,1.0076617E1,1.0615298E1,1.3132E1,2.6539278E1,3.8576256E1,3.6341625E1,1.0985617E1,1.5553661E1,1.9841745E1,1.8734509E1,2.0106653E1,1.623497E1],"tree_param":{"num_deleted":"0","num_feature":"86","num_nodes":"25","size_leaf_vector":"1"}},{"base_weights":[-1.3806844E-2,-3.687375E-1,1.1818933E-1,1.2463682E-2,-6.8933415E-1,2.2683729E-1,-3.5148317E-1,-1.180468E0,5.8932398E-3,-2.0939212E-1,3.846167E-1,-4.9420062E-2,1.6573062E-2,-4.1577425E-2,-7.047889E-2,1.1752568E-2,-4.826542E-2,9.638694E-1,1.3995582E-1,2.2451028E-2,6.7655854E-2,-4.2375833E-2,1.8286603E-2],"categories":[],"categories_nodes":[],"categories_segments":[],"categories_sizes":[],"default_left":[0,0,0,0,0,0,0,0,0,0,0,0,0,0,0,0,0,0,0,0,0,0,0],"id":40,"left_children":[1,3,5,-1,7,9,11,13,-1,15,17,-1,-1,-1,-1,-1,-1,19,21,-1,-1,-1,-1],"loss_changes":[9.167103E0,1.0735392E1,7.319133E0,0E0,1.4252003E1,8.095529E0,1.2101995E1,3.731346E-1,0E0,1.0829854E1,1.1921757E1,0E0,0E0,0E0,0E0,0E0,0E0,4.262903E0,1.400647E1,0E0,0E0,0E0,0E0],"parents":[2147483647,0,0,1,1,2,2,4,4,5,5,6,6,7,7,9,9,10,10,17,17,18,18],"right_children":[2,4,6,-1,8,10,12,14,-1,16,18,-1,-1,-1,-1,-1,-1,20,22,-1,-1,-1,-1],"split_conditions":[2.7188688E-4,-7.157431E-1,1.064187E0,1.2463682E-2,8.441376E-3,5.7108505E-3,6.6325915E-1,-8.534461E-3,5.8932398E-3,1.4907572E-3,6.921373E-3,-4.9420062E-2,1.6573062E-2,-4.1577425E-2,-7.047889E-2,1.1752568E-2,-4.826542E-2,4.347826E-1,4.3629725E-3,2.2451028E-2,6.7655854E-2,-4.2375833E-2,1.8286603E-2],"split_indices":[7,76,51,0,16,9,60,68,0,7,9,0,0,0,0,0,0,83,69,0,0,0,0],"split_type":[0,0,0,0,0,0,0,0,0,0,0,0,0,0,0,0,0,0,0,0,0,0,0],"sum_hessian":[1.9320634E2,5.209357E1,1.4111278E2,1.7762848E1,3.4330723E1,1.15195E2,2.5917778E1,2.1133606E1,1.3197117E1,3.034262E1,8.485238E1,1.3255126E1,1.2662651E1,1.0384548E1,1.0749058E1,1.945862E1,1.0884E1,2.4202597E1,6.064978E1,1.1457926E1,1.274467E1,1.0691574E1,4.9958206E1],"tree_param":{"num_deleted":"0","num_feature":"86","num_nodes":"23","size_leaf_vector":"1"}},{"base_weights":[5.04682E-2,-2.632082E-1,2.1781221E-1,2.4705479E-1,-7.0326024E-1,-3.4890078E-2,3.2441223E-1,5.302917E-2,-1.9566844E-1,-1.0612403E0,-4.1231807E-4,7.5847906E-1,1.6556436E-1,2.4275836E-2,-4.4859715E-2,-2.682457E-2,-6.9198385E-2,6.3003115E-2,1.7877674E-2,-3.884029E-2,3.4479815E-1,3.0469427E-2,-4.9739395E-4],"categories":[],"categories_nodes":[],"categories_segments":[],"categories_sizes":[],"default_left":[0,0,0,0,0,0,0,0,0,0,0,0,0,0,0,0,0,0,0,0,0,0,0],"id":41,"left_children":[1,3,5,7,9,-1,11,-1,13,15,-1,17,19,-1,-1,-1,-1,-1,-1,-1,21,-1,-1],"loss_changes":[1.0433471E1,1.5722584E1,1.2849722E1,1.2037687E1,9.198811E0,0E0,7.847007E0,0E0,1.0932463E1,3.2327423E0,0E0,5.599388E0,1.4932632E1,0E0,0E0,0E0,0E0,0E0,0E0,0E0,7.0066757E0,0E0,0E0],"parents":[2147483647,0,0,1,1,2,2,3,3,4,4,6,6,8,8,9,9,11,11,12,12,20,20],"right_children":[2,4,6,8,10,-1,12,-1,14,16,-1,18,20,-1,-1,-1,-1,-1,-1,-1,22,-1,-1],"split_conditions":[-3.8525654E-4,-2.1981092E-3,-2.7137166E-2,4.236284E-3,3E0,-3.4890078E-2,-2.7253715E-5,5.302917E-2,-9.0789354E-1,-8.394006E-3,-4.1231807E-4,1.0995909E-2,6.020652E-4,2.4275836E-2,-4.4859715E-2,-2.682457E-2,-6.9198385E-2,6.3003115E-2,1.7877674E-2,-3.884029E-2,1E0,3.0469427E-2,-4.9739395E-4],"split_indices":[36,36,18,53,13,0,32,0,75,2,0,45,32,0,0,0,0,0,0,0,56,0,0],"split_type":[0,0,0,0,0,0,0,0,0,0,0,0,0,0,0,0,0,0,0,0,0,0,0],"sum_hessian":[1.9675789E2,6.804366E1,1.2871423E2,3.1606098E1,3.6437565E1,1.274659E1,1.1596764E2,1.0726268E1,2.0879831E1,2.3607338E1,1.2830225E1,2.9888926E1,8.607871E1,1.0677394E1,1.0202437E1,1.0121761E1,1.3485578E1,1.2214948E1,1.7673977E1,1.3133551E1,7.294516E1,4.1532135E1,3.1413029E1],"tree_param":{"num_deleted":"0","num_feature":"86","num_nodes":"23","size_leaf_vector":"1"}},{"base_weights":[-9.894527E-3,-3.9733964E-1,1.0147635E-1,2.8814007E-2,-7.26803E-1,2.5356896E-2,4.1179087E-2,-1.0973388E0,4.7538336E-3,-2.4515998E-1,2.4018778E-1,-6.9934E-2,-3.1833865E-2,2.625191E-1,-5.4431635E-1,6.0201627E-1,-1.8044035E-1,3.6690373E-2,-1.22414E-2,-4.977616E-2,-2.0891316E-3,4.4023115E-2,1.9726164E-3,2.2581568E-2,-2.4141407E-2],"categories":[],"categories_nodes":[],"categories_segments":[],"categories_sizes":[],"default_left":[0,0,0,0,0,0,0,0,0,0,0,0,0,0,0,0,0,0,0,0,0,0,0,0,0],"id":42,"left_children":[1,3,5,-1,7,9,-1,11,-1,13,15,-1,-1,17,19,21,23,-1,-1,-1,-1,-1,-1,-1,-1],"loss_changes":[8.405864E0,1.4399168E1,8.174818E0,0E0,1.0268843E1,8.045749E0,0E0,2.0906906E0,0E0,9.454334E0,1.1917843E1,0E0,0E0,5.779217E0,8.677391E0,6.439967E0,7.1772556E0,0E0,0E0,0E0,0E0,0E0,0E0,0E0,0E0],"parents":[2147483647,0,0,1,1,2,2,4,4,5,5,7,7,9,9,10,10,13,13,14,14,15,15,16,16],"right_children":[2,4,6,-1,8,10,-1,12,-1,14,16,-1,-1,18,20,22,24,-1,-1,-1,-1,-1,-1,-1,-1],"split_conditions":[-2.168529E-3,-4.315618E-3,9.1471696E-1,2.8814007E-2,7.5028694E-1,8.655482E-3,4.1179087E-2,2.7347312E-3,4.7538336E-3,1.3636355E-1,1.3808947E-2,-6.9934E-2,-3.1833865E-2,-9.078076E-3,-2.7951316E-4,8.450143E-1,4.703702E-1,3.6690373E-2,-1.22414E-2,-4.977616E-2,-2.0891316E-3,4.4023115E-2,1.9726164E-3,2.2581568E-2,-2.4141407E-2],"split_indices":[23,24,61,0,60,69,0,78,0,70,69,0,0,1,36,58,65,0,0,0,0,0,0,0,0],"split_type":[0,0,0,0,0,0,0,0,0,0,0,0,0,0,0,0,0,0,0,0,0,0,0,0,0],"sum_hessian":[1.9218512E2,4.2536438E1,1.4964868E2,1.0488495E1,3.2047943E1,1.3643973E2,1.3208952E1,2.1942095E1,1.0105848E1,6.012418E1,7.6315544E1,1.1902664E1,1.0039431E1,2.2214155E1,3.7910027E1,4.0921215E1,3.5394325E1,1.1387107E1,1.0827048E1,1.9353352E1,1.8556673E1,2.6875902E1,1.4045314E1,1.1186753E1,2.4207573E1],"tree_param":{"num_deleted":"0","num_feature":"86","num_nodes":"25","size_leaf_vector":"1"}},{"base_weights":[8.607215E-2,3.692281E-2,1.0458716E-2,-6.2767065E-1,1.2664203E-1,-6.958566E-2,-3.50254E-3,3.8450096E-2,2.636126E-2,-5.054202E-2,4.222507E-2,3.1138482E-3,-4.229715E-2],"categories":[],"categories_nodes":[],"categories_segments":[],"categories_sizes":[],"default_left":[0,0,0,0,0,0,0,0,0,0,0,0,0],"id":43,"left_children":[1,-1,3,5,7,-1,-1,-1,9,11,-1,-1,-1],"loss_changes":[9.583531E0,0E0,1.31337595E1,1.1370148E1,9.594349E0,0E0,0E0,0E0,8.385745E0,1.0979076E1,0E0,0E0,0E0],"parents":[2147483647,0,0,2,2,3,3,4,4,8,8,9,9],"right_children":[2,-1,4,6,8,-1,-1,-1,10,12,-1,-1,-1],"split_conditions":[-1.5315512E0,3.692281E-2,8.655482E-3,8.6780445E-4,4.201555E-3,-6.958566E-2,-3.50254E-3,3.8450096E-2,8.177332E-3,7.8478664E-1,4.222507E-2,3.1138482E-3,-4.229715E-2],"split_indices":[76,0,67,6,54,0,0,0,21,71,0,0,0],"split_type":[0,0,0,0,0,0,0,0,0,0,0,0,0],"sum_hessian":[1.9495267E2,1.9200888E1,1.7575177E2,2.6259583E1,1.4949219E2,1.037237E1,1.5887214E1,1.9151215E1,1.3034097E2,1.19887794E2,1.045318E1,1.0569245E2,1.4195345E1],"tree_param":{"num_deleted":"0","num_feature":"86","num_nodes":"13","size_leaf_vector":"1"}},{"base_weights":[3.4806963E-2,-2.636888E-2,3.839809E-2,-1.2783122E-1,4.8413846E-1,-2.009404E-2,-7.2597325E-1,4.3928277E-2,-5.1769367E-3,-1.4487867E-1,3.347599E-2,-7.399226E-2,6.7323386E-3,-2.2271874E-3,-4.404838E-2],"categories":[],"categories_nodes":[],"categories_segments":[],"categories_sizes":[],"default_left":[0,0,0,0,0,0,0,0,0,0,0,0,0,0,0],"id":44,"left_children":[1,3,-1,5,7,9,11,-1,-1,13,-1,-1,-1,-1,-1],"loss_changes":[8.369343E0,8.89025E0,0E0,9.1718235E0,6.7556324E0,1.0624466E1,1.4454316E1,0E0,0E0,7.6269464E0,0E0,0E0,0E0,0E0,0E0],"parents":[2147483647,0,0,1,1,3,3,4,4,5,5,6,6,9,9],"right_children":[2,4,-1,6,8,10,12,-1,-1,14,-1,-1,-1,-1,-1],"split_conditions":[9.1471696E-1,4.3171763E-6,3.839809E-2,1.0722691E0,2.1459496E-1,1.3289248E-2,1.2835655E0,4.3928277E-2,-5.1769367E-3,2.6771724E0,3.347599E-2,-7.399226E-2,6.7323386E-3,-2.2271874E-3,-4.404838E-2],"split_indices":[61,37,0,51,59,17,57,0,0,40,0,0,0,0,0],"split_type":[0,0,0,0,0,0,0,0,0,0,0,0,0,0,0],"sum_hessian":[1.8349678E2,1.7012857E2,1.33682165E1,1.427106E2,2.741797E1,1.2194642E2,2.076418E1,1.6212158E1,1.1205813E1,1.04053085E2,1.7893333E1,1.0746936E1,1.0017243E1,9.262404E1,1.1429045E1],"tree_param":{"num_deleted":"0","num_feature":"86","num_nodes":"15","size_leaf_vector":"1"}},{"base_weights":[3.5289254E-2,1.010585E-1,-2.6184404E-2,3.0779077E-2,3.770196E-2,1.242599E-1,-4.581135E-2,-2.1362734E-1,2.6877934E-1,-4.696274E-2,4.92763E-3,2.1503735E-2,-1.354716E-2],"categories":[],"categories_nodes":[],"categories_segments":[],"categories_sizes":[],"default_left":[0,0,0,0,0,0,0,0,0,0,0,0,0],"id":45,"left_children":[1,3,-1,5,-1,7,-1,9,11,-1,-1,-1,-1],"loss_changes":[7.1098065E0,7.87293E0,0E0,1.4027924E1,0E0,7.135817E0,0E0,1.008536E1,9.020836E0,0E0,0E0,0E0,0E0],"parents":[2147483647,0,0,1,1,3,3,5,5,7,7,8,8],"right_children":[2,4,-1,6,-1,8,-1,10,12,-1,-1,-1,-1],"split_conditions":[5.349099E-3,7.1781445E-3,-2.6184404E-2,3.8190079E0,3.770196E-2,-5.8260825E-2,-4.581135E-2,5.9023765E-3,4.3159323E-3,-4.696274E-2,4.92763E-3,2.1503735E-2,-1.354716E-2],"split_indices":[6,27,0,40,0,72,0,55,3,0,0,0,0],"split_type":[0,0,0,0,0,0,0,0,0,0,0,0,0],"sum_hessian":[1.9210301E2,1.727727E2,1.9330318E1,1.5706796E2,1.5704732E1,1.4384329E2,1.3224669E1,4.2742043E1,1.0110126E2,1.234924E1,3.0392801E1,7.81382E1,2.2963057E1],"tree_param":{"num_deleted":"0","num_feature":"86","num_nodes":"13","size_leaf_vector":"1"}},{"base_weights":[1.3571806E-2,-4.5100644E-1,1.1942051E-1,6.038006E-3,-4.9075186E-2,7.051077E-1,1.1922559E-2,5.4226782E-2,1.5810687E-2,1.78535E-1,-3.5905927E-1,3.8580965E-2,4.613411E-2,-0E0,-5.4423727E-2,1.2825553E-2,-1.6999712E-2,-2.7953079E-2,3.0761147E-2],"categories":[],"categories_nodes":[],"categories_segments":[],"categories_sizes":[],"default_left":[0,0,0,0,0,0,0,0,0,0,0,0,0,0,0,0,0,0,0],"id":46,"left_children":[1,3,5,-1,-1,7,9,-1,-1,11,13,15,-1,17,-1,-1,-1,-1,-1],"loss_changes":[9.613104E0,1.11941185E1,9.983187E0,0E0,0E0,3.1506681E0,8.465238E0,0E0,0E0,9.746521E0,1.1196774E1,6.7609067E0,0E0,1.0427099E1,0E0,0E0,0E0,0E0,0E0],"parents":[2147483647,0,0,1,1,2,2,5,5,6,6,9,9,10,10,11,11,13,13],"right_children":[2,4,6,-1,-1,8,10,-1,-1,12,14,16,-1,18,-1,-1,-1,-1,-1],"split_conditions":[8.655482E-3,-2.1384624E-3,1.1442306E-2,6.038006E-3,-4.9075186E-2,4.7578807E-3,7.461941E-3,5.4226782E-2,1.5810687E-2,8.203677E-3,1.5762953E-1,9.597938E-1,4.613411E-2,6.3627154E-1,-5.4423727E-2,1.2825553E-2,-1.6999712E-2,-2.7953079E-2,3.0761147E-2],"split_indices":[67,23,67,0,0,54,53,0,0,5,59,51,0,58,0,0,0,0,0],"split_type":[0,0,0,0,0,0,0,0,0,0,0,0,0,0,0,0,0,0,0],"sum_hessian":[1.9406662E2,3.5230705E1,1.5883592E2,1.7236826E1,1.799388E1,2.3625618E1,1.352103E2,1.0922791E1,1.27028265E1,9.384961E1,4.136069E1,7.999158E1,1.3858032E1,2.8300602E1,1.3060089E1,5.1139347E1,2.8852232E1,1.4794788E1,1.3505814E1],"tree_param":{"num_deleted":"0","num_feature":"86","num_nodes":"19","size_leaf_vector":"1"}},{"base_weights":[1.0329589E-2,-3.515071E-2,5.7377957E-2,-2.9103136E-2,5.341687E-1,7.4807405E-2,-4.6150163E-2,5.02561E-2,7.1144225E-3,1.8247081E-1,-4.0615577E-1,-8.325107E-3,1.9488402E-2,-4.920886E-2,1.12125855E-2],"categories":[],"categories_nodes":[],"categories_segments":[],"categories_sizes":[],"default_left":[0,0,0,0,0,0,0,0,0,0,0,0,0,0,0],"id":47,"left_children":[1,-1,3,5,7,9,-1,-1,-1,11,13,-1,-1,-1,-1],"loss_changes":[6.4776216E0,0E0,7.603423E0,1.4597862E1,4.9642506E0,7.308178E0,0E0,0E0,0E0,8.432674E0,9.687534E0,0E0,0E0,0E0,0E0],"parents":[2147483647,0,0,2,2,3,3,4,4,5,5,9,9,10,10],"right_children":[2,-1,4,6,8,10,-1,-1,-1,12,14,-1,-1,-1,-1],"split_conditions":[-2.5802936E-2,-3.515071E-2,2.08484E-2,9.891277E-3,1E0,2.9799505E-3,-4.6150163E-2,5.02561E-2,7.1144225E-3,-1.6268699E-3,4.489838E-3,-8.325107E-3,1.9488402E-2,-4.920886E-2,1.12125855E-2],"split_indices":[68,0,18,2,56,31,0,0,0,23,31,0,0,0,0],"split_type":[0,0,0,0,0,0,0,0,0,0,0,0,0,0,0],"sum_hessian":[1.9272842E2,1.0930665E1,1.8179776E2,1.5450299E2,2.729478E1,1.3913394E2,1.5369044E1,1.157007E1,1.572471E1,1.1436248E2,2.4771463E1,4.251139E1,7.185109E1,1.271266E1,1.2058804E1],"tree_param":{"num_deleted":"0","num_feature":"86","num_nodes":"15","size_leaf_vector":"1"}},{"base_weights":[8.183325E-2,-1.01094335E-1,3.1789526E-1,7.194972E-2,-6.560173E-2,-5.4487705E-2,6.3507116E-1,-8.538467E-2,3.440382E-2,2.6874742E-1,-3.6427714E-2,2.313283E-3,8.095741E-1,-3.0179542E-1,3.89983E-1,4.4572182E-2,-7.5288834E-3,5.935728E-2,6.0980636E-1,7.2957724E-3,-3.8522493E-2,4.6962164E-2,-1.2430142E-2,1.35261165E-2,5.041171E-2],"categories":[],"categories_nodes":[],"categories_segments":[],"categories_sizes":[],"default_left":[0,0,0,0,0,0,0,0,0,0,0,0,0,0,0,0,0,0,0,0,0,0,0,0,0],"id":48,"left_children":[1,3,5,7,-1,9,11,13,-1,15,-1,-1,17,19,21,-1,-1,-1,23,-1,-1,-1,-1,-1,-1],"loss_changes":[8.4125E0,2.317994E1,1.0130913E1,9.497999E0,0E0,8.928464E0,4.615841E0,8.115793E0,0E0,7.409051E0,0E0,0E0,1.7653961E0,1.1545478E1,8.945041E0,0E0,0E0,0E0,3.0290537E0,0E0,0E0,0E0,0E0,0E0,0E0],"parents":[2147483647,0,0,1,1,2,2,3,3,5,5,6,6,7,7,9,9,12,12,13,13,14,14,18,18],"right_children":[2,4,6,8,-1,10,12,14,-1,16,-1,-1,18,20,22,-1,-1,-1,24,-1,-1,-1,-1,-1,-1],"split_conditions":[5.813949E-1,-1.807029E-3,5E-1,-1.7725263E-3,-6.560173E-2,1.0534235E0,-3.1835187E-2,1.0618126E-2,3.440382E-2,6.623368E-1,-3.6427714E-2,2.313283E-3,4.7916567E-1,-3.666326E-2,1.1749715E-2,4.4572182E-2,-7.5288834E-3,5.935728E-2,4.258295E-3,7.2957724E-3,-3.8522493E-2,4.6962164E-2,-1.2430142E-2,1.35261165E-2,5.041171E-2],"split_indices":[64,17,85,4,0,52,72,50,0,70,0,0,12,72,49,0,0,0,31,0,0,0,0,0,0],"split_type":[0,0,0,0,0,0,0,0,0,0,0,0,0,0,0,0,0,0,0,0,0,0,0,0,0],"sum_hessian":[1.9256755E2,1.0857752E2,8.3990036E1,9.575244E1,1.2825077E1,3.8868767E1,4.5121265E1,7.683176E1,1.8920683E1,2.657717E1,1.2291598E1,1.0735586E1,3.438568E1,5.3191753E1,2.3640007E1,1.0337942E1,1.6239227E1,1.0014515E1,2.4371166E1,2.7446793E1,2.574496E1,1.2539938E1,1.110007E1,1.4204868E1,1.0166298E1],"tree_param":{"num_deleted":"0","num_feature":"86","num_nodes":"25","size_leaf_vector":"1"}},{"base_weights":[5.407397E-2,3.9053347E-2,2.201265E-3,-6.0968703E-1,8.428947E-2,-6.66602E-2,6.2900432E-3,-2.0457938E-2,4.725083E-1,6.1605603E-2,-4.0908497E-2,-5.9926827E-3,7.303787E-1,-3.8744265E-3,2.0928182E-2,5.6918174E-2,1.826342E-2],"categories":[],"categories_nodes":[],"categories_segments":[],"categories_sizes":[],"default_left":[0,0,0,0,0,0,0,0,0,0,0,0,0,0,0,0,0],"id":49,"left_children":[1,-1,3,5,7,-1,-1,9,11,13,-1,-1,15,-1,-1,-1,-1],"loss_changes":[7.306736E0,0E0,9.239139E0,1.1855994E1,6.692446E0,0E0,0E0,8.590356E0,5.4838223E0,5.9280324E0,0E0,0E0,3.0971317E0,0E0,0E0,0E0,0E0],"parents":[2147483647,0,0,2,2,3,3,4,4,7,7,8,8,9,9,12,12],"right_children":[2,-1,4,6,8,-1,-1,10,12,14,-1,-1,16,-1,-1,-1,-1],"split_conditions":[3.4964073E-3,3.9053347E-2,4.492363E-3,1.7893218E-2,2.0187253E-2,-6.66602E-2,6.2900432E-3,9.520433E-3,-3.7340996E-1,1.1961206E-3,-4.0908497E-2,-5.9926827E-3,1.7372099E-1,-3.8744265E-3,2.0928182E-2,5.6918174E-2,1.826342E-2],"split_indices":[54,0,9,45,19,0,0,54,59,32,0,0,59,0,0,0,0],"split_type":[0,0,0,0,0,0,0,0,0,0,0,0,0,0,0,0,0],"sum_hessian":[1.9487825E2,1.1914338E1,1.8296391E2,2.073785E1,1.6222607E2,1.0112866E1,1.0624983E1,1.282988E2,3.392727E1,1.170544E2,1.12444E1,1.0334651E1,2.3592619E1,8.459388E1,3.2460518E1,1.0012551E1,1.3580069E1],"tree_param":{"num_deleted":"0","num_feature":"86","num_nodes":"17","size_leaf_vector":"1"}},{"base_weights":[-2.5251381E-2,-1.593768E-1,3.6805135E-1,-6.347939E-1,-2.0770224E-2,8.952173E-2,4.245351E-2,1.0516818E-2,-6.573733E-2,1.0404699E-1,-4.0467914E-2,2.767821E-2,-2.2778044E-2,-1.871965E-1,5.2384776E-1,-3.92609E-2,7.230907E-3,4.1402977E-2,-7.6212557E-3],"categories":[],"categories_nodes":[],"categories_segments":[],"categories_sizes":[],"default_left":[0,0,0,0,0,0,0,0,0,0,0,0,0,0,0,0,0,0,0],"id":50,"left_children":[1,3,5,7,9,11,-1,-1,-1,13,-1,-1,-1,15,17,-1,-1,-1,-1],"loss_changes":[9.883818E0,9.15134E0,6.2044396E0,1.8443665E1,1.0947369E1,8.199288E0,0E0,0E0,0E0,1.1800816E1,0E0,0E0,0E0,1.1477306E1,8.319448E0,0E0,0E0,0E0,0E0],"parents":[2147483647,0,0,1,1,2,2,3,3,4,4,5,5,9,9,13,13,14,14],"right_children":[2,4,6,8,10,12,-1,-1,-1,14,-1,-1,-1,16,18,-1,-1,-1,-1],"split_conditions":[7.4825995E-3,6.574537E-1,3.7408522E-3,-6.806609E-1,2.803933E0,8.560887E-3,4.245351E-2,1.0516818E-2,-6.573733E-2,-2.0239996E-3,-4.0467914E-2,2.767821E-2,-2.2778044E-2,1E0,3E0,-3.92609E-2,7.230907E-3,4.1402977E-2,-7.6212557E-3],"split_indices":[16,52,31,59,40,28,0,0,0,1,0,0,0,48,13,0,0,0,0],"split_type":[0,0,0,0,0,0,0,0,0,0,0,0,0,0,0,0,0,0,0],"sum_hessian":[1.8564786E2,1.3907057E2,4.6577282E1,3.0422129E1,1.08648445E2,3.038001E1,1.6197271E1,1.3805955E1,1.6616175E1,9.444154E1,1.4206898E1,1.6500565E1,1.3879446E1,5.5944813E1,3.849673E1,1.9583992E1,3.636082E1,2.6499659E1,1.1997071E1],"tree_param":{"num_deleted":"0","num_feature":"86","num_nodes":"19","size_leaf_vector":"1"}},{"base_weights":[9.396488E-3,3.0567495E-2,-6.035377E-2,-1.6604234E-1,3.4628505E-1,-5.1756244E-2,-6.1220056E-1,3.5190057E-2,2.1624654E-3,3.6787084E-1,-2.9039085E-1,-5.0971698E-2,2.500191E-3,3.1541478E-2,-1.1926989E-2,-5.9812397E-2,-1.2243137E-3],"categories":[],"categories_nodes":[],"categories_segments":[],"categories_sizes":[],"default_left":[0,0,0,0,0,0,0,0,0,0,0,0,0,0,0,0,0],"id":51,"left_children":[1,-1,3,5,7,9,11,-1,-1,13,15,-1,-1,-1,-1,-1,-1],"loss_changes":[8.033625E0,0E0,7.3570805E0,6.837232E0,3.7142358E0,1.1069023E1,7.5545263E0,0E0,0E0,6.5686417E0,1.6841076E1,0E0,0E0,0E0,0E0,0E0,0E0],"parents":[2147483647,0,0,2,2,3,3,4,4,5,5,6,6,9,9,10,10],"right_children":[2,-1,4,6,8,10,12,-1,-1,14,16,-1,-1,-1,-1,-1,-1],"split_conditions":[-1.5315512E0,3.0567495E-2,5.4383043E-2,4.500824E-2,3E0,-2.1173604E-2,6.0399973E-1,3.5190057E-2,2.1624654E-3,9.8715156E-1,-2.276609E-3,-5.0971698E-2,2.500191E-3,3.1541478E-2,-1.1926989E-2,-5.9812397E-2,-1.2243137E-3],"split_indices":[76,0,47,47,14,44,65,0,0,51,1,0,0,0,0,0,0],"split_type":[0,0,0,0,0,0,0,0,0,0,0,0,0,0,0,0,0],"sum_hessian":[1.8814761E2,1.887997E1,1.6926764E2,1.3501404E2,3.4253605E1,1.0854876E2,2.6465279E1,1.4956135E1,1.9297472E1,3.9003113E1,6.954565E1,1.6146984E1,1.0318295E1,2.7292753E1,1.1710361E1,1.4902488E1,5.464316E1],"tree_param":{"num_deleted":"0","num_feature":"86","num_nodes":"17","size_leaf_vector":"1"}},{"base_weights":[5.2580237E-2,3.731558E-3,3.978163E-2,7.381949E-2,-4.4302312E-1,-5.9798453E-2,5.9486026E-1,-4.631653E-2,1.0388352E-2,3.608538E-1,-2.3190212E-1,9.607981E-3,4.410722E-2,3.5034125E-3,4.9679246E-2,2.1435989E-2,-2.0773115E-2],"categories":[],"categories_nodes":[],"categories_segments":[],"categories_sizes":[],"default_left":[0,0,0,0,0,0,0,0,0,0,0,0,0,0,0,0,0],"id":52,"left_children":[1,3,-1,5,7,9,11,-1,-1,13,15,-1,-1,-1,-1,-1,-1],"loss_changes":[6.839174E0,5.6342554E0,0E0,1.0998908E1,7.9290457E0,9.154761E0,3.451497E0,0E0,0E0,6.567951E0,1.1069019E1,0E0,0E0,0E0,0E0,0E0,0E0],"parents":[2147483647,0,0,1,1,3,3,4,4,5,5,6,6,9,9,10,10],"right_children":[2,4,-1,6,8,10,12,-1,-1,14,16,-1,-1,-1,-1,-1,-1],"split_conditions":[1.9285465E0,3.6365519E0,3.978163E-2,2.165089E-3,1.0173219E-2,4.588575E-3,2.97885E-4,-4.631653E-2,1.0388352E-2,8.088795E-1,-1.287947E0,9.607981E-3,4.410722E-2,3.5034125E-3,4.9679246E-2,2.1435989E-2,-2.0773115E-2],"split_indices":[52,40,0,0,19,54,7,0,0,60,76,0,0,0,0,0,0],"split_type":[0,0,0,0,0,0,0,0,0,0,0,0,0,0,0,0,0],"sum_hessian":[1.8970598E2,1.7907321E2,1.06327715E1,1.5570451E2,2.3368692E1,1.2447653E2,3.122799E1,1.3255097E1,1.0113595E1,3.5654E1,8.882253E1,1.384197E1,1.7386019E1,2.5296993E1,1.0357005E1,1.890483E1,6.99177E1],"tree_param":{"num_deleted":"0","num_feature":"86","num_nodes":"17","size_leaf_vector":"1"}},{"base_weights":[1.3878202E-1,-5.305275E-2,3.4211266E-1,5.710866E-1,-2.1773353E-1,-6.330057E-2,5.3436124E-1,5.182285E-3,4.920817E-2,-3.3761105E-1,2.8133824E-2,2.7011802E-2,-5.2852917E-2,6.9052345E-1,4.6361214E-3,-5.2229684E-2,-1.344927E-1,7.003136E-3,8.7944114E-1,2.0679533E-2,-2.4857845E-2,5.4554135E-2,1.6946338E-2],"categories":[],"categories_nodes":[],"categories_segments":[],"categories_sizes":[],"default_left":[0,0,0,0,0,0,0,0,0,0,0,0,0,0,0,0,0,0,0,0,0,0,0],"id":53,"left_children":[1,3,5,7,9,11,13,-1,-1,15,-1,-1,-1,17,-1,-1,19,-1,21,-1,-1,-1,-1],"loss_changes":[7.6966314E0,1.0523817E1,7.5313377E0,3.9104748E0,7.7619667E0,1.9500748E1,4.3485165E0,0E0,0E0,9.95235E0,0E0,0E0,0E0,4.7439613E0,0E0,0E0,1.144315E1,0E0,3.5196037E0,0E0,0E0,0E0,0E0],"parents":[2147483647,0,0,1,1,2,2,3,3,4,4,5,5,6,6,9,9,13,13,16,16,18,18],"right_children":[2,4,6,8,10,12,14,-1,-1,16,-1,-1,-1,18,-1,-1,20,-1,22,-1,-1,-1,-1],"split_conditions":[2.8575512E-4,4.201555E-3,8.121822E-3,-3.4256384E-3,7.9964805E-1,3.9974838E-3,8.398054E-1,5.182285E-3,4.920817E-2,-6.970577E-1,2.8133824E-2,2.7011802E-2,-5.2852917E-2,3.3333334E-1,4.6361214E-3,-5.2229684E-2,-3.7480867E-1,7.003136E-3,9.5597905E-1,2.0679533E-2,-2.4857845E-2,5.4554135E-2,1.6946338E-2],"split_indices":[0,54,50,2,61,53,64,0,0,60,0,0,0,85,0,0,60,0,57,0,0,0,0],"split_type":[0,0,0,0,0,0,0,0,0,0,0,0,0,0,0,0,0,0,0,0,0,0,0],"sum_hessian":[1.9511336E2,1.0052196E2,9.45914E1,2.0343838E1,8.0178116E1,3.0475449E1,6.411595E1,1.0244304E1,1.0099535E1,7.010494E1,1.0073175E1,1.9181646E1,1.1293803E1,4.6783474E1,1.7332478E1,1.4611704E1,5.549324E1,1.2533782E1,3.4249695E1,2.1931967E1,3.356127E1,2.374758E1,1.0502114E1],"tree_param":{"num_deleted":"0","num_feature":"86","num_nodes":"23","size_leaf_vector":"1"}},{"base_weights":[4.0254608E-2,-8.968585E-3,3.7143867E-2,5.0098795E-1,-7.7317335E-2,5.8583138E-3,4.1413188E-2,-5.6651646E-1,2.9383857E-2,3.1146086E-3,-5.216499E-2,1.2857859E-1,-4.8425043E-1,-1.7311972E-3,2.4602776E-2,-3.757444E-3,-4.1832604E-2],"categories":[],"categories_nodes":[],"categories_segments":[],"categories_sizes":[],"default_left":[0,0,0,0,0,0,0,0,0,0,0,0,0,0,0,0,0],"id":54,"left_children":[1,3,-1,5,7,-1,-1,9,11,-1,-1,13,15,-1,-1,-1,-1],"loss_changes":[6.6901593E0,6.251661E0,0E0,2.4678936E0,8.385267E0,0E0,0E0,8.779596E0,6.7293906E0,0E0,0E0,6.6600485E0,2.9225755E0,0E0,0E0,0E0,0E0],"parents":[2147483647,0,0,1,1,3,3,4,4,7,7,8,8,11,11,12,12],"right_children":[2,4,-1,6,8,-1,-1,10,12,-1,-1,14,16,-1,-1,-1,-1],"split_conditions":[5.0573234E-2,-3.3152725E-3,3.7143867E-2,8.469918E-3,-2.168529E-3,5.8583138E-3,4.1413188E-2,-4.392154E-2,1.0756317E0,3.1146086E-3,-5.216499E-2,5.1384643E-3,5.45184E1,-1.7311972E-3,2.4602776E-2,-3.757444E-3,-4.1832604E-2],"split_indices":[45,24,0,69,23,0,0,19,51,0,0,2,38,0,0,0,0],"split_type":[0,0,0,0,0,0,0,0,0,0,0,0,0,0,0,0,0],"sum_hessian":[1.9012454E2,1.7846672E2,1.1657818E1,2.0171593E1,1.5829514E2,1.0049419E1,1.0122173E1,2.7740316E1,1.3055481E2,1.2247387E1,1.549293E1,1.1021424E2,2.0340574E1,7.64966E1,3.3717644E1,1.01058035E1,1.023477E1],"tree_param":{"num_deleted":"0","num_feature":"86","num_nodes":"17","size_leaf_vector":"1"}},{"base_weights":[4.160191E-2,-5.6151647E-2,5.015518E-1,8.102614E-2,-8.539738E-1,5.903926E-2,1.3925576E-1,-3.9554857E-2,1.7120163E-1,-5.9112053E-2,-1.9827496E-2,-2.4735333E-2,4.036227E-2,-2.6483824E-2,2.8625816E-1,5.486348E-2,8.218461E-3],"categories":[],"categories_nodes":[],"categories_segments":[],"categories_sizes":[],"default_left":[0,0,0,0,0,0,0,0,0,0,0,0,0,0,0,0,0],"id":55,"left_children":[1,3,5,7,9,-1,11,-1,13,-1,-1,-1,-1,-1,15,-1,-1],"loss_changes":[8.601082E0,1.7345947E1,7.954008E0,1.0682816E1,2.8645058E0,0E0,1.0210606E1,0E0,1.0061231E1,0E0,0E0,0E0,0E0,0E0,1.0230121E1,0E0,0E0],"parents":[2147483647,0,0,1,1,2,2,3,3,4,4,6,6,8,8,14,14],"right_children":[2,4,6,8,10,-1,12,-1,14,-1,-1,-1,-1,-1,16,-1,-1],"split_conditions":[1.4328326E0,1.159239E0,-1.264911E-3,8.256878E-2,5.652174E-1,5.903926E-2,7.196255E-1,-3.9554857E-2,2E0,-5.9112053E-2,-1.9827496E-2,-2.4735333E-2,4.036227E-2,-2.6483824E-2,-1.0686127E0,5.486348E-2,8.218461E-3],"split_indices":[52,52,32,65,83,0,70,0,13,0,0,0,0,0,76,0,0],"split_type":[0,0,0,0,0,0,0,0,0,0,0,0,0,0,0,0,0],"sum_hessian":[1.8868079E2,1.561538E2,3.2527E1,1.3390349E2,2.2250305E1,1.0432653E1,2.2094349E1,1.1715584E1,1.22187904E2,1.1904175E1,1.0346131E1,1.1392185E1,1.0702164E1,1.6599241E1,1.0558866E2,1.2643056E1,9.294561E1],"tree_param":{"num_deleted":"0","num_feature":"86","num_nodes":"17","size_leaf_vector":"1"}},{"base_weights":[-1.8617881E-2,-2.8671652E-1,1.3411939E-1,2.8273526E-1,-7.733224E-1,-4.714802E-1,3.0947354E-1,-9.654925E-3,4.0920638E-2,-1.7497301E-2,-5.9538692E-2,2.422336E-3,-5.4963034E-2,1.9599225E-1,4.529255E-2,3.8926056E-1,-2.889428E-1,5.880454E-3,5.1971775E-2,-3.6326032E-2,1.0113903E-2],"categories":[],"categories_nodes":[],"categories_segments":[],"categories_sizes":[],"default_left":[0,0,0,0,0,0,0,0,0,0,0,0,0,0,0,0,0,0,0,0,0],"id":56,"left_children":[1,3,5,7,9,11,13,-1,-1,-1,-1,-1,-1,15,-1,17,19,-1,-1,-1,-1],"loss_changes":[7.2853117E0,1.8182606E1,1.2124355E1,7.9763436E0,5.6547127E0,8.523911E0,5.6895742E0,0E0,0E0,0E0,0E0,0E0,0E0,7.2095985E0,0E0,9.413041E0,4.922934E0,0E0,0E0,0E0,0E0],"parents":[2147483647,0,0,1,1,2,2,3,3,4,4,5,5,6,6,13,13,15,15,16,16],"right_children":[2,4,6,8,10,12,14,-1,-1,-1,-1,-1,-1,16,-1,18,20,-1,-1,-1,-1],"split_conditions":[5E-1,-1.7913418E-1,-6.060603E-2,-1.0749507E-2,1.6483499E-1,-4.813478E-3,8.756472E-1,-9.654925E-3,4.0920638E-2,-1.7497301E-2,-5.9538692E-2,2.422336E-3,-5.4963034E-2,2.7992684E-1,4.529255E-2,1.5406741E-1,5.6081194E-1,5.880454E-3,5.1971775E-2,-3.6326032E-2,1.0113903E-2],"split_indices":[85,77,72,68,11,80,65,0,0,0,0,0,0,77,0,77,77,0,0,0,0],"split_type":[0,0,0,0,0,0,0,0,0,0,0,0,0,0,0,0,0,0,0,0,0],"sum_hessian":[1.7560161E2,6.3651722E1,1.1194988E2,2.9427534E1,3.4224186E1,2.4629824E1,8.732006E1,1.5824092E1,1.3603443E1,1.802311E1,1.6201077E1,1.3889827E1,1.0739996E1,7.461778E1,1.270228E1,5.3642395E1,2.0975386E1,3.877598E1,1.4866411E1,1.09477415E1,1.0027644E1],"tree_param":{"num_deleted":"0","num_feature":"86","num_nodes":"21","size_leaf_vector":"1"}},{"base_weights":[7.6227607E-3,-4.3661118E-2,3.3676855E-2,-5.292195E-1,4.2005803E-2,-0E0,-4.4265542E-2,-1.8208994E-2,3.9245818E-2,6.4304724E-2,-4.001566E-2,-2.291026E-3,2.7639655E-2],"categories":[],"categories_nodes":[],"categories_segments":[],"categories_sizes":[],"default_left":[0,0,0,0,0,0,0,0,0,0,0,0,0],"id":57,"left_children":[1,3,-1,5,7,-1,-1,9,-1,11,-1,-1,-1],"loss_changes":[6.4382086E0,7.280867E0,0E0,4.9321437E0,6.715547E0,0E0,0E0,9.020316E0,0E0,6.8269167E0,0E0,0E0,0E0],"parents":[2147483647,0,0,1,1,3,3,4,4,7,7,9,9],"right_children":[2,4,-1,6,8,-1,-1,10,-1,12,-1,-1,-1],"split_conditions":[9.1471696E-1,1.7391305E-1,3.3676855E-2,5.865031E-3,2.0716684E-2,-0E0,-4.4265542E-2,2.1486092E-2,3.9245818E-2,1.8761262E-2,-4.001566E-2,-2.291026E-3,2.7639655E-2],"split_indices":[61,83,0,55,9,0,0,69,0,19,0,0,0],"split_type":[0,0,0,0,0,0,0,0,0,0,0,0,0],"sum_hessian":[1.8481813E2,1.7233073E2,1.2487394E1,2.524309E1,1.4708765E2,1.0572615E1,1.4670474E1,1.368375E2,1.0250146E1,1.2449312E2,1.2344379E1,1.0216291E2,2.233021E1],"tree_param":{"num_deleted":"0","num_feature":"86","num_nodes":"13","size_leaf_vector":"1"}},{"base_weights":[5.4927904E-2,-2.4584308E-2,5.604953E-1,2.8893324E-2,-2.9917393E-2,8.204675E-3,5.012676E-2,4.7998455E-1,-6.701595E-2,-2.5371693E-3,4.117148E-2,-1.7575558E-1,4.510765E-1,-3.5267808E-2,2.3445203E-3,3.976145E-2,2.9115656E-3],"categories":[],"categories_nodes":[],"categories_segments":[],"categories_sizes":[],"default_left":[0,0,0,0,0,0,0,0,0,0,0,0,0,0,0,0,0],"id":58,"left_children":[1,3,5,7,-1,-1,-1,9,11,-1,-1,13,15,-1,-1,-1,-1],"loss_changes":[7.4415984E0,4.962152E0,4.1245112E0,6.412214E0,0E0,0E0,0E0,4.857239E0,6.8977995E0,0E0,0E0,1.2045658E1,2.734747E0,0E0,0E0,0E0,0E0],"parents":[2147483647,0,0,1,1,2,2,3,3,7,7,8,8,11,11,12,12],"right_children":[2,4,6,8,-1,-1,-1,10,12,-1,-1,14,16,-1,-1,-1,-1],"split_conditions":[9.6874696E-1,5.6980057E-3,9.056682E-4,4.201555E-3,-2.9917393E-2,8.204675E-3,5.012676E-2,-4.0978068E-3,1.4328326E0,-2.5371693E-3,4.117148E-2,3.515001E-1,4.243853E-1,-3.5267808E-2,2.3445203E-3,3.976145E-2,2.9115656E-3],"split_indices":[12,7,32,54,0,0,0,2,52,0,0,61,61,0,0,0,0],"split_type":[0,0,0,0,0,0,0,0,0,0,0,0,0,0,0,0,0],"sum_hessian":[1.8244406E2,1.5830112E2,2.414295E1,1.4551384E2,1.2787264E1,1.3570746E1,1.0572203E1,2.4994589E1,1.2051926E2,1.0040312E1,1.4954277E1,1.0031786E2,2.0201395E1,2.9182798E1,7.113506E1,1.0086377E1,1.0115018E1],"tree_param":{"num_deleted":"0","num_feature":"86","num_nodes":"17","size_leaf_vector":"1"}},{"base_weights":[1.0548038E-1,-2.951301E-1,2.1917628E-1,1.461791E-1,-4.135119E-2,-2.3102341E-2,2.921408E-1,2.830703E-2,-1.8229084E-2,5.91787E-1,2.8582916E-2,2.2703195E-1,8.4025854E-1,-2.1808621E-1,4.4515872E-1,-1.8028995E-2,3.6043778E-2,5.2854825E-2,2.2265168E-2,-3.2692358E-2,1.5286031E-2,3.6941614E-2,-0E0],"categories":[],"categories_nodes":[],"categories_segments":[],"categories_sizes":[],"default_left":[0,0,0,0,0,0,0,0,0,0,0,0,0,0,0,0,0,0,0,0,0,0,0],"id":59,"left_children":[1,3,5,7,-1,-1,9,-1,-1,11,13,15,17,19,21,-1,-1,-1,-1,-1,-1,-1,-1],"loss_changes":[8.836759E0,1.0245714E1,7.6191683E0,5.409507E0,0E0,0E0,1.0745118E1,0E0,0E0,5.49473E0,7.7390385E0,8.25546E0,2.5889568E0,1.0983729E1,3.7386398E0,0E0,0E0,0E0,0E0,0E0,0E0,0E0,0E0],"parents":[2147483647,0,0,1,1,2,2,3,3,6,6,9,9,10,10,11,11,12,12,13,13,14,14],"right_children":[2,4,6,8,-1,-1,10,-1,-1,12,14,16,18,20,22,-1,-1,-1,-1,-1,-1,-1,-1],"split_conditions":[-2.0276299E-3,-2.1361643E-3,-7.831458E-3,4.347826E-1,-4.135119E-2,-2.3102341E-2,1.004795E-3,2.830703E-2,-1.8229084E-2,5.084746E-1,1.678842E-3,-1.3350547E-2,-7.8352414E-2,1.7683465E-3,7.0618355E-1,-1.8028995E-2,3.6043778E-2,5.2854825E-2,2.2265168E-2,-3.2692358E-2,1.5286031E-2,3.6941614E-2,-0E0],"split_indices":[23,24,20,83,0,0,19,0,0,84,23,19,77,7,58,0,0,0,0,0,0,0,0],"split_type":[0,0,0,0,0,0,0,0,0,0,0,0,0,0,0,0,0,0,0,0,0,0,0],"sum_hessian":[1.917574E2,4.184392E1,1.4991348E2,2.3162933E1,1.8680988E1,1.3855023E1,1.3605846E2,1.2759271E1,1.0403662E1,6.2909798E1,7.314866E1,2.6428728E1,3.648107E1,4.609225E1,2.705641E1,1.2099362E1,1.4329365E1,2.2305326E1,1.4175744E1,2.5129435E1,2.0962816E1,1.6034134E1,1.1022278E1],"tree_param":{"num_deleted":"0","num_feature":"86","num_nodes":"23","size_leaf_vector":"1"}},{"base_weights":[1.5766315E-2,-7.317021E-2,4.2503902E-1,-4.5538183E-2,4.188038E-2,5.3766754E-2,8.0981046E-2,1.5892446E-1,-5.491514E-1,-2.6083458E-2,3.4527205E-2,5.999603E-1,1.502855E-2,4.2426563E-3,-5.445683E-2,-6.193766E-3,5.420611E-2,-3.5402037E-2,1.0665885E-2],"categories":[],"categories_nodes":[],"categories_segments":[],"categories_sizes":[],"default_left":[0,0,0,0,0,0,0,0,0,0,0,0,0,0,0,0,0,0,0],"id":60,"left_children":[1,3,5,-1,7,-1,9,11,13,-1,-1,15,17,-1,-1,-1,-1,-1,-1],"loss_changes":[6.8076878E0,1.4849466E1,7.2722716E0,0E0,9.400628E0,0E0,8.837751E0,7.14935E0,7.872113E0,0E0,0E0,9.969403E0,1.2571699E1,0E0,0E0,0E0,0E0,0E0,0E0],"parents":[2147483647,0,0,1,1,2,2,4,4,6,6,7,7,8,8,11,11,12,12],"right_children":[2,4,6,-1,8,-1,10,12,14,-1,-1,16,18,-1,-1,-1,-1,-1,-1],"split_conditions":[1.4328326E0,-1.0348611E-2,-1.264911E-3,-4.5538183E-2,1.9933763E0,5.3766754E-2,7.196255E-1,-4.1116006E-3,3.05882E-1,-2.6083458E-2,3.4527205E-2,4.004634E-1,-2.7951316E-4,4.2426563E-3,-5.445683E-2,-6.193766E-3,5.420611E-2,-3.5402037E-2,1.0665885E-2],"split_indices":[52,16,32,0,59,0,70,20,70,0,0,58,36,0,0,0,0,0,0],"split_type":[0,0,0,0,0,0,0,0,0,0,0,0,0,0,0,0,0,0,0],"sum_hessian":[1.8420692E2,1.517976E2,3.2409317E1,1.7602264E1,1.3419534E2,1.0378001E1,2.2031315E1,1.127645E2,2.1430841E1,1.1068489E1,1.0962827E1,2.6789936E1,8.597456E1,1.0159773E1,1.1271069E1,1.0952798E1,1.5837139E1,1.7841125E1,6.813344E1],"tree_param":{"num_deleted":"0","num_feature":"86","num_nodes":"19","size_leaf_vector":"1"}},{"base_weights":[4.257644E-2,-2.9723331E-2,1.1368782E-1,-2.5788355E-1,2.1312289E-1,2.1488717E-2,-6.0802436E-1,2.863313E-1,-1.9443756E-2,-4.6483498E-2,-1.08908275E-2,1.7354646E-1,4.2385053E-2,-2.924271E-2,1.5348476E-2],"categories":[],"categories_nodes":[],"categories_segments":[],"categories_sizes":[],"default_left":[0,0,0,0,0,0,0,0,0,0,0,0,0,0,0],"id":61,"left_children":[1,-1,3,5,7,-1,9,11,-1,-1,-1,13,-1,-1,-1],"loss_changes":[8.564047E0,0E0,6.355793E0,9.011624E0,6.067874E0,0E0,2.7629929E0,7.4392223E0,0E0,0E0,0E0,1.0525952E1,0E0,0E0,0E0],"parents":[2147483647,0,0,2,2,3,3,4,4,6,6,7,7,11,11],"right_children":[2,-1,4,6,8,-1,10,12,-1,-1,-1,14,-1,-1,-1],"split_conditions":[3.63636E-2,-2.9723331E-2,5.586592E-3,-2.8919486E-2,1.5803915E0,2.1488717E-2,5.8227813E-1,8.8391364E-1,-1.9443756E-2,-4.6483498E-2,-1.08908275E-2,3.3395535E1,4.2385053E-2,-2.924271E-2,1.5348476E-2],"split_indices":[12,0,9,44,60,0,64,60,0,0,0,39,0,0,0],"split_type":[0,0,0,0,0,0,0,0,0,0,0,0,0,0,0],"sum_hessian":[1.87617E2,1.7959852E1,1.6965715E2,3.526793E1,1.3438922E2,1.1725885E1,2.3542046E1,1.2043385E2,1.3955369E1,1.2006442E1,1.1535603E1,1.0152395E2,1.8909903E1,1.4570375E1,8.6953575E1],"tree_param":{"num_deleted":"0","num_feature":"86","num_nodes":"15","size_leaf_vector":"1"}},{"base_weights":[2.4275133E-2,8.588393E-2,-3.120187E-2,4.234796E-3,3.8192842E-2,-4.379556E-2,7.945259E-2,2.2743398E-1,-2.2547626E-1,4.9130498E-3,3.984268E-2,-3.3836205E-2,5.4850355E-3],"categories":[],"categories_nodes":[],"categories_segments":[],"categories_sizes":[],"default_left":[0,0,0,0,0,0,0,0,0,0,0,0,0],"id":62,"left_children":[1,3,-1,5,-1,-1,7,9,11,-1,-1,-1,-1],"loss_changes":[7.378869E0,9.315701E0,0E0,1.0094229E1,0E0,0E0,6.4424253E0,6.898797E0,7.1726227E0,0E0,0E0,0E0,0E0],"parents":[2147483647,0,0,1,1,3,3,6,6,7,7,8,8],"right_children":[2,4,-1,6,-1,-1,8,10,12,-1,-1,-1,-1],"split_conditions":[1.5090111E0,8.8391364E-1,-3.120187E-2,7.53968E-2,