tree
version=v4
num_class=1
num_tree_per_iteration=1
label_index=0
max_feature_idx=85
objective=binary sigmoid:1
feature_names=Column_0 Column_1 Column_2 Column_3 Column_4 Column_5 Column_6 Column_7 Column_8 Column_9 Column_10 Column_11 Column_12 Column_13 Column_14 Column_15 Column_16 Column_17 Column_18 Column_19 Column_20 Column_21 Column_22 Column_23 Column_24 Column_25 Column_26 Column_27 Column_28 Column_29 Column_30 Column_31 Column_32 Column_33 Column_34 Column_35 Column_36 Column_37 Column_38 Column_39 Column_40 Column_41 Column_42 Column_43 Column_44 Column_45 Column_46 Column_47 Column_48 Column_49 Column_50 Column_51 Column_52 Column_53 Column_54 Column_55 Column_56 Column_57 Column_58 Column_59 Column_60 Column_61 Column_62 Column_63 Column_64 Column_65 Column_66 Column_67 Column_68 Column_69 Column_70 Column_71 Column_72 Column_73 Column_74 Column_75 Column_76 Column_77 Column_78 Column_79 Column_80 Column_81 Column_82 Column_83 Column_84 Column_85
feature_infos=[-0.078832493317913047:0.029691092853683002] [-0.078347997184404605:0.04408709851355197] [-0.076407661867903695:0.046091107200267087] [-0.068118974725926137:0.042968449567098582] [-0.075193037644725222:0.047658400674230716] [0:0.075805277892824457] [0:0.016026455964730121] [0:0.017195446422972934] [0:1] [0:0.093000724315797381] none [0:0.99999973958340116] [0:0.99999824561711292] [0:5] [0:5] [-0.059959623098004067:0.02694268216271456] [-0.064774671843377374:0.03130658456085067] [-0.068404885786707337:0.039503356673155965] [-0.061129914893247483:0.044051934952163752] [-0.063850932682785633:0.047126215792404835] [-0.027958766896820086:0.023658494771129579] [-0.014452203109413642:0.013195950831525582] [-0.010408557868568202:0.0073042782201002687] [-0.0048608546414371512:0.0028543261956071042] [-0.003972555004145728:0.0021281922884326399] [0:1] [-0.063850932682785633:0.047126215792404835] [-0.050265185821848246:0.019808093978618491] [-0.060106671984717863:0.026064226425247972] [-0.064612852138026478:0.033539233313307992] [-0.014449288479300484:0.010072174499499362] [-0.012845695931862832:0.0086026058667364163] [-0.0062476988576417565:0.0061302545823480594] [-1.9341942875890581e-05:8.7214188303755871e-06] [0:1] [0:1] [-0.010424805428731296:0.0092758597184087188] [-4.1588909050528072e-05:1.7555401043483108e-05] [12.160027916284193:81.272113080926331] [3.6584136514925518:92.495329182309064] [-39.107349680191426:25.341376031774786] [-0.75679944167431612:0.62544226161852667] [0:1] [0:1] [-0.09882270447409125:0.012314459004849398] [-0.03586192527012888:0.07389201760723374] [-0.51330257450820327:1.4287437898727211] [0.0044222848817796739:0.091547204943268387] [0:1] [0.00057270842364820062:0.022228607237505936] [0.00043892412165122017:0.032843106624435611] [0.44364794490153114:1.6184714132052842] [0:5.6256436476933258] [0:0.040940992040882369] [0.00027886892815070195:0.029235129863115744] [0.00099901474502693956:0.020458087500361651] [0:1] [0:4.9377248042880142] [0:9.5359149459544295] [-1:10049.714285714286] [-1.8508790081968085:2.8455579840515424] [0:1] [0:0.99999916666736122] [0:0.99999942528768659] [0:0.99999951923100039] [0:0.99999951923100039] [-0.085111505991093073:-2.4606298554274986e-08] [-3.0740853640409682e-08:0.082242961755862209] [-0.0802603258553789:-2.4545900090267025e-08] [-3.0740853640409682e-08:0.067022668437312083] [0:0.99999951456334235] [0:0.99999903907438648] [-0.6666618803764186:0.66666250002604188] [0:1] [0:1] [-0.99999938650344378:0] [-4.4389423428505168:3.2297115435419204] [-4.9805929251901135:4.101061602476971] [-0.07356154406409332:0.047169811320754818] [-0.065850673194614462:0.043904958677685846] [-0.072435585804569658:0.048812320542939158] [-0.065850673194614462:0.043904958677685846] [-0.072435585804569658:0.048812320542939158] [0:1] [0:0.93220338983050843] [0:1]
tree_sizes=3053

Tree=0
num_leaves=28
num_cat=0
split_feature=49 41 7 2 21 50 84 63 27 83 69 9 85 79 15 59 4 33 2 15 59 77 24 47 2 50 85
split_gain=2030.51 571.823 573.493 562.901 407.249 369.176 331.186 309.934 256.643 218.08 229.836 216.941 350.307 213.14 333.308 190.823 180.4 169.971 148.464 85.1515 77.1854 75.6231 184.755 55.2501 50.8431 30.7504 8.39333
threshold=0.0031375914638040003 0.16402953200711404 0.0017553391119816298 0.0013653749609724144 -5.7429182745871714e-05 0.0070514915660711613 0.29661016949152547 0.92637475216117948 0.0031035500535131493 0.89130434782608703 0.004254122420707219 0.0045763833487915276 0.25000000000000006 0.0005718370381343486 -6.030404571211178e-05 -1.0000000180025095e-35 -0.0056466832760545321 -3.0816340282864368e-07 0.0035675201435257514 0.0015571414220045823 -0.87719145678313304 -0.53141856234473506 -0.00044824741162535758 0.038953758591483957 0.0071405020520387023 0.0057649878798484147 0.75000000000000011
decision_type=2 2 2 2 2 2 2 2 2 2 2 2 2 2 2 2 2 2 2 2 2 2 2 2 2 2 2
left_child=3 2 4 13 8 -6 7 18 -2 10 -8 12 23 14 15 -1 -16 -14 -5 -15 -13 22 -4 -3 -9 -23 -22
right_child=1 11 21 6 5 -7 9 24 -10 -11 -12 20 17 19 16 -17 -18 -19 -20 -21 26 25 -24 -25 -26 -27 -28
leaf_value=-2.5024186051433466 -2.2803841882692844 -2.7312546928417167 -2.189654055909291 -2.0872587694431135 -2.5965198098008591 -2.1710799486481855 -2.3639762658682049 -2.7298577892479501 -2.730149021039701 -2.2435118786526806 -2.6531408720306553 -2.7042702697767562 -2.4580665000143971 -2.7369603835184826 -2.7262721381997195 -2.698424381763771 -2.2314522452537218 -2.0810228830811832 -2.4080057728494912 -2.4151709177574938 -2.034399171101017 -2.2129828419105255 -2.7268366026280728 -2.4309459108077736 -2.4309459108077736 -2.063885032448693 -2.2117515079351202
leaf_weight=36.813593208789825 90.714561447501183 3.7054690271616009 4.8801815584301949 18.66391599923373 25.419466674327854 5.9956370964646331 11.29468669742346 3.0480471029877654 3.1675783619284621 8.4259364828467351 16.873490296304226 0.41835940629243751 4.8008331432938638 16.794141881167892 2.0320314019918433 18.447488084435463 12.549256280064581 15.138252496719355 6.2151168286800376 1.8326430916786183 46.370498925447464 17.668500356376171 2.15156266093254 1.9521743506193159 1.9521743506193159 26.69107586145401 7.8880458176136008
leaf_count=452 739 62 27 80 357 32 107 51 53 59 255 7 53 281 34 295 87 62 63 17 161 118 36 19 19 105 50
internal_value=-2.32095 -2.23466 -2.28764 -2.46508 -2.34812 -2.50838 -2.35531 -2.23125 -2.29577 -2.46149 -2.53344 -2.12128 -2.26034 -2.54901 -2.50918 -2.56747 -2.29981 -2.16378 -2.16015 -2.6988 -2.06071 -2.14494 -2.34652 -2.6162 -2.60155 -2.11723 -2.05553
internal_weight=411.905 256.962 176.689 154.943 125.297 31.4151 66.4734 29.8793 93.8821 36.5941 28.1682 80.2736 25.5967 88.4692 69.8424 55.2611 14.5813 19.9391 24.879 18.6268 54.6769 51.3913 7.03174 5.65764 5.00022 44.3596 54.2585
internal_count=3681 1881 1467 1800 1181 389 634 213 792 421 362 414 196 1166 868 747 121 115 143 298 218 286 63 81 70 223 211
is_linear=0
shrinkage=1


end of trees

feature_importances:
Column_2=3
Column_15=2
Column_50=2
Column_59=2
Column_85=2
Column_4=1
Column_7=1
Column_9=1
Column_21=1
Column_24=1
Column_27=1
Column_33=1
Column_41=1
Column_47=1
Column_49=1
Column_63=1
Column_69=1
Column_77=1
Column_79=1
Column_83=1
Column_84=1

parameters:
[boosting: gbdt]
[objective: binary]
[metric: binary_logloss]
[tree_learner: serial]
[device_type: cpu]
[data_sample_strategy: bagging]
[data: ]
[valid: ]
[num_iterations: 500]
[learning_rate: 0.05]
[num_leaves: 31]
[num_threads: 8]
[seed: 42]
[deterministic: 0]
[force_col_wise: 0]
[force_row_wise: 0]
[histogram_pool_size: -1]
[max_depth: 5]
[min_data_in_leaf: 30]
[min_sum_hessian_in_leaf: 0.001]
[bagging_fraction: 0.8]
[pos_bagging_fraction: 1]
[neg_bagging_fraction: 1]
[bagging_freq: 0]
[bagging_seed: 400]
[bagging_by_query: 0]
[feature_fraction: 0.8]
[feature_fraction_bynode: 1]
[feature_fraction_seed: 30056]
[extra_trees: 0]
[extra_seed: 12879]
[early_stopping_round: 0]
[early_stopping_min_delta: 0]
[first_metric_only: 0]
[max_delta_step: 0]
[lambda_l1: 0.1]
[lambda_l2: 0.5]
[linear_lambda: 0]
[min_gain_to_split: 0]
[drop_rate: 0.1]
[max_drop: 50]
[skip_drop: 0.5]
[xgboost_dart_mode: 0]
[uniform_drop: 0]
[drop_seed: 17869]
[top_rate: 0.2]
[other_rate: 0.1]
[min_data_per_group: 100]
[max_cat_threshold: 32]
[cat_l2: 10]
[cat_smooth: 10]
[max_cat_to_onehot: 4]
[top_k: 20]
[monotone_constraints: ]
[monotone_constraints_method: basic]
[monotone_penalty: 0]
[feature_contri: ]
[forcedsplits_filename: ]
[refit_decay_rate: 0.9]
[cegb_tradeoff: 1]
[cegb_penalty_split: 0]
[cegb_penalty_feature_lazy: ]
[cegb_penalty_feature_coupled: ]
[path_smooth: 0]
[interaction_constraints: ]
[verbosity: -1]
[saved_feature_importance_type: 0]
[use_quantized_grad: 0]
[num_grad_quant_bins: 4]
[quant_train_renew_leaf: 0]
[stochastic_rounding: 1]
[linear_tree: 0]
[max_bin: 255]
[max_bin_by_feature: ]
[min_data_in_bin: 3]
[bin_construct_sample_cnt: 200000]
[data_random_seed: 175]
[is_enable_sparse: 1]
[enable_bundle: 1]
[use_missing: 1]
[zero_as_missing: 0]
[feature_pre_filter: 1]
[pre_partition: 0]
[two_round: 0]
[header: 0]
[label_column: ]
[weight_column: ]
[group_column: ]
[ignore_column: ]
[categorical_feature: ]
[forcedbins_filename: ]
[precise_float_parser: 0]
[parser_config_file: ]
[objective_seed: 16083]
[num_class: 1]
[is_unbalance: 0]
[scale_pos_weight: 14.6638]
[sigmoid: 1]
[boost_from_average: 1]
[reg_sqrt: 0]
[alpha: 0.9]
[fair_c: 1]
[poisson_max_delta_step: 0.7]
[tweedie_variance_power: 1.5]
[lambdarank_truncation_level: 30]
[lambdarank_norm: 1]
[label_gain: ]
[lambdarank_position_bias_regularization: 0]
[eval_at: ]
[multi_error_top_k: 1]
[auc_mu_weights: ]
[num_machines: 1]
[local_listen_port: 12400]
[time_out: 120]
[machine_list_filename: ]
[machines: ]
[gpu_platform_id: -1]
[gpu_device_id: -1]
[gpu_use_dp: 0]
[num_gpu: 1]

end of parameters

pandas_categorical:null
