{"learner":{"attributes":{"best_iteration":"459","best_score":"0.16351823638363241","scikit_learn":"{\"_estimator_type\": \"classifier\"}"},"feature_names":[],"feature_types":[],"gradient_booster":{"model":{"cats":{"enc":[],"feature_segments":[],"sorted_idx":[]},"gbtree_model_param":{"num_parallel_tree":"1","num_trees":"500"},"iteration_indptr":[0,1,2,3,4,5,6,7,8,9,10,11,12,13,14,15,16,17,18,19,20,21,22,23,24,25,26,27,28,29,30,31,32,33,34,35,36,37,38,39,40,41,42,43,44,45,46,47,48,49,50,51,52,53,54,55,56,57,58,59,60,61,62,63,64,65,66,67,68,69,70,71,72,73,74,75,76,77,78,79,80,81,82,83,84,85,86,87,88,89,90,91,92,93,94,95,96,97,98,99,100,101,102,103,104,105,106,107,108,109,110,111,112,113,114,115,116,117,118,119,120,121,122,123,124,125,126,127,128,129,130,131,132,133,134,135,136,137,138,139,140,141,142,143,144,145,146,147,148,149,150,151,152,153,154,155,156,157,158,159,160,161,162,163,164,165,166,167,168,169,170,171,172,173,174,175,176,177,178,179,180,181,182,183,184,185,186,187,188,189,190,191,192,193,194,195,196,197,198,199,200,201,202,203,204,205,206,207,208,209,210,211,212,213,214,215,216,217,218,219,220,221,222,223,224,225,226,227,228,229,230,231,232,233,234,235,236,237,238,239,240,241,242,243,244,245,246,247,248,249,250,251,252,253,254,255,256,257,258,259,260,261,262,263,264,265,266,267,268,269,270,271,272,273,274,275,276,277,278,279,280,281,282,283,284,285,286,287,288,289,290,291,292,293,294,295,296,297,298,299,300,301,302,303,304,305,306,307,308,309,310,311,312,313,314,315,316,317,318,319,320,321,322,323,324,325,326,327,328,329,330,331,332,333,334,335,336,337,338,339,340,341,342,343,344,345,346,347,348,349,350,351,352,353,354,355,356,357,358,359,360,361,362,363,364,365,366,367,368,369,370,371,372,373,374,375,376,377,378,379,380,381,382,383,384,385,386,387,388,389,390,391,392,393,394,395,396,397,398,399,400,401,402,403,404,405,406,407,408,409,410,411,412,413,414,415,416,417,418,419,420,421,422,423,424,425,426,427,428,429,430,431,432,433,434,435,436,437,438,439,440,441,442,443,444,445,446,447,448,449,450,451,452,453,454,455,456,457,458,459,460,461,462,463,464,465,466,467,468,469,470,471,472,473,474,475,476,477,478,479,480,481,482,483,484,485,486,487,488,489,490,491,492,493,494,495,496,497,498,499,500],"tree_info":[0,0,0,0,0,0,0,0,0,0,0,0,0,0,0,0,0,0,0,0,0,0,0,0,0,0,0,0,0,0,0,0,0,0,0,0,0,0,0,0,0,0,0,0,0,0,0,0,0,0,0,0,0,0,0,0,0,0,0,0,0,0,0,0,0,0,0,0,0,0,0,0,0,0,0,0,0,0,0,0,0,0,0,0,0,0,0,0,0,0,0,0,0,0,0,0,0,0,0,0,0,0,0,0,0,0,0,0,0,0,0,0,0,0,0,0,0,0,0,0,0,0,0,0,0,0,0,0,0,0,0,0,0,0,0,0,0,0,0,0,0,0,0,0,0,0,0,0,0,0,0,0,0,0,0,0,0,0,0,0,0,0,0,0,0,0,0,0,0,0,0,0,0,0,0,0,0,0,0,0,0,0,0,0,0,0,0,0,0,0,0,0,0,0,0,0,0,0,0,0,0,0,0,0,0,0,0,0,0,0,0,0,0,0,0,0,0,0,0,0,0,0,0,0,0,0,0,0,0,0,0,0,0,0,0,0,0,0,0,0,0,0,0,0,0,0,0,0,0,0,0,0,0,0,0,0,0,0,0,0,0,0,0,0,0,0,0,0,0,0,0,0,0,0,0,0,0,0,0,0,0,0,0,0,0,0,0,0,0,0,0,0,0,0,0,0,0,0,0,0,0,0,0,0,0,0,0,0,0,0,0,0,0,0,0,0,0,0,0,0,0,0,0,0,0,0,0,0,0,0,0,0,0,0,0,0,0,0,0,0,0,0,0,0,0,0,0,0,0,0,0,0,0,0,0,0,0,0,0,0,0,0,0,0,0,0,0,0,0,0,0,0,0,0,0,0,0,0,0,0,0,0,0,0,0,0,0,0,0,0,0,0,0,0,0,0,0,0,0,0,0,0,0,0,0,0,0,0,0,0,0,0,0,0,0,0,0,0,0,0,0,0,0,0,0,0,0,0,0,0,0,0,0,0,0,0,0,0,0,0,0,0,0,0,0,0,0,0,0,0,0,0,0,0,0,0,0,0,0,0,0,0,0,0,0,0,0,0,0,0,0,0,0,0,0,0,0,0,0,0,0,0,0,0,0,0,0,0,0,0,0,0,0,0,0,0,0,0,0,0],"trees":[{"base_weights":[3.1165494E-2,-7.2467834E-1,6.925225E-1,-5.629785E-1,-1.5273439E0,7.956145E-1,-7.5783104E-1,-1.0024376E0,-2.983831E-1,-9.941748E-2,-4.508888E-1,4.5945272E-1,1.1116853E0,2.0083483E-1,-9.799043E-2,-5.803844E-1,-1.7193002E0,-1.7768897E-1,-9.806452E-2,5.923034E-1,-9.67939E-2,2.2513217E-1,1.2307721E0,6.587693E-1,1.2653688E0,-9.3731344E-2,8.8794994E-1,-9.784616E-2,-1.586147E-2,-9.928205E-2,-2.4156915E-2,1.415871E-2,-2.8652463E-2,6.1773844E-2,-2.654141E-2,4.3090403E-2,-7.317255E-3,4.137599E-2,8.115481E-2,4.6991553E-2,-9.517241E-2,8.394212E-2,5.7400625E-2,8.947297E-2,1.5399178E-2],"categories":[],"categories_nodes":[],"categories_segments":[],"categories_sizes":[],"default_left":[0,0,0,0,0,0,0,0,0,0,0,0,0,0,0,0,0,0,0,0,0,0,0,0,0,0,0,0,0,0,0,0,0,0,0,0,0,0,0,0,0,0,0,0,0],"id":0,"left_children":[1,3,5,7,9,11,13,15,17,-1,19,21,23,25,-1,27,29,31,-1,33,-1,35,37,39,41,-1,43,-1,-1,-1,-1,-1,-1,-1,-1,-1,-1,-1,-1,-1,-1,-1,-1,-1,-1],"loss_changes":[1.6523826E3,1.9913751E2,2.642121E2,1.4905597E2,1.2687079E2,1.7428125E2,1.359035E2,1.447771E2,1.6080289E2,0E0,1.2320695E2,1.4412646E2,5.798474E1,9.596872E1,0E0,1.09759834E2,5.7475098E1,1.3698315E2,0E0,3.4645924E1,0E0,1.4559258E2,2.7842865E1,1.5799167E2,2.8444519E1,0E0,2.5615303E1,0E0,0E0,0E0,0E0,0E0,0E0,0E0,0E0,0E0,0E0,0E0,0E0,0E0,0E0,0E0,0E0,0E0,0E0],"parents":[2147483647,0,0,1,1,2,2,3,3,4,4,5,5,6,6,7,7,8,8,10,10,11,11,12,12,13,13,15,15,16,16,17,17,19,19,21,21,22,22,23,23,24,24,26,26],"right_children":[2,4,6,8,10,12,14,16,18,-1,20,22,24,26,-1,28,30,32,-1,34,-1,36,38,40,42,-1,44,-1,-1,-1,-1,-1,-1,-1,-1,-1,-1,-1,-1,-1,-1,-1,-1,-1,-1],"split_conditions":[1.2430267E-3,8.2608694E-1,7.3913044E-1,4.0740514E-1,1.3782018E-3,2.1642712E-3,1.38809E-3,-1.0298834E-3,3.514942E-3,-9.941748E-2,-4.648042E-1,7.94285E-3,2.5839505E-3,8.333333E-1,-9.799043E-2,-3.3112386E-1,3.5955942E-1,-3.9404634E-4,-9.806452E-2,5.9133646E-4,-9.67939E-2,-1.4349747E-3,8.333333E-1,3.3333173E-1,-2.0371499E-2,-9.3731344E-2,-3.6225193E-3,-9.784616E-2,-1.586147E-2,-9.928205E-2,-2.4156915E-2,1.415871E-2,-2.8652463E-2,6.1773844E-2,-2.654141E-2,4.3090403E-2,-7.317255E-3,4.137599E-2,8.115481E-2,4.6991553E-2,-9.517241E-2,8.394212E-2,5.7400625E-2,8.947297E-2,1.5399178E-2],"split_indices":[49,83,83,71,54,49,69,28,2,0,60,18,69,85,0,77,71,19,0,69,0,31,85,12,19,0,30,0,0,0,0,0,0,0,0,0,0,0,0,0,0,0,0,0,0],"split_type":[0,0,0,0,0,0,0,0,0,0,0,0,0,0,0,0,0,0,0,0,0,0,0,0,0,0,0,0,0,0,0,0,0,0,0,0,0,0,0,0,0,0,0,0,0],"sum_hessian":[3.303544E3,1.5415308E3,1.7620132E3,1.2845746E3,2.5695615E2,1.6455658E3,1.1644737E2,4.8157455E2,8.03E2,1.7925E2,7.770614E1,7.987807E2,8.467851E2,6.519737E1,5.125E1,3.043421E2,1.7723245E2,7.4975E2,5.325E1,4.595614E1,3.175E1,6.1375E2,1.850307E2,2.1603947E2,6.307456E2,1.575E1,4.944737E1,4.775E1,2.565921E2,1.4525E2,3.1982456E1,3.4621054E2,4.035395E2,2.9214912E1,1.6741228E1,2.2576315E2,3.8798685E2,9.290351E1,9.21272E1,1.9528947E2,2.075E1,1.363158E2,4.9442984E2,1.8473684E1,3.0973684E1],"tree_param":{"num_deleted":"0","num_feature":"86","num_nodes":"45","size_leaf_vector":"1"}},{"base_weights":[1.9400968E-3,-7.2045267E-1,6.4076686E-1,-5.2906275E-1,-1.3862473E0,3.5869384E-1,1.1156003E0,-5.959855E-1,1.1108141E0,1.201012E-1,-1.5556641E0,4.3733296E-1,-8.871329E-1,3.657049E-1,1.2333463E0,-4.9004474E-1,-9.5840216E-2,-6.711586E-3,1.6116188E0,-9.0113886E-2,6.351E-2,-1.6876633E0,-9.060038E-2,-9.1356534E-1,5.001325E-1,3.225482E-1,-9.680532E-2,-9.533899E-2,8.7556916E-1,1.6324545E0,1.1179154E0,2.6488453E-6,-3.6468405E-2,9.5635414E-2,5.735088E-2,-3.1603765E-2,-9.213058E-2,-8.918631E-2,7.562258E-2,2.8239131E-2,-9.609704E-2,2.684289E-2,-9.366857E-2,-2.835103E-2,6.9841914E-2,-1.825195E-2,5.9234854E-2,6.9072484E-3,8.861285E-2,-6.876573E-3,5.9788E-2],"categories":[],"categories_nodes":[],"categories_segments":[],"categories_sizes":[],"default_left":[0,0,0,0,0,0,0,0,0,0,0,0,0,0,0,0,0,0,0,0,0,0,0,0,0,0,0,0,0,0,0,0,0,0,0,0,0,0,0,0,0,0,0,0,0,0,0,0,0,0,0],"id":1,"left_children":[1,3,5,7,9,11,13,15,17,19,21,23,25,27,29,31,-1,-1,33,-1,-1,35,37,39,41,43,-1,-1,45,47,49,-1,-1,-1,-1,-1,-1,-1,-1,-1,-1,-1,-1,-1,-1,-1,-1,-1,-1,-1,-1],"loss_changes":[1.5194869E3,1.9597095E2,2.335025E2,1.3251367E2,8.818805E1,1.07899536E2,5.6836E1,1.6050583E2,2.9929554E1,8.110766E1,5.9540955E1,8.808537E1,8.382205E1,1.0564847E2,2.3780945E1,1.2570471E2,0E0,0E0,2.2491455E0,0E0,0E0,4.5020935E1,7.521426E1,7.007679E1,8.701257E1,3.069532E1,0E0,0E0,2.892834E1,2.5398071E1,4.318524E1,0E0,0E0,0E0,0E0,0E0,0E0,0E0,0E0,0E0,0E0,0E0,0E0,0E0,0E0,0E0,0E0,0E0,0E0,0E0,0E0],"parents":[2147483647,0,0,1,1,2,2,3,3,4,4,5,5,6,6,7,7,8,8,9,9,10,10,11,11,12,12,13,13,14,14,15,15,18,18,21,21,22,22,23,23,24,24,25,25,28,28,29,29,30,30],"right_children":[2,4,6,8,10,12,14,16,18,20,22,24,26,28,30,32,-1,-1,34,-1,-1,36,38,40,42,44,-1,-1,46,48,50,-1,-1,-1,-1,-1,-1,-1,-1,-1,-1,-1,-1,-1,-1,-1,-1,-1,-1,-1,-1],"split_conditions":[1.2430267E-3,8.79649E-1,1.8692233E-2,6.8473106E-4,-1.8860557E-3,8.9830506E-1,-5.9924126E-1,1.1001249E-3,3.4577937E-3,9.1158485E-1,9.9999E-1,-2.1902379E-3,-4.541954E-3,2.7678551E-2,-9.937605E-4,-5.9323287E-1,-9.5840216E-2,-6.711586E-3,-1.5444019E-3,-9.0113886E-2,6.351E-2,3.4218566E-3,3.615329E-4,-5.7471067E-2,-2.7404768E-8,-5.8822474E-3,-9.680532E-2,-9.533899E-2,-3.4359784E-4,-5.7306746E-3,-2.7514512E-3,2.6488453E-6,-3.6468405E-2,9.5635414E-2,5.735088E-2,-3.1603765E-2,-9.213058E-2,-8.918631E-2,7.562258E-2,2.8239131E-2,-9.609704E-2,2.684289E-2,-9.366857E-2,-2.835103E-2,6.9841914E-2,-1.825195E-2,5.9234854E-2,6.9072484E-3,8.861285E-2,-6.876573E-3,5.9788E-2],"split_indices":[49,52,47,24,31,84,60,27,18,61,11,21,18,57,24,60,0,0,3,0,0,47,21,72,68,18,0,0,36,3,31,0,0,0,0,0,0,0,0,0,0,0,0,0,0,0,0,0,0,0,0],"split_type":[0,0,0,0,0,0,0,0,0,0,0,0,0,0,0,0,0,0,0,0,0,0,0,0,0,0,0,0,0,0,0,0,0,0,0,0,0,0,0,0,0,0,0,0,0,0,0,0,0,0,0],"sum_hessian":[3.2906282E3,1.544174E3,1.7464541E3,1.2009054E3,3.432685E2,1.0968441E3,6.4961E2,1.1544888E3,4.641668E1,3.467357E1,3.085949E2,1.0324059E3,6.443832E1,8.882979E1,5.607802E2,1.0701041E3,8.438459E1,1.3467512E1,3.2949165E1,1.27343E1,2.193927E1,2.8288718E2,2.5707747E1,4.5189194E1,9.872167E2,3.0204046E1,3.423427E1,1.5740017E1,7.3089775E1,1.22662E2,4.381182E2,3.5129254E2,7.1881165E2,1.7970848E1,1.4978317E1,3.6942238E1,2.4594493E2,1.2478144E1,1.3229604E1,1.8462553E1,2.672664E1,9.7297766E2,1.4238967E1,1.6729906E1,1.3474139E1,1.447871E1,5.8611065E1,1.0725321E1,1.1193668E2,2.5459917E1,4.126583E2],"tree_param":{"num_deleted":"0","num_feature":"86","num_nodes":"51","size_leaf_vector":"1"}},{"base_weights":[6.562452E-3,-6.441927E-1,6.084234E-1,-4.692782E-1,-1.5795251E0,7.022782E-1,-6.994591E-1,-1.0213611E0,-2.93971E-1,-5.7081234E-1,-9.311732E-2,4.7496933E-1,1.1525946E0,6.521257E-1,-9.4542E-2,6.0771633E-2,-1.1934733E0,1.07452385E-2,-7.424658E-1,-9.11707E-2,7.1289696E-2,-4.3075377E-1,6.8053967E-1,1.2825369E0,1.8542026E-1,1.6035223E0,-8.0750734E-1,2.3247495E-2,-7.243769E-2,-9.112976E-2,4.390649E-3,-1.5932066E-2,-9.469213E-2,6.954325E-2,-4.1264676E-2,6.646033E-2,2.6369795E-2,2.7293563E-2,6.889572E-2,-6.0227003E-2,6.5674685E-2,5.8976002E-2,9.268744E-2,1.5028787E-2,-9.0390585E-2],"categories":[],"categories_nodes":[],"categories_segments":[],"categories_sizes":[],"default_left":[0,0,0,0,0,0,0,0,0,0,0,0,0,0,0,0,0,0,0,0,0,0,0,0,0,0,0,0,0,0,0,0,0,0,0,0,0,0,0,0,0,0,0,0,0],"id":2,"left_children":[1,3,5,7,9,11,13,15,17,19,-1,21,23,25,-1,-1,27,29,31,-1,-1,33,35,37,39,41,43,-1,-1,-1,-1,-1,-1,-1,-1,-1,-1,-1,-1,-1,-1,-1,-1,-1,-1],"loss_changes":[1.2781049E3,2.5556317E2,2.0860388E2,1.2755316E2,6.9016174E1,1.6127124E2,1.8484042E2,1.2393436E2,1.3745729E2,1.4143729E2,0E0,1.9646344E2,6.622217E1,7.648659E1,0E0,0E0,1.2607733E2,8.4676796E1,1.9769234E2,0E0,0E0,1.4152284E2,8.445303E1,3.1864197E1,1.0199292E2,1.0242157E0,2.5042793E1,0E0,0E0,0E0,0E0,0E0,0E0,0E0,0E0,0E0,0E0,0E0,0E0,0E0,0E0,0E0,0E0,0E0,0E0],"parents":[2147483647,0,0,1,1,2,2,3,3,4,4,5,5,6,6,7,7,8,8,9,9,11,11,12,12,13,13,16,16,17,17,18,18,21,21,22,22,23,23,24,24,25,25,26,26],"right_children":[2,4,6,8,10,12,14,16,18,20,-1,22,24,26,-1,-1,28,30,32,-1,-1,34,36,38,40,42,44,-1,-1,-1,-1,-1,-1,-1,-1,-1,-1,-1,-1,-1,-1,-1,-1,-1,-1],"split_conditions":[1.2766538E-3,8.2608694E-1,7.3913044E-1,2.881356E-1,-2.959101E-7,1.3202291E-2,7.6841697E-4,-1.0696761E-2,1E0,-3.32096E-7,-9.311732E-2,2.6086956E-1,1.4810572E0,-1.5316068E-3,-9.4542E-2,6.0771633E-2,-7.8789496E-1,-2.2471576E0,7.627119E-1,-9.11707E-2,7.1289696E-2,-1.8014418E-3,8.4745765E-2,-6.3390326E-1,-2.7762354E-8,-2.4888867E-3,-3.1451061E-3,2.3247495E-2,-7.243769E-2,-9.112976E-2,4.390649E-3,-1.5932066E-2,-9.469213E-2,6.954325E-2,-4.1264676E-2,6.646033E-2,2.6369795E-2,2.7293563E-2,6.889572E-2,-6.0227003E-2,6.5674685E-2,5.8976002E-2,9.268744E-2,1.5028787E-2,-9.0390585E-2],"split_indices":[49,83,83,84,33,45,69,66,25,33,0,83,57,31,0,0,60,76,84,0,0,36,84,60,68,31,4,0,0,0,0,0,0,0,0,0,0,0,0,0,0,0,0,0,0],"split_type":[0,0,0,0,0,0,0,0,0,0,0,0,0,0,0,0,0,0,0,0,0,0,0,0,0,0,0,0,0,0,0,0,0,0,0,0,0,0,0,0,0,0,0,0,0],"sum_hessian":[3.2612761E3,1.5668748E3,1.6944015E3,1.3213757E3,2.4549896E2,1.5814543E3,1.1294705E2,3.1716217E2,1.00421356E3,5.449795E1,1.91001E2,1.0524697E3,5.289847E2,5.308849E1,5.985856E1,2.2186075E1,2.949761E2,5.9840106E2,4.058125E2,3.3572536E1,2.0925417E1,1.9439633E2,8.5807336E2,4.6595322E2,6.3031464E1,3.2121475E1,2.0967016E1,3.9186817E1,2.5578929E2,2.317405E1,5.7522705E2,2.976211E2,1.0819141E2,3.411342E1,1.6028291E2,1.6229832E2,6.95775E2,5.4303326E1,4.116499E2,2.8167871E1,3.4863594E1,1.4190126E1,1.7931347E1,1.0232051E1,1.0734966E1],"tree_param":{"num_deleted":"0","num_feature":"86","num_nodes":"45","size_leaf_vector":"1"}},{"base_weights":[2.5570724E-2,-6.201844E-1,5.433338E-1,-3.5453972E-1,-9.851919E-1,2.0260194E-1,8.680295E-1,-1.5999399E-1,-1.2391305E0,-1.0893818E0,5.483595E-1,3.764665E-1,-6.187978E-1,1.350325E0,7.3761815E-1,8.5677E-2,-1.0549655E0,-9.284655E-2,3.3059233E-1,3.3851218E-1,-1.2012861E0,7.801887E-2,-8.396307E-2,-9.841742E-1,4.7205874E-1,-1.8488398E-1,-9.7587936E-2,5.66603E-1,1.5149359E0,8.280174E-1,-5.6926405E-1,-2.8357586E-2,1.8015549E-2,-6.575176E-2,8.388948E-2,6.819453E-2,-8.411326E-2,-8.835351E-2,6.991085E-2,-7.813791E-2,-3.3400588E-2,2.5145648E-2,-9.565408E-2,6.246969E-2,1.5558004E-2,-3.5696626E-2,3.6665734E-2,8.5971065E-2,-3.2518823E-2,8.103296E-2,2.8810328E-2,-6.0385875E-3,4.7020715E-2,2.4758955E-2,-9.793434E-2],"categories":[],"categories_nodes":[],"categories_segments":[],"categories_sizes":[],"default_left":[0,0,0,0,0,0,0,0,0,0,0,0,0,0,0,0,0,0,0,0,0,0,0,0,0,0,0,0,0,0,0,0,0,0,0,0,0,0,0,0,0,0,0,0,0,0,0,0,0,0,0,0,0,0,0],"id":3,"left_children":[1,3,5,7,9,11,13,15,17,19,21,23,25,27,29,31,33,-1,35,37,39,-1,-1,41,43,45,-1,47,49,51,53,-1,-1,-1,-1,-1,-1,-1,-1,-1,-1,-1,-1,-1,-1,-1,-1,-1,-1,-1,-1,-1,-1,-1,-1],"loss_changes":[1.099458E3,1.4139746E2,2.0163776E2,1.4570392E2,9.901807E1,1.2760062E2,5.7546936E1,1.534079E2,1.4889754E2,9.2668884E1,9.226475E1,9.626163E1,8.9716225E1,2.4406403E1,8.764377E1,9.8365616E1,1.0895741E2,0E0,9.365716E1,9.757351E1,1.0190546E2,0E0,0E0,6.8277954E1,8.56658E1,5.8294933E1,0E0,5.169825E1,1.4971344E1,7.382071E1,7.2467606E1,0E0,0E0,0E0,0E0,0E0,0E0,0E0,0E0,0E0,0E0,0E0,0E0,0E0,0E0,0E0,0E0,0E0,0E0,0E0,0E0,0E0,0E0,0E0,0E0],"parents":[2147483647,0,0,1,1,2,2,3,3,4,4,5,5,6,6,7,7,8,8,9,9,10,10,11,11,12,12,13,13,14,14,15,15,16,16,18,18,19,19,20,20,23,23,24,24,25,25,27,27,28,28,29,29,30,30],"right_children":[2,4,6,8,10,12,14,16,18,20,22,24,26,28,30,32,34,-1,36,38,40,-1,-1,42,44,46,-1,48,50,52,54,-1,-1,-1,-1,-1,-1,-1,-1,-1,-1,-1,-1,-1,-1,-1,-1,-1,-1,-1,-1,-1,-1,-1,-1],"split_conditions":[1.1888898E-3,3.640615E-2,2.0212573E-3,8.8888055E-1,7.0935074E-4,9.99975E-1,-1.8423846E-2,6.836483E-1,5.106383E-3,-1.1059616E-2,7.3351274E-4,3.5700336E-2,1.622221E-3,1.5493295E-1,4.4199456E-3,4.0677965E-1,9.125131E0,-9.284655E-2,1.1217949E0,8.333333E-1,2.4216107E-4,7.801887E-2,-8.396307E-2,-2.3123976E-3,1.1111049E-1,1.8728615E-3,-9.7587936E-2,1.0169491E-1,4.6939144E-1,1.6666527E-1,-4.3194795E-1,-2.8357586E-2,1.8015549E-2,-6.575176E-2,8.388948E-2,6.819453E-2,-8.411326E-2,-8.835351E-2,6.991085E-2,-7.813791E-2,-3.3400588E-2,2.5145648E-2,-9.565408E-2,6.246969E-2,1.5558004E-2,-3.5696626E-2,3.6665734E-2,8.5971065E-2,-3.2518823E-2,8.103296E-2,2.8810328E-2,-6.0385875E-3,4.7020715E-2,2.4758955E-2,-9.793434E-2],"split_indices":[49,77,49,71,23,11,19,52,79,44,53,61,49,61,53,84,58,0,51,85,36,0,0,27,70,55,0,84,46,63,77,0,0,0,0,0,0,0,0,0,0,0,0,0,0,0,0,0,0,0,0,0,0,0,0],"split_type":[0,0,0,0,0,0,0,0,0,0,0,0,0,0,0,0,0,0,0,0,0,0,0,0,0,0,0,0,0,0,0,0,0,0,0,0,0,0,0,0,0,0,0,0,0,0,0,0,0,0,0,0,0,0,0],"sum_hessian":[3.2863777E3,1.462257E3,1.8241207E3,8.476214E2,6.146356E2,8.910232E2,9.3309753E2,6.9587366E2,1.5174774E2,5.7586597E2,3.876964E1,7.359162E2,1.5510696E2,1.9645056E2,7.36647E2,5.466186E2,1.4925508E2,1.0880555E2,4.2942184E1,4.163875E1,5.3422723E2,2.6895378E1,1.1874263E1,4.7629257E1,6.88287E2,1.17931046E2,3.7175926E1,3.4976234E1,1.6147433E2,6.894027E2,4.7244225E1,1.6143779E2,3.8518082E2,1.3679227E2,1.2462814E1,2.8621473E1,1.4320712E1,1.3685144E1,2.7953604E1,3.1714032E2,2.170869E2,1.8447544E1,2.9181715E1,1.1676828E2,5.715187E2,7.503099E1,4.290005E1,1.7791779E1,1.7184454E1,1.4438065E2,1.7093681E1,7.291686E1,6.1648584E2,2.7074196E1,2.0170029E1],"tree_param":{"num_deleted":"0","num_feature":"86","num_nodes":"55","size_leaf_vector":"1"}},{"base_weights":[-3.4352038E-2,-6.1813843E-1,5.021168E-1,-4.614029E-1,-1.4029212E0,3.0320704E-1,1.0370972E0,-5.1372856E-1,1.3464506E0,-1.652283E0,8.433734E-2,-9.5973134E-2,3.4632033E-1,-3.6994696E-2,1.1149002E0,-3.2291567E-1,-1.269726E0,4.1415725E-2,8.653716E-2,-8.754791E-2,1.1489201E-2,1.15255E0,-8.158594E-2,4.402887E-1,-5.9615165E-1,1.1976491E0,8.521511E-2,-4.1595668E-2,-2.6632533E-3,-7.169061E-2,7.728748E-2,8.7193705E-2,1.635867E-2,4.5860535E-5,3.447415E-2,5.6765385E-2,-6.28935E-2,6.1887916E-2,-6.2666326E-3,-9.8269604E-2,7.449997E-2],"categories":[],"categories_nodes":[],"categories_segments":[],"categories_sizes":[],"default_left":[0,0,0,0,0,0,0,0,0,0,0,0,0,0,0,0,0,0,0,0,0,0,0,0,0,0,0,0,0,0,0,0,0,0,0,0,0,0,0,0,0],"id":4,"left_children":[1,3,5,7,9,11,13,15,17,19,21,-1,23,-1,25,27,29,-1,-1,-1,-1,31,-1,33,35,37,39,-1,-1,-1,-1,-1,-1,-1,-1,-1,-1,-1,-1,-1,-1],"loss_changes":[9.9927405E2,1.8711676E2,1.7648001E2,1.2124225E2,9.4411896E1,1.1679997E2,6.3089783E1,1.7832648E2,5.4973907E0,4.0936035E1,7.0268715E1,0E0,1.0575781E2,0E0,3.654962E1,1.3597421E2,1.1746118E2,0E0,0E0,0E0,0E0,1.0756256E1,0E0,1.1861937E2,1.2557361E2,2.145929E1,9.8737526E1,0E0,0E0,0E0,0E0,0E0,0E0,0E0,0E0,0E0,0E0,0E0,0E0,0E0,0E0],"parents":[2147483647,0,0,1,1,2,2,3,3,4,4,5,5,6,6,7,7,8,8,9,9,10,10,12,12,14,14,15,15,16,16,21,21,23,23,24,24,25,25,26,26],"right_children":[2,4,6,8,10,12,14,16,18,20,22,-1,24,-1,26,28,30,-1,-1,-1,-1,32,-1,34,36,38,40,-1,-1,-1,-1,-1,-1,-1,-1,-1,-1,-1,-1,-1,-1],"split_conditions":[1.2519527E-3,8.2608694E-1,2.2326868E-2,1.1784352E-3,5.867615E-4,-2.750275E-8,7.843122E-2,6.531486E-4,3E0,1.2096255E-3,-5.553914E-1,-9.5973134E-2,7.3913044E-1,-3.6994696E-2,1.6148504E0,-3.9827602E-4,2.2795412E-3,4.1415725E-2,8.653716E-2,-8.754791E-2,1.1489201E-2,3.6270416E-3,-8.158594E-2,3.9130434E-1,7.1428314E-2,6.051372E0,4.756397E0,-4.1595668E-2,-2.6632533E-3,-7.169061E-2,7.728748E-2,8.7193705E-2,1.635867E-2,4.5860535E-5,3.447415E-2,5.6765385E-2,-6.28935E-2,6.1887916E-2,-6.2666326E-3,-9.8269604E-2,7.449997E-2],"split_indices":[49,83,47,23,23,67,63,31,13,49,60,0,83,0,58,22,55,0,0,0,0,18,0,83,70,40,40,0,0,0,0,0,0,0,0,0,0,0,0,0,0],"split_type":[0,0,0,0,0,0,0,0,0,0,0,0,0,0,0,0,0,0,0,0,0,0,0,0,0,0,0,0,0,0,0,0,0,0,0,0,0,0,0,0,0],"sum_hessian":[3.188673E3,1.527011E3,1.6616622E3,1.2742377E3,2.5277332E2,1.2125724E3,4.4908984E2,1.2391437E3,3.5094044E1,2.164401E2,3.6333214E1,2.2200558E1,1.1903718E3,1.84271E1,4.3066272E2,9.906613E2,2.4848236E2,1.6399065E1,1.8694977E1,2.057743E2,1.0665798E1,2.263192E1,1.3701297E1,1.0830283E3,1.0734347E2,3.983868E2,3.2275917E1,3.4222147E2,6.484398E2,2.3529556E2,1.3186793E1,1.2466542E1,1.0165378E1,3.9246008E2,6.9056824E2,2.9441006E1,7.790246E1,3.868001E2,1.15867E1,1.2930545E1,1.9345373E1],"tree_param":{"num_deleted":"0","num_feature":"86","num_nodes":"41","size_leaf_vector":"1"}},{"base_weights":[7.1400004E-3,-5.806315E-1,4.8035273E-1,-4.2135468E-1,-1.4052749E0,5.67814E-1,-5.4993826E-1,-4.7627595E-1,1.2755374E0,-1.5768998E0,1.8349758E-1,2.1003981E-1,8.0715936E-1,2.9958716E-1,-8.8001184E-2,-3.1914893E-1,-1.2102476E0,7.150419E-3,8.815293E-2,-8.437631E-2,2.880933E-2,-6.2732294E-4,2.0785527E-2,-6.1568372E-2,7.92755E-1,8.367584E-1,-9.236307E-2,1.1344177E0,-3.7162253E-1,3.507618E-2,-2.2547234E-2,-8.835139E-2,-3.152697E-2,1.2376512E-2,-5.498706E-2,-8.0579E-3,4.9803544E-2,4.3632045E-2,-4.3964367E-2,8.557973E-2,2.5753427E-2,3.2228623E-2,-8.878617E-2],"categories":[],"categories_nodes":[],"categories_segments":[],"categories_sizes":[],"default_left":[0,0,0,0,0,0,0,0,0,0,0,0,0,0,0,0,0,0,0,0,0,0,0,0,0,0,0,0,0,0,0,0,0,0,0,0,0,0,0,0,0,0,0],"id":5,"left_children":[1,3,5,7,9,11,13,15,17,19,21,23,25,27,-1,29,31,-1,-1,-1,-1,-1,-1,33,35,37,-1,39,41,-1,-1,-1,-1,-1,-1,-1,-1,-1,-1,-1,-1,-1,-1],"loss_changes":[9.0221826E2,1.892417E2,1.6225165E2,1.1366887E2,6.414099E1,1.4162555E2,1.4565903E2,1.3517111E2,2.0690498E1,5.1350647E1,1.1207545E0,1.054863E2,7.941083E1,4.7381783E1,0E0,1.3087292E2,6.546741E1,0E0,0E0,0E0,0E0,0E0,0E0,1.4632968E2,4.1328995E1,6.12417E1,0E0,1.2337799E1,6.841434E1,0E0,0E0,0E0,0E0,0E0,0E0,0E0,0E0,0E0,0E0,0E0,0E0,0E0,0E0],"parents":[2147483647,0,0,1,1,2,2,3,3,4,4,5,5,6,6,7,7,8,8,9,9,10,10,11,11,12,12,13,13,15,15,16,16,23,23,24,24,25,25,27,27,28,28],"right_children":[2,4,6,8,10,12,14,16,18,20,22,24,26,28,-1,30,32,-1,-1,-1,-1,-1,-1,34,36,38,-1,40,42,-1,-1,-1,-1,-1,-1,-1,-1,-1,-1,-1,-1,-1,-1],"split_conditions":[1.1888898E-3,8.2608694E-1,7.3913044E-1,-2.6588673E-8,6.936737E-4,2.7800666E-3,1.38809E-3,9.9676967E-1,2.0803704E-3,1.6370226E-2,1.5194392E-5,6.25786E-4,1.3499141E1,1.2289024E-3,-8.8001184E-2,-5.284804E-3,1.7280817E-3,7.150419E-3,8.815293E-2,-8.437631E-2,2.880933E-2,-6.2732294E-4,2.0785527E-2,-8.9262496E-5,-2.8935205E-3,9.8038E-1,-9.236307E-2,-1.215808E-2,3.0508474E-1,3.507618E-2,-2.2547234E-2,-8.835139E-2,-3.152697E-2,1.2376512E-2,-5.498706E-2,-8.0579E-3,4.9803544E-2,4.3632045E-2,-4.3964367E-2,8.557973E-2,2.5753427E-2,3.2228623E-2,-8.878617E-2],"split_indices":[49,83,83,68,23,69,69,58,17,47,36,23,40,53,0,4,69,0,0,0,0,0,0,30,4,71,0,18,84,0,0,0,0,0,0,0,0,0,0,0,0,0,0],"split_type":[0,0,0,0,0,0,0,0,0,0,0,0,0,0,0,0,0,0,0,0,0,0,0,0,0,0,0,0,0,0,0,0,0,0,0,0,0,0,0,0,0,0,0],"sum_hessian":[3.2417783E3,1.4456798E3,1.7960986E3,1.2130214E3,2.3265837E2,1.6560618E3,1.4003693E2,1.1757457E3,3.72757E1,2.1003955E2,2.261882E1,6.647246E2,9.913371E2,8.266956E1,5.736736E1,9.69721E2,2.0602466E2,1.1668294E1,2.5607405E1,2.0002487E2,1.0014685E1,1.2543985E1,1.0074835E1,4.53887E2,2.108376E2,9.8111926E2,1.0217865E1,3.660288E1,4.6066685E1,1.1031572E2,8.5940533E2,1.0395783E2,1.02066826E2,3.5026633E2,1.0362069E2,3.6992496E1,1.7384511E2,9.6156274E2,1.9556526E1,1.795006E1,1.8652817E1,2.6997444E1,1.906924E1],"tree_param":{"num_deleted":"0","num_feature":"86","num_nodes":"43","size_leaf_vector":"1"}},{"base_weights":[1.0637113E-2,-5.574819E-1,5.040098E-1,-3.3983737E-1,-9.956253E-1,1.5698026E-1,7.908431E-1,-4.349894E-2,-7.85255E-1,5.2505887E-1,-1.1691045E0,-9.5732346E-2,2.4349514E-1,8.4739614E-1,-1.008506E0,1.588972E-1,-1.0220643E0,-9.882637E-1,8.809321E-1,1.3005474E0,-8.17514E-2,-1.4102416E0,-1.8868813E-1,3.5606423E-1,-9.2389387E-1,-4.126683E-2,8.846949E-1,-8.402907E-2,1.010001E-2,-3.0524094E-2,2.1950578E-2,-7.0091784E-2,3.3447813E-2,-5.8245618E-2,1.2135538E-2,-2.35422E-2,8.80303E-2,9.036487E-2,6.9889287E-3,-7.618608E-2,9.944841E-3,8.0175206E-2,-4.9930222E-2,9.875178E-3,5.6671746E-2,3.0349433E-2,-9.7791515E-2,5.680732E-2,3.562621E-2],"categories":[],"categories_nodes":[],"categories_segments":[],"categories_sizes":[],"default_left":[0,0,0,0,0,0,0,0,0,0,0,0,0,0,0,0,0,0,0,0,0,0,0,0,0,0,0,0,0,0,0,0,0,0,0,0,0,0,0,0,0,0,0,0,0,0,0,0,0],"id":6,"left_children":[1,3,5,7,9,11,13,15,17,19,21,-1,23,25,27,29,31,33,35,37,-1,39,41,43,45,-1,47,-1,-1,-1,-1,-1,-1,-1,-1,-1,-1,-1,-1,-1,-1,-1,-1,-1,-1,-1,-1,-1,-1],"loss_changes":[9.006718E2,1.4194205E2,1.7097742E2,1.3180682E2,1.3125638E2,1.4003844E2,9.661383E1,1.1935347E2,1.3587793E2,8.8053055E1,1.0469855E2,0E0,9.874675E1,5.770636E1,2.414784E1,1.0780987E2,6.733912E1,7.784836E1,5.306615E1,2.211132E1,0E0,6.556122E1,1.307459E2,8.3984436E1,1.0575172E2,0E0,3.7697998E1,0E0,0E0,0E0,0E0,0E0,0E0,0E0,0E0,0E0,0E0,0E0,0E0,0E0,0E0,0E0,0E0,0E0,0E0,0E0,0E0,0E0,0E0],"parents":[2147483647,0,0,1,1,2,2,3,3,4,4,5,5,6,6,7,7,8,8,9,9,10,10,12,12,13,13,14,14,15,15,16,16,17,17,18,18,19,19,21,21,22,22,23,23,24,24,26,26],"right_children":[2,4,6,8,10,12,14,16,18,20,22,-1,24,26,28,30,32,34,36,38,-1,40,42,44,46,-1,48,-1,-1,-1,-1,-1,-1,-1,-1,-1,-1,-1,-1,-1,-1,-1,-1,-1,-1,-1,-1,-1,-1],"split_conditions":[1.2430267E-3,-3.3618507E-1,2.1452976E-3,-3.2269917E-4,-2.2003353E-3,-1.4712703E-6,7.3913044E-1,7.826087E-1,2.0595454E-3,1.2801228E-3,9.604187E-1,-9.5732346E-2,2.7563394E-4,8.447604E-3,1.40275E0,-3.024185E-1,5.4386393E-3,1.075387E-2,1.0413624E-2,-2.7843352E-2,-8.17514E-2,2.9437738E-3,7.075588E1,9.824985E-3,6.970985E-3,-4.126683E-2,3.3333334E-1,-8.402907E-2,1.010001E-2,-3.0524094E-2,2.1950578E-2,-7.0091784E-2,3.3447813E-2,-5.8245618E-2,1.2135538E-2,-2.35422E-2,8.80303E-2,9.036487E-2,6.9889287E-3,-7.618608E-2,9.944841E-3,8.0175206E-2,-4.9930222E-2,9.875178E-3,5.6671746E-2,3.0349433E-2,-9.7791515E-2,5.680732E-2,3.562621E-2],"split_indices":[49,60,50,19,20,37,83,83,54,55,46,0,7,47,51,41,45,19,67,77,0,9,39,18,47,0,85,0,0,0,0,0,0,0,0,0,0,0,0,0,0,0,0,0,0,0,0,0,0],"split_type":[0,0,0,0,0,0,0,0,0,0,0,0,0,0,0,0,0,0,0,0,0,0,0,0,0,0,0,0,0,0,0,0,0,0,0,0,0,0,0,0,0,0,0,0,0,0,0,0,0],"sum_hessian":[3.2113235E3,1.4924424E3,1.7188812E3,9.984658E2,4.9397653E2,7.786799E2,9.402013E2,6.003634E2,3.9810245E2,5.03157E1,4.4366086E2,3.0322035E1,7.4835785E2,9.121183E2,2.8082981E1,4.98081E2,1.0228239E2,3.552817E2,4.2820736E1,3.735071E1,1.2964992E1,3.5564752E2,8.801331E1,6.8325366E2,6.5104195E1,1.937557E1,8.9274274E2,1.786087E1,1.022211E1,1.325299E2,3.655511E2,8.3712326E1,1.857006E1,3.1081387E2,4.446784E1,1.701903E1,2.5801706E1,2.555234E1,1.1798371E1,3.3232635E2,2.3321169E1,2.7051075E1,6.0962242E1,5.686488E2,1.1460486E2,2.6341436E1,3.8762756E1,3.6032135E2,5.324214E2],"tree_param":{"num_deleted":"0","num_feature":"86","num_nodes":"49","size_leaf_vector":"1"}},{"base_weights":[8.4200494E-2,-3.3922097E-1,6.4853185E-1,-1.9872107E-1,-9.8920876E-1,-4.6473348E-1,7.349684E-1,3.097304E-1,-3.1536156E-1,4.6774384E-2,-1.5271688E0,1.3465586E0,-1.1123562E0,1.3414046E0,6.2157553E-1,5.687406E-1,-9.6681726E-1,-8.347478E-1,-1.05993114E-1,8.5770345E-1,-6.372268E-1,-8.1373475E-2,2.2478765E-2,8.357951E-2,4.968096E-2,2.1038724E-1,-9.61596E-2,1.4396988E0,-1.4020758E-2,-1.3042228E0,6.834601E-1,4.6207268E-2,-1.3956847E-2,-9.1251366E-2,6.364624E-2,8.743556E-3,-5.6305636E-2,-5.5050857E-2,2.574089E-3,8.531301E-2,-7.814346E-4,-8.209751E-2,5.2883744E-2,4.809922E-2,-2.6509432E-2,3.9224703E-2,7.4534155E-2,-9.663591E-2,1.1005623E-2,1.899424E-2,4.8467185E-2],"categories":[],"categories_nodes":[],"categories_segments":[],"categories_sizes":[],"default_left":[0,0,0,0,0,0,0,0,0,0,0,0,0,0,0,0,0,0,0,0,0,0,0,0,0,0,0,0,0,0,0,0,0,0,0,0,0,0,0,0,0,0,0,0,0,0,0,0,0,0,0],"id":7,"left_children":[1,3,5,7,9,11,13,15,17,19,21,23,25,27,29,31,33,35,37,39,41,-1,-1,-1,-1,43,-1,45,-1,47,49,-1,-1,-1,-1,-1,-1,-1,-1,-1,-1,-1,-1,-1,-1,-1,-1,-1,-1,-1,-1],"loss_changes":[7.9765924E2,1.7385223E2,1.380672E2,9.318256E1,1.8892523E2,1.23034744E2,9.0314575E1,9.745999E1,1.3871922E2,6.5263885E1,4.5055603E1,1.2508011E0,8.307871E1,3.3717804E1,1.3443896E2,7.398671E1,9.803342E1,1.0816089E2,1.4300877E2,4.0109615E1,1.1040039E2,0E0,0E0,0E0,0E0,1.7300787E1,0E0,5.169525E0,0E0,3.4317604E1,9.382605E1,0E0,0E0,0E0,0E0,0E0,0E0,0E0,0E0,0E0,0E0,0E0,0E0,0E0,0E0,0E0,0E0,0E0,0E0,0E0,0E0],"parents":[2147483647,0,0,1,1,2,2,3,3,4,4,5,5,6,6,7,7,8,8,9,9,10,10,11,11,12,12,13,13,14,14,15,15,16,16,17,17,18,18,19,19,20,20,25,25,27,27,29,29,30,30],"right_children":[2,4,6,8,10,12,14,16,18,20,22,24,26,28,30,32,34,36,38,40,42,-1,-1,-1,-1,44,-1,46,-1,48,50,-1,-1,-1,-1,-1,-1,-1,-1,-1,-1,-1,-1,-1,-1,-1,-1,-1,-1,-1,-1],"split_conditions":[1.8832444E-3,7.826087E-1,1.2626244E-1,-7.4369456E-3,-2.5788916E-7,-9.999983E-1,-1.6890861E-2,1.7050297E-3,4.0740514E-1,3.3333334E-1,9.999955E-1,9.626526E0,-7.8262907E-4,1.0458583E-3,1.4285612E-1,5.423729E-1,5.255878E-3,-9.999933E-1,-2.7468754E-4,-4.980641E-3,6.8032794E-4,-8.1373475E-2,2.2478765E-2,8.357951E-2,4.968096E-2,4.4067797E-1,-9.61596E-2,1.2806092E-1,-1.4020758E-2,1.1600755E0,1.6911149E-3,4.6207268E-2,-1.3956847E-2,-9.1251366E-2,6.364624E-2,8.743556E-3,-5.6305636E-2,-5.5050857E-2,2.574089E-3,8.531301E-2,-7.814346E-4,-8.209751E-2,5.2883744E-2,4.809922E-2,-2.6509432E-2,3.9224703E-2,7.4534155E-2,-9.663591E-2,1.1005623E-2,1.899424E-2,4.8467185E-2],"split_indices":[55,83,71,66,33,75,19,9,71,85,71,39,24,32,64,84,9,75,0,4,23,0,0,0,0,84,0,57,0,60,30,0,0,0,0,0,0,0,0,0,0,0,0,0,0,0,0,0,0,0,0],"split_type":[0,0,0,0,0,0,0,0,0,0,0,0,0,0,0,0,0,0,0,0,0,0,0,0,0,0,0,0,0,0,0,0,0,0,0,0,0,0,0,0,0,0,0,0,0,0,0,0,0,0,0],"sum_hessian":[3.3361345E3,1.9061554E3,1.4299791E3,1.5685588E3,3.375966E2,1.0262898E2,1.3273501E3,2.9222003E2,1.2763387E3,1.1563609E2,2.2196051E2,2.6705246E1,7.592374E1,2.072492E2,1.1201008E3,2.434559E2,4.8764137E1,3.6569193E2,9.1064685E2,5.2859673E1,6.277642E1,2.1145831E2,1.05021925E1,1.18097725E1,1.48954735E1,2.908827E1,4.683547E1,1.9557016E2,1.16790495E1,3.4197914E1,1.085903E3,1.7156783E2,7.188808E1,3.5421402E1,1.3342735E1,8.1912094E1,2.8377985E2,1.23696846E2,7.8695E2,2.6384468E1,2.6475203E1,3.9469486E1,2.3306934E1,1.4355347E1,1.4732923E1,1.5444137E1,1.8012602E2,2.4070963E1,1.0126952E1,5.2795465E2,5.579483E2],"tree_param":{"num_deleted":"0","num_feature":"86","num_nodes":"51","size_leaf_vector":"1"}},{"base_weights":[8.910085E-3,-5.5255777E-1,4.8401165E-1,-6.2816983E-1,7.1616185E-1,2.5717375E-1,7.3986095E-1,2.4270773E-1,-7.0461804E-1,1.151342E0,-5.9117013E-1,5.778665E-1,-2.3295218E-2,7.7751005E-1,-9.6319154E-2,1.0748067E0,-8.146791E-1,-8.4285006E-2,-5.850203E-1,5.4145044E-1,1.671974E0,2.5919596E-2,-8.169722E-2,3.945669E-1,1.5013876E0,-1.0130528E0,3.190453E-1,5.223086E-1,1.0138656E0,7.3416285E-2,-1.2555192E-2,-8.409749E-2,9.345253E-3,-1.887729E-2,-5.0150782E-2,9.1008954E-2,-2.1800483E-2,5.7638675E-2,1.0009235E-1,2.5154248E-2,-9.3774416E-2,8.254123E-2,4.3918557E-2,9.497418E-3,-8.208162E-2,-8.845685E-3,3.7016746E-2,3.0125543E-2,-1.044086E-1,3.9689694E-2,6.374522E-2],"categories":[],"categories_nodes":[],"categories_segments":[],"categories_sizes":[],"default_left":[0,0,0,0,0,0,0,0,0,0,0,0,0,0,0,0,0,0,0,0,0,0,0,0,0,0,0,0,0,0,0,0,0,0,0,0,0,0,0,0,0,0,0,0,0,0,0,0,0,0,0],"id":8,"left_children":[1,3,5,7,9,11,13,15,17,19,21,23,25,27,-1,29,31,-1,33,35,37,-1,-1,39,41,43,45,47,49,-1,-1,-1,-1,-1,-1,-1,-1,-1,-1,-1,-1,-1,-1,-1,-1,-1,-1,-1,-1,-1,-1],"loss_changes":[8.5562537E2,1.4146548E2,1.0054788E2,9.262549E1,4.8001266E1,8.306088E1,8.327356E1,1.00014694E2,1.4854681E2,1.8790619E1,2.5662472E1,7.212529E1,1.6744316E2,4.7884064E1,0E0,3.3635155E1,4.4003902E1,0E0,9.828555E1,3.8996727E1,3.075325E0,0E0,0E0,8.96886E1,4.895981E0,9.6504486E1,7.686902E1,8.264159E1,2.27229E1,0E0,0E0,0E0,0E0,0E0,0E0,0E0,0E0,0E0,0E0,0E0,0E0,0E0,0E0,0E0,0E0,0E0,0E0,0E0,0E0,0E0,0E0],"parents":[2147483647,0,0,1,1,2,2,3,3,4,4,5,5,6,6,7,7,8,8,9,9,10,10,11,11,12,12,13,13,15,15,16,16,18,18,19,19,20,20,23,23,24,24,25,25,26,26,27,27,28,28],"right_children":[2,4,6,8,10,12,14,16,18,20,22,24,26,28,-1,30,32,-1,34,36,38,-1,-1,40,42,44,46,48,50,-1,-1,-1,-1,-1,-1,-1,-1,-1,-1,-1,-1,-1,-1,-1,-1,-1,-1,-1,-1,-1,-1],"split_conditions":[1.2430267E-3,2.1022381E-3,2.1642712E-3,-2.2003353E-3,1.9841093E-7,-1.5003794E-4,9.473844E0,1.2780185E-3,-3.1451061E-3,2.104181E-4,1.0441538E-3,5.733539E-3,2.8624786E-3,1.0752968E-2,-9.6319154E-2,4.479437E-8,1.0395537E-3,-8.4285006E-2,-3.3618507E-1,-1.6214322E0,-1.1809342E-7,2.5919596E-2,-8.169722E-2,4.6873168E-4,1.9710527E-3,1.3123029E-3,1E0,2.3444714E-2,7.680727E-1,7.3416285E-2,-1.2555192E-2,-8.409749E-2,9.345253E-3,-1.887729E-2,-5.0150782E-2,9.1008954E-2,-2.1800483E-2,5.7638675E-2,1.0009235E-1,2.5154248E-2,-9.3774416E-2,8.254123E-2,4.3918557E-2,9.497418E-3,-8.208162E-2,-8.845685E-3,3.7016746E-2,3.0125543E-2,-1.044086E-1,3.9689694E-2,6.374522E-2],"split_indices":[49,54,49,20,72,24,40,53,4,24,49,17,19,72,0,37,45,0,60,76,37,0,0,22,55,53,48,19,61,0,0,0,0,0,0,0,0,0,0,0,0,0,0,0,0,0,0,0,0,0,0],"split_type":[0,0,0,0,0,0,0,0,0,0,0,0,0,0,0,0,0,0,0,0,0,0,0,0,0,0,0,0,0,0,0,0,0,0,0,0,0,0,0,0,0,0,0,0,0,0,0,0,0,0,0],"sum_hessian":[3.2055647E3,1.4690684E3,1.7364963E3,1.3869913E3,8.207704E1,9.2170337E2,8.14793E2,1.1164762E2,1.2753438E3,6.1725784E1,2.035126E1,4.2968768E2,4.920157E2,8.041833E2,1.0609691E1,6.252352E1,4.9124104E1,1.3706262E2,1.1382811E3,2.9454044E1,3.227174E1,1.0057049E1,1.029421E1,3.5980872E2,6.987897E1,1.2601638E2,3.659993E2,3.8842267E2,4.1576065E2,4.8189342E1,1.4334177E1,2.6016766E1,2.3107338E1,7.621338E2,3.761473E2,1.2431334E1,1.702271E1,1.4401842E1,1.7869896E1,3.44178E2,1.56307E1,5.4900322E1,1.4978649E1,4.3432404E1,8.258398E1,1.6825981E2,1.9773949E2,3.7762823E2,1.0794435E1,2.2798192E2,1.8777873E2],"tree_param":{"num_deleted":"0","num_feature":"86","num_nodes":"51","size_leaf_vector":"1"}},{"base_weights":[1.5559142E-2,-4.6070814E-1,4.3706435E-1,-5.469745E-3,-7.3263764E-1,2.5217128E-1,7.9870296E-1,1.8441713E-1,-1.1444821E0,-9.2715037E-1,1.1404684E-1,5.6723464E-1,-8.678717E-2,-5.13745E-1,8.967448E-1,-1.8241325E-1,1.0274265E0,-8.425536E-2,8.3035156E-2,-1.2947557E0,-6.6904193E-1,6.867686E-1,-8.077993E-2,9.731867E-1,2.9311982E-1,-1.2145494E0,1.19892955E-1,8.3444095E-1,-1.0654137E-1,9.478987E-1,-7.998214E-2,4.8771325E-2,-1.9111324E-2,7.081742E-2,9.589914E-3,-7.1187586E-2,8.071753E-3,8.247367E-3,-4.3255504E-2,-7.968003E-2,5.1244494E-2,1.3189271E-2,5.8992695E-2,2.7119538E-2,-7.538851E-2,3.8213158E-4,-8.258611E-2,1.0609882E-2,-1.0369835E-1,-0E0,7.5980626E-2,6.1306365E-2,3.6047887E-2],"categories":[],"categories_nodes":[],"categories_segments":[],"categories_sizes":[],"default_left":[0,0,0,0,0,0,0,0,0,0,0,0,0,0,0,0,0,0,0,0,0,0,0,0,0,0,0,0,0,0,0,0,0,0,0,0,0,0,0,0,0,0,0,0,0,0,0,0,0,0,0,0,0],"id":9,"left_children":[1,3,5,7,9,11,13,15,17,19,21,23,25,27,29,31,33,-1,-1,35,37,39,-1,41,43,45,47,49,-1,51,-1,-1,-1,-1,-1,-1,-1,-1,-1,-1,-1,-1,-1,-1,-1,-1,-1,-1,-1,-1,-1,-1,-1],"loss_changes":[6.3958844E2,1.850845E2,1.1271268E2,1.2153163E2,1.5437979E2,1.1971585E2,7.399539E1,1.4907477E2,1.24583954E2,7.119513E1,1.7506836E2,6.421739E1,1.2619134E2,8.9694916E1,6.937622E1,7.806033E1,4.705957E1,0E0,0E0,5.9134583E1,7.373721E1,1.0392511E2,0E0,3.378116E1,1.5706352E2,4.4977264E1,9.2889626E1,1.3046874E1,0E0,3.1874756E1,0E0,0E0,0E0,0E0,0E0,0E0,0E0,0E0,0E0,0E0,0E0,0E0,0E0,0E0,0E0,0E0,0E0,0E0,0E0,0E0,0E0,0E0,0E0],"parents":[2147483647,0,0,1,1,2,2,3,3,4,4,5,5,6,6,7,7,8,8,9,9,10,10,11,11,12,12,13,13,14,14,15,15,16,16,19,19,20,20,21,21,23,23,24,24,25,25,26,26,27,27,29,29],"right_children":[2,4,6,8,10,12,14,16,18,20,22,24,26,28,30,32,34,-1,-1,36,38,40,-1,42,44,46,48,50,-1,52,-1,-1,-1,-1,-1,-1,-1,-1,-1,-1,-1,-1,-1,-1,-1,-1,-1,-1,-1,-1,-1,-1,-1],"split_conditions":[1.2430267E-3,-5.094245E-1,1.1259859E-2,-8.401288E-4,-3.2615213E-4,-3.7188048E-3,-8.974324E-2,5.375687E-4,2.4142046E-3,4.5762712E-1,1.2869125E-3,-1.4195113E0,-3.468128E-4,7.700347E-4,7.3913044E-1,-6.11963E-3,5.475848E-1,-8.425536E-2,8.3035156E-2,1E0,-3.983764E-4,5.5016775E-4,-8.077993E-2,2.1452976E-3,1.80018E-3,-1.1468573E0,3.1063484E-3,9.99995E-1,-1.0654137E-1,8.1249493E-1,-7.998214E-2,4.8771325E-2,-1.9111324E-2,7.081742E-2,9.589914E-3,-7.1187586E-2,8.071753E-3,8.247367E-3,-4.3255504E-2,-7.968003E-2,5.1244494E-2,1.3189271E-2,5.8992695E-2,2.7119538E-2,-7.538851E-2,3.8213158E-4,-8.258611E-2,1.0609882E-2,-1.0369835E-1,-0E0,7.5980626E-2,6.1306365E-2,3.6047887E-2],"split_indices":[49,60,67,66,44,18,72,21,54,84,53,76,22,21,83,4,76,0,0,35,24,50,0,50,5,76,54,11,0,70,0,0,0,0,0,0,0,0,0,0,0,0,0,0,0,0,0,0,0,0,0,0,0],"split_type":[0,0,0,0,0,0,0,0,0,0,0,0,0,0,0,0,0,0,0,0,0,0,0,0,0,0,0,0,0,0,0,0,0,0,0,0,0,0,0,0,0,0,0,0,0,0,0,0,0,0,0,0,0],"sum_hessian":[3.1840173E3,1.4947448E3,1.6892726E3,5.594892E2,9.3525555E2,1.1190934E3,5.701792E2,4.8018668E2,7.930251E1,7.605532E2,1.7470233E2,5.7979395E2,5.3929944E2,3.926701E1,5.309122E2,3.3505466E2,1.45132E2,6.685326E1,1.2449257E1,3.1191342E2,4.4863977E2,1.3174092E2,4.296141E1,2.3252278E2,3.4727115E2,8.284704E1,4.564524E2,2.1644123E1,1.7622887E1,5.2089874E2,1.0013472E1,4.8666885E1,2.863878E2,9.848162E1,4.665038E1,2.8661475E2,2.5298689E1,8.533028E1,3.633095E2,1.6493826E1,1.1524709E2,5.30804E1,1.7944238E2,3.0571048E2,4.1560696E1,2.2025293E1,6.0821747E1,4.3893353E2,1.7518875E1,1.0166418E1,1.1477705E1,2.3183122E2,2.890675E2],"tree_param":{"num_deleted":"0","num_feature":"86","num_nodes":"53","size_leaf_vector":"1"}},{"base_weights":[6.386691E-2,-3.8732877E-1,4.2164415E-1,-1.20743215E-1,-7.649573E-1,-9.3352556E-2,5.64609E-1,-7.731211E-2,3.7116047E-3,-6.212971E-1,-8.087851E-2,1.22883976E-1,-9.434884E-2,5.970342E-1,-9.146556E-2,2.092016E-1,-9.751124E-1,-7.915018E-1,2.0557792E-1,-1.0133481E0,4.4549057E-1,6.5840846E-1,-3.2167765E-1,-7.7035505E-4,5.015756E-2,-8.16044E-2,3.8676515E-2,2.6679492E-2,-4.645019E-2,-7.749655E-2,3.91902E-2,-7.665288E-2,6.0698267E-2,-8.636358E-3,4.980985E-2,3.5801668E-2,-3.5108324E-2,3.724568E-2,-8.307498E-2],"categories":[],"categories_nodes":[],"categories_segments":[],"categories_sizes":[],"default_left":[0,0,0,0,0,0,0,0,0,0,0,0,0,0,0,0,0,0,0,0,0,0,0,0,0,0,0,0,0,0,0,0,0,0,0,0,0,0,0],"id":10,"left_children":[1,3,5,7,9,11,13,-1,15,17,-1,19,-1,21,-1,23,25,27,29,31,33,35,37,-1,-1,-1,-1,-1,-1,-1,-1,-1,-1,-1,-1,-1,-1,-1,-1],"loss_changes":[5.1966943E2,1.4314064E2,1.3229648E2,1.4845331E2,7.08905E1,1.519951E2,1.1008139E2,0E0,1.5494244E2,7.138066E1,0E0,1.2857231E2,0E0,7.848981E1,0E0,1.13718445E2,1.548778E2,7.6989746E1,8.9454094E1,9.167887E1,9.323853E1,1.0252258E2,1.2632442E2,0E0,0E0,0E0,0E0,0E0,0E0,0E0,0E0,0E0,0E0,0E0,0E0,0E0,0E0,0E0,0E0],"parents":[2147483647,0,0,1,1,2,2,3,3,4,4,5,5,6,6,8,8,9,9,11,11,13,13,15,15,16,16,17,17,18,18,19,19,20,20,21,21,22,22],"right_children":[2,4,6,8,10,12,14,-1,16,18,-1,20,-1,22,-1,24,26,28,30,32,34,36,38,-1,-1,-1,-1,-1,-1,-1,-1,-1,-1,-1,-1,-1,-1,-1,-1],"split_conditions":[1.1888898E-3,3.640615E-2,1.0285569E-2,-4.9191947E0,8.305085E-1,5.2673894E-4,9.948229E0,-7.731211E-2,8.8888055E-1,7.288136E-1,-8.087851E-2,3.478261E-1,-9.434884E-2,7.3913044E-1,-9.146556E-2,2.854696E-3,9.9999446E-1,-9.9999565E-1,-2.2300323E-5,4.6363454E-3,2.3112485E-1,5E0,7.6841697E-4,-7.7035505E-4,5.015756E-2,-8.16044E-2,3.8676515E-2,2.6679492E-2,-4.645019E-2,-7.749655E-2,3.91902E-2,-7.665288E-2,6.0698267E-2,-8.636358E-3,4.980985E-2,3.5801668E-2,-3.5108324E-2,3.724568E-2,-8.307498E-2],"split_indices":[49,77,47,40,84,22,40,0,71,84,0,83,0,83,0,80,62,75,36,3,77,14,69,0,0,0,0,0,0,0,0,0,0,0,0,0,0,0,0],"split_type":[0,0,0,0,0,0,0,0,0,0,0,0,0,0,0,0,0,0,0,0,0,0,0,0,0,0,0,0,0,0,0,0,0,0,0,0,0,0,0],"sum_hessian":[3.2171787E3,1.4226727E3,1.7945059E3,8.3487805E2,5.877947E2,3.8984174E2,1.4046642E3,6.6184425E1,7.686936E2,5.046159E2,8.317879E1,3.4868103E2,4.1160706E1,1.3866743E3,1.7989878E1,6.3605206E2,1.3264154E2,4.1861215E2,8.600376E1,7.656505E1,2.7211597E2,1.3002065E3,8.646773E1,4.964584E2,1.3959367E2,9.650709E1,3.6134457E1,3.9015553E1,3.795966E2,2.0849802E1,6.515396E1,6.2368835E1,1.4196217E1,1.2843776E2,1.436782E2,1.247901E3,5.2305492E1,4.8348415E1,3.8119312E1],"tree_param":{"num_deleted":"0","num_feature":"86","num_nodes":"39","size_leaf_vector":"1"}},{"base_weights":[-8.295974E-3,-4.9831805E-1,4.1368124E-1,-6.069241E-1,2.3401047E-1,1.4189313E-1,6.458317E-1,-6.710211E-1,1.0302454E0,5.048027E-1,-7.731723E-2,2.6987645E-1,-1.4655203E0,6.903514E-1,-9.1134906E-1,-5.409977E-1,-8.131542E-2,-7.960629E-3,7.982587E-2,6.8096906E-1,-7.606744E-2,-9.0076245E-2,3.472589E-1,8.080631E-3,-9.232933E-2,1.2337341E0,5.797106E-1,4.012006E-3,-7.8790486E-2,-2.9111667E-2,6.955653E-2,-8.037886E-2,4.341554E-2,-9.503379E-2,1.9917214E-2,6.938553E-2,-2.381093E-2,-6.280637E-2,3.2153107E-2],"categories":[],"categories_nodes":[],"categories_segments":[],"categories_sizes":[],"default_left":[0,0,0,0,0,0,0,0,0,0,0,0,0,0,0,0,0,0,0,0,0,0,0,0,0,0,0,0,0,0,0,0,0,0,0,0,0,0,0],"id":11,"left_children":[1,3,5,7,9,11,13,15,17,19,-1,21,23,25,27,29,-1,-1,-1,31,-1,-1,33,-1,-1,35,37,-1,-1,-1,-1,-1,-1,-1,-1,-1,-1,-1,-1],"loss_changes":[6.431293E2,1.1464444E2,1.0526428E2,1.3221603E2,9.05753E1,1.5894437E2,6.305179E1,1.48841E2,3.2439137E1,5.9010258E1,0E0,1.1513519E2,3.579618E1,5.178961E1,1.7014774E1,8.5509E1,0E0,0E0,0E0,6.579629E1,0E0,0E0,7.989268E1,0E0,0E0,3.9511765E1,8.5663315E1,0E0,0E0,0E0,0E0,0E0,0E0,0E0,0E0,0E0,0E0,0E0,0E0],"parents":[2147483647,0,0,1,1,2,2,3,3,4,4,5,5,6,6,7,7,8,8,9,9,11,11,12,12,13,13,14,14,15,15,19,19,22,22,25,25,26,26],"right_children":[2,4,6,8,10,12,14,16,18,20,-1,22,24,26,28,30,-1,-1,-1,32,-1,-1,34,-1,-1,36,38,-1,-1,-1,-1,-1,-1,-1,-1,-1,-1,-1,-1],"split_conditions":[1.2430267E-3,5.409328E-4,2.1452976E-3,6.8473106E-4,3.514942E-3,2.7563394E-4,7.3913044E-1,5.71693E-4,3.4577937E-3,9.4312284E-4,-7.731723E-2,-1.4712703E-6,1.0169491E-1,8.4745765E-2,1.8181653E-1,-2.737476E-8,-8.131542E-2,-7.960629E-3,7.982587E-2,-1.4581818E-3,-7.606744E-2,-9.0076245E-2,5.0847456E-2,8.080631E-3,-9.232933E-2,-5.3502186E-3,-7.9548985E-1,4.012006E-3,-7.8790486E-2,-2.9111667E-2,6.955653E-2,-8.037886E-2,4.341554E-2,-9.503379E-2,1.9917214E-2,6.938553E-2,-2.381093E-2,-6.280637E-2,3.2153107E-2],"split_indices":[49,32,50,24,2,7,83,22,18,31,0,37,84,84,71,66,0,0,0,31,0,0,84,0,0,66,60,0,0,0,0,0,0,0,0,0,0,0,0],"split_type":[0,0,0,0,0,0,0,0,0,0,0,0,0,0,0,0,0,0,0,0,0,0,0,0,0,0,0,0,0,0,0,0,0,0,0,0,0,0,0],"sum_hessian":[3.1082002E3,1.4381736E3,1.6700266E3,1.2527026E3,1.8547102E2,7.702755E2,8.997511E2,1.2061323E3,4.6570194E1,1.6165578E2,2.3815239E1,7.14297E2,5.5978485E1,8.7534595E2,2.4405195E1,1.063105E3,1.4302744E2,1.5195077E1,3.1375118E1,1.4938092E2,1.2274851E1,2.487449E1,6.8942255E2,1.0681694E1,4.529679E1,1.462117E2,7.291342E2,1.0084547E1,1.4320647E1,1.0416249E3,2.148002E1,1.0689113E1,1.3869182E2,1.4471313E1,6.7495123E2,1.343599E2,1.1851801E1,2.364112E1,7.054931E2],"tree_param":{"num_deleted":"0","num_feature":"86","num_nodes":"39","size_leaf_vector":"1"}},{"base_weights":[2.48548E-2,-2.8698844E-1,4.879538E-1,-1.525676E-1,-9.400098E-1,2.3475611E-1,8.042172E-1,2.5969103E-1,-3.143776E-1,1.1327715E-1,-7.5487904E-2,1.0538807E0,6.607807E-2,-3.6167264E-2,8.501261E-1,-1.3566183E-1,7.681003E-1,-1.09637946E-1,-9.854289E-1,4.206324E-1,-7.917503E-2,1.2089171E0,-1.990569E-2,2.1532156E-1,-1.0978482E0,3.2485655E-1,9.6708477E-1,5.177186E-2,-2.86845E-2,-3.8678885E-2,5.0321616E-2,-8.060956E-2,1.4223768E-4,-7.314295E-2,-1.923704E-2,-3.9671052E-2,5.224442E-2,1.6131036E-2,6.863116E-2,-8.655586E-2,1.4205112E-2,-1.0087631E-1,-1.9359864E-2,4.0492076E-2,-6.590644E-2,5.0885577E-2,-3.342524E-2],"categories":[],"categories_nodes":[],"categories_segments":[],"categories_sizes":[],"default_left":[0,0,0,0,0,0,0,0,0,0,0,0,0,0,0,0,0,0,0,0,0,0,0,0,0,0,0,0,0,0,0,0,0,0,0,0,0,0,0,0,0,0,0,0,0,0,0],"id":12,"left_children":[1,3,5,7,9,11,13,15,17,19,-1,21,23,-1,25,27,29,31,33,35,-1,37,-1,39,41,43,45,-1,-1,-1,-1,-1,-1,-1,-1,-1,-1,-1,-1,-1,-1,-1,-1,-1,-1,-1,-1],"loss_changes":[4.5425684E2,1.647353E2,1.01071655E2,1.0415342E2,1.9266483E2,9.717144E1,4.0056488E1,8.8626755E1,1.5378976E2,5.968309E1,0E0,2.7609482E1,1.018454E2,0E0,3.3121857E1,1.2792602E2,7.1635506E1,1.4553752E2,7.433638E1,7.424626E1,0E0,1.5183548E1,0E0,6.9939705E1,4.2522293E1,8.162352E1,3.76622E1,0E0,0E0,0E0,0E0,0E0,0E0,0E0,0E0,0E0,0E0,0E0,0E0,0E0,0E0,0E0,0E0,0E0,0E0,0E0,0E0],"parents":[2147483647,0,0,1,1,2,2,3,3,4,4,5,5,6,6,7,7,8,8,9,9,11,11,12,12,14,14,15,15,16,16,17,17,18,18,19,19,21,21,23,23,24,24,25,25,26,26],"right_children":[2,4,6,8,10,12,14,16,18,20,-1,22,24,-1,26,28,30,32,34,36,-1,38,-1,40,42,44,46,-1,-1,-1,-1,-1,-1,-1,-1,-1,-1,-1,-1,-1,-1,-1,-1,-1,-1,-1,-1],"split_conditions":[1.9164851E-3,7.826087E-1,1.0915169E-2,-2.9344243E-4,-2.5788916E-7,-1.8423846E-2,1.592246E-3,5.752604E-1,1.5915607E-3,1.7074853E-3,-7.5487904E-2,1.8017361E0,2.9732417E-3,-3.6167264E-2,-1.1205369E-6,-6.8319804E-4,-1.1590844E-3,3.7751926E-4,2.4999376E-1,8.572862E-4,-7.917503E-2,4.2578042E-1,-1.990569E-2,6.8071865E-2,-4.465615E-3,-6.88405E-2,1.0726807E-3,5.177186E-2,-2.86845E-2,-3.8678885E-2,5.0321616E-2,-8.060956E-2,1.4223768E-4,-7.314295E-2,-1.923704E-2,-3.9671052E-2,5.224442E-2,1.6131036E-2,6.863116E-2,-8.655586E-2,1.4205112E-2,-1.0087631E-1,-1.9359864E-2,4.0492076E-2,-6.590644E-2,5.0885577E-2,-3.342524E-2],"split_indices":[55,83,67,24,33,19,54,61,53,54,0,59,55,0,37,32,80,49,12,49,0,57,0,71,80,72,24,0,0,0,0,0,0,0,0,0,0,0,0,0,0,0,0,0,0,0,0],"split_type":[0,0,0,0,0,0,0,0,0,0,0,0,0,0,0,0,0,0,0,0,0,0,0,0,0,0,0,0,0,0,0,0,0,0,0,0,0,0,0,0,0,0,0,0,0,0,0],"sum_hessian":[3.1434028E3,1.8785695E3,1.2648333E3,1.5590371E3,3.1953238E2,7.0359766E2,5.6123566E2,4.3909372E2,1.1199434E3,1.1238786E2,2.071445E2,1.1914958E2,5.8444806E2,1.5880994E1,5.453547E2,2.4731293E2,1.9178079E2,8.5913214E2,2.6081128E2,9.583864E1,1.6549229E1,1.0786825E2,1.1281333E1,5.188233E2,6.562476E1,1.001603E2,4.4519437E2,6.6888824E1,1.804241E2,2.5321344E1,1.6645944E2,5.8969456E1,8.0016266E2,1.4442206E2,1.16389206E2,3.2398613E1,6.3440025E1,1.7376148E1,9.0492096E1,1.6833248E1,5.0199005E2,2.7742516E1,3.788225E1,7.777132E1,2.2388985E1,4.3225366E2,1.2940724E1],"tree_param":{"num_deleted":"0","num_feature":"86","num_nodes":"47","size_leaf_vector":"1"}},{"base_weights":[4.260414E-2,-3.0331302E-1,5.06714E-1,7.5693935E-1,-3.8278133E-1,2.3617208E-1,7.1424407E-1,-8.7805465E-2,1.0837518E0,-2.5994954E-1,-1.1322964E0,-9.483639E-2,3.754031E-1,7.7077013E-1,-7.714062E-2,1.2408553E0,-7.188247E-3,-6.334476E-2,-7.1940994E-1,-2.5721547E-1,-7.272165E-2,4.5482352E-1,-9.236931E-2,-5.7204103E-1,8.2026345E-1,3.7877735E-2,7.824571E-2,-1.0758433E-2,3.441092E-2,9.072275E-3,-5.206679E-2,-7.495633E-2,3.708141E-2,1.2731484E-2,5.388614E-2,3.9782804E-2,-1.0549215E-1,4.3726917E-2,-1.3250996E-2],"categories":[],"categories_nodes":[],"categories_segments":[],"categories_sizes":[],"default_left":[0,0,0,0,0,0,0,0,0,0,0,0,0,0,0,0,0,0,0,0,0,0,0,0,0,0,0,0,0,0,0,0,0,0,0,0,0,0,0],"id":13,"left_children":[1,3,5,7,9,11,13,-1,15,17,19,-1,21,23,-1,25,-1,27,29,31,-1,33,-1,35,37,-1,-1,-1,-1,-1,-1,-1,-1,-1,-1,-1,-1,-1,-1],"loss_changes":[5.0598593E2,1.5239168E2,7.530548E1,1.0544278E2,1.542822E2,1.7457535E2,9.819891E1,0E0,2.1942245E1,1.3043352E2,6.60426E1,0E0,9.7962746E1,4.9880066E1,0E0,1.4200516E1,0E0,1.15739E2,1.25810715E2,8.164093E1,0E0,6.6031456E1,0E0,5.8455963E1,4.253598E1,0E0,0E0,0E0,0E0,0E0,0E0,0E0,0E0,0E0,0E0,0E0,0E0,0E0,0E0],"parents":[2147483647,0,0,1,1,2,2,3,3,4,4,5,5,6,6,8,8,9,9,10,10,12,12,13,13,15,15,17,17,18,18,19,19,21,21,23,23,24,24],"right_children":[2,4,6,8,10,12,14,-1,16,18,20,-1,22,24,-1,26,-1,28,30,32,-1,34,-1,36,38,-1,-1,-1,-1,-1,-1,-1,-1,-1,-1,-1,-1,-1,-1],"split_conditions":[1.8832444E-3,-1.0696761E-2,3.1419308E-3,-2.2313308E-3,8.2608694E-1,1.3043478E-1,7.3913044E-1,-8.7805465E-2,-5.552878E-4,1.4221311E-3,-2.959101E-7,-9.483639E-2,-2.1052577E-1,-8.974324E-2,-7.714062E-2,-6.26449E-3,-7.188247E-3,-4.07946E-4,1.3043478E-1,-3.9530798E-7,-7.272165E-2,5.6787807E1,-9.236931E-2,2.230276E-3,8.9830506E-1,3.7877735E-2,7.824571E-2,-1.0758433E-2,3.441092E-2,9.072275E-3,-5.206679E-2,-7.495633E-2,3.708141E-2,1.2731484E-2,5.388614E-2,3.9782804E-2,-1.0549215E-1,4.3726917E-2,-1.3250996E-2],"split_indices":[55,66,69,31,83,83,83,0,32,53,33,0,75,72,0,4,0,44,83,33,0,38,0,79,84,0,0,0,0,0,0,0,0,0,0,0,0,0,0],"split_type":[0,0,0,0,0,0,0,0,0,0,0,0,0,0,0,0,0,0,0,0,0,0,0,0,0,0,0,0,0,0,0,0,0,0,0,0,0,0,0],"sum_hessian":[3.1496208E3,1.8046693E3,1.3449515E3,1.2515046E2,1.6795188E3,5.84978E2,7.599736E2,1.3863861E1,1.112866E2,1.4443041E3,2.3521474E2,3.502861E1,5.499494E2,7.420913E2,1.7882235E1,9.872225E1,1.2564344E1,1.012435E3,4.318691E2,6.3856915E1,1.7135783E2,5.3178894E2,1.8160482E1,2.5932558E1,7.1615875E2,4.10888E1,5.7633457E1,8.429889E2,1.6944612E2,1.1373277E2,3.1813632E2,2.8286358E1,3.5570557E1,4.036341E2,1.281548E2,1.3946412E1,1.1986146E1,6.823222E2,3.383655E1],"tree_param":{"num_deleted":"0","num_feature":"86","num_nodes":"39","size_leaf_vector":"1"}},{"base_weights":[1.442471E-2,-2.6488635E-1,4.2478412E-1,-1.3848844E-1,-8.873672E-1,-8.694451E-2,4.6026856E-1,1.5249601E-2,-7.0306444E-1,-1.7268713E-1,-1.3354262E0,-4.374904E-1,5.357088E-1,7.0954615E-1,-8.542898E-2,-9.181428E-1,6.4694524E-1,-7.434894E-1,1.0257264E0,-7.239141E-2,8.677621E-4,1.1249561E0,-1.0581225E0,9.3662083E-1,3.715763E-1,-8.7006524E-2,4.7616046E-2,-2.1750778E-2,1.174246E-2,5.101677E-3,-6.2905595E-2,9.1977425E-2,8.888405E-3,2.1269638E-2,-7.426936E-2,8.034935E-2,-6.4445822E-3,3.249068E-2,8.163192E-2,-7.725408E-2,5.9399057E-2,5.1614713E-2,-2.9165788E-2,-9.945986E-3,3.6390077E-2],"categories":[],"categories_nodes":[],"categories_segments":[],"categories_sizes":[],"default_left":[0,0,0,0,0,0,0,0,0,0,0,0,0,0,0,0,0,0,0,0,0,0,0,0,0,0,0,0,0,0,0,0,0,0,0,0,0,0,0,0,0,0,0,0,0],"id":14,"left_children":[1,3,5,7,9,-1,11,13,15,17,19,21,23,25,27,29,31,33,35,-1,-1,37,39,41,43,-1,-1,-1,-1,-1,-1,-1,-1,-1,-1,-1,-1,-1,-1,-1,-1,-1,-1,-1,-1],"loss_changes":[3.583251E2,1.4611606E2,9.788608E1,1.3438388E2,1.0004224E2,0E0,8.467224E1,8.5192986E1,9.682608E1,8.424634E1,2.944284E1,9.5323135E1,7.522775E1,9.337923E1,1.192137E2,9.953294E1,2.5241117E1,7.3002495E1,2.7033485E1,0E0,0E0,5.474247E0,7.8480934E1,4.912375E1,1.6646576E2,0E0,0E0,0E0,0E0,0E0,0E0,0E0,0E0,0E0,0E0,0E0,0E0,0E0,0E0,0E0,0E0,0E0,0E0,0E0,0E0],"parents":[2147483647,0,0,1,1,2,2,3,3,4,4,6,6,7,7,8,8,9,9,10,10,11,11,12,12,13,13,14,14,15,15,16,16,17,17,18,18,21,21,22,22,23,23,24,24],"right_children":[2,4,6,8,10,-1,12,14,16,18,20,22,24,26,28,30,32,34,36,-1,-1,38,40,42,44,-1,-1,-1,-1,-1,-1,-1,-1,-1,-1,-1,-1,-1,-1,-1,-1,-1,-1,-1,-1],"split_conditions":[1.9016078E-3,7.826087E-1,6.6707254E-4,1.1772373E0,-2.313505E-3,-8.694451E-2,1.2626244E-1,-9.274902E-3,4.3859468E0,4.818576E1,9.999958E-1,-6.071357E-3,-7.5761083E-4,-8.328824E-4,3.0132584E-4,-3.276813E-4,-2.363775E-3,-4.980641E-3,5.4855375E-3,-7.239141E-2,8.677621E-4,-5.6748213E-5,8.955629E-5,6.5217394E-1,1.6552005E-3,-8.7006524E-2,4.7616046E-2,-2.1750778E-2,1.174246E-2,5.101677E-3,-6.2905595E-2,9.1977425E-2,8.888405E-3,2.1269638E-2,-7.426936E-2,8.034935E-2,-6.4445822E-3,3.249068E-2,8.163192E-2,-7.725408E-2,5.9399057E-2,5.1614713E-2,-2.9165788E-2,-9.945986E-3,3.6390077E-2],"split_indices":[55,83,53,51,68,0,71,66,57,39,70,1,23,23,20,24,30,4,45,0,0,23,36,83,30,0,0,0,0,0,0,0,0,0,0,0,0,0,0,0,0,0,0,0,0],"split_type":[0,0,0,0,0,0,0,0,0,0,0,0,0,0,0,0,0,0,0,0,0,0,0,0,0,0,0,0,0,0,0,0,0,0,0,0,0,0,0,0,0,0,0,0,0],"sum_hessian":[3.1241362E3,1.8589518E3,1.2651844E3,1.5463422E3,3.1260956E2,1.9594297E1,1.2455902E3,1.2160099E3,3.3033224E2,1.2108329E2,1.9152628E2,9.60806E1,1.1495095E3,1.5335988E2,1.06265E3,2.8527698E2,4.5055267E1,8.233183E1,3.8751457E1,1.7683665E2,1.4689628E1,2.7038137E1,6.9042465E1,3.323621E2,8.1714746E2,1.32349825E1,1.401249E2,5.0805612E2,5.5459393E2,7.140653E1,2.1387045E2,1.1835819E1,3.3219448E1,3.208026E1,5.0251575E1,2.5572506E1,1.3178951E1,1.5246132E1,1.1792005E1,5.703402E1,1.2008445E1,3.1304395E2,1.9318142E1,3.1416766E2,5.0297977E2],"tree_param":{"num_deleted":"0","num_feature":"86","num_nodes":"45","size_leaf_vector":"1"}},{"base_weights":[3.8924713E-2,-3.2267445E-1,3.5821316E-1,-8.113009E-2,-6.1944705E-1,1.1519921E-1,6.148946E-1,1.1845765E-1,-1.074614E0,-1.3087035E0,-3.127272E-1,-3.3513606E-2,8.7273514E-1,6.4911383E-1,-8.9526765E-2,-1.1043249E-3,1.5906034E0,5.794531E-1,-7.704464E-2,2.8375557E-2,-1.413528E0,7.113268E-1,-5.5362654E-1,4.4153193E-1,-4.3339646E-1,-9.0019144E-2,1.3053101E0,5.1762426E-1,1.0449474E0,-2.0008527E-2,2.2124002E-2,9.576766E-2,2.0599416E-2,8.0337375E-2,-1.3930543E-2,-7.678599E-2,1.746524E-2,8.6063445E-2,-8.131738E-3,-6.799742E-2,-1.0635216E-2,4.33434E-2,-3.4847544E-3,2.683334E-2,-3.8861196E-2,5.0192107E-2,-1.011856E-1,7.263895E-2,2.4995519E-2,-2.648192E-2,3.109633E-2,5.6305446E-2,6.5588215E-3],"categories":[],"categories_nodes":[],"categories_segments":[],"categories_sizes":[],"default_left":[0,0,0,0,0,0,0,0,0,0,0,0,0,0,0,0,0,0,0,0,0,0,0,0,0,0,0,0,0,0,0,0,0,0,0,0,0,0,0,0,0,0,0,0,0,0,0,0,0,0,0,0,0],"id":15,"left_children":[1,3,5,7,9,11,13,15,17,19,21,23,25,27,-1,29,31,33,-1,-1,35,37,39,41,43,45,47,49,51,-1,-1,-1,-1,-1,-1,-1,-1,-1,-1,-1,-1,-1,-1,-1,-1,-1,-1,-1,-1,-1,-1,-1,-1],"loss_changes":[3.5695813E2,1.0380081E2,1.0228058E2,1.5896394E2,1.3687708E2,9.5295135E1,6.674304E1,1.1764086E2,1.0442081E2,4.018341E1,1.1172301E2,1.3451372E2,5.8040916E1,4.030121E1,0E0,1.09615746E2,1.8192322E1,2.7175617E1,0E0,0E0,4.148938E1,7.662092E1,1.0017381E2,7.049608E1,1.2869954E2,9.497282E1,1.0468704E1,6.516316E1,1.4206497E1,0E0,0E0,0E0,0E0,0E0,0E0,0E0,0E0,0E0,0E0,0E0,0E0,0E0,0E0,0E0,0E0,0E0,0E0,0E0,0E0,0E0,0E0,0E0,0E0],"parents":[2147483647,0,0,1,1,2,2,3,3,4,4,5,5,6,6,7,7,8,8,9,9,10,10,11,11,12,12,13,13,15,15,16,16,17,17,20,20,21,21,22,22,23,23,24,24,25,25,26,26,27,27,28,28],"right_children":[2,4,6,8,10,12,14,16,18,20,22,24,26,28,-1,30,32,34,-1,-1,36,38,40,42,44,46,48,50,52,-1,-1,-1,-1,-1,-1,-1,-1,-1,-1,-1,-1,-1,-1,-1,-1,-1,-1,-1,-1,-1,-1,-1,-1],"split_conditions":[1.2430267E-3,-7.358428E-4,2.1642712E-3,4.999975E-2,1.11287314E-4,7.778009E1,9.473844E0,1.8245002E-4,-5.11763E-3,-2.3480528E-4,-2.471938E-4,1.4923033E-3,6.666667E-1,3.9292728E-3,-8.9526765E-2,5.64589E-5,-6.2755396E-4,1.6666667E-1,-7.704464E-2,2.8375557E-2,1E0,-7.092717E-1,2E0,-5.4589857E-4,-8.0069695E-3,2.4999687E-1,8.844535E1,8.655222E-4,7.527964E1,-2.0008527E-2,2.2124002E-2,9.576766E-2,2.0599416E-2,8.0337375E-2,-1.3930543E-2,-7.678599E-2,1.746524E-2,8.6063445E-2,-8.131738E-3,-6.799742E-2,-1.0635216E-2,4.33434E-2,-3.4847544E-3,2.683334E-2,-3.8861196E-2,5.0192107E-2,-1.011856E-1,7.263895E-2,2.4995519E-2,-2.648192E-2,3.109633E-2,5.6305446E-2,6.5588215E-3],"split_indices":[49,19,49,11,21,39,40,24,17,24,36,50,85,5,0,20,31,85,0,0,35,60,13,21,18,12,39,69,38,0,0,0,0,0,0,0,0,0,0,0,0,0,0,0,0,0,0,0,0,0,0,0,0],"split_type":[0,0,0,0,0,0,0,0,0,0,0,0,0,0,0,0,0,0,0,0,0,0,0,0,0,0,0,0,0,0,0,0,0,0,0,0,0,0,0,0,0,0,0,0,0,0,0,0,0,0,0,0,0],"sum_hessian":[3.0897344E3,1.4487166E3,1.6410178E3,7.995611E2,6.491554E2,8.4389557E2,7.9712225E2,6.6645294E2,1.3310815E2,1.988068E2,4.5034863E2,7.0610333E2,1.3779227E2,7.867025E2,1.041976E1,6.172533E2,4.9199608E1,2.9170872E1,1.0393728E2,1.0235594E1,1.885712E2,8.531402E1,3.650346E2,3.2256006E2,3.8354324E2,4.2891693E1,9.4900566E1,5.924578E2,1.9424467E2,3.2510193E2,2.921514E2,3.801516E1,1.1184445E1,1.2932178E1,1.6238693E1,1.765211E2,1.2050098E1,3.918134E1,4.613268E1,1.07500565E2,2.5753406E2,1.7579787E2,1.467622E2,1.00145195E2,2.8339804E2,2.766894E1,1.52227545E1,7.942912E1,1.5471445E1,5.3205326E1,5.392525E2,1.7808525E2,1.6159426E1],"tree_param":{"num_deleted":"0","num_feature":"86","num_nodes":"53","size_leaf_vector":"1"}},{"base_weights":[5.6467324E-2,-2.2025125E-1,4.3784633E-1,-1.2487901E-1,-8.3885586E-1,4.9119377E-1,-1.1175581E0,-2.0688844E-1,5.1233107E-1,-5.051261E-2,-6.917208E-2,2.7907044E-1,7.896681E-1,4.3373358E-2,-9.985616E-2,-1.2662059E-1,-1.1090018E0,6.948957E-1,-8.8760816E-2,-4.3796432E-1,7.463474E-2,4.9721047E-1,-8.305725E-1,1.0213338E0,5.252034E-1,1.7440287E-2,-1.501464E-2,-8.472181E-2,1.5558037E-2,5.452127E-2,-8.018423E-4,8.4379956E-2,-4.1975413E-2,-3.2618146E-2,3.303941E-2,-9.591768E-2,2.654226E-4,5.5890698E-2,-3.421024E-2,1.2199465E-2,6.405326E-2],"categories":[],"categories_nodes":[],"categories_segments":[],"categories_sizes":[],"default_left":[0,0,0,0,0,0,0,0,0,0,0,0,0,0,0,0,0,0,0,0,0,0,0,0,0,0,0,0,0,0,0,0,0,0,0,0,0,0,0,0,0],"id":16,"left_children":[1,3,5,7,9,11,13,15,17,19,-1,21,23,-1,-1,25,27,29,-1,31,-1,33,35,37,39,-1,-1,-1,-1,-1,-1,-1,-1,-1,-1,-1,-1,-1,-1,-1,-1],"loss_changes":[3.282418E2,1.0613179E2,1.0900606E2,8.174751E1,1.0301132E2,7.977811E1,7.7989914E1,1.0006305E2,7.561217E1,5.9949516E1,0E0,1.798261E2,3.1467102E1,0E0,0E0,1.0525487E2,9.459621E1,4.6784843E1,0E0,6.98126E1,0E0,1.17065674E2,1.1121501E2,4.6640625E1,5.2111702E1,0E0,0E0,0E0,0E0,0E0,0E0,0E0,0E0,0E0,0E0,0E0,0E0,0E0,0E0,0E0,0E0],"parents":[2147483647,0,0,1,1,2,2,3,3,4,4,5,5,6,6,7,7,8,8,9,9,11,11,12,12,15,15,16,16,17,17,19,19,21,21,22,22,23,23,24,24],"right_children":[2,4,6,8,10,12,14,16,18,20,-1,22,24,-1,-1,26,28,30,-1,32,-1,34,36,38,40,-1,-1,-1,-1,-1,-1,-1,-1,-1,-1,-1,-1,-1,-1,-1,-1],"split_conditions":[1.8832444E-3,8.2608694E-1,1.900621E-1,4.8469855E-3,-2.313505E-3,2.610966E-3,-1.3804605E-2,6.042808E-4,2.2128345E-3,-2.3728183E-3,-6.917208E-2,7.1642756E-1,-3.5010785E-2,4.3373358E-2,-9.985616E-2,-5.9323287E-1,4.359646E-3,2.5784285E-3,-8.8760816E-2,-1.153226E-3,7.463474E-2,2.6086956E-1,5.7692087E-1,8.305085E-1,9.999964E-1,1.7440287E-2,-1.501464E-2,-8.472181E-2,1.5558037E-2,5.452127E-2,-8.018423E-4,8.4379956E-2,-4.1975413E-2,-3.2618146E-2,3.303941E-2,-9.591768E-2,2.654226E-4,5.5890698E-2,-3.421024E-2,1.2199465E-2,6.405326E-2],"split_indices":[55,83,72,69,68,9,26,36,21,68,0,52,59,0,0,60,69,1,0,23,0,83,63,84,70,0,0,0,0,0,0,0,0,0,0,0,0,0,0,0,0],"split_type":[0,0,0,0,0,0,0,0,0,0,0,0,0,0,0,0,0,0,0,0,0,0,0,0,0,0,0,0,0,0,0,0,0,0,0,0,0,0,0,0,0],"sum_hessian":[3.108155E3,1.8013229E3,1.3068322E3,1.5618855E3,2.3943732E2,1.2642202E3,4.2611862E1,1.384528E3,1.7735754E2,9.834675E1,1.4109058E2,7.40338E2,5.2388226E2,1.3053174E1,2.9558687E1,1.2725508E3,1.1197725E2,1.649344E2,1.2423147E1,7.923443E1,1.9112318E1,6.1924524E2,1.2109277E2,2.7753085E2,2.4635143E2,3.400586E2,9.324921E2,7.9204155E1,3.277309E1,1.05722305E2,5.9212093E1,1.2041453E1,6.719297E1,7.669027E1,5.4255493E2,5.2107216E1,6.898556E1,2.6305347E2,1.447737E1,1.8061116E2,6.5740265E1],"tree_param":{"num_deleted":"0","num_feature":"86","num_nodes":"41","size_leaf_vector":"1"}},{"base_weights":[7.034166E-2,-2.009978E-1,4.3901098E-1,-9.931112E-2,-8.8914776E-1,-4.5955577E-1,5.119306E-1,5.3589426E-2,-4.9604973E-1,-1.659365E-1,-6.7888536E-2,1.1282784E0,-1.2634522E0,5.727723E-1,-6.261135E-1,1.043779E-1,-7.828968E-2,-1.1066947E0,6.67914E-2,-6.0174364E-1,6.986106E-2,2.6299188E-2,8.0021344E-2,-9.050397E-2,3.7967008E-2,1.0979226E0,4.7780487E-1,6.095436E-1,-7.896786E-2,1.6763083E-3,5.688512E-2,-6.886391E-2,4.8619576E-2,-3.5185184E-2,2.9948542E-2,-7.152767E-2,2.7228136E-2,6.074811E-2,1.404125E-2,-8.676787E-2,2.512675E-2,-1.3694632E-2,7.5065546E-2],"categories":[],"categories_nodes":[],"categories_segments":[],"categories_sizes":[],"default_left":[0,0,0,0,0,0,0,0,0,0,0,0,0,0,0,0,0,0,0,0,0,0,0,0,0,0,0,0,0,0,0,0,0,0,0,0,0,0,0,0,0,0,0],"id":17,"left_children":[1,3,5,7,9,11,13,15,17,19,-1,21,23,25,27,29,-1,31,33,35,-1,-1,-1,-1,-1,37,39,41,-1,-1,-1,-1,-1,-1,-1,-1,-1,-1,-1,-1,-1,-1,-1],"loss_changes":[3.1059427E2,1.24957886E2,8.6491394E1,9.466727E1,7.7570496E1,1.2809964E2,8.469626E1,9.26535E1,1.4937038E2,6.3200314E1,0E0,8.568333E0,7.4887665E1,5.7015137E1,7.433801E1,7.987204E1,0E0,1.1858589E2,9.338413E1,6.96738E1,0E0,0E0,0E0,0E0,0E0,1.6363647E1,5.4476852E1,2.2410507E1,0E0,0E0,0E0,0E0,0E0,0E0,0E0,0E0,0E0,0E0,0E0,0E0,0E0,0E0,0E0],"parents":[2147483647,0,0,1,1,2,2,3,3,4,4,5,5,6,6,7,7,8,8,9,9,11,11,12,12,13,13,14,14,15,15,17,17,18,18,19,19,25,25,26,26,27,27],"right_children":[2,4,6,8,10,12,14,16,18,20,-1,22,24,26,28,30,-1,32,34,36,-1,-1,-1,-1,-1,38,40,42,-1,-1,-1,-1,-1,-1,-1,-1,-1,-1,-1,-1,-1,-1,-1],"split_conditions":[1.8832444E-3,8.2608694E-1,1.2626244E-1,9.008176E-1,-2.313505E-3,-5.374076E-3,7.3913044E-1,6.3096917E-1,1.1005366E0,-2.3728183E-3,-6.7888536E-2,3.0646988E-4,-6.7079265E-5,-1.6890861E-2,5.5078487E-4,8.2583404E-1,-7.828968E-2,2.520504E0,3.9130434E-1,1.3068846E0,6.986106E-2,2.6299188E-2,8.0021344E-2,-9.050397E-2,3.7967008E-2,4.4979674E-1,-9.9999523E-1,5.517222E-1,-7.896786E-2,1.6763083E-3,5.688512E-2,-6.886391E-2,4.8619576E-2,-3.5185184E-2,2.9948542E-2,-7.152767E-2,2.7228136E-2,6.074811E-2,1.404125E-2,-8.676787E-2,2.512675E-2,-1.3694632E-2,7.5065546E-2],"split_indices":[55,83,71,52,68,1,83,77,59,68,0,24,36,26,69,52,0,76,83,51,0,0,0,0,0,46,75,63,0,0,0,0,0,0,0,0,0,0,0,0,0,0,0],"split_type":[0,0,0,0,0,0,0,0,0,0,0,0,0,0,0,0,0,0,0,0,0,0,0,0,0,0,0,0,0,0,0,0,0,0,0,0,0,0,0,0,0,0,0],"sum_hessian":[3.1027505E3,1.7874077E3,1.3153429E3,1.5584135E3,2.2899431E2,9.822847E1,1.2171144E3,1.1253309E3,4.3308252E2,9.0655685E1,1.3833862E2,3.2838623E1,6.538985E1,1.1559025E3,6.1211933E1,1.0920775E3,3.3253376E1,2.0734187E2,2.2574066E2,7.142224E1,1.9233444E1,1.5452506E1,1.7386116E1,5.1600292E1,1.37895565E1,1.752412E2,9.8066125E2,2.67685E1,3.444343E1,1.0230589E3,6.901864E1,1.8380602E2,2.3535849E1,9.2013016E1,1.3372765E2,4.135834E1,3.00639E1,1.5275197E2,2.2489223E1,1.002785E1,9.706334E2,1.3738789E1,1.3029711E1],"tree_param":{"num_deleted":"0","num_feature":"86","num_nodes":"43","size_leaf_vector":"1"}},{"base_weights":[5.1530667E-2,-3.3998203E-1,2.9892707E-1,-4.3592206E-1,7.9621816E-1,3.3874926E-1,-1.2755045E0,5.688533E-1,-5.5601674E-1,1.0763369E0,-6.97078E-2,4.0355572E-1,-3.9127815E-1,-8.2771726E-2,4.1706706E-3,-7.773057E-2,8.080007E-1,-1.0231614E0,-3.5562512E-1,-1.1935788E-2,1.342873E0,-6.931607E-2,5.352771E-1,3.4668532E-1,-7.35613E-2,6.9584586E-2,7.396637E-3,-6.318985E-2,3.747382E-2,-9.552548E-3,-7.659628E-2,9.035339E-2,5.1271867E-2,-3.425769E-2,2.080154E-2,5.083185E-2,2.2314427E-2,3.5069443E-2,-7.367227E-2],"categories":[],"categories_nodes":[],"categories_segments":[],"categories_sizes":[],"default_left":[0,0,0,0,0,0,0,0,0,0,0,0,0,0,0,0,0,0,0,0,0,0,0,0,0,0,0,0,0,0,0,0,0,0,0,0,0,0,0],"id":18,"left_children":[1,3,5,7,9,11,13,15,17,19,-1,21,23,-1,-1,-1,25,27,29,-1,31,33,35,37,-1,-1,-1,-1,-1,-1,-1,-1,-1,-1,-1,-1,-1,-1,-1],"loss_changes":[3.0063333E2,1.313133E2,1.1959158E2,1.3412741E2,5.905089E1,8.796629E1,2.4597061E1,6.1509644E1,9.2279816E1,2.9807907E1,0E0,1.0630029E2,1.2152819E2,0E0,0E0,0E0,4.1047096E1,1.276232E2,1.341333E2,0E0,8.163902E0,1.11573494E2,5.65437E1,5.962771E1,0E0,0E0,0E0,0E0,0E0,0E0,0E0,0E0,0E0,0E0,0E0,0E0,0E0,0E0,0E0],"parents":[2147483647,0,0,1,1,2,2,3,3,4,4,5,5,6,6,7,7,8,8,9,9,11,11,12,12,16,16,17,17,18,18,20,20,21,21,22,22,23,23],"right_children":[2,4,6,8,10,12,14,16,18,20,-1,22,24,-1,-1,-1,26,28,30,-1,32,34,36,38,-1,-1,-1,-1,-1,-1,-1,-1,-1,-1,-1,-1,-1,-1,-1],"split_conditions":[1.1134493E-3,2.0212398E-3,1.045457E1,-5.284804E-3,-1.6351392E-5,7.3913044E-1,9.9900466E-1,-3.4524477E-4,-7.839641E-5,-5.614025E-1,-6.97078E-2,2.6086956E-1,1.38809E-3,-8.2771726E-2,4.1706706E-3,-7.773057E-2,-5.6540734E-1,5.130784E-3,8.2068605E-4,-1.1935788E-2,2.2816507E-3,5.6519467E-1,8.4745765E-2,6.440678E-1,-7.35613E-2,6.9584586E-2,7.396637E-3,-6.318985E-2,3.747382E-2,-9.552548E-3,-7.659628E-2,9.035339E-2,5.1271867E-2,-3.425769E-2,2.080154E-2,5.083185E-2,2.2314427E-2,3.5069443E-2,-7.367227E-2],"split_indices":[50,31,40,4,36,83,61,24,32,75,0,83,69,0,0,0,60,45,31,0,30,61,84,84,0,0,0,0,0,0,0,0,0,0,0,0,0,0,0],"split_type":[0,0,0,0,0,0,0,0,0,0,0,0,0,0,0,0,0,0,0,0,0,0,0,0,0,0,0,0,0,0,0,0,0,0,0,0,0,0,0],"sum_hessian":[3.1018228E3,1.2007769E3,1.901046E3,1.1079283E3,9.284844E1,1.8549763E3,4.606968E1,1.1779811E2,9.9013025E2,8.281217E1,1.0036274E1,1.7042682E3,1.5070819E2,3.589066E1,1.0179022E1,1.1324603E1,1.0647351E2,2.958507E2,6.9427954E2,1.3910226E1,6.890195E1,3.7124304E2,1.3330251E3,8.987801E1,6.083019E1,5.5837288E1,5.0636223E1,2.607917E2,3.505901E1,6.101605E2,8.411907E1,2.5948708E1,4.295324E1,1.6353467E2,2.0770839E2,2.0618343E2,1.1268417E3,7.5779785E1,1.4098225E1],"tree_param":{"num_deleted":"0","num_feature":"86","num_nodes":"39","size_leaf_vector":"1"}},{"base_weights":[6.237137E-3,-2.0650491E-1,4.6308947E-1,-2.9555333E-1,3.2882392E-1,-7.2740996E-1,5.166314E-1,-1.5197906E-1,-7.8841025E-1,5.3259784E-1,-8.419031E-1,3.257546E-1,-1.069322E-1,5.485672E-1,-4.337222E-2,-8.50253E-1,3.4212295E-2,6.6210246E-1,-1.0900822E0,-8.03869E-2,6.698798E-1,-8.4453486E-2,4.3665394E-2,-2.8478444E-2,6.859126E-2,3.7639496E-1,8.1029314E-1,5.2143255E-4,-6.073864E-2,3.6527326E-3,-9.312769E-2,-7.655694E-2,6.398279E-2,-7.811808E-2,-3.2881126E-2,4.2711552E-2,-2.3726696E-2,-5.6927115E-2,2.2877503E-2,-3.1011993E-2,4.282651E-2],"categories":[],"categories_nodes":[],"categories_segments":[],"categories_sizes":[],"default_left":[0,0,0,0,0,0,0,0,0,0,0,0,0,0,0,0,0,0,0,0,0,0,0,0,0,0,0,0,0,0,0,0,0,0,0,0,0,0,0,0,0],"id":19,"left_children":[1,3,5,7,9,11,13,15,17,19,21,23,-1,25,-1,27,29,31,33,-1,35,-1,-1,-1,-1,37,39,-1,-1,-1,-1,-1,-1,-1,-1,-1,-1,-1,-1,-1,-1],"loss_changes":[2.8892984E2,9.676746E1,6.056308E1,1.2287071E2,6.949144E1,6.179672E1,4.0427765E1,1.7542232E2,1.7229819E2,7.364754E1,6.438748E1,2.3619228E1,0E0,3.944992E1,0E0,8.9237656E1,7.8450966E1,9.411272E1,6.5118866E1,0E0,4.963086E1,0E0,0E0,0E0,0E0,6.633206E1,2.3706314E1,0E0,0E0,0E0,0E0,0E0,0E0,0E0,0E0,0E0,0E0,0E0,0E0,0E0,0E0],"parents":[2147483647,0,0,1,1,2,2,3,3,4,4,5,5,6,6,7,7,8,8,9,9,10,10,11,11,13,13,15,15,16,16,17,17,18,18,20,20,25,25,26,26],"right_children":[2,4,6,8,10,12,14,16,18,20,22,24,-1,26,-1,28,30,32,34,-1,36,-1,-1,-1,-1,38,40,-1,-1,-1,-1,-1,-1,-1,-1,-1,-1,-1,-1,-1,-1],"split_conditions":[1.8548883E-3,6.25786E-4,1.2541267E-3,1.5374544E-4,5.318417E-3,-1.0455115E-2,9.473844E0,2.7118644E-1,-1.7499497E-4,-2.5873235E-3,7.2888966E-4,-6.225593E-4,-1.069322E-1,3.770739E-3,-4.337222E-2,5.4579154E-3,2.4761152E-3,7.058782E-1,2.611648E-4,-8.03869E-2,1.1863606E0,-8.4453486E-2,4.3665394E-2,-2.8478444E-2,6.859126E-2,7.462675E-2,8.6580083E-4,5.2143255E-4,-6.073864E-2,3.6527326E-3,-9.312769E-2,-7.655694E-2,6.398279E-2,-7.811808E-2,-3.2881126E-2,4.2711552E-2,-2.3726696E-2,-5.6927115E-2,2.2877503E-2,-3.1011993E-2,4.282651E-2],"split_indices":[49,23,53,23,4,44,40,84,24,4,24,20,0,9,0,47,54,65,5,0,76,0,0,0,0,63,5,0,0,0,0,0,0,0,0,0,0,0,0,0,0],"split_type":[0,0,0,0,0,0,0,0,0,0,0,0,0,0,0,0,0,0,0,0,0,0,0,0,0,0,0,0,0,0,0,0,0,0,0,0,0,0,0,0,0],"sum_hessian":[2.9705352E3,2.0269678E3,9.435674E2,1.7384266E3,2.885411E2,3.9987904E1,9.0357947E2,1.3474205E3,3.9100613E2,2.4630103E2,4.2240074E1,2.3298897E1,1.6689005E1,8.838614E2,1.971804E1,2.830117E2,1.0644088E3,6.705637E1,3.2394977E2,1.4156122E1,2.3214491E2,2.8324E1,1.3916075E1,1.2747948E1,1.0550949E1,5.3484344E2,3.4901797E2,8.440855E1,1.9860313E2,1.044043E3,2.0365913E1,1.4372202E1,5.2684174E1,1.5348659E2,1.7046318E2,2.0023105E2,3.1913858E1,2.6469574E1,5.0837384E2,1.0471191E1,3.3854678E2],"tree_param":{"num_deleted":"0","num_feature":"86","num_nodes":"41","size_leaf_vector":"1"}},{"base_weights":[4.246998E-2,-2.1546987E-1,3.8639766E-1,-3.4620076E-1,4.475964E-1,-8.378155E-2,4.1888344E-1,-2.3464817E-1,-1.3877925E0,6.2692505E-1,-1.0333102E0,4.470712E-1,-9.835085E-1,-1.2671134E-1,-8.7958443E-1,1.2348943E-2,-7.5934395E-2,8.302818E-1,-8.0342245E-1,-8.723351E-2,1.834777E-2,-2.1514985E-1,5.0798273E-1,4.3979106E-3,-8.498681E-2,8.191179E-3,-1.9756896E-2,7.53887E-3,-7.6995425E-2,-6.709105E-2,4.731254E-2,2.6637414E-2,-7.276007E-2,1.4400569E-2,-8.203133E-2,5.469949E-2,2.1772912E-2],"categories":[],"categories_nodes":[],"categories_segments":[],"categories_sizes":[],"default_left":[0,0,0,0,0,0,0,0,0,0,0,0,0,0,0,0,0,0,0,0,0,0,0,0,0,0,0,0,0,0,0,0,0,0,0,0,0],"id":20,"left_children":[1,3,5,7,9,-1,11,13,15,17,19,21,23,25,27,-1,-1,29,31,-1,-1,33,35,-1,-1,-1,-1,-1,-1,-1,-1,-1,-1,-1,-1,-1,-1],"loss_changes":[2.6693832E2,1.4917824E2,8.696237E1,1.6646028E2,7.588548E1,0E0,5.060727E1,9.022286E1,3.0182922E1,7.441291E1,3.1592213E1,5.040538E1,1.9707245E1,8.697915E1,1.2688608E2,0E0,0E0,5.7282303E1,2.8740105E1,0E0,0E0,7.630074E1,4.789029E1,0E0,0E0,0E0,0E0,0E0,0E0,0E0,0E0,0E0,0E0,0E0,0E0,0E0,0E0],"parents":[2147483647,0,0,1,1,2,2,3,3,4,4,6,6,7,7,8,8,9,9,10,10,11,11,12,12,13,13,14,14,17,17,18,18,21,21,22,22],"right_children":[2,4,6,8,10,-1,12,14,16,18,20,22,24,26,28,-1,-1,30,32,-1,-1,34,36,-1,-1,-1,-1,-1,-1,-1,-1,-1,-1,-1,-1,-1,-1],"split_conditions":[1.8728615E-3,5.6128495E-4,6.6707254E-4,8.2068605E-4,1.8250989E-3,-8.378155E-2,8.990496E0,9.9995E-1,-3.5141496E-4,-2.9282576E-8,8.799965E-1,1.2626244E-1,1.9519286E-1,3.640615E-2,1.1790319E-2,1.2348943E-2,-7.5934395E-2,8.6684356E-4,6.14485E-4,-8.723351E-2,1.834777E-2,-6.5893177E-3,-2.0371499E-2,4.3979106E-3,-8.498681E-2,8.191179E-3,-1.9756896E-2,7.53887E-3,-7.6995425E-2,-6.709105E-2,4.731254E-2,2.6637414E-2,-7.276007E-2,1.4400569E-2,-8.203133E-2,5.469949E-2,2.1772912E-2],"split_indices":[55,23,53,31,54,0,40,11,24,68,63,71,61,77,61,0,0,55,23,0,0,18,19,0,0,0,0,0,0,0,0,0,0,0,0,0,0],"split_type":[0,0,0,0,0,0,0,0,0,0,0,0,0,0,0,0,0,0,0,0,0,0,0,0,0,0,0,0,0,0,0,0,0,0,0,0,0],"sum_hessian":[3.0068906E3,1.7182875E3,1.2886033E3,1.4358269E3,2.8246054E2,1.9153908E1,1.2694493E3,1.2981217E3,1.3770518E2,2.5252547E2,2.9935085E1,1.2451742E3,2.4275215E1,1.1131722E3,1.849495E2,1.00862055E1,1.2761899E2,2.2152065E2,3.1004812E1,1.9734873E1,1.02002125E1,1.0453298E2,1.1406412E3,1.0021204E1,1.425401E1,5.3457996E2,5.785922E2,7.247718E1,1.12472305E2,1.064812E1,2.1087253E2,1.0174963E1,2.082985E1,7.779936E1,2.673362E1,1.2391654E2,1.0167247E3],"tree_param":{"num_deleted":"0","num_feature":"86","num_nodes":"37","size_leaf_vector":"1"}},{"base_weights":[5.4422658E-2,-2.832358E-1,2.6923814E-1,2.9722816E-1,-4.15136E-1,-2.6600754E-1,3.9157972E-1,-7.537149E-2,4.5982915E-1,-1.8800315E-1,-1.0326803E0,8.251216E-1,-4.439668E-1,4.8399806E-1,-4.228075E-1,-8.6807454E-1,7.194295E-1,-6.4279966E-2,-1.2945522E0,-1.2735611E0,3.851265E-1,1.5166855E0,-2.5265137E-2,-7.518523E-1,7.865739E-1,-4.4852268E-2,5.8299935E-1,2.0207092E-1,-7.085354E-2,-7.7363275E-2,3.1083632E-2,4.6198428E-2,-7.23497E-2,-2.2896744E-2,2.1592418E-2,-8.044682E-2,2.7474755E-2,-6.825311E-2,2.594533E-2,6.1737385E-2,-7.316707E-2,5.427248E-2,8.816176E-2,-5.099752E-2,4.783642E-2,5.45784E-2,-3.0377278E-2,1.0274297E-2,-6.774897E-2,1.7431995E-2,3.6344748E-2,4.8534792E-2,-3.90565E-2],"categories":[],"categories_nodes":[],"categories_segments":[],"categories_sizes":[],"default_left":[0,0,0,0,0,0,0,0,0,0,0,0,0,0,0,0,0,0,0,0,0,0,0,0,0,0,0,0,0,0,0,0,0,0,0,0,0,0,0,0,0,0,0,0,0,0,0,0,0,0,0,0,0],"id":21,"left_children":[1,3,5,7,9,11,13,-1,15,17,19,21,23,25,27,29,31,33,35,37,39,41,-1,43,45,47,49,51,-1,-1,-1,-1,-1,-1,-1,-1,-1,-1,-1,-1,-1,-1,-1,-1,-1,-1,-1,-1,-1,-1,-1,-1,-1],"loss_changes":[2.2022714E2,9.051416E1,1.21633316E2,6.4855125E1,1.3467932E2,6.7453026E1,1.1393608E2,0E0,7.014988E1,9.6296486E1,8.8848175E1,4.5717175E1,1.1346862E2,7.115918E1,9.6348236E1,3.4827156E1,7.632629E1,1.2425999E2,4.201419E1,3.7075073E1,6.184233E1,1.2431641E0,0E0,1.1041101E2,2.624527E1,7.085482E1,3.8210144E1,7.305207E1,0E0,0E0,0E0,0E0,0E0,0E0,0E0,0E0,0E0,0E0,0E0,0E0,0E0,0E0,0E0,0E0,0E0,0E0,0E0,0E0,0E0,0E0,0E0,0E0,0E0],"parents":[2147483647,0,0,1,1,2,2,3,3,4,4,5,5,6,6,8,8,9,9,10,10,11,11,12,12,13,13,14,14,15,15,16,16,17,17,18,18,19,19,20,20,21,21,23,23,24,24,25,25,26,26,27,27],"right_children":[2,4,6,8,10,12,14,-1,16,18,20,22,24,26,28,30,32,34,36,38,40,42,-1,44,46,48,50,52,-1,-1,-1,-1,-1,-1,-1,-1,-1,-1,-1,-1,-1,-1,-1,-1,-1,-1,-1,-1,-1,-1,-1,-1,-1],"split_conditions":[1.1134493E-3,1.3043478E-1,2.6086956E-1,-7.4073665E-2,1.3547877E-4,-7.6896095E-1,7.3913044E-1,-7.537149E-2,-5.358339E-4,5.858345E-4,1.11906305E-2,1.2619887E-3,3.0216996E-3,-8.974324E-2,3.3332962E-1,1.0044044E0,-3.009329E-8,5.64589E-5,9.302304E-1,9.535242E-4,8.181781E-1,4.647292E-7,-2.5265137E-2,-2.7662516E-8,7.826768E-3,-7.3129707E-4,-4.0240318E-1,1.6211636E-3,-7.085354E-2,-7.7363275E-2,3.1083632E-2,4.6198428E-2,-7.23497E-2,-2.2896744E-2,2.1592418E-2,-8.044682E-2,2.7474755E-2,-6.825311E-2,2.594533E-2,6.1737385E-2,-7.316707E-2,5.427248E-2,8.816176E-2,-5.099752E-2,4.783642E-2,5.45784E-2,-3.0377278E-2,1.0274297E-2,-6.774897E-2,1.7431995E-2,3.6344748E-2,4.8534792E-2,-3.90565E-2],"split_indices":[50,83,83,72,23,60,83,0,22,36,26,50,31,72,62,57,66,20,65,36,65,37,0,66,80,27,60,54,0,0,0,0,0,0,0,0,0,0,0,0,0,0,0,0,0,0,0,0,0,0,0,0,0],"split_type":[0,0,0,0,0,0,0,0,0,0,0,0,0,0,0,0,0,0,0,0,0,0,0,0,0,0,0,0,0,0,0,0,0,0,0,0,0,0,0,0,0,0,0,0,0,0,0,0,0,0,0,0,0],"sum_hessian":[3.0341492E3,1.1794471E3,1.854702E3,2.1801212E2,9.61435E2,3.4468964E2,1.5100123E3,1.7285046E1,2.0072708E2,7.039781E2,2.5745688E2,4.774573E1,2.969439E2,1.3565919E3,1.5342036E2,3.237809E1,1.6834898E2,6.34215E2,6.976309E1,2.2021527E2,3.7241604E1,3.1372992E1,1.637274E1,2.3789264E2,5.9051277E1,2.1383795E2,1.142754E3,9.4638054E1,5.878231E1,2.225866E1,1.0119432E1,1.54392E2,1.3956983E1,3.5378305E2,2.8043198E2,5.9757072E1,1.0006016E1,2.0979974E2,1.0415526E1,2.5778849E1,1.1462755E1,1.3524923E1,1.7848068E1,2.060261E2,3.1866549E1,4.868838E1,1.0362898E1,1.8017673E2,3.366122E1,4.362923E2,7.0646173E2,5.317922E1,4.1458836E1],"tree_param":{"num_deleted":"0","num_feature":"86","num_nodes":"53","size_leaf_vector":"1"}},{"base_weights":[1.5173417E-2,-3.240933E-1,2.761105E-1,5.312599E-1,-4.1348082E-1,-1.2532091E0,3.0847564E-1,9.247736E-1,-7.282684E-2,-9.000155E-1,-1.7837481E-1,4.593944E-3,-9.138887E-2,1.7761274E-1,5.685964E-1,-2.1487594E-2,1.2565218E0,-7.299816E-2,-4.9201992E-1,-1.6068291E-3,-9.2673284E-1,6.8745875E-1,3.3474773E-2,-5.823886E-1,6.6111714E-1,7.1358494E-2,1.1817863E-2,4.1081975E-3,-5.2827578E-2,1.467548E-2,-2.7071346E-2,2.6086515E-2,-5.775108E-2,4.3153346E-2,-1.3866625E-2,2.8874055E-2,-9.000967E-3,-1.07341744E-1,2.147566E-2,3.855526E-2,-7.7489973E-3],"categories":[],"categories_nodes":[],"categories_segments":[],"categories_sizes":[],"default_left":[0,0,0,0,0,0,0,0,0,0,0,0,0,0,0,0,0,0,0,0,0,0,0,0,0,0,0,0,0,0,0,0,0,0,0,0,0,0,0,0,0],"id":22,"left_children":[1,3,5,7,9,11,13,15,-1,17,19,-1,-1,21,23,-1,25,-1,27,29,31,33,35,37,39,-1,-1,-1,-1,-1,-1,-1,-1,-1,-1,-1,-1,-1,-1,-1,-1],"loss_changes":[2.6075262E2,9.810486E1,8.270839E1,9.6317245E1,1.3241228E2,2.7114113E1,5.5359085E1,4.6483437E1,0E0,8.533118E1,1.0354031E2,0E0,0E0,7.979454E1,5.8465897E1,0E0,1.3822723E1,0E0,7.149571E1,1.01318985E2,5.0127472E1,4.0857407E1,9.8715225E1,6.604079E1,4.553836E1,0E0,0E0,0E0,0E0,0E0,0E0,0E0,0E0,0E0,0E0,0E0,0E0,0E0,0E0,0E0,0E0],"parents":[2147483647,0,0,1,1,2,2,3,3,4,4,5,5,6,6,7,7,9,9,10,10,13,13,14,14,16,16,18,18,19,19,20,20,21,21,22,22,23,23,24,24],"right_children":[2,4,6,8,10,12,14,16,-1,18,20,-1,-1,22,24,-1,26,-1,28,30,32,34,36,38,40,-1,-1,-1,-1,-1,-1,-1,-1,-1,-1,-1,-1,-1,-1,-1,-1],"split_conditions":[1.1888898E-3,-2.2003353E-3,4.347826E-2,5.9322035E-1,2.5300842E-3,-9.963023E-3,1.1542377E-2,2.7118644E-1,-7.282684E-2,4.5762712E-1,3.6700594E-1,4.593944E-3,-9.138887E-2,-1.4195113E0,-2.450648E-3,-2.1487594E-2,1.7074853E-3,-7.299816E-2,-6.742471E-4,7.0085034E-2,3.264862E-4,7.118644E-1,8.710195E-1,3.8833404E-3,6.5217394E-1,7.1358494E-2,1.1817863E-2,4.1081975E-3,-5.2827578E-2,1.467548E-2,-2.7071346E-2,2.6086515E-2,-5.775108E-2,4.3153346E-2,-1.3866625E-2,2.8874055E-2,-9.000967E-3,-1.07341744E-1,2.147566E-2,3.855526E-2,-7.7489973E-3],"split_indices":[49,20,83,84,45,66,45,84,0,84,41,0,0,76,2,0,54,0,31,77,21,84,51,53,83,0,0,0,0,0,0,0,0,0,0,0,0,0,0,0,0],"split_type":[0,0,0,0,0,0,0,0,0,0,0,0,0,0,0,0,0,0,0,0,0,0,0,0,0,0,0,0,0,0,0,0,0,0,0,0,0,0,0,0,0],"sum_hessian":[2.9434927E3,1.279404E3,1.6640885E3,1.2047839E2,1.1589257E3,3.364162E1,1.6304469E3,1.0105763E2,1.9420769E1,3.7651074E2,7.82415E2,1.0268554E1,2.3373066E1,1.086109E3,5.4433795E2,1.9764103E1,8.1293526E1,1.5751205E2,2.1899869E2,6.3383417E2,1.485808E2,2.3839456E2,8.477144E2,4.0026066E1,5.0431186E2,6.921809E1,1.207544E1,1.08906975E2,1.1009171E2,4.0997455E2,2.2385963E2,1.9994534E1,1.2858626E2,2.0186148E2,3.653308E1,2.3857156E2,6.091429E2,1.531917E1,2.4706896E1,4.4457297E2,5.97389E1],"tree_param":{"num_deleted":"0","num_feature":"86","num_nodes":"41","size_leaf_vector":"1"}},{"base_weights":[4.092101E-2,-1.5277417E-1,3.9949664E-1,-5.081968E-1,4.5997403E-3,8.479528E-1,2.8986576E-1,-2.604664E-1,-1.210212E0,2.989434E-1,-3.0619675E-1,-1.4170024E-1,1.0738863E0,3.4435132E-1,-9.694827E-1,1.4882393E0,-4.2505115E-1,-1.7483464E-1,-7.430656E-2,-8.069019E-3,7.486586E-1,-6.7240375E-1,4.3295762E-1,6.0408562E-2,-7.920874E-1,1.1739553E0,-0E0,5.29184E-1,2.2928368E-2,5.727302E-2,-1.9812194E0,9.694198E-2,2.1078903E-2,-7.193601E-2,-7.5275754E-4,7.626361E-2,-7.099871E-2,2.7888257E-2,-3.049629E-2,5.293047E-2,-2.0893184E-2,-1.13067385E-2,-5.7279315E-2,3.1198112E-2,-8.160691E-2,6.1473396E-2,-1.05649464E-1,2.5014758E-2,6.103739E-2,-3.132155E-2,2.9529322E-2,8.088118E-3,-1.1909486E-1,-6.968576E-2,-1.2037996E-1],"categories":[],"categories_nodes":[],"categories_segments":[],"categories_sizes":[],"default_left":[0,0,0,0,0,0,0,0,0,0,0,0,0,0,0,0,0,0,0,0,0,0,0,0,0,0,0,0,0,0,0,0,0,0,0,0,0,0,0,0,0,0,0,0,0,0,0,0,0,0,0,0,0,0,0],"id":23,"left_children":[1,3,5,7,9,11,13,15,17,19,21,23,25,27,29,31,33,35,-1,37,39,41,43,-1,45,47,-1,49,51,-1,53,-1,-1,-1,-1,-1,-1,-1,-1,-1,-1,-1,-1,-1,-1,-1,-1,-1,-1,-1,-1,-1,-1,-1,-1],"loss_changes":[2.083965E2,1.09005806E2,5.1379745E1,1.03535324E2,1.2367091E2,4.6312622E1,5.841263E1,1.2813977E2,4.4026184E1,9.5965256E1,1.7826408E2,3.5237984E1,1.8141891E1,4.8233376E1,7.79417E1,1.7360535E1,1.6860114E2,7.402442E1,0E0,1.4118971E2,1.0243126E2,9.2535934E1,8.703112E1,0E0,7.488213E1,4.0617676E0,0E0,3.6976334E1,9.968109E1,0E0,2.3498306E0,0E0,0E0,0E0,0E0,0E0,0E0,0E0,0E0,0E0,0E0,0E0,0E0,0E0,0E0,0E0,0E0,0E0,0E0,0E0,0E0,0E0,0E0,0E0,0E0],"parents":[2147483647,0,0,1,1,2,2,3,3,4,4,5,5,6,6,7,7,8,8,9,9,10,10,11,11,12,12,13,13,14,14,15,15,16,16,17,17,19,19,20,20,21,21,22,22,24,24,25,25,27,27,28,28,30,30],"right_children":[2,4,6,8,10,12,14,16,18,20,22,24,26,28,30,32,34,36,-1,38,40,42,44,-1,46,48,-1,50,52,-1,54,-1,-1,-1,-1,-1,-1,-1,-1,-1,-1,-1,-1,-1,-1,-1,-1,-1,-1,-1,-1,-1,-1,-1,-1],"split_conditions":[1.3670093E-2,7.618711E-4,-7.8262907E-4,7.236986E-3,-8.0317055E-5,1.9519286E-1,9.629576E-1,-6.094051E-3,-9.999941E-1,-9.038774E-4,5.867615E-4,3.3333334E-1,8.972669E-2,2.3529273E-1,-5.282949E-1,-9.887406E-4,-2.9735354E-4,3.8365478E-4,-7.430656E-2,-7.671909E-3,8.633093E-4,-8.9262496E-5,7.457627E-1,6.0408562E-2,6.779661E-2,-5.0607393E-3,-0E0,-1.1205369E-6,1.9366447E-3,5.727302E-2,1.4213568E-3,9.694198E-2,2.1078903E-2,-7.193601E-2,-7.5275754E-4,7.626361E-2,-7.099871E-2,2.7888257E-2,-3.049629E-2,5.293047E-2,-2.0893184E-2,-1.13067385E-2,-5.7279315E-2,3.1198112E-2,-8.160691E-2,6.1473396E-2,-1.05649464E-1,2.5014758E-2,6.103739E-2,-3.132155E-2,2.9529322E-2,8.088118E-3,-1.1909486E-1,-6.968576E-2,-1.2037996E-1],"split_indices":[47,49,24,47,24,61,71,66,75,18,23,85,72,11,77,31,79,53,0,66,5,30,84,0,84,2,0,37,1,0,49,0,0,0,0,0,0,0,0,0,0,0,0,0,0,0,0,0,0,0,0,0,0,0,0],"split_type":[0,0,0,0,0,0,0,0,0,0,0,0,0,0,0,0,0,0,0,0,0,0,0,0,0,0,0,0,0,0,0,0,0,0,0,0,0,0,0,0,0,0,0,0,0,0,0,0,0,0,0,0,0,0,0],"sum_hessian":[2.9982468E3,1.9468783E3,1.0513685E3,5.969951E2,1.3498832E3,2.050292E2,8.4633936E2,4.4239444E2,1.5460071E2,6.9347705E2,6.564061E2,3.809453E1,1.6693468E2,8.120137E2,3.4325703E1,3.7311497E1,4.0508292E2,3.295064E1,1.2165007E2,4.125775E2,2.808995E2,4.3908914E2,2.1731696E2,1.2057644E1,2.6036882E1,1.526888E2,1.4245874E1,5.149415E2,2.9707208E2,1.1032422E1,2.3293282E1,2.5589888E1,1.1721611E1,1.1586549E2,2.8921744E2,1.3801229E1,1.9149414E1,2.1260478E2,1.9997273E2,2.2207208E2,5.882742E1,2.2684027E2,2.1224889E2,1.996017E2,1.7715258E1,1.0286922E1,1.574996E1,1.0815111E1,1.4187369E2,2.5434013E1,4.8950754E2,2.817789E2,1.529318E1,1.1689582E1,1.16037E1],"tree_param":{"num_deleted":"0","num_feature":"86","num_nodes":"55","size_leaf_vector":"1"}},{"base_weights":[2.0977205E-2,-2.288964E-1,2.8287148E-1,-1.078515E-1,-9.435745E-1,7.520006E-1,2.0121345E-1,-3.7246695E-1,1.8275024E-1,-1.107168E0,4.9232088E-2,8.5773313E-1,-4.960954E-2,-4.619622E-1,3.265489E-1,-7.040938E-2,-2.032513E-1,-7.1036035E-1,3.21031E-1,-7.060859E-1,-7.321091E-2,3.7403935E-1,1.1911168E0,-1.1145121E-1,-9.703817E-2,-8.6934185E-1,3.700546E-1,3.4164686E-3,-4.017591E-2,2.2102771E-2,-5.6778707E-2,3.170402E-2,-9.233118E-3,-7.8511424E-2,3.3645344E-3,-2.0273639E-2,5.2721392E-2,6.270223E-2,4.1108422E-2,1.627425E-2,-6.512713E-2,-9.9428914E-2,5.82758E-2,2.571399E-2,-2.383272E-3],"categories":[],"categories_nodes":[],"categories_segments":[],"categories_sizes":[],"default_left":[0,0,0,0,0,0,0,0,0,0,0,0,0,0,0,0,0,0,0,0,0,0,0,0,0,0,0,0,0,0,0,0,0,0,0,0,0,0,0,0,0,0,0,0,0],"id":24,"left_children":[1,3,5,7,9,11,13,15,17,19,-1,21,-1,23,25,-1,27,29,31,33,-1,35,37,39,-1,41,43,-1,-1,-1,-1,-1,-1,-1,-1,-1,-1,-1,-1,-1,-1,-1,-1,-1,-1],"loss_changes":[1.910781E2,1.2903963E2,5.437184E1,9.843101E1,6.928418E1,3.9718933E1,1.0120494E2,1.1695668E2,7.552522E1,2.7356049E1,0E0,3.1547989E1,0E0,9.9908844E1,5.3515778E1,0E0,9.4201355E1,4.075295E1,8.390791E1,6.450862E1,0E0,4.4475224E1,1.4880524E0,8.253629E1,0E0,8.470975E1,5.9607834E1,0E0,0E0,0E0,0E0,0E0,0E0,0E0,0E0,0E0,0E0,0E0,0E0,0E0,0E0,0E0,0E0,0E0,0E0],"parents":[2147483647,0,0,1,1,2,2,3,3,4,4,5,5,6,6,7,7,8,8,9,9,11,11,13,13,14,14,16,16,17,17,18,18,19,19,21,21,22,22,23,23,25,25,26,26],"right_children":[2,4,6,8,10,12,14,16,18,20,-1,22,-1,24,26,-1,28,30,32,34,-1,36,38,40,-1,42,44,-1,-1,-1,-1,-1,-1,-1,-1,-1,-1,-1,-1,-1,-1,-1,-1,-1,-1],"split_conditions":[1.1022254E-2,8.135593E-1,-1.6288126E-2,4.7457626E-1,-2.7270247E-8,-1.8204136E-3,-3.2219961E-3,8.6684356E-4,7.730708E-4,-2.092143E-3,4.9232088E-2,2.8063073E-3,-4.960954E-2,1.2648359E-1,-4.584942E-3,-7.040938E-2,1.622218E-7,1.1538417E-1,3.8474817E-3,-2.3663216E-3,-7.321091E-2,-3.0732262E-3,-1.8423846E-2,-7.8003844E-3,-9.703817E-2,9.661017E-1,-5.316587E-4,3.4164686E-3,-4.017591E-2,2.2102771E-2,-5.6778707E-2,3.170402E-2,-9.233118E-3,-7.8511424E-2,3.3645344E-3,-2.0273639E-2,5.2721392E-2,6.270223E-2,4.1108422E-2,1.627425E-2,-6.512713E-2,-9.9428914E-2,5.82758E-2,2.571399E-2,-2.383272E-3],"split_indices":[47,84,19,84,68,17,29,55,54,19,0,55,0,59,79,0,37,65,45,18,0,30,19,18,0,84,68,0,0,0,0,0,0,0,0,0,0,0,0,0,0,0,0,0,0],"split_type":[0,0,0,0,0,0,0,0,0,0,0,0,0,0,0,0,0,0,0,0,0,0,0,0,0,0,0,0,0,0,0,0,0,0,0,0,0,0,0,0,0,0,0,0,0],"sum_hessian":[2.9178047E3,1.493039E3,1.4247657E3,1.2778933E3,2.1514569E2,2.0983289E2,1.2149329E3,6.6888446E2,6.0900885E2,1.9876018E2,1.6385517E1,1.9837311E2,1.1459772E1,1.9256235E2,1.02237054E3,9.282378E1,5.7606067E2,8.099945E1,5.280094E2,9.5142365E1,1.0361781E2,8.192832E1,1.16444786E2,1.5658983E2,3.597251E1,3.5140594E1,9.8723E2,3.971131E2,1.7894759E2,2.1757475E1,5.9241978E1,3.2608835E2,2.0192105E2,4.450881E1,5.0633556E1,3.8302612E1,4.3625713E1,9.719687E1,1.9247923E1,1.1503392E2,4.1555904E1,2.2717264E1,1.2423329E1,7.338601E2,2.5336987E2],"tree_param":{"num_deleted":"0","num_feature":"86","num_nodes":"45","size_leaf_vector":"1"}},{"base_weights":[5.9900153E-2,-1.7276329E-1,3.6646128E-1,3.823581E-1,-2.7934942E-1,3.941795E-1,-8.84134E-2,4.952212E-1,-8.027636E-2,-7.5739044E-1,-7.40169E-2,-3.4564003E-1,4.578779E-1,-6.739461E-2,6.2477976E-1,-3.7158793E-1,-1.2680492E0,-1.0486517E0,7.861783E-2,3.987695E-1,-1.266458E0,8.617485E-1,3.8342428E-1,5.2897334E-2,1.2817331E-2,-5.1767666E-2,2.3054102E-2,-6.8712935E-2,2.3250906E-2,4.039585E-2,-7.482605E-2,2.7154123E-2,-8.029848E-3,-3.9925054E-2,4.065994E-2,-8.126571E-2,-0E0,1.42609E-2,5.1234245E-2,2.5149768E-2,1.2641099E-5],"categories":[],"categories_nodes":[],"categories_segments":[],"categories_sizes":[],"default_left":[0,0,0,0,0,0,0,0,0,0,0,0,0,0,0,0,0,0,0,0,0,0,0,0,0,0,0,0,0,0,0,0,0,0,0,0,0,0,0,0,0],"id":25,"left_children":[1,3,5,7,9,11,-1,13,-1,15,17,19,21,-1,23,25,27,29,31,33,35,37,39,-1,-1,-1,-1,-1,-1,-1,-1,-1,-1,-1,-1,-1,-1,-1,-1,-1,-1],"loss_changes":[2.1225854E2,1.00191826E2,7.6537674E1,6.1881706E1,1.3923834E2,5.994565E1,0E0,6.2598618E1,0E0,8.3370026E1,1.481313E2,6.982455E1,3.4679886E1,0E0,3.8323082E1,1.3562292E2,3.4410248E1,1.1338255E2,9.575781E1,2.8710442E1,2.065908E1,1.6566757E1,4.5242767E1,0E0,0E0,0E0,0E0,0E0,0E0,0E0,0E0,0E0,0E0,0E0,0E0,0E0,0E0,0E0,0E0,0E0,0E0],"parents":[2147483647,0,0,1,1,2,2,3,3,4,4,5,5,7,7,9,9,10,10,11,11,12,12,14,14,15,15,16,16,17,17,18,18,19,19,20,20,21,21,22,22],"right_children":[2,4,6,8,10,12,-1,14,-1,16,18,20,22,-1,24,26,28,30,32,34,36,38,40,-1,-1,-1,-1,-1,-1,-1,-1,-1,-1,-1,-1,-1,-1,-1,-1,-1,-1],"split_conditions":[1.8832444E-3,-4.932343E-4,2.4957125E-1,1.7895766E-3,4.0740514E-1,1.2626244E-1,-8.84134E-2,1.0602125E-3,-8.027636E-2,-8.36237E-4,-2.7468754E-4,-6.5802857E-3,-8.3094696E-4,-6.739461E-2,4.1095834E-2,-1.3647719E-3,2.0891426E-3,-7.057993E-4,-1.7499497E-4,-9.7449095E-4,-2.1231687E-3,2.6911747E-1,2.9374852E-3,5.2897334E-2,1.2817331E-2,-5.1767666E-2,2.3054102E-2,-6.8712935E-2,2.3250906E-2,4.039585E-2,-7.482605E-2,2.7154123E-2,-8.029848E-3,-3.9925054E-2,4.065994E-2,-8.126571E-2,-0E0,1.42609E-2,5.1234245E-2,2.5149768E-2,1.2641099E-5],"split_indices":[55,32,72,55,71,71,0,55,0,2,0,29,24,0,65,16,54,20,24,23,68,61,54,0,0,0,0,0,0,0,0,0,0,0,0,0,0,0,0,0,0],"split_type":[0,0,0,0,0,0,0,0,0,0,0,0,0,0,0,0,0,0,0,0,0,0,0,0,0,0,0,0,0,0,0,0,0,0,0,0,0,0,0,0,0],"sum_hessian":[2.9737517E3,1.6907064E3,1.2830452E3,2.7176675E2,1.4189397E3,1.2674503E3,1.5594906E1,2.5792416E2,1.3842574E1,4.2539316E2,9.935466E2,1.0000105E2,1.1674492E3,1.627131E1,2.4165286E2,2.4341599E2,1.8197717E2,1.338222E2,8.5972437E2,5.5550858E1,4.4450195E1,1.7986444E2,9.875848E2,1.1008408E2,1.3156879E2,1.3537671E2,1.08039276E2,1.717183E2,1.0258855E1,2.5808804E1,1.08013405E2,2.9197232E2,5.677521E2,1.3983888E1,4.156697E1,3.441632E1,1.0033876E1,4.0373165E1,1.3949127E2,7.5226276E2,2.3532205E2],"tree_param":{"num_deleted":"0","num_feature":"86","num_nodes":"41","size_leaf_vector":"1"}},{"base_weights":[7.55985E-2,-1.7955536E-1,2.7438113E-1,3.256374E-2,-6.1089265E-1,-1.1562102E0,3.0401152E-1,1.083549E0,-5.929729E-2,1.2330739E-1,-8.5580033E-1,-8.620655E-2,6.7538465E-3,2.1419126E-1,7.1739423E-1,-7.2778338E-3,1.4168533E0,-7.096612E-2,7.185721E-3,1.0128006E0,-6.970154E-1,-1.1198503E0,3.774899E-1,2.5462633E-1,-1.5548618E0,-4.32768E-2,7.9954845E-1,8.638448E-2,4.6173327E-2,-5.2666694E-2,4.885835E-3,-9.499657E-3,8.214801E-2,4.0445063E-2,-7.227623E-2,-5.967873E-2,3.3675816E-2,8.000786E-2,-6.777524E-2,4.8382282E-2,9.431791E-3,-1.0727199E-1,-1.6939856E-2,4.859037E-2,1.647698E-3],"categories":[],"categories_nodes":[],"categories_segments":[],"categories_sizes":[],"default_left":[0,0,0,0,0,0,0,0,0,0,0,0,0,0,0,0,0,0,0,0,0,0,0,0,0,0,0,0,0,0,0,0,0,0,0,0,0,0,0,0,0,0,0,0,0],"id":26,"left_children":[1,3,5,7,9,11,13,15,17,19,21,-1,-1,23,25,-1,27,-1,29,31,33,35,37,39,41,-1,43,-1,-1,-1,-1,-1,-1,-1,-1,-1,-1,-1,-1,-1,-1,-1,-1,-1,-1],"loss_changes":[1.5059447E2,1.1902856E2,7.100855E1,8.4382164E1,7.727919E1,2.5328743E1,6.0493652E1,2.9113983E1,7.276137E1,7.956066E1,1.0527817E2,0E0,0E0,9.651222E1,3.857721E1,0E0,6.6393814E0,0E0,7.360288E1,4.0093655E1,6.518047E1,3.593741E1,1.23863976E2,6.1639534E1,2.0679512E1,0E0,3.6522583E1,0E0,0E0,0E0,0E0,0E0,0E0,0E0,0E0,0E0,0E0,0E0,0E0,0E0,0E0,0E0,0E0,0E0,0E0],"parents":[2147483647,0,0,1,1,2,2,3,3,4,4,5,5,6,6,7,7,8,8,9,9,10,10,13,13,14,14,16,16,18,18,19,19,20,20,21,21,22,22,23,23,24,24,26,26],"right_children":[2,4,6,8,10,12,14,16,18,20,22,-1,-1,24,26,-1,28,-1,30,32,34,36,38,40,42,-1,44,-1,-1,-1,-1,-1,-1,-1,-1,-1,-1,-1,-1,-1,-1,-1,-1,-1,-1],"split_conditions":[1.1888898E-3,1.0611395E-1,4.347826E-2,-9.090514E-4,8.6614573E-1,4.6636593E-1,7.491885E1,-3.0042354E-3,-6.232148E-4,5.6585176E-3,1.1029518E-6,-8.620655E-2,6.7538465E-3,9.384601E-1,-6.385397E-1,-7.2778338E-3,5E-1,-7.096612E-2,3.7751926E-4,8.4999573E-1,-5.991786E-3,5.643453E-4,-3.1648847E-4,-1.0378086E-2,1.3827269E0,-4.32768E-2,1.4810572E0,8.638448E-2,4.6173327E-2,-5.2666694E-2,4.885835E-3,-9.499657E-3,8.214801E-2,4.0445063E-2,-7.227623E-2,-5.967873E-2,3.3675816E-2,8.000786E-2,-6.777524E-2,4.8382282E-2,9.431791E-3,-1.0727199E-1,-1.6939856E-2,4.859037E-2,1.647698E-3],"split_indices":[49,77,83,36,51,77,39,1,36,47,37,0,0,65,60,0,85,0,49,63,18,24,24,17,58,0,57,0,0,0,0,0,0,0,0,0,0,0,0,0,0,0,0,0,0],"split_type":[0,0,0,0,0,0,0,0,0,0,0,0,0,0,0,0,0,0,0,0,0,0,0,0,0,0,0,0,0,0,0,0,0,0,0,0,0,0,0,0,0,0,0,0,0],"sum_hessian":[2.9669663E3,1.2990817E3,1.6678845E3,8.712963E2,4.277854E2,3.3004215E1,1.6348804E3,6.925383E1,8.020425E2,1.0702552E2,3.207599E2,2.2743597E1,1.0260618E1,1.3445049E3,2.903755E2,1.4829879E1,5.4423954E1,3.650127E1,7.655412E2,5.1293823E1,5.5731697E1,2.643377E2,5.6422184E1,1.3153525E3,2.9152283E1,1.3796414E1,2.7657907E2,3.1729702E1,2.2694252E1,5.928705E1,7.0625415E2,1.7820127E1,3.3473694E1,1.843276E1,3.729894E1,2.5427483E2,1.0062873E1,3.3160824E1,2.326136E1,1.101387E2,1.2052139E3,1.9052845E1,1.0099438E1,2.2550781E2,5.1071255E1],"tree_param":{"num_deleted":"0","num_feature":"86","num_nodes":"45","size_leaf_vector":"1"}},{"base_weights":[3.0074144E-2,-8.896527E-2,4.0164882E-1,-7.516004E-2,-6.1415505E-2,-4.3736655E-1,5.1845837E-1,2.1423776E-2,-4.858715E-1,9.0038484E-1,-1.0685209E0,3.3661547E-1,7.6241124E-1,3.8061164E-2,-1.0704422E-1,-1.6913472E-1,-1.1606606E0,7.594968E-2,1.9829018E-2,7.851444E-2,-9.867811E-2,4.1957465E-1,-7.2554685E-2,8.4934753E-1,-2.2001205E-2,-6.5852315E-3,1.1923028E-2,1.6831942E-3,-6.7407124E-2,2.072919E-2,-6.599188E-2,-3.8940493E-2,5.7132192E-2,-2.5021E-2,2.8187776E-2,6.58597E-3,4.545107E-2],"categories":[],"categories_nodes":[],"categories_segments":[],"categories_sizes":[],"default_left":[0,0,0,0,0,0,0,0,0,0,0,0,0,0,0,0,0,0,0,0,0,0,0,0,0,0,0,0,0,0,0,0,0,0,0,0,0],"id":27,"left_children":[1,3,5,-1,7,9,11,13,15,17,19,21,23,25,-1,27,29,-1,-1,31,-1,33,-1,35,-1,-1,-1,-1,-1,-1,-1,-1,-1,-1,-1,-1,-1],"loss_changes":[1.2900175E2,8.579108E1,6.958837E1,0E0,7.626004E1,7.4366745E1,2.7214264E1,6.513328E1,7.536095E1,8.042986E0,6.217874E1,5.3634857E1,2.8063843E1,6.132282E1,0E0,5.81069E1,2.8935501E1,0E0,0E0,2.5725393E1,0E0,4.5809826E1,0E0,1.0357101E1,0E0,0E0,0E0,0E0,0E0,0E0,0E0,0E0,0E0,0E0,0E0,0E0,0E0],"parents":[2147483647,0,0,1,1,2,2,4,4,5,5,6,6,7,7,8,8,9,9,10,10,11,11,12,12,13,13,15,15,16,16,19,19,21,21,23,23],"right_children":[2,4,6,-1,8,10,12,14,16,18,20,22,24,26,-1,28,30,-1,-1,32,-1,34,-1,36,-1,-1,-1,-1,-1,-1,-1,-1,-1,-1,-1,-1,-1],"split_conditions":[1.6894905E-2,-1.1960336E0,2.0635456E-3,-7.516004E-2,7.3913044E-1,8.4077144E-1,1.0866356E0,3.9822767E-3,9.6339755E-2,-7.1644067E-4,1.8156968E-2,1.723148E-3,2.3444714E-2,5.752604E-1,-1.0704422E-1,6.0495216E-4,-1.0039085E-3,7.594968E-2,1.9829018E-2,8.972669E-2,-9.867811E-2,2.6086956E-1,-7.2554685E-2,2.2258214E-3,-2.2001205E-2,-6.5852315E-3,1.1923028E-2,1.6831942E-3,-6.7407124E-2,2.072919E-2,-6.599188E-2,-3.8940493E-2,5.7132192E-2,-2.5021E-2,2.8187776E-2,6.58597E-3,4.545107E-2],"split_indices":[47,77,55,0,83,51,52,50,77,32,47,0,26,61,0,22,23,0,0,72,0,83,0,50,0,0,0,0,0,0,0,0,0,0,0,0,0],"split_type":[0,0,0,0,0,0,0,0,0,0,0,0,0,0,0,0,0,0,0,0,0,0,0,0,0,0,0,0,0,0,0,0,0,0,0,0,0],"sum_hessian":[2.9139634E3,2.2073105E3,7.066529E2,4.1084637E1,2.1662258E3,8.591869E1,6.207342E2,1.8130872E3,3.5313864E2,2.735465E1,5.8564045E1,3.572381E2,2.634961E2,1.8002642E3,1.2823078E1,2.412827E2,1.1185594E2,1.12848E1,1.606985E1,2.6182943E1,3.23811E1,3.4218036E2,1.5057741E1,2.4608119E2,1.7414902E1,9.7453937E2,8.257248E2,2.0662773E2,3.4654964E1,1.0060691E1,1.0179525E2,1.4596949E1,1.1585996E1,4.593192E1,2.9624844E2,1.9266644E1,2.2681454E2],"tree_param":{"num_deleted":"0","num_feature":"86","num_nodes":"37","size_leaf_vector":"1"}},{"base_weights":[3.2299433E-2,-2.7773368E-1,2.576245E-1,-4.5661755E-2,-7.4929947E-1,1.1644343E-1,5.361001E-1,-6.862329E-2,4.8400834E-2,2.3776826E-1,-9.198856E-1,1.4738786E-1,-9.7985975E-2,-4.6830305E-1,6.254275E-1,1.3748117E-1,-7.103827E-2,9.7944194E-1,-6.814219E-1,-1.3790987E-1,-1.1651735E0,-1.8687949E-1,3.2521957E-1,-1.5156902E0,5.520908E-2,6.931358E-1,-2.6234683E-1,-7.507235E-2,1.1391205E-2,1.6606981E-2,9.979717E-2,2.6792174E-2,-7.150999E-2,3.8985085E-2,-4.8245873E-2,-6.509816E-2,3.6218185E-2,-6.579699E-2,2.1928237E-3,1.9434143E-2,-1.02091685E-1,-8.55707E-3,-1.12181164E-1,3.7426274E-2,-1.5468198E-2,-9.725964E-2,2.3909368E-2],"categories":[],"categories_nodes":[],"categories_segments":[],"categories_sizes":[],"default_left":[0,0,0,0,0,0,0,0,0,0,0,0,0,0,0,0,0,0,0,0,0,0,0,0,0,0,0,0,0,0,0,0,0,0,0,0,0,0,0,0,0,0,0,0,0,0,0],"id":28,"left_children":[1,3,5,7,9,11,13,-1,15,17,19,21,-1,23,25,27,-1,29,31,33,35,37,39,41,-1,43,45,-1,-1,-1,-1,-1,-1,-1,-1,-1,-1,-1,-1,-1,-1,-1,-1,-1,-1,-1,-1],"loss_changes":[2.0113393E2,1.3248918E2,6.543076E1,1.016951E2,6.754236E1,7.129388E1,5.0593857E1,0E0,9.957189E1,4.1305477E1,6.50892E1,6.503059E1,0E0,7.789633E1,3.1194E1,1.06499565E2,0E0,2.1104996E1,2.5582924E1,6.3470066E1,6.8006165E1,9.9155624E1,1.0786107E2,2.6996979E1,0E0,2.6877914E1,4.7348507E1,0E0,0E0,0E0,0E0,0E0,0E0,0E0,0E0,0E0,0E0,0E0,0E0,0E0,0E0,0E0,0E0,0E0,0E0,0E0,0E0],"parents":[2147483647,0,0,1,1,2,2,3,3,4,4,5,5,6,6,8,8,9,9,10,10,11,11,13,13,14,14,15,15,17,17,18,18,19,19,20,20,21,21,22,22,23,23,25,25,26,26],"right_children":[2,4,6,8,10,12,14,-1,16,18,20,22,-1,24,26,28,-1,30,32,34,36,38,40,42,-1,44,46,-1,-1,-1,-1,-1,-1,-1,-1,-1,-1,-1,-1,-1,-1,-1,-1,-1,-1,-1,-1],"split_conditions":[1.1888898E-3,1.0611395E-1,1.1542377E-2,3.7751926E-4,-1.7646762E-3,1.0735074E-2,-2.4476475E-3,-6.862329E-2,2.5619129E-3,2.697963E-4,-5.9323287E-1,3.9130434E-1,-9.7985975E-2,5.827506E-2,9.66657E-1,-1.6222694E-3,-7.103827E-2,-5.518764E-4,9.209733E-3,2.173913E-1,-2.6588673E-8,1.555641E-3,3.5448037E-3,2.0403864E-3,5.520908E-2,8.8135594E-1,6.440678E-1,-7.507235E-2,1.1391205E-2,1.6606981E-2,9.979717E-2,2.6792174E-2,-7.150999E-2,3.8985085E-2,-4.8245873E-2,-6.509816E-2,3.6218185E-2,-6.579699E-2,2.1928237E-3,1.9434143E-2,-1.02091685E-1,-8.55707E-3,-1.12181164E-1,3.7426274E-2,-1.5468198E-2,-9.725964E-2,2.3909368E-2],"split_indices":[49,77,45,49,30,45,78,0,78,1,60,83,0,47,71,30,0,3,47,83,68,55,54,49,0,84,84,0,0,0,0,0,0,0,0,0,0,0,0,0,0,0,0,0,0,0,0],"split_type":[0,0,0,0,0,0,0,0,0,0,0,0,0,0,0,0,0,0,0,0,0,0,0,0,0,0,0,0,0,0,0,0,0,0,0,0,0,0,0,0,0,0,0,0,0,0,0],"sum_hessian":[2.8771772E3,1.2106805E3,1.6664967E3,8.122543E2,3.984263E2,1.1070325E3,5.594642E2,5.2942577E1,7.593117E2,5.85657E1,3.398606E2,1.0917378E3,1.529476E1,4.5254745E1,5.142094E2,7.168229E2,4.248882E1,3.2436592E1,2.6129107E1,8.1621605E1,2.5823898E2,3.789043E2,7.1283344E2,2.7222395E1,1.803235E1,4.780794E2,3.613004E1,3.6575397E1,6.802475E2,2.0687826E1,1.1748766E1,1.000885E1,1.6120258E1,3.8661156E1,4.2960445E1,2.4114557E2,1.7093424E1,6.3569553E1,3.1533475E2,6.9507574E2,1.7757698E1,1.0043589E1,1.7178806E1,4.533824E2,2.4697012E1,1.0584748E1,2.5545288E1],"tree_param":{"num_deleted":"0","num_feature":"86","num_nodes":"47","size_leaf_vector":"1"}},{"base_weights":[3.161078E-2,-3.0344176E-1,2.0799814E-1,-2.3660417E-1,-6.7960866E-2,2.3319042E-1,-1.0860223E0,8.284569E-1,-3.1099647E-1,-7.581446E-2,2.5073078E-1,3.8931922E-3,-7.726704E-2,1.2302912E0,-1.1346062E-2,-8.207543E-1,-1.1552611E-1,6.732329E-1,1.8902451E-1,1.4001995E-2,7.530615E-2,8.017986E-2,-4.8197083E-2,3.560485E-3,-3.694038E-2,4.3999095E-2,-8.935675E-2,1.7948572E-2,-4.0849145E-3],"categories":[],"categories_nodes":[],"categories_segments":[],"categories_sizes":[],"default_left":[0,0,0,0,0,0,0,0,0,0,0,0,0,0,0,0,0,0,0,0,0,0,0,0,0,0,0,0,0],"id":29,"left_children":[1,3,5,7,-1,9,11,13,15,-1,17,-1,-1,19,-1,21,23,25,27,-1,-1,-1,-1,-1,-1,-1,-1,-1,-1],"loss_changes":[1.6854227E2,6.891711E1,6.1079674E1,7.359145E1,0E0,5.6523857E1,1.9396263E1,2.6102558E1,8.615696E1,0E0,4.714261E1,0E0,0E0,1.0972649E1,0E0,8.475264E1,7.3173515E1,1.189275E2,7.305147E1,0E0,0E0,0E0,0E0,0E0,0E0,0E0,0E0,0E0,0E0],"parents":[2147483647,0,0,1,1,2,2,3,3,5,5,6,6,7,7,8,8,10,10,13,13,15,15,16,16,17,17,18,18],"right_children":[2,4,6,8,-1,10,12,14,16,-1,18,-1,-1,20,-1,22,24,26,28,-1,-1,-1,-1,-1,-1,-1,-1,-1,-1],"split_conditions":[1.0230585E-3,1.0745996E-3,1.045457E1,-2.683558E-3,-6.7960866E-2,-2.9044438E-8,8.235246E-1,-3.887841E-1,1.389602E-1,-7.581446E-2,8.4745765E-2,3.8931922E-3,-7.726704E-2,-6.0541584E-4,-1.1346062E-2,-1.4299195E-6,2.039033E-3,-2.5951844E-3,1.99996E-1,1.4001995E-2,7.530615E-2,8.017986E-2,-4.8197083E-2,3.560485E-3,-3.694038E-2,4.3999095E-2,-8.935675E-2,1.7948572E-2,-4.0849145E-3],"split_indices":[49,50,40,28,0,69,12,60,61,0,84,0,0,32,0,37,79,66,11,0,0,0,0,0,0,0,0,0,0],"split_type":[0,0,0,0,0,0,0,0,0,0,0,0,0,0,0,0,0,0,0,0,0,0,0,0,0,0,0,0,0],"sum_hessian":[2.8499553E3,9.824596E2,1.8674956E3,9.2520667E2,5.7252884E1,1.832713E3,3.4782604E1,5.9655094E1,8.655516E2,1.7287691E1,1.8154254E3,1.0015836E1,2.4766768E1,4.3153465E1,1.6501629E1,2.3887929E2,6.266723E2,2.2988368E2,1.5855417E3,1.0243159E1,3.2910305E1,1.271415E1,2.2616515E2,4.827617E2,1.439106E2,2.1269365E2,1.7190031E1,9.740947E2,6.1144696E2],"tree_param":{"num_deleted":"0","num_feature":"86","num_nodes":"29","size_leaf_vector":"1"}},{"base_weights":[1.3332795E-2,-2.4717504E-1,2.3137227E-1,-1.329571E-1,-1.060921E0,-9.282803E-2,2.5941378E-1,-5.5553937E-1,1.2210992E-1,-6.287279E-2,-1.0028942E-1,2.9305813E-1,-8.748041E-1,-8.994772E-1,1.1976023E-1,6.3976747E-1,-2.0052482E-1,3.321026E-2,-6.1479744E-2,2.1579783E-1,7.487684E-1,1.8073719E-2,-8.165835E-2,2.409952E-2,-6.711694E-2,4.3112937E-2,-4.0224664E-2,-4.018823E-2,4.2444374E-2,-5.1750947E-2,1.0864831E-2,1.755791E-2,-6.450794E-3,-3.8495061E-3,4.4497125E-2],"categories":[],"categories_nodes":[],"categories_segments":[],"categories_sizes":[],"default_left":[0,0,0,0,0,0,0,0,0,0,0,0,0,0,0,0,0,0,0,0,0,0,0,0,0,0,0,0,0,0,0,0,0,0,0],"id":30,"left_children":[1,3,5,7,9,-1,11,13,15,-1,17,19,21,23,25,27,29,-1,-1,31,33,-1,-1,-1,-1,-1,-1,-1,-1,-1,-1,-1,-1,-1,-1],"loss_changes":[1.6202557E2,1.2052197E2,9.124938E1,1.2307587E2,2.9888824E1,0E0,5.8711426E1,9.9995224E1,1.19100464E2,0E0,2.5303007E1,5.220323E1,4.228765E1,1.7505583E2,1.0075234E2,8.332901E1,1.5348347E2,0E0,0E0,5.9606014E1,2.5260689E1,0E0,0E0,0E0,0E0,0E0,0E0,0E0,0E0,0E0,0E0,0E0,0E0,0E0,0E0],"parents":[2147483647,0,0,1,1,2,2,3,3,4,4,6,6,7,7,8,8,10,10,11,11,12,12,13,13,14,14,15,15,16,16,19,19,20,20],"right_children":[2,4,6,8,10,-1,12,14,16,-1,18,20,22,24,26,28,30,-1,-1,32,34,-1,-1,-1,-1,-1,-1,-1,-1,-1,-1,-1,-1,-1,-1],"split_conditions":[1.2430267E-3,8.2608694E-1,7.574545E-4,4.5762712E-1,1.6995118E-3,-9.282803E-2,8.990496E0,5.628095E-4,5.9322035E-1,-6.287279E-2,9.2488434E-4,7.778009E1,8.294716E-2,-9.229753E-3,3.593723E-4,5.1631004E-4,-1.6351392E-5,3.321026E-2,-6.1479744E-2,6.440678E-1,-1.3888831E-2,1.8073719E-2,-8.165835E-2,2.409952E-2,-6.711694E-2,4.3112937E-2,-4.0224664E-2,-4.018823E-2,4.2444374E-2,-5.1750947E-2,1.0864831E-2,1.755791E-2,-6.450794E-3,-3.8495061E-3,4.4497125E-2],"split_indices":[49,83,53,84,54,0,40,21,84,0,49,39,72,44,22,50,36,0,0,84,72,0,0,0,0,0,0,0,0,0,0,0,0,0,0],"split_type":[0,0,0,0,0,0,0,0,0,0,0,0,0,0,0,0,0,0,0,0,0,0,0,0,0,0,0,0,0,0,0,0,0,0,0],"sum_hessian":[2.850534E3,1.2985128E3,1.5520211E3,1.139814E3,1.5869878E2,1.9656425E1,1.5323647E3,4.2872986E2,7.110841E2,1.3140224E2,2.7296547E1,1.4890255E3,4.333923E1,2.8393475E2,1.4479509E2,2.7276617E2,4.3831796E2,1.6470186E1,1.0826361E1,1.2746215E3,2.1440402E2,1.6626423E1,2.6712807E1,6.884979E1,2.1508496E2,8.03895E1,6.4405594E1,3.409442E1,2.3867174E2,1.4582701E2,2.9249097E2,9.1550256E2,3.591189E2,3.1266378E1,1.8313765E2],"tree_param":{"num_deleted":"0","num_feature":"86","num_nodes":"35","size_leaf_vector":"1"}},{"base_weights":[4.285131E-2,-1.2248581E-1,2.9568332E-1,-5.0244667E-2,-7.8541696E-1,3.6274314E-1,-5.487654E-1,-1.8778412E-2,-1.4476465E0,-1.2971272E0,1.1508508E-1,-1.21335216E-1,4.695612E-1,-1.0708866E0,9.6771544E-1,-3.4489724E-1,1.2367708E-1,-8.222205E-3,-9.947656E-2,-8.29544E-2,2.9078221E-2,7.2203493E-1,-9.601348E-2,1.1953915E-1,-9.7514085E-2,5.36461E-1,-6.29031E-1,2.928285E-2,-1.6446935E0,5.949221E-2,3.3556353E-2,-2.4002261E-2,5.403892E-2,1.2152392E-2,-1.48533955E-2,-2.1938642E-2,6.148929E-2,-7.818777E-2,1.8563777E-2,1.3999383E-2,3.648899E-2,-1.0075104E-1,3.2729503E-2,1.608546E-2,-1.1553609E-2,-1.0354602E-1,-1.5853977E-2],"categories":[],"categories_nodes":[],"categories_segments":[],"categories_sizes":[],"default_left":[0,0,0,0,0,0,0,0,0,0,0,0,0,0,0,0,0,0,0,0,0,0,0,0,0,0,0,0,0,0,0,0,0,0,0,0,0,0,0,0,0,0,0,0,0,0,0],"id":31,"left_children":[1,3,5,7,9,11,13,15,17,19,21,23,25,27,29,31,33,-1,-1,-1,-1,35,-1,37,-1,39,41,43,45,-1,-1,-1,-1,-1,-1,-1,-1,-1,-1,-1,-1,-1,-1,-1,-1,-1,-1],"loss_changes":[1.1957354E2,8.2688126E1,6.422711E1,6.84408E1,7.846943E1,5.430797E1,6.715747E1,7.101321E1,2.329454E1,7.4764755E1,7.8281006E1,8.419305E1,6.348546E1,3.9750084E1,4.5558357E-1,9.000864E1,5.347593E1,0E0,0E0,0E0,0E0,2.937329E1,0E0,7.2044525E1,0E0,3.988678E1,8.987677E1,1.7882681E0,2.2441986E1,0E0,0E0,0E0,0E0,0E0,0E0,0E0,0E0,0E0,0E0,0E0,0E0,0E0,0E0,0E0,0E0,0E0,0E0],"parents":[2147483647,0,0,1,1,2,2,3,3,4,4,5,5,6,6,7,7,8,8,9,9,10,10,11,11,12,12,13,13,14,14,15,15,16,16,21,21,23,23,25,25,26,26,27,27,28,28],"right_children":[2,4,6,8,10,12,14,16,18,20,22,24,26,28,30,32,34,-1,-1,-1,-1,36,-1,38,-1,40,42,44,46,-1,-1,-1,-1,-1,-1,-1,-1,-1,-1,-1,-1,-1,-1,-1,-1,-1,-1],"split_conditions":[1.9701843E-3,1.7447715E-3,1.3440838E-1,2.3918555E-3,3E0,-8.974324E-2,1.5605841E-3,6.7772507E-4,-2.7886243E-3,2.6838486E-3,1.4509576E-3,-9.94322E-4,8.9830506E-1,4.986122E-3,7.249982E-1,-2.7404768E-8,4.6873168E-4,-8.222205E-3,-9.947656E-2,-8.29544E-2,2.9078221E-2,1.8728615E-3,-9.601348E-2,1.9499451E-3,-9.7514085E-2,4.5292152E-4,3.2053299E-3,2.1022381E-3,3.3332857E-1,5.949221E-2,3.3556353E-2,-2.4002261E-2,5.403892E-2,1.2152392E-2,-1.48533955E-2,-2.1938642E-2,6.148929E-2,-7.818777E-2,1.8563777E-2,1.3999383E-2,3.648899E-2,-1.0075104E-1,3.2729503E-2,1.608546E-2,-1.1553609E-2,-1.0354602E-1,-1.5853977E-2],"split_indices":[54,54,72,55,13,72,23,50,2,53,9,15,84,67,62,68,22,0,0,0,0,55,0,55,0,16,31,54,72,0,0,0,0,0,0,0,0,0,0,0,0,0,0,0,0,0,0],"split_type":[0,0,0,0,0,0,0,0,0,0,0,0,0,0,0,0,0,0,0,0,0,0,0,0,0,0,0,0,0,0,0,0,0,0,0,0,0,0,0,0,0,0,0,0,0,0,0],"sum_hessian":[2.858158E3,1.7281625E3,1.1299956E3,1.559452E3,1.6871046E2,1.0474999E3,8.249575E1,1.5261711E3,3.3280846E1,1.0736876E2,6.1341705E1,1.8916579E2,8.5833405E2,6.1634796E1,2.0860952E1,4.6376642E2,1.0624048E3,1.0323184E1,2.295766E1,9.016677E1,1.7201986E1,4.7786106E1,1.3555599E1,1.6792928E2,2.1236515E1,8.0963336E2,4.870066E1,2.1392773E1,4.0242023E1,1.0012897E1,1.0848056E1,4.242799E2,3.9486507E1,8.2811725E2,2.342875E2,1.4522964E1,3.326314E1,