tree
version=v4
num_class=1
num_tree_per_iteration=1
label_index=0
max_feature_idx=85
objective=binary sigmoid:1
feature_names=Column_0 Column_1 Column_2 Column_3 Column_4 Column_5 Column_6 Column_7 Column_8 Column_9 Column_10 Column_11 Column_12 Column_13 Column_14 Column_15 Column_16 Column_17 Column_18 Column_19 Column_20 Column_21 Column_22 Column_23 Column_24 Column_25 Column_26 Column_27 Column_28 Column_29 Column_30 Column_31 Column_32 Column_33 Column_34 Column_35 Column_36 Column_37 Column_38 Column_39 Column_40 Column_41 Column_42 Column_43 Column_44 Column_45 Column_46 Column_47 Column_48 Column_49 Column_50 Column_51 Column_52 Column_53 Column_54 Column_55 Column_56 Column_57 Column_58 Column_59 Column_60 Column_61 Column_62 Column_63 Column_64 Column_65 Column_66 Column_67 Column_68 Column_69 Column_70 Column_71 Column_72 Column_73 Column_74 Column_75 Column_76 Column_77 Column_78 Column_79 Column_80 Column_81 Column_82 Column_83 Column_84 Column_85
feature_infos=[-0.029479331570975584:0.030918707950153359] [-0.043119781768537056:0.034183997659764764] [-0.049722360656206901:0.044137291226015667] [-0.060237439238180646:0.043770663055328486] [-0.084463972281214147:0.050647527978787354] [0:0.031401654827243608] [0:0.038087293909166132] [0:0.025882352179930811] [0:1] [0:0.045794929556597738] none [0:0.99999909090991745] [0:0.9999984615408285] [0:5] [0:5] [-0.028681034164831587:0.028407120903816363] [-0.048746657718988007:0.033407670230316544] [-0.060682329337923835:0.043820336672656168] [-0.087933531369793427:0.06435640536143139] [-0.111131614705969:0.057518065104300797] [-0.032291383528132434:0.02128514056224895] [-0.02227291023748823:0.011675844843670014] [-0.013857907651126378:0.0090834835511490741] [-0.0087540198355179344:0.0042142338702870763] [-0.0059454392190113614:0.0022800641126938803] [0:1] [-0.111131614705969:0.057518065104300797] [-0.025396433001977137:0.022396788432245573] [-0.040399173515016873:0.028670268411162825] [-0.055763733944252269:0.039597321754770487] [-0.023985490615318055:0.013493923722923991] [-0.022750329695749881:0.011525719461238357] [-0.0066148478159198075:0.0061224858368172331] [-6.9950993516617411e-06:7.5893279648888769e-06] [0:1] [0:1] [-0.010980808244881202:0.0098584172308286613] [-1.1933377431815506e-05:1.8095799718167009e-05] [19.250255973497332:73.259144700086765] [9.8312057745628039:88.739028368316809] [-12.010144538689929:20.59450505212353] [-0.61499488053005336:0.46518289400173529] none [0:1] [-0.10591035800766713:0.010666570886059601] [-0.016940286235085811:0.085000037849975119] [-0.25492875766209422:1.2387159942303569] [0.013107902481647971:0.13520629074360555] [0:1] [0.0044948190204652828:0.019932046802696966] [0.0036558127329895176:0.024095771571014831] [0.7104284483740464:1.3147152095518175] [0:3.4463225642914801] [0.0010774036130533769:0.022082351471373957] [0.0019806729103754354:0.01640703975301263] [0.0027900876699076629:0.013717278076182003] [0:1] [0:4.8345192159263695] [0:8.7249802834875716] [-1:437.2190635451505] [-1.9242910689682524:2.8439169610038908] [0:1] [0:0.9999989473695291] [0:0.99999937888237334] [0:0.99999949748768968] [0:0.99559427506860065] [-0.1000780062365999:-2.7886223441520031e-08] [-3.0740853640409682e-08:0.076237023123215675] [-0.058459077088925726:-2.776235352719425e-08] [-3.0740853640409682e-08:0.055884813551091872] [0:0.99999937888237322] [0.023467749278544014:0.96491099305753902] [-0.42270469073774453:0.46427604271409911] [0:1] [0:1] [-0.99999938650344378:0] [-3.2401766676819879:2.7661552766155637] [-2.2770083939063004:3.1203033571156329] [-0.048506440120581029:0.045125831645935754] [-0.058459051724138011:0.044742729306487705] [-0.080995235574378044:0.051952044266830644] [-0.058459051724138011:0.044742729306487705] [-0.080995235574378044:0.051952044266830644] [0:1] [0:0.50847457627118642] [0:1]
tree_sizes=1706

Tree=0
num_leaves=15
num_cat=0
split_feature=61 50 33 1 66 72 19 52 63 71 37 36 33 20
split_gain=58.6744 53.0654 28.3144 25.7676 27.6364 19.7934 18.3446 17.3405 16.6575 21.4457 14.8784 17.3704 16.9631 6.54229
threshold=0.63126787679488927 0.0085676749290015865 1.3272642594173342e-06 0.0023859294913939444 -0.019206593403997326 -0.018189223064416813 0.0075297337731140565 0.69051870241345525 0.82826588558152336 0.62105006864683132 -1.7037750514577854e-06 -0.0035652305900320358 -2.1245290710082961e-06 0.0053777010798597988
decision_type=2 2 2 2 2 2 2 2 2 2 2 2 2 2
left_child=1 3 10 4 5 -1 -6 13 9 -9 12 -12 -3 -2
right_child=7 2 -4 -5 6 -7 -8 8 -10 -11 11 -13 -14 -15
leaf_value=-1.0696237492074312 -1.1158707710172768 -0.93962798448451346 -1.0150186203482761 -1.073937170348118 -0.91930492763761451 -0.98470120357548241 -1.0173721214144902 -1.0534068519000628 -1.082559767986683 -0.96823544230011427 -1.0089702571332491 -0.90059332814408366 -1.0178584695702204 -1.0465411867815708
leaf_weight=14.251316487789154 7.2850653231143934 23.393131434917446 14.673930928111075 12.551326662302015 13.870010748505598 12.347963601350781 8.091104254126547 12.692198142409326 8.0010735392570478 17.537963792681694 4.8828368484973899 32.828340157866478 10.915947169065477 5.6751062124967575
leaf_count=65 38 66 56 58 35 42 31 55 38 56 18 76 42 24
internal_value=-0.990623 -0.974676 -0.949512 -1.01101 -0.994599 -1.02985 -0.953607 -1.03708 -1.02016 -1.00327 -0.93659 -0.91373 -0.963506 -1.08601
internal_weight=198.997 147.806 86.6942 61.1117 48.5604 26.5993 21.9611 51.1914 38.2312 30.2302 72.0203 37.7112 34.3091 12.9602
internal_count=700 489 258 231 173 107 66 211 149 111 202 94 108 62
is_linear=0
shrinkage=1


end of trees

feature_importances:
Column_33=2
Column_1=1
Column_19=1
Column_20=1
Column_36=1
Column_37=1
Column_50=1
Column_52=1
Column_61=1
Column_63=1
Column_66=1
Column_71=1
Column_72=1

parameters:
[boosting: gbdt]
[objective: binary]
[metric: binary_logloss]
[tree_learner: serial]
[device_type: cpu]
[data_sample_strategy: bagging]
[data: ]
[valid: ]
[num_iterations: 500]
[learning_rate: 0.05]
[num_leaves: 31]
[num_threads: 8]
[seed: 42]
[deterministic: 0]
[force_col_wise: 0]
[force_row_wise: 0]
[histogram_pool_size: -1]
[max_depth: 5]
[min_data_in_leaf: 30]
[min_sum_hessian_in_leaf: 0.001]
[bagging_fraction: 0.8]
[pos_bagging_fraction: 1]
[neg_bagging_fraction: 1]
[bagging_freq: 0]
[bagging_seed: 400]
[bagging_by_query: 0]
[feature_fraction: 0.8]
[feature_fraction_bynode: 1]
[feature_fraction_seed: 30056]
[extra_trees: 0]
[extra_seed: 12879]
[early_stopping_round: 0]
[early_stopping_min_delta: 0]
[first_metric_only: 0]
[max_delta_step: 0]
[lambda_l1: 0.1]
[lambda_l2: 0.5]
[linear_lambda: 0]
[min_gain_to_split: 0]
[drop_rate: 0.1]
[max_drop: 50]
[skip_drop: 0.5]
[xgboost_dart_mode: 0]
[uniform_drop: 0]
[drop_seed: 17869]
[top_rate: 0.2]
[other_rate: 0.1]
[min_data_per_group: 100]
[max_cat_threshold: 32]
[cat_l2: 10]
[cat_smooth: 10]
[max_cat_to_onehot: 4]
[top_k: 20]
[monotone_constraints: ]
[monotone_constraints_method: basic]
[monotone_penalty: 0]
[feature_contri: ]
[forcedsplits_filename: ]
[refit_decay_rate: 0.9]
[cegb_tradeoff: 1]
[cegb_penalty_split: 0]
[cegb_penalty_feature_lazy: ]
[cegb_penalty_feature_coupled: ]
[path_smooth: 0]
[interaction_constraints: ]
[verbosity: -1]
[saved_feature_importance_type: 0]
[use_quantized_grad: 0]
[num_grad_quant_bins: 4]
[quant_train_renew_leaf: 0]
[stochastic_rounding: 1]
[linear_tree: 0]
[max_bin: 255]
[max_bin_by_feature: ]
[min_data_in_bin: 3]
[bin_construct_sample_cnt: 200000]
[data_random_seed: 175]
[is_enable_sparse: 1]
[enable_bundle: 1]
[use_missing: 1]
[zero_as_missing: 0]
[feature_pre_filter: 1]
[pre_partition: 0]
[two_round: 0]
[header: 0]
[label_column: ]
[weight_column: ]
[group_column: ]
[ignore_column: ]
[categorical_feature: ]
[forcedbins_filename: ]
[precise_float_parser: 0]
[parser_config_file: ]
[objective_seed: 16083]
[num_class: 1]
[is_unbalance: 0]
[scale_pos_weight: 2.8674]
[sigmoid: 1]
[boost_from_average: 1]
[reg_sqrt: 0]
[alpha: 0.9]
[fair_c: 1]
[poisson_max_delta_step: 0.7]
[tweedie_variance_power: 1.5]
[lambdarank_truncation_level: 30]
[lambdarank_norm: 1]
[label_gain: ]
[lambdarank_position_bias_regularization: 0]
[eval_at: ]
[multi_error_top_k: 1]
[auc_mu_weights: ]
[num_machines: 1]
[local_listen_port: 12400]
[time_out: 120]
[machine_list_filename: ]
[machines: ]
[gpu_platform_id: -1]
[gpu_device_id: -1]
[gpu_use_dp: 0]
[num_gpu: 1]

end of parameters

pandas_categorical:null
