tree
version=v4
num_class=1
num_tree_per_iteration=1
label_index=0
max_feature_idx=85
objective=binary sigmoid:1
feature_names=Column_0 Column_1 Column_2 Column_3 Column_4 Column_5 Column_6 Column_7 Column_8 Column_9 Column_10 Column_11 Column_12 Column_13 Column_14 Column_15 Column_16 Column_17 Column_18 Column_19 Column_20 Column_21 Column_22 Column_23 Column_24 Column_25 Column_26 Column_27 Column_28 Column_29 Column_30 Column_31 Column_32 Column_33 Column_34 Column_35 Column_36 Column_37 Column_38 Column_39 Column_40 Column_41 Column_42 Column_43 Column_44 Column_45 Column_46 Column_47 Column_48 Column_49 Column_50 Column_51 Column_52 Column_53 Column_54 Column_55 Column_56 Column_57 Column_58 Column_59 Column_60 Column_61 Column_62 Column_63 Column_64 Column_65 Column_66 Column_67 Column_68 Column_69 Column_70 Column_71 Column_72 Column_73 Column_74 Column_75 Column_76 Column_77 Column_78 Column_79 Column_80 Column_81 Column_82 Column_83 Column_84 Column_85
feature_infos=[-0.019755491947015952:0.026720550389049785] [-0.032577731245766281:0.036264194111298755] [-0.040890737553912287:0.036058562600117694] [-0.044419737805012176:0.035760102939928873] [-0.063235262020680791:0.047025793609148873] [0:0.027080745274333566] [0:0.084973373269336933] [0:0.015295887624634168] [0:1] [0:0.09793933758291419] none [0:0.99999987500001564] [0:0.99999989795919408] [0:5] [0:5] [-0.02186339186943087:0.023774143081292332] [-0.035062783617477278:0.027986313247205352] [-0.047463139074443883:0.041465999240502871] [-0.070144231368696852:0.05997263716033352] [-0.072906054620882399:0.051985395324335881] [-0.022632772632772524:0.02049745565225658] [-0.017373864295379793:0.013433829473584069] [-0.011545156362861131:0.010817293132896255] [-0.0058671444552236274:0.0049905222409845074] [-0.0025255725961291775:0.002595195978028153] [0:1] [-0.072906054620882399:0.051985395324335881] [-0.018564882731363586:0.019132170813952243] [-0.030162554494809313:0.023985742915222152] [-0.042015113512103741:0.036382375549400159] [-0.02169121692883905:0.014974256371498866] [-0.018955384185826145:0.012898190832430432] [-0.0055585477962179003:0.0063295611422888864] [-6.5750527242793315e-05:7.9799431085734356e-05] [0:1] [0:1] [-0.007833458832966279:0.0079504911050713081] [-0.00011108546555134552:0.00015841110148028469] [18.559893403346493:77.853792205838133] [9.6716448724989874:89.329718071083661] [-18.525182745530351:22.602365022583982] [-0.62880213193307011:0.5570758441167627] none [0:1] [-0.096762432655930875:0.012974225567067066] [-0.012431017447446346:0.085441707961918523] [-0.33466387672791048:1.4934483281836357] [0.0077790394741720659:0.11593049194341659] [0:1] [0.0029535417111428166:0.018934004837392243] [0.0024169987811830558:0.029635529182107805] [0.66015323623468636:1.5652011183501164] [0:5.1894899300121731] [0.00058702074280762655:0.017515105363889869] [0.0017932794059969666:0.013171151538632263] [0.0021366065893861402:0.0094640954139276808] [0:1] [0.010961205210400263:4.5725121375567044] [0.01054317622505649:7.1407271038104927] [-0.98642991794189394:112.57604140368593] [-1.68498204683704:2.8365099548244563] [0:1.0000000000000013] [0:0.99999993464052717] [0:0.99999995260663732] [0:0.99999996721311579] [0:0.9999999682539692] [-0.10819462418225645:-2.2401434041086077e-09] [-2.5660764624291232e-09:0.080448559043275081] [-0.085787453935579405:-2.2401434041086077e-09] [-2.5660764624291232e-09:0.043795617980231683] [0:0.99999995412844245] [0.012698411489041878:0.99004958772680751] [-0.44920483910657344:0.44614659129654277] [0:1] [0:1] [-0.99999996666666779:0] [-2.904464660476159:4.4553883067809039] [-3.5692730204199199:4.1027869905704986] [-0.040065991044072602:0.036716557530402261] [-0.043447627994363525:0.036407185628742456] [-0.061277398067405286:0.048149044277764341] [-0.043447627994363525:0.036407185628742456] [-0.061277398067405286:0.048149044277764341] [0:1] [0:0.50847457627118642] [0:1]
tree_sizes=1488 1403 1606 1398 1511 1508 1194 1303 985 1618 1734 1727 1515

Tree=0
num_leaves=13
num_cat=0
split_feature=47 32 77 20 76 80 20 21 33 2 55 66
split_gain=50.5266 34.3409 37.3602 40.7811 35.9353 27.1673 23.8509 17.5904 15.4468 29.6143 12.2048 0.866084
threshold=0.048065735102793904 0.00088544962750684094 -0.28326080841093904 -0.003286354297166338 1.559314850397042 0.0028996249192603245 -0.0064257601079578111 0.0050486422622888502 -1.5347599797805151e-06 -0.0020428619333938973 0.006740738491213938 -0.00661321910460022
decision_type=2 2 2 2 2 2 2 2 2 2 2 2
left_child=1 2 8 6 7 -5 -4 11 9 -1 -2 -3
right_child=10 4 3 5 -6 -7 -8 -9 -10 -11 -12 -13
leaf_value=-1.1416964310143067 -1.1659078735926078 -1.3210392429669815 -1.2058556191318339 -1.1558027826116932 -1.1488695560687003 -1.2328527832100875 -1.298195142938722 -1.2101302215312968 -1.0819999112713108 -1.2540991235754926 -1.0928157742681608 -1.2880707281240704
leaf_weight=32.342444837093353 12.963395252823831 8.4302579313516635 13.034433484077455 39.244267791509628 6.6587386429309836 16.991493329405785 13.945722371339796 5.8695464730262747 8.3181510865688306 7.3269432187080374 17.840624734759331 5.252400383353236
leaf_count=102 45 49 53 132 21 76 76 24 18 35 43 28
internal_value=-1.18012 -1.19205 -1.18163 -1.20262 -1.24491 -1.17854 -1.25357 -1.27934 -1.14632 -1.16199 -1.12141 -1.31014
internal_weight=188.218 157.414 131.203 83.2159 26.2109 56.2358 26.9802 19.5522 47.9875 39.6694 30.804 13.6827
internal_count=702 614 492 337 122 208 129 101 155 137 88 77
is_linear=0
shrinkage=1


Tree=1
num_leaves=12
num_cat=0
split_feature=47 32 76 83 37 78 5 50 21 15 52
split_gain=39.0919 28.3161 30.8531 21.3174 20.9578 29.1665 21.6681 16.6302 16.1524 5.28602 0.917816
threshold=0.048065735102793904 0.00088544962750684094 1.559314850397042 0.71739130434782616 2.9757999875531966e-05 0.0035255659017139345 0.0012414833134777646 0.0078692692552379193 0.0050486422622888502 0.0013154377543617148 0.96792060623011056
decision_type=2 2 2 2 2 2 2 2 2 2 2
left_child=1 4 8 9 5 6 -1 -6 10 -2 -3
right_child=3 2 -4 -5 7 -7 -8 -9 -10 -11 -12
leaf_value=0.02223258593235046 0.053530859504199751 -0.059276489046001773 0.10092843556933517 0.16926090076268119 -0.025059263929789882 0.13161884650116659 0.079349914088112761 0.078877578388850719 0.047279489668473902 0.11342316678506066 -0.025596998979469661
leaf_weight=22.032928541302681 10.06173610687256 8.2013470679521614 7.0734494030475608 14.595962226390837 9.3274335563182813 21.996907666325569 77.693621650338173 5.8174060732126227 6.0360310077667227 8.4906543493270856 5.1190965920686713
leaf_count=96 37 49 21 28 48 58 270 20 24 23 28
internal_value=0.0736125 0.0631414 0.0151794 0.123343 0.0722778 0.0791717 0.0669545 0.0157901 -0.0176566 0.0834608 -0.0480894
internal_weight=196.447 163.298 26.4299 33.1484 136.868 121.723 99.7266 15.1448 19.3565 18.5524 13.3204
internal_count=702 614 122 88 492 424 366 68 101 60 77
is_linear=0
shrinkage=0.05


Tree=2
num_leaves=14
num_cat=0
split_feature=19 49 85 45 31 79 38 57 33 23 72 6 11
split_gain=33.2183 36.6901 35.8493 34.938 45.6253 33.5675 28.5285 25.9494 25.2062 17.4857 17.3702 17.2778 2.91021
threshold=0.020855226147898479 0.0077454191645668453 0.58333333333333337 0.015085849068908532 0.003670497335394892 -0.0033304040679816844 64.063116250440132 1.0248362345230917 3.3005050036529015e-06 0.00042671260645843484 0.059232983433314144 0.00024609345131606082 0.37065107572893391
decision_type=2 2 2 2 2 2 2 2 2 2 2 2 2
left_child=1 2 3 9 -5 7 -2 -3 11 -1 -10 -4 -7
right_child=6 5 8 4 -6 12 -8 -9 10 -11 -12 -13 -14
leaf_value=0.12754662282129481 -0.04705491674976444 -0.0070113968070170275 -0.049139124718194344 -0.013908441260684194 0.13604531955428459 0.11255885891898035 0.066046071265824444 0.10843825937855296 0.10015374522476382 0.067120677207148954 0.014310231526334833 0.029639335707452433 0.15865706260758633
leaf_weight=31.394519984722137 10.959107309579851 9.04179595410824 12.403113037347795 17.323172450065616 6.6020217984914771 15.340494260191916 10.344988375902174 9.7155260443687421 13.380150884389879 23.455381944775581 10.83833099901676 14.577532365918158 18.315903007984161
leaf_count=78 58 41 66 84 15 40 35 26 38 80 47 60 34
internal_value=0.0674398 0.0743275 0.0595864 0.080722 0.0292036 0.109879 0.00789125 0.0537901 0.0265042 0.102637 0.0630056 -0.00662865 0.139747
internal_weight=203.692 182.388 129.974 78.7751 23.9252 52.4137 21.3041 18.7573 51.1991 54.8499 24.2185 26.9806 33.6564
internal_count=702 609 468 257 99 141 93 67 211 158 85 126 74
is_linear=0
shrinkage=0.05


Tree=3
num_leaves=12
num_cat=0
split_feature=26 55 85 38 59 24 55 7 55 85 67
split_gain=27.9955 43.5128 40.6744 25.5655 24.9521 22.0953 18.3378 17.9256 15.2535 12.9397 15.4652
threshold=0.020855226147898479 0.0065773812979120043 0.58333333333333337 64.063116250440132 1.0638373145454898 -0.00094077815461418568 0.0045678502076665429 0.0011834351983936167 0.0036787796471391787 0.75000000000000011 0.016942053079950229
decision_type=2 2 2 2 2 2 2 2 2 2 2
left_child=1 2 5 -2 6 -1 -4 -6 -7 10 -3
right_child=3 9 4 -5 7 8 -8 -9 -10 -11 -12
leaf_value=0.1308350466027581 -0.045914248324707474 0.11260925007699474 0.016880992910341258 0.060945979662324706 0.097926641489782584 0.10538433166411319 -0.061990092153505483 0.0010490435719498648 0.048633329613185679 0.13031861281481344 0.024415465873527775
leaf_weight=14.663787215948103 10.689131632447245 11.332180961966516 23.089387744665146 10.682804703712462 12.472314536571504 15.914292708039282 10.202216476202009 7.7401324063539496 54.26293183863163 29.525376707315445 9.4665962755680066
leaf_count=31 58 27 97 35 35 41 57 34 191 58 38
internal_value=0.0621363 0.0682693 0.0533748 0.00744362 0.0188645 0.0748417 -0.0077007 0.0619907 0.0622282 0.108189 0.074218
internal_weight=210.041 188.669 138.345 21.3719 53.5041 84.841 33.2916 20.2124 70.1772 50.3242 20.7988
internal_count=702 609 486 93 223 263 154 69 232 123 65
is_linear=0
shrinkage=0.05


Tree=4
num_leaves=13
num_cat=0
split_feature=47 32 2 77 20 24 83 80 51 83 55 22
split_gain=24.2681 19.7629 29.4934 18.4086 33.1672 19.1763 13.3663 13.2052 9.27858 8.8946 6.51104 3.37146
threshold=0.048065735102793904 0.00079754776123142058 0.0057859491731835208 -0.28326080841093904 -0.003286354297166338 -0.00066751025220601601 0.71739130434782616 0.0028996249192603245 1.0608491929023613 0.36956521739130438 0.0043890879580639102 0.0038608476387768102
decision_type=2 2 2 2 2 2 2 2 2 2 2 2
left_child=1 3 9 8 5 -5 11 -6 10 -3 -1 -2
right_child=6 2 -4 4 7 -7 -8 -9 -10 -11 -12 -13
leaf_value=0.057330222176359892 0.040638807007501034 0.011327576523027398 0.061738489395159073 0.039162313125724005 0.077850235265878545 -0.04042111181496473 0.1273104149378109 0.024859140033059932 0.040328703737035516 -0.060960110080857159 0.10638124098130219 0.085841676758076663
leaf_weight=12.33512608706951 10.829180523753168 6.7795869559049633 15.913448810577391 14.601766407489778 45.185504496097565 14.671859502792357 17.176565736532211 17.086536839604378 12.634318500757216 9.9483074843883497 28.588887214660645 9.8424564301967603
leaf_count=40 35 31 51 53 129 75 28 68 43 58 66 25
internal_value=0.0575191 0.0494593 0.0138459 0.0573611 0.0432065 -0.000565713 0.0941016 0.0637037 0.0808394 -0.0318942 0.0925877 0.0639166
internal_weight=215.594 177.745 32.6413 145.104 91.5457 29.2736 37.8482 62.272 53.5583 16.7279 40.924 20.6716
internal_count=702 614 140 474 325 128 88 197 149 89 106 60
is_linear=0
shrinkage=0.05


Tree=5
num_leaves=13
num_cat=0
split_feature=19 55 85 55 32 41 24 54 85 62 53 17
split_gain=22.1908 33.8482 33.7486 24.2715 28.837 22.2498 19.0714 19.5366 9.50221 11.7516 1.8399 0.727725
threshold=0.020855226147898479 0.006498118189033072 0.58333333333333337 0.004669804841848031 -0.00044906119873040973 0.28126232500880238 -0.00099367540680045364 0.0029444518212478755 0.75000000000000011 0.37499987500003856 0.0075412923052214685 -0.0033372281923176868
decision_type=2 2 2 2 2 2 2 2 2 2 2 2
left_child=1 2 6 4 -4 -2 -1 -8 9 -3 -10 -5
right_child=5 8 3 11 -6 -7 7 -9 10 -11 -12 -13
leaf_value=0.11669185196649057 -0.04554191418575463 0.089934103333374593 0.07604178282491468 -0.06070447844945305 -0.0061240634732285023 0.05332380444863493 0.10187118240631601 0.038992994059472957 0.12659530355407228 0.014402900513385573 0.089700263572252387 -0.027727322323931158
leaf_weight=14.531117677688597 10.56771892309189 14.981495440006258 19.180633038282394 6.5606727600097656 22.973373636603355 11.197180375456808 15.957555398344992 57.975058451294899 16.239953204989433 8.3032027035951597 16.840089485049248 5.1290088295936567
leaf_count=27 58 37 57 36 100 35 36 196 25 32 36 27
internal_value=0.0534641 0.0587055 0.0453673 0.0138582 0.0315984 0.00515129 0.0643035 0.0532249 0.0915983 0.0640793 0.109577 -0.0483763
internal_weight=220.437 198.672 142.307 53.8437 42.154 21.7649 88.4637 73.9326 56.3647 23.2847 33.08 11.6897
internal_count=702 609 479 220 157 93 259 232 130 69 61 63
is_linear=0
shrinkage=0.05


Tree=6
num_leaves=10
num_cat=0
split_feature=22 19 55 85 3 24 58 18 22
split_gain=19.5829 25.2118 21.8332 23.3776 20.5103 18.6037 14.9051 7.53395 8.96204
threshold=0.0048835972320843144 0.020855226147898479 0.0065773812979120043 0.58333333333333337 1.0000000180025095e-35 -0.00099367540680045364 1.6307538476242438 -0.012769402397966088 0.00013665830679898686
decision_type=2 2 2 2 2 2 2 2 2
left_child=1 2 3 5 -5 -1 -3 -4 -9
right_child=-2 6 7 4 -6 -7 -8 8 -10
leaf_value=0.10673821353196755 0.10049360995400423 -0.046935214571959087 0.1058263009041909 -0.011498904562435321 0.049562112872674396 0.045345000242090081 0.048950941798699195 0.086605229319492452 0.02704035421183569
leaf_weight=15.122055217623709 17.601475015282631 10.919360026717188 18.947464987635612 31.615539789199829 23.520116165280342 73.783887431025505 5.770779773592948 15.116538241505625 12.192427054047583
leaf_count=27 33 59 33 142 80 232 20 35 41
internal_value=0.0498729 0.0453124 0.0504764 0.0405563 0.0146703 0.0563819 -0.0130313 0.0804966 0.0611559
internal_weight=224.59 206.988 190.298 144.042 55.1357 88.9059 16.6901 46.2564 27.309
internal_count=702 669 590 481 222 259 79 109 76
is_linear=0
shrinkage=0.05


Tree=7
num_leaves=11
num_cat=0
split_feature=19 55 36 4 18 29 83 36 53 40
split_gain=17.106 25.2619 23.9794 19.0466 16.7899 30.8655 22.6737 11.792 8.02283 3.19493
threshold=0.020855226147898479 0.006498118189033072 -0.0019801483529725671 0.014638232924038786 -0.0082894560286471113 -0.0045277680396201827 0.76086956521739146 -0.0030542089316247319 0.0077327899889954492 -1.1212283378933845
decision_type=2 2 2 2 2 2 2 2 2 2
left_child=1 2 7 -2 5 -4 -6 -1 9 -3
right_child=3 8 4 -5 6 -7 -8 -9 -10 -11
leaf_value=0.022780245904734747 -0.044970276812115212 0.10624924581291791 0.044720199169545401 0.046636961549518324 0.06991962723615526 -0.049348105099211906 -0.0013502896639940405 -0.063865160498808957 0.049301024370653521 0.070414459043792718
leaf_weight=7.4959145784378052 10.040044620633127 22.694577261805534 34.320145130157471 11.771898508071898 73.897092744708061 11.136292591691015 12.945640712976454 7.2158464938402158 19.129730775952339 17.596725791692734
leaf_count=28 55 40 106 38 199 57 52 37 49 41
internal_value=0.0466493 0.0510913 0.0396647 0.0041832 0.0463979 0.0212796 0.0592913 -0.0200914 0.078711 0.0917764
internal_weight=228.244 206.432 147.011 21.8119 132.299 45.4564 86.8427 14.7118 59.421 40.2913
internal_count=702 609 479 93 414 163 251 65 130 81
is_linear=0
shrinkage=0.05


Tree=8
num_leaves=8
num_cat=0
split_feature=22 26 55 36 4 1 58
split_gain=16.1114 19.7508 14.7086 16.3261 22.2949 18.9977 7.75253
threshold=0.0048835972320843144 0.025733586495588216 0.0075063644507418368 -0.002119127878738027 -0.012363675967811663 -0.0065998892223417165 0.609245548206517
decision_type=2 2 2 2 2 2 2
left_child=1 2 3 5 -5 -1 -4
right_child=-2 -3 6 4 -6 -7 -8
leaf_value=0.034558765369457595 0.088604053684640832 -0.028841270698000934 0.042134335707707693 0.085227483795485406 0.033204474372305712 -0.063640036256096474 0.093213566530725558
leaf_weight=11.260264545679094 18.370643690228462 9.6456660479307157 14.591492205858229 24.836896196007729 124.84142027795315 7.9608910083770743 20.059759885072708
leaf_count=36 33 47 42 54 412 42 36
internal_value=0.043677 0.0395841 0.0429138 0.036566 0.0421252 -0.00644137 0.0727518
internal_weight=231.567 213.196 203.551 168.899 149.678 19.2212 34.6513
internal_count=702 669 622 544 466 78 78
is_linear=0
shrinkage=0.05


Tree=9
num_leaves=14
num_cat=0
split_feature=59 39 23 37 12 47 32 33 17 57 21 3 47
split_gain=15.6764 20.8545 26.5393 22.1398 18.3418 15.4266 17.7656 14.7324 13.6703 9.20952 11.143 9.08706 11.2002
threshold=1.0638373145454898 32.087367709066882 0.00042671260645843484 1.5174842891946265e-05 0.40767029809374561 0.052878095376789107 0.00031383904811442927 -6.0291399020752476e-06 -0.018280593379196793 1.5358021826806965 0.0022906532447257715 1.0000000180025095e-35 0.03425641673571269
decision_type=2 2 2 2 2 2 2 2 2 2 2 2 2
left_child=1 8 5 7 11 6 -3 -4 -1 -6 -11 12 -2
right_child=4 2 3 -5 9 -7 -8 -9 -10 10 -12 -13 -14
leaf_value=0.022339495308991472 0.024723937411718504 0.064586058364609331 -0.0089830292735385876 -0.065245875200313969 0.057210476816451507 0.099366787157463721 0.01326651604070562 0.049079075719695726 -0.064648574669347869 -0.023157775036620049 0.052484827237321431 0.11209431849532947 0.094338717916013518
leaf_weight=8.8476805984973925 12.240209817886354 42.242720186710358 19.210192739963531 7.8885626941919318 19.753365129232407 15.803935810923575 28.835283279418945 24.06937949359417 8.2378444373607618 11.221137434244158 7.8031176775693885 16.533312290906906 11.839431345462797
leaf_count=29 39 105 74 40 54 22 109 71 42 47 20 29 21
internal_value=0.0409814 0.0314853 0.0379379 0.00912489 0.0591618 0.0547004 0.0440744 0.023385 -0.0199634 0.0336848 0.00816176 0.0826604 0.0603782
internal_weight=234.526 155.136 138.05 51.1681 79.3906 86.8819 71.078 43.2796 17.0855 38.7776 19.0243 40.613 24.0796
internal_count=702 492 421 185 210 236 214 145 71 121 67 89 60
is_linear=0
shrinkage=0.05


Tree=10
num_leaves=15
num_cat=0
split_feature=57 60 24 20 11 7 20 15 3 54 32 30 6 69
split_gain=14.1087 38.2156 19.4769 17.8345 15.7365 15.8006 15.349 20.4153 12.3675 11.1659 10.9211 6.27061 5.99857 0.567537
threshold=0.79209550021609021 -0.3605135041537324 0.00088644376238422595 -0.0031966033410683599 0.31942020275070437 0.0004624822554718544 -0.0017596690360148768 0.00033578556276525623 -0.0090844783649290852 0.0045314753301357097 -0.00049838837105602195 -0.00043152176634998307 0.001719696289690342 0.008151200539892935
decision_type=2 2 2 2 2 2 2 2 2 2 2 2 2 2
left_child=1 3 4 8 5 12 -5 -8 -1 10 -6 -11 -2 -3
right_child=2 13 -4 6 9 -7 7 -9 -10 11 -12 -13 -14 -15
leaf_value=-0.047050580288917516 0.068553676296050844 -0.065517735405889607 -0.010603472690953545 0.091402613989083267 0.072261037861392458 -0.029148122973055763 -0.002910509125720359 0.055852524534096337 0.028343318880702351 0.062832619447058577 0.010983073998383993 0.1029558092628135 0.017641037296196333 -0.034239206631614637
leaf_weight=9.1827542930841464 14.093005388975145 7.2401262223720533 11.595500618219374 15.348702952265738 15.130764454603197 8.7103076726198179 22.406862914562225 41.790831416845322 11.879129499197004 24.175933212041855 14.401808604598044 24.514561250805855 10.8638519346714 5.6206687837839127
leaf_count=44 32 36 46 31 35 37 84 110 40 55 51 40 34 27
internal_value=0.0385579 0.025556 0.0503136 0.0359939 0.0566902 0.0272897 0.0467728 0.0354012 -0.00462453 0.0690269 0.0432252 0.0839765 0.0473693 -0.0540149
internal_weight=236.955 113.469 123.486 100.608 111.89 33.6672 79.5464 64.1977 21.0619 78.2231 29.5326 48.6905 24.9569 12.8608
internal_count=702 372 330 309 284 103 225 194 84 181 86 95 66 63
is_linear=0
shrinkage=0.05


Tree=11
num_leaves=15
num_cat=0
split_feature=24 67 49 32 7 6 5 3 72 77 61 61 55 3
split_gain=12.8344 33.3112 20.8682 18.2824 15.8606 18.9358 15.7367 15.1705 20.2085 14.0097 9.10507 8.96952 4.17512 0.327817
threshold=0.00016234645422275043 0.018907374526697888 0.0046204826370577594 -0.0013345313658831516 0.00024582105653140051 0.00024609345131606082 0.001212121494125931 -0.0033359623073597835 0.0042084135127201713 0.34608459645417294 0.52563479491913623 0.15589700814535176 0.0037050303101767239 0.0059298387558506475
decision_type=2 2 2 2 2 2 2 2 2 2 2 2 2 2
left_child=2 3 -1 -2 12 -6 -3 8 11 10 -9 -4 -5 -8
right_child=1 6 7 4 5 -7 13 9 -10 -11 -12 -13 -14 -15
leaf_value=-0.014413565645732332 -0.015312655824367614 0.023801596518837054 0.070558504084897264 0.092957450569717326 0.0568950759089547 -0.025885850278297502 -0.039733253519955179 0.093889912049083535 -0.027563775046990365 0.025130760118885671 0.053830312452264877 0.018618860436170417 0.05223628796288711 -0.067202564963391345
leaf_weight=12.728907883167265 12.446586847305296 8.8594876527786273 18.692857265472412 16.271662190556526 15.545502170920374 11.637482404708861 6.2749711871147147 34.307243630290031 11.650394380092619 18.620101168751717 30.58699443936348 16.072814777493477 16.154413998126984 9.193668454885481
leaf_count=53 51 31 44 33 40 48 30 57 48 57 72 50 42 46
internal_value=0.0363225 0.0219503 0.0458872 0.0389975 0.0504539 0.0214471 -0.0281076 0.0518656 0.0283032 0.0646553 0.0756408 0.0472921 0.0739236 -0.0579656
internal_weight=239.043 96.3838 142.659 72.0556 59.6091 27.183 24.3281 129.93 46.4161 83.5143 64.8942 34.7657 32.4261 15.4686
internal_count=702 321 381 214 163 88 107 328 142 186 129 94 75 76
is_linear=0
shrinkage=0.05


Tree=12
num_leaves=13
num_cat=0
split_feature=59 39 80 29 19 21 72 1 29 47 24 5
split_gain=12.7029 16.776 21.2111 18.7052 21.5893 16.8606 14.2925 16.8426 12.9783 9.62449 7.48564 5.05556
threshold=1.0638373145454898 33.229950946715512 -0.0075364985737698667 -0.0029496305428497456 0.013258118319570024 -0.0055476576164276694 0.021487182878444248 0.0051584511143139425 0.00132404637131911 0.030392774911505254 -0.00040684576571242687 0.0045027863300335031
decision_type=2 2 2 2 2 2 2 2 2 2 2 2
left_child=1 5 10 -4 -5 -1 9 8 -8 11 -3 -2
right_child=6 2 3 4 -6 -7 7 -9 -10 -11 -12 -13
leaf_value=0.026566239667216791 0.015005478259684436 0.081321434619456776 -0.039534892560635207 0.044574042923724841 -0.0074869776571242263 -0.065001185985870791 0.0050622533958463558 -0.03369270288711531 0.081131044334989633 0.085253373546327046 0.035182810180565662 0.065077781321658035
leaf_weight=9.9672614634037036 11.50275430083275 22.913185477256775 11.442652985453604 58.651348099112511 29.600554317235947 9.1633171290159208 10.760569050908094 8.8757252097129804 11.728879511356352 29.657853186130524 16.918544009327888 9.6153879016637784
leaf_count=31 38 41 51 155 118 47 37 37 24 52 49 22
internal_value=0.0342671 0.0257977 0.0318221 0.0192536 0.0271121 -0.0175772 0.0503103 0.0230111 0.0458535 0.0666872 0.0625271 0.0390133
internal_weight=240.798 158.657 139.526 99.6946 88.2519 19.1306 82.1412 31.3652 22.4894 50.776 39.8317 21.1181
internal_count=702 492 414 324 273 78 210 98 61 112 90 60
is_linear=0
shrinkage=0.05


end of trees

feature_importances:
Column_55=11
Column_24=7
Column_32=7
Column_47=6
Column_85=6
Column_3=5
Column_19=5
Column_20=5
Column_21=4
Column_22=4
Column_83=4
Column_5=3
Column_6=3
Column_7=3
Column_29=3
Column_33=3
Column_36=3
Column_57=3
Column_59=3
Column_72=3
Column_77=3
Column_80=3
Column_1=2
Column_2=2
Column_4=2
Column_11=2
Column_15=2
Column_17=2
Column_18=2
Column_23=2
Column_26=2
Column_37=2
Column_38=2
Column_39=2
Column_49=2
Column_53=2
Column_54=2
Column_58=2
Column_61=2
Column_67=2
Column_76=2
Column_12=1
Column_30=1
Column_31=1
Column_40=1
Column_41=1
Column_45=1
Column_50=1
Column_51=1
Column_52=1
Column_60=1
Column_62=1
Column_66=1
Column_69=1
Column_78=1
Column_79=1

parameters:
[boosting: gbdt]
[objective: binary]
[metric: binary_logloss]
[tree_learner: serial]
[device_type: cpu]
[data_sample_strategy: bagging]
[data: ]
[valid: ]
[num_iterations: 500]
[learning_rate: 0.05]
[num_leaves: 31]
[num_threads: 8]
[seed: 42]
[deterministic: 0]
[force_col_wise: 0]
[force_row_wise: 0]
[histogram_pool_size: -1]
[max_depth: 5]
[min_data_in_leaf: 30]
[min_sum_hessian_in_leaf: 0.001]
[bagging_fraction: 0.8]
[pos_bagging_fraction: 1]
[neg_bagging_fraction: 1]
[bagging_freq: 0]
[bagging_seed: 400]
[bagging_by_query: 0]
[feature_fraction: 0.8]
[feature_fraction_bynode: 1]
[feature_fraction_seed: 30056]
[extra_trees: 0]
[extra_seed: 12879]
[early_stopping_round: 0]
[early_stopping_min_delta: 0]
[first_metric_only: 0]
[max_delta_step: 0]
[lambda_l1: 0.1]
[lambda_l2: 0.5]
[linear_lambda: 0]
[min_gain_to_split: 0]
[drop_rate: 0.1]
[max_drop: 50]
[skip_drop: 0.5]
[xgboost_dart_mode: 0]
[uniform_drop: 0]
[drop_seed: 17869]
[top_rate: 0.2]
[other_rate: 0.1]
[min_data_per_group: 100]
[max_cat_threshold: 32]
[cat_l2: 10]
[cat_smooth: 10]
[max_cat_to_onehot: 4]
[top_k: 20]
[monotone_constraints: ]
[monotone_constraints_method: basic]
[monotone_penalty: 0]
[feature_contri: ]
[forcedsplits_filename: ]
[refit_decay_rate: 0.9]
[cegb_tradeoff: 1]
[cegb_penalty_split: 0]
[cegb_penalty_feature_lazy: ]
[cegb_penalty_feature_coupled: ]
[path_smooth: 0]
[interaction_constraints: ]
[verbosity: -1]
[saved_feature_importance_type: 0]
[use_quantized_grad: 0]
[num_grad_quant_bins: 4]
[quant_train_renew_leaf: 0]
[stochastic_rounding: 1]
[linear_tree: 0]
[max_bin: 255]
[max_bin_by_feature: ]
[min_data_in_bin: 3]
[bin_construct_sample_cnt: 200000]
[data_random_seed: 175]
[is_enable_sparse: 1]
[enable_bundle: 1]
[use_missing: 1]
[zero_as_missing: 0]
[feature_pre_filter: 1]
[pre_partition: 0]
[two_round: 0]
[header: 0]
[label_column: ]
[weight_column: ]
[group_column: ]
[ignore_column: ]
[categorical_feature: ]
[forcedbins_filename: ]
[precise_float_parser: 0]
[parser_config_file: ]
[objective_seed: 16083]
[num_class: 1]
[is_unbalance: 0]
[scale_pos_weight: 3.52903]
[sigmoid: 1]
[boost_from_average: 1]
[reg_sqrt: 0]
[alpha: 0.9]
[fair_c: 1]
[poisson_max_delta_step: 0.7]
[tweedie_variance_power: 1.5]
[lambdarank_truncation_level: 30]
[lambdarank_norm: 1]
[label_gain: ]
[lambdarank_position_bias_regularization: 0]
[eval_at: ]
[multi_error_top_k: 1]
[auc_mu_weights: ]
[num_machines: 1]
[local_listen_port: 12400]
[time_out: 120]
[machine_list_filename: ]
[machines: ]
[gpu_platform_id: -1]
[gpu_device_id: -1]
[gpu_use_dp: 0]
[num_gpu: 1]

end of parameters

pandas_categorical:null
