tree
version=v4
num_class=1
num_tree_per_iteration=1
label_index=0
max_feature_idx=85
objective=binary sigmoid:1
feature_names=Column_0 Column_1 Column_2 Column_3 Column_4 Column_5 Column_6 Column_7 Column_8 Column_9 Column_10 Column_11 Column_12 Column_13 Column_14 Column_15 Column_16 Column_17 Column_18 Column_19 Column_20 Column_21 Column_22 Column_23 Column_24 Column_25 Column_26 Column_27 Column_28 Column_29 Column_30 Column_31 Column_32 Column_33 Column_34 Column_35 Column_36 Column_37 Column_38 Column_39 Column_40 Column_41 Column_42 Column_43 Column_44 Column_45 Column_46 Column_47 Column_48 Column_49 Column_50 Column_51 Column_52 Column_53 Column_54 Column_55 Column_56 Column_57 Column_58 Column_59 Column_60 Column_61 Column_62 Column_63 Column_64 Column_65 Column_66 Column_67 Column_68 Column_69 Column_70 Column_71 Column_72 Column_73 Column_74 Column_75 Column_76 Column_77 Column_78 Column_79 Column_80 Column_81 Column_82 Column_83 Column_84 Column_85
feature_infos=[-0.015972388474980618:0.013777485440303713] [-0.017482962780347455:0.021375601334528579] [-0.018225445180500857:0.021375601334528579] [-0.025869706133671306:0.021375601334528579] [-0.034593889156756139:0.032076060325324007] [0:0.0158455062742127] [0:0.0074367872894475946] [0:0.0098063250556354991] [0:1] [0:0.024015845446853701] none [0:0.99999989690722713] [0:0.99999983333336107] [0:5] [0:5] [-0.012961861807305519:0.014905334872690412] [-0.020260563702795831:0.0177854250882723] [-0.026392824611740195:0.027262406996821031] [-0.03350941912874239:0.029598473879149934] [-0.041172626331137163:0.036111756172345855] [-0.01236985385423639:0.011090935859056961] [-0.0091160089493979024:0.009005056685677415] [-0.0049293657950104652:0.0067065371452277311] [-0.00259743980290017:0.0023064684672808866] [-0.0019046080253034559:0.0015635063613705924] [0:1] [-0.041172626331137163:0.036111756172345855] [-0.010764364906163615:0.01191339785909773] [-0.016786345541279224:0.015928487963194016] [-0.023309309093721198:0.021296272604020006] [-0.0079793503484875752:0.0080542922647636288] [-0.0073455944523694739:0.0067757529835155341] [-0.0029988603030978805:0.0036220160963749137] [-4.0652054691514599e-05:5.117301037586135e-05] [0:1] [0:1] [-0.0044876413516490099:0.0047413619195504587] [-8.6952598341437164e-05:9.3955805034046387e-05] [5.9741427508985083:92.075824057164937] [0.73680755514888574:98.454575778417166] [-33.638556556889952:40.92746903876531] [-0.88051714498202982:0.84151648114329869] [0:1] [0:1] [-0.046854459333825371:0.0084819434524490145] [-0.008205543187244424:0.057263671674715466] [-0.53192427434135969:1.5041658257795365] [0.0012631842317583862:0.062329081994352074] [0:1] [0.000150647729213452:0.012353871852859105] [6.6690505061492547e-05:0.01988928128797508] [0.28730444187332693:1.7561911008693423] [0:6.635413867247248] [0:0.009766313252524951] [7.6772946350434665e-05:0.007252029085754918] [0.00022010779867605057:0.0054112482410279081] [0:1] [0:4.9999756706387251] [0:9.6237560493325969] [-1:205511] [-1.775163778939032:2.84555333969015] [0:0.99999999999999978] [0:0.9999998901099022] [0:0.99999992857143361] [0:0.99999994818653115] [0:0.99999994818653115] [-0.086000855556976452:-2.2401434041086077e-09] [-2.5746653697922284e-09:0.048975745116609959] [-0.086000855556976452:-2.2401434041086077e-09] [-2.5746653697922284e-09:0.02431158267350142] [0:0.99999994186046848] [0:0.99999988890935654] [-0.63636305785175662:0.66666631578965796] [0:1] [0:1] [-0.99999993548387511:0] [-4.6274305407955145:4.6630398578877701] [-4.3964714667434519:4.4749815352437619] [-0.018060366155368546:0.021605696047139578] [-0.025537952234570893:0.021605696047139578] [-0.034002361275088488:0.032596041909196627] [-0.025537952234570893:0.021605696047139578] [-0.034002361275088488:0.032596041909196627] [0:1] [0:0.96610169491525422] [0:1]
tree_sizes=2008

Tree=0
num_leaves=18
num_cat=0
split_feature=54 18 41 46 67 76 50 22 21 32 4 18 21 61 9 45 52
split_gain=3374.69 1416.22 670.815 725.167 722.868 480.707 347.843 450.365 654.566 275.214 151.989 147.256 112.477 70.645 41.2955 245.386 113.635
threshold=0.0020547858334512151 0.010789229805802105 0.30307692859921309 0.86553077597335715 0.007489875269853786 -1.6333239159641304 0.0026088725281914206 -0.00091278132755506769 -0.0010348664543465278 0.00085816240772495155 0.004193528671866344 -0.010537107059651938 -0.0010535162301419374 0.98750536155226676 0.0026063265877031409 0.018930272905350324 0.56194800315792759
decision_type=2 2 2 2 2 2 2 2 2 2 2 2 2 2 2 2 2
left_child=1 2 3 4 -1 12 7 11 -9 -4 -5 -7 -2 -3 15 -8 -16
right_child=5 13 9 10 -6 6 14 8 -10 -11 -12 -13 -14 -15 16 -17 -18
leaf_value=-2.6767415167437978 -3.0028520980491056 -2.4156834683079751 -3.0096394509316564 -2.2268856646490645 -2.3705666858665415 -2.5203778325477155 -2.6014314439494499 -3.0055813474120483 -2.3993191104268683 -2.5607501694322989 -2.6238174868747333 -2.157059021094077 -2.5333448751814776 -2.0788346925138388 -2.9757942519784941 -2.1345005253332143 -2.1365124639292521
leaf_weight=163.65982395410538 3.0942481309175491 6.006221882998946 15.79941848665476 14.268061853945257 22.089668497443199 5.4305967241525641 6.6026604101061803 4.7351372912526122 56.212594129145145 3.8235555216670027 4.526793733239173 29.981703899800777 1.5601586550474156 11.923934482038019 0.37506037950515647 7.2173893377184868 45.789111040532589
leaf_count=2449 66 55 337 85 197 61 86 101 541 45 60 146 15 35 8 26 209
internal_value=-2.47892 -2.59825 -2.63391 -2.60717 -2.63882 -2.30118 -2.28624 -2.35454 -2.4465 -2.9147 -2.31107 -2.20575 -2.82042 -2.1736 -2.18251 -2.33696 -2.14355
internal_weight=403.096 242.097 224.167 204.544 185.749 160.999 156.344 96.36 60.9477 19.623 18.7949 35.4123 4.65441 17.9302 59.9842 13.82 46.1642
internal_count=4522 3263 3173 2791 2646 1259 1178 849 642 382 145 207 81 90 329 112 217
is_linear=0
shrinkage=1


end of trees

feature_importances:
Column_18=2
Column_21=2
Column_4=1
Column_9=1
Column_22=1
Column_32=1
Column_41=1
Column_45=1
Column_46=1
Column_50=1
Column_52=1
Column_54=1
Column_61=1
Column_67=1
Column_76=1

parameters:
[boosting: gbdt]
[objective: binary]
[metric: binary_logloss]
[tree_learner: serial]
[device_type: cpu]
[data_sample_strategy: bagging]
[data: ]
[valid: ]
[num_iterations: 500]
[learning_rate: 0.05]
[num_leaves: 31]
[num_threads: 8]
[seed: 42]
[deterministic: 0]
[force_col_wise: 0]
[force_row_wise: 0]
[histogram_pool_size: -1]
[max_depth: 5]
[min_data_in_leaf: 30]
[min_sum_hessian_in_leaf: 0.001]
[bagging_fraction: 0.8]
[pos_bagging_fraction: 1]
[neg_bagging_fraction: 1]
[bagging_freq: 0]
[bagging_seed: 400]
[bagging_by_query: 0]
[feature_fraction: 0.8]
[feature_fraction_bynode: 1]
[feature_fraction_seed: 30056]
[extra_trees: 0]
[extra_seed: 12879]
[early_stopping_round: 0]
[early_stopping_min_delta: 0]
[first_metric_only: 0]
[max_delta_step: 0]
[lambda_l1: 0.1]
[lambda_l2: 0.5]
[linear_lambda: 0]
[min_gain_to_split: 0]
[drop_rate: 0.1]
[max_drop: 50]
[skip_drop: 0.5]
[xgboost_dart_mode: 0]
[uniform_drop: 0]
[drop_seed: 17869]
[top_rate: 0.2]
[other_rate: 0.1]
[min_data_per_group: 100]
[max_cat_threshold: 32]
[cat_l2: 10]
[cat_smooth: 10]
[max_cat_to_onehot: 4]
[top_k: 20]
[monotone_constraints: ]
[monotone_constraints_method: basic]
[monotone_penalty: 0]
[feature_contri: ]
[forcedsplits_filename: ]
[refit_decay_rate: 0.9]
[cegb_tradeoff: 1]
[cegb_penalty_split: 0]
[cegb_penalty_feature_lazy: ]
[cegb_penalty_feature_coupled: ]
[path_smooth: 0]
[interaction_constraints: ]
[verbosity: -1]
[saved_feature_importance_type: 0]
[use_quantized_grad: 0]
[num_grad_quant_bins: 4]
[quant_train_renew_leaf: 0]
[stochastic_rounding: 1]
[linear_tree: 0]
[max_bin: 255]
[max_bin_by_feature: ]
[min_data_in_bin: 3]
[bin_construct_sample_cnt: 200000]
[data_random_seed: 175]
[is_enable_sparse: 1]
[enable_bundle: 1]
[use_missing: 1]
[zero_as_missing: 0]
[feature_pre_filter: 1]
[pre_partition: 0]
[two_round: 0]
[header: 0]
[label_column: ]
[weight_column: ]
[group_column: ]
[ignore_column: ]
[categorical_feature: ]
[forcedbins_filename: ]
[precise_float_parser: 0]
[parser_config_file: ]
[objective_seed: 16083]
[num_class: 1]
[is_unbalance: 0]
[scale_pos_weight: 19.278]
[sigmoid: 1]
[boost_from_average: 1]
[reg_sqrt: 0]
[alpha: 0.9]
[fair_c: 1]
[poisson_max_delta_step: 0.7]
[tweedie_variance_power: 1.5]
[lambdarank_truncation_level: 30]
[lambdarank_norm: 1]
[label_gain: ]
[lambdarank_position_bias_regularization: 0]
[eval_at: ]
[multi_error_top_k: 1]
[auc_mu_weights: ]
[num_machines: 1]
[local_listen_port: 12400]
[time_out: 120]
[machine_list_filename: ]
[machines: ]
[gpu_platform_id: -1]
[gpu_device_id: -1]
[gpu_use_dp: 0]
[num_gpu: 1]

end of parameters

pandas_categorical:null
