{"learner":{"attributes":{"best_iteration":"3","best_score":"0.6931739111741384","scikit_learn":"{\"_estimator_type\": \"classifier\"}"},"feature_names":[],"feature_types":[],"gradient_booster":{"model":{"cats":{"enc":[],"feature_segments":[],"sorted_idx":[]},"gbtree_model_param":{"num_parallel_tree":"1","num_trees":"54"},"iteration_indptr":[0,1,2,3,4,5,6,7,8,9,10,11,12,13,14,15,16,17,18,19,20,21,22,23,24,25,26,27,28,29,30,31,32,33,34,35,36,37,38,39,40,41,42,43,44,45,46,47,48,49,50,51,52,53,54],"tree_info":[0,0,0,0,0,0,0,0,0,0,0,0,0,0,0,0,0,0,0,0,0,0,0,0,0,0,0,0,0,0,0,0,0,0,0,0,0,0,0,0,0,0,0,0,0,0,0,0,0,0,0,0,0,0],"trees":[{"base_weights":[-7.3609695E-2,-2.3829709E-1,1.0951701E0,2.0013088E-1,-9.0399814E-1,3.1448238E-2,8.159757E-2,-7.1231747E-1,4.594605E-1,-1.4578456E0,-3.2090816E-1,1.4596437E-2,-7.2270334E-2,6.5972364E-1,-4.1650143E-2,-4.24431E-2,-8.898268E-2,2.6451492E-1,-6.20082E-2,2.6164765E-3,5.1611204E-2,4.2007666E-2,-1.6744683E-2],"categories":[],"categories_nodes":[],"categories_segments":[],"categories_sizes":[],"default_left":[0,0,0,0,0,0,0,0,0,0,0,0,0,0,0,0,0,0,0,0,0,0,0],"id":0,"left_children":[1,3,5,7,9,-1,-1,11,13,15,17,-1,-1,19,-1,-1,-1,21,-1,-1,-1,-1,-1],"loss_changes":[3.980238E1,5.317849E1,5.1362724E0,2.6345772E1,2.2696495E1,0E0,0E0,1.8695911E1,2.2894934E1,5.4186096E0,2.011154E1,0E0,0E0,1.6904408E1,0E0,0E0,0E0,8.304419E0,0E0,0E0,0E0,0E0,0E0],"parents":[2147483647,0,0,1,1,2,2,3,3,4,4,7,7,8,8,9,9,10,10,13,13,17,17],"right_children":[2,4,6,8,10,-1,-1,12,14,16,18,-1,-1,20,-1,-1,-1,22,-1,-1,-1,-1,-1],"split_conditions":[2.4063744E-2,-2.6307828E-4,7.889556E-3,-2.936738E-2,-4.951249E-3,3.1448238E-2,8.159757E-2,-4.338807E-3,7.987222E-3,4.4028723E-1,-1.0497394E-2,1.4596437E-2,-7.2270334E-2,5.283446E-3,-4.1650143E-2,-4.24431E-2,-8.898268E-2,5.555549E-1,-6.20082E-2,2.6164765E-3,5.1611204E-2,4.2007666E-2,-1.6744683E-2],"split_indices":[19,31,49,19,77,0,0,27,50,57,44,0,0,50,0,0,0,12,0,0,0,0,0],"split_type":[0,0,0,0,0,0,0,0,0,0,0,0,0,0,0,0,0,0,0,0,0,0,0],"sum_hessian":[2.0487288E2,1.8034322E2,2.4529661E1,1.0906356E2,7.127966E1,1.4389831E1,1.0139831E1,2.3665255E1,8.539831E1,3.5699154E1,3.558051E1,1.0182203E1,1.3483051E1,7.4432205E1,1.0966102E1,1.3707627E1,2.1991526E1,2.2105932E1,1.3474576E1,2.883051E1,4.5601696E1,1.1156779E1,1.0949152E1],"tree_param":{"num_deleted":"0","num_feature":"86","num_nodes":"23","size_leaf_vector":"1"}},{"base_weights":[9.523901E-3,-1.866726E-1,8.608141E-1,1.5481782E-1,-7.9368687E-1,8.803344E-3,1.1120784E0,-5.9169304E-2,3.5533148E-1,-4.955123E-3,-1.2614812E0,2.6538834E-2,8.619765E-2,6.7110056E-1,-5.764254E-1,-3.41846E-2,3.857843E-2,-8.221612E-2,-1.4165871E-2,7.9873E-3,5.300359E-2,1.0195783E-2,-6.732434E-2],"categories":[],"categories_nodes":[],"categories_segments":[],"categories_sizes":[],"default_left":[0,0,0,0,0,0,0,0,0,0,0,0,0,0,0,0,0,0,0,0,0,0,0],"id":1,"left_children":[1,3,5,7,9,-1,11,-1,13,15,17,-1,-1,19,21,-1,-1,-1,-1,-1,-1,-1,-1],"loss_changes":[3.4457035E1,3.486211E1,6.3267937E0,2.9259525E1,2.2187386E1,0E0,8.813839E0,0E0,2.8221764E1,1.2959921E1,1.3530216E1,0E0,0E0,1.3866089E1,1.504859E1,0E0,0E0,0E0,0E0,0E0,0E0,0E0,0E0],"parents":[2147483647,0,0,1,1,2,2,3,3,4,4,6,6,8,8,9,9,10,10,13,13,14,14],"right_children":[2,4,6,8,10,-1,12,-1,14,16,18,-1,-1,20,22,-1,-1,-1,-1,-1,-1,-1,-1],"split_conditions":[2.08087E-2,-2.6307828E-4,9.80152E-4,-1.910705E-3,-6.9694326E-4,8.803344E-3,2.2756872E-3,-5.9169304E-2,3.84158E-2,2.3148146E-2,6.3876173E-4,2.6538834E-2,8.619765E-2,6.666667E-1,3.407804E1,-3.41846E-2,3.857843E-2,-8.221612E-2,-1.4165871E-2,7.9873E-3,5.300359E-2,1.0195783E-2,-6.732434E-2],"split_indices":[19,31,1,24,32,0,23,0,47,72,36,0,0,85,38,0,0,0,0,0,0,0,0],"split_type":[0,0,0,0,0,0,0,0,0,0,0,0,0,0,0,0,0,0,0,0,0,0,0],"sum_hessian":[2.0393893E2,1.6627975E2,3.7659176E1,1.06785324E2,5.949443E1,1.0672668E1,2.698651E1,1.3211679E1,9.357365E1,2.2605106E1,3.6889324E1,1.4880457E1,1.2106052E1,7.0177734E1,2.339591E1,1.2194539E1,1.0410567E1,2.5949678E1,1.0939646E1,3.1039694E1,3.913804E1,1.1921057E1,1.1474854E1],"tree_param":{"num_deleted":"0","num_feature":"86","num_nodes":"23","size_leaf_vector":"1"}},{"base_weights":[-3.9937355E-2,-6.669039E-1,2.1592629E-1,-7.722777E-2,-2.1085438E-1,-1.7022187E-1,5.3942466E-1,2.9988185E-1,-5.408845E-2,-4.9901694E-1,3.3946894E-2,3.7418365E-1,6.609126E-2,4.46459E-2,-2.055794E-2,9.237593E-3,-8.830327E-1,5.92301E-1,-1.5187121E-2,-6.37997E-2,-8.611041E-3,-6.6234455E-3,4.3778207E-2],"categories":[],"categories_nodes":[],"categories_segments":[],"categories_sizes":[],"default_left":[0,0,0,0,0,0,0,0,0,0,0,0,0,0,0,0,0,0,0,0,0,0,0],"id":2,"left_children":[1,3,5,-1,7,9,11,13,-1,15,-1,17,-1,-1,-1,-1,19,21,-1,-1,-1,-1,-1],"loss_changes":[3.3424255E1,2.3675148E1,1.8588644E1,0E0,1.8631498E1,1.9301926E1,9.780922E0,1.160778E1,0E0,1.3275051E1,0E0,1.0293972E1,0E0,0E0,0E0,0E0,8.59412E0,1.0876696E1,0E0,0E0,0E0,0E0,0E0],"parents":[2147483647,0,0,1,1,2,2,4,4,5,5,6,6,7,7,9,9,11,11,16,16,17,17],"right_children":[2,4,6,-1,8,10,12,14,-1,16,-1,18,-1,-1,-1,-1,20,22,-1,-1,-1,-1,-1],"split_conditions":[3.7663407E-3,-2.9342755E-6,-1.582368E-2,-7.722777E-2,3.11434E-1,1.0952009E0,2.1985488E-3,4.7619024E-1,-5.408845E-2,-3.2651262E0,3.3946894E-2,8.213896E-3,6.609126E-2,4.46459E-2,-2.055794E-2,9.237593E-3,9.471656E-3,-1.6925039E-3,-1.5187121E-2,-6.37997E-2,-8.611041E-3,-6.6234455E-3,4.3778207E-2],"split_indices":[54,33,77,0,77,51,23,12,0,40,0,50,0,0,0,0,4,23,0,0,0,0,0],"split_type":[0,0,0,0,0,0,0,0,0,0,0,0,0,0,0,0,0,0,0,0,0,0,0],"sum_hessian":[2.0617854E2,5.9402763E1,1.4677579E2,1.9421215E1,3.998155E1,6.698406E1,7.9791725E1,2.5543028E1,1.44385195E1,4.866936E1,1.8314697E1,6.7204384E1,1.25873375E1,1.38644085E1,1.1678619E1,1.7596308E1,3.1073053E1,5.1052467E1,1.6151918E1,1.9407896E1,1.1665158E1,1.4396427E1,3.665604E1],"tree_param":{"num_deleted":"0","num_feature":"86","num_nodes":"23","size_leaf_vector":"1"}},{"base_weights":[4.903288E-2,-6.606353E-2,1.4275567E-1,-7.2047365E-1,2.795772E-1,1.8967358E-2,-7.237856E-2,1.017243E0,8.725277E-2,8.042574E-2,1.9623168E-2,-4.7736326E-1,5.103856E-1,-5.190006E-2,8.66714E-3,6.082758E-3,5.6159265E-2],"categories":[],"categories_nodes":[],"categories_segments":[],"categories_sizes":[],"default_left":[0,0,0,0,0,0,0,0,0,0,0,0,0,0,0,0,0],"id":3,"left_children":[1,-1,3,5,7,-1,-1,9,11,-1,-1,13,15,-1,-1,-1,-1],"loss_changes":[2.7918512E1,0E0,2.424247E1,2.3110363E1,2.4889952E1,0E0,0E0,1.2604443E1,3.4046165E1,0E0,0E0,2.2527233E1,1.9142296E1,0E0,0E0,0E0,0E0],"parents":[2147483647,0,0,2,2,3,3,4,4,7,7,8,8,11,11,12,12],"right_children":[2,-1,4,6,8,-1,-1,10,12,-1,-1,14,16,-1,-1,-1,-1],"split_conditions":[3.3685644E-3,-6.606353E-2,-2.6810024E-2,-1.5753588E-2,1.5053762E-1,1.8967358E-2,-7.237856E-2,-4.910812E-1,5.7342654E-1,8.042574E-2,1.9623168E-2,-1.797677E-2,6.666667E-1,-5.190006E-2,8.66714E-3,6.082758E-3,5.6159265E-2],"split_indices":[50,0,19,68,65,0,0,60,63,0,0,77,85,0,0,0,0],"split_type":[0,0,0,0,0,0,0,0,0,0,0,0,0,0,0,0,0],"sum_hessian":[2.1583432E2,1.2910321E1,2.02924E2,2.7079342E1,1.7584467E2,1.0912952E1,1.616639E1,3.5370594E1,1.4047406E2,1.7281418E1,1.8089176E1,6.002027E1,8.04538E1,3.2004337E1,2.8015934E1,5.0059917E1,3.0393877E1],"tree_param":{"num_deleted":"0","num_feature":"86","num_nodes":"17","size_leaf_vector":"1"}},{"base_weights":[-5.347233E-2,-2.1294083E-1,1.091304E0,-2.298981E-2,-1.0547563E0,3.039431E-2,7.2291896E-2,-5.208592E-1,2.048108E-1,-2.9200895E-4,-7.6979965E-2,-6.848797E-2,-9.88162E-2,-5.672971E-1,4.2222738E-1,4.083096E-2,-3.461988E-2,1.3777474E-2,-7.123863E-2,5.5801332E-2,7.2649047E-3],"categories":[],"categories_nodes":[],"categories_segments":[],"categories_sizes":[],"default_left":[0,0,0,0,0,0,0,0,0,0,0,0,0,0,0,0,0,0,0,0,0],"id":4,"left_children":[1,3,5,7,9,-1,-1,11,13,-1,-1,-1,15,17,19,-1,-1,-1,-1,-1,-1],"loss_changes":[3.790236E1,2.9042984E1,3.2647514E0,1.714855E1,1.6858463E1,0E0,0E0,1.6736523E1,1.7596174E1,0E0,0E0,0E0,1.8421993E1,1.7175013E1,1.5354861E1,0E0,0E0,0E0,0E0,0E0,0E0],"parents":[2147483647,0,0,1,1,2,2,3,3,4,4,7,7,8,8,12,12,13,13,14,14],"right_children":[2,4,6,8,10,-1,-1,12,14,-1,-1,-1,16,18,20,-1,-1,-1,-1,-1,-1],"split_conditions":[2.5641024E-2,1.343175E-3,7.2411296E-4,5.354417E-3,2.3782162E-1,3.039431E-2,7.2291896E-2,6.666667E-1,-2.6810024E-2,-2.9200895E-4,-7.6979965E-2,-6.848797E-2,-5.821588E-1,-4.222123E-3,4.6390095E-3,4.083096E-2,-3.461988E-2,1.3777474E-2,-7.123863E-2,5.5801332E-2,7.2649047E-3],"split_indices":[19,22,6,49,58,0,0,85,19,0,0,0,60,27,55,0,0,0,0,0,0],"split_type":[0,0,0,0,0,0,0,0,0,0,0,0,0,0,0,0,0,0,0,0,0],"sum_hessian":[2.0582895E2,1.8145361E2,2.4375332E1,1.489826E2,3.2471004E1,1.158098E1,1.2794352E1,4.6502228E1,1.0248038E2,1.0649666E1,2.1821339E1,1.4617665E1,3.1884562E1,2.2062166E1,8.041821E1,1.2327924E1,1.9556637E1,1.1409422E1,1.0652743E1,2.1974281E1,5.8443935E1],"tree_param":{"num_deleted":"0","num_feature":"86","num_nodes":"21","size_leaf_vector":"1"}},{"base_weights":[9.0992264E-2,-5.368972E-2,1.1491115E0,2.6331055E-1,-5.467214E-1,3.4865092E-2,6.909569E-2,-5.4044944E-1,5.863534E-1,3.6384366E-2,-9.050352E-1,2.6018223E-2,-1.1750958E0,7.895486E-1,-2.2399444E-2,-1.1539232E0,1.3503209E-2,-8.2811736E-2,-2.7748212E-2,7.735078E-3,5.600254E-2,-7.877218E-2,-1.9706635E-2],"categories":[],"categories_nodes":[],"categories_segments":[],"categories_sizes":[],"default_left":[0,0,0,0,0,0,0,0,0,0,0,0,0,0,0,0,0,0,0,0,0,0,0],"id":5,"left_children":[1,3,5,7,9,-1,-1,11,13,-1,15,-1,17,19,-1,21,-1,-1,-1,-1,-1,-1,-1],"loss_changes":[3.3406635E1,3.015743E1,1.5886307E0,3.0784786E1,3.5165894E1,0E0,0E0,2.3612602E1,1.809653E1,0E0,1.7790386E1,0E0,5.3287373E0,1.4568192E1,0E0,1.4980232E1,0E0,0E0,0E0,0E0,0E0,0E0,0E0],"parents":[2147483647,0,0,1,1,2,2,3,3,4,4,7,7,8,8,10,10,12,12,13,13,15,15],"right_children":[2,4,6,8,10,-1,-1,12,14,-1,16,-1,18,20,-1,22,-1,-1,-1,-1,-1,-1,-1],"split_conditions":[2.511249E-2,-2.6307828E-4,3.84158E-2,-2.6810024E-2,1.5496117E-1,3.4865092E-2,6.909569E-2,-1.5753588E-2,3.84158E-2,3.6384366E-2,1.1004017E-5,2.6018223E-2,3.3613443E-1,5.283446E-3,-2.2399444E-2,6.842924E-3,1.3503209E-2,-8.2811736E-2,-2.7748212E-2,7.735078E-3,5.600254E-2,-7.877218E-2,-1.9706635E-2],"split_indices":[19,31,47,19,58,0,0,68,47,0,33,0,64,50,0,50,0,0,0,0,0,0,0],"split_type":[0,0,0,0,0,0,0,0,0,0,0,0,0,0,0,0,0,0,0,0,0,0,0],"sum_hessian":[2.16096E2,1.9085428E2,2.5241716E1,1.1632495E2,7.452933E1,1.0088099E1,1.5153618E1,3.3067486E1,8.325746E1,1.6068567E1,5.846076E1,1.2386278E1,2.068121E1,6.9865776E1,1.339169E1,4.832794E1,1.0132818E1,1.0614074E1,1.0067135E1,2.4525839E1,4.5339935E1,3.0308243E1,1.8019697E1],"tree_param":{"num_deleted":"0","num_feature":"86","num_nodes":"23","size_leaf_vector":"1"}},{"base_weights":[2.7871033E-2,-1.5395619E-1,7.168741E-1,2.2079423E-1,-6.3352555E-1,-5.192613E-3,1.0975682E0,-4.8258397E-1,5.265319E-1,-9.6373624E-1,4.666534E-2,6.917449E-2,2.4914145E-2,-5.0008584E-2,1.0843445E-2,9.8234266E-1,2.1902624E-1,-7.0208097E-3,-1.2743853E0,-3.6508687E-2,3.651332E-2,7.9585545E-2,2.0707069E-2,4.169438E-2,-9.694359E-3,-2.222812E-2,-7.950828E-2],"categories":[],"categories_nodes":[],"categories_segments":[],"categories_sizes":[],"default_left":[0,0,0,0,0,0,0,0,0,0,0,0,0,0,0,0,0,0,0,0,0,0,0,0,0,0,0],"id":6,"left_children":[1,3,5,7,9,-1,11,13,15,17,19,-1,-1,-1,-1,21,23,-1,25,-1,-1,-1,-1,-1,-1,-1,-1],"loss_changes":[2.6482988E1,3.0177858E1,1.4008408E1,2.0541573E1,1.6665625E1,0E0,4.319645E0,1.0793637E1,8.960335E0,1.2387356E1,1.3759054E1,0E0,0E0,0E0,0E0,8.246145E0,1.0640101E1,0E0,8.487026E0,0E0,0E0,0E0,0E0,0E0,0E0,0E0,0E0],"parents":[2147483647,0,0,1,1,2,2,3,3,4,4,6,6,7,7,8,8,9,9,10,10,15,15,16,16,18,18],"right_children":[2,4,6,8,10,-1,12,14,16,18,20,-1,-1,-1,-1,22,24,-1,26,-1,-1,-1,-1,-1,-1,-1,-1],"split_conditions":[1.8752273E-2,-3.3161452E-3,5.1557617E-3,-2.6810024E-2,7.826087E-1,-5.192613E-3,1.2057937E-2,6.120139E-3,-5.1830107E-1,-2.6307828E-4,9.6828863E-4,6.917449E-2,2.4914145E-2,-5.0008584E-2,1.0843445E-2,-6.48471E-3,4.2496747E-3,-7.0208097E-3,3.3966008E-1,-3.6508687E-2,3.651332E-2,7.9585545E-2,2.0707069E-2,4.169438E-2,-9.694359E-3,-2.222812E-2,-7.950828E-2],"split_indices":[19,19,54,19,83,0,29,53,60,31,2,0,0,0,0,17,55,0,46,0,0,0,0,0,0,0,0],"split_type":[0,0,0,0,0,0,0,0,0,0,0,0,0,0,0,0,0,0,0,0,0,0,0,0,0,0,0],"sum_hessian":[2.0906093E2,1.6590909E2,4.315183E1,9.331833E1,7.259077E1,1.3820711E1,2.9331116E1,2.7998848E1,6.531948E1,4.8685627E1,2.3905138E1,1.8858307E1,1.047281E1,1.5926466E1,1.2072382E1,2.529917E1,4.0020313E1,1.3823315E1,3.4862312E1,1.1089127E1,1.2816012E1,1.1253273E1,1.40458975E1,1.5766051E1,2.4254261E1,1.036063E1,2.450168E1],"tree_param":{"num_deleted":"0","num_feature":"86","num_nodes":"27","size_leaf_vector":"1"}},{"base_weights":[-7.26201E-3,-1.4029646E-1,9.4474036E-1,4.9566954E-2,-8.2940364E-1,2.1657534E-2,6.832921E-2,-5.0750047E-2,1.6569026E-1,2.8230725E-2,-1.3330606E0,5.6160096E-2,5.4795306E-2,-8.163307E-2,-4.4775482E-2,1.7896917E-2,-3.1256717E-2],"categories":[],"categories_nodes":[],"categories_segments":[],"categories_sizes":[],"default_left":[0,0,0,0,0,0,0,0,0,0,0,0,0,0,0,0,0],"id":7,"left_children":[1,3,5,7,9,-1,-1,-1,11,-1,13,15,-1,-1,-1,-1,-1],"loss_changes":[2.6136086E1,2.3887571E1,4.685707E0,1.779255E1,2.8500366E1,0E0,0E0,0E0,1.307969E1,0E0,2.126255E0,2.4366056E1,0E0,0E0,0E0,0E0,0E0],"parents":[2147483647,0,0,1,1,2,2,3,3,4,4,8,8,10,10,11,11],"right_children":[2,4,6,8,10,-1,-1,-1,12,-1,14,16,-1,-1,-1,-1,-1],"split_conditions":[2.5641024E-2,2.1187202E-3,3.9648123E-2,-1.910705E-3,1.7006882E-1,2.1657534E-2,6.832921E-2,-5.0750047E-2,1.6078794E-2,2.8230725E-2,6.1640586E-3,-3.3161452E-3,5.4795306E-2,-8.163307E-2,-4.4775482E-2,1.7896917E-2,-3.1256717E-2],"split_indices":[19,30,47,24,58,0,0,0,19,0,9,19,0,0,0,0,0],"split_type":[0,0,0,0,0,0,0,0,0,0,0,0,0,0,0,0,0],"sum_hessian":[2.0495473E2,1.8066585E2,2.4288885E1,1.4225467E2,3.841118E1,1.19999E1,1.2288985E1,1.3145016E1,1.2910965E2,1.0109792E1,2.8301388E1,1.1655368E2,1.2555975E1,1.5041935E1,1.3259453E1,8.120532E1,3.534836E1],"tree_param":{"num_deleted":"0","num_feature":"86","num_nodes":"17","size_leaf_vector":"1"}},{"base_weights":[-3.1386264E-2,-2.3785298E-1,7.210942E-1,4.0508274E-2,-7.2403497E-1,-2.4620413E-3,1.0162921E0,3.0199733E-1,-6.503472E-1,-1.0849347E0,1.1095793E-2,1.850774E-2,1.2988199E0,-3.2702103E-1,7.0837015E-1,-5.4072947E-3,-7.129791E-2,-7.423588E-2,-2.8721128E-2,7.678821E-2,4.6785716E-2,2.8219631E-2,-6.8334006E-2,1.6611105E-2,5.691817E-2],"categories":[],"categories_nodes":[],"categories_segments":[],"categories_sizes":[],"default_left":[0,0,0,0,0,0,0,0,0,0,0,0,0,0,0,0,0,0,0,0,0,0,0,0,0],"id":8,"left_children":[1,3,5,7,9,-1,11,13,15,17,-1,-1,19,21,23,-1,-1,-1,-1,-1,-1,-1,-1,-1,-1],"loss_changes":[3.1815947E1,2.1876772E1,1.0167078E1,1.8796156E1,2.0392765E1,0E0,5.1934204E0,1.9598774E1,1.1692435E1,7.6745415E0,0E0,0E0,1.8762207E-1,2.8901108E1,6.971657E0,0E0,0E0,0E0,0E0,0E0,0E0,0E0,0E0,0E0,0E0],"parents":[2147483647,0,0,1,1,2,2,3,3,4,4,6,6,7,7,8,8,9,9,12,12,13,13,14,14],"right_children":[2,4,6,8,10,-1,12,14,16,18,-1,-1,20,22,24,-1,-1,-1,-1,-1,-1,-1,-1,-1,-1],"split_conditions":[1.8752273E-2,-2.6307828E-4,5.1557617E-3,3.6067344E-2,1.1436861E-5,-2.4620413E-3,6.826922E-1,5.283446E-3,3.777777E-1,6.217291E-3,1.1095793E-2,1.850774E-2,1.2758607E-2,6.7597246E-1,-2.1763716E-3,-5.4072947E-3,-7.129791E-2,-7.423588E-2,-2.8721128E-2,7.678821E-2,4.6785716E-2,2.8219631E-2,-6.8334006E-2,1.6611105E-2,5.691817E-2],"split_indices":[19,31,54,47,37,0,63,50,62,49,0,0,29,52,31,0,0,0,0,0,0,0,0,0,0],"split_type":[0,0,0,0,0,0,0,0,0,0,0,0,0,0,0,0,0,0,0,0,0,0,0,0,0],"sum_hessian":[2.0299274E2,1.5992819E2,4.3064537E1,1.0215234E2,5.7775856E1,1.2067687E1,3.0996851E1,7.461729E1,2.7535059E1,4.1790646E1,1.59852085E1,1.0240672E1,2.0756178E1,2.926603E1,4.5351257E1,1.6952528E1,1.0582529E1,2.2256996E1,1.953365E1,1.0439176E1,1.0317002E1,1.5950698E1,1.33153305E1,2.5259777E1,2.0091478E1],"tree_param":{"num_deleted":"0","num_feature":"86","num_nodes":"25","size_leaf_vector":"1"}},{"base_weights":[6.389868E-2,-8.261732E-2,7.6088506E-1,6.88091E-2,-6.1008602E-2,6.1757583E-2,4.7416386E-1,2.1372029E-1,-4.897726E-1,-4.63211E-3,4.40884E-2,5.9034187E-2,7.143304E-2,3.7339837E-3,-7.0772104E-2,-7.962913E-3,3.5281282E-2],"categories":[],"categories_nodes":[],"categories_segments":[],"categories_sizes":[],"default_left":[0,0,0,0,0,0,0,0,0,0,0,0,0,0,0,0,0],"id":9,"left_children":[1,3,5,7,-1,-1,9,11,13,-1,-1,-1,15,-1,-1,-1,-1],"loss_changes":[2.1450283E1,3.004945E1,4.2040215E0,1.2526538E1,0E0,0E0,5.8185096E0,1.6707958E1,1.6877659E1,0E0,0E0,0E0,1.6017628E1,0E0,0E0,0E0,0E0],"parents":[2147483647,0,0,1,1,2,2,3,3,6,6,7,7,8,8,12,12],"right_children":[2,4,6,8,-1,-1,10,12,14,-1,-1,-1,16,-1,-1,-1,-1],"split_conditions":[2.08087E-2,2.7393373E-3,1.593364E-3,3.7877094E-2,-6.1008602E-2,6.1757583E-2,3.8710814E-2,-3.270032E-3,6.956522E-1,-4.63211E-3,4.40884E-2,5.9034187E-2,7.826087E-1,3.7339837E-3,-7.0772104E-2,-7.962913E-3,3.5281282E-2],"split_indices":[19,30,21,47,0,0,47,22,83,0,0,0,83,0,0,0,0],"split_type":[0,0,0,0,0,0,0,0,0,0,0,0,0,0,0,0,0],"sum_hessian":[2.077707E2,1.7229083E2,3.547988E1,1.5280208E2,1.9488756E1,1.1990211E1,2.348967E1,1.21959015E2,3.0843054E1,1.0046537E1,1.3443133E1,1.4617811E1,1.073412E2,1.9663805E1,1.1179249E1,7.914349E1,2.819771E1],"tree_param":{"num_deleted":"0","num_feature":"86","num_nodes":"17","size_leaf_vector":"1"}},{"base_weights":[2.0509498E-2,-9.325333E-2,8.668972E-1,5.3871263E-2,-7.3443824E-1,2.0434147E-2,6.35125E-2,-5.17488E-2,1.399621E-1,8.590871E-3,-1.1548915E0,-6.02819E-1,3.1168273E-1,-2.6489777E-2,-7.7741526E-2,1.794355E-2,-6.2218666E-2,-2.3499473E-3,3.8205754E-2],"categories":[],"categories_nodes":[],"categories_segments":[],"categories_sizes":[],"default_left":[0,0,0,0,0,0,0,0,0,0,0,0,0,0,0,0,0,0,0],"id":10,"left_children":[1,3,5,7,9,-1,-1,-1,11,-1,13,15,17,-1,-1,-1,-1,-1,-1],"loss_changes":[2.0684132E1,1.7909819E1,4.018358E0,1.45192995E1,1.3791407E1,0E0,0E0,0E0,1.8520863E1,0E0,5.0669823E0,1.7355976E1,1.9207172E1,0E0,0E0,0E0,0E0,0E0,0E0],"parents":[2147483647,0,0,1,1,2,2,3,3,4,4,8,8,10,10,11,11,12,12],"right_children":[2,4,6,8,10,-1,-1,-1,12,-1,14,16,18,-1,-1,-1,-1,-1,-1],"split_conditions":[2.5641024E-2,1.343175E-3,6.877927E-3,3.3685644E-3,2.3782162E-1,2.0434147E-2,6.35125E-2,-5.17488E-2,-2.6810024E-2,8.590871E-3,6.258503E-1,-1.5753588E-2,6.666667E-1,-2.6489777E-2,-7.7741526E-2,1.794355E-2,-6.2218666E-2,-2.3499473E-3,3.8205754E-2],"split_indices":[19,22,55,50,58,0,0,0,19,0,65,68,85,0,0,0,0,0,0],"split_type":[0,0,0,0,0,0,0,0,0,0,0,0,0,0,0,0,0,0,0],"sum_hessian":[2.121734E2,1.8771442E2,2.4458986E1,1.5329887E2,3.4415535E1,1.2509337E1,1.1949649E1,1.0339902E1,1.4295897E2,1.1018815E1,2.3396719E1,2.6263376E1,1.16695595E2,1.013331E1,1.326341E1,1.0623499E1,1.5639877E1,6.546835E1,5.1227245E1],"tree_param":{"num_deleted":"0","num_feature":"86","num_nodes":"19","size_leaf_vector":"1"}},{"base_weights":[-1.5641713E-4,-4.7729576E-1,2.042578E-1,2.303198E-2,-8.777466E-1,-3.0887773E-2,3.2426855E-1,-1.1836953E0,2.0052919E-3,6.636263E-1,-9.1453575E-2,-3.5502803E-2,-8.290173E-2,9.2761976E-1,1.5378251E-3,-4.650141E-2,3.8077974E-1,7.595928E-2,3.299563E-2,-1.3117138E-3,5.6881484E-2],"categories":[],"categories_nodes":[],"categories_segments":[],"categories_sizes":[],"default_left":[0,0,0,0,0,0,0,0,0,0,0,0,0,0,0,0,0,0,0,0,0],"id":11,"left_children":[1,3,5,-1,7,-1,9,11,-1,13,15,-1,-1,17,-1,-1,19,-1,-1,-1,-1],"loss_changes":[1.9364124E1,2.2834873E1,1.384874E1,0E0,1.2010124E1,0E0,1.7293852E1,5.721016E0,0E0,1.1116941E1,2.2372862E1,0E0,0E0,6.275486E0,0E0,0E0,1.1266316E1,0E0,0E0,0E0,0E0],"parents":[2147483647,0,0,1,1,2,2,4,4,6,6,7,7,9,9,10,10,13,13,16,16],"right_children":[2,4,6,-1,8,-1,10,12,-1,14,16,-1,-1,18,-1,-1,20,-1,-1,-1,-1],"split_conditions":[5.2367304E-3,7.030701E-4,-2.936738E-2,2.303198E-2,3.941863E-3,-3.0887773E-2,5.5610137E-3,3.241837E-3,2.0052919E-3,6.5217394E-1,-1.6984112E-3,-3.5502803E-2,-8.290173E-2,-3.8242496E-3,1.5378251E-3,-4.650141E-2,2.2756872E-3,7.595928E-2,3.299563E-2,-1.3117138E-3,5.6881484E-2],"split_indices":[50,5,19,0,3,0,55,54,0,83,2,0,0,31,0,0,23,0,0,0,0],"split_type":[0,0,0,0,0,0,0,0,0,0,0,0,0,0,0,0,0,0,0,0,0],"sum_hessian":[1.9625754E2,5.8608673E1,1.3764886E2,1.7416277E1,4.1192398E1,1.6901478E1,1.2074739E2,3.0758835E1,1.0433561E1,6.628365E1,5.4463734E1,1.6745651E1,1.4013184E1,4.633279E1,1.9950865E1,1.9348215E1,3.511552E1,1.2862201E1,3.347059E1,2.3377127E1,1.1738394E1],"tree_param":{"num_deleted":"0","num_feature":"86","num_nodes":"21","size_leaf_vector":"1"}},{"base_weights":[3.4723718E-2,-3.848416E-1,3.0916747E-1,-6.4737386E-1,3.0357212E-2,1.372986E-1,1.0097901E0,-3.310243E-2,-1.269604E0,4.7721663E-1,-1.9223942E-1,2.7092298E-2,6.5959714E-2,4.2858865E-2,-3.689412E-2,-3.5981916E-2,-7.419335E-2,7.773137E-1,-2.4863856E-2,-8.577181E-1,5.053615E-1,1.5438745E-2,5.6314077E-2,-7.303851E-2,-1.1113106E-2,4.8972514E-2,2.1813698E-3],"categories":[],"categories_nodes":[],"categories_segments":[],"categories_sizes":[],"default_left":[0,0,0,0,0,0,0,0,0,0,0,0,0,0,0,0,0,0,0,0,0,0,0,0,0,0,0],"id":12,"left_children":[1,3,5,7,-1,9,11,13,15,17,19,-1,-1,-1,-1,-1,-1,21,-1,23,25,-1,-1,-1,-1,-1,-1],"loss_changes":[2.4040787E1,2.1877579E1,1.4959211E1,2.4971655E1,0E0,1.1626523E1,2.6628284E0,2.2086617E1,2.5500946E0,1.5329192E1,2.4943287E1,0E0,0E0,0E0,0E0,0E0,0E0,5.960806E0,0E0,1.0016733E1,5.610933E0,0E0,0E0,0E0,0E0,0E0,0E0],"parents":[2147483647,0,0,1,1,2,2,3,3,5,5,6,6,7,7,8,8,9,9,10,10,17,17,19,19,20,20],"right_children":[2,4,6,8,-1,10,12,14,16,18,20,-1,-1,-1,-1,-1,-1,22,-1,24,26,-1,-1,-1,-1,-1,-1],"split_conditions":[5.023921E-3,5.0300156E-4,1.9071052E-3,-1.1174707E-3,3.0357212E-2,-2.0103293E-4,4.2408134E-4,2.9369432E-2,1.7318435E-1,3.7877094E-2,9.729058E-4,2.7092298E-2,6.5959714E-2,4.2858865E-2,-3.689412E-2,-3.5981916E-2,-7.419335E-2,2.3301527E-2,-2.4863856E-2,4.261259E-3,-5.7653576E-1,1.5438745E-2,5.6314077E-2,-7.303851E-2,-1.1113106E-2,4.8972514E-2,2.1813698E-3],"split_indices":[69,36,23,32,0,24,24,47,65,47,32,0,0,0,0,0,0,47,0,53,60,0,0,0,0,0,0],"split_type":[0,0,0,0,0,0,0,0,0,0,0,0,0,0,0,0,0,0,0,0,0,0,0,0,0,0,0],"sum_hessian":[2.068157E2,8.148147E1,1.25334236E2,6.47843E1,1.6697172E1,1.017201E2,2.3614138E1,3.3211502E1,3.15728E1,5.0000237E1,5.1719864E1,1.0622734E1,1.2991403E1,1.4516324E1,1.8695177E1,1.020478E1,2.136802E1,3.846105E1,1.153919E1,2.6425241E1,2.5294622E1,1.7344702E1,2.1116344E1,1.2811192E1,1.361405E1,1.1820264E1,1.3474358E1],"tree_param":{"num_deleted":"0","num_feature":"86","num_nodes":"27","size_leaf_vector":"1"}},{"base_weights":[2.274314E-2,-8.596845E-1,1.2858944E-1,-6.2452145E-2,-1.8866582E-2,-1.0533852E-1,6.569079E-1,-5.553778E-1,3.3612397E-1,8.6135364E-1,-9.649078E-3,-1.0904627E0,-9.2857704E-4,-2.9530177E-2,5.8347726E-1,6.3673058E-3,1.0762458E0,-6.959226E-2,-2.0088281E-2,-2.9337704E-2,3.7757553E-2,4.697345E-2,-3.1290454E-4,2.2794893E-2,6.882986E-2],"categories":[],"categories_nodes":[],"categories_segments":[],"categories_sizes":[],"default_left":[0,0,0,0,0,0,0,0,0,0,0,0,0,0,0,0,0,0,0,0,0,0,0,0,0],"id":13,"left_children":[1,3,5,-1,-1,7,9,11,13,15,-1,17,19,-1,21,-1,23,-1,-1,-1,-1,-1,-1,-1,-1],"loss_changes":[1.8724535E1,3.3958797E0,2.2322721E1,0E0,0E0,2.5087378E1,9.857773E0,1.8431726E1,1.4951461E1,6.829319E0,0E0,5.8436203E0,1.4505452E1,0E0,1.0782579E1,0E0,5.6199875E0,0E0,0E0,0E0,0E0,0E0,0E0,0E0,0E0],"parents":[2147483647,0,0,1,1,2,2,5,5,6,6,7,7,8,8,9,9,11,11,12,12,14,14,16,16],"right_children":[2,4,6,-1,-1,8,10,12,14,16,-1,18,20,-1,22,-1,24,-1,-1,-1,-1,-1,-1,-1,-1],"split_conditions":[-2.9703585E-2,7.4950135E-3,8.333333E-1,-6.2452145E-2,-1.8866582E-2,2.857406E-2,7.3943934E-3,5E-1,-1.0855864E-2,-2.3040788E-2,-9.649078E-3,9.374994E-1,5.354417E-3,-2.9530177E-2,1.5942282E-3,6.3673058E-3,3.7931022E-1,-6.959226E-2,-2.0088281E-2,-2.9337704E-2,3.7757553E-2,4.697345E-2,-3.1290454E-4,2.2794893E-2,6.882986E-2],"split_indices":[19,49,85,0,0,47,54,85,4,19,0,12,49,0,22,0,11,0,0,0,0,0,0,0,0],"split_type":[0,0,0,0,0,0,0,0,0,0,0,0,0,0,0,0,0,0,0,0,0,0,0,0,0],"sum_hessian":[1.9907233E2,2.0457111E1,1.7861522E2,1.0325504E1,1.0131608E1,1.2422321E2,5.439201E1,6.1498447E1,6.2724766E1,4.392885E1,1.04631605E1,3.071198E1,3.0786467E1,1.28372135E1,4.988755E1,1.0414381E1,3.351447E1,2.0551987E1,1.0159994E1,1.7546953E1,1.3239514E1,3.0844751E1,1.9042799E1,1.186312E1,2.1651346E1],"tree_param":{"num_deleted":"0","num_feature":"86","num_nodes":"25","size_leaf_vector":"1"}},{"base_weights":[4.8586787E-3,-1.2328564E-1,7.126075E-1,3.9408064E-1,-3.4080046E-1,-1.6150175E-2,6.321444E-2,-1.6631793E-2,7.11789E-1,-6.831815E-1,2.1942939E-1,6.1340816E-2,6.283225E-3,-4.1820246E-1,-7.778652E-2,5.9717715E-1,-4.9815558E-2,-5.301666E-2,-1.1441122E-3,-1.625932E-3,5.3154297E-2],"categories":[],"categories_nodes":[],"categories_segments":[],"categories_sizes":[],"default_left":[0,0,0,0,0,0,0,0,0,0,0,0,0,0,0,0,0,0,0,0,0],"id":14,"left_children":[1,3,5,7,9,-1,-1,-1,11,13,15,-1,-1,17,-1,19,-1,-1,-1,-1,-1],"loss_changes":[1.820726E1,1.9185762E1,1.8096628E1,1.1922861E1,2.3192799E1,0E0,0E0,0E0,1.0432371E1,1.6438755E1,2.173695E1,0E0,0E0,1.4795258E1,0E0,1.0663417E1,0E0,0E0,0E0,0E0,0E0],"parents":[2147483647,0,0,1,1,2,2,3,3,4,4,8,8,9,9,10,10,13,13,15,15],"right_children":[2,4,6,8,10,-1,-1,-1,12,14,16,-1,-1,18,-1,20,-1,-1,-1,-1,-1],"split_conditions":[1.9891793E-3,1.7318435E-1,-1.7947271E-2,-1.1401506E-3,8.813792E-4,-1.6150175E-2,6.321444E-2,-1.6631793E-2,-4.6339077E-1,1.1299151E-3,5.0451124E-1,6.1340816E-2,6.283225E-3,3.707865E-1,-7.778652E-2,1.798767E-4,-4.9815558E-2,-5.301666E-2,-1.1441122E-3,-1.625932E-3,5.3154297E-2],"split_indices":[23,65,44,24,32,0,0,0,60,21,59,0,0,70,0,24,0,0,0,0,0],"split_type":[0,0,0,0,0,0,0,0,0,0,0,0,0,0,0,0,0,0,0,0,0],"sum_hessian":[1.9813641E2,1.6834123E2,2.9795187E1,4.9450375E1,1.18890854E2,1.043672E1,1.9358467E1,1.4932496E1,3.451788E1,7.3767395E1,4.5123463E1,1.7700632E1,1.6817245E1,5.7806408E1,1.5960983E1,3.4877563E1,1.0245901E1,2.1289711E1,3.6516697E1,1.5136076E1,1.9741486E1],"tree_param":{"num_deleted":"0","num_feature":"86","num_nodes":"21","size_leaf_vector":"1"}},{"base_weights":[1.8565923E-2,-5.339385E-2,1.00250736E-1,-1.849083E-1,3.964087E-1,-3.5779095E-1,3.9266445E-2,-2.4939947E-2,5.5830705E-1,1.272187E-1,-7.2126424E-1,8.7734336E-1,1.4098139E-1,-1.1609437E-2,4.7569435E-2,-5.2645158E-2,-6.591352E-3,6.0870696E-2,9.664559E-3,-1.1941365E-2,3.4756277E-2],"categories":[],"categories_nodes":[],"categories_segments":[],"categories_sizes":[],"default_left":[0,0,0,0,0,0,0,0,0,0,0,0,0,0,0,0,0,0,0,0,0],"id":15,"left_children":[1,-1,3,5,7,9,-1,-1,11,13,15,17,19,-1,-1,-1,-1,-1,-1,-1,-1],"loss_changes":[1.7838102E1,0E0,1.5957793E1,1.6375563E1,1.3709865E1,1.4682689E1,0E0,0E0,1.0294275E1,1.0969467E1,9.005899E0,9.964283E0,7.6959023E0,0E0,0E0,0E0,0E0,0E0,0E0,0E0,0E0],"parents":[2147483647,0,0,2,2,3,3,4,4,5,5,8,8,9,9,10,10,11,11,12,12],"right_children":[2,-1,4,6,8,10,-1,-1,12,14,16,18,20,-1,-1,-1,-1,-1,-1,-1,-1],"split_conditions":[3.4291272E-3,-5.339385E-2,6.666667E-1,-2.879081E-3,-1.7105389E-3,-5.4496434E-4,3.9266445E-2,-2.4939947E-2,3.331686E-2,-1.6979239E-3,1.2812725E-3,-2.2469099E-4,1.4528872E-2,-1.1609437E-2,4.7569435E-2,-5.2645158E-2,-6.591352E-3,6.0870696E-2,9.664559E-3,-1.1941365E-2,3.4756277E-2],"split_indices":[50,0,85,66,24,30,0,0,47,30,23,24,19,0,0,0,0,0,0,0,0],"split_type":[0,0,0,0,0,0,0,0,0,0,0,0,0,0,0,0,0,0,0,0,0],"sum_hessian":[1.9988608E2,1.3047772E1,1.868383E2,9.520606E1,9.163224E1,8.143057E1,1.3775485E1,1.36203985E1,7.801184E1,3.5043835E1,4.638674E1,4.3451897E1,3.4559944E1,2.4818027E1,1.0225805E1,2.9073175E1,1.7313568E1,2.84048E1,1.5047095E1,2.0736067E1,1.3823879E1],"tree_param":{"num_deleted":"0","num_feature":"86","num_nodes":"21","size_leaf_vector":"1"}},{"base_weights":[5.0917175E-2,-5.1430445E-2,7.470589E-1,2.169889E-1,-4.6429148E-1,1.6206596E-2,5.7905283E-2,4.4605E-1,-5.148913E-1,2.7647197E-2,-7.843619E-1,-1.12100564E-1,8.008689E-1,1.1051253E-2,-6.577516E-2,-1.056818E0,1.0049195E-3,2.9374441E-2,-4.285937E-2,7.923508E-3,5.1574863E-2,-6.638499E-2,-1.2590404E-2],"categories":[],"categories_nodes":[],"categories_segments":[],"categories_sizes":[],"default_left":[0,0,0,0,0,0,0,0,0,0,0,0,0,0,0,0,0,0,0,0,0,0,0],"id":16,"left_children":[1,3,5,7,9,-1,-1,11,13,-1,15,17,19,-1,-1,21,-1,-1,-1,-1,-1,-1,-1],"loss_changes":[1.4060806E1,1.9135792E1,3.8730364E0,1.7740158E1,2.2613602E1,0E0,0E0,1.6046211E1,1.5287537E1,0E0,1.1577621E1,1.7182444E1,7.0182247E0,0E0,0E0,8.0436325E0,0E0,0E0,0E0,0E0,0E0,0E0,0E0],"parents":[2147483647,0,0,1,1,2,2,3,3,4,4,7,7,8,8,10,10,11,11,12,12,15,15],"right_children":[2,4,6,8,10,-1,-1,12,14,-1,16,18,20,-1,-1,22,-1,-1,-1,-1,-1,-1,-1],"split_conditions":[2.511249E-2,-2.6307828E-4,1.0005357E-3,3.84158E-2,1.5496117E-1,1.6206596E-2,5.7905283E-2,3.7663407E-3,6.086956E-1,2.7647197E-2,4.4096103E-3,3E0,2.173913E-1,1.1051253E-2,-6.577516E-2,7.7707623E-3,1.0049195E-3,2.9374441E-2,-4.285937E-2,7.923508E-3,5.1574863E-2,-6.638499E-2,-1.2590404E-2],"split_indices":[26,31,36,47,58,0,0,54,83,0,1,14,83,0,0,9,0,0,0,0,0,0,0],"split_type":[0,0,0,0,0,0,0,0,0,0,0,0,0,0,0,0,0,0,0,0,0,0,0],"sum_hessian":[1.9483333E2,1.7054243E2,2.4290888E1,1.0349072E2,6.705171E1,1.2973872E1,1.1317017E1,7.922299E1,2.4267733E1,1.5799226E1,5.125249E1,3.0945765E1,4.827723E1,1.2956886E1,1.1310846E1,3.814431E1,1.3108179E1,1.6000042E1,1.4945723E1,1.3313669E1,3.496356E1,2.7961788E1,1.0182522E1],"tree_param":{"num_deleted":"0","num_feature":"86","num_nodes":"23","size_leaf_vector":"1"}},{"base_weights":[5.2933652E-2,-6.174315E-2,9.9066424E-1,8.454523E-2,-9.974487E-1,3.4126613E-2,6.020356E-2,-9.408208E-2,6.8392485E-1,-7.315469E-2,-1.5417503E-2,-5.3581584E-2,4.190044E-2,9.999968E-1,6.9640214E-3,8.031165E-3,-4.3719213E-2,6.893132E-2,2.6026348E-2],"categories":[],"categories_nodes":[],"categories_segments":[],"categories_sizes":[],"default_left":[0,0,0,0,0,0,0,0,0,0,0,0,0,0,0,0,0,0,0],"id":17,"left_children":[1,3,5,7,9,-1,-1,11,13,-1,-1,-1,15,17,-1,-1,-1,-1,-1],"loss_changes":[2.1509325E1,2.4512608E1,4.22575E-1,1.6674109E1,7.139721E0,0E0,0E0,1.6078669E1,5.8996067E0,0E0,0E0,0E0,1.1609008E1,3.1478596E0,0E0,0E0,0E0,0E0,0E0],"parents":[2147483647,0,0,1,1,2,2,3,3,4,4,7,7,8,8,12,12,13,13],"right_children":[2,4,6,8,10,-1,-1,12,14,-1,-1,-1,16,18,-1,-1,-1,-1,-1],"split_conditions":[2.5641024E-2,1.7164631E-3,3.4141745E-2,1.0648907E0,7.3913044E-1,3.4126613E-2,6.020356E-2,-4.7043186E-1,6.086956E-1,-7.315469E-2,-1.5417503E-2,-5.3581584E-2,2.284013E-3,6.535962E-1,6.9640214E-3,8.031165E-3,-4.3719213E-2,6.893132E-2,2.6026348E-2],"split_indices":[26,22,67,51,83,0,0,77,83,0,0,0,30,57,0,0,0,0,0],"split_type":[0,0,0,0,0,0,0,0,0,0,0,0,0,0,0,0,0,0,0],"sum_hessian":[1.9758725E2,1.7679427E2,2.079298E1,1.5358546E2,2.3208807E1,1.0417832E1,1.0375148E1,1.1884379E2,3.4741673E1,1.3093089E1,1.0115718E1,1.376254E1,1.0508125E2,2.1338627E1,1.3403046E1,9.385439E1,1.122686E1,1.0758743E1,1.0579883E1],"tree_param":{"num_deleted":"0","num_feature":"86","num_nodes":"19","size_leaf_vector":"1"}},{"base_weights":[1.4795521E-3,-3.467589E-1,2.767787E-1,-1.7626925E-1,-6.88545E-2,9.0306655E-2,1.0046448E0,-4.42084E-1,3.970865E-1,3.7598047E-2,-6.308439E-2,3.431125E-2,6.129306E-2,1.8917538E-1,-9.8819125E-1,4.865057E-2,-1.2820301E-2,-4.7110313E-1,4.5529702E-1,-2.1399138E-2,4.952659E-2,-3.3376038E-2,-6.646737E-2,6.6864504E-3,-4.441536E-2,5.280393E-2,2.003108E-3],"categories":[],"categories_nodes":[],"categories_segments":[],"categories_sizes":[],"default_left":[0,0,0,0,0,0,0,0,0,0,0,0,0,0,0,0,0,0,0,0,0,0,0,0,0,0,0],"id":18,"left_children":[1,3,5,7,-1,9,11,13,15,-1,17,-1,-1,19,21,-1,-1,23,25,-1,-1,-1,-1,-1,-1,-1,-1],"loss_changes":[1.9243635E1,1.5147377E1,1.5042124E1,1.1940102E1,0E0,9.3121805E0,5.6619644E-1,1.8645693E1,9.673588E0,0E0,1.5942764E1,0E0,0E0,1.3083122E1,2.066908E0,0E0,0E0,1.0844361E1,8.117589E0,0E0,0E0,0E0,0E0,0E0,0E0,0E0,0E0],"parents":[2147483647,0,0,1,1,2,2,3,3,5,5,6,6,7,7,8,8,10,10,13,13,14,14,17,17,18,18],"right_children":[2,4,6,8,-1,10,12,14,16,-1,18,-1,-1,20,22,-1,-1,24,26,-1,-1,-1,-1,-1,-1,-1,-1],"split_conditions":[5.8568856E-3,6.897507E-1,1.9071052E-3,-1.2391574E-3,-6.88545E-2,1.6399999E-1,1.0100505E0,1.2280701E-1,4.7881255E-4,3.7598047E-2,7.3958325E-1,3.431125E-2,6.129306E-2,-1.1989424E-3,7.100592E-4,4.865057E-2,-1.2820301E-2,2.32342E-4,3.043478E-1,-2.1399138E-2,4.952659E-2,-3.3376038E-2,-6.646737E-2,6.6864504E-3,-4.441536E-2,5.280393E-2,2.003108E-3],"split_indices":[69,65,23,78,0,65,51,65,78,0,64,0,0,23,6,0,0,81,83,0,0,0,0,0,0,0,0],"split_type":[0,0,0,0,0,0,0,0,0,0,0,0,0,0,0,0,0,0,0,0,0,0,0,0,0,0,0],"sum_hessian":[1.9879877E2,8.7497E1,1.11301765E2,7.6162476E1,1.1334526E1,8.960684E1,2.1694923E1,5.2312927E1,2.384955E1,1.6252245E1,7.335459E1,1.0760427E1,1.0934497E1,2.448294E1,2.7829985E1,1.249859E1,1.135096E1,4.1205666E1,3.214893E1,1.402378E1,1.0459162E1,1.6020882E1,1.1809103E1,1.7000029E1,2.4205637E1,1.2409753E1,1.9739176E1],"tree_param":{"num_deleted":"0","num_feature":"86","num_nodes":"27","size_leaf_vector":"1"}},{"base_weights":[-6.012696E-2,-2.823711E-1,3.641892E-1,-5.226044E-2,-1.4128865E-1,-2.1630494E-2,6.42212E-1,-4.1978415E-2,1.700965E-2,6.0601987E-2,3.3201462E-1,3.9569786E-1,-3.3792168E-1,-1.2254636E-2,6.019366E-1,2.1338658E-3,5.4243393E-2,-4.1670486E-2,6.6928053E-3,5.082046E-2,4.778683E-3],"categories":[],"categories_nodes":[],"categories_segments":[],"categories_sizes":[],"default_left":[0,0,0,0,0,0,0,0,0,0,0,0,0,0,0,0,0,0,0,0,0],"id":19,"left_children":[1,3,5,-1,7,-1,9,-1,11,-1,13,15,17,-1,19,-1,-1,-1,-1,-1,-1],"loss_changes":[1.7896036E1,1.3143686E1,1.4735493E1,0E0,1.185994E1,0E0,8.070278E0,0E0,1.1916008E1,0E0,5.3384213E0,1.0299304E1,1.0848101E1,0E0,4.6094084E0,0E0,0E0,0E0,0E0,0E0,0E0],"parents":[2147483647,0,0,1,1,2,2,4,4,6,6,8,8,10,10,11,11,12,12,14,14],"right_children":[2,4,6,-1,8,-1,10,-1,12,-1,14,16,18,-1,20,-1,-1,-1,-1,-1,-1],"split_conditions":[1.0354083E0,-3.7874672E-1,1.8749994E-1,-5.226044E-2,-1.1549459E-2,-2.1630494E-2,5.3551674E-1,-4.1978415E-2,2.3089355E-4,6.0601987E-2,2.2379223E-2,6.856457E-1,4.3537887E-3,-1.2254636E-2,1.081454E-2,2.1338658E-3,5.4243393E-2,-4.1670486E-2,6.6928053E-3,5.082046E-2,4.778683E-3],"split_indices":[51,77,12,0,4,0,58,0,7,0,47,61,54,0,69,0,0,0,0,0,0],"split_type":[0,0,0,0,0,0,0,0,0,0,0,0,0,0,0,0,0,0,0,0,0],"sum_hessian":[1.8777037E2,1.2360169E2,6.416867E1,1.81807E1,1.0542099E2,1.6361563E1,4.780711E1,1.8803535E1,8.661746E1,1.5712959E1,3.209415E1,4.1987E1,4.463046E1,1.0138664E1,2.1955486E1,2.8562943E1,1.3424058E1,2.1497738E1,2.313272E1,1.1410723E1,1.0544764E1],"tree_param":{"num_deleted":"0","num_feature":"86","num_nodes":"21","size_leaf_vector":"1"}},{"base_weights":[6.894477E-2,-4.3180473E-2,6.68761E-1,-7.592573E-1,7.182352E-2,-6.8195127E-3,1.0894358E0,-1.0977011E-2,-5.644371E-2,4.7636625E-1,-2.2545564E-1,3.4940623E-2,6.842227E-2,6.6472006E-1,-1.8806616E-2,-8.481509E-1,2.4791E-1,1.18067395E-2,5.30325E-2,-6.323833E-2,-1.565204E-2,3.8539305E-2,-3.518976E-3],"categories":[],"categories_nodes":[],"categories_segments":[],"categories_sizes":[],"default_left":[0,0,0,0,0,0,0,0,0,0,0,0,0,0,0,0,0,0,0,0,0,0,0],"id":20,"left_children":[1,3,5,7,9,-1,11,-1,-1,13,15,-1,-1,17,-1,19,21,-1,-1,-1,-1,-1,-1],"loss_changes":[1.363595E1,1.4162023E1,1.1054994E1,4.364476E0,1.7892376E1,0E0,1.142931E0,0E0,0E0,1.0397579E1,2.5519535E1,0E0,0E0,8.455721E0,0E0,7.7644615E0,8.337014E0,0E0,0E0,0E0,0E0,0E0,0E0],"parents":[2147483647,0,0,1,1,2,2,3,3,4,4,6,6,9,9,10,10,13,13,15,15,16,16],"right_children":[2,4,6,8,10,-1,12,-1,-1,14,16,-1,-1,18,-1,20,22,-1,-1,-1,-1,-1,-1],"split_conditions":[1.1138304E0,-2.6810024E-2,4.964011E-4,7.824569E-1,-1.5027539E-3,-6.8195127E-3,5.4831487E-1,-1.0977011E-2,-5.644371E-2,3.774389E-2,1.3399808E-2,3.4940623E-2,6.842227E-2,2.4342008E-2,-1.8806616E-2,7.357913E-4,2.372607E-3,1.18067395E-2,5.30325E-2,-6.323833E-2,-1.565204E-2,3.8539305E-2,-3.518976E-3],"split_indices":[51,19,7,52,31,0,61,0,0,47,19,0,0,47,0,23,30,0,0,0,0,0,0],"split_type":[0,0,0,0,0,0,0,0,0,0,0,0,0,0,0,0,0,0,0,0,0,0,0],"sum_hessian":[2.0039182E2,1.6947305E2,3.0918753E1,2.279661E1,1.4667645E2,1.0760926E1,2.0157825E1,1.0024005E1,1.2772604E1,6.2016823E1,8.465962E1,1.000854E1,1.0149285E1,5.1070675E1,1.094615E1,3.6312008E1,4.834762E1,2.5411867E1,2.5658806E1,1.9544775E1,1.6767231E1,1.7875246E1,3.0472372E1],"tree_param":{"num_deleted":"0","num_feature":"86","num_nodes":"23","size_leaf_vector":"1"}},{"base_weights":[-1.0568765E-1,-2.9758248E-1,2.5943482E-1,-5.0412145E-2,-1.7659567E-1,6.529832E-1,-1.6498782E-1,6.352776E-2,-5.518497E-1,1.6614237E-4,5.4134853E-2,-4.4777762E-2,1.7381653E-2,-3.6301443E-1,5.8233786E-1,-1.7461945E-1,-6.564939E-2,7.637851E-3,-4.6111513E-2,-0E0,4.516807E-2,3.2119088E-2,-3.803582E-2],"categories":[],"categories_nodes":[],"categories_segments":[],"categories_sizes":[],"default_left":[0,0,0,0,0,0,0,0,0,0,0,0,0,0,0,0,0,0,0,0,0,0,0],"id":21,"left_children":[1,3,5,-1,7,9,11,13,15,-1,-1,-1,-1,17,19,21,-1,-1,-1,-1,-1,-1,-1],"loss_changes":[1.3483246E1,1.0539601E1,1.1222719E1,0E0,9.90811E0,9.57506E0,1.2556923E1,1.5108518E1,1.1913484E1,0E0,0E0,0E0,0E0,1.1005032E1,5.708791E0,1.4800784E1,0E0,0E0,0E0,0E0,0E0,0E0,0E0],"parents":[2147483647,0,0,1,1,2,2,4,4,5,5,6,6,7,7,8,8,13,13,14,14,15,15],"right_children":[2,4,6,-1,8,10,12,14,16,-1,-1,-1,-1,18,20,22,-1,-1,-1,-1,-1,-1,-1],"split_conditions":[1.0313239E0,-3.7874672E-1,7.591162E-1,-5.0412145E-2,4.5597482E-2,4.6125462E-4,-1.19762495E-2,4.916421E-4,2.3404251E-1,1.6614237E-4,5.4134853E-2,-4.4777762E-2,1.7381653E-2,-1.839154E-3,3.3554232E-1,7.222218E-1,-6.564939E-2,7.637851E-3,-4.6111513E-2,-0E0,4.516807E-2,3.2119088E-2,-3.803582E-2],"split_indices":[51,77,57,0,72,7,72,3,11,0,0,0,0,31,58,12,0,0,0,0,0,0,0],"split_type":[0,0,0,0,0,0,0,0,0,0,0,0,0,0,0,0,0,0,0,0,0,0,0],"sum_hessian":[1.9028246E2,1.2503012E2,6.5252335E1,1.7002089E1,1.0802803E2,3.370047E1,3.1551868E1,6.6219E1,4.1809032E1,1.3910462E1,1.9790009E1,1.2782627E1,1.8769241E1,3.6400063E1,2.9818937E1,2.88643E1,1.2944732E1,1.9220644E1,1.7179417E1,1.10164795E1,1.8802458E1,1.19457035E1,1.6918596E1],"tree_param":{"num_deleted":"0","num_feature":"86","num_nodes":"23","size_leaf_vector":"1"}},{"base_weights":[-1.4252689E-2,-3.417589E-1,2.9449525E-1,-5.6035787E-2,-1.4063111E-1,-1.9682458E-2,4.4339794E-1,7.788618E-1,-4.9242496E-1,9.2853624E-1,2.2355963E-1,7.090091E-2,2.8824958E-3,-8.7274045E-1,1.709617E-2,2.2963747E-2,6.888529E-2,5.7678048E-2,4.5207303E-2,-6.4305365E-3,-5.6622732E-2,1.8904908E-2,-3.649368E-2],"categories":[],"categories_nodes":[],"categories_segments":[],"categories_sizes":[],"default_left":[0,0,0,0,0,0,0,0,0,0,0,0,0,0,0,0,0,0,0,0,0,0,0],"id":22,"left_children":[1,3,5,-1,7,-1,9,11,13,15,17,-1,-1,19,-1,-1,-1,21,-1,-1,-1,-1,-1],"loss_changes":[1.9394756E1,1.4316259E1,1.0280024E1,0E0,2.4715956E1,0E0,8.383005E0,9.519686E0,1.7855324E1,4.4521084E0,6.358174E0,0E0,0E0,7.1213646E0,0E0,0E0,0E0,1.2233461E1,0E0,0E0,0E0,0E0,0E0],"parents":[2147483647,0,0,1,1,2,2,4,4,6,6,7,7,8,8,9,9,10,10,13,13,17,17],"right_children":[2,4,6,-1,8,-1,10,12,14,16,18,-1,-1,20,-1,-1,-1,22,-1,-1,-1,-1,-1],"split_conditions":[9.8148346E-1,-9.330129E-4,-1.743702E-5,-5.6035787E-2,-4.0728622E-4,-1.9682458E-2,3.796913E-1,-2.682927E-2,8.895475E-3,2.2425568E-1,2.511249E-2,7.090091E-2,2.8824958E-3,-1.9132892E-3,1.709617E-2,2.2963747E-2,6.888529E-2,4.011288E-5,4.5207303E-2,-6.4305365E-3,-5.6622732E-2,1.8904908E-2,-3.649368E-2],"split_indices":[51,24,33,0,24,0,58,66,69,57,19,0,0,36,0,0,0,31,0,0,0,0,0],"split_type":[0,0,0,0,0,0,0,0,0,0,0,0,0,0,0,0,0,0,0,0,0,0,0],"sum_hessian":[1.8976328E2,9.218959E1,9.7573685E1,1.7878355E1,7.431123E1,1.6945568E1,8.062811E1,2.0149008E1,5.4162224E1,2.3995762E1,5.663235E1,1.0096455E1,1.0052552E1,3.7254562E1,1.6907661E1,1.283342E1,1.1162342E1,4.6524467E1,1.0107883E1,1.0124946E1,2.7129618E1,3.3529625E1,1.2994844E1],"tree_param":{"num_deleted":"0","num_feature":"86","num_nodes":"23","size_leaf_vector":"1"}},{"base_weights":[2.251512E-2,-2.2647595E-1,3.577637E-1,-5.322075E-2,-1.05645515E-1,-9.30875E-2,6.7328596E-1,-7.204108E-1,5.9480958E-2,2.7688531E-2,-5.1445824E-1,5.9020806E-2,3.8752416E-1,7.4562295E-3,-7.516104E-2,3.8893994E-2,-1.7067432E-1,5.015986E-3,-5.5290736E-2,1.598901E-2,4.7107648E-2,-3.3425514E-2,8.543264E-3,-1.9154415E-2,2.121676E-2],"categories":[],"categories_nodes":[],"categories_segments":[],"categories_sizes":[],"default_left":[0,0,0,0,0,0,0,0,0,0,0,0,0,0,0,0,0,0,0,0,0,0,0,0,0],"id":23,"left_children":[1,3,5,-1,7,9,11,13,15,-1,17,-1,19,-1,-1,-1,21,-1,-1,23,-1,-1,-1,-1,-1],"loss_changes":[1.6604002E1,1.1306196E1,1.2190991E1,0E0,1.0340519E1,1.0006625E1,6.6561565E0,1.502465E1,1.3461468E1,0E0,8.289202E0,0E0,6.8340225E0,0E0,0E0,0E0,1.0619042E1,0E0,0E0,3.6390529E0,0E0,0E0,0E0,0E0,0E0],"parents":[2147483647,0,0,1,1,2,2,4,4,5,5,6,6,7,7,8,8,10,10,12,12,16,16,19,19],"right_children":[2,4,6,-1,8,10,12,14,16,-1,18,-1,20,-1,-1,-1,22,-1,-1,24,-1,-1,-1,-1,-1],"split_conditions":[1.0039822E0,-3.7874672E-1,4.1929236E-1,-5.322075E-2,-9.06259E-4,-3.7759598E-3,4.22496E-1,4.0224977E-3,-4.0728622E-4,2.7688531E-2,-7.499998E-2,5.9020806E-2,8.333333E-1,7.4562295E-3,-7.516104E-2,3.8893994E-2,6.4163473E-3,5.015986E-3,-5.5290736E-2,1.4289231E-2,4.7107648E-2,-3.3425514E-2,8.543264E-3,-1.9154415E-2,2.121676E-2],"split_indices":[51,77,61,0,24,31,58,54,24,0,72,0,85,0,0,0,69,0,0,69,0,0,0,0,0],"split_type":[0,0,0,0,0,0,0,0,0,0,0,0,0,0,0,0,0,0,0,0,0,0,0,0,0],"sum_hessian":[1.9678456E2,1.1293399E2,8.385056E1,1.3144221E1,9.9789764E1,3.468173E1,4.916884E1,2.0544706E1,7.924506E1,1.3462907E1,2.121882E1,1.6466206E1,3.270263E1,1.0056183E1,1.0488524E1,1.8755856E1,6.0489204E1,1.0727596E1,1.0491224E1,2.0307892E1,1.2394738E1,2.4342487E1,3.6146717E1,1.017794E1,1.0129952E1],"tree_param":{"num_deleted":"0","num_feature":"86","num_nodes":"25","size_leaf_vector":"1"}},{"base_weights":[6.202847E-2,7.688572E-1,-3.576163E-2,5.3626932E-2,1.7668718E-2,-4.568024E-1,2.2516553E-1,9.538379E-3,-6.9014466E-1,4.61842E-2,5.2688885E-2,-9.0771085E-1,-0E0,3.6260742E-1,-4.9054018E-1,-5.6583237E-2,-1.3049237E-2,3.2794148E-2,-3.1343874E-2,-4.549668E-2,6.868258E-3],"categories":[],"categories_nodes":[],"categories_segments":[],"categories_sizes":[],"default_left":[0,0,0,0,0,0,0,0,0,0,0,0,0,0,0,0,0,0,0,0,0],"id":24,"left_children":[1,3,5,-1,-1,7,9,-1,11,13,-1,15,-1,17,19,-1,-1,-1,-1,-1,-1],"loss_changes":[1.3722931E1,2.5218115E0,1.9237026E1,0E0,0E0,1.0310811E1,1.584686E1,0E0,7.430725E0,1.5432441E1,0E0,5.025091E0,0E0,1.7026735E1,9.063506E0,0E0,0E0,0E0,0E0,0E0,0E0],"parents":[2147483647,0,0,1,1,2,2,5,5,6,6,8,8,9,9,11,11,13,13,14,14],"right_children":[2,4,6,-1,-1,8,10,-1,12,14,-1,16,-1,18,20,-1,-1,-1,-1,-1,-1],"split_conditions":[-7.7033076E-3,7.6602316E-1,-9.1095426E-4,5.3626932E-2,1.7668718E-2,1.3432835E-1,1.9891793E-3,9.538379E-3,1.0648907E0,4.011288E-5,5.2688885E-2,6.9638845E-3,-0E0,3.7877094E-2,8.7264144E-1,-5.6583237E-2,-1.3049237E-2,3.2794148E-2,-3.1343874E-2,-4.549668E-2,6.868258E-3],"split_indices":[20,52,2,0,0,65,23,0,51,31,0,55,0,47,65,0,0,0,0,0,0],"split_type":[0,0,0,0,0,0,0,0,0,0,0,0,0,0,0,0,0,0,0,0,0],"sum_hessian":[1.9607695E2,2.3120659E1,1.729563E2,1.2304812E1,1.0815846E1,6.603407E1,1.0692222E2,1.7426386E1,4.8607685E1,8.889681E1,1.8025408E1,3.6695568E1,1.1912117E1,5.6247246E1,3.2649567E1,2.658502E1,1.011055E1,4.3725548E1,1.2521698E1,1.940116E1,1.3248407E1],"tree_param":{"num_deleted":"0","num_feature":"86","num_nodes":"21","size_leaf_vector":"1"}},{"base_weights":[3.0619424E-2,-4.309384E-2,8.850733E-2,-5.227201E-1,1.8858506E-1,2.7893797E-2,-6.377054E-2,-3.1760547E-2,2.507852E-1,5.3932466E-2,1.5267593E-1,-1.6961044E-2,1.4091442E-2],"categories":[],"categories_nodes":[],"categories_segments":[],"categories_sizes":[],"default_left":[0,0,0,0,0,0,0,0,0,0,0,0,0],"id":25,"left_children":[1,-1,3,5,7,-1,-1,-1,9,-1,11,-1,-1],"loss_changes":[1.0117643E1,0E0,1.137773E1,2.2047812E1,8.308611E0,0E0,0E0,0E0,1.1846896E1,0E0,8.656656E0,0E0,0E0],"parents":[2147483647,0,0,2,2,3,3,4,4,8,8,10,10],"right_children":[2,-1,4,6,8,-1,-1,-1,10,-1,12,-1,-1],"split_conditions":[3.3786562E-3,-4.309384E-2,-2.6810024E-2,-1.5753588E-2,-2.3348373E-3,2.7893797E-2,-6.377054E-2,-3.1760547E-2,9.692671E-2,5.3932466E-2,-1.8384926E-3,-1.6961044E-2,1.4091442E-2],"split_indices":[50,0,19,68,32,0,0,0,65,0,27,0,0],"split_type":[0,0,0,0,0,0,0,0,0,0,0,0,0],"sum_hessian":[1.9485307E2,1.091732E1,1.8393575E2,2.514424E1,1.587915E2,1.0375164E1,1.4769076E1,1.0388131E1,1.4840338E2,1.4556798E1,1.3384659E2,2.7335348E1,1.0651123E2],"tree_param":{"num_deleted":"0","num_feature":"86","num_nodes":"13","size_leaf_vector":"1"}},{"base_weights":[8.595018E-2,-4.104392E-2,1.4187574E-1,-3.3658016E-2,2.0708583E-1,-1.2666662E-1,4.5151663E-1,-4.3289715E-1,4.4559544E-1,6.892254E-1,5.111922E-2,-4.381677E-2,1.4671506E-2,-1.8924555E-2,5.090447E-2,4.7522928E-3,5.1225048E-2,2.2454135E-2,-4.344962E-2],"categories":[],"categories_nodes":[],"categories_segments":[],"categories_sizes":[],"default_left":[0,0,0,0,0,0,0,0,0,0,0,0,0,0,0,0,0,0,0],"id":26,"left_children":[1,-1,3,-1,5,7,9,11,13,15,17,-1,-1,-1,-1,-1,-1,-1,-1],"loss_changes":[9.698999E0,0E0,9.669683E0,0E0,1.3772202E1,1.2723838E1,9.142748E0,1.5519451E1,1.2388914E1,1.1894651E1,1.4060912E1,0E0,0E0,0E0,0E0,0E0,0E0,0E0,0E0],"parents":[2147483647,0,0,2,2,4,4,5,5,6,6,7,7,8,8,9,9,10,10],"right_children":[2,-1,4,-1,6,8,10,12,14,16,18,-1,-1,-1,-1,-1,-1,-1,-1],"split_conditions":[3.3685644E-3,-4.104392E-2,-1.7105389E-3,-3.3658016E-2,5E-1,1.0076921E-3,3.331686E-2,8.2608694E-1,3.570014E-2,4.347826E-1,7.3913044E-1,-4.381677E-2,1.4671506E-2,-1.8924555E-2,5.090447E-2,4.7522928E-3,5.1225048E-2,2.2454135E-2,-4.344962E-2],"split_indices":[50,0,24,0,85,36,47,83,47,83,83,0,0,0,0,0,0,0,0],"split_type":[0,0,0,0,0,0,0,0,0,0,0,0,0,0,0,0,0,0,0],"sum_hessian":[1.8928806E2,1.0097165E1,1.7919089E2,1.2470494E1,1.6672038E2,7.051287E1,9.620752E1,4.620552E1,2.4307352E1,5.9758728E1,3.644879E1,2.864704E1,1.755848E1,1.0031513E1,1.427584E1,2.2126904E1,3.7631824E1,2.5877117E1,1.0571673E1],"tree_param":{"num_deleted":"0","num_feature":"86","num_nodes":"19","size_leaf_vector":"1"}},{"base_weights":[-4.4030207E-3,-1.3004567E-1,4.4274202E-1,1.0183373E-1,-6.583869E-1,7.352783E-1,-3.2206965E-3,2.8549075E-1,-5.629844E-1,-8.7649447E-1,3.694303E-3,3.6852302E-3,5.9705522E-2,4.746597E-2,7.8750235E-1,1.8005379E-3,-6.1504137E-2,-2.3609852E-2,-6.563196E-2,4.531158E-2,-1.2386438E-2,1.42701855E-2,5.9104938E-2],"categories":[],"categories_nodes":[],"categories_segments":[],"categories_sizes":[],"default_left":[0,0,0,0,0,0,0,0,0,0,0,0,0,0,0,0,0,0,0,0,0,0,0],"id":27,"left_children":[1,3,5,7,9,11,-1,13,15,17,-1,-1,-1,19,21,-1,-1,-1,-1,-1,-1,-1,-1],"loss_changes":[1.0959454E1,1.8850702E1,6.455448E0,1.3194452E1,7.6344166E0,8.075477E0,0E0,9.988195E0,9.503652E0,5.6049957E0,0E0,0E0,0E0,1.5142905E1,4.867607E0,0E0,0E0,0E0,0E0,0E0,0E0,0E0,0E0],"parents":[2147483647,0,0,1,1,2,2,3,3,4,4,5,5,7,7,8,8,9,9,13,13,14,14],"right_children":[2,4,6,8,10,12,-1,14,16,18,-1,-1,-1,20,22,-1,-1,-1,-1,-1,-1,-1,-1],"split_conditions":[1.8752273E-2,4.7601473E-1,7.142847E-1,3.7877094E-2,8.2608694E-1,1.6228125E-3,-3.2206965E-3,-7.1386085E-4,3.383436E1,8.407859E-1,3.694303E-3,3.6852302E-3,5.9705522E-2,1.00418404E-1,-3.0091994E-3,1.8005379E-3,-6.1504137E-2,-2.3609852E-2,-6.563196E-2,4.531158E-2,-1.2386438E-2,1.42701855E-2,5.9104938E-2],"split_indices":[26,65,12,47,83,1,0,4,38,52,0,0,0,65,31,0,0,0,0,0,0,0,0],"split_type":[0,0,0,0,0,0,0,0,0,0,0,0,0,0,0,0,0,0,0,0,0,0,0],"sum_hessian":[1.9360754E2,1.5186736E2,4.1740185E1,1.05974884E2,4.589247E1,2.6310947E1,1.5429238E1,8.3600975E1,2.2373907E1,3.531385E1,1.0578621E1,1.1339501E1,1.4971446E1,5.758925E1,2.601173E1,1.2208169E1,1.0165737E1,1.9525785E1,1.5788064E1,1.4289057E1,4.330019E1,1.2316489E1,1.3695241E1],"tree_param":{"num_deleted":"0","num_feature":"86","num_nodes":"23","size_leaf_vector":"1"}},{"base_weights":[9.886756E-2,-3.387473E-2,1.9160055E-1,3.734404E-2,5.237654E-1,3.4448037E-1,-6.106612E-1,9.2643714E-1,1.13052644E-1,4.7243464E-1,-2.5153954E-2,-6.98138E-2,-8.463022E-2,2.2418601E-2,6.7180306E-2,-1.8449584E-2,3.9692517E-2,4.8253494E-3,3.8161747E-2,-2.3136314E-2,1.6071746E-2],"categories":[],"categories_nodes":[],"categories_segments":[],"categories_sizes":[],"default_left":[0,0,0,0,0,0,0,0,0,0,0,0,0,0,0,0,0,0,0,0,0],"id":28,"left_children":[1,-1,3,5,7,9,11,13,15,17,-1,-1,19,-1,-1,-1,-1,-1,-1,-1,-1],"loss_changes":[1.3840935E1,0E0,8.718092E0,2.3764324E1,8.745763E0,9.032567E0,1.5584032E1,4.6185703E0,9.546043E0,7.613312E0,0E0,0E0,3.8650222E0,0E0,0E0,0E0,0E0,0E0,0E0,0E0,0E0],"parents":[2147483647,0,0,2,2,3,3,4,4,5,5,6,6,7,7,8,8,9,9,12,12],"right_children":[2,-1,4,6,8,10,12,14,16,18,-1,-1,20,-1,-1,-1,-1,-1,-1,-1,-1],"split_conditions":[1.36642E-1,-3.387473E-2,1.4189658E-2,-3.5921624E-3,2.4173611E-1,1.5958498E-5,8.069563E-1,1.0005357E-3,3.5110593E-2,-2.2625614E-2,-2.5153954E-2,-6.98138E-2,6.47848E-3,2.2418601E-2,6.7180306E-2,-1.8449584E-2,3.9692517E-2,4.8253494E-3,3.8161747E-2,-2.3136314E-2,1.6071746E-2],"split_indices":[61,0,19,19,40,33,52,36,47,19,0,0,69,0,0,0,0,0,0,0,0],"split_type":[0,0,0,0,0,0,0,0,0,0,0,0,0,0,0,0,0,0,0,0,0],"sum_hessian":[1.9012207E2,1.9498241E1,1.7062383E2,1.17479935E2,5.31439E1,8.012544E1,3.7354492E1,2.6077646E1,2.7066256E1,7.010275E1,1.0022686E1,1.4241175E1,2.3113317E1,1.3230424E1,1.2847221E1,1.602836E1,1.1037895E1,3.1306936E1,3.879582E1,1.2024123E1,1.1089193E1],"tree_param":{"num_deleted":"0","num_feature":"86","num_nodes":"21","size_leaf_vector":"1"}},{"base_weights":[5.248654E-2,-2.8329689E-2,1.2832363E-1,5.4214734E-1,-1.2985172E-3,-5.4638423E-3,8.109966E-1,-3.7376948E-2,1.3378674E-1,1.1278602E-2,5.864171E-2,-1.2758963E-2,4.176356E-2,-1.1679585E-2,3.97283E-2],"categories":[],"categories_nodes":[],"categories_segments":[],"categories_sizes":[],"default_left":[0,0,0,0,0,0,0,0,0,0,0,0,0,0,0],"id":29,"left_children":[1,-1,3,5,7,-1,9,-1,11,-1,-1,13,-1,-1,-1],"loss_changes":[8.964863E0,0E0,9.201649E0,7.3146086E0,1.3332909E1,0E0,5.7703476E0,0E0,1.154164E1,0E0,0E0,1.6708305E1,0E0,0E0,0E0],"parents":[2147483647,0,0,2,2,3,3,4,4,6,6,8,8,11,11],"right_children":[2,-1,4,6,8,-1,10,-1,12,-1,-1,14,-1,-1,-1],"split_conditions":[1.36642E-1,-2.8329689E-2,1.6399999E-1,-4.8812455E-3,-1.9403999E-3,-5.4638423E-3,5.8281124E-3,-3.7376948E-2,2.0331214E-3,1.1278602E-2,5.864171E-2,1.1426022E0,4.176356E-2,-1.1679585E-2,3.97283E-2],"split_indices":[61,0,65,21,27,0,50,0,23,0,0,60,0,0,0],"split_type":[0,0,0,0,0,0,0,0,0,0,0,0,0,0,0],"sum_hessian":[1.8933282E2,1.9811987E1,1.6952084E2,3.9858856E1,1.2966199E2,1.17091255E1,2.814973E1,1.9292492E1,1.1036949E2,1.1478387E1,1.6671345E1,9.199107E1,1.8378414E1,7.288806E1,1.9103012E1],"tree_param":{"num_deleted":"0","num_feature":"86","num_nodes":"15","size_leaf_vector":"1"}},{"base_weights":[4.8974033E-2,-4.216021E-2,1.1765431E-1,-9.779848E-2,3.592725E-1,-3.8488948E-1,3.7200934E-1,-4.1454345E-2,6.3267106E-1,-1.7841364E-1,-6.182743E-2,8.193915E-1,-2.3460489E-2,1.9073455E-2,-2.7879719E-2,2.5675918E-3,7.714784E-1,8.839231E-3,-3.6759164E-2,6.010219E-2,1.8150121E-2,5.7309885E-2,1.6812718E-2],"categories":[],"categories_nodes":[],"categories_segments":[],"categories_sizes":[],"default_left":[0,0,0,0,0,0,0,0,0,0,0,0,0,0,0,0,0,0,0,0,0,0,0],"id":30,"left_children":[1,-1,3,5,7,9,11,13,15,17,-1,19,-1,-1,-1,-1,21,-1,-1,-1,-1,-1,-1],"loss_changes":[1.188612E1,0E0,9.467636E0,1.3104224E1,9.464284E0,1.02351055E1,1.4277106E1,7.9814825E0,4.0012665E0,1.0028023E1,0E0,3.6821823E0,0E0,0E0,0E0,0E0,6.159174E0,0E0,0E0,0E0,0E0,0E0,0E0],"parents":[2147483647,0,0,2,2,3,3,4,4,5,5,6,6,7,7,8,8,9,9,11,11,16,16],"right_children":[2,-1,4,6,8,10,12,14,16,18,-1,20,-1,-1,-1,-1,22,-1,-1,-1,-1,-1,-1],"split_conditions":[-1.910705E-3,-4.216021E-2,1E0,5.0300156E-4,4.6125462E-4,3.5557464E-2,1.8626066E-3,1.3393923E-2,-5.9415167E-3,4.017487E-1,-6.182743E-2,-2.907822E-4,-2.3460489E-2,1.9073455E-2,-2.7879719E-2,2.5675918E-3,1.8375962E-3,8.839231E-3,-3.6759164E-2,6.010219E-2,1.8150121E-2,5.7309885E-2,1.6812718E-2],"split_indices":[24,0,56,36,7,47,36,67,1,61,0,23,0,0,0,0,20,0,0,0,0,0,0],"split_type":[0,0,0,0,0,0,0,0,0,0,0,0,0,0,0,0,0,0,0,0,0,0,0],"sum_hessian":[1.925448E2,1.2852574E1,1.7969223E2,9.50853E1,8.4606926E1,5.9263847E1,3.5821453E1,3.450894E1,5.0097984E1,4.8767567E1,1.049628E1,2.347935E1,1.2342104E1,1.9004166E1,1.5504777E1,1.0059522E1,4.0038464E1,3.0080318E1,1.8687248E1,1.1763499E1,1.171585E1,2.0513445E1,1.9525019E1],"tree_param":{"num_deleted":"0","num_feature":"86","num_nodes":"23","size_leaf_vector":"1"}},{"base_weights":[-2.0312302E-2,-2.5521544E-1,2.3879465E-1,-6.493157E-1,8.1633806E-2,4.2313847E-1,-2.7399632E-1,-1.0262841E0,1.0437843E-2,-3.9437494E-1,4.589252E-1,8.740484E-1,9.701865E-2,-5.0009698E-2,1.9788658E-2,-2.1606712E-2,-7.029372E-2,1.0845928E-2,-4.9067475E-2,3.6686838E-2,-0E0,2.2136556E-2,6.590137E-2,-3.8609784E-2,4.2918065E-1,4.3366965E-2,-8.250991E-4],"categories":[],"categories_nodes":[],"categories_segments":[],"categories_sizes":[],"default_left":[0,0,0,0,0,0,0,0,0,0,0,0,0,0,0,0,0,0,0,0,0,0,0,0,0,0,0],"id":31,"left_children":[1,3,5,7,9,11,13,15,-1,17,19,21,23,-1,-1,-1,-1,-1,-1,-1,-1,-1,-1,-1,25,-1,-1],"loss_changes":[1.1621791E1,1.34242935E1,8.697096E0,1.5327032E1,1.0034088E1,9.698922E0,1.2336774E1,6.5464325E0,0E0,9.138666E0,3.9712324E0,4.5922318E0,1.1916883E1,0E0,0E0,0E0,0E0,0E0,0E0,0E0,0E0,0E0,0E0,0E0,5.9274163E0,0E0,0E0],"parents":[2147483647,0,0,1,1,2,2,3,3,4,4,5,5,6,6,7,7,9,9,10,10,11,11,12,12,24,24],"right_children":[2,4,6,8,10,12,14,16,-1,18,20,22,24,-1,-1,-1,-1,-1,-1,-1,-1,-1,-1,-1,26,-1,-1],"split_conditions":[5.03594E-1,6.666667E-1,8.5714257E-1,1.9073895E-1,-2.1611305E-2,4.351189E-3,4.7705383E-3,-3.3679353E-3,1.0437843E-2,-2.2591343E-3,6.2698675E-3,5.7502475E-4,-1.0935435E-3,-5.0009698E-2,1.9788658E-2,-2.1606712E-2,-7.029372E-2,1.0845928E-2,-4.9067475E-2,3.6686838E-2,-0E0,2.2136556E-2,6.590137E-2,-3.8609784E-2,3.3333334E-1,4.3366965E-2,-8.250991E-4],"split_indices":[61,85,62,77,19,55,55,20,0,23,55,23,20,0,0,0,0,0,0,0,0,0,0,0,85,0,0],"split_type":[0,0,0,0,0,0,0,0,0,0,0,0,0,0,0,0,0,0,0,0,0,0,0,0,0,0,0],"sum_hessian":[1.8891533E2,9.929588E1,8.961945E1,4.5468636E1,5.3827248E1,6.619337E1,2.3426085E1,3.153513E1,1.3933506E1,2.3662802E1,3.0164444E1,2.694754E1,3.9245827E1,1.107451E1,1.2351574E1,1.3229557E1,1.8305573E1,1.1816653E1,1.1846149E1,1.8568058E1,1.1596386E1,1.4795963E1,1.2151576E1,1.0401353E1,2.8844475E1,1.4181081E1,1.4663394E1],"tree_param":{"num_deleted":"0","num_feature":"86","num_nodes":"27","size_leaf_vector":"1"}},{"base_weights":[8.053767E-2,-3.9126128E-2,1.4124495E-1,-3.6919916E-1,2.5423032E-1,-0E0,-4.2982325E-2,-6.4781845E-2,4.535313E-1,4.1221883E-2,-3.0151534E-1,5.8418316E-1,-1.2223752E-2,-5.0019767E-2,-1.6308891E-3,6.334841E-3,4.028186E-2],"categories":[],"categories_nodes":[],"categories_segments":[],"categories_sizes":[],"default_left":[0,0,0,0,0,0,0,0,0,0,0,0,0,0,0,0,0],"id":32,"left_children":[1,-1,3,5,7,-1,-1,9,11,-1,13,15,-1,-1,-1,-1,-1],"loss_changes":[9.960196E0,0E0,1.0332925E1,5.8922253E0,9.368513E0,0E0,0E0,1.2180211E1,8.416256E0,0E0,8.4674225E0,7.557087E0,0E0,0E0,0E0,0E0,0E0],"parents":[2147483647,0,0,2,2,3,3,4,4,7,7,8,8,10,10,11,11],"right_children":[2,-1,4,6,8,-1,-1,10,12,-1,14,16,-1,-1,-1,-1,-1],"split_conditions":[-2.2418453E-5,-3.9126128E-2,1.9310737E-2,-5.2471826E-4,9.493778E-1,-0E0,-4.2982325E-2,1.00418404E-1,4.8018444E-2,4.1221883E-2,4.652092E1,3.6641565E-1,-1.2223752E-2,-5.0019767E-2,-1.6308891E-3,6.334841E-3,4.028186E-2],"split_indices":[33,0,47,31,51,0,0,65,47,0,38,61,0,0,0,0,0],"split_type":[0,0,0,0,0,0,0,0,0,0,0,0,0,0,0,0,0],"sum_hessian":[1.882161E2,1.1479373E1,1.7673672E2,3.1458973E1,1.4527776E2,1.8498547E1,1.2960425E1,5.5928577E1,8.9349174E1,1.1148302E1,4.4780273E1,7.551981E1,1.3829362E1,1.1583043E1,3.319723E1,2.5292822E1,5.0226994E1],"tree_param":{"num_deleted":"0","num_feature":"86","num_nodes":"17","size_leaf_vector":"1"}},{"base_weights":[4.9184036E-2,-9.118503E-2,3.6162186E-1,-2.262507E-1,3.1487342E-2,4.982813E-2,1.7577997E-1,-6.3415445E-2,-8.6292833E-1,-1.4378974E-1,3.1676423E-2,5.1207554E-2,-2.2218199E-1,-1.680251E-2,-6.460296E-2,2.0167537E-2,-5.2788448E-2,1.306547E-4,-3.4052003E-2],"categories":[],"categories_nodes":[],"categories_segments":[],"categories_sizes":[],"default_left":[0,0,0,0,0,0,0,0,0,0,0,0,0,0,0,0,0,0,0],"id":33,"left_children":[1,3,5,7,-1,-1,9,11,13,15,-1,-1,17,-1,-1,-1,-1,-1,-1],"loss_changes":[8.370687E0,1.2890217E1,6.689055E0,1.1408192E1,0E0,0E0,7.030758E0,1.5681407E1,4.489477E0,1.4675038E1,0E0,0E0,8.260271E0,0E0,0E0,0E0,0E0,0E0,0E0],"parents":[2147483647,0,0,1,1,2,2,3,3,6,6,7,7,8,8,9,9,12,12],"right_children":[2,4,6,8,-1,-1,10,12,14,16,-1,-1,18,-1,-1,-1,-1,-1,-1],"split_conditions":[1.0005357E-3,7.666882E-3,3.3089134E-3,3.6067344E-2,3.1487342E-2,4.982813E-2,1.5117878E-2,9.692671E-2,-9.51173E-3,-5.906155E-4,3.1676423E-2,5.1207554E-2,-1.1864409E-2,-1.680251E-2,-6.460296E-2,2.0167537E-2,-5.2788448E-2,1.306547E-4,-3.4052003E-2],"split_indices":[36,53,3,47,0,0,19,65,3,24,0,0,66,0,0,0,0,0,0],"split_type":[0,0,0,0,0,0,0,0,0,0,0,0,0,0,0,0,0,0,0],"sum_hessian":[1.8849638E2,1.3033073E2,5.8165657E1,1.104609E2,1.986983E1,1.2060311E1,4.6105347E1,8.8964264E1,2.1496634E1,2.7425846E1,1.8679499E1,1.0558306E1,7.840596E1,1.0554347E1,1.0942286E1,1.7421759E1,1.0004088E1,5.3146034E1,2.5259928E1],"tree_param":{"num_deleted":"0","num_feature":"86","num_nodes":"19","size_leaf_vector":"1"}},{"base_weights":[-3.8439208E-3,-9.3530826E-2,5.328721E-1,2.7270375E-2,-5.8614945E-1,-1.6696058E-3,4.6815496E-2,4.2481553E-2,-6.637966E-2,-6.589659E-2,-6.8795733E-4,-5.8762975E-2,6.655649E-2,3.734411E-2,-4.043507E-3],"categories":[],"categories_nodes":[],"categories_segments":[],"categories_sizes":[],"default_left":[0,0,0,0,0,0,0,0,0,0,0,0,0,0,0],"id":34,"left_children":[1,3,5,7,9,-1,-1,-1,11,-1,-1,-1,13,-1,-1],"loss_changes":[8.698809E0,9.33997E0,6.0261326E0,9.828099E0,1.2782439E1,0E0,0E0,0E0,1.6966625E1,0E0,0E0,0E0,1.0407284E1,0E0,0E0],"parents":[2147483647,0,0,1,1,2,2,3,3,4,4,8,8,12,12],"right_children":[2,4,6,8,10,-1,-1,-1,12,-1,-1,-1,14,-1,-1],"split_conditions":[1.9891793E-3,2.5928966E-3,5.675674E-1,2.2179538E-3,3.8223453E-3,-1.6696058E-3,4.6815496E-2,4.2481553E-2,-1.7105389E-3,-6.589659E-2,-6.8795733E-4,-5.8762975E-2,-7.7033076E-3,3.734411E-2,-4.043507E-3],"split_indices":[23,30,62,53,53,0,0,0,24,0,0,0,20,0,0],"split_type":[0,0,0,0,0,0,0,0,0,0,0,0,0,0,0],"sum_hessian":[1.7958897E2,1.54743E2,2.484598E1,1.2486494E2,2.9878056E1,1.061548E1,1.4230499E1,1.2049667E1,1.1281527E2,1.246489E1,1.7413166E1,1.1318026E1,1.01497246E2,1.7473755E1,8.402349E1],"tree_param":{"num_deleted":"0","num_feature":"86","num_nodes":"15","size_leaf_vector":"1"}},{"base_weights":[-0E0,-3.0739253E-2,7.3094234E-2,-9.201357E-2,4.9152258E-1,-3.8647138E-2,1.4335704E-2,1.0471346E0,4.087903E-2,4.8471445E-1,-1.6793121E-1,2.9862449E-2,6.99254E-2,4.141193E-2,-2.7636E-2,4.6122875E-2,-4.282481E-3,-2.5617504E-2,1.5352736E-2],"categories":[],"categories_nodes":[],"categories_segments":[],"categories_sizes":[],"default_left":[0,0,0,0,0,0,0,0,0,0,0,0,0,0,0,0,0,0,0],"id":35,"left_children":[1,-1,3,5,7,-1,9,11,13,15,17,-1,-1,-1,-1,-1,-1,-1,-1],"loss_changes":[8.594023E0,0E0,1.188423E1,9.003988E0,1.2030159E1,0E0,9.317264E0,2.3873348E0,1.3573675E1,7.750874E0,1.2932362E1,0E0,0E0,0E0,0E0,0E0,0E0,0E0,0E0],"parents":[2147483647,0,0,2,2,3,3,4,4,6,6,7,7,8,8,9,9,10,10],"right_children":[2,-1,4,6,8,-1,10,12,14,16,18,-1,-1,-1,-1,-1,-1,-1,-1],"split_conditions":[-1.5651026E-3,-3.0739253E-2,8.333333E-1,1.252955E-1,3.0374328E-2,-3.8647138E-2,3.0018324E-1,-1.6979239E-3,4.091254E-1,5.005005E-4,8.813792E-4,2.9862449E-2,6.99254E-2,4.141193E-2,-2.7636E-2,4.6122875E-2,-4.282481E-3,-2.5617504E-2,1.5352736E-2],"split_indices":[24,0,85,63,47,0,71,30,57,1,32,0,0,0,0,0,0,0,0],"split_type":[0,0,0,0,0,0,0,0,0,0,0,0,0,0,0,0,0,0,0],"sum_hessian":[1.8911205E2,1.932365E1,1.697884E2,1.2213587E2,4.765253E1,1.5779001E1,1.06356865E2,2.0648645E1,2.7003885E1,2.9392506E1,7.696436E1,1.0363698E1,1.0284948E1,1.1510005E1,1.549388E1,1.6379545E1,1.30129595E1,4.4690517E1,3.2273846E1],"tree_param":{"num_deleted":"0","num_feature":"86","num_nodes":"19","size_leaf_vector":"1"}},{"base_weights":[-3.7965022E-2,-4.0971076E-1,7.603836E-2,-4.5612942E-2,-1.0184118E-1,-2.918202E-1,1.9927275E-1,2.818813E-2,-3.5565373E-2,2.5252146E-1,-7.004437E-2,-2.2861958E-1,3.6937898E-1,-2.0383665E-2,3.8867895E-2,-3.8335506E-2,9.377085E-3,7.2540456E-1,4.73762E-3,6.3325755E-2,2.185974E-2,-3.0709097E-2,1.3192547E-2],"categories":[],"categories_nodes":[],"categories_segments":[],"categories_sizes":[],"default_left":[0,0,0,0,0,0,0,0,0,0,0,0,0,0,0,0,0,0,0,0,0,0,0],"id":36,"left_children":[1,3,5,-1,7,9,11,-1,-1,13,-1,15,17,-1,-1,-1,-1,19,21,-1,-1,-1,-1],"loss_changes":[7.705765E0,6.4088793E0,6.333086E0,0E0,1.1658492E1,2.1591347E1,7.7146225E0,0E0,0E0,8.758446E0,0E0,6.9678087E0,9.714737E0,0E0,0E0,0E0,0E0,5.204582E0,6.2859826E0,0E0,0E0,0E0,0E0],"parents":[2147483647,0,0,1,1,2,2,4,4,5,5,6,6,9,9,11,11,12,12,17,17,18,18],"right_children":[2,4,6,-1,8,10,12,-1,-1,14,-1,16,18,-1,-1,-1,-1,20,22,-1,-1,-1,-1],"split_conditions":[2.0886393E-2,-2.2480339E-3,-1.1157717E-2,-4.5612942E-2,4.4198892E-1,1.1333052E-1,-3.4883715E-2,2.818813E-2,-3.5565373E-2,8.333333E-1,-7.004437E-2,9.090907E-1,7.499995E-1,-2.0383665E-2,3.8867895E-2,-3.8335506E-2,9.377085E-3,2.0619686E-1,4.3633636E-3,6.3325755E-2,2.185974E-2,-3.0709097E-2,1.3192547E-2],"split_indices":[47,4,4,0,65,46,72,0,0,85,0,11,12,0,0,0,0,58,54,0,0,0,0],"split_type":[0,0,0,0,0,0,0,0,0,0,0,0,0,0,0,0,0,0,0,0,0,0,0],"sum_hessian":[1.7930193E2,4.167855E1,1.3762338E2,1.4964096E1,2.6714453E1,3.3988163E1,1.03635216E2,1.2726564E1,1.3987888E1,2.3256014E1,1.0732147E1,2.9214924E1,7.442029E1,1.03143E1,1.2941715E1,1.2478437E1,1.6736486E1,3.7015644E1,3.7404644E1,1.1563643E1,2.5452002E1,1.0520076E1,2.6884567E1],"tree_param":{"num_deleted":"0","num_feature":"86","num_nodes":"23","size_leaf_vector":"1"}},{"base_weights":[8.6993046E-2,-3.173529E-1,1.7509106E-1,5.302502E-3,-4.2973254E-2,3.1899697E-1,-1.7113008E-1,-5.309045E-3,5.280923E-1,-5.619303E-1,2.0723589E-2,4.8520553E-1,-4.7710344E-1,2.4629627E-1,1.090174E0,5.7426095E-3,-4.7856204E-2,3.5715483E-3,4.0965736E-2,1.3217223E-2,-6.006651E-2,2.458742E-2,-2.7319187E-2,3.376279E-2,7.017144E-2],"categories":[],"categories_nodes":[],"categories_segments":[],"categories_sizes":[],"default_left":[0,0,0,0,0,0,0,0,0,0,0,0,0,0,0,0,0,0,0,0,0,0,0,0,0],"id":37,"left_children":[1,3,5,-1,-1,7,9,11,13,15,-1,17,19,21,23,-1,-1,-1,-1,-1,-1,-1,-1,-1,-1],"loss_changes":[6.731539E0,7.9135804E0,7.7949114E0,0E0,0E0,7.5200634E0,1.0768846E1,1.0403166E1,1.0230547E1,7.7097216E0,0E0,2.8858657E0,1.2769175E1,9.237118E0,1.7046833E0,0E0,0E0,0E0,0E0,0E0,0E0,0E0,0E0,0E0,0E0],"parents":[2147483647,0,0,1,1,2,2,5,5,6,6,7,7,8,8,9,9,11,11,12,12,13,13,14,14],"right_children":[2,4,6,-1,-1,8,10,12,14,16,-1,18,20,22,24,-1,-1,-1,-1,-1,-1,-1,-1,-1,-1],"split_conditions":[1.9310737E-2,4.1666663E-1,6.421336E-3,5.302502E-3,-4.2973254E-2,9.540674E-1,1.8752273E-2,2.6399997E-1,2.3811704E-3,1.9915253E-1,2.0723589E-2,-3.033391E-3,1.7391297E-1,1.274873E-2,-5.677613E-3,5.7426095E-3,-4.7856204E-2,3.5715483E-3,4.0965736E-2,1.3217223E-2,-6.006651E-2,2.458742E-2,-2.7319187E-2,3.376279E-2,7.017144E-2],"split_indices":[47,65,55,0,0,51,19,64,21,65,0,21,11,45,66,0,0,0,0,0,0,0,0,0,0],"split_type":[0,0,0,0,0,0,0,0,0,0,0,0,0,0,0,0,0,0,0,0,0,0,0,0,0],"sum_hessian":[1.868105E2,3.2751705E1,1.5405879E2,1.8737314E1,1.4014391E1,1.0908526E2,4.4973534E1,4.2956413E1,6.6128845E1,2.7099754E1,1.787378E1,2.094253E1,2.2013884E1,4.512287E1,2.1005972E1,1.0158804E1,1.694095E1,1.0031815E1,1.0910714E1,1.1123155E1,1.089073E1,3.484039E1,1.0282481E1,1.053147E1,1.0474503E1],"tree_param":{"num_deleted":"0","num_feature":"86","num_nodes":"25","size_leaf_vector":"1"}},{"base_weights":[4.902623E-2,3.5421634E-1,-9.5784076E-2,6.9701215E-3,7.277084E-1,-6.095394E-1,6.287991E-2,2.6565704E-2,-2.987189E-2,5.773426E-2,7.5209993E-3,8.487672E-3,-5.2962452E-2,1.9544101E-1,-4.0624276E-2,-1.6409978E-1,5.388554E-1,1.1222252E-2,-4.4104274E-2,5.599442E-2,1.1487245E-2],"categories":[],"categories_nodes":[],"categories_segments":[],"categories_sizes":[],"default_left":[0,0,0,0,0,0,0,0,0,0,0,0,0,0,0,0,0,0,0,0,0],"id":38,"left_children":[1,3,5,7,9,11,13,-1,-1,-1,-1,-1,-1,15,-1,17,19,-1,-1,-1,-1],"loss_changes":[8.098115E0,7.5689406E0,1.01942005E1,1.0358655E1,6.6617746E0,1.0600955E1,1.1171542E1,0E0,0E0,0E0,0E0,0E0,0E0,1.0471649E1,0E0,1.1857294E1,7.3723803E0,0E0,0E0,0E0,0E0],"parents":[2147483647,0,0,1,1,2,2,3,3,4,4,5,5,6,6,13,13,15,15,16,16],"right_children":[2,4,6,8,10,12,14,-1,-1,-1,-1,-1,-1,16,-1,18,20,-1,-1,-1,-1],"split_conditions":[6.5170074E-1,2.7018125E-4,3.7663407E-3,8.240424E-3,2.3719165E-4,2.3357742E-3,4.8018444E-2,2.6565704E-2,-2.987189E-2,5.773426E-2,7.5209993E-3,8.487672E-3,-5.2962452E-2,4.986024E-1,-4.0624276E-2,-3.3210014E-4,4.5411484E-3,1.1222252E-2,-4.4104274E-2,5.599442E-2,1.1487245E-2],"split_indices":[52,36,54,67,6,53,47,0,0,0,0,0,0,61,0,32,54,0,0,0,0],"split_type":[0,0,0,0,0,0,0,0,0,0,0,0,0,0,0,0,0,0,0,0,0],"sum_hessian":[1.808849E2,5.7965706E1,1.229192E2,3.0704895E1,2.726081E1,2.8482191E1,9.4437004E1,1.6594769E1,1.4110127E1,1.4995993E1,1.2264817E1,1.0568467E1,1.7913723E1,8.279057E1,1.1646432E1,4.055847E1,4.2232098E1,2.6672508E1,1.3885964E1,1.36423025E1,2.8589796E1],"tree_param":{"num_deleted":"0","num_feature":"86","num_nodes":"21","size_leaf_vector":"1"}},{"base_weights":[2.1126159E-2,-1.3207453E-1,3.154384E-1,1.9453144E-1,-3.260626E-1,2.6712496E-2,6.719079E-1,6.639126E-1,-2.6710647E-1,-4.8096623E-2,-6.25277E-2,-2.0294081E-2,2.5296567E-2,7.4068564E-3,5.1810093E-2,1.8032638E-2,4.4890117E-2,-3.9985593E-2,1.52140055E-2,-3.2601008E-1,2.2275489E-2,-3.00293E-2,6.8980614E-3],"categories":[],"categories_nodes":[],"categories_segments":[],"categories_sizes":[],"default_left":[0,0,0,0,0,0,0,0,0,0,0,0,0,0,0,0,0,0,0,0,0,0,0],"id":39,"left_children":[1,3,5,7,9,11,13,15,17,-1,19,-1,-1,-1,-1,-1,-1,-1,-1,21,-1,-1,-1],"loss_changes":[7.6008115E0,7.075772E0,5.858238E0,9.230836E0,1.1546164E1,7.0804467E0,4.623556E0,1.0413485E0,6.859612E0,0E0,6.903824E0,0E0,0E0,0E0,0E0,0E0,0E0,0E0,0E0,4.462242E0,0E0,0E0,0E0],"parents":[2147483647,0,0,1,1,2,2,3,3,4,4,5,5,6,6,7,7,8,8,10,10,19,19],"right_children":[2,4,6,8,10,12,14,16,18,-1,20,-1,-1,-1,-1,-1,-1,-1,-1,22,-1,-1,-1],"split_conditions":[1.0313239E0,3.5061357E-3,8.333333E-1,-5.7312087E-3,4.1145E-3,2.3071833E0,-2.3040788E-2,-3.6488068E-3,2.844276E-3,-4.8096623E-2,6.4889467E-1,-2.0294081E-2,2.5296567E-2,7.4068564E-3,5.1810093E-2,1.8032638E-2,4.4890117E-2,-3.9985593E-2,1.52140055E-2,1.45555E-2,2.2275489E-2,-3.00293E-2,6.8980614E-3],"split_indices":[51,9,85,19,54,40,19,4,9,0,61,0,0,0,0,0,0,0,0,19,0,0,0],"split_type":[0,0,0,0,0,0,0,0,0,0,0,0,0,0,0,0,0,0,0,0,0,0,0],"sum_hessian":[1.6624347E2,1.09471085E2,5.6772385E1,4.0598892E1,6.887219E1,3.211555E1,2.4656834E1,2.0020763E1,2.0578127E1,1.9292568E1,4.9579624E1,1.6849634E1,1.5265917E1,1.0804129E1,1.3852704E1,1.0010608E1,1.0010157E1,1.0534263E1,1.0043865E1,3.3013195E1,1.656643E1,2.0690023E1,1.232317E1],"tree_param":{"num_deleted":"0","num_feature":"86","num_nodes":"23","size_leaf_vector":"1"}},{"base_weights":[5.6465816E-2,-4.1076858E-2,1.14632204E-1,-2.9656632E-2,1.7846686E-1,-2.237076E-2,2.552263E-1,3.529372E-2,5.683798E-1,-3.399797E-2,8.583253E-3,6.577837E-2,1.8959293E-2],"categories":[],"categories_nodes":[],"categories_segments":[],"categories_sizes":[],"default_left":[0,0,0,0,0,0,0,0,0,0,0,0,0],"id":40,"left_children":[1,-1,3,-1,5,-1,7,9,11,-1,-1,-1,-1],"loss_changes":[9.278218E0,0E0,7.7874775E0,0E0,7.6711125E0,0E0,9.647746E0,8.28152E0,7.5336456E0,0E0,0E0,0E0,0E0],"parents":[2147483647,0,0,2,2,4,4,6,6,7,7,8,8],"right_children":[2,-1,4,-1,6,-1,8,10,12,-1,-1,-1,-1],"split_conditions":[3.874486E-3,-4.1076858E-2,-2.2418453E-5,-2.9656632E-2,-1.5082922E-3,-2.237076E-2,6.666667E-1,5.3736484E-3,-1.5462674E-2,-3.399797E-2,8.583253E-3,6.577837E-2,1.8959293E-2],"split_indices":[49,0,33,0,24,0,85,49,68,0,0,0,0],"split_type":[0,0,0,0,0,0,0,0,0,0,0,0,0],"sum_hessian":[1.8021573E2,1.0274987E1,1.6994073E2,1.3243671E1,1.5669707E2,1.6448397E1,1.4024867E2,8.322823E1,5.7020443E1,1.2571688E1,7.065654E1,1.021117E1,4.6809273E1],"tree_param":{"num_deleted":"0","num_feature":"86","num_nodes":"13","size_leaf_vector":"1"}},{"base_weights":[3.063721E-2,-3.730822E-2,8.863362E-2,-5.5495154E-2,3.8190782E-1,5.46576E-1,-2.3065832E-1,3.8360253E-2,1.609284E-1,1.5684657E-3,4.4996504E-2,-8.494593E-2,-5.7666536E-2,-2.1988938E-2,3.4556076E-2,-1.2623248E-2,4.085547E-2],"categories":[],"categories_nodes":[],"categories_segments":[],"categories_sizes":[],"default_left":[0,0,0,0,0,0,0,0,0,0,0,0,0,0,0,0,0],"id":41,"left_children":[1,-1,3,5,7,9,11,-1,13,-1,-1,15,-1,-1,-1,-1,-1],"loss_changes":[8.05946E0,0E0,7.1327066E0,1.2004373E1,4.512454E0,4.54264E0,1.165139E1,0E0,1.2026004E1,0E0,0E0,1.1852085E1,0E0,0E0,0E0,0E0,0E0],"parents":[2147483647,0,0,2,2,3,3,4,4,5,5,6,6,8,8,11,11],"right_children":[2,-1,4,6,8,10,12,-1,14,-1,-1,16,-1,-1,-1,-1,-1],"split_conditions":[-2.3098364E-5,-3.730822E-2,1.3307379E-2,1.00418404E-1,2.1187202E-3,-2.6403198E-2,3.7524022E-2,3.8360253E-2,4.6996865E-3,1.5684657E-3,4.4996504E-2,7.874648E-1,-5.7666536E-2,-2.1988938E-2,3.4556076E-2,-1.2623248E-2,4.085547E-2],"split_indices":[33,0,19,65,30,19,47,0,30,0,0,61,0,0,0,0,0],"split_type":[0,0,0,0,0,0,0,0,0,0,0,0,0,0,0,0,0],"sum_hessian":[1.7788509E2,1.1414172E1,1.6647092E2,1.1193203E2,5.453888E1,2.461929E1,8.7312744E1,1.8812773E1,3.572611E1,1.057387E1,1.404542E1,7.644125E1,1.0871488E1,1.674078E1,1.8985329E1,6.516969E1,1.1271563E1],"tree_param":{"num_deleted":"0","num_feature":"86","num_nodes":"17","size_leaf_vector":"1"}},{"base_weights":[1.5798861E-2,-2.4660822E-2,8.3108924E-2,1.5229176E-1,-2.3278587E-2,-1.9024302E-1,2.9024857E-1,-4.537752E-2,1.02567635E-1,5.433607E-2,1.8918496E-1,3.1157931E-2,-2.9765695E-2,3.412484E-2,9.3384506E-4],"categories":[],"categories_nodes":[],"categories_segments":[],"categories_sizes":[],"default_left":[0,0,0,0,0,0,0,0,0,0,0,0,0,0,0],"id":42,"left_children":[1,-1,3,5,-1,7,9,-1,11,-1,13,-1,-1,-1,-1],"loss_changes":[6.112739E0,0E0,6.060111E0,6.7641497E0,0E0,8.805586E0,7.850156E0,0E0,1.1267265E1,0E0,7.616748E0,0E0,0E0,0E0,0E0],"parents":[2147483647,0,0,2,2,3,3,5,5,6,6,8,8,10,10],"right_children":[2,-1,4,6,-1,8,10,-1,12,-1,14,-1,-1,-1,-1],"split_conditions":[1.36642E-1,-2.4660822E-2,4.8018444E-2,3.8299803E-3,-2.3278587E-2,4.3902427E-1,2.9448725E-3,-4.537752E-2,5.6264833E-2,5.433607E-2,1.5053762E-1,3.1157931E-2,-2.9765695E-2,3.412484E-2,9.3384506E-4],"split_indices":[61,0,47,54,0,62,53,0,72,0,65,0,0,0,0],"split_type":[0,0,0,0,0,0,0,0,0,0,0,0,0,0,0],"sum_hessian":[1.77413E2,1.9807863E1,1.5760513E2,1.407613E2,1.6843817E1,4.009788E1,1.0066343E2,1.1113897E1,2.8983984E1,1.01252165E1,9.0538216E1,1.6744005E1,1.2239979E1,2.2333628E1,6.820458E1],"tree_param":{"num_deleted":"0","num_feature":"86","num_nodes":"15","size_leaf_vector":"1"}},{"base_weights":[3.3765782E-3,-8.397169E-2,5.289349E-1,5.2982707E-2,-5.7153815E-1,-5.5789533E-3,4.944293E-2,1.4773294E-1,-3.0498324E-2,-9.0734965E-1,1.453588E-4,-4.886023E-2,7.2347426E-1,-2.0221574E-2,-6.588935E-2,4.9219793E-3,-4.3971557E-2,5.13161E-2,1.0062995E-2],"categories":[],"categories_nodes":[],"categories_segments":[],"categories_sizes":[],"default_left":[0,0,0,0,0,0,0,0,0,0,0,0,0,0,0,0,0,0,0],"id":43,"left_children":[1,3,5,7,9,-1,-1,11,-1,13,-1,15,17,-1,-1,-1,-1,-1,-1],"loss_changes":[8.12626E0,1.0153629E1,7.636903E0,7.487904E0,6.520873E0,0E0,0E0,1.1945022E1,0E0,3.6587257E0,0E0,9.805399E0,3.9130173E0,0E0,0E0,0E0,0E0,0E0,0E0],"parents":[2147483647,0,0,1,1,2,2,3,3,4,4,7,7,9,9,11,11,12,12],"right_children":[2,4,6,8,10,-1,-1,12,-1,14,-1,16,18,-1,-1,-1,-1,-1,-1],"split_conditions":[1.9891793E-3,2.1187202E-3,-4.951249E-3,3.971446E-3,1.0662901E-3,-5.5789533E-3,4.944293E-2,-2.3699491E-5,-3.0498324E-2,1.5488383E-3,1.453588E-4,4.1952765E-1,3.5860032E-1,-2.0221574E-2,-6.588935E-2,4.9219793E-3,-4.3971557E-2,5.13161E-2,1.0062995E-2],"split_indices":[23,30,77,20,32,0,0,21,0,21,0,46,59,0,0,0,0,0,0],"split_type":[0,0,0,0,0,0,0,0,0,0,0,0,0,0,0,0,0,0,0],"sum_hessian":[1.7408041E2,1.498287E2,2.4251715E1,1.1750774E2,3.232096E1,1.0361588E1,1.3890127E1,1.0362536E2,1.388238E1,2.0141262E1,1.21797E1,7.780085E1,2.5824509E1,1.0052597E1,1.0088665E1,6.67279E1,1.1072956E1,1.5613153E1,1.0211354E1],"tree_param":{"num_deleted":"0","num_feature":"86","num_nodes":"19","size_leaf_vector":"1"}},{"base_weights":[-5.5728853E-2,-3.6857236E-2,3.5640158E-2,-3.8168752E-1,1.3314812E-1,4.3196543E-3,-3.7409738E-2,2.623388E-1,-3.623118E-1,-2.6720388E-2,3.6735585E-1,-4.7566205E-2,8.259182E-3,2.7689213E-2,2.6973316E-3],"categories":[],"categories_nodes":[],"categories_segments":[],"categories_sizes":[],"default_left":[0,0,0,0,0,0,0,0,0,0,0,0,0,0,0],"id":44,"left_children":[1,-1,3,5,7,-1,-1,9,11,-1,13,-1,-1,-1,-1],"loss_changes":[1.0297177E1,0E0,5.938362E0,4.8627224E0,7.683605E0,0E0,0E0,8.120022E0,7.944816E0,0E0,4.849534E0,0E0,0E0,0E0,0E0],"parents":[2147483647,0,0,2,2,3,3,4,4,7,7,8,8,10,10],"right_children":[2,-1,4,6,8,-1,-1,10,12,-1,14,-1,-1,-1,-1],"split_conditions":[1.36642E-1,-3.6857236E-2,-3.7874672E-1,-3.8734032E-4,8.541665E-1,4.3196543E-3,-3.7409738E-2,-1.5651026E-3,4.7648237E-3,-2.6720388E-2,4.011288E-5,-4.7566205E-2,8.259182E-3,2.7689213E-2,2.6973316E-3],"split_indices":[61,0,77,24,62,0,0,24,55,0,31,0,0,0,0],"split_type":[0,0,0,0,0,0,0,0,0,0,0,0,0,0,0],"sum_hessian":[1.6284045E2,1.8546942E1,1.4429352E2,2.6582438E1,1.17711075E2,1.1889424E1,1.4693012E1,9.389928E1,2.3811798E1,1.0348205E1,8.355108E1,1.0959875E1,1.2851922E1,5.1707397E1,3.1843678E1],"tree_param":{"num_deleted":"0","num_feature":"86","num_nodes":"15","size_leaf_vector":"1"}},{"base_weights":[-5.0393315E-3,-5.0220513E-1,8.623072E-2,2.1173789E-3,-5.336253E-2,6.607005E-1,-3.9896008E-2,4.791976E-2,1.5294443E-2,-3.8920518E-2,7.27487E-2,-1.6607487E-1,5.657172E-1,-3.0487377E-2,1.0993159E-2,4.7042385E-2,-2.2178558E-3],"categories":[],"categories_nodes":[],"categories_segments":[],"categories_sizes":[],"default_left":[0,0,0,0,0,0,0,0,0,0,0,0,0,0,0,0,0],"id":45,"left_children":[1,3,5,-1,-1,7,9,-1,-1,-1,11,13,15,-1,-1,-1,-1],"loss_changes":[7.88166E0,8.445505E0,1.0656636E1,0E0,0E0,2.375043E0,1.0143142E1,0E0,0E0,0E0,1.252667E1,1.2423826E1,8.076467E0,0E0,0E0,0E0,0E0],"parents":[2147483647,0,0,1,1,2,2,5,5,6,6,10,10,11,11,12,12],"right_children":[2,4,6,-1,-1,8,10,-1,-1,-1,12,14,16,-1,-1,-1,-1],"split_conditions":[1.252955E-1,5.7915054E-2,1.7318435E-1,2.1173789E-3,-5.336253E-2,3.4931187E1,-1.9097056E-2,4.791976E-2,1.5294443E-2,-3.8920518E-2,7.3913044E-1,5E-1,6.714285E-1,-3.0487377E-2,1.0993159E-2,4.7042385E-2,-2.2178558E-3],"split_indices":[63,65,65,0,0,39,44,0,0,0,83,85,64,0,0,0,0],"split_type":[0,0,0,0,0,0,0,0,0,0,0,0,0,0,0,0,0],"sum_hessian":[1.7082426E2,2.5967493E1,1.4485677E2,1.3604485E1,1.2363008E1,2.545793E1,1.19398834E2,1.2764913E1,1.2693018E1,1.5136868E1,1.0426197E2,7.054567E1,3.37163E1,3.2668877E1,3.7876797E1,2.064411E1,1.307219E1],"tree_param":{"num_deleted":"0","num_feature":"86","num_nodes":"17","size_leaf_vector":"1"}},{"base_weights":[-2.5794167E-2,-3.2455236E-2,3.3213276E-2,4.2485725E-2,-4.3452285E-2,-4.1137874E-2,6.7564905E-2,5.1431775E-1,-5.210354E-2,4.228804E-2,1.0549629E-2,-2.7777214E-2,2.3773497E-3],"categories":[],"categories_nodes":[],"categories_segments":[],"categories_sizes":[],"default_left":[0,0,0,0,0,0,0,0,0,0,0,0,0],"id":46,"left_children":[1,-1,3,-1,5,-1,7,9,11,-1,-1,-1,-1],"loss_changes":[6.540505E0,0E0,1.0207568E1,0E0,1.2952168E1,0E0,7.0512104E0,2.5152555E0,5.2786884E0,0E0,0E0,0E0,0E0],"parents":[2147483647,0,0,2,2,4,4,6,6,7,7,8,8],"right_children":[2,-1,4,-1,6,-1,8,10,12,-1,-1,-1,-1],"split_conditions":[-2.1657155E-5,-3.2455236E-2,-3.0247665E-3,4.2485725E-2,-2.6810024E-2,-4.1137874E-2,-2.9705899E0,2.2706631E-4,-2.9332705E-3,4.228804E-2,1.0549629E-2,-2.7777214E-2,2.3773497E-3],"split_indices":[33,0,36,0,26,0,40,7,16,0,0,0,0],"split_type":[0,0,0,0,0,0,0,0,0,0,0,0,0],"sum_hessian":[1.7456726E2,1.4378444E1,1.6018883E2,1.2996361E1,1.4719246E2,1.7666805E1,1.2952565E2,2.6844831E1,1.02680824E2,1.1815775E1,1.50290575E1,1.6376137E1,8.630469E1],"tree_param":{"num_deleted":"0","num_feature":"86","num_nodes":"13","size_leaf_vector":"1"}},{"base_weights":[-1.338573E-2,-1.8794541E-1,3.2165533E-1,2.3603356E-2,-3.1972787E-1,-4.771722E-3,4.650446E-1,-5.090985E-1,3.8643003E-1,6.468745E-1,-8.3511445E-4,-6.0801663E-2,-3.5136396E-1,3.632035E-2,1.6487583E-4,9.044322E-1,3.058538E-3,-1.1714742E-3,-3.5435E-2,6.1564114E-2,2.2230169E-2],"categories":[],"categories_nodes":[],"categories_segments":[],"categories_sizes":[],"default_left":[0,0,0,0,0,0,0,0,0,0,0,0,0,0,0,0,0,0,0,0,0],"id":47,"left_children":[1,3,5,-1,7,-1,9,11,13,15,-1,-1,17,-1,-1,19,-1,-1,-1,-1,-1],"loss_changes":[1.0359559E1,1.02908745E1,3.7039394E0,0E0,1.3320232E1,0E0,4.0528307E0,8.097557E0,2.6847408E0,4.849391E0,0E0,0E0,7.547617E0,0E0,0E0,2.7171535E0,0E0,0E0,0E0,0E0,0E0],"parents":[2147483647,0,0,1,1,2,2,4,4,6,6,7,7,8,8,9,9,12,12,15,15],"right_children":[2,4,6,-1,8,-1,10,12,14,16,-1,-1,18,-1,-1,20,-1,-1,-1,-1,-1],"split_conditions":[1.3307379E-2,-7.7033076E-3,3.8223453E-3,2.3603356E-2,7.6937383E-1,-4.771722E-3,7.918552E-3,-2.6810024E-2,3.6383022E-3,7.052283E-1,-8.3511445E-4,-6.0801663E-2,-3.8734032E-4,3.632035E-2,1.6487583E-4,1E0,3.058538E-3,-1.1714742E-3,-3.5435E-2,6.1564114E-2,2.2230169E-2],"split_indices":[19,20,53,0,61,0,5,19,53,57,0,0,24,0,0,48,0,0,0,0,0],"split_type":[0,0,0,0,0,0,0,0,0,0,0,0,0,0,0,0,0,0,0,0,0],"sum_hessian":[1.7532787E2,1.15755585E2,5.9572285E1,1.8709732E1,9.704585E1,1.5147719E1,4.4424564E1,7.685602E1,2.018983E1,3.2153427E1,1.2271137E1,1.2680625E1,6.41754E1,1.0084374E1,1.0105457E1,2.1836235E1,1.0317195E1,3.416599E1,3.0009407E1,1.1655933E1,1.0180301E1],"tree_param":{"num_deleted":"0","num_feature":"86","num_nodes":"21","size_leaf_vector":"1"}},{"base_weights":[8.8046625E-2,-3.9427657E-2,1.4683414E-1,-2.7713446E-2,2.0591238E-1,1.137416E-1,6.552709E-1,3.031357E-1,-1.9401275E-1,1.0014109E-2,5.0340243E-2,2.303478E-3,2.9490951E-2,3.1075228E-2,-2.2356492E-2],"categories":[],"categories_nodes":[],"categories_segments":[],"categories_sizes":[],"default_left":[0,0,0,0,0,0,0,0,0,0,0,0,0,0,0],"id":48,"left_children":[1,-1,3,-1,5,7,9,11,13,-1,-1,-1,-1,-1,-1],"loss_changes":[9.152791E0,0E0,6.974003E0,0E0,6.2427535E0,7.617924E0,3.8173113E0,5.8607907E0,1.0528549E1,0E0,0E0,0E0,0E0,0E0,0E0],"parents":[2147483647,0,0,2,2,4,4,5,5,6,6,7,7,8,8],"right_children":[2,-1,4,-1,6,8,10,12,14,-1,-1,-1,-1,-1,-1],"split_conditions":[-1.8958376E-3,-3.9427657E-2,-2.3098364E-5,-2.7713446E-2,1.9891793E-3,4.011288E-5,7.208287E-2,9.6782E-4,-1.0242088E-2,1.0014109E-2,5.0340243E-2,2.303478E-3,2.9490951E-2,3.1075228E-2,-2.2356492E-2],"split_indices":[24,0,33,0,23,31,77,6,68,0,0,0,0,0,0],"split_type":[0,0,0,0,0,0,0,0,0,0,0,0,0,0,0],"sum_hessian":[1.7560829E2,1.0149603E1,1.654587E2,1.2075828E1,1.5338287E2,1.285009E2,2.4881973E1,7.975752E1,4.874337E1,1.1653329E1,1.3228645E1,4.2846767E1,3.6910755E1,1.1107065E1,3.7636303E1],"tree_param":{"num_deleted":"0","num_feature":"86","num_nodes":"15","size_leaf_vector":"1"}},{"base_weights":[5.5803973E-2,-4.2264947E-1,1.5666124E-1,-5.6266304E-2,3.7156052E-3,2.321899E-1,-2.483586E-2,1.1100898E-1,6.5764165E-1,2.609707E-1,-3.334278E-2,7.3782317E-3,4.664079E-2,5.0685657E-3,3.6109276E-2],"categories":[],"categories_nodes":[],"categories_segments":[],"categories_sizes":[],"default_left":[0,0,0,0,0,0,0,0,0,0,0,0,0,0,0],"id":49,"left_children":[1,3,5,-1,-1,7,-1,9,11,13,-1,-1,-1,-1,-1],"loss_changes":[8.641929E0,1.1060711E1,7.399029E0,0E0,0E0,6.738178E0,0E0,1.2424839E1,3.8572607E0,6.4078984E0,0E0,0E0,0E0,0E0,0E0],"parents":[2147483647,0,0,1,1,2,2,5,5,7,7,8,8,9,9],"right_children":[2,4,6,-1,-1,8,-1,10,12,14,-1,-1,-1,-1,-1],"split_conditions":[-5.377671E-3,7.0654736E-3,2.622191E-3,-5.6266304E-2,3.7156052E-3,8.813792E-4,-2.483586E-2,5.9103835E-1,-6.9273137E-3,1.1277283E-3,-3.334278E-2,7.3782317E-3,4.664079E-2,5.0685657E-3,3.6109276E-2],"split_indices":[1,9,36,0,0,32,0,71,44,23,0,0,0,0,0],"split_type":[0,0,0,0,0,0,0,0,0,0,0,0,0,0,0],"sum_hessian":[1.7726595E2,3.0133686E1,1.4713226E2,1.2042732E1,1.8090954E1,1.3260158E2,1.4530674E1,1.0436997E2,2.823161E1,8.8165855E1,1.6204119E1,1.0558848E1,1.7672762E1,6.65674E1,2.1598461E1],"tree_param":{"num_deleted":"0","num_feature":"86","num_nodes":"15","size_leaf_vector":"1"}},{"base_weights":[8.44452E-2,-6.0361523E-2,3.7566942E-1,1.8828005E-1,-4.9792612E-1,-2.496214E-2,5.7201266E-1,-3.1833595E-1,4.1219166E-1,1.0883363E-2,-8.35656E-1,7.440116E-1,-2.1718706E-3,1.0233446E-2,-3.6451496E-2,8.7316936E-1,-9.801069E-3,-6.1511368E-2,-2.6011413E-2,1.9513957E-2,4.963633E-2,6.4082615E-2,2.4151621E-2,3.3803605E-2,-2.135037E-2],"categories":[],"categories_nodes":[],"categories_segments":[],"categories_sizes":[],"default_left":[0,0,0,0,0,0,0,0,0,0,0,0,0,0,0,0,0,0,0,0,0,0,0,0,0],"id":50,"left_children":[1,3,5,7,9,-1,11,13,15,-1,17,19,-1,-1,-1,21,23,-1,-1,-1,-1,-1,-1,-1,-1],"loss_changes":[7.457032E0,1.2949287E1,1.0370615E1,8.732869E0,1.0667653E1,0E0,5.23353E0,5.2801743E0,1.0424608E1,0E0,2.8694172E0,2.8233452E0,0E0,0E0,0E0,3.2686615E0,8.447246E0,0E0,0E0,0E0,0E0,0E0,0E0,0E0,0E0],"parents":[2147483647,0,0,1,1,2,2,3,3,4,4,6,6,7,7,8,8,10,10,11,11,15,15,16,16],"right_children":[2,4,6,8,10,-1,12,14,16,-1,18,20,-1,-1,-1,22,24,-1,-1,-1,-1,-1,-1,-1,-1],"split_conditions":[1.3307379E-2,-3.8734032E-4,-3.068573E-3,-2.6810024E-2,4.303213E-3,-2.496214E-2,1.4322865E0,-1.5187473E-2,-1.6643724E-3,1.0883363E-2,4.2696625E-1,6.05644E-3,-2.1718706E-3,1.0233446E-2,-3.6451496E-2,4.647762E-3,-5.6945037E-2,-6.1511368E-2,-2.6011413E-2,1.9513957E-2,4.963633E-2,6.4082615E-2,2.4151621E-2,3.3803605E-2,-2.135037E-2],"split_indices":[19,24,2,19,45,0,76,68,22,0,63,55,0,0,0,55,72,0,0,0,0,0,0,0,0],"split_type":[0,0,0,0,0,0,0,0,0,0,0,0,0,0,0,0,0,0,0,0,0,0,0,0,0],"sum_hessian":[1.7454208E2,1.1687644E2,5.766564E1,7.4744705E1,4.2131737E1,1.0193049E1,4.7472595E1,2.2643612E1,5.2101093E1,1.352786E1,2.8603878E1,3.7067097E1,1.0405496E1,1.0073504E1,1.2570107E1,2.450264E1,2.7598454E1,1.1278402E1,1.7325476E1,1.6529469E1,2.053763E1,1.0728345E1,1.3774295E1,1.01129465E1,1.7485506E1],"tree_param":{"num_deleted":"0","num_feature":"86","num_nodes":"25","size_leaf_vector":"1"}},{"base_weights":[-3.7596148E-2,-2.6179105E-1,9.232448E-2,-4.6946928E-1,3.1192398E-2,3.1248185E-1,-3.3892784E-1,-1.0329752E0,-4.1104935E-2,-1.1048778E-1,6.6328937E-1,1.320403E-2,-4.3669775E-2,-2.693223E-2,-6.9726E-2,2.669072E-2,-2.0362617E-2,2.5637016E-1,-3.4578413E-2,1.5369761E-2,9.36213E-1,3.6473628E-2,-1.12996055E-2,2.6949227E-2,6.175329E-2],"categories":[],"categories_nodes":[],"categories_segments":[],"categories_sizes":[],"default_left":[0,0,0,0,0,0,0,0,0,0,0,0,0,0,0,0,0,0,0,0,0,0,0,0,0],"id":51,"left_children":[1,3,5,7,-1,9,11,13,15,17,19,-1,-1,-1,-1,-1,-1,21,-1,-1,23,-1,-1,-1,-1],"loss_changes":[4.9907727E0,1.1844391E1,1.0361132E1,1.2306786E1,0E0,1.0841782E1,1.21650715E1,3.0132656E0,6.616769E0,7.35397E0,3.4477863E0,0E0,0E0,0E0,0E0,0E0,0E0,5.0385447E0,0E0,0E0,1.7500076E0,0E0,0E0,0E0,0E0],"parents":[2147483647,0,0,1,1,2,2,3,3,5,5,6,6,7,7,8,8,9,9,10,10,17,17,20,20],"right_children":[2,4,6,8,-1,10,12,14,16,18,20,-1,-1,-1,-1,-1,-1,22,-1,-1,24,-1,-1,-1,-1],"split_conditions":[5E-1,8.846153E-1,3.331686E-2,3.0177308E-2,3.1192398E-2,5.3736484E-3,7.6057917E-1,4.705632E-3,3.5056464E-2,2.895441E-3,-2.195122E-2,1.320403E-2,-4.3669775E-2,-2.693223E-2,-6.9726E-2,2.669072E-2,-2.0362617E-2,-8.8311185E-4,-3.4578413E-2,1.5369761E-2,1.3950246E-3,3.6473628E-2,-1.12996055E-2,2.6949227E-2,6.175329E-2],"split_indices":[85,63,47,47,0,49,52,55,47,53,66,0,0,0,0,0,0,23,0,0,0,0,0,0,0],"split_type":[0,0,0,0,0,0,0,0,0,0,0,0,0,0,0,0,0,0,0,0,0,0,0,0,0],"sum_hessian":[1.6893045E2,6.18885E1,1.0704195E2,5.0604744E1,1.1283754E1,7.120075E1,3.5841198E1,2.1144558E1,2.9460188E1,3.2461647E1,3.8739105E1,1.6990553E1,1.8850645E1,1.0100646E1,1.1043912E1,1.1177852E1,1.8282335E1,2.0135843E1,1.2325803E1,1.7895702E1,2.0843405E1,1.0011527E1,1.0124316E1,1.0296136E1,1.0547268E1],"tree_param":{"num_deleted":"0","num_feature":"86","num_nodes":"25","size_leaf_vector":"1"}},{"base_weights":[-0E0,-3.7635744E-2,5.3862877E-2,6.19895E-1,-3.5499904E-2,1.005854E-2,4.8186895E-2,-5.119747E-2,6.1862703E-2,-4.484623E-2,5.8631784E-1,-1.8206697E-2,6.4808205E-3,4.3643437E-2,1.2035265E-2],"categories":[],"categories_nodes":[],"categories_segments":[],"categories_sizes":[],"default_left":[0,0,0,0,0,0,0,0,0,0,0,0,0,0,0],"id":52,"left_children":[1,-1,3,5,7,-1,-1,-1,9,11,13,-1,-1,-1,-1],"loss_changes":[6.9476438E0,0E0,8.102294E0,2.8326807E0,1.3417291E1,0E0,0E0,0E0,7.146359E0,5.9575677E0,1.8152857E0,0E0,0E0,0E0,0E0],"parents":[2147483647,0,0,2,2,3,3,4,4,8,8,9,9,10,10],"right_children":[2,-1,4,6,8,-1,-1,-1,10,12,14,-1,-1,-1,-1],"split_conditions":[-1.2575798E-2,-3.7635744E-2,1.00418404E-1,3.3060127E1,1.9230767E-1,1.005854E-2,4.8186895E-2,-5.119747E-2,1.9891793E-3,9.4491446E-1,5.8155E-3,-1.8206697E-2,6.4808205E-3,4.3643437E-2,1.2035265E-2],"split_indices":[2,0,65,38,64,0,0,0,23,51,31,0,0,0,0],"split_type":[0,0,0,0,0,0,0,0,0,0,0,0,0,0,0],"sum_hessian":[1.6804068E2,1.04503565E1,1.5759033E2,2.0830462E1,1.3675987E2,1.0238339E1,1.0592123E1,1.1501723E1,1.2525815E2,1.0468259E2,2.057556E1,3.680712E1,6.7875465E1,1.0256708E1,1.0318852E1],"tree_param":{"num_deleted":"0","num_feature":"86","num_nodes":"15","size_leaf_vector":"1"}},{"base_weights":[6.243792E-3,1.3639522E-1,-3.5076287E-1,1.6612304E-2,3.969518E-2,-6.949694E-1,1.5852215E-2,-8.853745E-2,3.826451E-2,-1.011986E-2,-6.4325504E-2,1.9711848E-1,-4.4935507E-1,2.1954251E-2,-2.4875103E-2,-4.733027E-2,1.435115E-3],"categories":[],"categories_nodes":[],"categories_segments":[],"categories_sizes":[],"default_left":[0,0,0,0,0,0,0,0,0,0,0,0,0,0,0,0,0],"id":53,"left_children":[1,3,5,7,-1,9,-1,11,-1,-1,-1,13,15,-1,-1,-1,-1],"loss_changes":[7.915591E0,9.778258E0,1.0702221E1,8.573373E0,0E0,8.44694E0,0E0,9.881104E0,0E0,0E0,0E0,9.193064E0,1.0182071E1,0E0,0E0,0E0,0E0],"parents":[2147483647,0,0,1,1,2,2,3,3,5,5,7,7,11,11,12,12],"right_children":[2,4,6,8,-1,10,-1,12,-1,-1,-1,14,16,-1,-1,-1,-1],"split_conditions":[6.294776E-3,6.8273935E-3,2.08087E-2,8.582571E-1,3.969518E-2,-2.2128789E-4,1.5852215E-2,7.65804E-1,3.826451E-2,-1.011986E-2,-6.4325504E-2,-1.0234941E-2,7.9123396E-1,2.1954251E-2,-2.4875103E-2,-4.733027E-2,1.435115E-3],"split_indices":[55,53,26,71,0,23,0,57,0,0,0,66,60,0,0,0,0],"split_type":[0,0,0,0,0,0,0,0,0,0,0,0,0,0,0,0,0],"sum_hessian":[1.6878795E2,1.24351906E2,4.4436047E1,1.0618482E2,1.8167078E1,2.9394413E1,1.5041634E1,9.376409E1,1.2420736E1,1.6863491E1,1.2530922E1,5.243128E1,4.133281E1,3.9265305E1,1.3165973E1,1.9881834E1,2.1450975E1],"tree_param":{"num_deleted":"0","num_feature":"86","num_nodes":"17","size_leaf_vector":"1"}}]},"name":"gbtree"},"learner_model_param":{"base_score":"[5E-1]","boost_from_average":"1","num_class":"0","num_feature":"86","num_target":"1"},"objective":{"name":"binary:logistic","reg_loss_param":{"scale_pos_weight":"2.96610165"}}},"version":[3,2,0]}