tree
version=v4
num_class=1
num_tree_per_iteration=1
label_index=0
max_feature_idx=85
objective=binary sigmoid:1
feature_names=Column_0 Column_1 Column_2 Column_3 Column_4 Column_5 Column_6 Column_7 Column_8 Column_9 Column_10 Column_11 Column_12 Column_13 Column_14 Column_15 Column_16 Column_17 Column_18 Column_19 Column_20 Column_21 Column_22 Column_23 Column_24 Column_25 Column_26 Column_27 Column_28 Column_29 Column_30 Column_31 Column_32 Column_33 Column_34 Column_35 Column_36 Column_37 Column_38 Column_39 Column_40 Column_41 Column_42 Column_43 Column_44 Column_45 Column_46 Column_47 Column_48 Column_49 Column_50 Column_51 Column_52 Column_53 Column_54 Column_55 Column_56 Column_57 Column_58 Column_59 Column_60 Column_61 Column_62 Column_63 Column_64 Column_65 Column_66 Column_67 Column_68 Column_69 Column_70 Column_71 Column_72 Column_73 Column_74 Column_75 Column_76 Column_77 Column_78 Column_79 Column_80 Column_81 Column_82 Column_83 Column_84 Column_85
feature_infos=[-0.016714870875133923:0.018724370649596991] [-0.01996458373025296:0.021375601334528579] [-0.026056962754794664:0.021375601334528579] [-0.033176119543090035:0.029900664132671305] [-0.032318791255167519:0.046016860197425256] [0:0.018900770905494146] [0:0.084973373269336933] [0:0.012059588526697675] [0:1] [0:0.087983329270703056] none [0:0.99999990291263074] [0:0.99999986301371735] [0:5] [0:5] [-0.014415020797818534:0.015845802215063376] [-0.023883946878184958:0.024306757731893169] [-0.028473725264257732:0.027483506365491461] [-0.038457020748134729:0.028822237423683061] [-0.049983088722281854:0.040518689230693239] [-0.016266717253153762:0.015691868758915817] [-0.0091846522781774409:0.012280580031915456] [-0.0052018885378246615:0.0054204880726391735] [-0.0033836238464919344:0.0027514925549234626] [-0.0023652923957651062:0.0022731107403308748] [0:1] [-0.049983088722281854:0.040518689230693239] [-0.012272551120991348:0.012637293071570355] [-0.019639093284811282:0.018472878214900179] [-0.026489919661572436:0.023464199955013365] [-0.0099266517119717141:0.0076348134758712086] [-0.0092893146551409692:0.0071377309978195146] [-0.0028954545642987601:0.0037653802051616733] [-4.6455397214770693e-05:6.0634572224473889e-05] [0:1] [0:1] [-0.0050390291369532955:0.0062358271366472848] [-9.4365643065928533e-05:0.00011984149384523801] [10.647358718569677:90.654806031013834] [3.1518473258155097:95.783941307039825] [-29.780735817236845:30.871887639622074] [-0.78705282562860646:0.8130961206202767] [0:1] [0:1] [-0.048029342929383323:0.0071964351760569478] [-0.0084819027775889788:0.054267418655114419] [-0.52913634744882165:1.410048028282576] [0.0026072754702775925:0.065685266839015627] [0:1] [0.00030523788360517973:0.0134299432401141] [0.0001827143970420586:0.022873040375770721] [0.4225398071212399:1.7610236072402832] [0:6.7928184137891536] [0:0.011992279181221812] [0.00031574030617728595:0.0084751572946827874] [0.00042349064149421333:0.0077230992308264333] [0:1] [0:4.9944274815059861] [0:9.8190656882745326] [-1:205511] [-1.8642694491112948:2.8459026577656346] [0:0.99999999999999956] [0:0.99999989130435962] [0:0.99999991935484522] [0:0.99999993333333781] [0:0.99999994764398181] [-0.086000855556976452:-2.2401434041086077e-09] [-2.5706941020331442e-09:0.047092062521563394] [-0.086000855556976452:-2.2386389408879381e-09] [-2.5706941020331442e-09:0.03035217555525449] [0:0.99999992907801927] [0:0.99999991719549242] [-0.66666630392176718:0.64912249879098938] [0:1] [0:1] [-0.99999995283019094:0] [-4.4782447706636779:3.5641773551691771] [-5.257052231070988:3.3010179875310621] [-0.025720409621338369:0.021605696047139578] [-0.032631827855284956:0.030352177942539527] [-0.031802120141342871:0.047092064987049653] [-0.032631827855284956:0.030352177942539527] [-0.031802120141342871:0.047092064987049653] [0:1] [0:0.93220338983050843] [0:1]
tree_sizes=2327

Tree=0
num_leaves=21
num_cat=0
split_feature=50 51 77 27 41 37 16 61 9 54 63 33 47 66 50 51 37 1 77 83
split_gain=6763.48 1432.17 1743.79 1249.41 1512.33 1006.19 1174.77 861.824 804.777 716.537 708.94 470.955 369.309 334.464 379.274 322.362 394.821 228.165 160.601 51.6322
threshold=0.0026983937855193782 1.0180560924417119 -0.41213570490144086 -0.0012383851015543843 0.17803952060752135 2.7282899445631441e-06 0.0023231139976646058 0.10411383913875764 0.0069589425990814338 0.0028345962929360647 0.57894706371208715 -1.3827890163961883e-05 0.019319499972408231 -0.0027157199234086877 0.0040030277830688859 0.92408816076223566 -7.8764137172069913e-06 -0.0038812148967209206 -0.49774971637729942 0.71739130434782616
decision_type=2 2 2 2 2 2 2 2 2 2 2 2 2 2 2 2 2 2 2 2
left_child=1 2 15 9 -5 11 10 8 -2 -4 -7 -3 13 17 -15 16 -1 -9 -14 -20
right_child=7 5 3 4 -6 6 -8 12 -10 -11 -12 -13 18 14 -16 -17 -18 -19 19 -21
leaf_value=-2.5633924716070089 -3.5846408429400149 -2.8124645574155602 -3.0008553137009484 -3.187816382547942 -2.6304956317266157 -3.2480123327636332 -3.5885867749938694 -3.0063503708243267 -2.3987271638186156 -2.1786981161043979 -2.437572323290353 -3.5920318345839952 -2.8740456369863652 -3.5806477795020122 -2.5427183449116595 -2.1713004564586913 -3.5769273016856173 -2.3011081462748479 -2.0386890150410792 -2.5590256183558924
leaf_weight=2.8729996681213379 2.7330666780471793 1.7371371686458577 5.360090345144271 42.078294456005096 17.453363686800003 4.552195847034457 5.0288426876068106 2.4750651717186036 2.4083783328533173 8.0603601634502393 8.4823456704616529 14.047962725162504 1.9284518361091603 1.7764933407306664 1.1631931662559507 11.659262329339979 1.2845413386821736 14.216319501399992 35.063058644533157 4.5281448364257804
leaf_count=38 100 30 129 1204 303 133 184 57 21 60 109 514 37 65 9 91 47 151 209 65
internal_value=-2.68173 -2.90624 -2.80026 -2.91162 -3.0181 -3.19108 -2.94142 -2.2744 -2.97786 -2.47545 -2.6989 -3.48676 -2.22039 -2.47723 -3.08575 -2.32204 -2.84767 -2.38675 -2.1132 -2.08507
internal_weight=188.91 122.617 88.7689 72.9521 59.5317 33.8485 18.0634 66.2922 5.14145 13.4205 13.0345 15.7851 61.1507 19.6311 2.93969 15.8168 4.15754 16.6914 41.5197 39.5912
internal_count=3556 2842 1872 1696 1507 970 426 714 121 189 242 544 593 282 74 176 85 208 311 274
is_linear=0
shrinkage=1


end of trees

feature_importances:
Column_37=2
Column_50=2
Column_51=2
Column_77=2
Column_1=1
Column_9=1
Column_16=1
Column_27=1
Column_33=1
Column_41=1
Column_47=1
Column_54=1
Column_61=1
Column_63=1
Column_66=1
Column_83=1

parameters:
[boosting: gbdt]
[objective: binary]
[metric: binary_logloss]
[tree_learner: serial]
[device_type: cpu]
[data_sample_strategy: bagging]
[data: ]
[valid: ]
[num_iterations: 500]
[learning_rate: 0.05]
[num_leaves: 31]
[num_threads: 8]
[seed: 42]
[deterministic: 0]
[force_col_wise: 0]
[force_row_wise: 0]
[histogram_pool_size: -1]
[max_depth: 5]
[min_data_in_leaf: 30]
[min_sum_hessian_in_leaf: 0.001]
[bagging_fraction: 0.8]
[pos_bagging_fraction: 1]
[neg_bagging_fraction: 1]
[bagging_freq: 0]
[bagging_seed: 400]
[bagging_by_query: 0]
[feature_fraction: 0.8]
[feature_fraction_bynode: 1]
[feature_fraction_seed: 30056]
[extra_trees: 0]
[extra_seed: 12879]
[early_stopping_round: 0]
[early_stopping_min_delta: 0]
[first_metric_only: 0]
[max_delta_step: 0]
[lambda_l1: 0.1]
[lambda_l2: 0.5]
[linear_lambda: 0]
[min_gain_to_split: 0]
[drop_rate: 0.1]
[max_drop: 50]
[skip_drop: 0.5]
[xgboost_dart_mode: 0]
[uniform_drop: 0]
[drop_seed: 17869]
[top_rate: 0.2]
[other_rate: 0.1]
[min_data_per_group: 100]
[max_cat_threshold: 32]
[cat_l2: 10]
[cat_smooth: 10]
[max_cat_to_onehot: 4]
[top_k: 20]
[monotone_constraints: ]
[monotone_constraints_method: basic]
[monotone_penalty: 0]
[feature_contri: ]
[forcedsplits_filename: ]
[refit_decay_rate: 0.9]
[cegb_tradeoff: 1]
[cegb_penalty_split: 0]
[cegb_penalty_feature_lazy: ]
[cegb_penalty_feature_coupled: ]
[path_smooth: 0]
[interaction_constraints: ]
[verbosity: -1]
[saved_feature_importance_type: 0]
[use_quantized_grad: 0]
[num_grad_quant_bins: 4]
[quant_train_renew_leaf: 0]
[stochastic_rounding: 1]
[linear_tree: 0]
[max_bin: 255]
[max_bin_by_feature: ]
[min_data_in_bin: 3]
[bin_construct_sample_cnt: 200000]
[data_random_seed: 175]
[is_enable_sparse: 1]
[enable_bundle: 1]
[use_missing: 1]
[zero_as_missing: 0]
[feature_pre_filter: 1]
[pre_partition: 0]
[two_round: 0]
[header: 0]
[label_column: ]
[weight_column: ]
[group_column: ]
[ignore_column: ]
[categorical_feature: ]
[forcedbins_filename: ]
[precise_float_parser: 0]
[parser_config_file: ]
[objective_seed: 16083]
[num_class: 1]
[is_unbalance: 0]
[scale_pos_weight: 34.56]
[sigmoid: 1]
[boost_from_average: 1]
[reg_sqrt: 0]
[alpha: 0.9]
[fair_c: 1]
[poisson_max_delta_step: 0.7]
[tweedie_variance_power: 1.5]
[lambdarank_truncation_level: 30]
[lambdarank_norm: 1]
[label_gain: ]
[lambdarank_position_bias_regularization: 0]
[eval_at: ]
[multi_error_top_k: 1]
[auc_mu_weights: ]
[num_machines: 1]
[local_listen_port: 12400]
[time_out: 120]
[machine_list_filename: ]
[machines: ]
[gpu_platform_id: -1]
[gpu_device_id: -1]
[gpu_use_dp: 0]
[num_gpu: 1]

end of parameters

pandas_categorical:null
