tree
version=v4
num_class=1
num_tree_per_iteration=1
label_index=0
max_feature_idx=85
objective=binary sigmoid:1
feature_names=Column_0 Column_1 Column_2 Column_3 Column_4 Column_5 Column_6 Column_7 Column_8 Column_9 Column_10 Column_11 Column_12 Column_13 Column_14 Column_15 Column_16 Column_17 Column_18 Column_19 Column_20 Column_21 Column_22 Column_23 Column_24 Column_25 Column_26 Column_27 Column_28 Column_29 Column_30 Column_31 Column_32 Column_33 Column_34 Column_35 Column_36 Column_37 Column_38 Column_39 Column_40 Column_41 Column_42 Column_43 Column_44 Column_45 Column_46 Column_47 Column_48 Column_49 Column_50 Column_51 Column_52 Column_53 Column_54 Column_55 Column_56 Column_57 Column_58 Column_59 Column_60 Column_61 Column_62 Column_63 Column_64 Column_65 Column_66 Column_67 Column_68 Column_69 Column_70 Column_71 Column_72 Column_73 Column_74 Column_75 Column_76 Column_77 Column_78 Column_79 Column_80 Column_81 Column_82 Column_83 Column_84 Column_85
feature_infos=[-0.019755491947015952:0.026720550389049785] [-0.032577731245766281:0.036264194111298755] [-0.040890737553912287:0.036058562600117694] [-0.044419737805012176:0.035760102939928873] [-0.063235262020680791:0.047025793609148873] [0:0.027080745274333566] [0:0.084973373269336933] [0:0.015295887624634168] [0:1] [0:0.09793933758291419] none [0:0.99999987500001564] [0:0.99999989795919408] [0:5] [0:5] [-0.02186339186943087:0.023774143081292332] [-0.035062783617477278:0.027986313247205352] [-0.047463139074443883:0.041465999240502871] [-0.070144231368696852:0.05997263716033352] [-0.072906054620882399:0.051985395324335881] [-0.022632772632772524:0.02049745565225658] [-0.017373864295379793:0.013433829473584069] [-0.011545156362861131:0.010817293132896255] [-0.0058671444552236274:0.0049905222409845074] [-0.0025255725961291775:0.002595195978028153] [0:1] [-0.072906054620882399:0.051985395324335881] [-0.018564882731363586:0.019132170813952243] [-0.030162554494809313:0.023985742915222152] [-0.042015113512103741:0.036382375549400159] [-0.02169121692883905:0.014974256371498866] [-0.018955384185826145:0.012898190832430432] [-0.0055585477962179003:0.0063295611422888864] [-6.5750527242793315e-05:7.9799431085734356e-05] [0:1] [0:1] [-0.007833458832966279:0.0079504911050713081] [-0.00011108546555134552:0.00015841110148028469] [18.559893403346493:77.853792205838133] [9.6716448724989874:89.329718071083661] [-18.525182745530351:22.602365022583982] [-0.62880213193307011:0.5570758441167627] none [0:1] [-0.096762432655930875:0.012974225567067066] [-0.012431017447446346:0.085441707961918523] [-0.33466387672791048:1.4934483281836357] [0.0077790394741720659:0.11593049194341659] [0:1] [0.0029535417111428166:0.018934004837392243] [0.0024169987811830558:0.029635529182107805] [0.66015323623468636:1.5652011183501164] [0:5.1894899300121731] [0.00058702074280762655:0.017515105363889869] [0.0017932794059969666:0.013171151538632263] [0.0021366065893861402:0.0094640954139276808] [0:1] [0.010961205210400263:4.5725121375567044] [0.01054317622505649:7.1407271038104927] [-0.98642991794189394:112.57604140368593] [-1.68498204683704:2.8365099548244563] [0:1.0000000000000013] [0:0.99999993464052717] [0:0.99999995260663732] [0:0.99999996721311579] [0:0.9999999682539692] [-0.10819462418225645:-2.2401434041086077e-09] [-2.5660764624291232e-09:0.080448559043275081] [-0.085787453935579405:-2.2401434041086077e-09] [-2.5660764624291232e-09:0.043795617980231683] [0:0.99999995412844245] [0.012698411489041878:0.99004958772680751] [-0.44920483910657344:0.44614659129654277] [0:1] [0:1] [-0.99999996666666779:0] [-2.904464660476159:4.4553883067809039] [-3.5692730204199199:4.1027869905704986] [-0.040065991044072602:0.036716557530402261] [-0.043447627994363525:0.036407185628742456] [-0.061277398067405286:0.048149044277764341] [-0.043447627994363525:0.036407185628742456] [-0.061277398067405286:0.048149044277764341] [0:1] [0:0.50847457627118642] [0:1]
tree_sizes=864 1694 1609 1390 977 1708 1721 1828 1299 1613 1720

Tree=0
num_leaves=7
num_cat=0
split_feature=55 22 66 54 11 19
split_gain=62.5814 38.2866 50.0672 34.8122 40.2788 27.0666
threshold=0.0075985534660577723 0.0048835972320843144 -0.0034657869079721677 0.0070672452243269214 0.58333284722263945 0.012292758979214115
decision_type=2 2 2 2 2 2
left_child=1 2 3 4 -1 -2
right_child=5 -3 -4 -5 -6 -7
leaf_value=-1.3671418133335766 -1.2246981818931904 -1.237326434981489 -1.462064697281801 -1.4281526267456031 -1.3070279811063443 -1.3250546038505782
leaf_weight=53.110307827591896 18.569426611065865 7.9064777940511695 8.9286696761846525 10.54120524227619 64.05120025575161 13.711146742105482
leaf_count=242 43 19 54 58 233 53
internal_value=-1.32821 -1.34287 -1.34968 -1.34167 -1.33387 -1.26498
internal_weight=176.818 144.538 136.631 127.703 117.162 32.2806
internal_count=702 606 587 533 475 96
is_linear=0
shrinkage=1


Tree=1
num_leaves=15
num_cat=0
split_feature=0 55 4 79 78 83 51 60 24 78 61 28 49 49
split_gain=50.8866 33.1178 38.5191 52.6396 24.1021 20.7868 20.5249 39.1936 22.3793 31.4863 18.914 16.9744 11.7961 19.0667
threshold=-0.0019682631588920706 0.0064418074780771698 0.0068095429273556515 1.0000000180025095e-35 -0.0021630776524603208 0.50000000000000011 1.0608491929023613 0.75033385748963599 0.00012520482715383532 -0.0032975049154294607 0.7650716582732201 0.0058801541574102787 0.0075701070466485569 0.0058531536795621659
decision_type=2 2 2 2 2 2 2 2 2 2 2 2 2 2
left_child=6 2 3 4 -2 -3 8 -8 12 -10 -5 -4 13 -1
right_child=1 5 11 10 -6 -7 7 -9 9 -11 -12 -13 -14 -15
leaf_value=0.16012681067397069 0.057048097537677506 0.049163224126312764 -0.059022000930130873 0.1386459440493687 -0.029802913819634288 0.13879402579996353 0 0.14985008339457304 0.1300974071604199 -0.0015538859020746885 0.042437929432915189 0.035393897748960158 0.18595274543902224 0.057138485221621342
leaf_weight=12.657259404659273 18.78763867914677 10.852899670600893 9.9055705964565295 21.306573465466503 13.139979377388952 20.171249255537987 9.8176524788141268 7.4259502589702597 12.536573931574823 6.8375059366226187 7.6401980817317954 8.2624121606349927 19.589173778891563 8.3434219956397992
leaf_count=32 80 47 62 64 74 56 50 19 37 35 34 39 39 34
internal_value=0.0875765 0.0651267 0.0473161 0.0662761 0.0212415 0.108875 0.118891 0.0671439 0.133011 0.0845132 0.114574 -0.0160179 0.154728 0.121723
internal_weight=187.274 110.067 79.0424 60.8744 31.9276 31.0241 77.2075 17.2436 59.9639 19.3741 28.9468 18.168 40.5899 21.0007
internal_count=702 456 353 252 154 103 246 69 177 72 98 101 105 66
is_linear=0
shrinkage=0.05


Tree=2
num_leaves=14
num_cat=0
split_feature=24 14 9 52 71 23 7 24 51 19 69 52 6
split_gain=36.6864 28.3132 25.7607 45.7762 25.6995 28.4978 39.5185 22.9155 39.6564 23.7119 15.7399 11.4804 11.1147
threshold=0.00015037842775988966 1.5000000000000002 0.004033784524311565 0.456557654645733 0.25320040403271543 0.00090443309612631151 1.0000000180025095e-35 -0.00019763372026665446 1.0844417484346505 -0.029285289167031766 0.0024151803611601745 1.001021394705383 0.00035271229199461038
decision_type=2 2 2 2 2 2 2 2 2 2 2 2 2
left_child=2 -2 3 -1 10 11 -7 8 9 -4 -3 -6 -5
right_child=1 4 7 12 5 6 -8 -9 -10 -11 -12 -13 -14
leaf_value=0.11606091780504853 -0.034547419221060416 0.047892045916872711 0.14940001790249077 0.027581980891181409 0.074098795416542712 0.10436841853604789 -0.028139531357443199 0.15329740054209143 -0.010062009468739712 0.079693360975403915 -0.05784350409900061 0.1363501408399039 -0.057687173595799779
leaf_weight=14.579500898718836 8.0504245460033399 7.1639632880687696 21.89873956143856 8.8205250203609449 19.247324392199516 9.5498116910457629 12.330550298094748 24.386383146047592 7.9435614496469489 34.19688592851162 6.0073277652263641 16.216926276683807 5.9594321548938742
leaf_count=41 46 29 49 38 71 31 68 55 41 118 36 43 36
internal_value=0.0793331 0.0521801 0.0971056 0.0547429 0.0623252 0.0766786 0.0305106 0.110728 0.0933778 0.108073 -0.000319191 0.104204 -0.00723483
internal_weight=196.351 78.5663 117.785 29.3595 70.5159 57.3446 21.8804 88.4256 64.0392 56.0956 13.1713 35.4643 14.78
internal_count=702 324 378 115 278 213 99 263 208 167 65 114 74
is_linear=0
shrinkage=0.05


Tree=3
num_leaves=12
num_cat=0
split_feature=0 60 57 55 32 0 39 39 83 11 58
split_gain=35.8378 24.659 23.0178 21.5878 24.8591 15.2785 14.9601 47.3693 19.0001 9.7822 6.88701
threshold=-0.0019682631588920706 -0.78926476885475616 0.25675647833863408 0.0075063644507418368 -0.0013509525129713959 0.00095787436066981362 48.058700897951304 38.948701617709169 0.32608695652173919 0.74999937500052816 0.98197995089983903
decision_type=2 2 2 2 2 2 2 2 2 2 2
left_child=6 5 -3 4 -4 -2 7 8 -1 -8 -10
right_child=1 2 3 -5 -6 -7 9 -9 10 -11 -12
leaf_value=0.044033867872119811 0.043220014082280399 -0.03613479690363007 -0.038455349671298072 0.10204215362046905 0.048479700509682033 0.12780259631791582 0.16035944846292563 -0.010481127076492125 0.093457574655852152 0.096861705654853109 0.15129370597846958
leaf_weight=11.068738013505934 9.348326504230501 8.2281362563371641 9.0604735910892469 15.634908676147459 60.438188478350639 15.740887522697447 13.306988731026648 11.461775809526442 15.292857483029367 20.049330979585648 14.821348518133162
leaf_count=41 37 45 50 41 244 39 22 54 45 58 26
internal_value=0.0723413 0.0540049 0.0416854 0.0494322 0.0368809 0.0979425 0.0970804 0.0787102 0.103481 0.124335 0.124092
internal_weight=204.452 118.451 93.3617 85.1336 69.4987 25.0892 86.001 52.6447 41.1829 33.3563 30.1142
internal_count=702 456 380 335 294 76 246 166 112 80 71
is_linear=0
shrinkage=0.05


Tree=4
num_leaves=8
num_cat=0
split_feature=55 22 64 85 61 67 26
split_gain=27.9006 21.6968 35.8345 21.2986 42.952 31.7116 12.8619
threshold=0.0075985534660577723 0.0048835972320843144 0.8624926758162248 0.58333333333333337 0.75142830254403525 0.010565907364417983 0.012292758979214115
decision_type=2 2 2 2 2 2 2
left_child=1 2 3 4 -1 -5 -2
right_child=6 -3 -4 5 -6 -7 -8
leaf_value=0.084795108122883545 0.12688796973742789 0.12708874127302747 -0.039147400915378348 0.056128222795633953 -0.035342883553579604 -0.024905749419973186 0.065788877445783489
leaf_weight=80.726854234933853 24.843060508370399 10.22046899795532 9.6901675760745984 45.418164044618607 7.8567862361669532 15.952645525336264 16.857080549001694
leaf_count=249 43 19 56 159 42 81 53
internal_value=0.0664229 0.0570443 0.052146 0.0581892 0.073945 0.0349525 0.10338
internal_weight=211.565 169.865 159.645 149.954 88.5836 61.3708 41.7001
internal_count=702 606 587 531 291 240 96
is_linear=0
shrinkage=0.05


Tree=5
num_leaves=15
num_cat=0
split_feature=0 60 51 52 4 49 0 5 60 51 5 50 3 2
split_gain=27.3693 18.7542 21.5232 38.3058 22.4136 16.079 15.4543 13.014 22.8659 30.1308 12.7239 11.5784 11.1812 5.68042
threshold=-0.0019682631588920706 -0.78926476885475616 0.92748605698661024 1.3204093094719929 0.0028954285768608705 0.0082532967616056278 0.0029740682990463236 0.0025701048163861871 -0.038517308146767501 1.0507280824287191 0.0015140080086171212 0.0049159435499980765 -0.0029052193720222985 -0.010851724853121129
decision_type=2 2 2 2 2 2 2 2 2 2 2 2 2 2
left_child=7 10 4 6 11 -5 -4 -1 9 12 -2 -3 -9 -10
right_child=1 2 3 5 -6 -7 -8 8 13 -11 -12 -13 -14 -15
leaf_value=0.11683619829437919 0.039090549665064693 0.051616333021321882 0.0060008285099384297 0.030233106683870727 -0.0018084720303858963 0.12004517689584267 -0.062978000134323336 0.028330738421976004 0.12976662833640482 -0.038410136674927126 0.11127947576938374 0.1174309454233191 0.091787677451592539 0.079397367780378689
leaf_weight=21.851935610175133 11.489118590950968 15.637222513556482 25.8292176425457 12.815509349107744 9.8305014520883542 8.4331540912389737 11.225166097283362 12.64691959321499 13.014764562249182 8.3794199824333173 15.735816344618796 14.172310456633566 17.758151486515999 19.088614106178284
leaf_count=44 42 57 114 53 46 17 62 45 20 43 34 31 45 49
internal_value=0.0612386 0.0455736 0.034962 0.0152972 0.0632098 0.0680479 -0.0153226 0.0819697 0.0704087 0.0434593 0.0822499 0.0844925 0.0664401 0.101647
internal_weight=217.908 125.168 97.9431 58.303 39.64 21.2487 37.0544 92.7398 70.8879 38.7845 27.2249 29.8095 30.4051 32.1034
internal_count=702 456 380 246 134 70 176 246 202 133 76 88 90 69
is_linear=0
shrinkage=0.05


Tree=6
num_leaves=15
num_cat=0
split_feature=24 14 20 32 31 31 0 3 71 32 20 77 3 0
split_gain=24.0047 20.6736 18.8958 19.3804 18.5985 18.581 15.0535 26.71 27.6686 16.0286 14.7112 14.3055 13.1541 6.77656
threshold=0.00015037842775988966 1.5000000000000002 -0.0035299689623320969 0.00086593402985173302 0.004575188014651798 0.0028291873942270346 -0.0023910283456777116 0.0010214529463900446 0.21842337662835351 0.00027372356090739808 0.0079887104430519402 -0.82901145043753344 -0.010486549210494854 -0.0045293181100796451
decision_type=2 2 2 2 2 2 2 2 2 2 2 2 2 2
left_child=4 -2 12 5 6 -4 11 8 -8 -9 -5 -1 -3 -13
right_child=1 2 3 10 -6 -7 7 9 -10 -11 -12 13 -14 -15
leaf_value=0.015470712897080961 -0.036856642990690913 0.03326638741910698 0.088295132629569464 -0.038791952480988545 0.11952488396135144 0.01975897690513858 0.053943004101160347 0.11470118275092119 -0.036741487902086194 0.045693361940794631 0.059606207821717397 0.061454681110122415 -0.060512938962325416 0.10988818107904341
leaf_weight=6.9550160467624655 8.3505116701126081 7.9830406159162521 36.621976301074028 8.273640036582945 16.994621574878693 14.231951236724852 18.406134635210037 15.365082308650015 14.635446235537527 21.228213429450989 6.1890650838613501 13.773670032620428 6.1693664193153364 28.111286491155624
leaf_count=24 46 29 96 42 30 58 60 31 73 69 19 38 34 53
internal_value=0.0568102 0.0360006 0.0439015 0.0551858 0.0700814 0.0695911 0.0624745 0.046786 0.0136772 0.0759592 0.00356641 0.0840406 -0.00794292 0.0949919
internal_weight=223.289 87.8196 79.469 65.3166 135.469 50.8539 118.475 69.6349 33.0416 36.5933 14.4627 48.84 14.1524 41.885
internal_count=702 324 278 215 378 154 348 233 133 100 61 115 63 91
is_linear=0
shrinkage=0.05


Tree=7
num_leaves=16
num_cat=0
split_feature=0 21 22 24 20 83 22 2 51 57 9 0 83 11 62
split_gain=20.9119 14.317 36.6057 23.352 21.6855 22.8272 25.0561 14.7813 10.5343 19.6813 14.3257 12.6804 15.1122 7.24868 4.31424
threshold=-0.0019682631588920706 0.00070784806492463226 0.0014467988113302523 0.00026564510956927917 0.00048824594631691204 0.36956521739130438 -0.0023570602780458856 -0.0021654206318037377 1.0608491929023613 1.3406564622829331 0.0083449268189462935 -0.0027552439062248526 0.45652173913043487 0.41101038436522164 0.70087706142508266
decision_type=2 2 2 2 2 2 2 2 2 2 2 2 2 2 2
left_child=8 4 13 -4 5 6 -2 -7 10 -10 11 12 -1 -3 -6
right_child=1 2 3 -5 14 7 -8 -9 9 -11 -12 -13 -14 -15 -16
leaf_value=-0.0011584956822980621 0.044288092505358256 -0.062561673513412658 0.084469803286816095 -0.0070269364248901059 0.11664187206736963 0.084582301434208418 -0.062373458286570704 0.020163134580054358 -0.0090557906132407075 0.086130569175807747 0.11445714535488929 0.094242127935737302 0.068093485052193176 0.004895748581863325 0.06740894104045024
leaf_weight=11.933770492672918 10.887737557291986 11.474692642688753 18.177880167961124 10.860789492726324 10.621574297547342 21.178074330091476 10.14517258107662 16.200921192765236 10.915235579013826 9.983395189046858 21.543957620859146 21.828942283987999 21.814974144101143 5.6668785214424124 14.865078940987585
leaf_count=45 38 65 42 53 18 55 56 62 49 20 34 43 55 24 43
internal_value=0.0528422 0.0393448 0.0165792 0.05054 0.0516439 0.0342153 -0.00718134 0.0574282 0.0704127 0.0371317 0.0790696 0.0643648 0.0438001 -0.0404706 0.0899687
internal_weight=228.099 130.079 46.1802 29.0387 83.8986 58.4119 21.0329 37.379 98.0203 20.8986 77.1216 55.5777 33.7487 17.1416 25.4867
internal_count=702 456 184 95 272 211 94 117 246 69 177 143 100 89 61
is_linear=0
shrinkage=0.05


Tree=8
num_leaves=11
num_cat=0
split_feature=12 55 54 20 83 33 70 24 26 59
split_gain=19.4865 17.4994 36.7942 14.6262 14.6254 20.8077 16.3855 13.5178 18.5496 4.36863
threshold=0.999999198718592 0.0065189338058059031 0.0061395840225240477 0.0013004928576548782 0.23913043478260873 1.0285934611847281e-05 0.037160603444327478 0.00010068256804052213 0.016141807253178601 -0.38511270397503555
decision_type=2 2 2 2 2 2 2 2 2 2
left_child=1 2 4 -2 5 -1 -6 9 -9 -3
right_child=3 7 -4 -5 6 -7 -8 8 -10 -11
leaf_value=-0.0053308436296331634 -0.041988924688274303 0.10848860456345846 -0.045299623485593583 0.041286486133122344 0.10982311085384749 0.081897590941581763 0.051267078790625913 0.078093114844836678 -0.016951545776854388 0.071916664932159771
leaf_weight=22.737062588334087 9.415302053093912 21.903150707483292 10.336806073784826 10.74852181971073 14.232977822422979 9.1878171861171705 88.56097050011158 11.966382637619974 8.346517011523245 24.623684570193291
leaf_count=94 48 33 52 34 23 23 279 27 37 52
internal_value=0.0493702 0.0538309 0.0437122 0.00208476 0.0507211 0.0204946 0.0599156 0.0752286 0.0393302 0.0902102
internal_weight=232.059 211.895 145.056 20.1638 134.719 31.9249 102.794 66.8397 20.3129 46.5268
internal_count=702 620 471 82 419 117 302 149 64 85
is_linear=0
shrinkage=0.05


Tree=9
num_leaves=14
num_cat=0
split_feature=0 45 21 22 24 19 19 39 29 20 83 11 11
split_gain=17.4017 13.9972 19.8088 32.4204 18.8096 11.3367 15.9763 10.5821 31.8926 9.96356 9.73878 6.74627 6.48275
threshold=-0.0019682631588920706 0.0043081824881819894 0.00070784806492463226 0.0014467988113302523 0.00026564510956927917 0.01243110031498418 -0.011099495638200283 48.058700897951304 -0.0059611012615389805 -0.00049717851962577375 0.36956521739130438 0.41101038436522164 0.74999937500052816
decision_type=2 2 2 2 2 2 2 2 2 2 2 2 2
left_child=7 -2 5 11 -5 6 -3 8 10 -10 -1 -4 -9
right_child=1 2 3 4 -6 -7 -8 12 9 -11 -12 -13 -14
leaf_value=0.033370143859130404 -0.016153777690073676 0.036342907110942457 -0.062238309829447648 0.073994121338536431 -0.0072831581514772288 0.014424720798793703 0.089175152234497457 0.10827656601240516 0.01752008597674189 -0.063183413748794409 0.08408944459215735 0.0025724937375594605 0.062803420430348686
leaf_weight=15.379385933279989 12.208266660571097 28.6595104932785 11.33069132268429 19.04875232279301 10.898161739110945 14.538834556937216 31.607165291905407 16.107779234647751 8.9953838884830457 5.8875672966241828 31.548596039414406 5.8011868596076956 23.730822697281837
leaf_count=47 54 93 65 42 53 55 70 22 30 30 59 24 58
internal_value=0.0461837 0.0340503 0.0391651 0.013417 0.0446179 0.0551066 0.0646391 0.0618958 0.0480272 -0.0150965 0.0681 -0.0405579 0.0824275
internal_weight=235.742 134.093 121.884 47.0788 29.9469 74.8055 60.2667 101.65 61.8109 14.883 46.928 17.1319 39.8386
internal_count=702 456 402 184 95 218 163 246 166 60 106 89 80
is_linear=0
shrinkage=0.05


Tree=10
num_leaves=15
num_cat=0
split_feature=24 51 77 11 77 1 9 52 5 24 51 24 23 31
split_gain=15.8527 16.7134 33.6932 16.5152 14.3379 19.2301 13.5737 24.7737 20.0279 12.743 20.1383 14.8029 11.9863 9.09324
threshold=0.00015037842775988966 0.94031845469422637 -0.39909563592166775 0.90976916389285911 0.38215240564961073 -0.001429804243648943 0.0040840855471820222 0.456557654645733 0.0024515825900251692 -0.00019763372026665446 1.0627538133949701 -0.00094077815461418568 0.00063277428197516816 0.0021701857033928655
decision_type=2 2 2 2 2 2 2 2 2 2 2 2 2 2
left_child=6 4 3 -3 5 -2 7 -1 -9 10 11 -8 -7 -4
right_child=1 2 13 -5 -6 12 9 8 -10 -11 -12 -13 -14 -15
leaf_value=0.067248041687443846 0.064723191852883 0.087332351009424602 -0.064068192589615797 0.0030068560115447643 0.094803129560553909 0.028016123756035079 0.081928335401509761 -0.063298815219639828 0.037757738919430364 0.089920561909131724 -0.005938253170455563 0.032066256949428183 -0.059830522912842632 -0.0037935694930921202
leaf_weight=18.300506293773651 17.799397647380829 12.413843348622324 12.011687040328981 10.847180366516112 11.996371462941168 8.1202174425125104 38.54754675924778 9.4541771560907382 9.1449790447950345 31.423858344554901 12.758432313799856 26.333812147378922 6.5451233386993399 13.028278499841688
leaf_count=41 46 25 65 40 25 27 77 51 28 55 51 75 38 58
internal_value=0.0433395 0.0268392 0.00622926 0.0491105 0.0487996 0.0304685 0.0536641 0.026695 -0.0136611 0.0625795 0.050945 0.062167 -0.01154 -0.0335913
internal_weight=238.725 92.7621 48.301 23.261 44.4611 32.4647 145.963 36.8997 18.5992 109.064 77.6398 64.8814 14.6653 25.04
internal_count=702 324 188 65 136 111 378 120 79 258 203 152 65 123
is_linear=0
shrinkage=0.05


end of trees

feature_importances:
Column_0=10
Column_24=10
Column_51=7
Column_11=6
Column_83=6
Column_20=5
Column_22=5
Column_55=5
Column_19=4
Column_52=4
Column_60=4
Column_3=3
Column_5=3
Column_9=3
Column_31=3
Column_32=3
Column_39=3
Column_49=3
Column_77=3
Column_2=2
Column_4=2
Column_14=2
Column_21=2
Column_23=2
Column_26=2
Column_54=2
Column_57=2
Column_61=2
Column_71=2
Column_78=2
Column_1=1
Column_6=1
Column_7=1
Column_12=1
Column_28=1
Column_29=1
Column_33=1
Column_45=1
Column_50=1
Column_58=1
Column_59=1
Column_62=1
Column_64=1
Column_66=1
Column_67=1
Column_69=1
Column_70=1
Column_79=1
Column_85=1

parameters:
[boosting: gbdt]
[objective: binary]
[metric: binary_logloss]
[tree_learner: serial]
[device_type: cpu]
[data_sample_strategy: bagging]
[data: ]
[valid: ]
[num_iterations: 500]
[learning_rate: 0.05]
[num_leaves: 31]
[num_threads: 8]
[seed: 42]
[deterministic: 0]
[force_col_wise: 0]
[force_row_wise: 0]
[histogram_pool_size: -1]
[max_depth: 5]
[min_data_in_leaf: 30]
[min_sum_hessian_in_leaf: 0.001]
[bagging_fraction: 0.8]
[pos_bagging_fraction: 1]
[neg_bagging_fraction: 1]
[bagging_freq: 0]
[bagging_seed: 400]
[bagging_by_query: 0]
[feature_fraction: 0.8]
[feature_fraction_bynode: 1]
[feature_fraction_seed: 30056]
[extra_trees: 0]
[extra_seed: 12879]
[early_stopping_round: 0]
[early_stopping_min_delta: 0]
[first_metric_only: 0]
[max_delta_step: 0]
[lambda_l1: 0.1]
[lambda_l2: 0.5]
[linear_lambda: 0]
[min_gain_to_split: 0]
[drop_rate: 0.1]
[max_drop: 50]
[skip_drop: 0.5]
[xgboost_dart_mode: 0]
[uniform_drop: 0]
[drop_seed: 17869]
[top_rate: 0.2]
[other_rate: 0.1]
[min_data_per_group: 100]
[max_cat_threshold: 32]
[cat_l2: 10]
[cat_smooth: 10]
[max_cat_to_onehot: 4]
[top_k: 20]
[monotone_constraints: ]
[monotone_constraints_method: basic]
[monotone_penalty: 0]
[feature_contri: ]
[forcedsplits_filename: ]
[refit_decay_rate: 0.9]
[cegb_tradeoff: 1]
[cegb_penalty_split: 0]
[cegb_penalty_feature_lazy: ]
[cegb_penalty_feature_coupled: ]
[path_smooth: 0]
[interaction_constraints: ]
[verbosity: -1]
[saved_feature_importance_type: 0]
[use_quantized_grad: 0]
[num_grad_quant_bins: 4]
[quant_train_renew_leaf: 0]
[stochastic_rounding: 1]
[linear_tree: 0]
[max_bin: 255]
[max_bin_by_feature: ]
[min_data_in_bin: 3]
[bin_construct_sample_cnt: 200000]
[data_random_seed: 175]
[is_enable_sparse: 1]
[enable_bundle: 1]
[use_missing: 1]
[zero_as_missing: 0]
[feature_pre_filter: 1]
[pre_partition: 0]
[two_round: 0]
[header: 0]
[label_column: ]
[weight_column: ]
[group_column: ]
[ignore_column: ]
[categorical_feature: ]
[forcedbins_filename: ]
[precise_float_parser: 0]
[parser_config_file: ]
[objective_seed: 16083]
[num_class: 1]
[is_unbalance: 0]
[scale_pos_weight: 4.16176]
[sigmoid: 1]
[boost_from_average: 1]
[reg_sqrt: 0]
[alpha: 0.9]
[fair_c: 1]
[poisson_max_delta_step: 0.7]
[tweedie_variance_power: 1.5]
[lambdarank_truncation_level: 30]
[lambdarank_norm: 1]
[label_gain: ]
[lambdarank_position_bias_regularization: 0]
[eval_at: ]
[multi_error_top_k: 1]
[auc_mu_weights: ]
[num_machines: 1]
[local_listen_port: 12400]
[time_out: 120]
[machine_list_filename: ]
[machines: ]
[gpu_platform_id: -1]
[gpu_device_id: -1]
[gpu_use_dp: 0]
[num_gpu: 1]

end of parameters

pandas_categorical:null
