tree
version=v4
num_class=1
num_tree_per_iteration=1
label_index=0
max_feature_idx=85
objective=binary sigmoid:1
feature_names=Column_0 Column_1 Column_2 Column_3 Column_4 Column_5 Column_6 Column_7 Column_8 Column_9 Column_10 Column_11 Column_12 Column_13 Column_14 Column_15 Column_16 Column_17 Column_18 Column_19 Column_20 Column_21 Column_22 Column_23 Column_24 Column_25 Column_26 Column_27 Column_28 Column_29 Column_30 Column_31 Column_32 Column_33 Column_34 Column_35 Column_36 Column_37 Column_38 Column_39 Column_40 Column_41 Column_42 Column_43 Column_44 Column_45 Column_46 Column_47 Column_48 Column_49 Column_50 Column_51 Column_52 Column_53 Column_54 Column_55 Column_56 Column_57 Column_58 Column_59 Column_60 Column_61 Column_62 Column_63 Column_64 Column_65 Column_66 Column_67 Column_68 Column_69 Column_70 Column_71 Column_72 Column_73 Column_74 Column_75 Column_76 Column_77 Column_78 Column_79 Column_80 Column_81 Column_82 Column_83 Column_84 Column_85
feature_infos=[-0.19248659438210722:0.21049586418511188] [-0.21964597589571958:0.17548840168673341] [-0.30955627098875538:0.21319367644429432] [-0.34664734942081898:0.24420883500811844] [-0.3309447498629296:0.28628464747854826] [0:0.2342899483501126] [0:0.2331996694877386] [0:0.078903504802481428] [0:1] [0.0015341646664040951:0.31693693171166543] none [0:0.99999999752842306] [0:0.99999999492643321] [0:5] [0:5] [-0.20203669525937695:0.10390969966502017] [-0.21711988308513108:0.1676543842744842] [-0.24139865915708558:0.18993825546138909] [-0.35483817204256274:0.25383329846574521] [-0.33155830700051081:0.33843229304135902] [-0.12599614341052212:0.11197585679811395] [-0.083111554941189714:0.073194337554513877] [-0.072490463425803342:0.039961425977554699] [-0.031092934357746627:0.02032572984345582] [-0.016367282816525885:0.016485558042977022] [0:1] [-0.33155830700051081:0.33843229304135902] [-0.15939581341205267:0.07707368704501838] [-0.1917533349989361:0.11779173776782548] [-0.22639396286451652:0.16107327086337087] [-0.14799731635829816:0.048049939426064447] [-0.11945480914964125:0.044958270112928841] [-0.032331768249045018:0.025205225752755137] [-0.0068337987029531005:0.0042210740679211323] [0:1] [0:1] [-0.060931617363970396:0.038399712634775048] [-0.012374204447689548:0.0079879260963385545] [15.454560498250487:91.162437838417006] [7.7244837711389494:97.457216391275111] [-27.842315014840167:29.375422513745001] [-0.69090879003499028:0.82324875676834008] [0:1] [0:1] [-0.40271406960536604:0.039078870305538915] [-0.10543409158462513:0.49041051335482111] [-0.44816058496071415:1.5386562691860459] [0.006765821258893928:0.54388104567752904] [0:1] [0.0036226270657988605:0.14349091784143225] [0.0033166699214356387:0.177844183035409] [0.6769473938983559:1.5052809647564755] [0.16511895846206368:4.3121226361130383] [0.00038777917572603348:0.1561972763619667] [0.0011637354461881996:0.11378541844162907] [0.0016232628039971014:0.080465532210200169] [0:1] [0.045804754298599981:4.3632797175362796] [0.037018022643140837:7.5422998412338345] [-0.97473475993526348:46.357438016528924] [-2.3462364048786362:2.8402560926569995] [0:1] [0:0.9999999930699931] [0:0.99999999500748871] [0:0.99999999122036887] [0:0.99999999122036887] [-0.44273984794531418:-2.0554136170858328e-10] [-3.1250002585636594e-10:0.5418228709048909] [-0.44273984794531418:-1.7482826297765541e-10] [-3.1250002585636594e-10:0.34346039608209811] [0:0.99999999500748871] [0.014494016981203532:0.98664440322769809] [-0.58899426416315426:0.45567954183800163] [0:1] [0:1] [-0.99999999839228293:0] [-3.8701857151045016:4.607339918571113] [-6.1263660793261465:4.8058968318317747] [-0.26622751986616489:0.23762432671207501] [-0.29294537247869101:0.27661090370201502] [-0.28175514892918685:0.33147140129385289] [-0.29294537247869101:0.27661090370201502] [-0.28175514892918685:0.33147140129385289] [0:1] [0:0.93220338983050843] [0:1]
tree_sizes=2892 3217 2799 3332 2885

Tree=0
num_leaves=26
num_cat=0
split_feature=50 54 33 66 85 83 79 29 47 85 41 41 18 51 24 76 69 9 32 18 6 64 71 70 1
split_gain=174.373 49.6356 43.4986 42.8894 36.978 34.5073 33.9753 26.31 25.2825 23.4426 21.6309 21.0129 18.013 16.8234 20.7967 19.1988 16.8167 17.6259 14.541 12.0798 10.7486 10.0643 9.56366 8.91403 2.0079
threshold=0.015045927734117047 0.0035373803891331594 0.00017062515595084643 -0.093763170063780141 0.75000000000000011 0.89130434782608703 -0.0032952271467086565 0.016995924192843574 0.028685826676824445 0.75000000000000011 -0.23634601792516949 0.036906476127831531 -0.017000348987110555 1.0309169027118872 0.00085839338422455402 1.5465903505124119 0.0077052440709920464 0.0067891570258076005 0.00012603039312978988 -0.022189287717293501 0.00063751443690512161 0.25587292900626402 0.8308431634799186 0.17597392316321897 -0.0035401775509805362
decision_type=2 2 2 2 2 2 2 2 2 2 2 2 2 2 2 2 2 2 2 2 2 2 2 2 2
left_child=1 6 5 19 13 9 18 8 -4 -3 -6 -12 -7 14 -5 -15 17 -8 20 21 -1 23 -18 -2 -21
right_child=3 2 7 4 10 12 16 -9 -10 -11 11 -13 -14 15 -16 -17 22 -19 -20 24 -22 -23 -24 -25 -26
leaf_value=-0.72645865595576886 -0.70320165864026851 -0.72752617904626204 -0.7507324260191568 -0.70330273310065228 -0.70383812477166496 -0.73441065110262072 -0.79378363712184563 -0.71494662686016319 -0.80047339275610252 -0.7518451942969866 -0.80065585482318169 -0.7421923948741993 -0.78728253742668131 -0.69142330141611064 -0.73852325153112852 -0.73823446579983065 -0.83749945805806369 -0.7311504053419664 -0.69413680777763642 -0.67926212794745888 -0.77698078467436404 -0.74380021921105799 -0.77140572118522244 -0.6558795780968204 -0.63224827009964379
leaf_weight=16.257662057876587 34.156583905220032 379.1619513630867 41.825119435787201 76.715542137622833 19.58516800403595 22.957660317420959 47.105829834938049 17.235965967178345 63.900811851024628 138.15128266811371 23.710588932037354 41.509771406650543 50.74868381023407 128.04061245918274 99.747045278549194 28.540992200374603 25.126473426818851 14.201314866542814 10.751576364040373 11.044431209564211 29.017195880413055 9.8730118274688703 6.6613751649856559 18.561877727508545 14.526429533958433
leaf_count=53 103 1248 148 232 59 77 189 54 261 491 97 143 200 371 340 97 113 47 31 30 111 34 25 46 32
internal_value=-0.735942 -0.749643 -0.744166 -0.712633 -0.719492 -0.738538 -0.775928 -0.771309 -0.780709 -0.733979 -0.749324 -0.763526 -0.770693 -0.711967 -0.723013 -0.699767 -0.794387 -0.778928 -0.745302 -0.680702 -0.758355 -0.69422 -0.823592 -0.685446 -0.650062
internal_weight=1369.11 863.103 713.981 506.012 417.85 591.02 149.121 122.962 105.726 517.313 84.8055 65.2204 73.7063 333.044 176.463 156.582 93.095 61.3071 56.0264 88.1623 45.2749 62.5915 31.7878 52.7185 25.5709
internal_count=4632 3048 2479 1584 1339 2016 569 463 409 1739 299 240 277 1040 572 468 374 236 195 245 164 183 138 149 62
is_linear=0
shrinkage=1


Tree=1
num_leaves=29
num_cat=0
split_feature=50 55 33 47 83 65 54 19 85 68 24 52 47 33 30 21 55 50 55 29 77 83 52 30 24 39 57 57
split_gain=149.97 61.3923 42.2655 35.0391 32.9117 32.2649 31.4153 31.0911 24.1355 22.8479 21.3495 21.2747 19.0082 16.8474 17.9107 16.3726 30.3523 27.5296 16.0272 15.9779 14.4105 12.9368 12.7737 10.2518 12.3508 8.74142 8.21636 9.21748
threshold=0.015045927734117047 0.0040110428192031691 0.00017062515595084643 0.11627056189381711 0.89130434782608703 0.64577660376234125 0.013758129537057866 -0.02423419524835085 0.75000000000000011 -0.0063897017088201937 -0.00053172744276885886 0.86904698899796573 0.011403490505054618 0.00016689415126181723 0.013466653022388345 -0.0041442723062895528 0.01558204188863936 0.025776306663424824 0.005819493166173805 0.016995924192843574 0.183047762233293 0.63043478260869579 1.1922492992545912 -0.0022880569684364509 -0.00070433419886795068 71.876062854128747 0.8994048733533031 1.2537052880426434
decision_type=2 2 2 2 2 2 2 2 2 2 2 2 2 2 2 2 2 2 2 2 2 2 2 2 2 2 2 2
left_child=1 5 4 6 8 10 13 -6 -3 18 -1 20 -12 14 -2 23 25 -18 -4 -11 -8 -15 -13 24 -5 -17 -7 -28
right_child=3 2 9 15 7 26 11 -9 -10 19 12 22 -14 21 -16 16 17 -19 -20 -21 -22 -23 -24 -25 -26 -27 27 -29
leaf_value=-0.046141549027213027 0.059658217870416579 0.049750702847895609 0.018309509560963579 0.093759819663723487 0.064342530071726411 -0.064728436429937197 -0.029346873381495345 -0.010253996466530342 0.025705332530988889 0.010612466652354071 0.076278494573045433 0.070411306859597261 0.011631539161173956 0.052642337415766363 0.0983606312510521 0.12268338702413387 -0.017882930471455564 0.060821471058801306 -0.049361552531749661 0.070150255410028575 0.043873082890461296 0.0068910678961277439 0.017816124280071281 0.1280963627464439 0.030824008305238671 0.061617731711314939 0.018248941271716137 -0.045434622804577628
leaf_weight=13.103181526064871 134.54677103459835 386.02196088433266 12.9560499638319 53.945330038666725 17.892903685569763 17.907524421811104 22.44381515681744 57.416433766484261 146.91505341231823 65.079031944274902 12.8268416672945 23.778342872858047 81.899529188871384 59.87885308265686 41.332985416054726 21.737886816263199 13.847814515233038 50.426350519061089 24.652352392673492 13.28491151332855 8.9853724241256696 21.342292815446854 23.480274841189384 21.061717659235001 10.131124854087828 10.936839178204535 9.3840285986661929 12.84520401060581
leaf_count=57 414 1242 47 144 55 82 92 227 517 243 38 70 302 190 110 51 55 154 109 39 29 78 83 47 34 33 34 56
internal_value=0.0402172 0.0275258 0.0335185 0.0615347 0.0387906 -0.00178585 0.0517558 0.00771107 0.0431618 0.00577635 0.0124372 0.0237982 0.0207924 0.0602303 0.069035 0.0793497 0.0644314 0.0437803 -0.0259834 0.02115 -0.007898 0.0407973 0.0448444 0.0958037 0.0842022 0.103631 -0.0398027 -0.0185207
internal_weight=1390.06 872.185 724.219 517.876 608.246 147.966 335.789 75.3093 532.937 115.972 107.83 78.6878 94.7264 257.101 175.88 182.087 96.9489 64.2742 37.6084 78.3639 31.4292 81.2211 47.2586 85.1382 64.0765 32.6747 40.1368 22.2292
internal_count=4632 3048 2479 1584 2041 569 1066 282 1759 438 397 274 340 792 524 518 293 209 156 282 121 268 153 225 178 84 172 90
is_linear=0
shrinkage=0.05


Tree=2
num_leaves=25
num_cat=0
split_feature=50 55 33 85 38 31 85 44 53 66 49 39 47 85 44 52 77 83 20 83 38 69 45 24
split_gain=130.11 54.6265 35.9218 32.0153 29.4201 29.802 26.5672 27.2128 23.2868 22.653 21.3286 20.3894 22.2136 17.227 16.8364 15.5073 14.2547 13.8502 13.5142 13.0581 13.0111 9.09407 8.45782 4.41701
threshold=0.015045927734117047 0.0031692299617757866 0.00017062515595084643 0.75000000000000011 38.182699103741534 -0.01151412392505023 0.91666666666666685 -0.021192409826360333 0.0021875875883139002 -0.091023760869159351 0.010178802205045018 76.116230438998173 0.028685826676824445 0.91666666666666685 -0.012704691666593214 0.82352056287866959 -0.44627858167504658 0.67391304347826098 0.00026870838052550644 0.5434782608695653 62.399184864467273 0.0037710876817482757 0.055132297927695702 -0.0021760837592607603
decision_type=2 2 2 2 2 2 2 2 2 2 2 2 2 2 2 2 2 2 2 2 2 2 2 2
left_child=1 8 6 9 5 -5 10 -8 18 19 -3 12 -4 14 -6 16 -11 -17 -1 23 -15 -10 -21 -2
right_child=3 2 11 4 13 -7 7 -9 21 15 -12 -13 -14 20 -16 17 -18 -19 -20 22 -22 -23 -24 -25
leaf_value=0.041922939730757697 0.12891567174079735 0.028620645386196977 0.02521863808155915 0.10684907755393754 -0.040486213052605434 0.013149994085536382 0.041370951656313881 -0.01333067809415032 -0.01556902111590969 0.083259391160458274 0.04765778064326872 0.056049291892423928 -0.020374849313102593 0.055304475384101916 0.035625587840319349 0.071994987255376494 0.034790389774500441 0.040368574979637917 -0.038626936781755661 0.081151264510546828 -0.0037698208008471665 -0.070226425488188651 0.021893232116392436 0.089756517598918173
leaf_weight=15.839892625808718 16.580657795071602 324.04833233356476 42.763024359941483 21.026107907295227 20.333857491612438 14.486536040902136 37.534092649817467 55.924388900399208 13.34411935508251 18.179550632834435 278.73815624415874 16.359323993325233 69.260853111743927 26.604558676481247 10.639679133892058 180.51741056144238 99.345214515924454 46.671420082449913 7.1328181922435752 15.530540809035303 13.881325006484984 19.379557952284813 10.864204719662665 33.446866661310196
leaf_count=53 35 1107 150 50 86 50 124 219 53 49 885 50 285 83 35 510 324 149 31 41 52 91 36 84
internal_value=0.0377027 0.0258975 0.029138 0.0573287 0.0325692 0.0694789 0.0336177 0.00868821 -0.0218239 0.0635598 0.0374642 0.00476882 -0.00289123 0.0138017 -0.0140317 0.0578786 0.0426512 0.0656228 0.0164099 0.0885779 0.0351289 -0.0486584 0.0578067 0.103981
internal_weight=1408.43 880.325 824.628 528.108 106.972 35.5126 696.245 93.4585 55.6964 421.136 602.786 128.383 112.024 71.4594 30.9735 344.714 117.525 227.189 22.9727 76.4223 40.4859 32.7237 26.3947 50.0275
internal_count=4632 3048 2820 1584 356 100 2335 343 228 1228 1992 485 435 256 121 1032 373 659 84 196 135 144 77 119
is_linear=0
shrinkage=0.05


Tree=3
num_leaves=30
num_cat=0
split_feature=50 55 83 37 66 85 53 3 71 60 55 28 22 3 18 53 47 84 51 24 76 85 36 7 18 6 7 52 72
split_gain=113.715 50.1188 34.4346 28.8529 28.1673 25.9287 25.5421 26.2793 24.7987 23.647 20.9417 27.315 24.1468 20.2084 18.4726 24.2202 16.617 12.5882 12.3478 17.8517 15.102 11.987 10.7652 8.96106 8.52919 10.4232 11.879 5.10933 0.0929948
threshold=0.015045927734117047 0.0040110428192031691 0.89130434782608703 0.00037118587778976314 -0.093763170063780141 0.75000000000000011 0.003302823736892013 0.0017162295211615713 0.50626809501855574 0.26863963675999197 0.013033265277003681 0.018567263032426843 -0.0066569924667650984 -0.0025415819862155686 0.00083358210684125755 0.0027835726319940849 0.02898699775533611 0.72033898305084754 1.0309169027118872 0.00085839338422455402 1.5465903505124119 0.25000000000000006 0.0012960445678519789 0.0033023012667253177 -0.022189287717293501 0.0056632356004093715 0.0046528705125516807 1.0659509186357874 0.0042690022336934518
decision_type=2 2 2 2 2 2 2 2 2 2 2 2 2 2 2 2 2 2 2 2 2 2 2 2 2 2 2 2 2
left_child=1 6 3 8 24 18 14 9 -3 -8 12 -12 -7 17 15 -1 -5 -4 19 -6 -20 -15 -9 -16 25 27 -27 -2 -26
right_child=4 2 13 16 5 10 7 22 -10 -11 11 -13 -14 21 23 -17 -18 -19 20 -21 -22 -23 -24 -25 28 26 -28 -29 -30
leaf_value=0.021898524617710177 0.10458254105518908 0.046972258709821489 0.0042157599508349476 0.036521934472329702 0.062604807184392541 0.094132996462421348 0.064374462783348727 -0.059944224193907873 0.025563875769038676 -0.01713882909703458 -0.056554790185806107 0.059796695423179946 0.021049136788005011 0.014471267946818023 -0.054892079153296282 -0.068285812346877181 -0.0083276676292704868 0.058801834786207041 0.071323327428089223 0.030987434552532285 0.031118025268627836 -0.044243572337829551 0.010985219833465131 0.0073911804139521146 0.084129823817662056 0.084395979046930858 0.023709446366071581 0.056993379324732252 0.11411004613201513
leaf_weight=33.947655275464058 20.374363660812378 321.93359220027924 33.231259077787399 31.131883785128593 81.397099271416664 14.254576429724692 32.703013062477112 10.302118420600893 239.71676132082939 11.789227709174154 14.829960763454439 7.0155660510063163 51.684445545077324 12.194500133395193 33.650927692651749 8.9932395964860898 58.810591623187065 15.200766965746878 137.20400886237621 104.97308814525604 30.083183467388153 27.300698131322861 10.145492419600485 6.6525575369596472 12.303046002984049 13.073152914643286 22.160841658711433 11.765346512198446 15.773421272635458
leaf_count=120 46 1007 123 103 232 35 99 46 807 47 66 21 177 44 153 42 231 46 371 340 97 118 37 25 30 33 71 33 32
internal_value=0.035408 0.0243889 0.0297043 0.0336649 0.0535781 0.0481137 -0.00211474 0.0212595 0.0378748 0.0427141 0.0235008 -0.0184635 0.037513 0.000272994 -0.020427 0.00232728 0.00725697 0.021876 0.0541671 0.0449536 0.0642373 -0.0260355 -0.0250903 -0.0445244 0.0784158 0.0674773 0.0472322 0.0884548 0.10285
internal_weight=1424.6 887.704 739.52 651.593 536.892 441.442 148.184 64.9399 561.65 44.4922 87.7845 21.8455 65.939 87.9272 83.2444 42.9409 89.9425 48.432 353.657 186.37 167.287 39.4952 20.4476 40.3035 95.4502 67.3737 35.234 32.1397 28.0765
internal_count=4632 3048 2479 2148 1584 1339 569 229 1814 146 299 87 212 331 340 162 334 169 1040 572 468 162 83 178 245 183 104 79 62
is_linear=0
shrinkage=0.05


Tree=4
num_leaves=26
num_cat=0
split_feature=49 47 85 46 38 83 21 65 16 59 83 55 36 20 4 51 71 68 21 71 83 83 85 54 49
split_gain=95.6789 44.5383 38.2099 34.5705 32.0762 27.7497 31.2862 25.1876 22.1812 22.3527 21.1773 20.5407 19.8431 18.9403 17.6327 17.4291 17.9715 13.9085 12.3965 10.9125 11.2842 17.4449 16.2799 9.76044 1.20004
threshold=0.010628019115703657 0.11627056189381711 0.75000000000000011 0.24191557573241571 51.861801706046698 0.63043478260869579 0.0027674845266085772 0.34878148552308658 0.00083521066356040407 2.2191448783099434 0.93478260869565222 0.005357631240949799 0.0014668882764376542 -0.002954537936771084 0.026804446031573646 1.1506667282766421 0.14671105661642445 -0.0035373754293601674 0.0051349937034742563 0.87546744914641572 0.50000000000000011 0.58695652173913049 0.75000000000000011 0.0066716288824665822 0.0097323741123798956
decision_type=2 2 2 2 2 2 2 2 2 2 2 2 2 2 2 2 2 2 2 2 2 2 2 2 2
left_child=2 3 5 15 10 7 12 23 9 13 -5 -6 -7 -4 -9 16 -2 24 -8 20 22 -22 -3 -1 -10
right_child=1 19 8 4 11 6 18 14 17 -11 -12 -13 -14 -15 -16 -17 -18 -19 -20 -21 21 -23 -24 -25 -26
leaf_value=0.065855867405718568 0.03732015855422114 0.086449704723180198 -0.021032609232922966 0.020666910751438117 0.088394955061913347 0.024359259467975663 -0.057308016964625424 0.019067166685623804 -0.071019950113480959 -0.060244327037249572 -0.036124138203952237 0.037580816882399441 -0.032760597662545292 0.033734244066209056 0.085279019510812348 0.0081567666627197898 0.075892809055132113 -0.0010612893092709404 0.0090193811168690439 0.026638244790931277 0 0.06469339870002104 0.036527687518950573 0.011200116507131395 -0.037894825432424242
leaf_weight=67.080977812409401 47.150391146540642 96.859204292297363 22.432556480169296 188.7460130751133 21.325685858726501 152.03286416828632 20.80923463404179 143.66154818236828 16.665358111262325 10.332999274134634 17.462091729044914 305.40625412762165 16.383333176374435 50.067779660224915 10.446514636278151 16.222259804606438 96.655736058950424 15.107401221990584 10.162148252129553 18.371356517076492 13.798525944352148 43.548128336668015 21.351660817861557 9.8094887435436231 6.6585444360971442
leaf_count=193 147 232 88 635 54 522 91 496 77 46 72 956 68 168 27 55 259 58 36 58 48 119 65 34 28
internal_value=0.0333113 0.0434831 0.0169243 0.0374868 0.0312927 0.0239061 0.010168 0.035695 -0.00781024 0.00673089 0.0157578 0.0410427 0.0186926 0.0166922 0.0238491 0.0579221 0.0634536 -0.038964 -0.0355886 0.0647325 0.0686035 0.0493252 0.0776666 0.059065 -0.062767
internal_weight=1438.55 886.897 551.651 692.968 532.94 430.386 199.388 230.999 121.265 82.8333 206.208 326.732 168.416 72.5003 154.108 160.028 143.806 38.4313 30.9714 193.929 175.558 57.3467 118.211 76.8905 23.3239
internal_count=4632 2700 1932 2178 1717 1467 717 750 465 302 707 1010 590 256 523 461 406 163 127 522 464 167 297 227 105
is_linear=0
shrinkage=0.05


end of trees

feature_importances:
Column_83=10
Column_85=10
Column_55=7
Column_47=6
Column_24=5
Column_50=5
Column_18=4
Column_33=4
Column_52=4
Column_71=4
Column_21=3
Column_38=3
Column_49=3
Column_51=3
Column_53=3
Column_54=3
Column_66=3
Column_3=2
Column_6=2
Column_7=2
Column_20=2
Column_29=2
Column_30=2
Column_36=2
Column_39=2
Column_41=2
Column_44=2
Column_57=2
Column_65=2
Column_68=2
Column_69=2
Column_76=2
Column_77=2
Column_1=1
Column_4=1
Column_9=1
Column_16=1
Column_19=1
Column_22=1
Column_28=1
Column_31=1
Column_32=1
Column_37=1
Column_45=1
Column_46=1
Column_59=1
Column_60=1
Column_64=1
Column_70=1
Column_72=1
Column_79=1
Column_84=1

parameters:
[boosting: gbdt]
[objective: binary]
[metric: binary_logloss]
[tree_learner: serial]
[device_type: cpu]
[data_sample_strategy: bagging]
[data: ]
[valid: ]
[num_iterations: 500]
[learning_rate: 0.05]
[num_leaves: 31]
[num_threads: 8]
[seed: 42]
[deterministic: 0]
[force_col_wise: 0]
[force_row_wise: 0]
[histogram_pool_size: -1]
[max_depth: 5]
[min_data_in_leaf: 30]
[min_sum_hessian_in_leaf: 0.001]
[bagging_fraction: 0.8]
[pos_bagging_fraction: 1]
[neg_bagging_fraction: 1]
[bagging_freq: 0]
[bagging_seed: 400]
[bagging_by_query: 0]
[feature_fraction: 0.8]
[feature_fraction_bynode: 1]
[feature_fraction_seed: 30056]
[extra_trees: 0]
[extra_seed: 12879]
[early_stopping_round: 0]
[early_stopping_min_delta: 0]
[first_metric_only: 0]
[max_delta_step: 0]
[lambda_l1: 0.1]
[lambda_l2: 0.5]
[linear_lambda: 0]
[min_gain_to_split: 0]
[drop_rate: 0.1]
[max_drop: 50]
[skip_drop: 0.5]
[xgboost_dart_mode: 0]
[uniform_drop: 0]
[drop_seed: 17869]
[top_rate: 0.2]
[other_rate: 0.1]
[min_data_per_group: 100]
[max_cat_threshold: 32]
[cat_l2: 10]
[cat_smooth: 10]
[max_cat_to_onehot: 4]
[top_k: 20]
[monotone_constraints: ]
[monotone_constraints_method: basic]
[monotone_penalty: 0]
[feature_contri: ]
[forcedsplits_filename: ]
[refit_decay_rate: 0.9]
[cegb_tradeoff: 1]
[cegb_penalty_split: 0]
[cegb_penalty_feature_lazy: ]
[cegb_penalty_feature_coupled: ]
[path_smooth: 0]
[interaction_constraints: ]
[verbosity: -1]
[saved_feature_importance_type: 0]
[use_quantized_grad: 0]
[num_grad_quant_bins: 4]
[quant_train_renew_leaf: 0]
[stochastic_rounding: 1]
[linear_tree: 0]
[max_bin: 255]
[max_bin_by_feature: ]
[min_data_in_bin: 3]
[bin_construct_sample_cnt: 200000]
[data_random_seed: 175]
[is_enable_sparse: 1]
[enable_bundle: 1]
[use_missing: 1]
[zero_as_missing: 0]
[feature_pre_filter: 1]
[pre_partition: 0]
[two_round: 0]
[header: 0]
[label_column: ]
[weight_column: ]
[group_column: ]
[ignore_column: ]
[categorical_feature: ]
[forcedbins_filename: ]
[precise_float_parser: 0]
[parser_config_file: ]
[objective_seed: 16083]
[num_class: 1]
[is_unbalance: 0]
[scale_pos_weight: 2.17914]
[sigmoid: 1]
[boost_from_average: 1]
[reg_sqrt: 0]
[alpha: 0.9]
[fair_c: 1]
[poisson_max_delta_step: 0.7]
[tweedie_variance_power: 1.5]
[lambdarank_truncation_level: 30]
[lambdarank_norm: 1]
[label_gain: ]
[lambdarank_position_bias_regularization: 0]
[eval_at: ]
[multi_error_top_k: 1]
[auc_mu_weights: ]
[num_machines: 1]
[local_listen_port: 12400]
[time_out: 120]
[machine_list_filename: ]
[machines: ]
[gpu_platform_id: -1]
[gpu_device_id: -1]
[gpu_use_dp: 0]
[num_gpu: 1]

end of parameters

pandas_categorical:null
