tree
version=v4
num_class=1
num_tree_per_iteration=1
label_index=0
max_feature_idx=85
objective=binary sigmoid:1
feature_names=Column_0 Column_1 Column_2 Column_3 Column_4 Column_5 Column_6 Column_7 Column_8 Column_9 Column_10 Column_11 Column_12 Column_13 Column_14 Column_15 Column_16 Column_17 Column_18 Column_19 Column_20 Column_21 Column_22 Column_23 Column_24 Column_25 Column_26 Column_27 Column_28 Column_29 Column_30 Column_31 Column_32 Column_33 Column_34 Column_35 Column_36 Column_37 Column_38 Column_39 Column_40 Column_41 Column_42 Column_43 Column_44 Column_45 Column_46 Column_47 Column_48 Column_49 Column_50 Column_51 Column_52 Column_53 Column_54 Column_55 Column_56 Column_57 Column_58 Column_59 Column_60 Column_61 Column_62 Column_63 Column_64 Column_65 Column_66 Column_67 Column_68 Column_69 Column_70 Column_71 Column_72 Column_73 Column_74 Column_75 Column_76 Column_77 Column_78 Column_79 Column_80 Column_81 Column_82 Column_83 Column_84 Column_85
feature_infos=[-0.19248659438210722:0.21049586418511188] [-0.21964597589571958:0.17548840168673341] [-0.30955627098875538:0.21319367644429432] [-0.34664734942081898:0.24420883500811844] [-0.3309447498629296:0.28628464747854826] [0:0.2342899483501126] [0:0.2331996694877386] [0:0.078903504802481428] [0:1] [0.0015341646664040951:0.31693693171166543] none [0:0.99999999752842306] [0:0.99999999492643321] [0:5] [0:5] [-0.20203669525937695:0.10390969966502017] [-0.21711988308513108:0.1676543842744842] [-0.24139865915708558:0.18993825546138909] [-0.35483817204256274:0.25383329846574521] [-0.33155830700051081:0.33843229304135902] [-0.12599614341052212:0.11197585679811395] [-0.083111554941189714:0.073194337554513877] [-0.072490463425803342:0.039961425977554699] [-0.031092934357746627:0.02032572984345582] [-0.016367282816525885:0.016485558042977022] [0:1] [-0.33155830700051081:0.33843229304135902] [-0.15939581341205267:0.07707368704501838] [-0.1917533349989361:0.11779173776782548] [-0.22639396286451652:0.16107327086337087] [-0.14799731635829816:0.048049939426064447] [-0.11945480914964125:0.044958270112928841] [-0.032331768249045018:0.025205225752755137] [-0.0068337987029531005:0.0042210740679211323] [0:1] [0:1] [-0.060931617363970396:0.038399712634775048] [-0.012374204447689548:0.0079879260963385545] [15.454560498250487:91.162437838417006] [7.7244837711389494:97.457216391275111] [-27.842315014840167:29.375422513745001] [-0.69090879003499028:0.82324875676834008] [0:1] [0:1] [-0.40271406960536604:0.039078870305538915] [-0.10543409158462513:0.49041051335482111] [-0.44816058496071415:1.5386562691860459] [0.006765821258893928:0.54388104567752904] [0:1] [0.0036226270657988605:0.14349091784143225] [0.0033166699214356387:0.177844183035409] [0.6769473938983559:1.5052809647564755] [0.16511895846206368:4.3121226361130383] [0.00038777917572603348:0.1561972763619667] [0.0011637354461881996:0.11378541844162907] [0.0016232628039971014:0.080465532210200169] [0:1] [0.045804754298599981:4.3632797175362796] [0.037018022643140837:7.5422998412338345] [-0.97473475993526348:46.357438016528924] [-2.3462364048786362:2.8402560926569995] [0:1] [0:0.9999999930699931] [0:0.99999999500748871] [0:0.99999999122036887] [0:0.99999999122036887] [-0.44273984794531418:-2.0554136170858328e-10] [-3.1250002585636594e-10:0.5418228709048909] [-0.44273984794531418:-1.7482826297765541e-10] [-3.1250002585636594e-10:0.34346039608209811] [0:0.99999999500748871] [0.014494016981203532:0.98664440322769809] [-0.58899426416315426:0.45567954183800163] [0:1] [0:1] [-0.99999999839228293:0] [-3.8701857151045016:4.607339918571113] [-6.1263660793261465:4.8058968318317747] [-0.26622751986616489:0.23762432671207501] [-0.29294537247869101:0.27661090370201502] [-0.28175514892918685:0.33147140129385289] [-0.29294537247869101:0.27661090370201502] [-0.28175514892918685:0.33147140129385289] [0:1] [0:0.93220338983050843] [0:1]
tree_sizes=3210 3020 3117

Tree=0
num_leaves=29
num_cat=0
split_feature=50 49 33 85 18 23 22 21 49 21 83 0 32 46 76 32 47 54 22 52 85 51 36 22 61 83 32 53
split_gain=228.397 60.9051 34.5855 33.4255 33.0441 35.84 26.9032 35.5524 25.1388 25.1302 24.3275 22.247 23.2619 22.1053 20.8906 21.5483 20.8062 30.459 27.966 20.7259 16.7427 16.1048 25.0528 15.8407 12.8394 8.90431 7.18357 7.06045
threshold=0.015639993732450508 0.0079028037393190729 7.0005359195277801e-05 0.75000000000000011 1.0000000180025095e-35 0.00016911614851911064 -0.0066569924667650984 -0.0034542226236030644 0.0048275998349648517 0.0027674845266085772 0.89130434782608703 0.0084461595379887091 0.002236577537343964 0.058673475358369663 1.6566877429046161 0.0029818237560358739 0.11627056189381711 0.016099009662887128 0.019795711074249715 0.89383150390494348 0.58333333333333337 1.0980905354128294 0.00078083207944665853 -0.0011877498771539206 0.61832211066113918 0.5434782608695653 0.0048072429814236548 0.014885762210844001
decision_type=2 2 2 2 2 2 2 2 2 2 2 2 2 2 2 2 2 2 2 2 2 2 2 2 2 2 2 2
left_child=1 4 10 14 5 8 7 27 -1 25 13 12 -4 -3 16 -16 17 -2 -18 -11 -7 22 -6 -12 -13 -8 -17 -5
right_child=3 2 11 6 21 20 9 -9 -10 19 23 24 -14 -15 15 26 18 -19 -20 -21 -22 -23 -24 -25 -26 -27 -28 -29
leaf_value=-0.84262938004597898 -0.85513965411116355 -0.84842252370445248 -0.91707699628615824 -0.80451157889898972 -0.93716386946796948 -0.83295236556783847 -0.98075410289794973 -0.95583730504667763 -0.9332707019071671 -0.93524316874593416 -0.89982360906257741 -0.91922383302339605 -0.98012249305951427 -0.88934732510952474 -0.84118478235563132 -0.90434189211848304 -0.82956634674900021 -0.91168715804598011 -0.90843312359790684 -0.85995666295846984 -0.91087939228431991 -0.88911625037432884 -0.99177808632297293 -0.95897240576401543 -0.86347209347807985 -0.91700381746052995 -0.96528814289444498 -0.86328070556420211
leaf_weight=7.9205695837736121 180.84458734095097 37.701463654637337 144.19981174170971 14.977636486291887 66.698585093021393 18.116614684462551 12.239015415310861 6.7964309751987448 88.903005257248878 14.543554082512854 26.755371198058128 17.423761203885078 15.781148016452788 345.95123416185379 10.080724924802782 10.310432851314546 127.85325194895267 28.655823037028313 13.161576822400091 25.546840414404869 12.239947840571402 10.022598624229429 30.006872296333313 18.862932339310646 28.714881762862206 9.0719064921140653 8.2074713855981809 13.335023298859594
leaf_count=22 545 110 544 35 268 49 56 29 353 58 95 66 72 1188 28 37 345 106 48 78 45 34 141 81 89 34 36 41
internal_value=-0.89016 -0.90545 -0.897417 -0.862296 -0.927347 -0.91018 -0.889238 -0.854415 -0.925318 -0.909799 -0.889306 -0.914427 -0.923418 -0.885193 -0.855532 -0.898227 -0.852134 -0.862753 -0.836738 -0.886692 -0.863153 -0.947823 -0.954214 -0.924279 -0.88392 -0.953374 -0.931448 -0.830124
internal_weight=1344.92 869.299 635.391 475.624 233.908 127.18 96.5104 35.1091 96.8236 61.4013 429.271 206.12 159.981 383.653 379.114 28.5986 350.515 209.5 141.015 40.0904 30.3566 106.728 96.7055 45.6183 46.1386 21.3109 18.5179 28.3127
internal_count=4633 3157 2245 1476 912 469 331 105 375 226 1474 771 616 1298 1145 101 1044 651 393 136 94 443 409 176 155 90 73 76
is_linear=0
shrinkage=1


Tree=1
num_leaves=27
num_cat=0
split_feature=50 55 83 19 45 85 18 12 85 9 22 4 21 65 31 58 45 23 52 71 36 9 58 54 2 24
split_gain=191.138 65.0054 31.7421 33.6795 28.734 27.1435 26.9237 26.9692 25.685 23.7684 22.5684 25.8671 21.9216 19.5677 23.6971 20.5678 18.4804 18.0627 17.5306 16.8573 25.3455 16.6882 9.81609 6.40757 6.21381 4.46411
threshold=0.015639993732450508 0.0036539347389009228 0.89130434782608703 -0.02423419524835085 0.0047135767954239469 0.75000000000000011 1.0000000180025095e-35 0.2698171363056367 0.25000000000000006 0.018599957314540397 -0.0066569924667650984 -0.0018789789709917565 0.0027674845266085772 0.13456187528819472 0.0074114968345115554 0.45092877767873796 0.0038204662270401317 -0.00024624134810730108 0.89383150390494348 0.57030730734416279 7.834751075329163e-05 0.0088592674255196704 1.0153193325188699 0.0058637961287042323 -0.014764631019310311 -0.0022272097417182497
decision_type=2 2 2 2 2 2 2 2 2 2 2 2 2 2 2 2 2 2 2 2 2 2 2 2 2 2
left_child=1 6 4 23 21 13 7 -1 -5 -6 11 24 22 25 17 -16 -9 -15 -14 -8 -21 -3 -12 -4 -7 -2
right_child=5 2 3 8 9 10 19 16 -10 -11 12 -13 18 14 15 -17 -18 -19 -20 20 -22 -23 -24 -25 -26 -27
leaf_value=0.077854600697744192 0.13947797294705805 0.04217239235652484 0.092571213715305647 0.053835242350655781 0.043286458054976856 0.065280758938775163 -0.067368557848397556 -0.047788504778110204 -0.013765803183374149 -0.0099807884903181671 -0.049878641644274802 -7.7985662355810003e-05 0.008980312086486605 0.080685114828817461 0.048780215531605428 0.098359189931574179 0.026431101968122164 0.04835145378107527 0.077746407660234204 0.045413562386216959 -0.045217571914737208 0.089159244563533913 0.018202331633792854 0.030708290850841886 0.12173363075744131 0.091893601672205547
leaf_weight=15.307450041174887 17.92713063955307 31.733194783329964 13.148894354701044 17.421241745352745 575.18738070130348 10.088655710220339 17.199976474046707 12.738467290997503 64.530277729034424 21.40017007291317 8.1528492569923419 7.4133178293704978 14.604065135121344 91.077729150652885 26.567638427019119 151.37702767550945 22.377919673919678 91.152660205960274 26.478990390896797 13.161125853657724 17.194191738963127 55.089856132864952 13.072268664836882 7.4513505399227133 18.930741608142853 15.432266637682913
leaf_count=46 38 110 38 59 2006 31 85 59 274 88 39 30 58 265 88 410 82 302 78 46 81 156 51 27 44 42
internal_value=0.0506297 0.0366779 0.0414627 0.0153541 0.0453591 0.0756089 -0.00166924 0.0236181 0.000783495 0.0413606 0.0515373 0.0827449 0.0326966 0.081563 0.0778938 0.0911424 -0.000644589 0.0647156 0.0538238 -0.0285527 -0.00566152 0.072383 -0.00826442 0.0716896 0.103715 0.119295
internal_weight=1376.22 883.941 785.962 102.552 683.411 492.275 97.9791 50.4238 81.9515 596.588 98.7409 36.4327 62.3082 393.534 360.175 177.945 35.1164 182.23 41.0831 47.5553 30.3553 86.8231 21.2251 20.6002 29.0194 33.3594
internal_count=4633 3157 2758 398 2360 1476 399 187 333 2094 331 105 226 1145 1065 498 141 567 136 212 127 266 90 65 75 80
is_linear=0
shrinkage=0.05


Tree=2
num_leaves=28
num_cat=0
split_feature=49 49 12 55 46 41 54 33 22 69 83 83 15 69 65 19 1 85 47 24 66 44 64 21 60 57 69
split_gain=163.886 51.2179 36.0105 35.8243 32.0397 27.6865 29.902 27.7206 24.6209 21.3408 23.699 18.8318 36.8628 22.3452 17.5164 19.6579 17.4864 15.7055 15.1235 16.2324 15.3018 13.9726 13.4385 10.6405 9.19045 23.0208 14.1442
threshold=0.010466567634161263 0.024399883015686855 0.1937189186008012 0.0036539347389009228 0.24174581613611715 -0.027576676552486957 0.015857034779001546 -0.00016859257847448602 0.019795711074249715 0.0048094142113894742 0.1521739130434783 0.71739130434782616 -0.0026972356119809855 0.0014926962893569986 0.34878148552308658 -0.0077294534711266896 -0.007994963615333554 0.75000000000000011 0.075168813390904518 -0.0028323562643839391 -0.056039807937571566 -0.018331926846827714 0.55723648447242247 0.00037526351788219619 -0.78781091243424173 0.55861569340349659 0.010519259309519137
decision_type=2 2 2 2 2 2 2 2 2 2 2 2 2 2 2 2 2 2 2 2 2 2 2 2 2 2 2
left_child=2 4 11 14 18 7 -7 -6 24 16 -11 13 21 -1 15 -4 -5 -15 20 -20 -2 -13 -16 -14 25 -3 -26
right_child=1 8 3 9 5 6 -8 -9 -10 10 -12 12 23 17 22 -17 -18 -19 19 -21 -22 -23 -24 -25 26 -27 -28
leaf_value=0.010093606353171785 0.10778071542878231 0.091854039129348919 -0.014019438162859591 0.052035055540274502 -0.017578636801104046 0.057104650478265823 -0.0079917104251488822 0.03890284011452886 0.017818276256113683 0.062831683102094152 0.023418716552940977 0.016698183505685315 0.013995347945777423 0.090419958704848757 -0.053470428568497701 0.085394713164684666 -0.013117355482932106 0.02189592644298724 0.070161789571601255 -0.0018920143164796004 0.068665840038496392 0.089405434337529982 -0.0051175290211999081 -0.05645067635591039 0.050011592567379151 0.010415788785059995 0.099480413817969876
leaf_weight=15.663076028227804 38.922148257493973 24.647250950336456 11.742260023951532 12.2135963588953 26.701079577207565 381.6929055005312 18.234118238091469 108.19686225056648 14.160043373703955 47.778181627392769 193.50666333734989 11.57124410569668 8.9722874164581317 47.393892332911491 26.10421659052372 7.8992950767278662 53.673437252640724 10.84106585383415 18.497307598590854 13.01246903836727 92.076092630624771 16.503679513931274 32.060748666524887 11.934638813138006 18.579841062426567 13.689965814352034 127.6430991590023
leaf_count=59 96 64 50 39 111 1204 72 370 51 151 709 43 34 132 125 22 221 39 52 51 276 46 134 57 58 49 318
internal_value=0.0471324 0.0599961 0.0243895 0.0168082 0.053514 0.0474865 0.0541179 0.0276626 0.0825259 0.024483 0.0313576 0.0479369 0.0233907 0.0638731 -0.0133902 0.0268413 -0.000663677 0.0780436 0.0731135 0.040685 0.0806913 0.0604302 -0.0271741 -0.0263642 0.0874019 0.0634102 0.0934206
internal_weight=1403.91 896.053 507.858 384.978 697.333 534.825 399.927 134.898 198.72 307.172 241.285 122.88 48.9818 73.898 77.8065 19.6416 65.887 58.235 162.508 31.5098 130.998 28.0749 58.165 20.9069 184.56 38.3372 146.223
internal_count=4633 2772 1861 1451 2232 1757 1276 481 540 1120 860 410 180 230 331 72 260 171 475 103 372 89 259 91 489 113 376
is_linear=0
shrinkage=0.05


end of trees

feature_importances:
Column_22=5
Column_83=5
Column_85=5
Column_21=4
Column_49=4
Column_32=3
Column_54=3
Column_69=3
Column_9=2
Column_12=2
Column_18=2
Column_19=2
Column_23=2
Column_24=2
Column_33=2
Column_36=2
Column_45=2
Column_46=2
Column_47=2
Column_50=2
Column_52=2
Column_55=2
Column_58=2
Column_65=2
Column_0=1
Column_1=1
Column_2=1
Column_4=1
Column_15=1
Column_31=1
Column_41=1
Column_44=1
Column_51=1
Column_53=1
Column_57=1
Column_60=1
Column_61=1
Column_64=1
Column_66=1
Column_71=1
Column_76=1

parameters:
[boosting: gbdt]
[objective: binary]
[metric: binary_logloss]
[tree_learner: serial]
[device_type: cpu]
[data_sample_strategy: bagging]
[data: ]
[valid: ]
[num_iterations: 500]
[learning_rate: 0.05]
[num_leaves: 31]
[num_threads: 8]
[seed: 42]
[deterministic: 0]
[force_col_wise: 0]
[force_row_wise: 0]
[histogram_pool_size: -1]
[max_depth: 5]
[min_data_in_leaf: 30]
[min_sum_hessian_in_leaf: 0.001]
[bagging_fraction: 0.8]
[pos_bagging_fraction: 1]
[neg_bagging_fraction: 1]
[bagging_freq: 0]
[bagging_seed: 400]
[bagging_by_query: 0]
[feature_fraction: 0.8]
[feature_fraction_bynode: 1]
[feature_fraction_seed: 30056]
[extra_trees: 0]
[extra_seed: 12879]
[early_stopping_round: 0]
[early_stopping_min_delta: 0]
[first_metric_only: 0]
[max_delta_step: 0]
[lambda_l1: 0.1]
[lambda_l2: 0.5]
[linear_lambda: 0]
[min_gain_to_split: 0]
[drop_rate: 0.1]
[max_drop: 50]
[skip_drop: 0.5]
[xgboost_dart_mode: 0]
[uniform_drop: 0]
[drop_seed: 17869]
[top_rate: 0.2]
[other_rate: 0.1]
[min_data_per_group: 100]
[max_cat_threshold: 32]
[cat_l2: 10]
[cat_smooth: 10]
[max_cat_to_onehot: 4]
[top_k: 20]
[monotone_constraints: ]
[monotone_constraints_method: basic]
[monotone_penalty: 0]
[feature_contri: ]
[forcedsplits_filename: ]
[refit_decay_rate: 0.9]
[cegb_tradeoff: 1]
[cegb_penalty_split: 0]
[cegb_penalty_feature_lazy: ]
[cegb_penalty_feature_coupled: ]
[path_smooth: 0]
[interaction_constraints: ]
[verbosity: -1]
[saved_feature_importance_type: 0]
[use_quantized_grad: 0]
[num_grad_quant_bins: 4]
[quant_train_renew_leaf: 0]
[stochastic_rounding: 1]
[linear_tree: 0]
[max_bin: 255]
[max_bin_by_feature: ]
[min_data_in_bin: 3]
[bin_construct_sample_cnt: 200000]
[data_random_seed: 175]
[is_enable_sparse: 1]
[enable_bundle: 1]
[use_missing: 1]
[zero_as_missing: 0]
[feature_pre_filter: 1]
[pre_partition: 0]
[two_round: 0]
[header: 0]
[label_column: ]
[weight_column: ]
[group_column: ]
[ignore_column: ]
[categorical_feature: ]
[forcedbins_filename: ]
[precise_float_parser: 0]
[parser_config_file: ]
[objective_seed: 16083]
[num_class: 1]
[is_unbalance: 0]
[scale_pos_weight: 2.57209]
[sigmoid: 1]
[boost_from_average: 1]
[reg_sqrt: 0]
[alpha: 0.9]
[fair_c: 1]
[poisson_max_delta_step: 0.7]
[tweedie_variance_power: 1.5]
[lambdarank_truncation_level: 30]
[lambdarank_norm: 1]
[label_gain: ]
[lambdarank_position_bias_regularization: 0]
[eval_at: ]
[multi_error_top_k: 1]
[auc_mu_weights: ]
[num_machines: 1]
[local_listen_port: 12400]
[time_out: 120]
[machine_list_filename: ]
[machines: ]
[gpu_platform_id: -1]
[gpu_device_id: -1]
[gpu_use_dp: 0]
[num_gpu: 1]

end of parameters

pandas_categorical:null
