{"learner":{"attributes":{"best_iteration":"1","best_score":"0.6899659261107445","scikit_learn":"{\"_estimator_type\": \"classifier\"}"},"feature_names":[],"feature_types":[],"gradient_booster":{"model":{"cats":{"enc":[],"feature_segments":[],"sorted_idx":[]},"gbtree_model_param":{"num_parallel_tree":"1","num_trees":"52"},"iteration_indptr":[0,1,2,3,4,5,6,7,8,9,10,11,12,13,14,15,16,17,18,19,20,21,22,23,24,25,26,27,28,29,30,31,32,33,34,35,36,37,38,39,40,41,42,43,44,45,46,47,48,49,50,51,52],"tree_info":[0,0,0,0,0,0,0,0,0,0,0,0,0,0,0,0,0,0,0,0,0,0,0,0,0,0,0,0,0,0,0,0,0,0,0,0,0,0,0,0,0,0,0,0,0,0,0,0,0,0,0,0],"trees":[{"base_weights":[5.338014E-2,2.7075133E-1,-6.0406256E-1,-2.3974005E-2,6.305697E-1,1.913272E-2,-9.3326485E-1,6.112332E-1,-3.6846733E-1,8.0248153E-1,2.5628414E-3,-2.3363775E-2,-6.702037E-2,-5.075564E-3,5.8060687E-2,-7.562069E-1,1.1185112E-2,1.1767298E-2,1.0953586E0,-6.845968E-2,7.163121E-3,7.007416E-2,2.4372179E-2],"categories":[],"categories_nodes":[],"categories_segments":[],"categories_sizes":[],"default_left":[0,0,0,0,0,0,0,0,0,0,0,0,0,0,0,0,0,0,0,0,0,0,0],"id":0,"left_children":[1,3,5,7,9,-1,11,13,15,17,-1,-1,-1,-1,-1,19,-1,-1,21,-1,-1,-1,-1],"loss_changes":[2.4290758E1,1.3634913E1,1.4121051E1,1.57588825E1,5.6259804E0,0E0,5.266363E0,1.013123E1,1.0973455E1,6.9743385E0,0E0,0E0,0E0,0E0,0E0,1.6102219E1,0E0,0E0,4.497116E0,0E0,0E0,0E0,0E0],"parents":[2147483647,0,0,1,1,2,2,3,3,4,4,6,6,7,7,8,8,9,9,15,15,18,18],"right_children":[2,4,6,8,10,-1,12,14,16,18,-1,-1,-1,-1,-1,20,-1,-1,22,-1,-1,-1,-1],"split_conditions":[7.826087E-1,1.0784105E-1,6.5504466E-3,-3.8255276E-3,7.395623E-1,1.913272E-2,9.130435E-1,-2.3229003E-2,9.070257E-1,2.9900384E-1,2.5628414E-3,-2.3363775E-2,-6.702037E-2,-5.075564E-3,5.8060687E-2,6.785714E-1,1.1185112E-2,1.1767298E-2,-1.8692048E-2,-6.845968E-2,7.163121E-3,7.007416E-2,2.4372179E-2],"split_indices":[83,59,53,27,61,0,83,19,52,71,0,0,0,0,0,62,0,0,68,0,0,0,0],"split_type":[0,0,0,0,0,0,0,0,0,0,0,0,0,0,0,0,0,0,0,0,0,0,0],"sum_hessian":[1.6806229E2,1.2685899E2,4.120329E1,7.009775E1,5.6761246E1,1.0191176E1,3.1012112E1,2.4274221E1,4.582353E1,4.3341694E1,1.341955E1,1.557699E1,1.5435122E1,1.0848616E1,1.3425606E1,2.7626297E1,1.8197231E1,1.5490484E1,2.7851212E1,1.6185122E1,1.1441176E1,1.7545847E1,1.0305364E1],"tree_param":{"num_deleted":"0","num_feature":"86","num_nodes":"23","size_leaf_vector":"1"}},{"base_weights":[-2.4890577E-2,-1.17105E-1,6.0004897E-2,1.3372749E-1,-6.026592E-1,-6.5425324E-4,4.5756157E-2,-0E0,-8.837178E-1,-5.4483694E-1,2.9923934E-1,-1.8340938E-2,-6.2493183E-2,3.1723452E-3,-4.606497E-2,4.9215663E-2,-9.3608005E-3],"categories":[],"categories_nodes":[],"categories_segments":[],"categories_sizes":[],"default_left":[0,0,0,0,0,0,0,0,0,0,0,0,0,0,0,0,0],"id":1,"left_children":[1,3,-1,5,7,9,-1,-1,11,13,15,-1,-1,-1,-1,-1,-1],"loss_changes":[1.8547813E1,1.8813223E1,0E0,1.0786345E1,8.984911E0,1.4514746E1,0E0,0E0,6.1850777E0,7.3952312E0,1.9301773E1,0E0,0E0,0E0,0E0,0E0,0E0],"parents":[2147483647,0,0,1,1,3,3,4,4,5,5,8,8,9,9,10,10],"right_children":[2,4,-1,6,8,10,-1,-1,12,14,16,-1,-1,-1,-1,-1,-1],"split_conditions":[1.0958254E-1,4.2094314E-3,6.0004897E-2,1.0334289E0,3.3333334E-1,-4.5146808E-2,4.5756157E-2,-0E0,1.2677491E-2,-1.3842389E-2,5.120575E-1,-1.8340938E-2,-6.2493183E-2,3.1723452E-3,-4.606497E-2,4.9215663E-2,-9.3608005E-3],"split_indices":[4,27,0,60,85,19,0,0,54,1,65,0,0,0,0,0,0],"split_type":[0,0,0,0,0,0,0,0,0,0,0,0,0,0,0,0,0],"sum_hessian":[1.6291035E2,1.5242238E2,1.0487983E1,1.0084532E2,5.1577053E1,8.6790565E1,1.4054757E1,1.662015E1,3.49569E1,3.066428E1,5.6126286E1,1.5437822E1,1.951908E1,1.1939079E1,1.87252E1,2.2965773E1,3.3160515E1],"tree_param":{"num_deleted":"0","num_feature":"86","num_nodes":"17","size_leaf_vector":"1"}},{"base_weights":[5.760962E-2,-5.059914E-1,2.4182804E-1,3.272724E-2,-9.508638E-1,8.8543457E-1,-3.7408825E-2,-2.210653E-2,-6.3993946E-2,7.120467E-2,6.246706E-1,-2.5910708E-1,5.9468E-1,-0E0,4.8433147E-2,-7.680326E-2,-5.7633992E-2,4.282749E-3,5.7610072E-2,6.961096E-3,-4.9599897E-2],"categories":[],"categories_nodes":[],"categories_segments":[],"categories_sizes":[],"default_left":[0,0,0,0,0,0,0,0,0,0,0,0,0,0,0,0,0,0,0,0,0],"id":2,"left_children":[1,3,5,-1,7,9,11,-1,-1,-1,13,15,17,-1,-1,19,-1,-1,-1,-1,-1],"loss_changes":[1.7669275E1,2.2276745E1,2.3188986E1,0E0,4.408579E0,4.3825226E0,1.27858515E1,0E0,0E0,0E0,5.977436E0,1.0821156E1,6.4906397E0,0E0,0E0,1.1574453E1,0E0,0E0,0E0,0E0,0E0],"parents":[2147483647,0,0,1,1,2,2,4,4,5,5,6,6,10,10,11,11,12,12,15,15],"right_children":[2,4,6,-1,8,10,12,-1,-1,-1,14,16,18,-1,-1,20,-1,-1,-1,-1,-1],"split_conditions":[-4.6750423E-3,-2.257164E-2,4.984183E-1,3.272724E-2,4.3244186E1,1.1526635E-2,1.2504464E-1,-2.210653E-2,-6.3993946E-2,7.120467E-2,9.3727237E-1,9.114434E-2,8.448675E-1,-0E0,4.8433147E-2,8.2608694E-1,-5.7633992E-2,4.282749E-3,5.7610072E-2,6.961096E-3,-4.9599897E-2],"split_indices":[23,78,65,0,39,55,67,0,0,0,51,45,65,0,0,83,0,0,0,0,0],"split_type":[0,0,0,0,0,0,0,0,0,0,0,0,0,0,0,0,0,0,0,0,0],"sum_hessian":[1.6825801E2,4.0884804E1,1.273732E2,1.1136634E1,2.974817E1,3.7992466E1,8.938074E1,1.2723086E1,1.7025085E1,1.0812471E1,2.7179995E1,6.672571E1,2.265503E1,1.0090358E1,1.7089638E1,5.6414135E1,1.0311569E1,1.2539389E1,1.0115641E1,4.6238483E1,1.0175653E1],"tree_param":{"num_deleted":"0","num_feature":"86","num_nodes":"21","size_leaf_vector":"1"}},{"base_weights":[-3.974848E-2,-6.2983185E-1,1.4931631E-1,1.5496154E-2,-1.0870596E0,8.149297E-1,-1.2445487E-1,-7.055872E-2,-3.1250298E-2,1.0576113E0,8.851505E-3,6.8498296E-1,-3.5912606E-1,7.005621E-2,2.783821E-2,7.117295E-3,5.806283E-2,-5.2550095E-1,2.6351744E-2,-1.1173047E-2,-5.3584427E-2],"categories":[],"categories_nodes":[],"categories_segments":[],"categories_sizes":[],"default_left":[0,0,0,0,0,0,0,0,0,0,0,0,0,0,0,0,0,0,0,0,0],"id":3,"left_children":[1,3,5,-1,7,9,11,-1,-1,13,-1,15,17,-1,-1,-1,-1,19,-1,-1,-1],"loss_changes":[1.9363338E1,1.8515787E1,2.4071579E1,0E0,3.202324E0,5.6438427E0,1.8011448E1,0E0,0E0,3.7638988E0,0E0,5.211109E0,1.1097094E1,0E0,0E0,0E0,0E0,9.922714E0,0E0,0E0,0E0],"parents":[2147483647,0,0,1,1,2,2,4,4,5,5,6,6,9,9,11,11,12,12,17,17],"right_children":[2,4,6,-1,8,10,12,-1,-1,14,-1,16,18,-1,-1,-1,-1,20,-1,-1,-1],"split_conditions":[-4.6750423E-3,-1.4907109E-2,4.853997E-1,1.5496154E-2,9.1091776E-1,8.333333E-1,2.299673E-3,-7.055872E-2,-3.1250298E-2,6.0817547E-2,8.851505E-3,7.237661E-1,1.9454163E-1,7.005621E-2,2.783821E-2,7.117295E-3,5.806283E-2,2.8042518E-2,2.6351744E-2,-1.1173047E-2,-5.3584427E-2],"split_indices":[23,1,65,0,57,85,24,0,0,19,0,70,18,0,0,0,0,49,0,0,0],"split_type":[0,0,0,0,0,0,0,0,0,0,0,0,0,0,0,0,0,0,0,0,0],"sum_hessian":[1.7128897E2,4.11269E1,1.3016208E2,1.3494557E1,2.7632341E1,3.7464386E1,9.2697685E1,1.490584E1,1.27265005E1,2.654929E1,1.0915095E1,2.0307423E1,7.239027E1,1.4563527E1,1.1985763E1,1.0197664E1,1.0109759E1,6.1385162E1,1.1005102E1,4.055216E1,2.0833004E1],"tree_param":{"num_deleted":"0","num_feature":"86","num_nodes":"21","size_leaf_vector":"1"}},{"base_weights":[-3.1327665E-2,4.6045575E-1,-2.4382986E-1,-1.0080385E-2,8.2309955E-1,3.3121772E-2,-4.3663758E-1,1.7728552E-2,6.0771983E-2,-2.5127575E-1,-7.045045E-2,-4.4883147E-2,-3.767491E-2,1.3082965E-2,-3.2897078E-2],"categories":[],"categories_nodes":[],"categories_segments":[],"categories_sizes":[],"default_left":[0,0,0,0,0,0,0,0,0,0,0,0,0,0,0],"id":4,"left_children":[1,3,5,-1,7,-1,9,-1,-1,11,-1,-1,13,-1,-1],"loss_changes":[1.7649502E1,1.2448908E1,2.0906223E1,0E0,5.5114613E0,0E0,1.7159998E1,0E0,0E0,1.1427599E1,0E0,0E0,1.2106227E1,0E0,0E0],"parents":[2147483647,0,0,1,1,2,2,4,4,6,6,9,9,12,12],"right_children":[2,4,6,-1,8,-1,10,-1,-1,12,-1,-1,14,-1,-1],"split_conditions":[3.8267773E-1,-6.2486E-3,1.6666667E-1,-1.0080385E-2,7.814421E-2,3.3121772E-2,8.695652E-1,1.7728552E-2,6.0771983E-2,-5.5175282E-2,-7.045045E-2,-4.4883147E-2,1.0114491E-1,1.3082965E-2,-3.2897078E-2],"split_indices":[61,36,85,0,47,0,83,0,0,19,0,0,19,0,0],"split_type":[0,0,0,0,0,0,0,0,0,0,0,0,0,0,0],"sum_hessian":[1.6701955E2,4.9900303E1,1.1711924E2,1.7719278E1,3.2181026E1,2.0027664E1,9.7091576E1,1.565026E1,1.6530766E1,8.268979E1,1.4401785E1,1.962649E1,6.30633E1,4.281713E1,2.024617E1],"tree_param":{"num_deleted":"0","num_feature":"86","num_nodes":"15","size_leaf_vector":"1"}},{"base_weights":[-4.2882938E-2,1.2628621E-1,-5.9504056E-1,-1.6765468E-1,4.2042762E-1,-1.320569E-1,-6.030912E-2,3.0241713E-2,-3.5041094E-1,5.940186E-1,-2.4317198E-2,2.826477E-2,-4.4881023E-2,-5.5506922E-2,-8.26664E-2,3.3822832E-1,5.8960546E-2,-1.5111297E-2,2.6090294E-2,3.3418145E-2,-1.4609009E-2],"categories":[],"categories_nodes":[],"categories_segments":[],"categories_sizes":[],"default_left":[0,0,0,0,0,0,0,0,0,0,0,0,0,0,0,0,0,0,0,0,0],"id":5,"left_children":[1,3,5,7,9,11,-1,-1,13,15,-1,-1,-1,-1,17,19,-1,-1,-1,-1,-1],"loss_changes":[1.608699E1,1.1466883E1,1.1137417E1,9.550298E0,1.0718772E1,1.3460834E1,0E0,0E0,1.0849506E1,7.846689E0,0E0,0E0,0E0,0E0,5.6280494E0,8.673668E0,0E0,0E0,0E0,0E0,0E0],"parents":[2147483647,0,0,1,1,2,2,3,3,4,4,5,5,8,8,9,9,14,14,15,15],"right_children":[2,4,6,8,10,12,-1,-1,14,16,-1,-1,-1,-1,18,20,-1,-1,-1,-1,-1],"split_conditions":[7.826087E-1,9.353048E-1,7.538768E-3,1.3983549E-2,9.812732E-4,-1.5426414E-4,-6.030912E-2,3.0241713E-2,1.8889692E-2,1.3310472E0,-2.4317198E-2,2.826477E-2,-4.4881023E-2,-5.5506922E-2,7.7242055E-4,4.3042597E-1,5.8960546E-2,-1.5111297E-2,2.6090294E-2,3.3418145E-2,-1.4609009E-2],"split_indices":[83,52,5,9,33,33,0,0,9,60,0,0,0,0,37,60,0,0,0,0,0],"split_type":[0,0,0,0,0,0,0,0,0,0,0,0,0,0,0,0,0,0,0,0,0],"sum_hessian":[1.6991644E2,1.3051855E2,3.939788E1,6.532657E1,6.5191986E1,2.32011E1,1.6196783E1,1.1951656E1,5.3374916E1,5.509909E1,1.0092897E1,1.2209987E1,1.0991112E1,1.2991545E1,4.038337E1,3.955728E1,1.5541808E1,3.011155E1,1.0271822E1,2.6026207E1,1.35310755E1],"tree_param":{"num_deleted":"0","num_feature":"86","num_nodes":"21","size_leaf_vector":"1"}},{"base_weights":[2.084332E-2,2.083427E-1,-6.7719954E-1,3.9820468E-1,-2.3357862E-1,6.165093E-3,-1.0413729E0,7.70427E-1,-8.92831E-2,1.0425399E-1,-3.8614422E-2,-6.633573E-2,-2.9239789E-2,8.397288E-3,9.3849254E-1,4.1304108E-2,-5.2317727E-1,-1.3903405E-2,3.208605E-2,6.8212055E-2,2.5215788E-2,7.410169E-4,-6.483289E-2],"categories":[],"categories_nodes":[],"categories_segments":[],"categories_sizes":[],"default_left":[0,0,0,0,0,0,0,0,0,0,0,0,0,0,0,0,0,0,0,0,0,0,0],"id":6,"left_children":[1,3,5,7,9,-1,11,13,15,17,-1,-1,-1,-1,19,-1,21,-1,-1,-1,-1,-1,-1],"loss_changes":[2.2141783E1,1.1324384E1,1.0653639E1,1.719778E1,7.543586E0,0E0,2.2627125E0,5.152485E0,1.6879908E1,5.5047946E0,0E0,0E0,0E0,0E0,6.7983665E0,0E0,1.2145666E1,0E0,0E0,0E0,0E0,0E0,0E0],"parents":[2147483647,0,0,1,1,2,2,3,3,4,4,6,6,7,7,8,8,9,9,14,14,16,16],"right_children":[2,4,6,8,10,-1,12,14,16,18,-1,-1,-1,-1,20,-1,22,-1,-1,-1,-1,-1,-1],"split_conditions":[8.2608694E-1,8.333333E-1,6.7075104E-3,4.9105925E-3,1.0764264E-3,6.165093E-3,2.0536462E-2,6.294785E-1,-5.517808E-3,-1.7151179E-2,-3.8614422E-2,-6.633573E-2,-2.9239789E-2,8.397288E-3,5.34086E-1,4.1304108E-2,1.734223E-4,-1.3903405E-2,3.208605E-2,6.8212055E-2,2.5215788E-2,7.410169E-4,-6.483289E-2],"split_indices":[83,85,53,24,0,0,55,57,18,29,0,0,0,0,63,0,37,0,0,0,0,0,0],"split_type":[0,0,0,0,0,0,0,0,0,0,0,0,0,0,0,0,0,0,0,0,0,0,0],"sum_hessian":[1.6745306E2,1.3266348E2,3.4789585E1,9.3023254E1,3.964023E1,1.0999046E1,2.3790537E1,5.2534874E1,4.0488384E1,2.474385E1,1.4896377E1,1.3333103E1,1.0457435E1,1.2024333E1,4.051054E1,1.265545E1,2.7832933E1,1.4632052E1,1.0111799E1,1.9255943E1,2.1254597E1,1.6917469E1,1.0915463E1],"tree_param":{"num_deleted":"0","num_feature":"86","num_nodes":"23","size_leaf_vector":"1"}},{"base_weights":[-1.3220738E-2,1.3158855E-1,-6.513707E-1,-4.7537106E-1,2.9579106E-1,-1.0029068E0,3.71902E-3,3.48186E-3,-5.5349655E-2,7.3152405E-1,-1.15896486E-1,-2.6472036E-2,-6.900666E-2,-0E0,9.346792E-1,-3.9288014E-2,1.1931616E-1,5.626573E-2,2.3146113E-2,4.2849734E-2,-1.1526269E-2],"categories":[],"categories_nodes":[],"categories_segments":[],"categories_sizes":[],"default_left":[0,0,0,0,0,0,0,0,0,0,0,0,0,0,0,0,0,0,0,0,0],"id":7,"left_children":[1,3,5,7,9,11,-1,-1,-1,13,15,-1,-1,-1,17,-1,19,-1,-1,-1,-1],"loss_changes":[1.5601317E1,1.3785842E1,8.138915E0,1.0316853E1,1.9636143E1,2.8667297E0,0E0,0E0,0E0,7.8843975E0,9.079948E0,0E0,0E0,0E0,3.0535698E0,0E0,1.1268476E1,0E0,0E0,0E0,0E0],"parents":[2147483647,0,0,1,1,2,2,3,3,4,4,5,5,9,9,10,10,14,14,16,16],"right_children":[2,4,6,8,10,12,-1,-1,-1,14,16,-1,-1,-1,18,-1,20,-1,-1,-1,-1],"split_conditions":[8.2608694E-1,-5.192708E-3,4.893701E-3,-1.1349156E-1,4.1394155E-3,-2.0571968E-1,3.71902E-3,3.48186E-3,-5.5349655E-2,-3.8277844E-1,3.043478E-1,-2.6472036E-2,-6.900666E-2,-0E0,6.657064E-1,-3.9288014E-2,3.3637235E-1,5.626573E-2,2.3146113E-2,4.2849734E-2,-1.1526269E-2],"split_indices":[83,23,22,19,24,59,0,0,0,59,83,0,0,0,71,0,62,0,0,0,0],"split_type":[0,0,0,0,0,0,0,0,0,0,0,0,0,0,0,0,0,0,0,0,0],"sum_hessian":[1.6633708E2,1.360921E2,3.0244987E1,2.8444727E1,1.0764737E2,2.0211115E1,1.0033872E1,1.5661929E1,1.2782799E1,5.203703E1,5.561034E1,1.0145654E1,1.0065462E1,1.1524989E1,4.051204E1,1.39543E1,4.165604E1,2.771511E1,1.2796928E1,1.3025838E1,2.8630203E1],"tree_param":{"num_deleted":"0","num_feature":"86","num_nodes":"21","size_leaf_vector":"1"}},{"base_weights":[3.8887043E-2,4.2999712E-1,-1.3679469E-1,6.964286E-1,-2.201792E-2,-8.6170936E-1,7.153179E-2,5.941955E-2,3.7430306E-3,-7.217929E-2,-9.780846E-3,8.570309E-1,-1.9954848E-1,6.643579E-2,1.5306706E-2,-6.1056495E-1,5.5720255E-2,-6.4532273E-3,-4.9447928E-2,1.8576678E-2,-1.6431851E-2],"categories":[],"categories_nodes":[],"categories_segments":[],"categories_sizes":[],"default_left":[0,0,0,0,0,0,0,0,0,0,0,0,0,0,0,0,0,0,0,0,0],"id":8,"left_children":[1,3,5,7,-1,9,11,-1,-1,-1,-1,13,15,-1,-1,17,19,-1,-1,-1,-1],"loss_changes":[1.1612888E1,1.2484828E1,1.7707422E1,1.2199455E1,0E0,9.68906E0,1.9650211E1,0E0,0E0,0E0,0E0,5.581646E0,7.276149E0,0E0,0E0,4.5844517E0,5.3484178E0,0E0,0E0,0E0,0E0],"parents":[2147483647,0,0,1,1,2,2,3,3,5,5,6,6,11,11,12,12,15,15,16,16],"right_children":[2,4,6,8,-1,10,12,-1,-1,-1,-1,14,16,-1,-1,18,20,-1,-1,-1,-1],"split_conditions":[3.8267773E-1,5.152263E-1,-5.5175282E-2,8.333333E-1,-2.201792E-2,9.619457E-1,2.6181438E-3,5.941955E-2,3.7430306E-3,-7.217929E-2,-9.780846E-3,1.0679263E-1,-5.3534275E-1,6.643579E-2,1.5306706E-2,6.0487804E-3,-1.8809015E-2,-6.4532273E-3,-4.9447928E-2,1.8576678E-2,-1.6431851E-2],"split_indices":[61,65,19,85,0,51,24,0,0,0,0,45,60,0,0,5,44,0,0,0,0],"split_type":[0,0,0,0,0,0,0,0,0,0,0,0,0,0,0,0,0,0,0,0,0],"sum_hessian":[1.667281E2,5.140647E1,1.1532163E2,3.959918E1,1.1807291E1,2.5150162E1,9.017146E1,2.1505259E1,1.809392E1,1.2720542E1,1.2429621E1,2.2674828E1,6.749664E1,1.1357206E1,1.131762E1,2.5476307E1,4.2020332E1,1.19172E1,1.3559107E1,2.3228117E1,1.8792215E1],"tree_param":{"num_deleted":"0","num_feature":"86","num_nodes":"21","size_leaf_vector":"1"}},{"base_weights":[-1.5728258E-2,1.3154243E-1,-4.9212015E-1,2.5074396E-1,-2.9744638E-2,-5.5450786E-2,-0E0,-1.0271486E-1,6.056846E-1,2.3472918E-2,-2.357856E-2,1.895837E-1,-4.1568924E-2,4.319894E-1,6.213255E-2,-2.657055E-2,3.268498E-2,3.887641E-2,-4.2368337E-3],"categories":[],"categories_nodes":[],"categories_segments":[],"categories_sizes":[],"default_left":[0,0,0,0,0,0,0,0,0,0,0,0,0,0,0,0,0,0,0],"id":9,"left_children":[1,3,5,7,-1,-1,9,11,13,-1,-1,15,-1,17,-1,-1,-1,-1,-1],"loss_changes":[1.1779699E1,1.11798935E1,1.2075433E1,1.3987251E1,0E0,0E0,5.3238664E0,1.2175999E1,5.43252E0,0E0,0E0,1.4003585E1,0E0,8.212531E0,0E0,0E0,0E0,0E0,0E0],"parents":[2147483647,0,0,1,1,2,2,3,3,6,6,7,7,8,8,11,11,13,13],"right_children":[2,4,6,8,-1,-1,10,12,14,-1,-1,16,-1,18,-1,-1,-1,-1,-1],"split_conditions":[7.826087E-1,1.3123023E-3,1.3915639E-3,8.8019216E-1,-2.9744638E-2,-5.5450786E-2,3.992374E-3,7.4686594E-3,2.1081616E-1,2.3472918E-2,-2.357856E-2,-5.9845578E-2,-4.1568924E-2,3.7925503E-1,6.213255E-2,-2.657055E-2,3.268498E-2,3.887641E-2,-4.2368337E-3],"split_indices":[83,37,23,52,0,0,24,20,47,0,0,19,0,60,0,0,0,0,0],"split_type":[0,0,0,0,0,0,0,0,0,0,0,0,0,0,0,0,0,0,0],"sum_hessian":[1.6546448E2,1.2678455E2,3.867992E1,1.095937E2,1.7190857E1,1.6631454E1,2.2048466E1,5.5126358E1,5.4467335E1,1.1079147E1,1.0969317E1,3.9773903E1,1.5352455E1,4.423895E1,1.0228386E1,1.543519E1,2.4338715E1,2.6324411E1,1.791454E1],"tree_param":{"num_deleted":"0","num_feature":"86","num_nodes":"19","size_leaf_vector":"1"}},{"base_weights":[-3.0599853E-2,1.6602434E-1,-3.8064635E-1,4.7815524E-2,2.3734406E-2,9.074674E-2,-8.603564E-1,3.7239403E-2,-9.02293E-2,2.6995912E-2,-2.8998682E-2,-1.1148117E-2,-5.9337813E-2,-6.083568E-1,1.356444E-1,-6.247374E-2,-3.1177334E-3,4.078361E-2,-1.3176413E-2],"categories":[],"categories_nodes":[],"categories_segments":[],"categories_sizes":[],"default_left":[0,0,0,0,0,0,0,0,0,0,0,0,0,0,0,0,0,0,0],"id":10,"left_children":[1,3,5,-1,7,9,11,-1,13,-1,-1,-1,-1,15,17,-1,-1,-1,-1],"loss_changes":[1.1948472E1,1.2348409E1,1.4284652E1,0E0,7.9474034E0,1.0044506E1,6.0790596E0,0E0,9.830863E0,0E0,0E0,0E0,0E0,8.711084E0,1.6125599E1,0E0,0E0,0E0,0E0],"parents":[2147483647,0,0,1,1,2,2,4,4,5,5,6,6,8,8,13,13,14,14],"right_children":[2,4,6,-1,8,10,12,-1,14,-1,-1,-1,-1,16,18,-1,-1,-1,-1],"split_conditions":[6.5217394E-1,1.6666667E-1,7.2606E-3,4.7815524E-2,-1.222011E0,1.0279845E-2,-8.8526264E-2,3.7239403E-2,1.3592397E-3,2.6995912E-2,-2.8998682E-2,-1.1148117E-2,-5.9337813E-2,3.5091817E-2,5.116194E-1,-6.247374E-2,-3.1177334E-3,4.078361E-2,-1.3176413E-2],"split_indices":[83,85,5,0,76,53,66,0,19,0,0,0,0,49,65,0,0,0,0],"split_type":[0,0,0,0,0,0,0,0,0,0,0,0,0,0,0,0,0,0,0],"sum_hessian":[1.7136998E2,1.09886055E2,6.1483932E1,1.5786014E1,9.4100044E1,3.1314608E1,3.0169323E1,1.220713E1,8.1892914E1,1.8960892E1,1.2353718E1,1.08909445E1,1.9278378E1,2.448245E1,5.741046E1,1.0583593E1,1.3898857E1,2.0941603E1,3.6468857E1],"tree_param":{"num_deleted":"0","num_feature":"86","num_nodes":"19","size_leaf_vector":"1"}},{"base_weights":[3.5122596E-3,-1.333656E-1,5.951055E-1,-7.601162E-1,3.3078022E-2,4.975849E-2,-0E0,-9.343668E-3,-5.8744032E-2,6.2009513E-1,-2.0725304E-1,1.492911E-2,4.5940258E-2,3.1892225E-2,-4.8680818E-1,-3.452136E-2,1.0507918E-2],"categories":[],"categories_nodes":[],"categories_segments":[],"categories_sizes":[],"default_left":[0,0,0,0,0,0,0,0,0,0,0,0,0,0,0,0,0],"id":11,"left_children":[1,3,5,7,9,-1,-1,-1,-1,11,13,-1,-1,-1,15,-1,-1],"loss_changes":[1.3189007E1,1.3835799E1,7.24584E0,6.2544994E0,1.4967544E1,0E0,0E0,0E0,0E0,2.565793E0,1.802605E1,0E0,0E0,0E0,8.289531E0,0E0,0E0],"parents":[2147483647,0,0,1,1,2,2,3,3,4,4,9,9,10,10,14,14],"right_children":[2,4,6,8,10,-1,-1,-1,-1,12,14,-1,-1,-1,16,-1,-1],"split_conditions":[1.0334289E0,-5.192708E-3,1.9360052E0,-1.2668972E-1,4.8845962E-1,4.975849E-2,-0E0,-9.343668E-3,-5.8744032E-2,1.1428285E-3,2.4862203E-3,1.492911E-2,4.5940258E-2,3.1892225E-2,-2.43818E-2,-3.452136E-2,1.0507918E-2],"split_indices":[60,23,60,19,65,0,0,0,0,23,24,0,0,0,66,0,0],"split_type":[0,0,0,0,0,0,0,0,0,0,0,0,0,0,0,0,0],"sum_hessian":[1.6032512E2,1.306922E2,2.9632929E1,2.6802021E1,1.03890175E2,1.7270584E1,1.2362344E1,1.1961615E1,1.4840407E1,2.9840244E1,7.404993E1,1.5495832E1,1.4344411E1,1.7999111E1,5.605082E1,4.349624E1,1.2554579E1],"tree_param":{"num_deleted":"0","num_feature":"86","num_nodes":"17","size_leaf_vector":"1"}},{"base_weights":[-2.0928886E-2,1.2848508E-1,-5.860895E-1,-3.470958E-2,2.3037338E-1,-1.314531E-1,-6.056735E-2,4.0871727E-1,-1.8042924E-1,2.3522919E-2,-3.6846347E-2,9.188433E-1,-1.8320091E-2,-2.8880551E-2,8.205444E-3,6.342662E-2,2.4724511E-2,1.9827625E-2,-2.0665452E-2],"categories":[],"categories_nodes":[],"categories_segments":[],"categories_sizes":[],"default_left":[0,0,0,0,0,0,0,0,0,0,0,0,0,0,0,0,0,0,0],"id":12,"left_children":[1,3,5,-1,7,9,-1,11,13,-1,-1,15,17,-1,-1,-1,-1,-1,-1],"loss_changes":[1.4290119E1,1.1294424E1,9.770809E0,0E0,8.85523E0,8.2866955E0,0E0,1.8369892E1,5.1601562E0,0E0,0E0,4.8839264E0,7.7868457E0,0E0,0E0,0E0,0E0,0E0,0E0],"parents":[2147483647,0,0,1,1,2,2,4,4,5,5,7,7,8,8,11,11,12,12],"right_children":[2,4,6,-1,8,10,-1,12,14,-1,-1,16,18,-1,-1,-1,-1,-1,-1],"split_conditions":[8.2608694E-1,4.6302024E-1,7.538768E-3,-3.470958E-2,8.333333E-1,-1.5426414E-4,-6.056735E-2,4.1394155E-3,2.9151246E-2,2.3522919E-2,-3.6846347E-2,5.481522E-1,-3.2388907E-2,-2.8880551E-2,8.205444E-3,6.342662E-2,2.4724511E-2,1.9827625E-2,-2.0665452E-2],"split_indices":[83,57,5,0,85,33,0,24,9,0,0,63,68,0,0,0,0,0,0],"split_type":[0,0,0,0,0,0,0,0,0,0,0,0,0,0,0,0,0,0,0],"sum_hessian":[1.6679454E2,1.3238979E2,3.4404747E1,1.3840744E1,1.1854904E2,2.0713644E1,1.3691103E1,8.283566E1,3.571338E1,1.041638E1,1.0297263E1,3.732766E1,4.5508007E1,1.6409897E1,1.930348E1,1.9244339E1,1.8083319E1,2.2069942E1,2.3438065E1],"tree_param":{"num_deleted":"0","num_feature":"86","num_nodes":"19","size_leaf_vector":"1"}},{"base_weights":[5.7414686E-3,-4.463691E-2,9.719577E-2,2.5402185E-1,-4.8056945E-1,1.679686E-1,5.2085478E-2,-5.37063E-2,-1.5319067E-1,4.214255E-1,-3.273496E-1,2.3365503E-2,-4.029059E-2,3.1038249E-2,-9.3160225E-3,-3.778775E-2,1.6899703E-2],"categories":[],"categories_nodes":[],"categories_segments":[],"categories_sizes":[],"default_left":[0,0,0,0,0,0,0,0,0,0,0,0,0,0,0,0,0],"id":13,"left_children":[1,-1,3,5,7,9,-1,-1,11,13,15,-1,-1,-1,-1,-1,-1],"loss_changes":[1.3373794E1,0E0,1.3567931E1,7.682218E0,5.9199123E0,1.363254E1,0E0,0E0,9.26387E0,8.83653E0,1.07834425E1,0E0,0E0,0E0,0E0,0E0,0E0],"parents":[2147483647,0,0,2,2,3,3,4,4,5,5,8,8,9,9,10,10],"right_children":[2,-1,4,6,8,10,-1,-1,12,14,16,-1,-1,-1,-1,-1,-1],"split_conditions":[-2.5813958E-2,-4.463691E-2,8.2608694E-1,1.0958254E-1,-3.701785E-4,1.0647848E-1,5.2085478E-2,-5.37063E-2,4.575166E-5,8.369344E-3,5.099333E-2,2.3365503E-2,-4.029059E-2,3.1038249E-2,-9.3160225E-3,-3.778775E-2,1.6899703E-2],"split_indices":[31,0,83,4,37,47,0,0,33,27,50,0,0,0,0,0,0],"split_type":[0,0,0,0,0,0,0,0,0,0,0,0,0,0,0,0,0],"sum_hessian":[1.6167017E2,1.4025327E1,1.4764484E2,1.1670134E2,3.0943491E1,1.06415825E2,1.0285514E1,1.0080506E1,2.0862986E1,7.06268E1,3.578903E1,1.0761684E1,1.01013E1,5.3290684E1,1.7336119E1,2.177976E1,1.4009267E1],"tree_param":{"num_deleted":"0","num_feature":"86","num_nodes":"17","size_leaf_vector":"1"}},{"base_weights":[-1.225674E-2,-7.679023E-2,4.3486487E-2,3.0402327E-1,-2.5705394E-1,-1.2754003E-2,5.5314595E-1,-6.922067E-1,-4.1569874E-2,-2.3996728E-3,8.4388244E-1,-5.749153E-2,-8.931331E-3,1.8297148E-1,-5.324497E-1,6.3240685E-2,1.7459538E-2,-1.943442E-2,2.468676E-2,4.2907535E-3,-5.3352635E-2],"categories":[],"categories_nodes":[],"categories_segments":[],"categories_sizes":[],"default_left":[0,0,0,0,0,0,0,0,0,0,0,0,0,0,0,0,0,0,0,0,0],"id":14,"left_children":[1,3,-1,5,7,-1,9,11,13,-1,15,-1,-1,17,19,-1,-1,-1,-1,-1,-1],"loss_changes":[9.212255E0,1.0510968E1,0E0,7.0139403E0,9.641976E0,0E0,6.136752E0,7.699335E0,7.9271398E0,0E0,4.2631626E0,0E0,0E0,8.929914E0,7.6566415E0,0E0,0E0,0E0,0E0,0E0,0E0],"parents":[2147483647,0,0,1,1,3,3,4,4,6,6,7,7,8,8,10,10,13,13,14,14],"right_children":[2,4,-1,6,8,-1,10,12,14,-1,16,-1,-1,18,20,-1,-1,-1,-1,-1,-1],"split_conditions":[1.21902585E-1,3.8267773E-1,4.3486487E-2,-6.0126507E-3,2.207588E-4,-1.2754003E-2,-6.3362517E-3,1.1396388E-3,8.3556045E-3,-2.3996728E-3,-4.3827698E-2,-5.749153E-2,-8.931331E-3,6.4140044E-2,-2.6766744E-2,6.3240685E-2,1.7459538E-2,-1.943442E-2,2.468676E-2,4.2907535E-3,-5.3352635E-2],"split_indices":[69,61,0,23,23,0,36,20,22,0,44,0,0,47,44,0,0,0,0,0,0],"split_type":[0,0,0,0,0,0,0,0,0,0,0,0,0,0,0,0,0,0,0,0,0],"sum_hessian":[1.6107202E2,1.5104651E2,1.0025508E1,4.8129642E1,1.0291688E2,1.470409E1,3.3425552E1,3.3198586E1,6.9718285E1,1.1056214E1,2.2369337E1,1.6797586E1,1.6401001E1,4.8127186E1,2.1591099E1,1.1135374E1,1.1233962E1,1.6747353E1,3.1379835E1,1.0314673E1,1.1276426E1],"tree_param":{"num_deleted":"0","num_feature":"86","num_nodes":"21","size_leaf_vector":"1"}},{"base_weights":[-9.014023E-2,4.766534E-2,-1.6801514E-1,-2.5194588E-1,4.603673E-2,-1.5429012E-1,-4.6731126E-2,-6.428835E-1,6.0404386E-2,-9.037447E-4,-4.291816E-2,2.8834218E-2,-1.5945874E-2],"categories":[],"categories_nodes":[],"categories_segments":[],"categories_sizes":[],"default_left":[0,0,0,0,0,0,0,0,0,0,0,0,0],"id":15,"left_children":[1,-1,3,5,-1,7,-1,9,11,-1,-1,-1,-1],"loss_changes":[1.3356088E1,0E0,1.4142069E1,9.272216E0,0E0,1.3348195E1,0E0,5.1194363E0,1.7547525E1,0E0,0E0,0E0,0E0],"parents":[2147483647,0,0,2,2,3,3,5,5,7,7,8,8],"right_children":[2,-1,4,6,-1,8,-1,10,12,-1,-1,-1,-1],"split_conditions":[-1.6780879E-1,4.766534E-2,8.454694E-1,7.361738E-1,4.603673E-2,-6.335957E-3,-4.6731126E-2,-2.3189972E-1,4.0619653E-3,-9.037447E-4,-4.291816E-2,2.8834218E-2,-1.5945874E-2],"split_indices":[66,0,71,71,0,30,0,77,24,0,0,0,0],"split_type":[0,0,0,0,0,0,0,0,0,0,0,0,0],"sum_hessian":[1.6236104E2,1.0405951E1,1.519551E2,1.4187827E2,1.007683E1,1.2532344E2,1.6554821E1,3.7791164E1,8.753228E1,1.0087948E1,2.7703217E1,3.6964577E1,5.05677E1],"tree_param":{"num_deleted":"0","num_feature":"86","num_nodes":"13","size_leaf_vector":"1"}},{"base_weights":[1.145336E-2,1.883405E-1,-2.9812774E-1,8.244043E-2,4.6264134E-2,-9.982098E-3,-6.202158E-2,2.6147857E-1,-3.2258928E-2,3.360945E-1,-3.027845E-2,6.349764E-1,4.3646645E-2,3.7372526E-2,-5.7270937E-3,5.0633937E-2,2.1000507E-3,-3.3534613E-2,1.7027691E-2],"categories":[],"categories_nodes":[],"categories_segments":[],"categories_sizes":[],"default_left":[0,0,0,0,0,0,0,0,0,0,0,0,0,0,0,0,0,0,0],"id":16,"left_children":[1,3,5,7,-1,9,-1,11,-1,13,-1,15,17,-1,-1,-1,-1,-1,-1],"loss_changes":[8.8058E0,7.832189E0,1.5706511E1,1.1978367E1,0E0,9.665972E0,0E0,5.909664E0,0E0,5.6155434E0,0E0,5.887334E0,1.03469095E1,0E0,0E0,0E0,0E0,0E0,0E0],"parents":[2147483647,0,0,1,1,2,2,3,3,5,5,7,7,9,9,11,11,12,12],"right_children":[2,4,6,8,-1,10,-1,12,-1,14,-1,16,18,-1,-1,-1,-1,-1,-1],"split_conditions":[6.5217394E-1,8.1067127E-1,1.0520566E-2,6.618926E-1,4.6264134E-2,7.538768E-3,-6.202158E-2,-2.0181043E0,-3.2258928E-2,9.607253E-3,-3.027845E-2,4.1394155E-3,2.7630657E-1,3.7372526E-2,-5.7270937E-3,5.0633937E-2,2.1000507E-3,-3.3534613E-2,1.7027691E-2],"split_indices":[83,70,1,63,0,5,0,40,0,53,0,24,65,0,0,0,0,0,0],"split_type":[0,0,0,0,0,0,0,0,0,0,0,0,0,0,0,0,0,0,0],"sum_hessian":[1.589796E2,1.0162702E2,5.7352573E1,8.994876E1,1.1678255E1,4.4777E1,1.2575573E1,7.281095E1,1.7137812E1,2.8490099E1,1.62869E1,2.5947292E1,4.6863663E1,1.4665862E1,1.3824237E1,1.5315487E1,1.0631804E1,1.3290901E1,3.357276E1],"tree_param":{"num_deleted":"0","num_feature":"86","num_nodes":"19","size_leaf_vector":"1"}},{"base_weights":[3.8484827E-2,1.9296989E-1,-3.737382E-1,3.6203796E-1,-1.7294165E-1,-6.860972E-1,5.4679774E-3,9.496597E-1,1.0823216E-1,1.337861E-2,-4.5047003E-1,1.4400254E-3,-5.5519618E-2,6.59148E-2,2.6670653E-2,-1.0046868E-1,2.823986E-2,-5.0776936E-2,1.4483258E-2,8.965748E-3,-4.39772E-2],"categories":[],"categories_nodes":[],"categories_segments":[],"categories_sizes":[],"default_left":[0,0,0,0,0,0,0,0,0,0,0,0,0,0,0,0,0,0,0,0,0],"id":17,"left_children":[1,3,5,7,9,11,-1,13,15,-1,17,-1,-1,-1,-1,19,-1,-1,-1,-1,-1],"loss_changes":[1.0444068E1,7.4751353E0,6.8688745E0,1.2059024E1,4.8162417E0,8.44343E0,0E0,2.8807564E0,5.6955805E0,0E0,1.03974495E1,0E0,0E0,0E0,0E0,9.159752E0,0E0,0E0,0E0,0E0,0E0],"parents":[2147483647,0,0,1,1,2,2,3,3,4,4,5,5,7,7,8,8,10,10,15,15],"right_children":[2,4,6,8,10,12,-1,14,16,-1,18,-1,-1,-1,-1,20,-1,-1,-1,-1,-1],"split_conditions":[7.3913044E-1,8.333333E-1,1.13711255E-2,-3.8255276E-3,-1.2668972E-1,-1.1786849E-2,5.4679774E-3,8.6526257E-1,7.7836037E-1,1.337861E-2,-5.9845578E-2,1.4400254E-3,-5.5519618E-2,6.59148E-2,2.6670653E-2,1.0555731E-1,2.823986E-2,-5.0776936E-2,1.4483258E-2,8.965748E-3,-4.39772E-2],"split_indices":[83,85,29,27,26,29,0,57,62,0,26,0,0,0,0,45,0,0,0,0,0],"split_type":[0,0,0,0,0,0,0,0,0,0,0,0,0,0,0,0,0,0,0,0,0],"sum_hessian":[1.6215405E2,1.1851408E2,4.3639973E1,8.125458E1,3.72595E1,2.6373997E1,1.7265978E1,2.356356E1,5.769102E1,1.4275656E1,2.298384E1,1.0082449E1,1.6291548E1,1.1219768E1,1.2343792E1,3.9977695E1,1.7713322E1,1.2898939E1,1.0084902E1,2.988632E1,1.0091377E1],"tree_param":{"num_deleted":"0","num_feature":"86","num_nodes":"21","size_leaf_vector":"1"}},{"base_weights":[-1.1299399E-2,1.1840004E-1,-4.293518E-1,3.953682E-2,2.9180396E-2,8.41537E-3,-5.133743E-2,-5.5539656E-1,1.9268684E-1,3.076826E-2,-2.743928E-2,-4.580933E-2,-6.0641766E-3,4.6725073E-1,-2.811952E-1,5.816441E-3,4.003991E-2,-4.468463E-2,1.2959938E-2],"categories":[],"categories_nodes":[],"categories_segments":[],"categories_sizes":[],"default_left":[0,0,0,0,0,0,0,0,0,0,0,0,0,0,0,0,0,0,0],"id":18,"left_children":[1,3,5,-1,7,9,-1,11,13,-1,-1,-1,-1,15,17,-1,-1,-1,-1],"loss_changes":[9.051528E0,7.5045276E0,1.0458623E1,0E0,1.088727E1,8.369942E0,0E0,3.678484E0,1.1769778E1,0E0,0E0,0E0,0E0,6.493285E0,1.1301318E1,0E0,0E0,0E0,0E0],"parents":[2147483647,0,0,1,1,2,2,4,4,5,5,7,7,8,8,13,13,14,14],"right_children":[2,4,6,-1,8,10,-1,12,14,-1,-1,-1,-1,16,18,-1,-1,-1,-1],"split_conditions":[7.826087E-1,-1.222011E0,1.1881083E-2,3.953682E-2,-4.4120396E-3,-1.5426414E-4,-5.133743E-2,9.880657E-1,1.0114491E-1,3.076826E-2,-2.743928E-2,-4.580933E-2,-6.0641766E-3,7.552691E-3,1.7161211E-2,5.816441E-3,4.003991E-2,-4.468463E-2,1.2959938E-2],"split_indices":[83,76,53,0,23,33,0,57,19,0,0,0,0,6,55,0,0,0,0],"split_type":[0,0,0,0,0,0,0,0,0,0,0,0,0,0,0,0,0,0,0],"sum_hessian":[1.6442613E2,1.2585698E2,3.8569153E1,1.3692227E1,1.1216475E2,2.2730766E1,1.58383875E1,2.3857994E1,8.8306755E1,1.0915631E1,1.1815135E1,1.2297087E1,1.1560907E1,5.6054302E1,3.2252453E1,2.8119076E1,2.7935228E1,1.4897962E1,1.735449E1],"tree_param":{"num_deleted":"0","num_feature":"86","num_nodes":"19","size_leaf_vector":"1"}},{"base_weights":[3.4731902E-2,4.1546795E-1,-1.3437715E-1,6.162729E-1,-1.1720903E-2,-3.094429E-1,3.4291866E-1,2.6102838E-1,5.5948306E-2,2.7301533E-2,-4.544813E-1,5.1966276E-2,-2.9744215E-3,4.0311784E-2,-1.8076416E-2,-5.21712E-2,-2.3760112E-1,-1.6089603E-3,-4.5610737E-2],"categories":[],"categories_nodes":[],"categories_segments":[],"categories_sizes":[],"default_left":[0,0,0,0,0,0,0,0,0,0,0,0,0,0,0,0,0,0,0],"id":19,"left_children":[1,3,5,7,-1,9,11,13,-1,-1,15,-1,-1,-1,-1,-1,17,-1,-1],"loss_changes":[1.0331093E1,6.626066E0,9.35912E0,6.376093E0,0E0,1.0379589E1,8.580697E0,8.398048E0,0E0,0E0,8.632326E0,0E0,0E0,0E0,0E0,0E0,7.215957E0,0E0,0E0],"parents":[2147483647,0,0,1,1,2,2,3,3,5,5,6,6,7,7,10,10,16,16],"right_children":[2,4,6,8,-1,10,12,14,-1,-1,16,-1,-1,-1,-1,-1,18,-1,-1],"split_conditions":[3.788527E-1,3.6185354E-3,8.013035E-1,-2.7599283E-2,-1.1720903E-2,-2.2830278E-2,2.0544779E-2,-1.2481276E-1,5.5948306E-2,2.7301533E-2,-5.296499E-2,5.1966276E-2,-2.9744215E-3,4.0311784E-2,-1.8076416E-2,-5.21712E-2,5.977452E-3,-1.6089603E-3,-4.5610737E-2],"split_indices":[61,30,65,19,0,2,3,19,0,0,44,0,0,0,0,0,24,0,0],"split_type":[0,0,0,0,0,0,0,0,0,0,0,0,0,0,0,0,0,0,0],"sum_hessian":[1.581521E2,4.8374702E1,1.09777405E2,3.7112957E1,1.1261748E1,8.072847E1,2.9048937E1,2.275241E1,1.4360545E1,1.1202002E1,6.952647E1,1.01496525E1,1.8899284E1,1.2058076E1,1.0694335E1,1.756263E1,5.1963837E1,4.0750973E1,1.1212862E1],"tree_param":{"num_deleted":"0","num_feature":"86","num_nodes":"19","size_leaf_vector":"1"}},{"base_weights":[3.8098905E-2,4.6406657E-2,-5.0614506E-2,-4.0544868E-2,6.0586955E-2,-5.1368505E-2,6.5298E-1,5.78312E-2,-5.1247098E-2,1.6699303E-2,4.543759E-2,-9.107989E-3,1.4792045E-2],"categories":[],"categories_nodes":[],"categories_segments":[],"categories_sizes":[],"default_left":[0,0,0,0,0,0,0,0,0,0,0,0,0],"id":20,"left_children":[1,-1,3,-1,5,7,9,11,-1,-1,-1,-1,-1],"loss_changes":[1.3143171E1,0E0,1.286203E1,0E0,8.865105E0,1.2065134E1,1.3049173E0,5.8672776E0,0E0,0E0,0E0,0E0,0E0],"parents":[2147483647,0,0,2,2,4,4,5,5,6,6,7,7],"right_children":[2,-1,4,-1,6,8,10,12,-1,-1,-1,-1,-1],"split_conditions":[-1.5926796E-1,4.6406657E-2,-1.105757E-1,-4.0544868E-2,1.2504464E-1,1.0147968E-1,7.248359E-2,2.1617243E-3,-5.1247098E-2,1.6699303E-2,4.543759E-2,-9.107989E-3,1.4792045E-2],"split_indices":[66,0,66,0,67,67,69,23,0,0,0,0,0],"split_type":[0,0,0,0,0,0,0,0,0,0,0,0,0],"sum_hessian":[1.6375148E2,1.4086912E1,1.4966457E2,1.8409077E1,1.312555E2,1.1101871E2,2.0236776E1,1.00575645E2,1.0443064E1,1.0205467E1,1.0031308E1,4.998702E1,5.0588627E1],"tree_param":{"num_deleted":"0","num_feature":"86","num_nodes":"13","size_leaf_vector":"1"}},{"base_weights":[4.925117E-2,-3.8354583E-2,1.1149709E-1,5.3528886E-2,4.239891E-2,1.3350227E-1,-4.5687728E-2,1.425653E-2,6.623261E-1,9.158272E-3,-1.8194204E-2,5.7543237E-2,-0E0],"categories":[],"categories_nodes":[],"categories_segments":[],"categories_sizes":[],"default_left":[0,0,0,0,0,0,0,0,0,0,0,0,0],"id":21,"left_children":[1,-1,3,5,-1,7,-1,9,11,-1,-1,-1,-1],"loss_changes":[8.466283E0,0E0,6.5001855E0,1.1282595E1,0E0,8.445856E0,0E0,7.1679106E0,7.881138E0,0E0,0E0,0E0,0E0],"parents":[2147483647,0,0,2,2,3,3,5,5,7,7,8,8],"right_children":[2,-1,4,6,-1,8,-1,10,12,-1,-1,-1,-1],"split_conditions":[4.116115E-1,-3.8354583E-2,9.652207E-3,4.887704E-2,4.239891E-2,1.5180475E0,-4.5687728E-2,1.8399032E-2,4.909297E-1,9.158272E-3,-1.8194204E-2,5.7543237E-2,-0E0],"split_indices":[57,0,32,17,0,58,0,54,12,0,0,0,0],"split_type":[0,0,0,0,0,0,0,0,0,0,0,0,0],"sum_hessian":[1.6522017E2,1.078939E1,1.5443079E2,1.4428279E2,1.0147991E1,1.3415633E2,1.0126458E1,1.1046367E2,2.369266E1,7.689573E1,3.356794E1,1.3128622E1,1.0564038E1],"tree_param":{"num_deleted":"0","num_feature":"86","num_nodes":"13","size_leaf_vector":"1"}},{"base_weights":[2.5407502E-2,1.2961334E-1,-3.8740203E-2,-3.210477E-2,2.1761775E-1,5.299147E-1,-3.93259E-2,7.981856E-1,-4.5098104E-3,-3.5863534E-2,1.3677604E-1,1.2766932E-2,5.324321E-2,3.986086E-2,-6.077636E-3],"categories":[],"categories_nodes":[],"categories_segments":[],"categories_sizes":[],"default_left":[0,0,0,0,0,0,0,0,0,0,0,0,0,0,0],"id":22,"left_children":[1,3,-1,-1,5,7,9,11,-1,-1,13,-1,-1,-1,-1],"loss_changes":[1.3407268E1,9.798435E0,0E0,0E0,1.0428108E1,9.8766365E0,8.701241E0,5.539654E0,0E0,0E0,9.981212E0,0E0,0E0,0E0,0E0],"parents":[2147483647,0,0,1,1,4,4,5,5,6,6,7,7,10,10],"right_children":[2,4,-1,-1,6,8,10,12,-1,-1,14,-1,-1,-1,-1],"split_conditions":[9.130435E-1,3.8713035E-1,-3.8740203E-2,-3.210477E-2,-6.5662345E-5,7.224739E-2,-8.286437E-2,3.043478E-1,-4.5098104E-3,-3.5863534E-2,-1.5606749E-3,1.2766932E-2,5.324321E-2,3.986086E-2,-6.077636E-3],"split_indices":[83,58,0,0,37,67,44,83,0,0,22,0,0,0,0],"split_type":[0,0,0,0,0,0,0,0,0,0,0,0,0,0,0],"sum_hessian":[1.593536E2,1.4184511E2,1.7508484E1,1.375913E1,1.2808598E2,5.751155E1,7.057443E1,4.0056503E1,1.745505E1,1.403568E1,5.6538754E1,1.3964019E1,2.6092484E1,1.5419202E1,4.1119553E1],"tree_param":{"num_deleted":"0","num_feature":"86","num_nodes":"15","size_leaf_vector":"1"}},{"base_weights":[6.8738304E-2,4.26458E-2,-2.4479006E-3,-5.0888735E-1,1.6113031E-1,-8.642397E-1,4.3758084E-3,7.622933E-1,-6.6915065E-2,-6.373227E-2,-2.0432899E-2,9.774157E-1,1.2964743E-2,3.93257E-2,-3.0778417E-1,6.1086345E-2,3.0949146E-2,-2.3872703E-2,2.0657053E-2],"categories":[],"categories_nodes":[],"categories_segments":[],"categories_sizes":[],"default_left":[0,0,0,0,0,0,0,0,0,0,0,0,0,0,0,0,0,0,0],"id":23,"left_children":[1,-1,3,5,7,9,-1,11,13,-1,-1,15,-1,-1,17,-1,-1,-1,-1],"loss_changes":[9.337834E0,0E0,1.2775494E1,8.142244E0,1.6038244E1,3.7641697E0,0E0,3.0998974E0,1.7662283E1,0E0,0E0,9.8682785E-1,0E0,0E0,8.409095E0,0E0,0E0,0E0,0E0],"parents":[2147483647,0,0,2,2,3,3,4,4,5,5,7,7,8,8,11,11,14,14],"right_children":[2,-1,4,6,8,10,-1,12,14,-1,-1,16,-1,-1,18,-1,-1,-1,-1],"split_conditions":[-1.604019E-1,4.26458E-2,-4.5146808E-2,9.5354176E-1,4.984183E-1,1.5504883E-3,4.3758084E-3,2.9309215E-2,2.299673E-3,-6.373227E-2,-2.0432899E-2,-5.947563E-2,1.2964743E-2,3.93257E-2,1.9454163E-1,6.1086345E-2,3.0949146E-2,-2.3872703E-2,2.0657053E-2],"split_indices":[66,0,19,52,65,36,0,69,24,0,0,66,0,0,18,0,0,0,0],"split_type":[0,0,0,0,0,0,0,0,0,0,0,0,0,0,0,0,0,0,0],"sum_hessian":[1.6471594E2,1.2911198E1,1.5180475E2,3.6695507E1,1.1510923E2,2.2818344E1,1.3877164E1,3.1133165E1,8.397607E1,1.0943066E1,1.1875279E1,2.1006931E1,1.0126234E1,1.7894205E1,6.608186E1,1.0893975E1,1.0112956E1,5.387808E1,1.2203786E1],"tree_param":{"num_deleted":"0","num_feature":"86","num_nodes":"19","size_leaf_vector":"1"}},{"base_weights":[-2.9940823E-2,3.8807053E-2,-9.439853E-2,-5.4649365E-1,6.443762E-2,-2.0413981E-1,-6.657776E-2,6.200436E-1,-1.1112464E-1,-2.8905455E-2,1.757935E-2,5.0491143E-2,-1.7961562E-3,3.1160174E-2,-3.3169144E-1,-3.7764906E-4,-3.2163244E-2],"categories":[],"categories_nodes":[],"categories_segments":[],"categories_sizes":[],"default_left":[0,0,0,0,0,0,0,0,0,0,0,0,0,0,0,0,0],"id":24,"left_children":[1,-1,3,5,7,9,-1,11,13,-1,-1,-1,-1,-1,15,-1,-1],"loss_changes":[8.40953E0,0E0,1.0911039E1,1.0183288E1,1.1075103E1,6.2019444E0,0E0,7.102601E0,1.411589E1,0E0,0E0,0E0,0E0,0E0,6.6900806E0,0E0,0E0],"parents":[2147483647,0,0,2,2,3,3,4,4,5,5,7,7,8,8,14,14],"right_children":[2,-1,4,6,8,10,-1,12,14,-1,-1,-1,-1,-1,16,-1,-1],"split_conditions":[-1.6303794E-1,3.8807053E-2,-3.3506144E-2,-4.1592335E-3,4.7971982E-1,1.3489887E-2,-6.657776E-2,7.5583053E-3,2.4862203E-3,-2.8905455E-2,1.757935E-2,5.0491143E-2,-1.7961562E-3,3.1160174E-2,1.2027897E-2,-3.7764906E-4,-3.2163244E-2],"split_indices":[66,0,19,24,65,5,0,7,24,0,0,0,0,0,53,0,0],"split_type":[0,0,0,0,0,0,0,0,0,0,0,0,0,0,0,0,0],"sum_hessian":[1.6075386E2,1.097037E1,1.497835E2,3.847139E1,1.113121E2,2.7755173E1,1.0716216E1,2.6256235E1,8.505587E1,1.6674171E1,1.1081002E1,1.6227037E1,1.0029198E1,1.9120287E1,6.5935585E1,3.297548E1,3.2960106E1],"tree_param":{"num_deleted":"0","num_feature":"86","num_nodes":"17","size_leaf_vector":"1"}},{"base_weights":[-2.2090934E-2,2.9367545E-1,-1.6409007E-1,8.590005E-3,3.8052388E-2,-2.5120005E-1,3.1355996E-2,-2.2737969E-2,2.1025853E-2,-6.041956E-2,-5.9901994E-1,-4.2648103E-2,2.3097609E-1,-5.3394786E-3,-8.5317373E-1,2.6176617E-2,-2.6481709E-2,-2.4530388E-2,-5.6917924E-2],"categories":[],"categories_nodes":[],"categories_segments":[],"categories_sizes":[],"default_left":[0,0,0,0,0,0,0,0,0,0,0,0,0,0,0,0,0,0,0],"id":25,"left_children":[1,3,5,7,-1,9,-1,-1,-1,11,13,-1,15,-1,17,-1,-1,-1,-1],"loss_changes":[7.3174024E0,6.647741E0,7.9005384E0,6.3953943E0,0E0,6.7008862E0,0E0,0E0,0E0,1.5848918E1,4.3186636E0,0E0,1.141427E1,0E0,1.7059402E0,0E0,0E0,0E0,0E0],"parents":[2147483647,0,0,1,1,2,2,3,3,5,5,9,9,10,10,12,12,14,14],"right_children":[2,4,6,8,-1,10,-1,-1,-1,12,14,-1,16,-1,18,-1,-1,-1,-1],"split_conditions":[3.788527E-1,-3.0603008E-2,1.8279241E-2,7.2076996E-3,3.8052388E-2,4.5647644E-3,3.1355996E-2,-2.2737969E-2,2.1025853E-2,-4.4120396E-3,-4.172372E-2,-4.2648103E-2,7.258503E-1,-5.3394786E-3,-3.2569245E-1,2.6176617E-2,-2.6481709E-2,-2.4530388E-2,-5.6917924E-2],"split_indices":[61,68,7,6,0,24,0,0,0,23,44,0,71,0,60,0,0,0,0],"split_type":[0,0,0,0,0,0,0,0,0,0,0,0,0,0,0,0,0,0,0],"sum_hessian":[1.6140872E2,4.9519287E1,1.1188944E2,3.1523237E1,1.7996048E1,1.0152115E2,1.0368291E1,1.4672442E1,1.6850796E1,6.650444E1,3.501671E1,1.7452599E1,4.9051838E1,1.2541225E1,2.2475485E1,3.5745922E1,1.3305915E1,1.1247316E1,1.1228168E1],"tree_param":{"num_deleted":"0","num_feature":"86","num_nodes":"19","size_leaf_vector":"1"}},{"base_weights":[7.543989E-2,1.6368172E-1,-2.6043078E-2,8.275565E-2,4.0119886E-2,-3.070761E-1,2.2996874E-1,4.3493523E-3,-3.4670893E-2,4.355293E-1,-8.7928034E-2,-4.761291E-3,3.2325752E-2,-2.6081527E-2,2.1661764E-2],"categories":[],"categories_nodes":[],"categories_segments":[],"categories_sizes":[],"default_left":[0,0,0,0,0,0,0,0,0,0,0,0,0,0,0],"id":26,"left_children":[1,3,-1,5,-1,7,9,-1,-1,11,13,-1,-1,-1,-1],"loss_changes":[8.411524E0,7.0473022E0,0E0,7.2320375E0,0E0,5.371146E0,6.0482297E0,0E0,0E0,6.375268E0,8.495839E0,0E0,0E0,0E0,0E0],"parents":[2147483647,0,0,1,1,3,3,5,5,6,6,9,9,10,10],"right_children":[2,4,-1,6,-1,8,10,-1,-1,12,14,-1,-1,-1,-1],"split_conditions":[1.3123023E-3,5.2126337E-2,-2.6043078E-2,-5.598849E-2,4.0119886E-2,-9.27346E-3,6.0097414E-1,4.3493523E-3,-3.4670893E-2,3.043478E-1,-2.4524203E-2,-4.761291E-3,3.2325752E-2,-2.6081527E-2,2.1661764E-2],"split_indices":[37,9,0,72,0,3,63,0,0,83,66,0,0,0,0],"split_type":[0,0,0,0,0,0,0,0,0,0,0,0,0,0,0],"sum_hessian":[1.5791655E2,1.383382E2,1.9578344E1,1.2392313E2,1.4415074E1,3.3485554E1,9.043757E1,1.6832573E1,1.665298E1,5.4889248E1,3.554832E1,1.5634312E1,3.9254936E1,1.950642E1,1.60419E1],"tree_param":{"num_deleted":"0","num_feature":"86","num_nodes":"15","size_leaf_vector":"1"}},{"base_weights":[-4.4361774E-2,-1.5037654E-1,4.680944E-1,9.0209465E-4,-5.3024495E-1,4.770938E-2,-3.4305628E-3,-5.343124E-1,1.8327293E-1,-8.065093E-1,1.9890466E-3,3.9773122E-3,-4.7648054E-2,3.4261975E-1,-2.3092933E-2,-1.2593065E-2,-5.81398E-2,-8.4981695E-3,3.0602545E-2],"categories":[],"categories_nodes":[],"categories_segments":[],"categories_sizes":[],"default_left":[0,0,0,0,0,0,0,0,0,0,0,0,0,0,0,0,0,0,0],"id":27,"left_children":[1,3,5,7,9,-1,-1,11,13,15,-1,-1,-1,17,-1,-1,-1,-1,-1],"loss_changes":[8.918882E0,7.889267E0,7.4850764E0,9.660578E0,6.2545395E0,0E0,0E0,6.615206E0,7.7765136E0,4.792883E0,0E0,0E0,0E0,8.4650345E0,0E0,0E0,0E0,0E0,0E0],"parents":[2147483647,0,0,1,1,2,2,3,3,4,4,7,7,8,8,9,9,13,13],"right_children":[2,4,6,8,10,-1,-1,12,14,16,-1,-1,-1,18,-1,-1,-1,-1,-1],"split_conditions":[1.3665184E-2,4.9105925E-3,5.8098655E-4,-6.0126507E-3,8.363943E-3,4.770938E-2,-3.4305628E-3,-7.417121E-2,7.258503E-1,5.4070977E-3,1.9890466E-3,3.9773122E-3,-4.7648054E-2,-6.800875E-2,-2.3092933E-2,-1.2593065E-2,-5.81398E-2,-8.4981695E-3,3.0602545E-2],"split_indices":[7,24,15,23,24,0,0,77,71,31,0,0,0,66,0,0,0,0,0],"split_type":[0,0,0,0,0,0,0,0,0,0,0,0,0,0,0,0,0,0,0],"sum_hessian":[1.6245671E2,1.3535643E2,2.7100271E1,9.733011E1,3.802633E1,1.391025E1,1.31900215E1,2.4106165E1,7.322394E1,2.5451677E1,1.257465E1,1.0005851E1,1.4100313E1,5.922047E1,1.4003472E1,1.07321E1,1.4719579E1,2.0402832E1,3.881764E1],"tree_param":{"num_deleted":"0","num_feature":"86","num_nodes":"19","size_leaf_vector":"1"}},{"base_weights":[2.3364656E-2,1.08875155E-1,-3.1548794E-2,2.6121995E-1,-2.3549564E-1,5.1334478E-2,1.3210467E-1,1.1154754E-1,-5.413323E-1,-3.342293E-1,3.0149594E-1,-7.4783615E-3,1.8538602E-2,-5.5673208E-2,6.5870187E-3,9.9998405E-3,-3.9028894E-2,2.714524E-2,-1.7306277E-3],"categories":[],"categories_nodes":[],"categories_segments":[],"categories_sizes":[],"default_left":[0,0,0,0,0,0,0,0,0,0,0,0,0,0,0,0,0,0,0],"id":28,"left_children":[1,3,-1,5,7,-1,9,11,13,15,17,-1,-1,-1,-1,-1,-1,-1,-1],"loss_changes":[8.864099E0,7.4528837E0,0E0,9.465612E0,4.722529E0,0E0,6.842467E0,1.5032523E0,9.27802E0,5.7149134E0,5.207249E0,0E0,0E0,0E0,0E0,0E0,0E0,0E0,0E0],"parents":[2147483647,0,0,1,1,3,3,4,4,6,6,7,7,8,8,9,9,10,10],"right_children":[2,4,-1,6,8,-1,10,12,14,16,18,-1,-1,-1,-1,-1,-1,-1,-1],"split_conditions":[9.130435E-1,8.333333E-1,-3.1548794E-2,4.5756584E1,-1.1349156E-1,5.1334478E-2,7.546764E-4,8.4628755E-1,-2.0007894E-3,-1.1637503E-3,1.02242626E-1,-7.4783615E-3,1.8538602E-2,-5.5673208E-2,6.5870187E-3,9.9998405E-3,-3.9028894E-2,2.714524E-2,-1.7306277E-3],"split_indices":[83,85,0,38,19,0,21,58,18,22,19,0,0,0,0,0,0,0,0],"split_type":[0,0,0,0,0,0,0,0,0,0,0,0,0,0,0,0,0,0,0],"sum_hessian":[1.5712582E2,1.3983795E2,1.7287863E1,9.731779E1,4.2520172E1,1.2930734E1,8.438705E1,2.0062675E1,2.2457497E1,2.2068644E1,6.231841E1,1.0013455E1,1.004922E1,1.186563E1,1.05918665E1,1.01946945E1,1.1873949E1,3.608368E1,2.6234728E1],"tree_param":{"num_deleted":"0","num_feature":"86","num_nodes":"19","size_leaf_vector":"1"}},{"base_weights":[1.9730603E-2,1.6684665E-1,-4.4566572E-1,7.4450664E-2,3.5670217E-2,-8.316059E-2,-4.7323313E-2,2.4347271E-1,-5.1860934E-1,2.434356E-2,-3.473165E-2,-1.9854194E-1,5.39095E-1,-3.086089E-3,-4.8859503E-2,2.4307052E-2,-2.6586754E-2,4.5476105E-2,1.3693854E-2],"categories":[],"categories_nodes":[],"categories_segments":[],"categories_sizes":[],"default_left":[0,0,0,0,0,0,0,0,0,0,0,0,0,0,0,0,0,0,0],"id":29,"left_children":[1,3,5,7,-1,9,-1,11,13,-1,-1,15,17,-1,-1,-1,-1,-1,-1],"loss_changes":[1.0897805E1,5.994401E0,6.748873E0,1.0628382E1,0E0,8.500545E0,0E0,1.0928892E1,4.756565E0,0E0,0E0,7.946987E0,4.5325756E0,0E0,0E0,0E0,0E0,0E0,0E0],"parents":[2147483647,0,0,1,1,2,2,3,3,5,5,7,7,8,8,11,11,12,12],"right_children":[2,4,6,8,-1,10,-1,12,14,-1,-1,16,18,-1,-1,-1,-1,-1,-1],"split_conditions":[7.826087E-1,6.7161344E-2,7.538768E-3,2.0757275E-2,3.5670217E-2,-1.6452365E-4,-4.7323313E-2,3.0897446E-2,3.1806722E-2,2.434356E-2,-3.473165E-2,-1.222011E0,6.072297E-3,-3.086089E-3,-4.8859503E-2,2.4307052E-2,-2.6586754E-2,4.5476105E-2,1.3693854E-2],"split_indices":[83,80,5,79,0,33,0,67,50,0,0,76,5,0,0,0,0,0,0],"split_type":[0,0,0,0,0,0,0,0,0,0,0,0,0,0,0,0,0,0,0],"sum_hessian":[1.574893E2,1.2031348E2,3.7175827E1,1.0404395E2,1.6269524E1,2.235782E1,1.4818006E1,8.1558014E1,2.2485943E1,1.1591826E1,1.0765994E1,3.2681995E1,4.887602E1,1.1941344E1,1.05446E1,1.0449668E1,2.2232325E1,1.9222195E1,2.9653824E1],"tree_param":{"num_deleted":"0","num_feature":"86","num_nodes":"19","size_leaf_vector":"1"}},{"base_weights":[-2.650293E-3,-1.0076426E-1,5.2823526E-1,3.0821549E-2,-6.762996E-1,4.7875263E-2,-2.547989E-4,-3.9567653E-2,1.3581106E-1,-6.9629177E-3,-5.5268403E-2,3.6163318E-1,-3.5891554E-1,2.7917344E-2,-1.0531208E-3,1.43219E-2,-3.3578243E-2],"categories":[],"categories_nodes":[],"categories_segments":[],"categories_sizes":[],"default_left":[0,0,0,0,0,0,0,0,0,0,0,0,0,0,0,0,0],"id":30,"left_children":[1,3,5,7,9,-1,-1,-1,11,-1,-1,13,15,-1,-1,-1,-1],"loss_changes":[8.412819E0,1.0472015E1,5.8611145E0,9.747931E0,5.6451225E0,0E0,0E0,0E0,1.1377081E1,0E0,0E0,5.3169336E0,6.6700964E0,0E0,0E0,0E0,0E0],"parents":[2147483647,0,0,1,1,2,2,3,3,4,4,8,8,11,11,12,12],"right_children":[2,4,6,8,10,-1,-1,-1,12,-1,-1,14,16,-1,-1,-1,-1],"split_conditions":[2.1316297E-1,1.02242626E-1,3.626098E-2,-1.3155198E-2,-3.1438794E-2,4.7875263E-2,-2.547989E-4,-3.9567653E-2,7.826087E-1,-6.9629177E-3,-5.5268403E-2,2.0749932E-3,3.2417618E-3,2.7917344E-2,-1.0531208E-3,1.43219E-2,-3.3578243E-2],"split_indices":[47,19,54,21,68,0,0,0,83,0,0,32,5,0,0,0,0],"split_type":[0,0,0,0,0,0,0,0,0,0,0,0,0,0,0,0,0],"sum_hessian":[1.6031265E2,1.3614922E2,2.4163435E1,1.1144257E2,2.4706646E1,1.3051034E1,1.1112402E1,1.1771313E1,9.967126E1,1.1664481E1,1.3042164E1,6.8757484E1,3.0913774E1,4.528325E1,2.3474237E1,1.0011851E1,2.0901922E1],"tree_param":{"num_deleted":"0","num_feature":"86","num_nodes":"17","size_leaf_vector":"1"}},{"base_weights":[-3.9901968E-2,6.664445E-2,-4.8432946E-1,2.3749259E-1,-3.2054463E-1,-4.167168E-3,-4.868431E-2,7.4205214E-1,2.7583467E-2,8.685465E-3,-5.332351E-1,1.4910186E-2,5.3070504E-2,2.6797757E-2,-1.9515936E-1,-4.8982795E-2,-9.217757E-3,-2.7702728E-2,2.8453255E-2],"categories":[],"categories_nodes":[],"categories_segments":[],"categories_sizes":[],"default_left":[0,0,0,0,0,0,0,0,0,0,0,0,0,0,0,0,0,0,0],"id":31,"left_children":[1,3,5,7,9,-1,-1,11,13,-1,15,-1,-1,-1,17,-1,-1,-1,-1],"loss_changes":[7.7054157E0,8.71332E0,5.987903E0,9.586565E0,4.360797E0,0E0,0E0,3.3299894E0,7.583949E0,0E0,4.1471395E0,0E0,0E0,0E0,1.3016836E1,0E0,0E0,0E0,0E0],"parents":[2147483647,0,0,1,1,2,2,3,3,4,4,7,7,8,8,10,10,14,14],"right_children":[2,4,6,8,10,-1,-1,12,14,-1,16,-1,-1,-1,18,-1,-1,-1,-1],"split_conditions":[8.2608694E-1,8.333333E-1,1.1613394E-2,-3.0428465E-3,-2.1510755E-1,-4.167168E-3,-4.868431E-2,2.4458644E-1,3.312346E-3,8.685465E-3,3.3295453E-2,1.4910186E-2,5.3070504E-2,2.6797757E-2,7.7899903E-1,-4.8982795E-2,-9.217757E-3,-2.7702728E-2,2.8453255E-2],"split_indices":[83,85,53,27,77,0,0,63,7,0,45,0,0,0,70,0,0,0,0],"split_type":[0,0,0,0,0,0,0,0,0,0,0,0,0,0,0,0,0,0,0],"sum_hessian":[1.60162E2,1.296943E2,3.0467695E1,9.043468E1,3.9259632E1,1.750143E1,1.2966267E1,2.5684713E1,6.474997E1,1.1725292E1,2.753434E1,1.1687768E1,1.3996944E1,1.943523E1,4.5314735E1,1.1159807E1,1.6374533E1,3.1110487E1,1.420425E1],"tree_param":{"num_deleted":"0","num_feature":"86","num_nodes":"19","size_leaf_vector":"1"}},{"base_weights":[-2.8664473E-2,4.497615E-1,-1.3617437E-1,2.727198E-3,4.787903E-2,-7.3725194E-1,-0E0,-1.8175552E-2,-5.5926777E-2,5.18042E-1,-1.7550401E-1,4.930663E-2,8.353375E-3,-3.6387047E-1,3.4528366E-1,5.139952E-3,-3.1222118E-2,3.5922643E-2,-1.9689982E-3],"categories":[],"categories_nodes":[],"categories_segments":[],"categories_sizes":[],"default_left":[0,0,0,0,0,0,0,0,0,0,0,0,0,0,0,0,0,0,0],"id":32,"left_children":[1,3,5,-1,-1,7,9,-1,-1,11,13,-1,-1,15,17,-1,-1,-1,-1],"loss_changes":[8.040761E0,5.594302E0,1.0528177E1,0E0,0E0,2.8281984E0,9.690448E0,0E0,0E0,4.155622E0,7.913379E0,0E0,0E0,7.280332E0,3.1757808E0,0E0,0E0,0E0,0E0],"parents":[2147483647,0,0,1,1,2,2,5,5,6,6,9,9,10,10,13,13,14,14],"right_children":[2,4,6,-1,-1,8,10,-1,-1,12,14,-1,-1,16,18,-1,-1,-1,-1],"split_conditions":[-1.2815995E-2,-5.418978E-3,-5.051169E-3,2.727198E-3,4.787903E-2,-1.121129E-1,4.8710304E-1,-1.8175552E-2,-5.5926777E-2,3.788527E-1,5.418465E-3,4.930663E-2,8.353375E-3,3.6726547E-3,1.0874877E0,5.139952E-3,-3.1222118E-2,3.5922643E-2,-1.9689982E-3],"split_indices":[15,36,23,0,0,19,65,0,0,61,36,0,0,7,51,0,0,0,0],"split_type":[0,0,0,0,0,0,0,0,0,0,0,0,0,0,0,0,0,0,0],"sum_hessian":[1.5474594E2,2.7638634E1,1.271073E2,1.627596E1,1.1362673E1,2.274015E1,1.0436715E2,1.260256E1,1.013759E1,2.5999508E1,7.8367645E1,1.0243395E1,1.5756113E1,5.791381E1,2.045383E1,2.0830063E1,3.7083748E1,1.0073536E1,1.0380296E1],"tree_param":{"num_deleted":"0","num_feature":"86","num_nodes":"19","size_leaf_vector":"1"}},{"base_weights":[1.2266353E-2,3.8472075E-2,-5.5555645E-2,-1.4443327E-1,2.7381746E-2,2.93566E-1,-3.022482E-1,5.4457617E-1,-1.2551861E-2,-4.3291178E-1,1.2047041E-2,2.0268967E-3,4.4902634E-2,-7.7818013E-3,-3.8592886E-2],"categories":[],"categories_nodes":[],"categories_segments":[],"categories_sizes":[],"default_left":[0,0,0,0,0,0,0,0,0,0,0,0,0,0,0],"id":33,"left_children":[1,-1,3,5,-1,7,9,11,-1,13,-1,-1,-1,-1,-1],"loss_changes":[8.329445E0,0E0,7.9536047E0,9.048784E0,0E0,4.9055233E0,6.93301E0,4.1765842E0,0E0,7.1030645E0,0E0,0E0,0E0,0E0,0E0],"parents":[2147483647,0,0,2,2,3,3,5,5,6,6,7,7,9,9],"right_children":[2,-1,4,6,-1,8,10,12,-1,14,-1,-1,-1,-1,-1],"split_conditions":[-1.604019E-1,3.8472075E-2,1.371802E-2,2.8177432E-3,2.7381746E-2,6.080513E-1,-2.43818E-2,1.2476606E-3,-1.2551861E-2,-1.0388988E-3,1.2047041E-2,2.0268967E-3,4.4902634E-2,-7.7818013E-3,-3.8592886E-2],"split_indices":[66,0,22,7,0,71,66,7,0,27,0,0,0,0,0],"split_type":[0,0,0,0,0,0,0,0,0,0,0,0,0,0,0],"sum_hessian":[1.589768E2,1.234005E1,1.4663676E2,1.2861256E2,1.8024193E1,3.3670284E1,9.494228E1,2.3173279E1,1.04970045E1,7.684452E1,1.8097757E1,1.01283655E1,1.3044913E1,4.323236E1,3.3612164E1],"tree_param":{"num_deleted":"0","num_feature":"86","num_nodes":"15","size_leaf_vector":"1"}},{"base_weights":[8.579883E-2,4.2135276E-2,2.043901E-2,-3.6340278E-2,8.386597E-2,2.6331523E-1,-1.2472398E-1,-1.872754E-2,4.785095E-1,3.943899E-1,-3.8991615E-1,6.324543E-2,1.2898241E-2,-1.0974925E-2,5.0309133E-2,6.625349E-3,-4.9177438E-2],"categories":[],"categories_nodes":[],"categories_segments":[],"categories_sizes":[],"default_left":[0,0,0,0,0,0,0,0,0,0,0,0,0,0,0,0,0],"id":34,"left_children":[1,-1,3,-1,5,7,9,-1,11,13,15,-1,-1,-1,-1,-1,-1],"loss_changes":[7.601082E0,0E0,6.8456078E0,0E0,5.0707364E0,1.0172772E1,8.756173E0,0E0,9.049739E0,8.374093E0,1.3238236E1,0E0,0E0,0E0,0E0,0E0,0E0],"parents":[2147483647,0,0,2,2,4,4,5,5,6,6,8,8,9,9,10,10],"right_children":[2,-1,4,-1,6,8,10,-1,12,14,16,-1,-1,-1,-1,-1,-1],"split_conditions":[-1.604019E-1,4.2135276E-2,-9.276219E-3,-3.6340278E-2,4.1394155E-3,6.5610075E-1,-6.0630336E-2,-1.872754E-2,7.9753435E-1,-6.658577E-3,6.530595E-3,6.324543E-2,1.2898241E-2,-1.0974925E-2,5.0309133E-2,6.625349E-3,-4.9177438E-2],"split_indices":[66,0,23,0,24,57,66,0,57,36,5,0,0,0,0,0,0],"split_type":[0,0,0,0,0,0,0,0,0,0,0,0,0,0,0,0,0],"sum_hessian":[1.5473926E2,1.1232836E1,1.4350642E2,1.0286284E1,1.3322014E2,7.172898E1,6.1491158E1,1.779043E1,5.3938553E1,2.0499365E1,4.099179E1,1.0677355E1,4.32612E1,1.0470633E1,1.0028732E1,2.2127201E1,1.886459E1],"tree_param":{"num_deleted":"0","num_feature":"86","num_nodes":"17","size_leaf_vector":"1"}},{"base_weights":[2.2702303E-2,-7.43553E-2,5.3015405E-1,-4.4985604E-2,2.3043086E-3,4.422323E-2,2.3033684E-4,1.4005198E-1,-3.9063403E-1,-3.5415107E-1,3.1455892E-1,-8.0353385E-1,1.7193412E-2,5.4668053E-3,-3.6321703E-2,9.6850545E-4,3.7285235E-2,-1.9685656E-2,-5.6259673E-2],"categories":[],"categories_nodes":[],"categories_segments":[],"categories_sizes":[],"default_left":[0,0,0,0,0,0,0,0,0,0,0,0,0,0,0,0,0,0,0],"id":35,"left_children":[1,3,5,-1,7,-1,-1,9,11,13,15,17,-1,-1,-1,-1,-1,-1,-1],"loss_changes":[8.130841E0,8.813389E0,4.844658E0,0E0,6.9045234E0,0E0,0E0,8.297923E0,1.0343792E1,4.472887E0,8.928186E0,2.2445583E0,0E0,0E0,0E0,0E0,0E0,0E0,0E0],"parents":[2147483647,0,0,1,1,2,2,4,4,7,7,8,8,9,9,10,10,11,11],"right_children":[2,4,6,-1,8,-1,-1,10,12,14,16,18,-1,-1,-1,-1,-1,-1,-1],"split_conditions":[2.1316297E-1,-1.3984952E-2,5.495664E-2,-4.4985604E-2,2.0544779E-2,4.422323E-2,2.3033684E-4,-3.3506144E-2,3.527715E-2,-5.5290893E-2,7.669947E-2,2.4728233E-2,1.7193412E-2,5.4668053E-3,-3.6321703E-2,9.6850545E-4,3.7285235E-2,-1.9685656E-2,-5.6259673E-2],"split_indices":[47,21,49,0,3,0,0,19,9,18,47,29,0,0,0,0,0,0,0],"split_type":[0,0,0,0,0,0,0,0,0,0,0,0,0,0,0,0,0,0,0],"sum_hessian":[1.6236055E2,1.3684361E2,2.551694E1,1.0828322E1,1.2601529E2,1.4719925E1,1.0797013E1,9.3971054E1,3.204423E1,2.4104559E1,6.98665E1,2.0539904E1,1.1504326E1,1.093203E1,1.3172529E1,4.223007E1,2.7636427E1,1.0146863E1,1.0393041E1],"tree_param":{"num_deleted":"0","num_feature":"86","num_nodes":"19","size_leaf_vector":"1"}},{"base_weights":[-1.7454788E-2,4.4166687E-1,-1.007877E-1,-4.180203E-5,3.9670967E-2,-3.223173E-2,-6.7197294E-3,3.312208E-1,-2.151804E-1,5.3429073E-1,-1.5085894E-2,-5.3744227E-1,7.288743E-2,-3.3193265E-4,4.5774326E-2,-4.990408E-2,-9.726712E-3,3.1386778E-2,-1.5773857E-2],"categories":[],"categories_nodes":[],"categories_segments":[],"categories_sizes":[],"default_left":[0,0,0,0,0,0,0,0,0,0,0,0,0,0,0,0,0,0,0],"id":36,"left_children":[1,3,5,-1,-1,-1,7,9,11,13,-1,15,17,-1,-1,-1,-1,-1,-1],"loss_changes":[5.95953E0,3.7981834E0,6.714329E0,0E0,0E0,0E0,8.105927E0,5.8123474E0,6.716748E0,7.031657E0,0E0,5.0567207E0,8.510914E0,0E0,0E0,0E0,0E0,0E0,0E0],"parents":[2147483647,0,0,1,1,2,2,6,6,7,7,8,8,9,9,11,11,12,12],"right_children":[2,4,6,-1,-1,-1,8,10,12,14,-1,16,18,-1,-1,-1,-1,-1,-1],"split_conditions":[1.6666667E-1,3.5884045E-2,-6.9350326E-3,-4.180203E-5,3.9670967E-2,-3.223173E-2,3.7964776E-1,5.1958547E-3,1.6090493E-3,-2.7415594E-3,-1.5085894E-2,5.879968E-1,5.275775E-1,-3.3193265E-4,4.5774326E-2,-4.990408E-2,-9.726712E-3,3.1386778E-2,-1.5773857E-2],"split_indices":[85,50,36,0,0,0,12,24,23,23,0,12,71,0,0,0,0,0,0],"split_type":[0,0,0,0,0,0,0,0,0,0,0,0,0,0,0,0,0,0,0],"sum_hessian":[1.5449168E2,2.2888384E1,1.316033E2,1.045251E1,1.2435874E1,1.8386606E1,1.132167E2,4.2786266E1,7.043043E1,3.263092E1,1.0155346E1,3.299752E1,3.7432907E1,1.3786986E1,1.8843937E1,1.3141654E1,1.9855867E1,1.5265108E1,2.2167799E1],"tree_param":{"num_deleted":"0","num_feature":"86","num_nodes":"19","size_leaf_vector":"1"}},{"base_weights":[4.8113536E-2,1.4139903E-1,-3.3612272E-1,3.260887E-1,-1.1237307E-1,-3.919902E-2,1.3092684E-3,3.912684E-2,1.756788E-1,-5.3655875E-1,4.3106815E-1,-0E0,4.40986E-2,7.8878197E-4,-4.047723E-2,4.5820605E-2,-5.2194465E-3,2.2009948E-2,-1.9326722E-2],"categories":[],"categories_nodes":[],"categories_segments":[],"categories_sizes":[],"default_left":[0,0,0,0,0,0,0,0,0,0,0,0,0,0,0,0,0,0,0],"id":37,"left_children":[1,3,5,7,9,-1,-1,-1,11,13,15,17,-1,-1,-1,-1,-1,-1,-1],"loss_changes":[5.653955E0,6.0201316E0,5.085667E0,4.8546405E0,1.2712599E1,0E0,0E0,0E0,7.095373E0,4.756015E0,6.4573193E0,8.1342E0,0E0,0E0,0E0,0E0,0E0,0E0,0E0],"parents":[2147483647,0,0,1,1,2,2,3,3,4,4,8,8,9,9,10,10,11,11],"right_children":[2,4,6,8,10,-1,-1,-1,12,14,16,18,-1,-1,-1,-1,-1,-1,-1],"split_conditions":[8.2608694E-1,1.0647848E-1,7.924955E-2,-6.0630336E-2,2.1316297E-1,-3.919902E-2,1.3092684E-3,3.912684E-2,7.9685414E-1,2.5366405E-1,3.5581703E-3,5.233657E-2,4.40986E-2,7.8878197E-4,-4.047723E-2,4.5820605E-2,-5.2194465E-3,2.2009948E-2,-1.9326722E-2],"split_indices":[83,47,47,66,47,0,0,0,65,12,2,19,0,0,0,0,0,0,0],"split_type":[0,0,0,0,0,0,0,0,0,0,0,0,0,0,0,0,0,0,0],"sum_hessian":[1.5595659E2,1.26207886E2,2.9748697E1,7.310951E1,5.3098377E1,1.2906645E1,1.6842052E1,1.6913784E1,5.6195724E1,2.9931711E1,2.3166666E1,4.5804935E1,1.0390791E1,1.0090805E1,1.9840908E1,1.1876752E1,1.1289914E1,2.1352999E1,2.4451935E1],"tree_param":{"num_deleted":"0","num_feature":"86","num_nodes":"19","size_leaf_vector":"1"}},{"base_weights":[4.4968873E-2,1.4327753E-1,-4.4231057E-1,2.9685172E-1,-1.7479873E-1,7.880344E-3,-4.6916787E-2,-1.3810329E-1,5.253719E-1,2.6703237E-2,-4.7769207E-1,2.7818888E-2,-5.0166225E-1,5.2447714E-2,2.590437E-1,-5.646295E-2,-4.75213E-3,-4.1516777E-2,-5.9251343E-3,3.7575796E-2,-1.911753E-2],"categories":[],"categories_nodes":[],"categories_segments":[],"categories_sizes":[],"default_left":[0,0,0,0,0,0,0,0,0,0,0,0,0,0,0,0,0,0,0,0,0],"id":38,"left_children":[1,3,5,7,9,-1,-1,11,13,-1,15,-1,17,-1,19,-1,-1,-1,-1,-1,-1],"loss_changes":[7.49815E0,6.443313E0,8.032549E0,8.923019E0,9.469042E0,0E0,0E0,8.145043E0,7.751795E0,0E0,7.4272394E0,0E0,2.4618726E0,0E0,1.3027036E1,0E0,0E0,0E0,0E0,0E0,0E0],"parents":[2147483647,0,0,1,1,2,2,3,3,4,4,7,7,8,8,10,10,12,12,14,14],"right_children":[2,4,6,8,10,-1,-1,12,14,-1,16,-1,18,-1,20,-1,-1,-1,-1,-1,-1],"split_conditions":[8.695652E-1,4.9105925E-3,-3.7072839E-3,-3.7475408E-3,-8.003483E-3,7.880344E-3,-4.6916787E-2,-1.4907109E-2,2.0335673E-3,2.6703237E-2,5.367723E-1,2.7818888E-2,3.3597464E-3,5.2447714E-2,6.3378716E-1,-5.646295E-2,-4.75213E-3,-4.1516777E-2,-5.9251343E-3,3.7575796E-2,-1.911753E-2],"split_indices":[83,24,36,23,18,0,0,1,24,0,71,0,1,0,70,0,0,0,0,0,0],"split_type":[0,0,0,0,0,0,0,0,0,0,0,0,0,0,0,0,0,0,0,0,0],"sum_hessian":[1.5482652E2,1.2959242E2,2.5234093E1,8.765283E1,4.1939594E1,1.1638532E1,1.359556E1,3.0175741E1,5.747709E1,1.2228287E1,2.971131E1,1.0092096E1,2.0083645E1,1.8261744E1,3.9215347E1,1.0174279E1,1.953703E1,1.0041775E1,1.0041871E1,2.2174019E1,1.7041328E1],"tree_param":{"num_deleted":"0","num_feature":"86","num_nodes":"21","size_leaf_vector":"1"}},{"base_weights":[9.484335E-3,-2.601165E-1,2.14499E-1,-5.366238E-1,1.1483343E-1,3.9096188E-2,3.3386763E-2,-1.2090715E-1,-5.9770674E-2,2.6293566E-2,-1.9220095E-2,4.6178278E-2,-1.7335911E-1,-2.9615859E-2,2.2394221E-2,1.326919E-1,-4.432655E-1,3.674232E-2,-1.6927876E-2,-4.7733348E-2,7.0521994E-3],"categories":[],"categories_nodes":[],"categories_segments":[],"categories_sizes":[],"default_left":[0,0,0,0,0,0,0,0,0,0,0,0,0,0,0,0,0,0,0,0,0],"id":39,"left_children":[1,3,5,7,9,-1,11,13,-1,-1,-1,-1,15,-1,-1,17,19,-1,-1,-1,-1],"loss_changes":[7.9724593E0,6.546952E0,8.3364105E0,9.610176E0,5.7666807E0,0E0,1.1915109E1,6.537453E0,0E0,0E0,0E0,0E0,4.406266E0,0E0,0E0,7.406106E0,8.633757E0,0E0,0E0,0E0,0E0],"parents":[2147483647,0,0,1,1,2,2,3,3,4,4,6,6,7,7,12,12,15,15,16,16],"right_children":[2,4,6,8,10,-1,12,14,-1,-1,-1,-1,16,-1,-1,18,20,-1,-1,-1,-1],"split_conditions":[1.5371336E-3,1.0017403E0,2.6181438E-3,4.7494328E1,-9.210019E-3,3.9096188E-2,4.984183E-1,2.8242534E-1,-5.9770674E-2,2.6293566E-2,-1.9220095E-2,4.6178278E-2,-1.1382829E-3,-2.9615859E-2,2.2394221E-2,1.1054255E-2,4.1254893E-2,3.674232E-2,-1.6927876E-2,-4.7733348E-2,7.0521994E-3],"split_indices":[23,52,24,39,31,0,65,63,0,0,0,0,32,0,0,54,4,0,0,0,0],"split_type":[0,0,0,0,0,0,0,0,0,0,0,0,0,0,0,0,0,0,0,0,0],"sum_hessian":[1.4231323E2,6.1146755E1,8.116647E1,3.5098694E1,2.6048063E1,1.8702389E1,6.246408E1,2.233803E1,1.2760663E1,1.436654E1,1.1681522E1,1.1210772E1,5.125331E1,1.2288155E1,1.0049876E1,2.4083048E1,2.7170261E1,1.0420612E1,1.3662436E1,1.4242337E1,1.2927924E1],"tree_param":{"num_deleted":"0","num_feature":"86","num_nodes":"21","size_leaf_vector":"1"}},{"base_weights":[-1.977382E-2,-1.3142888E-1,3.9744854E-1,1.12110525E-1,-4.3275386E-1,4.9508527E-2,7.2294034E-2,5.7926244E-1,-2.667712E-1,-6.087249E-1,1.1478495E-2,-1.911568E-2,2.6371151E-2,4.4829108E-2,1.000462E-2,-3.0631525E-2,-1.0969916E-2,-7.335739E-4,-7.9185873E-1,1.9900588E-2,-2.2777868E-2,-1.8952964E-2,-5.6080874E-2],"categories":[],"categories_nodes":[],"categories_segments":[],"categories_sizes":[],"default_left":[0,0,0,0,0,0,0,0,0,0,0,0,0,0,0,0,0,0,0,0,0,0,0],"id":40,"left_children":[1,3,5,7,9,-1,11,13,15,17,-1,-1,-1,-1,-1,-1,19,-1,21,-1,-1,-1,-1],"loss_changes":[7.2029524E0,9.068953E0,6.102365E0,1.2282932E1,6.6037436E0,0E0,4.815713E0,3.4458132E0,3.3198655E0,4.6896725E0,0E0,0E0,0E0,0E0,0E0,0E0,4.4062266E0,0E0,3.9781532E0,0E0,0E0,0E0,0E0],"parents":[2147483647,0,0,1,1,2,2,3,3,4,4,6,6,7,7,8,8,9,9,16,16,18,18],"right_children":[2,4,6,8,10,-1,12,14,16,18,-1,-1,-1,-1,-1,-1,20,-1,22,-1,-1,-1,-1],"split_conditions":[8.013035E-1,4.984183E-1,3.1398423E-2,8.333333E-1,5.418465E-3,4.9508527E-2,4.47047E-2,1.6980816E-2,9.4110316E-1,2.9383965E-3,1.1478495E-2,-1.911568E-2,2.6371151E-2,4.4829108E-2,1.000462E-2,-3.0631525E-2,-1.1833474E-1,-7.335739E-4,3.398773E-1,1.9900588E-2,-2.2777868E-2,-1.8952964E-2,-5.6080874E-2],"split_indices":[65,65,4,85,36,0,3,55,51,7,0,0,0,0,0,0,19,0,62,0,0,0,0],"split_type":[0,0,0,0,0,0,0,0,0,0,0,0,0,0,0,0,0,0,0,0,0,0,0],"sum_hessian":[1.5306934E2,1.21483246E2,3.1586094E1,6.7347305E1,5.4135937E1,1.03558E1,2.1230295E1,3.0041695E1,3.7305614E1,4.2955193E1,1.1180742E1,1.0591349E1,1.0638947E1,1.546828E1,1.4573415E1,1.5101529E1,2.2204086E1,1.0505005E1,3.2450188E1,1.1502563E1,1.0701522E1,1.5499864E1,1.6950325E1],"tree_param":{"num_deleted":"0","num_feature":"86","num_nodes":"23","size_leaf_vector":"1"}},{"base_weights":[-3.786802E-2,4.6909592E-1,-1.286944E-1,1.2510039E-3,4.006649E-2,8.5855104E-2,-3.342693E-1,6.3498116E-1,-3.1715292E-1,1.2769215E-2,-5.3751904E-1,5.6014072E-2,9.5084505E-3,1.3892526E-3,-3.601421E-2,-7.6744926E-1,1.5518676E-2,-5.4904383E-2,-1.11774355E-2],"categories":[],"categories_nodes":[],"categories_segments":[],"categories_sizes":[],"default_left":[0,0,0,0,0,0,0,0,0,0,0,0,0,0,0,0,0,0,0],"id":41,"left_children":[1,3,5,-1,-1,7,9,11,13,-1,15,-1,-1,-1,-1,17,-1,-1,-1],"loss_changes":[6.9974394E0,3.2981262E0,5.7584257E0,0E0,0E0,1.4362996E1,8.1348715E0,5.58432E0,5.2878957E0,0E0,1.0012046E1,0E0,0E0,0E0,0E0,6.7500954E0,0E0,0E0,0E0],"parents":[2147483647,0,0,1,1,2,2,5,5,6,6,7,7,8,8,10,10,15,15],"right_children":[2,4,6,-1,-1,8,10,12,14,-1,16,-1,-1,-1,-1,18,-1,-1,-1],"split_conditions":[1.6666667E-1,3.5884045E-2,4.984183E-1,1.2510039E-3,4.006649E-2,8.333333E-1,2.9383965E-3,3.3350548E-1,-1.1349156E-1,1.2769215E-2,-2.2100098E-1,5.6014072E-2,9.5084505E-3,1.3892526E-3,-3.601421E-2,1.2829075E-2,1.5518676E-2,-5.4904383E-2,-1.11774355E-2],"split_indices":[85,50,65,0,0,85,7,46,19,0,75,0,0,0,0,31,0,0,0],"split_type":[0,0,0,0,0,0,0,0,0,0,0,0,0,0,0,0,0,0,0],"sum_hessian":[1.5039545E2,2.2050549E1,1.2834491E2,1.0025887E1,1.2024662E1,6.2848553E1,6.549635E1,2.6463182E1,3.638537E1,1.659721E1,4.8899143E1,1.18218775E1,1.4641305E1,1.9975992E1,1.6409376E1,3.8634983E1,1.0264161E1,2.3280151E1,1.535483E1],"tree_param":{"num_deleted":"0","num_feature":"86","num_nodes":"19","size_leaf_vector":"1"}},{"base_weights":[-1.4621044E-2,1.5481228E-1,-2.3960741E-1,4.429717E-2,3.848505E-2,-4.5144287E-1,2.0723876E-1,-2.3024806E-1,2.5177947E-1,-1.4440703E-1,-4.2099252E-2,-1.2152185E-2,3.1465285E-2,-4.5765772E-1,1.1768151E-2,-1.4767045E-2,4.7024912E-1,-3.2674644E-2,2.965509E-2,-1.9292552E-3,-4.168781E-2,4.677057E-2,5.016751E-3],"categories":[],"categories_nodes":[],"categories_segments":[],"categories_sizes":[],"default_left":[0,0,0,0,0,0,0,0,0,0,0,0,0,0,0,0,0,0,0,0,0,0,0],"id":42,"left_children":[1,3,5,-1,7,9,11,13,15,17,-1,-1,-1,19,-1,-1,21,-1,-1,-1,-1,-1,-1],"loss_changes":[5.81664E0,7.248287E0,6.3351207E0,0E0,4.41479E0,5.178564E0,4.307405E0,3.7228267E0,5.3009124E0,1.036459E1,0E0,0E0,0E0,3.5500426E0,0E0,0E0,5.1839657E0,0E0,0E0,0E0,0E0,0E0,0E0],"parents":[2147483647,0,0,1,1,2,2,4,4,5,5,6,6,7,7,8,8,9,9,13,13,16,16],"right_children":[2,4,6,-1,8,10,12,14,16,18,-1,-1,-1,20,-1,-1,22,-1,-1,-1,-1,-1,-1],"split_conditions":[4.7368053E-1,6.275563E-3,1.1065024E-1,4.429717E-2,-5.598849E-2,1.3399E-3,-4.685924E-4,8.9874554E-1,-1.1350473E-1,1.0936154E-3,-4.2099252E-2,-1.2152185E-2,3.1465285E-2,7.1449596E-1,1.1768151E-2,-1.4767045E-2,-9.890179E-4,-3.2674644E-2,2.965509E-2,-1.9292552E-3,-4.168781E-2,4.677057E-2,5.016751E-3],"split_indices":[40,53,72,0,72,32,32,11,66,21,0,0,0,11,0,0,1,0,0,0,0,0,0],"split_type":[0,0,0,0,0,0,0,0,0,0,0,0,0,0,0,0,0,0,0,0,0,0,0],"sum_hessian":[1.5039136E2,8.571118E1,6.468017E1,1.0739086E1,7.49721E1,4.402353E1,2.065664E1,3.2932095E1,4.2040005E1,2.555699E1,1.8466537E1,1.0084844E1,1.0571795E1,2.228144E1,1.0650652E1,1.1765558E1,3.0274445E1,1.5267611E1,1.0289379E1,1.1185893E1,1.1095549E1,1.2613754E1,1.7660692E1],"tree_param":{"num_deleted":"0","num_feature":"86","num_nodes":"23","size_leaf_vector":"1"}},{"base_weights":[1.8180342E-2,1.5626183E-1,-3.261843E-1,7.15495E-2,3.3894576E-2,-6.1412904E-2,-4.8671704E-2,3.73652E-1,-1.789157E-1,-1.9870594E-2,1.8765828E-2,5.6660837E-1,9.6532766E-4,-3.771523E-2,3.6942247E-2,7.4597034E-3,4.3252584E-2,2.2503138E-2,-1.5684014E-2],"categories":[],"categories_nodes":[],"categories_segments":[],"categories_sizes":[],"default_left":[0,0,0,0,0,0,0,0,0,0,0,0,0,0,0,0,0,0,0],"id":43,"left_children":[1,3,5,7,-1,9,-1,11,13,-1,-1,15,-1,-1,17,-1,-1,-1,-1],"loss_changes":[7.189796E0,4.662203E0,7.2380533E0,7.2332244E0,0E0,4.8217053E0,0E0,2.8922577E0,6.574894E0,0E0,0E0,3.2361517E0,0E0,0E0,5.7661557E0,0E0,0E0,0E0,0E0],"parents":[2147483647,0,0,1,1,2,2,3,3,5,5,7,7,8,8,11,11,14,14],"right_children":[2,4,6,8,-1,10,-1,12,14,-1,-1,16,-1,-1,18,-1,-1,-1,-1],"split_conditions":[1.2316057E-2,7.1869326E-1,6.5217394E-1,3.788527E-1,3.3894576E-2,7.7836037E-1,-4.8671704E-2,2.2179107E-1,3.145387E-1,-1.9870594E-2,1.8765828E-2,-1.5553321E-4,9.6532766E-4,-3.771523E-2,3.5710947E-4,7.4597034E-3,4.3252584E-2,2.2503138E-2,-1.5684014E-2],"split_indices":[1,61,83,61,0,62,0,59,70,0,0,23,0,0,3,0,0,0,0],"split_type":[0,0,0,0,0,0,0,0,0,0,0,0,0,0,0,0,0,0,0],"sum_hessian":[1.4948918E2,1.0730087E2,4.218831E1,9.3453026E1,1.3847841E1,3.0827175E1,1.1361134E1,4.2317974E1,5.1135056E1,1.7603148E1,1.3224028E1,2.6827827E1,1.5490146E1,1.3395899E1,3.773916E1,1.1949614E1,1.4878213E1,1.732619E1,2.0412968E1],"tree_param":{"num_deleted":"0","num_feature":"86","num_nodes":"19","size_leaf_vector":"1"}},{"base_weights":[1.232173E-2,8.7593675E-2,-2.745594E-2,-2.0232702E-2,1.7912993E-1,3.3918613E-1,-9.8589726E-2,5.730923E-1,5.378316E-2,-4.314048E-1,1.4371106E-2,4.4490486E-2,8.602094E-3,-1.2837148E-2,3.1308178E-2,-1.5515873E-4,-4.114245E-2],"categories":[],"categories_nodes":[],"categories_segments":[],"categories_sizes":[],"default_left":[0,0,0,0,0,0,0,0,0,0,0,0,0,0,0,0,0],"id":44,"left_children":[1,3,-1,-1,5,7,9,11,13,15,-1,-1,-1,-1,-1,-1,-1],"loss_changes":[6.069352E0,5.800183E0,0E0,0E0,4.8791485E0,4.530565E0,5.3035445E0,4.5384674E0,5.973356E0,3.6249342E0,0E0,0E0,0E0,0E0,0E0,0E0,0E0],"parents":[2147483647,0,0,1,1,4,4,5,5,6,6,7,7,8,8,9,9],"right_children":[2,4,-1,-1,6,8,10,12,14,16,-1,-1,-1,-1,-1,-1,-1],"split_conditions":[9.130435E-1,4.4614738E-1,-2.745594E-2,-2.0232702E-2,4.5647644E-3,8.333333E-1,3.2753304E-2,7.965868E-3,5.652174E-1,7.562565E-5,1.4371106E-2,4.4490486E-2,8.602094E-3,-1.2837148E-2,3.1308178E-2,-1.5515873E-4,-4.114245E-2],"split_indices":[83,58,0,0,24,85,9,16,83,37,0,0,0,0,0,0,0],"split_type":[0,0,0,0,0,0,0,0,0,0,0,0,0,0,0,0,0],"sum_hessian":[1.425708E2,1.2661739E2,1.5953408E1,1.9145721E1,1.0747167E2,6.826673E1,3.9204937E1,3.6771626E1,3.1495108E1,2.1129114E1,1.807582E1,1.972576E1,1.7045868E1,2.0662233E1,1.0832875E1,1.0692847E1,1.0436268E1],"tree_param":{"num_deleted":"0","num_feature":"86","num_nodes":"17","size_leaf_vector":"1"}},{"base_weights":[-7.6134135E-3,1.4520048E-1,-2.550049E-1,3.6981102E-2,4.001039E-2,-7.2092706E-1,4.3879256E-2,-4.334667E-1,2.8729206E-1,-1.3650887E-2,-5.3305168E-2,4.0338454E-1,-2.2976458E-2,6.06453E-3,-3.7937287E-2,5.2042704E-2,7.986794E-2,5.3477883E-3,3.2737147E-2,4.1296393E-2,-1.0745017E-2],"categories":[],"categories_nodes":[],"categories_segments":[],"categories_sizes":[],"default_left":[0,0,0,0,0,0,0,0,0,0,0,0,0,0,0,0,0,0,0,0,0],"id":45,"left_children":[1,3,5,7,-1,9,11,13,15,-1,-1,17,-1,-1,-1,-1,19,-1,-1,-1,-1],"loss_changes":[5.718318E0,6.486365E0,8.160112E0,9.658067E0,0E0,3.10149E0,6.7085576E0,5.283992E0,8.192818E0,0E0,0E0,1.4702184E0,0E0,0E0,0E0,0E0,9.75384E0,0E0,0E0,0E0,0E0],"parents":[2147483647,0,0,1,1,2,2,3,3,5,5,6,6,7,7,8,8,11,11,16,16],"right_children":[2,4,6,8,-1,10,12,14,16,-1,-1,18,-1,-1,-1,-1,20,-1,-1,-1,-1],"split_conditions":[1.0821527E-2,2.1316297E-1,8.839434E-1,-8.917603E-3,4.001039E-2,5E-1,9.3953855E-2,1.7330358E-2,-5.7240897E-3,-1.3650887E-2,-5.3305168E-2,1.2673357E0,-2.2976458E-2,6.06453E-3,-3.7937287E-2,5.2042704E-2,3.1147285E-3,5.3477883E-3,3.2737147E-2,4.1296393E-2,-1.0745017E-2],"split_indices":[3,47,52,19,0,85,19,45,18,0,0,76,0,0,0,0,24,0,0,0,0],"split_type":[0,0,0,0,0,0,0,0,0,0,0,0,0,0,0,0,0,0,0,0,0],"sum_hessian":[1.4898895E2,9.210468E1,5.6884262E1,8.0082664E1,1.2022015E1,2.1809134E1,3.507513E1,2.7418903E1,5.2663765E1,1.0397602E1,1.1411531E1,2.0694004E1,1.4381125E1,1.0252739E1,1.7166164E1,1.0395889E1,4.2267876E1,1.0332346E1,1.0361659E1,1.1556249E1,3.0711628E1],"tree_param":{"num_deleted":"0","num_feature":"86","num_nodes":"21","size_leaf_vector":"1"}},{"base_weights":[4.4819653E-2,-3.3718254E-2,5.033089E-1,1.3663857E-1,-3.6031342E-1,4.081313E-2,6.3319774E-3,3.522465E-2,3.754943E-2,-5.1896572E-2,-8.170585E-2,-8.5584916E-2,2.956815E-2,1.1965699E-2,-2.9328331E-2,-2.8178765E-2,4.262938E-3],"categories":[],"categories_nodes":[],"categories_segments":[],"categories_sizes":[],"default_left":[0,0,0,0,0,0,0,0,0,0,0,0,0,0,0,0,0],"id":46,"left_children":[1,3,5,7,9,-1,-1,-1,11,-1,13,15,-1,-1,-1,-1,-1],"loss_changes":[5.561993E0,7.366146E0,2.4639254E0,4.777093E0,8.378132E0,0E0,0E0,0E0,5.216684E0,0E0,5.5844674E0,5.1666946E0,0E0,0E0,0E0,0E0,0E0],"parents":[2147483647,0,0,1,1,2,2,3,3,4,4,8,8,10,10,11,11],"right_children":[2,4,6,8,10,-1,-1,-1,12,-1,14,16,-1,-1,-1,-1,-1],"split_conditions":[1.1065024E-1,4.0029082E-1,-1.3306122E-2,6.5504466E-3,-5.159811E-4,4.081313E-2,6.3319774E-3,3.522465E-2,2.1316297E-1,-5.1896572E-2,6.420313E1,-5.418978E-3,2.956815E-2,1.1965699E-2,-2.9328331E-2,-2.8178765E-2,4.262938E-3],"split_indices":[72,40,68,53,23,0,0,0,47,0,38,36,0,0,0,0,0],"split_type":[0,0,0,0,0,0,0,0,0,0,0,0,0,0,0,0,0],"sum_hessian":[1.5168672E2,1.3010794E2,2.1578772E1,8.5687515E1,4.4420425E1,1.1003793E1,1.0574978E1,1.16730995E1,7.401442E1,1.2043751E1,3.2376675E1,6.109542E1,1.2918997E1,1.9992308E1,1.2384366E1,1.5635794E1,4.545963E1],"tree_param":{"num_deleted":"0","num_feature":"86","num_nodes":"17","size_leaf_vector":"1"}},{"base_weights":[-4.517158E-2,2.8930753E-2,-9.6464574E-2,-4.2082913E-2,9.883329E-3,-1.00960344E-1,3.9522934E-1,6.6103786E-2,-6.66317E-1,3.2602843E-2,-2.2769617E-3,2.7090404E-2,-3.9582658E-3,-4.894955E-2,-1.337337E-2],"categories":[],"categories_nodes":[],"categories_segments":[],"categories_sizes":[],"default_left":[0,0,0,0,0,0,0,0,0,0,0,0,0,0,0],"id":47,"left_children":[1,-1,3,-1,5,7,9,11,13,-1,-1,-1,-1,-1,-1],"loss_changes":[4.8241177E0,0E0,1.1194626E1,0E0,5.3434086E0,9.217461E0,3.2586765E0,5.289499E0,2.386507E0,0E0,0E0,0E0,0E0,0E0,0E0],"parents":[2147483647,0,0,2,2,4,4,5,5,6,6,7,7,8,8],"right_children":[2,-1,4,-1,6,8,10,12,14,-1,-1,-1,-1,-1,-1],"split_conditions":[-1.604019E-1,2.8930753E-2,-1.105757E-1,-4.2082913E-2,3.772142E-2,1.5957896E-2,-3.2388907E-2,-3.12544E-3,6.0662985E-1,3.2602843E-2,-2.2769617E-3,2.7090404E-2,-3.9582658E-3,-4.894955E-2,-1.337337E-2],"split_indices":[66,0,66,0,49,53,68,36,11,0,0,0,0,0,0],"split_type":[0,0,0,0,0,0,0,0,0,0,0,0,0,0,0],"sum_hessian":[1.4953552E2,1.043255E1,1.3910297E2,1.6626316E1,1.22476654E2,9.5488235E1,2.6988422E1,7.425262E1,2.1235615E1,1.6892815E1,1.0095608E1,1.689295E1,5.735967E1,1.0947879E1,1.0287737E1],"tree_param":{"num_deleted":"0","num_feature":"86","num_nodes":"15","size_leaf_vector":"1"}},{"base_weights":[4.704598E-3,1.2854409E-1,-3.3039913E-1,-5.2976698E-2,4.4779974E-1,-6.395936E-1,1.0813968E-2,-2.5852729E-2,1.3234036E-1,3.2199558E-2,4.8683938E-2,-1.2445191E-2,-5.6457818E-2,-2.599896E-1,4.2420813E-1,-1.5260893E-2,2.0559993E-2,8.764509E-3,-3.529666E-2,4.327795E-2,5.573255E-5],"categories":[],"categories_nodes":[],"categories_segments":[],"categories_sizes":[],"default_left":[0,0,0,0,0,0,0,0,0,0,0,0,0,0,0,0,0,0,0,0,0],"id":48,"left_children":[1,3,5,7,9,11,-1,-1,13,15,-1,-1,-1,17,19,-1,-1,-1,-1,-1,-1],"loss_changes":[6.215717E0,6.4326224E0,6.9981914E0,6.1927195E0,8.642029E0,4.579322E0,0E0,0E0,5.9909716E0,3.1495297E0,0E0,0E0,0E0,4.509398E0,5.4942155E0,0E0,0E0,0E0,0E0,0E0,0E0],"parents":[2147483647,0,0,1,1,2,2,3,3,4,4,5,5,8,8,9,9,13,13,14,14],"right_children":[2,4,6,8,10,12,-1,-1,14,16,-1,-1,-1,18,20,-1,-1,-1,-1,-1,-1],"split_conditions":[2.0544779E-2,2.4210053E-2,6.500217E-2,-4.5056528E-1,4.347241E-1,8.816788E-2,1.0813968E-2,-2.5852729E-2,1.8373792E-3,8.383035E-2,4.8683938E-2,-1.2445191E-2,-5.6457818E-2,-6.226181E-3,5.5187184E-2,-1.5260893E-2,2.0559993E-2,8.764509E-3,-3.529666E-2,4.327795E-2,5.573255E-5],"split_indices":[3,69,4,77,11,67,0,0,31,59,0,0,0,2,26,0,0,0,0,0,0],"split_type":[0,0,0,0,0,0,0,0,0,0,0,0,0,0,0,0,0,0,0,0,0],"sum_hessian":[1.4824263E2,1.0890938E2,3.933326E1,6.976409E1,3.9145287E1,2.5131922E1,1.4201338E1,1.9551643E1,5.021245E1,2.2564241E1,1.6581045E1,1.4929941E1,1.020198E1,2.1320261E1,2.8892187E1,1.1900371E1,1.0663871E1,1.0982785E1,1.0337476E1,1.3513456E1,1.537873E1],"tree_param":{"num_deleted":"0","num_feature":"86","num_nodes":"21","size_leaf_vector":"1"}},{"base_weights":[-2.9369581E-2,3.293689E-2,-9.579961E-2,-3.504101E-2,-3.3590827E-2,1.135845E-1,-2.704933E-1,-2.6425505E-1,2.949854E-1,-6.1679614E-1,4.6052057E-2,-3.1703677E-2,1.1982186E-2,2.4856377E-2,-1.7716719E-2,-3.2128405E-3,-5.4134637E-2,2.140662E-2,-1.9380368E-2],"categories":[],"categories_nodes":[],"categories_segments":[],"categories_sizes":[],"default_left":[0,0,0,0,0,0,0,0,0,0,0,0,0,0,0,0,0,0,0],"id":49,"left_children":[1,-1,3,-1,5,7,9,11,13,15,17,-1,-1,-1,-1,-1,-1,-1,-1],"loss_changes":[6.8589745E0,0E0,5.086087E0,0E0,4.4420257E0,5.441262E0,5.442127E0,4.9836326E0,7.2111573E0,5.8797054E0,4.529245E0,0E0,0E0,0E0,0E0,0E0,0E0,0E0,0E0],"parents":[2147483647,0,0,2,2,4,4,5,5,6,6,7,7,8,8,9,9,10,10],"right_children":[2,-1,4,-1,6,8,10,12,14,16,18,-1,-1,-1,-1,-1,-1,-1,-1],"split_conditions":[-1.5926796E-1,3.293689E-2,3.842453E-1,-3.504101E-2,4.5647644E-3,-3.7475408E-3,5.2232817E-2,9.946534E-1,7.361738E-1,5.5165946E-1,1.2316057E-2,-3.1703677E-2,1.1982186E-2,2.4856377E-2,-1.7716719E-2,-3.2128405E-3,-5.4134637E-2,2.140662E-2,-1.9380368E-2],"split_indices":[66,0,58,0,24,23,45,52,71,65,1,0,0,0,0,0,0,0,0],"split_type":[0,0,0,0,0,0,0,0,0,0,0,0,0,0,0,0,0,0,0],"sum_hessian":[1.4890182E2,1.21919E1,1.3670993E2,1.1639097E1,1.2507083E2,7.720547E1,4.786536E1,2.471618E1,5.248929E1,2.2556154E1,2.5309206E1,1.4220022E1,1.049616E1,4.0324207E1,1.2165081E1,1.0937347E1,1.1618807E1,1.3584115E1,1.1725091E1],"tree_param":{"num_deleted":"0","num_feature":"86","num_nodes":"19","size_leaf_vector":"1"}},{"base_weights":[1.969378E-2,-7.1429595E-2,4.7398385E-1,1.5909576E-1,-2.9741573E-1,4.593465E-2,-6.749385E-4,3.559417E-1,-2.4303123E-2,-3.7308186E-2,-8.860522E-2,4.3978944E-2,1.4052537E-1,-3.495164E-2,2.1813953E-1,-2.2211144E-2,2.1462316E-2,3.885148E-2,-2.0348035E-2],"categories":[],"categories_nodes":[],"categories_segments":[],"categories_sizes":[],"default_left":[0,0,0,0,0,0,0,0,0,0,0,0,0,0,0,0,0,0,0],"id":50,"left_children":[1,3,5,7,9,-1,-1,11,-1,-1,13,-1,15,-1,17,-1,-1,-1,-1],"loss_changes":[6.215798E0,6.5345964E0,5.5446396E0,8.026839E0,5.783316E0,0E0,0E0,5.2067804E0,0E0,0E0,8.532338E0,0E0,6.173773E0,0E0,1.0927701E1,0E0,0E0,0E0,0E0],"parents":[2147483647,0,0,1,1,2,2,3,3,4,4,7,7,10,10,12,12,14,14],"right_children":[2,4,6,8,10,-1,-1,12,-1,-1,14,-1,16,-1,18,-1,-1,-1,-1],"split_conditions":[2.1316297E-1,1.3132164E-2,5.4676175E-2,8.695652E-1,-3.532344E-3,4.593465E-2,-6.749385E-4,-1.5606749E-3,-2.4303123E-2,-3.7308186E-2,6.449432E-1,4.3978944E-2,1.8562654E-3,-3.495164E-2,2.6401791E-3,-2.2211144E-2,2.1462316E-2,3.885148E-2,-2.0348035E-2],"split_indices":[47,54,49,83,21,0,0,22,0,0,57,0,22,0,24,0,0,0,0],"split_type":[0,0,0,0,0,0,0,0,0,0,0,0,0,0,0,0,0,0,0],"sum_hessian":[1.4736266E2,1.2326108E2,2.4101572E1,6.09452E1,6.2315876E1,1.2248431E1,1.1853141E1,4.7159523E1,1.3785679E1,1.8819399E1,4.3496475E1,1.2711893E1,3.4447628E1,1.4228545E1,2.9267931E1,1.1093981E1,2.335365E1,1.5408455E1,1.3859476E1],"tree_param":{"num_deleted":"0","num_feature":"86","num_nodes":"19","size_leaf_vector":"1"}},{"base_weights":[-4.570689E-2,-1.9374824E-1,1.5493974E-1,-5.337548E-1,5.086067E-3,3.0100626E-1,-1.7512348E-2,-5.4306597E-3,-4.6067897E-2,2.1295216E-2,-2.0974058E-1,7.919619E-2,3.7896406E-2,-2.948833E-2,8.7531544E-2,3.7759426E-1,-2.8639326E-2,2.260477E-2,-1.3988844E-2,8.080356E-4,3.1701665E-2],"categories":[],"categories_nodes":[],"categories_segments":[],"categories_sizes":[],"default_left":[0,0,0,0,0,0,0,0,0,0,0,0,0,0,0,0,0,0,0,0,0],"id":51,"left_children":[1,3,5,7,9,11,-1,-1,-1,-1,13,15,-1,-1,17,19,-1,-1,-1,-1,-1],"loss_changes":[4.442643E0,5.8789654E0,4.7702937E0,5.066863E0,5.0973916E0,4.9016414E0,0E0,0E0,0E0,0E0,4.2850723E0,6.962658E0,0E0,0E0,3.0227053E0,2.2016294E0,0E0,0E0,0E0,0E0,0E0],"parents":[2147483647,0,0,1,1,2,2,3,3,4,4,5,5,10,10,11,11,14,14,15,15],"right_children":[2,4,6,8,10,12,-1,-1,-1,-1,14,16,-1,-1,18,20,-1,-1,-1,-1,-1],"split_conditions":[9.849173E-1,1.8889692E-2,1.02242626E-1,-7.232591E-4,1.227783E-2,1.8572504E-2,-1.7512348E-2,-5.4306597E-3,-4.6067897E-2,2.1295216E-2,2.3039987E-2,2.7961617E-3,3.7896406E-2,-2.948833E-2,3.5024058E-2,3.043478E-1,-2.8639326E-2,2.260477E-2,-1.3988844E-2,8.080356E-4,3.1701665E-2],"split_indices":[58,9,19,27,53,4,0,0,0,0,53,0,0,0,54,83,0,0,0,0,0],"split_type":[0,0,0,0,0,0,0,0,0,0,0,0,0,0,0,0,0,0,0,0,0],"sum_hessian":[1.4742255E2,8.51384E1,6.2284145E1,3.0980412E1,5.415798E1,4.87818E1,1.3502348E1,1.5508336E1,1.54720745E1,1.8128834E1,3.602915E1,3.3777092E1,1.5004708E1,1.5529301E1,2.0499847E1,2.3565783E1,1.0211308E1,1.0309149E1,1.01907E1,1.0383671E1,1.3182113E1],"tree_param":{"num_deleted":"0","num_feature":"86","num_nodes":"21","size_leaf_vector":"1"}}]},"name":"gbtree"},"learner_model_param":{"base_score":"[5E-1]","boost_from_average":"1","num_class":"0","num_feature":"86","num_target":"1"},"objective":{"name":"binary:logistic","reg_loss_param":{"scale_pos_weight":"1.45674741"}}},"version":[3,2,0]}