tree
version=v4
num_class=1
num_tree_per_iteration=1
label_index=0
max_feature_idx=85
objective=binary sigmoid:1
feature_names=Column_0 Column_1 Column_2 Column_3 Column_4 Column_5 Column_6 Column_7 Column_8 Column_9 Column_10 Column_11 Column_12 Column_13 Column_14 Column_15 Column_16 Column_17 Column_18 Column_19 Column_20 Column_21 Column_22 Column_23 Column_24 Column_25 Column_26 Column_27 Column_28 Column_29 Column_30 Column_31 Column_32 Column_33 Column_34 Column_35 Column_36 Column_37 Column_38 Column_39 Column_40 Column_41 Column_42 Column_43 Column_44 Column_45 Column_46 Column_47 Column_48 Column_49 Column_50 Column_51 Column_52 Column_53 Column_54 Column_55 Column_56 Column_57 Column_58 Column_59 Column_60 Column_61 Column_62 Column_63 Column_64 Column_65 Column_66 Column_67 Column_68 Column_69 Column_70 Column_71 Column_72 Column_73 Column_74 Column_75 Column_76 Column_77 Column_78 Column_79 Column_80 Column_81 Column_82 Column_83 Column_84 Column_85
feature_infos=[-0.095392646096274805:0.10715018316324473] [-0.14075747665454433:0.10436258272163353] [-0.20103051484850065:0.13935415954299041] [-0.26365139434595769:0.17871984099360486] [-0.2607805192542747:0.22560827277913584] [0:0.11310141098233834] [0:0.07271370205988506] [0:0.050489973375790184] [0:1] [0.00070410729230369561:0.18563826329234911] none [0:0.99999999412455931] [0:0.99999999358563185] [0:5] [0:5] [-0.12644916263883632:0.085599295103069517] [-0.18174552833363544:0.14665951944135225] [-0.20986983306458873:0.15935688163417105] [-0.22202543015495224:0.17018764104526252] [-0.21704026096531315:0.24694597303257915] [-0.11587076830514365:0.10476064182469158] [-0.062043010473986193:0.067876430454289816] [-0.030147206970440599:0.039428413571410692] [-0.012381097393979412:0.014773473236842749] [-0.006427388796970801:0.010975313540015685] [0:1] [-0.21704026096531315:0.24694597303257915] [-0.10536439985811397:0.068588287399276249] [-0.15603287285415968:0.10804452309831625] [-0.19024337431166094:0.12219778633182465] [-0.060341767586198324:0.038241166150182609] [-0.048732882401499207:0.034073002472582194] [-0.031637035959696039:0.025224527758847762] [-0.0027431445505929292:0.00276430026866889] [0:1] [0:1] [-0.052304589754138743:0.039840059162793762] [-0.0045087322639620411:0.0069742980933116538] [10.43279834388612:87.61426133750183] [3.8548250431265103:96.034749126513574] [-25.203589657180622:26.287936283690534] [-0.79134403312227763:0.75228522675003662] [0:1] [0:1] [-0.30739641132321394:0.025979168352580961] [-0.08037618734976304:0.43236629985743824] [-0.46039075240703747:1.5313975570221856] [0.0037808248390681916:0.40555364739550342] [0:1] [0.0025024310893202988:0.079001813960038872] [0.0020900451119091946:0.10135278362635461] [0.66184279401885016:1.5212773288485848] [0.104444826352297:4.8335581113606931] [0.0003486271273881364:0.090465382822645837] [0.00063597668444109691:0.06726921663744681] [0.0010528031192466041:0.053323576137562459] [0:1] [0.030331392124237366:4.7791880746349333] [0.017120670151945922:8.3285901502051001] [-0.97831516802906449:445.66666666666669] [-2.0389560735391856:2.843279434036079] [0:1] [0:0.9999999938800489] [0:0.99999999443826471] [0:0.9999999951385512] [0:0.99699360955093286] [-0.27679346695215234:-1.693939433167202e-10] [-4.2940573319327768e-10:0.40567972065966784] [-0.23284875056436105:-1.6698675775472793e-10] [-4.2940573319327768e-10:0.21044357828909721] [0:0.99999999500748871] [0.0080865441220614523:0.97248866185938321] [-0.44903445736242986:0.48203665324253542] [0:1] [0:1] [-0.99999999814126384:0] [-3.5186973689648795:4.6666456389749866] [-3.6581479356567663:4.6883946515461714] [-0.18211252653927812:0.14953114534494305] [-0.2317586937554531:0.1956857151174638] [-0.22955000000000003:0.25308470173485498] [-0.2317586937554531:0.1956857151174638] [-0.22955000000000003:0.25308470173485498] [0:1] [0:0.96610169491525422] [0:1]
tree_sizes=3166 3064 3208

Tree=0
num_leaves=29
num_cat=0
split_feature=49 50 50 41 83 9 61 33 29 6 6 23 23 7 23 49 84 54 23 51 51 52 67 53 2 44 75 20
split_gain=1426.2 311.723 228.801 81.7339 76.0099 72.4526 76.4174 70.6545 60.1457 59.1973 64.241 56.3998 53.2558 52.0053 52.004 42.9236 42.232 40.6576 35.3231 32.5717 53.6097 25.0344 68.1287 27.6076 24.1532 17.3634 22.1825 3.27388
threshold=0.0083605261502641727 0.014496502181472372 0.0058013699337715737 -0.25092210439722445 0.89130434782608703 0.0048093396849842309 0.39729224483094089 5.8548099592594875e-05 -0.0038361359126017343 0.0017238313481920196 0.00015821756499729317 -0.001694671309938167 -0.00075975793615917764 0.00029113306000458377 -0.0032941453333475974 0.02349085192667907 0.22881355932203393 0.0048469801330803799 -0.0013738302309463932 1.1111894320552249 1.0453447427572091 1.9928054589274342 0.046993002180217076 0.017423858524966772 -0.004857041998927304 -0.1037296288028519 -0.91875130098395263 -0.0013205716836270918
decision_type=2 2 2 2 2 2 2 2 2 2 2 2 2 2 2 2 2 2 2 2 2 2 2 2 2 2 2 2
left_child=2 3 7 19 5 6 -4 12 27 10 -5 -7 18 -10 -11 21 -14 24 -1 20 -2 23 -23 -3 -6 -17 -27 -9
right_child=1 15 4 9 17 11 -8 8 13 14 -12 -13 16 -15 -16 25 -18 -19 -20 -21 -22 22 -24 -25 -26 26 -28 -29
leaf_value=-1.5810431605192574 -1.4067449781943144 -1.4094135479719687 -1.4893556227898817 -1.4543169930863238 -1.551067555305623 -1.4334674050606993 -1.600805972263682 -1.6491208300872668 -1.5731515488255345 -1.5424164328933245 -1.5131213247638704 -1.4979961735166627 -1.5511896767827116 -1.484360865752927 -1.451441370013733 -1.3410644529602147 -1.609903107729993 -1.4978452539752947 -1.4966681385766232 -1.3407001552017859 -1.5251057072162435 -1.4199642895861129 -1.6120942080761842 -1.4875967883878214 -1.6511277182519188 -1.6272534474667393 -1.3920685840634905 -1.5935940379935203
leaf_weight=23.647413551807404 47.47255539894104 283.92031764984131 28.144912660121918 76.235488295555115 9.3611820936203003 40.998262822628021 32.91336065530777 7.7216225862503052 24.33808970451355 17.458825945854187 129.44940626621246 241.85479515790939 40.662481009960175 53.493252098560333 321.18731772899628 32.658619999885559 119.09708696603775 10.731244862079619 26.342380940914154 14.526778280735014 13.117928206920622 15.41429525613785 6.3064016699790946 14.487990975379942 15.022065758705139 0.84235882759094138 83.371507108211517 4.2005046010017377
leaf_count=141 150 917 126 300 51 147 207 55 142 93 632 1123 223 236 1253 68 766 49 121 29 66 51 41 64 107 6 245 26
internal_value=-1.47535 -1.43902 -1.532 -1.4621 -1.5062 -1.49905 -1.54909 -1.56475 -1.52774 -1.46914 -1.49102 -1.48836 -1.58073 -1.51176 -1.45604 -1.40651 -1.59484 -1.57671 -1.53597 -1.41234 -1.43152 -1.41702 -1.47514 -1.41301 -1.61244 -1.37864 -1.39467 -1.63076
internal_weight=1734.98 1056.45 678.529 619.448 379.026 343.911 61.0583 299.503 89.7535 544.331 205.685 282.853 209.749 77.8313 338.646 437.001 159.76 35.1145 49.9898 75.1173 60.5905 320.129 21.7207 298.408 24.3832 116.872 84.2139 11.9221
internal_count=7435 3915 3520 2523 1810 1603 333 1710 459 2278 932 1270 1251 378 1346 1392 989 207 262 245 216 1073 92 981 158 319 251 81
is_linear=0
shrinkage=1


Tree=1
num_leaves=28
num_cat=0
split_feature=49 50 9 41 67 37 83 71 58 64 70 57 5 7 63 52 76 52 23 65 12 85 60 57 58 12 76
split_gain=1052.3 281.761 102.421 88.06 71.2731 71.0022 62.1752 57.1189 56.7193 53.024 91.3448 52.6486 45.7369 44.3109 42.8284 32.541 52.6003 29.2445 28.3275 28.2208 27.1189 21.7955 22.417 21.0453 20.2174 14.2056 3.57705
threshold=0.0072840618401165619 0.014391482085708849 0.0066756338742309301 -0.25092210439722445 0.041162113199564761 7.2510707766111895e-05 0.84782608695652184 0.54235337296536279 0.3880537295352316 0.5783444417740109 0.5136898076327604 0.34265255537284195 0.0039385924789395168 0.0022136954431364654 0.45392430970883818 1.3572011723506667 -1.5169015417630523 1.3040424790432814 -0.0071276414667287282 0.23086841606850231 0.5448880427252597 0.75000000000000011 -0.62467033791615301 0.86002110648789398 0.28837914010137106 0.88631883149253243 1.149529647537139
decision_type=2 2 2 2 2 2 2 2 2 2 2 2 2 2 2 2 2 2 2 2 2 2 2 2 2 2 2
left_child=2 3 5 20 11 9 15 13 -9 10 -1 -5 -11 -7 -6 17 -17 -4 -3 -8 24 25 -23 -22 -2 -20 -21
right_child=1 18 6 4 14 7 19 8 -10 12 -12 -13 -14 -15 -16 16 -18 -19 21 26 23 22 -24 -25 -26 -27 -28
leaf_value=0.013973688819680412 0.023163092979334138 0.21326518224833163 0.1020644059517779 0.053009186215715313 0.054610209847416713 0.047072923958561802 0.070799095279323751 0.18206092706812463 0.064456441296462483 -0.028613822165061992 0.11838571208426273 0.10092567840165417 0.11925335949660272 -0.057679704573397633 0.14908418510244015 0.16356672799145888 0.040291359809805534 0.19506679987429279 0.1625769174296442 -0.056892621965984949 0.1433437373624262 0.1657128421290881 0.11312825603682859 0.038149283595911666 0.16963777188686377 0.11397316815451475 -0.0005853395521926507
leaf_weight=135.12655924260616 2.6826213896274558 24.548834353685379 49.374075785279274 66.454824596643448 14.544605597853659 81.932471603155136 9.0486804097890872 14.790790617465971 35.020322263240814 78.095089733600616 24.37056140601635 554.149253860116 5.1017112135887137 11.033214777708052 108.24214564263821 10.562769711017607 43.425588890910149 11.123329132795332 347.57607485353947 9.4048519134521467 10.400666400790216 35.214874565601349 71.212811946868896 9.5870364010333997 82.446224391460419 21.973762840032578 4.2114229351282111
leaf_count=779 13 42 201 322 68 426 43 42 168 511 98 2226 19 76 347 32 222 28 957 66 31 93 253 46 224 76 26
internal_value=0.103552 0.126886 0.0432479 0.109172 0.10294 0.0299559 0.0803249 0.0578843 0.100939 0.0134199 0.0302788 0.0958496 -0.0188285 0.0343453 0.138201 0.0952467 0.0657814 0.120705 0.156766 0.00430681 0.152503 0.15362 0.131268 0.095294 0.165243 0.159858 -0.0404689
internal_weight=1871.66 1349.03 522.621 848.507 743.391 385.471 137.151 142.777 49.8111 242.694 159.497 620.604 83.1968 92.9657 122.787 114.486 53.9884 60.4974 500.526 22.665 105.117 475.978 106.428 19.9877 85.1288 369.55 13.6163
internal_count=7435 4698 2737 3277 2963 2119 618 712 210 1407 877 2548 530 502 415 483 254 229 1421 135 314 1379 346 77 237 1033 92
is_linear=0
shrinkage=0.05


Tree=2
num_leaves=29
num_cat=0
split_feature=49 50 50 83 19 38 77 28 69 84 12 11 19 68 38 62 5 49 11 77 15 70 80 83 36 31 44 12
split_gain=803.186 203.004 82.1158 87.0697 65.4838 64.2754 55.6107 59.26 53.5786 52.9441 59.2828 46.7623 58.241 57.5951 43.834 40.3606 39.2549 22.8188 22.4132 22.1631 20.9141 45.2358 20.1905 24.9953 18.7581 13.6374 8.82771 29.4328
threshold=0.0072840618401165619 0.014391482085708849 0.0054005095458679537 0.89130434782608703 -0.0066750904480176723 37.453894780138782 -0.33383296530534073 -0.010103323898901671 0.0039282196726277982 0.076271186440677985 0.62682504760274405 0.62417790866173617 -0.022194248585590656 -0.0085291555855653827 60.564376874112789 0.94126621793734666 0.00033605098998435112 0.02349085192667907 0.18073702507263492 0.0924952984082721 -0.0015770924720471811 0.24641648698598909 0.031677039022712246 0.41304347826086962 -0.008078047490038898 -0.0030257767171472986 -0.1037296288028519 0.060410215478515619
decision_type=2 2 2 2 2 2 2 2 2 2 2 2 2 2 2 2 2 2 2 2 2 2 2 2 2 2 2 2
left_child=2 5 4 9 11 18 7 -7 19 10 -4 12 -1 -13 -10 -11 -8 22 -2 -6 21 -5 24 -24 -3 -20 -19 -28
right_child=1 17 3 20 8 6 16 -9 14 15 -12 13 -14 -15 -16 -17 -18 26 25 -21 -22 -23 23 -25 -26 -27 27 -29
leaf_value=-0.030793263369538013 0.02690321553186012 0.083521099922039169 0.16481723001856977 -0.056524300821625323 -0.04999191518574142 -0.05854597626472087 0.042053178422213677 0.072920202674146839 0.039736432233836209 0.052624836430312683 0.025147315857196869 0.080362987769854691 0.10738800833720599 -0.046820479835120887 -0.04559208167876181 0.14361131349772155 0.10165395788251728 0.17768630130103244 0.14644068741143798 0.017339281103357709 -0.058024404101676454 0.11489903654611991 0.12705700655734703 0.070533231246854025 0.1386584609238061 0.095813362790827292 -0.047582709314754716 0.14697347899311755
leaf_weight=8.9305020421743375 5.2178008854389182 19.684972137212753 25.619222223758698 7.8478388190269488 50.78314197063446 8.6386155337095243 30.310093209147453 164.86436995863914 80.236664205789566 204.18268267810345 11.12791386246681 15.345015719532965 43.424213469028473 19.797326982021332 18.009126737713814 12.771692946553229 587.7933025509119 42.084837153553963 88.42461484670639 15.636251598596571 16.543596774339676 6.6436786949634552 56.26129586994648 34.479209378361702 290.67694228887558 21.267474383115768 1.7237032502889622 103.10655574500561
leaf_count=58 23 68 69 54 352 54 138 670 413 965 57 69 174 133 120 38 2101 68 219 90 119 26 156 129 749 72 10 241
internal_value=0.0922898 0.111582 0.0399603 0.0583539 0.0190963 0.0969145 0.0916877 0.0661964 0.000456306 0.0680156 0.123561 0.0539173 0.0836546 0.0089226 0.0238928 0.0583219 0.0987757 0.135725 0.132325 -0.0340552 -0.0202948 0.0229427 0.128869 0.106138 0.135317 0.13715 0.153908 0.143516
internal_weight=1991.43 1454.53 536.899 284.737 252.162 906.516 791.606 173.503 164.665 253.702 36.7471 87.4971 52.3547 35.1423 98.2458 216.954 618.103 548.018 114.91 66.4194 31.0351 14.4915 401.102 90.7405 310.362 109.692 146.915 104.83
internal_count=7435 4698 2737 1328 1409 3277 2963 724 975 1129 126 434 232 202 533 1003 2239 1421 314 442 199 80 1102 285 817 291 319 251
is_linear=0
shrinkage=0.05


end of trees

feature_importances:
Column_23=5
Column_49=5
Column_50=5
Column_12=4
Column_83=4
Column_52=3
Column_5=2
Column_6=2
Column_7=2
Column_9=2
Column_11=2
Column_19=2
Column_38=2
Column_41=2
Column_44=2
Column_51=2
Column_57=2
Column_58=2
Column_67=2
Column_70=2
Column_76=2
Column_77=2
Column_84=2
Column_2=1
Column_15=1
Column_20=1
Column_28=1
Column_29=1
Column_31=1
Column_33=1
Column_36=1
Column_37=1
Column_53=1
Column_54=1
Column_60=1
Column_61=1
Column_62=1
Column_63=1
Column_64=1
Column_65=1
Column_68=1
Column_69=1
Column_71=1
Column_75=1
Column_80=1
Column_85=1

parameters:
[boosting: gbdt]
[objective: binary]
[metric: binary_logloss]
[tree_learner: serial]
[device_type: cpu]
[data_sample_strategy: bagging]
[data: ]
[valid: ]
[num_iterations: 500]
[learning_rate: 0.05]
[num_leaves: 31]
[num_threads: 8]
[seed: 42]
[deterministic: 0]
[force_col_wise: 0]
[force_row_wise: 0]
[histogram_pool_size: -1]
[max_depth: 5]
[min_data_in_leaf: 30]
[min_sum_hessian_in_leaf: 0.001]
[bagging_fraction: 0.8]
[pos_bagging_fraction: 1]
[neg_bagging_fraction: 1]
[bagging_freq: 0]
[bagging_seed: 400]
[bagging_by_query: 0]
[feature_fraction: 0.8]
[feature_fraction_bynode: 1]
[feature_fraction_seed: 30056]
[extra_trees: 0]
[extra_seed: 12879]
[early_stopping_round: 0]
[early_stopping_min_delta: 0]
[first_metric_only: 0]
[max_delta_step: 0]
[lambda_l1: 0.1]
[lambda_l2: 0.5]
[linear_lambda: 0]
[min_gain_to_split: 0]
[drop_rate: 0.1]
[max_drop: 50]
[skip_drop: 0.5]
[xgboost_dart_mode: 0]
[uniform_drop: 0]
[drop_seed: 17869]
[top_rate: 0.2]
[other_rate: 0.1]
[min_data_per_group: 100]
[max_cat_threshold: 32]
[cat_l2: 10]
[cat_smooth: 10]
[max_cat_to_onehot: 4]
[top_k: 20]
[monotone_constraints: ]
[monotone_constraints_method: basic]
[monotone_penalty: 0]
[feature_contri: ]
[forcedsplits_filename: ]
[refit_decay_rate: 0.9]
[cegb_tradeoff: 1]
[cegb_penalty_split: 0]
[cegb_penalty_feature_lazy: ]
[cegb_penalty_feature_coupled: ]
[path_smooth: 0]
[interaction_constraints: ]
[verbosity: -1]
[saved_feature_importance_type: 0]
[use_quantized_grad: 0]
[num_grad_quant_bins: 4]
[quant_train_renew_leaf: 0]
[stochastic_rounding: 1]
[linear_tree: 0]
[max_bin: 255]
[max_bin_by_feature: ]
[min_data_in_bin: 3]
[bin_construct_sample_cnt: 200000]
[data_random_seed: 175]
[is_enable_sparse: 1]
[enable_bundle: 1]
[use_missing: 1]
[zero_as_missing: 0]
[feature_pre_filter: 1]
[pre_partition: 0]
[two_round: 0]
[header: 0]
[label_column: ]
[weight_column: ]
[group_column: ]
[ignore_column: ]
[categorical_feature: ]
[forcedbins_filename: ]
[precise_float_parser: 0]
[parser_config_file: ]
[objective_seed: 16083]
[num_class: 1]
[is_unbalance: 0]
[scale_pos_weight: 4.91959]
[sigmoid: 1]
[boost_from_average: 1]
[reg_sqrt: 0]
[alpha: 0.9]
[fair_c: 1]
[poisson_max_delta_step: 0.7]
[tweedie_variance_power: 1.5]
[lambdarank_truncation_level: 30]
[lambdarank_norm: 1]
[label_gain: ]
[lambdarank_position_bias_regularization: 0]
[eval_at: ]
[multi_error_top_k: 1]
[auc_mu_weights: ]
[num_machines: 1]
[local_listen_port: 12400]
[time_out: 120]
[machine_list_filename: ]
[machines: ]
[gpu_platform_id: -1]
[gpu_device_id: -1]
[gpu_use_dp: 0]
[num_gpu: 1]

end of parameters

pandas_categorical:null
