tree
version=v4
num_class=1
num_tree_per_iteration=1
label_index=0
max_feature_idx=85
objective=binary sigmoid:1
feature_names=Column_0 Column_1 Column_2 Column_3 Column_4 Column_5 Column_6 Column_7 Column_8 Column_9 Column_10 Column_11 Column_12 Column_13 Column_14 Column_15 Column_16 Column_17 Column_18 Column_19 Column_20 Column_21 Column_22 Column_23 Column_24 Column_25 Column_26 Column_27 Column_28 Column_29 Column_30 Column_31 Column_32 Column_33 Column_34 Column_35 Column_36 Column_37 Column_38 Column_39 Column_40 Column_41 Column_42 Column_43 Column_44 Column_45 Column_46 Column_47 Column_48 Column_49 Column_50 Column_51 Column_52 Column_53 Column_54 Column_55 Column_56 Column_57 Column_58 Column_59 Column_60 Column_61 Column_62 Column_63 Column_64 Column_65 Column_66 Column_67 Column_68 Column_69 Column_70 Column_71 Column_72 Column_73 Column_74 Column_75 Column_76 Column_77 Column_78 Column_79 Column_80 Column_81 Column_82 Column_83 Column_84 Column_85
feature_infos=[-0.067263178209167607:0.092262558397850025] [-0.098112717646731185:0.11132551026636225] [-0.095392646096274805:0.11965879788354793] [-0.13529211679756092:0.11330707170772562] [-0.22673278747052486:0.1576847586762905] [0:0.096652719641483517] [0:0.054545805718319317] [0:0.025115192411864835] [0:1] [0:0.12208682909772058] none [0:0.99999999560825648] [0:0.99999999163179931] [0:5] [0:5] [-0.061766541903711891:0.087074265373505932] [-0.11046004094433615:0.0932113771579961] [-0.17524754129109965:0.12137181972043587] [-0.22579807052006318:0.19085724987130925] [-0.23757131606076209:0.19197332721470306] [-0.067322150299126471:0.064887647454922037] [-0.062938478712605384:0.043272195556120607] [-0.035623069396466644:0.03249484854586937] [-0.014240001300555805:0.016975123120035907] [-0.0069679586827751105:0.0085862763200106329] [0:1] [-0.23757131606076209:0.19197332721470306] [-0.057603499566521332:0.067834473467365264] [-0.095242826017116089:0.084188105702311944] [-0.14917887879718295:0.10192717818018648] [-0.078498867263971733:0.04161327734293542] [-0.061017420753658416:0.037577624083841708] [-0.022979092512460948:0.014797675978624986] [-0.0021134195631898997:0.002886430507549124] [0:1] [0:1] [-0.026521644439896717:0.028439422513192737] [-0.0048653164012872861:0.0058314768671222537] [5.7824871437800027:89.54557325547384] [1.8075130372859292:97.55332653222969] [-37.055638388648873:29.645412498316389] [-0.88435025712439996:0.79091146510947685] [0:1] [0:1] [-0.30936045038072424:0.04296308022905726] [-0.036900113154098801:0.28803760411258317] [-0.51464405229499688:1.513488257784888] [0.0017626991031905975:0.39062806887226437] [0:1] [0.00092424462875249067:0.057094627843230612] [0.00066312624484754056:0.069911201415388854] [0.52626253542167822:1.6242930097061843] [0:5.0745891063989799] [0.00011419667005882607:0.060189508255382627] [0.00036665712035040336:0.046301312571735788] [0.00047541651715392053:0.037760369249103656] [0:1] [0:4.8775585894428719] [0:9.2958324975403723] [-1:7799] [-2.2439908056170155:2.845047027548949] [0:1] [0:0.99999999492643321] [0:0.99999999492643321] [0:0.99999999492643321] [0:0.99999999602859413] [-0.25283582108138414:-1.6683632253489122e-10] [-4.2940573319327768e-10:0.2685465435578025] [-0.13110512721603429:-1.6205881081532425e-10] [-4.2940573319327768e-10:0.14732417430547318] [0:0.99999999492643321] [0:0.99871791526329767] [-0.63527859468837822:0.57131666815594162] [0:1] [0:1] [-0.99999999813641438:0] [-4.0064148163498947:4.6580740843834487] [-4.3010579474518895:4.5303686324285497] [-0.090984057174271604:0.12711221289082264] [-0.12653927813163479:0.11997579303040995] [-0.20286624203821657:0.17079705291359693] [-0.12653927813163479:0.11997579303040995] [-0.20286624203821657:0.17079705291359693] [0:1] [0:1] [0:1]
tree_sizes=3288 3302

Tree=0
num_leaves=30
num_cat=0
split_feature=49 50 49 36 15 49 77 50 28 52 19 49 29 21 1 33 24 53 85 49 5 31 47 76 63 77 16 37 32
split_gain=20121.5 2702.01 2679.35 712.068 555.588 386.372 320.067 268.094 243.843 199.075 232.189 219.786 193.37 138.528 138.508 278.399 132.809 132.242 119.378 99.7927 89.9078 93.1868 88.1842 59.3994 40.6303 35.6202 32.3362 28.7918 23.7788
threshold=0.0052955751615177743 0.0088024571443554595 0.0030884733479528974 0.002204031084026887 0.0038472115756597041 0.0041463799943621737 -0.7635162272549475 0.013039303318070371 -0.0038081944575541478 0.43052797890247047 0.013745974299953391 0.0066556248944592807 0.0060099403122626524 0.0018975094305893061 0.0073999234993834496 0.00022176389562739821 -0.0012687793319948735 0.0070010965624251785 0.75000000000000011 0.0058591057547003429 0.0014377350140195968 0.00070813357822625616 0.041260534699313532 1.5302744863530331 0.85043731278844792 0.079488359841851 0.006586345000361816 -0.00016903196312059525 0.0012422967301104484
decision_type=2 2 2 2 2 2 2 2 2 2 2 2 2 2 2 2 2 2 2 2 2 2 2 2 2 2 2 2 2
left_child=2 4 12 5 9 8 -7 14 -4 10 -2 -11 16 -14 15 -3 -1 19 -18 -6 21 -5 27 -19 -22 -24 -16 -9 -15
right_child=1 7 3 20 17 6 -8 22 -10 11 -12 -13 13 28 26 -17 18 23 -20 -21 24 -23 25 -25 -26 -27 -28 -29 -30
leaf_value=-2.1276199449522286 -2.1540408710520462 -1.994421738385761 -2.1722902442383663 -2.3489959278067265 -2.0932752175426552 -2.3639998964974462 -2.1901987475144331 -1.9562773248877086 -2.2831281139569088 -2.1234812520689617 -2.4556209914099081 -2.0639593866489725 -2.0164252176485311 -2.4507542015944908 -2.0106002161057268 -2.3146520365554082 -2.4022644091685619 -2.3473628036230481 -2.3440740653933103 -1.9784308764441043 -1.9201827757930416 -2.0052538777173678 -1.9363561068274364 -2.0824811720807173 -2.0747915911726049 -1.8861227718709999 -1.9178224085512827 -2.0993834795410833 -2.2580423592184271
leaf_weight=4.5741481930017462 30.400555610656738 325.88639068603516 57.436039686203003 4.7141409069299689 29.810873106122017 28.734535232186317 398.61589831113815 12.753068640828134 392.20672130584717 339.1512758731842 7.8216847330331793 338.45393550395966 5.8010518401861173 3.1894248425960541 27.930232927203178 7.3019985854625693 299.91420873999596 4.6382022202014905 124.46613074839115 163.04884567856789 18.028492003679279 3.2072518318891525 179.5420485585928 3.9666386991739273 13.956202968955038 161.83644989132881 113.04885496199131 14.943405896425245 2.360041618347168
leaf_count=30 229 1530 454 52 191 328 3294 47 3905 2390 103 2018 26 42 136 76 3637 51 1377 716 56 12 651 22 83 438 370 96 21
internal_value=-2.13033 -2.01882 -2.27508 -2.22641 -2.07865 -2.23601 -2.20181 -1.95397 -2.26872 -2.0999 -2.21574 -2.09351 -2.37651 -2.17717 -1.981 -2.00128 -2.38206 -2.00411 -2.38513 -1.9953 -2.02027 -2.19376 -1.91988 -2.2137 -1.98137 -1.9118 -1.93471 -2.02652 -2.36425
internal_weight=3117.74 1760.53 1357.2 916.899 917.292 876.993 427.35 843.242 449.643 715.827 38.2222 677.605 440.305 11.3505 474.167 333.188 428.954 201.465 424.38 192.86 39.9061 7.92139 369.075 8.60484 31.9847 341.378 140.979 27.6965 5.54947
internal_count=22381 9064 13317 8184 5720 7981 3622 3344 4359 4740 332 4408 5133 89 2112 1606 5044 980 5014 907 203 64 1232 73 139 1089 506 143 63
is_linear=0
shrinkage=1


Tree=1
num_leaves=30
num_cat=0
split_feature=49 55 55 3 22 24 46 17 71 5 76 76 60 15 27 57 84 62 71 47 7 44 9 37 57 63 44 76 77
split_gain=9059.79 2157.73 960.896 522.689 290.216 290.114 264.752 228.981 295.137 216.312 184.94 176.865 169.237 163.78 232.992 136.273 126.063 123.753 118.963 105.005 136.212 125.808 86.7894 73.2639 51.114 45.8274 40.0976 36.8507 42.3532
threshold=0.0052955751615177743 0.0023452800599036944 0.0053769033866720934 0.0054033887914109345 -0.00019363930345556166 -0.00026353120150757187 0.95344266166454583 -0.0038823839052605775 0.33817231540775766 0.0086060600963342952 -2.1222412476188581 1.2577587931896577 -0.9876646636096823 0.0022466695712105582 -0.004849874132348774 0.52713838332117613 0.82203389830508489 0.90645825386465428 0.78204207085705268 0.020153964248020021 0.0018580959017223009 -0.017123795847647779 0.0028214393548396249 0.0001303867444647299 0.1834208695985608 0.020402853248864861 -0.026566582832943161 -1.7780791279773094 0.98610323792810317
decision_type=2 2 2 2 2 2 2 2 2 2 2 2 2 2 2 2 2 2 2 2 2 2 2 2 2 2 2 2 2
left_child=1 6 9 4 10 -6 7 8 -1 11 -3 12 -2 14 25 18 -9 -17 -8 20 -5 -21 -16 -13 -15 -4 -26 -11 -29
right_child=2 3 13 19 5 -7 15 16 -10 27 -12 23 -14 24 22 17 -18 -19 -20 21 -22 -23 -24 -25 26 -27 -28 28 -30
leaf_value=0.049209976524905941 0.27917702198198052 0.31740249173011253 0.20745617549573586 0.20820651342616953 0.17338079933827621 0.071163608371376003 0.38231563138803332 -0.01192871687281356 0.27893353362891243 0.16779469985549428 0.15670520964559048 0.30110752138053321 0.20037363789713303 0.17705380539933865 0.10221045704101828 -0.000907179155181046 0.056926156366106463 0.17509699864669928 0.096213159099958423 -0.046086904996600064 0.0046592961696638848 0.27640547890078826 0.25749998378316963 0.22671680619606596 0.34403711416262084 0.3160972972006314 0.30632695717233877 0.33319725547893614 0.2395167312003913
leaf_weight=90.079006642103195 80.49455276876688 18.873971343040466 14.264688044786451 91.995717160403728 98.895893260836601 236.25833286345005 8.4179977998137456 310.76108542084694 16.152168430387974 7.0092376917600623 404.45275866240263 89.379580110311508 647.20912976562977 9.0768754482269269 10.179511182010172 20.527308195829391 84.01888333261013 18.838433012366295 6.9697738587856284 2.959607556462287 9.1013864949345571 94.569523110985756 470.31297837197781 71.866329431533813 138.97574518620968 300.91459055989981 470.55251933634281 66.324116691946983 23.871461443603039
leaf_count=927 327 83 66 592 726 2205 32 3696 94 38 3075 287 3575 47 85 226 892 144 64 33 94 434 1852 310 245 743 1233 162 94
internal_value=0.20614 0.110252 0.266536 0.155738 0.136636 0.101554 0.0318389 0.0203498 0.0853288 0.228306 0.164248 0.220227 0.209283 0.2931 0.277177 0.135742 0.00276611 0.0843337 0.260149 0.228128 0.190044 0.266383 0.25433 0.268786 0.313334 0.311533 0.315208 0.30063 0.309916
internal_weight=3913.3 1512.87 2400.43 957.107 758.481 335.154 555.765 501.011 106.231 986.154 423.327 888.95 727.704 1414.28 795.672 54.7535 394.78 39.3657 15.3878 198.626 101.097 97.5291 480.492 161.246 618.605 315.179 609.528 97.2048 90.1956
internal_count=22381 13317 9064 7242 6089 2931 6075 5609 1021 4793 3158 4499 3902 4271 2746 466 4588 370 96 1153 686 467 1937 597 1525 809 1478 294 256
is_linear=0
shrinkage=0.05


end of trees

feature_importances:
Column_49=6
Column_76=4
Column_77=3
Column_5=2
Column_15=2
Column_24=2
Column_37=2
Column_44=2
Column_47=2
Column_50=2
Column_55=2
Column_57=2
Column_63=2
Column_71=2
Column_1=1
Column_3=1
Column_7=1
Column_9=1
Column_16=1
Column_17=1
Column_19=1
Column_21=1
Column_22=1
Column_27=1
Column_28=1
Column_29=1
Column_31=1
Column_32=1
Column_33=1
Column_36=1
Column_46=1
Column_52=1
Column_53=1
Column_60=1
Column_62=1
Column_84=1
Column_85=1

parameters:
[boosting: gbdt]
[objective: binary]
[metric: binary_logloss]
[tree_learner: serial]
[device_type: cpu]
[data_sample_strategy: bagging]
[data: ]
[valid: ]
[num_iterations: 500]
[learning_rate: 0.05]
[num_leaves: 31]
[num_threads: 8]
[seed: 42]
[deterministic: 0]
[force_col_wise: 0]
[force_row_wise: 0]
[histogram_pool_size: -1]
[max_depth: 5]
[min_data_in_leaf: 30]
[min_sum_hessian_in_leaf: 0.001]
[bagging_fraction: 0.8]
[pos_bagging_fraction: 1]
[neg_bagging_fraction: 1]
[bagging_freq: 0]
[bagging_seed: 400]
[bagging_by_query: 0]
[feature_fraction: 0.8]
[feature_fraction_bynode: 1]
[feature_fraction_seed: 30056]
[extra_trees: 0]
[extra_seed: 12879]
[early_stopping_round: 0]
[early_stopping_min_delta: 0]
[first_metric_only: 0]
[max_delta_step: 0]
[lambda_l1: 0.1]
[lambda_l2: 0.5]
[linear_lambda: 0]
[min_gain_to_split: 0]
[drop_rate: 0.1]
[max_drop: 50]
[skip_drop: 0.5]
[xgboost_dart_mode: 0]
[uniform_drop: 0]
[drop_seed: 17869]
[top_rate: 0.2]
[other_rate: 0.1]
[min_data_per_group: 100]
[max_cat_threshold: 32]
[cat_l2: 10]
[cat_smooth: 10]
[max_cat_to_onehot: 4]
[top_k: 20]
[monotone_constraints: ]
[monotone_constraints_method: basic]
[monotone_penalty: 0]
[feature_contri: ]
[forcedsplits_filename: ]
[refit_decay_rate: 0.9]
[cegb_tradeoff: 1]
[cegb_penalty_split: 0]
[cegb_penalty_feature_lazy: ]
[cegb_penalty_feature_coupled: ]
[path_smooth: 0]
[interaction_constraints: ]
[verbosity: -1]
[saved_feature_importance_type: 0]
[use_quantized_grad: 0]
[num_grad_quant_bins: 4]
[quant_train_renew_leaf: 0]
[stochastic_rounding: 1]
[linear_tree: 0]
[max_bin: 255]
[max_bin_by_feature: ]
[min_data_in_bin: 3]
[bin_construct_sample_cnt: 200000]
[data_random_seed: 175]
[is_enable_sparse: 1]
[enable_bundle: 1]
[use_missing: 1]
[zero_as_missing: 0]
[feature_pre_filter: 1]
[pre_partition: 0]
[two_round: 0]
[header: 0]
[label_column: ]
[weight_column: ]
[group_column: ]
[ignore_column: ]
[categorical_feature: ]
[forcedbins_filename: ]
[precise_float_parser: 0]
[parser_config_file: ]
[objective_seed: 16083]
[num_class: 1]
[is_unbalance: 0]
[scale_pos_weight: 11.0783]
[sigmoid: 1]
[boost_from_average: 1]
[reg_sqrt: 0]
[alpha: 0.9]
[fair_c: 1]
[poisson_max_delta_step: 0.7]
[tweedie_variance_power: 1.5]
[lambdarank_truncation_level: 30]
[lambdarank_norm: 1]
[label_gain: ]
[lambdarank_position_bias_regularization: 0]
[eval_at: ]
[multi_error_top_k: 1]
[auc_mu_weights: ]
[num_machines: 1]
[local_listen_port: 12400]
[time_out: 120]
[machine_list_filename: ]
[machines: ]
[gpu_platform_id: -1]
[gpu_device_id: -1]
[gpu_use_dp: 0]
[num_gpu: 1]

end of parameters

pandas_categorical:null
