tree
version=v4
num_class=1
num_tree_per_iteration=1
label_index=0
max_feature_idx=85
objective=binary sigmoid:1
feature_names=Column_0 Column_1 Column_2 Column_3 Column_4 Column_5 Column_6 Column_7 Column_8 Column_9 Column_10 Column_11 Column_12 Column_13 Column_14 Column_15 Column_16 Column_17 Column_18 Column_19 Column_20 Column_21 Column_22 Column_23 Column_24 Column_25 Column_26 Column_27 Column_28 Column_29 Column_30 Column_31 Column_32 Column_33 Column_34 Column_35 Column_36 Column_37 Column_38 Column_39 Column_40 Column_41 Column_42 Column_43 Column_44 Column_45 Column_46 Column_47 Column_48 Column_49 Column_50 Column_51 Column_52 Column_53 Column_54 Column_55 Column_56 Column_57 Column_58 Column_59 Column_60 Column_61 Column_62 Column_63 Column_64 Column_65 Column_66 Column_67 Column_68 Column_69 Column_70 Column_71 Column_72 Column_73 Column_74 Column_75 Column_76 Column_77 Column_78 Column_79 Column_80 Column_81 Column_82 Column_83 Column_84 Column_85
feature_infos=[-0.19248659438210722:0.21049586418511188] [-0.21964597589571958:0.17548840168673341] [-0.30955627098875538:0.21319367644429432] [-0.34664734942081898:0.24420883500811844] [-0.3309447498629296:0.28628464747854826] [0:0.2342899483501126] [0:0.2331996694877386] [0:0.078903504802481428] [0:1] [0.0015341646664040951:0.31693693171166543] none [0:0.99999999752842306] [0:0.99999999492643321] [0:5] [0:5] [-0.20203669525937695:0.10390969966502017] [-0.21711988308513108:0.1676543842744842] [-0.24139865915708558:0.18993825546138909] [-0.35483817204256274:0.25383329846574521] [-0.33155830700051081:0.33843229304135902] [-0.12599614341052212:0.11197585679811395] [-0.083111554941189714:0.073194337554513877] [-0.072490463425803342:0.039961425977554699] [-0.031092934357746627:0.02032572984345582] [-0.016367282816525885:0.016485558042977022] [0:1] [-0.33155830700051081:0.33843229304135902] [-0.15939581341205267:0.07707368704501838] [-0.1917533349989361:0.11779173776782548] [-0.22639396286451652:0.16107327086337087] [-0.14799731635829816:0.048049939426064447] [-0.11945480914964125:0.044958270112928841] [-0.032331768249045018:0.025205225752755137] [-0.0068337987029531005:0.0042210740679211323] [0:1] [0:1] [-0.060931617363970396:0.038399712634775048] [-0.012374204447689548:0.0079879260963385545] [15.454560498250487:91.162437838417006] [7.7244837711389494:97.457216391275111] [-27.842315014840167:29.375422513745001] [-0.69090879003499028:0.82324875676834008] [0:1] [0:1] [-0.40271406960536604:0.039078870305538915] [-0.10543409158462513:0.49041051335482111] [-0.44816058496071415:1.5386562691860459] [0.006765821258893928:0.54388104567752904] [0:1] [0.0036226270657988605:0.14349091784143225] [0.0033166699214356387:0.177844183035409] [0.6769473938983559:1.5052809647564755] [0.16511895846206368:4.3121226361130383] [0.00038777917572603348:0.1561972763619667] [0.0011637354461881996:0.11378541844162907] [0.0016232628039971014:0.080465532210200169] [0:1] [0.045804754298599981:4.3632797175362796] [0.037018022643140837:7.5422998412338345] [-0.97473475993526348:46.357438016528924] [-2.3462364048786362:2.8402560926569995] [0:1] [0:0.9999999930699931] [0:0.99999999500748871] [0:0.99999999122036887] [0:0.99999999122036887] [-0.44273984794531418:-2.0554136170858328e-10] [-3.1250002585636594e-10:0.5418228709048909] [-0.44273984794531418:-1.7482826297765541e-10] [-3.1250002585636594e-10:0.34346039608209811] [0:0.99999999500748871] [0.014494016981203532:0.98664440322769809] [-0.58899426416315426:0.45567954183800163] [0:1] [0:1] [-0.99999999839228293:0] [-3.8701857151045016:4.607339918571113] [-6.1263660793261465:4.8058968318317747] [-0.26622751986616489:0.23762432671207501] [-0.29294537247869101:0.27661090370201502] [-0.28175514892918685:0.33147140129385289] [-0.29294537247869101:0.27661090370201502] [-0.28175514892918685:0.33147140129385289] [0:1] [0:0.93220338983050843] [0:1]
tree_sizes=3110

Tree=0
num_leaves=28
num_cat=0
split_feature=49 32 33 54 15 85 21 53 83 45 24 31 21 76 61 76 19 85 7 24 66 54 19 11 54 66 47
split_gain=164.642 50.629 47.3717 38.8933 37.4716 32.8928 29.9415 29.2939 28.8489 27.6669 22.1179 28.612 27.4979 26.6015 21.7209 18.4382 15.8127 13.1747 19.7755 19.1943 18.2477 12.1532 10.1094 9.71869 9.6376 5.30068 2.72576
threshold=0.0088523552974065015 0.0029818237560358739 0.00018569390135892309 0.0096854219069549777 0.0034313525281677308 0.75000000000000011 0.0085115291752662098 0.003772104418439949 0.93478260869565222 0.040484843997261273 -0.00065618307965048517 0.00067235333576378862 -0.0021547595150622763 -0.92783536137346634 0.3826820907229746 -1.192512877140709 0.0062118601124527837 0.75000000000000011 0.0040446673736261214 -0.0023374524783336121 -0.025369314316407151 0.0071492335764828394 -0.028272791567877539 0.29976957535162113 0.0049216238179592775 -0.031507224259547932 0.084262351513448061
decision_type=2 2 2 2 2 2 2 2 2 2 2 2 2 2 2 2 2 2 2 2 2 2 2 2 2 2 2
left_child=4 2 3 8 10 7 -5 23 -2 24 15 13 -13 -12 -11 -1 -9 18 20 25 -3 -20 -17 -6 -4 -19 -21
right_child=1 17 9 6 5 -7 -8 16 -10 14 11 12 -14 -15 -16 22 -18 19 21 26 -22 -23 -24 -25 -26 -27 -28
leaf_value=-0.82069629803264499 -0.76579796446356074 -0.78935701881153242 -0.66995146108077197 -0.72637102648564755 -0.75654620929810656 -0.6774477369702594 -0.78416233387731515 -0.76533966901079753 -0.72195301225538433 -0.69472407990881857 -0.77702085949710809 -0.7245079293114598 -0.78936461735621255 -0.82782719738151023 -0.7676497717554821 -0.78840588861528649 -0.84033879658864863 -0.71938232757027565 -0.76099852246698074 -0.66103936698415655 -0.72913392819000056 -0.70193408112891198 -0.73235997462319857 -0.69328506154887659 -0.71786169000008604 -0.7764529329230403 -0.70287469931197688
leaf_weight=9.8280262500047666 393.61735408008099 19.717476800084114 13.104630112648008 164.3867207467556 15.73739466071129 13.058673471212385 26.422683104872704 13.885000348091127 41.5330451130867 12.492172449827192 36.526449203491211 19.840325400233269 84.840253576636314 84.104500979185104 52.998703792691231 11.083430558443068 13.21111838519573 11.665399238467218 11.221300482749937 23.239331528544426 35.715589985251427 66.532857671380043 32.485389098525047 11.114365875720976 129.1306971758604 7.133837401866912 13.135119095444677
leaf_count=41 1397 75 32 512 54 33 99 49 127 34 134 61 323 356 189 42 58 35 39 55 112 189 103 30 390 26 37
internal_value=-0.750945 -0.740858 -0.746223 -0.753174 -0.780818 -0.747381 -0.734298 -0.765325 -0.761523 -0.725452 -0.788946 -0.795805 -0.776748 -0.812391 -0.753009 -0.760171 -0.801884 -0.717328 -0.726546 -0.695981 -0.750224 -0.710123 -0.746267 -0.728798 -0.71299 -0.739739 -0.674557
internal_weight=1367.76 1022.05 833.686 625.96 345.715 67.0066 190.809 53.9479 435.15 207.726 278.708 225.312 104.681 120.631 65.4909 53.3968 27.0961 188.361 133.187 55.1737 55.4331 77.7542 43.5688 26.8518 142.235 18.7992 36.3745
internal_count=4632 3348 2780 2135 1284 224 611 191 1524 645 1060 874 384 490 223 186 107 568 415 153 187 228 145 84 422 61 92
is_linear=0
shrinkage=1


end of trees

feature_importances:
Column_54=3
Column_19=2
Column_21=2
Column_24=2
Column_66=2
Column_76=2
Column_85=2
Column_7=1
Column_11=1
Column_15=1
Column_31=1
Column_32=1
Column_33=1
Column_45=1
Column_47=1
Column_49=1
Column_53=1
Column_61=1
Column_83=1

parameters:
[boosting: gbdt]
[objective: binary]
[metric: binary_logloss]
[tree_learner: serial]
[device_type: cpu]
[data_sample_strategy: bagging]
[data: ]
[valid: ]
[num_iterations: 500]
[learning_rate: 0.05]
[num_leaves: 31]
[num_threads: 8]
[seed: 42]
[deterministic: 0]
[force_col_wise: 0]
[force_row_wise: 0]
[histogram_pool_size: -1]
[max_depth: 5]
[min_data_in_leaf: 30]
[min_sum_hessian_in_leaf: 0.001]
[bagging_fraction: 0.8]
[pos_bagging_fraction: 1]
[neg_bagging_fraction: 1]
[bagging_freq: 0]
[bagging_seed: 400]
[bagging_by_query: 0]
[feature_fraction: 0.8]
[feature_fraction_bynode: 1]
[feature_fraction_seed: 30056]
[extra_trees: 0]
[extra_seed: 12879]
[early_stopping_round: 0]
[early_stopping_min_delta: 0]
[first_metric_only: 0]
[max_delta_step: 0]
[lambda_l1: 0.1]
[lambda_l2: 0.5]
[linear_lambda: 0]
[min_gain_to_split: 0]
[drop_rate: 0.1]
[max_drop: 50]
[skip_drop: 0.5]
[xgboost_dart_mode: 0]
[uniform_drop: 0]
[drop_seed: 17869]
[top_rate: 0.2]
[other_rate: 0.1]
[min_data_per_group: 100]
[max_cat_threshold: 32]
[cat_l2: 10]
[cat_smooth: 10]
[max_cat_to_onehot: 4]
[top_k: 20]
[monotone_constraints: ]
[monotone_constraints_method: basic]
[monotone_penalty: 0]
[feature_contri: ]
[forcedsplits_filename: ]
[refit_decay_rate: 0.9]
[cegb_tradeoff: 1]
[cegb_penalty_split: 0]
[cegb_penalty_feature_lazy: ]
[cegb_penalty_feature_coupled: ]
[path_smooth: 0]
[interaction_constraints: ]
[verbosity: -1]
[saved_feature_importance_type: 0]
[use_quantized_grad: 0]
[num_grad_quant_bins: 4]
[quant_train_renew_leaf: 0]
[stochastic_rounding: 1]
[linear_tree: 0]
[max_bin: 255]
[max_bin_by_feature: ]
[min_data_in_bin: 3]
[bin_construct_sample_cnt: 200000]
[data_random_seed: 175]
[is_enable_sparse: 1]
[enable_bundle: 1]
[use_missing: 1]
[zero_as_missing: 0]
[feature_pre_filter: 1]
[pre_partition: 0]
[two_round: 0]
[header: 0]
[label_column: ]
[weight_column: ]
[group_column: ]
[ignore_column: ]
[categorical_feature: ]
[forcedbins_filename: ]
[precise_float_parser: 0]
[parser_config_file: ]
[objective_seed: 16083]
[num_class: 1]
[is_unbalance: 0]
[scale_pos_weight: 2.21443]
[sigmoid: 1]
[boost_from_average: 1]
[reg_sqrt: 0]
[alpha: 0.9]
[fair_c: 1]
[poisson_max_delta_step: 0.7]
[tweedie_variance_power: 1.5]
[lambdarank_truncation_level: 30]
[lambdarank_norm: 1]
[label_gain: ]
[lambdarank_position_bias_regularization: 0]
[eval_at: ]
[multi_error_top_k: 1]
[auc_mu_weights: ]
[num_machines: 1]
[local_listen_port: 12400]
[time_out: 120]
[machine_list_filename: ]
[machines: ]
[gpu_platform_id: -1]
[gpu_device_id: -1]
[gpu_use_dp: 0]
[num_gpu: 1]

end of parameters

pandas_categorical:null
