tree
version=v4
num_class=1
num_tree_per_iteration=1
label_index=0
max_feature_idx=85
objective=binary sigmoid:1
feature_names=Column_0 Column_1 Column_2 Column_3 Column_4 Column_5 Column_6 Column_7 Column_8 Column_9 Column_10 Column_11 Column_12 Column_13 Column_14 Column_15 Column_16 Column_17 Column_18 Column_19 Column_20 Column_21 Column_22 Column_23 Column_24 Column_25 Column_26 Column_27 Column_28 Column_29 Column_30 Column_31 Column_32 Column_33 Column_34 Column_35 Column_36 Column_37 Column_38 Column_39 Column_40 Column_41 Column_42 Column_43 Column_44 Column_45 Column_46 Column_47 Column_48 Column_49 Column_50 Column_51 Column_52 Column_53 Column_54 Column_55 Column_56 Column_57 Column_58 Column_59 Column_60 Column_61 Column_62 Column_63 Column_64 Column_65 Column_66 Column_67 Column_68 Column_69 Column_70 Column_71 Column_72 Column_73 Column_74 Column_75 Column_76 Column_77 Column_78 Column_79 Column_80 Column_81 Column_82 Column_83 Column_84 Column_85
feature_infos=[-0.26365139434595769:0.15039817715741996] [-0.2607805192542747:0.20431975183572679] [-0.26439896477698555:0.28021543189288206] [-0.25752522653360194:0.32899975823141847] [-0.2640501681218973:0.29915953212338986] [2.4448682210075625e-05:0.23175869369767949] [0:0.08410669086764011] [0:0.071448174899037528] [0:1] [0.0034316268291642981:0.25289791842131432] none [0:0.9999999949974987] [0:0.99999999492643321] [0:5] [0:5] [-0.19317426179472141:0.13256431301024008] [-0.21171303694044152:0.13327580549954687] [-0.21306368438459122:0.21066468388857795] [-0.22117018075453587:0.44186747290643091] [-0.2420754567823149:0.58717501291381002] [-0.10380183467893123:0.15343213685267676] [-0.052687989366964727:0.066265710415688517] [-0.075849990789085164:0.053301100390525491] [-0.038112130126319199:0.037996156035982276] [-0.01597932127543189:0.020048001544378691] [0:1] [-0.2420754567823149:0.58717501291381002] [-0.16601384328884228:0.094389849646823842] [-0.19414993600541119:0.12054640942725392] [-0.20811250054139518:0.1934868892827637] [-0.090262841954652076:0.07895889962156602] [-0.087152593119091168:0.074194716596386753] [-0.021244823766089813:0.017235300997437159] [-0.0060041636773939411:0.0042527143167151059] [0:1] [0:1] [-0.041457555454747379:0.029160481661391409] [-0.012673960036945566:0.01049555369103415] [15.202203873244869:90.344176585816314] [7.4316961690738594:94.47256378922232] [-40.04645649370233:17.822290987694494] [-0.69595592253510263:0.80688353171632632] [0:1] [0:1] [-0.34693807384837205:0.034683622589167573] [-0.12124654768485044:0.50963260382538822] [-0.51958335187381322:1.3367069674122494] [0.011340243394139351:0.70975179979029568] [0:1] [0.0080419903166391461:0.099789127626159865] [0.0069129820834002136:0.12682770435534718] [0.6476423889134767:1.4906056206189993] [0.23689093995007759:4.4092013940117818] [0.00098330370598332718:0.14911474835996222] [0.0024918061678993395:0.10549712341832063] [0.0035652747332902582:0.0794303811031805] [0:1] [0.12097219295340736:4.2033059171125124] [0.077662584898154419:5.9256207278523743] [-0.912444832051587:17.248306373565601] [-1.9003967525784089:2.8376810326936583] [0:1] [0:0.9999999951385512] [0:0.99293784609507252] [0:0.99143805523075668] [0.0048151001448091335:0.99413489677763345] [-0.39138390199253892:-0.0011008503045480955] [-3.1013525081391435e-10:0.50125708105619737] [-0.27679346695215234:-1.693939433167202e-10] [-3.1013525081391435e-10:0.46346797844868171] [0:0.98960390790144104] [0.038434480865282179:0.95849757472991814] [-0.43634602070155087:0.45295549205904573] [0:1] [0:1] [-0.99999999634502923:-0.010396091058949911] [-3.560212036745571:4.5016930975059664] [-3.6804607128243858:4.2360268075743726] [-0.2323327936231161:0.32341488740346547] [-0.22703787308753443:0.38957751963138421] [-0.23206498716702795:0.34872477123758849] [-0.22703787308753443:0.38957751963138421] [-0.23206498716702795:0.34872477123758849] [0:1] [0:0.76271186440677963] [0:1]
tree_sizes=2144 2239 2260

Tree=0
num_leaves=19
num_cat=0
split_feature=54 9 46 47 36 53 37 20 6 59 33 0 4 47 59 33 54 19
split_gain=64.1201 26.1559 25.0363 16.2786 16.2152 15.4412 15.676 15.3218 14.4426 27.0981 15.9417 15.4803 12.2064 8.26014 9.01915 8.20259 7.71118 5.79157
threshold=0.006564511010978896 0.021041135379312809 0.81786439073175654 0.030211218358665731 -0.013003305936184482 0.010704509090732188 -6.3583305453624977e-05 -0.005618322250912077 0.0027971248691230862 -0.50648206329649714 -0.00036516241884577098 -0.00040669882113998672 -0.011576090016089542 0.045147326335341319 0.2534856852662985 4.5971293195343618e-05 0.011652107971103307 0.011455095938504247
decision_type=2 2 2 2 2 2 2 2 2 2 2 2 2 2 2 2 2 2
left_child=2 8 3 17 -3 7 -7 -6 11 16 -11 12 -2 -5 -15 -13 -10 -1
right_child=1 4 -4 13 5 6 -8 -9 9 10 -12 15 -14 14 -16 -17 -18 -19
leaf_value=-0.8831452457333453 -0.82788859792161607 -0.80748714689245138 -0.7521930441251341 -0.77722493610954202 -0.73776664423520599 -0.76352687574985867 -0.7294290931343419 -0.80139770876597394 -0.8213306002050228 -0.73335896199645412 -0.793269771239697 -0.77462533951159784 -0.76703733544749286 -0.84906170361725153 -0.78284569178182617 -0.71808943530200497 -0.88815033422655254 -0.83185128495447325
leaf_weight=14.697241395711901 12.287317276000975 14.428904742002485 10.996236801147459 11.516661554574965 14.314699232578276 64.548457741737366 85.001477032899857 28.279353410005569 9.4711739122867602 13.195855587720869 67.979268550872803 12.211180269718172 23.149385750293732 15.836047857999803 6.9832556545734397 19.138261735439301 7.4256862699985495 9.4131425917148572
leaf_count=68 49 54 34 39 42 210 244 104 37 38 244 41 76 67 24 52 35 38
internal_value=-0.775552 -0.767317 -0.819742 -0.832845 -0.755383 -0.751542 -0.743871 -0.779176 -0.782455 -0.794984 -0.782991 -0.764465 -0.788074 -0.810854 -0.828193 -0.738875 -0.851761 -0.863943
internal_weight=440.874 371.431 69.4426 58.4463 206.573 192.144 149.55 42.5941 164.858 98.072 81.1751 66.7861 35.4367 34.336 22.8193 31.3494 16.8969 24.1104
internal_count=1496 1226 270 236 654 600 454 146 572 354 282 218 125 130 91 93 72 106
is_linear=0
shrinkage=1


Tree=1
num_leaves=20
num_cat=0
split_feature=54 46 9 57 12 12 65 47 12 50 22 49 45 5 49 41 33 12 39
split_gain=55.7268 22.1993 22.18 25.5268 16.704 16.3321 27.3813 15.0207 14.1416 15.155 11.7603 10.6773 8.55661 8.03909 8.33795 7.94908 7.91458 7.64075 7.3212
threshold=0.006564511010978896 0.81786439073175654 0.021041135379312809 0.41488057588072841 0.61907941140268807 0.25205508975064633 0.40178396208334433 0.030211218358665731 0.79699663100922258 0.013284680898794579 0.014954685182768325 0.044900908179833145 0.047946804319090826 0.0050449504956273806 0.014111422782402657 -0.19770371591629773 4.1328178795354595e-05 0.62958753387299649 55.527547733600358
decision_type=2 2 2 2 2 2 2 2 2 2 2 2 2 2 2 2 2 2 2
left_child=1 7 3 4 -2 6 15 17 9 -5 12 -12 -7 14 -9 -4 -10 -1 -8
right_child=2 -3 5 8 -6 10 18 13 16 -11 11 -13 -14 -15 -16 -17 -18 -19 -20
leaf_value=-0.061417156674799966 -0.058248356436118101 0.064178253062521465 0.033554803036157495 0.075590833655349188 0.038602616547531575 0.058601370550665013 0.01143443981618379 0.056189596864092577 0.037342489903823453 0.027552284731546119 0.0037413307573890583 0.073958705819109641 0.085407479795765823 -0.026115087474769406 -0.0015496630105597488 0.08620041132009372 0.096883360556895878 -0.001389873325772787 -0.052446293641049219
leaf_weight=15.48518341779709 10.673679903149607 11.284466087818144 14.694946691393854 19.618083879351616 6.9000720977783194 59.996430158615112 10.630195677280428 11.231388136744501 10.086779221892359 103.00047092139721 13.151440367102625 8.9690911024808866 80.4404376745224 10.245488613843916 12.984171554446219 16.806999936699867 16.957857877016068 8.2257732748985273 6.9846606850624076
leaf_count=73 49 34 50 58 23 187 39 36 34 364 49 26 225 43 51 47 44 33 31
internal_value=0.0427631 0.00150209 0.0503013 0.0364198 -0.0199287 0.0611335 0.0350982 -0.0110142 0.043114 0.0355545 0.0688377 0.0334385 0.0742396 0.0099444 0.025623 0.0627066 0.075939 -0.0412579 -0.014368
internal_weight=448.368 69.4565 378.911 167.237 17.5738 211.674 49.1168 58.172 149.663 122.619 162.557 22.1205 140.437 34.461 24.2156 31.5019 27.0446 23.711 17.6149
internal_count=1496 270 1226 572 72 654 167 236 500 422 487 75 412 130 87 97 78 106 70
is_linear=0
shrinkage=0.05


Tree=2
num_leaves=20
num_cat=0
split_feature=54 60 33 83 45 22 77 6 11 30 76 67 6 80 7 23 21 70 20
split_gain=48.7076 20.7519 19.7585 16.4964 19.7209 24.332 24.0277 21.4502 16.3627 15.26 12.2419 10.9277 10.7457 10.3399 11.7271 10.0405 14.5708 9.93926 4.22611
threshold=0.006564511010978896 -0.73000877614678461 6.7708416252528427e-05 0.84782608695652184 0.043480699996742096 -0.0019432796912898784 0.59677404928537914 0.002630333936246836 0.34851957937838957 0.017317722481713354 -1.2287937354801823 0.058120453953731006 0.01283953046791266 0.0068718722685358067 0.0066143367248064624 4.9837871522129269e-05 0.00048434211886372319 0.37636126927420321 -0.0021491452978196763
decision_type=2 2 2 2 2 2 2 2 2 2 2 2 2 2 2 2 2 2 2
left_child=1 18 15 4 5 6 -2 -7 -4 11 -5 -6 -11 17 -15 -3 -17 -12 -1
right_child=3 2 8 10 9 7 -8 -9 -10 12 13 -13 -14 14 -16 16 -18 -19 -20
leaf_value=-0.010159709300447161 0.058132191356429976 -0.046788565296937451 0.014799761676456226 0.014203187630480727 0.038995300324935311 0.044236530025062587 -0.020725634612902711 -0.014157944248496843 0.10176460412239269 0.0022335555831453401 0.067268069684459197 0.071191939485773778 0.055416630712053709 0.013157019654330374 0.092260221685385113 0.053130890512159516 -0.037522806673907269 0.12419424592812159 -0.059069484495446779
leaf_weight=7.5762716084718731 68.462803110480309 10.520379662513735 12.735900923609735 8.9154346436262113 40.912292763590813 23.730938628315926 10.87199582159519 44.203747794032097 9.3948324620723707 22.313099250197411 19.784809961915016 93.755448803305626 16.367856740951538 11.548395425081255 7.8440980315208426 9.7408243417739886 7.2992787957191458 16.760783478617668 12.16631595790386
leaf_count=31 210 48 46 32 134 76 43 174 24 83 58 268 50 41 20 32 32 37 57
internal_value=0.0400451 0.00140722 0.0187016 0.0469811 0.0421592 0.0284717 0.0472008 0.00634151 0.0533713 0.0536434 0.0702378 0.061628 0.0252856 0.0788751 0.0469197 -0.00941447 0.0140508 0.0948348 -0.0412618
internal_weight=454.906 69.4338 49.6912 385.472 320.618 147.269 79.3348 67.9347 22.1307 173.349 64.8535 134.668 38.681 55.9381 19.3925 27.5605 17.0401 36.5456 19.7426
internal_count=1496 270 182 1226 1038 503 253 250 70 535 188 402 133 156 61 112 64 95 88
is_linear=0
shrinkage=0.05


end of trees

feature_importances:
Column_12=4
Column_33=4
Column_54=4
Column_6=3
Column_47=3
Column_9=2
Column_20=2
Column_22=2
Column_45=2
Column_46=2
Column_49=2
Column_59=2
Column_0=1
Column_4=1
Column_5=1
Column_7=1
Column_11=1
Column_19=1
Column_21=1
Column_23=1
Column_30=1
Column_36=1
Column_37=1
Column_39=1
Column_41=1
Column_50=1
Column_53=1
Column_57=1
Column_60=1
Column_65=1
Column_67=1
Column_70=1
Column_76=1
Column_77=1
Column_80=1
Column_83=1

parameters:
[boosting: gbdt]
[objective: binary]
[metric: binary_logloss]
[tree_learner: serial]
[device_type: cpu]
[data_sample_strategy: bagging]
[data: ]
[valid: ]
[num_iterations: 500]
[learning_rate: 0.05]
[num_leaves: 31]
[num_threads: 8]
[seed: 42]
[deterministic: 0]
[force_col_wise: 0]
[force_row_wise: 0]
[histogram_pool_size: -1]
[max_depth: 5]
[min_data_in_leaf: 30]
[min_sum_hessian_in_leaf: 0.001]
[bagging_fraction: 0.8]
[pos_bagging_fraction: 1]
[neg_bagging_fraction: 1]
[bagging_freq: 0]
[bagging_seed: 400]
[bagging_by_query: 0]
[feature_fraction: 0.8]
[feature_fraction_bynode: 1]
[feature_fraction_seed: 30056]
[extra_trees: 0]
[extra_seed: 12879]
[early_stopping_round: 0]
[early_stopping_min_delta: 0]
[first_metric_only: 0]
[max_delta_step: 0]
[lambda_l1: 0.1]
[lambda_l2: 0.5]
[linear_lambda: 0]
[min_gain_to_split: 0]
[drop_rate: 0.1]
[max_drop: 50]
[skip_drop: 0.5]
[xgboost_dart_mode: 0]
[uniform_drop: 0]
[drop_seed: 17869]
[top_rate: 0.2]
[other_rate: 0.1]
[min_data_per_group: 100]
[max_cat_threshold: 32]
[cat_l2: 10]
[cat_smooth: 10]
[max_cat_to_onehot: 4]
[top_k: 20]
[monotone_constraints: ]
[monotone_constraints_method: basic]
[monotone_penalty: 0]
[feature_contri: ]
[forcedsplits_filename: ]
[refit_decay_rate: 0.9]
[cegb_tradeoff: 1]
[cegb_penalty_split: 0]
[cegb_penalty_feature_lazy: ]
[cegb_penalty_feature_coupled: ]
[path_smooth: 0]
[interaction_constraints: ]
[verbosity: -1]
[saved_feature_importance_type: 0]
[use_quantized_grad: 0]
[num_grad_quant_bins: 4]
[quant_train_renew_leaf: 0]
[stochastic_rounding: 1]
[linear_tree: 0]
[max_bin: 255]
[max_bin_by_feature: ]
[min_data_in_bin: 3]
[bin_construct_sample_cnt: 200000]
[data_random_seed: 175]
[is_enable_sparse: 1]
[enable_bundle: 1]
[use_missing: 1]
[zero_as_missing: 0]
[feature_pre_filter: 1]
[pre_partition: 0]
[two_round: 0]
[header: 0]
[label_column: ]
[weight_column: ]
[group_column: ]
[ignore_column: ]
[categorical_feature: ]
[forcedbins_filename: ]
[precise_float_parser: 0]
[parser_config_file: ]
[objective_seed: 16083]
[num_class: 1]
[is_unbalance: 0]
[scale_pos_weight: 2.27352]
[sigmoid: 1]
[boost_from_average: 1]
[reg_sqrt: 0]
[alpha: 0.9]
[fair_c: 1]
[poisson_max_delta_step: 0.7]
[tweedie_variance_power: 1.5]
[lambdarank_truncation_level: 30]
[lambdarank_norm: 1]
[label_gain: ]
[lambdarank_position_bias_regularization: 0]
[eval_at: ]
[multi_error_top_k: 1]
[auc_mu_weights: ]
[num_machines: 1]
[local_listen_port: 12400]
[time_out: 120]
[machine_list_filename: ]
[machines: ]
[gpu_platform_id: -1]
[gpu_device_id: -1]
[gpu_use_dp: 0]
[num_gpu: 1]

end of parameters

pandas_categorical:null
