tree
version=v4
num_class=1
num_tree_per_iteration=1
label_index=0
max_feature_idx=85
objective=binary sigmoid:1
feature_names=Column_0 Column_1 Column_2 Column_3 Column_4 Column_5 Column_6 Column_7 Column_8 Column_9 Column_10 Column_11 Column_12 Column_13 Column_14 Column_15 Column_16 Column_17 Column_18 Column_19 Column_20 Column_21 Column_22 Column_23 Column_24 Column_25 Column_26 Column_27 Column_28 Column_29 Column_30 Column_31 Column_32 Column_33 Column_34 Column_35 Column_36 Column_37 Column_38 Column_39 Column_40 Column_41 Column_42 Column_43 Column_44 Column_45 Column_46 Column_47 Column_48 Column_49 Column_50 Column_51 Column_52 Column_53 Column_54 Column_55 Column_56 Column_57 Column_58 Column_59 Column_60 Column_61 Column_62 Column_63 Column_64 Column_65 Column_66 Column_67 Column_68 Column_69 Column_70 Column_71 Column_72 Column_73 Column_74 Column_75 Column_76 Column_77 Column_78 Column_79 Column_80 Column_81 Column_82 Column_83 Column_84 Column_85
feature_infos=[-0.26365139434595769:0.15039817715741996] [-0.2607805192542747:0.20431975183572679] [-0.26439896477698555:0.28021543189288206] [-0.25752522653360194:0.32899975823141847] [-0.2640501681218973:0.29915953212338986] [2.4448682210075625e-05:0.23175869369767949] [0:0.08410669086764011] [0:0.071448174899037528] [0:1] [0.0034316268291642981:0.25289791842131432] none [0:0.9999999949974987] [0:0.99999999492643321] [0:5] [0:5] [-0.19317426179472141:0.13256431301024008] [-0.21171303694044152:0.13327580549954687] [-0.21306368438459122:0.21066468388857795] [-0.22117018075453587:0.44186747290643091] [-0.2420754567823149:0.58717501291381002] [-0.10380183467893123:0.15343213685267676] [-0.052687989366964727:0.066265710415688517] [-0.075849990789085164:0.053301100390525491] [-0.038112130126319199:0.037996156035982276] [-0.01597932127543189:0.020048001544378691] [0:1] [-0.2420754567823149:0.58717501291381002] [-0.16601384328884228:0.094389849646823842] [-0.19414993600541119:0.12054640942725392] [-0.20811250054139518:0.1934868892827637] [-0.090262841954652076:0.07895889962156602] [-0.087152593119091168:0.074194716596386753] [-0.021244823766089813:0.017235300997437159] [-0.0060041636773939411:0.0042527143167151059] [0:1] [0:1] [-0.041457555454747379:0.029160481661391409] [-0.012673960036945566:0.01049555369103415] [15.202203873244869:90.344176585816314] [7.4316961690738594:94.47256378922232] [-40.04645649370233:17.822290987694494] [-0.69595592253510263:0.80688353171632632] [0:1] [0:1] [-0.34693807384837205:0.034683622589167573] [-0.12124654768485044:0.50963260382538822] [-0.51958335187381322:1.3367069674122494] [0.011340243394139351:0.70975179979029568] [0:1] [0.0080419903166391461:0.099789127626159865] [0.0069129820834002136:0.12682770435534718] [0.6476423889134767:1.4906056206189993] [0.23689093995007759:4.4092013940117818] [0.00098330370598332718:0.14911474835996222] [0.0024918061678993395:0.10549712341832063] [0.0035652747332902582:0.0794303811031805] [0:1] [0.12097219295340736:4.2033059171125124] [0.077662584898154419:5.9256207278523743] [-0.912444832051587:17.248306373565601] [-1.9003967525784089:2.8376810326936583] [0:1] [0:0.9999999951385512] [0:0.99293784609507252] [0:0.99143805523075668] [0.0048151001448091335:0.99413489677763345] [-0.39138390199253892:-0.0011008503045480955] [-3.1013525081391435e-10:0.50125708105619737] [-0.27679346695215234:-1.693939433167202e-10] [-3.1013525081391435e-10:0.46346797844868171] [0:0.98960390790144104] [0.038434480865282179:0.95849757472991814] [-0.43634602070155087:0.45295549205904573] [0:1] [0:1] [-0.99999999634502923:-0.010396091058949911] [-3.560212036745571:4.5016930975059664] [-3.6804607128243858:4.2360268075743726] [-0.2323327936231161:0.32341488740346547] [-0.22703787308753443:0.38957751963138421] [-0.23206498716702795:0.34872477123758849] [-0.22703787308753443:0.38957751963138421] [-0.23206498716702795:0.34872477123758849] [0:1] [0:0.76271186440677963] [0:1]
tree_sizes=1720 1841 2156 1627

Tree=0
num_leaves=15
num_cat=0
split_feature=28 85 68 71 45 50 69 23 47 32 6 68 51 47
split_gain=31.8693 21.7447 21.0916 19.232 18.0136 33.7349 13.8099 13.4198 13.1813 17.8071 11.162 8.1437 4.87016 2.43536
threshold=-0.022456259604976821 0.75000000000000011 -0.017941967181260118 0.87018218563825356 0.043480699996742096 0.018481434992583062 0.0076131167761741567 0.0034528242375899691 0.083013928422591476 0.00044588683586380405 0.0023966778663605912 -0.033160003907123085 1.0730107046201816 0.060370730818926528
decision_type=2 2 2 2 2 2 2 2 2 2 2 2 2 2
left_child=6 3 8 4 5 -2 -1 -6 9 -3 -4 -10 -8 -12
right_child=1 2 10 -5 7 -7 12 -9 11 -11 13 -13 -14 -15
leaf_value=-0.46360086356634095 -0.45774491288420388 -0.48093224697416964 -0.46950217488328327 -0.39327445181422083 -0.45345190348333392 -0.41135994550495436 -0.41677938467276077 -0.48895679930997982 -0.45214323908354348 -0.40554929505686105 -0.50561668936388904 -0.50709804427926286 -0.37172333163975424 -0.54094943035796283
leaf_weight=9.3840813338756544 116.08366025984287 12.837314352393152 13.74197807908058 14.483282580971716 65.278108611702919 59.514744848012924 15.849972456693651 44.092559024691582 11.378219246864321 18.89274474978447 11.408333435654642 15.005537107586859 15.347106501460074 12.579487234354017
leaf_count=33 404 47 49 43 225 186 50 164 39 58 44 58 43 52
internal_value=-0.451009 -0.455415 -0.476094 -0.44879 -0.451768 -0.441858 -0.408987 -0.467807 -0.457299 -0.435811 -0.505035 -0.483216 -0.393167 -0.525305
internal_weight=435.877 395.296 95.8436 299.452 284.969 175.598 40.5812 109.371 58.1138 31.7301 37.7298 26.3838 31.1971 23.9878
internal_count=1495 1369 347 1022 979 590 126 389 202 105 145 97 93 96
is_linear=0
shrinkage=1


Tree=1
num_leaves=16
num_cat=0
split_feature=68 83 45 50 39 7 23 55 54 49 45 71 21 5 71
split_gain=28.6158 20.3763 22.2148 29.6364 23.8056 17.5029 16.4763 15.8605 13.3687 14.9673 14.378 10.3133 9.13764 8.84631 4.56777
threshold=-0.093118025789726874 0.80434782608695665 0.042670439308470261 0.020853696805992219 70.103822090534095 0.0037657122178414077 -0.0024934125147723081 0.024860333935149685 0.0070844398526476353 0.029061475041344712 0.044346053294431094 0.53981168414316938 -0.00056015044723023422 0.017880956973602497 0.30577405673493158
decision_type=2 2 2 2 2 2 2 2 2 2 2 2 2 2 2
left_child=-1 2 3 6 7 -6 -2 -4 12 11 -11 -10 14 -5 -3
right_child=1 8 4 13 5 -7 -8 -9 9 10 -12 -13 -14 -15 -16
leaf_value=0.086577456425673299 -0.017397317067785557 0.018336793754165758 -0.013811479251777279 0.074579943986800637 -0.016440024375134497 0.061971265978436378 0.031385169414755977 0.02699908716827807 -0.050114272170798217 0.061247058923799891 -0.027184643469563133 0.0052586091980046691 -0.0066750943308879502 0.024634993910185667 0.069905036297291556
leaf_weight=16.76728954911232 20.311064302921295 8.7106469422578865 72.920157209038734 51.330876216292381 8.8411150276660901 30.991317942738533 102.91967107355595 34.724578946828842 26.379814922809601 9.8012691140174883 7.8087091594934455 11.882762759923933 13.07698157429695 11.861367195844648 9.8437313884496671
leaf_count=48 76 30 271 153 33 96 345 118 105 30 30 42 48 40 30
internal_value=0.023305 0.020676 0.0262973 0.0377634 0.0116909 0.0444553 0.0232665 -0.000536406 -0.000744832 -0.0154666 0.0220902 -0.0329428 0.0249397 0.0655506 0.0470744
internal_weight=438.171 421.404 333.9 186.423 147.477 39.8324 123.231 107.645 87.5039 55.8726 17.61 38.2626 31.6314 63.1922 18.5544
internal_count=1495 1447 1132 614 518 129 421 389 315 207 60 147 108 193 60
is_linear=0
shrinkage=0.05


Tree=2
num_leaves=19
num_cat=0
split_feature=28 53 85 68 83 65 39 47 36 6 20 5 72 72 68 7 23 65
split_gain=25.5492 22.9044 15.8739 18.7103 13.1213 13.2007 18.4964 12.8141 11.2985 10.5244 10.4549 9.87623 8.01653 8.56011 5.6613 5.36596 4.90546 2.36583
threshold=-0.016536936667824628 0.011888652232701363 0.75000000000000011 -0.016745554802107761 0.80434782608695665 0.51255404492087753 73.76647259032508 0.086289827351330131 -0.00013193006928239668 0.0020967753775390043 -0.016205767652359645 0.015710607005556952 -0.058156515335918112 0.078362315815490649 -0.032159582645192079 0.0060718101921534368 -0.0022859747606050469 0.4882160885906271
decision_type=2 2 2 2 2 2 2 2 2 2 2 2 2 2 2 2 2 2
left_child=1 10 4 7 5 11 -7 8 -4 -5 -1 -2 -6 -14 -9 -3 -17 -11
right_child=2 15 3 9 12 6 -8 14 -10 17 -12 -13 13 -15 -16 16 -18 -19
leaf_value=-0.037941048957286692 0.049324828236305247 0.045994223929199073 -0.0051310708803340545 0.0095112922293557941 -0.028249611035215901 0.0095760392074555212 0.054206697490926187 0.014373230490221807 0.056683258935218285 -0.05846743050322184 0.03753897602787179 -0.0063740356892012622 0.024980402118676442 -0.023976210205964087 -0.036078495595518054 0.10455148515663559 0.053777085219646296 -0.020585108431020686
leaf_weight=7.73675009608269 78.186794921755791 15.859700754284857 10.665547445416449 11.368689537048338 15.432660698890684 113.55323520302773 28.936052456498146 9.8508761078119296 22.07498662173748 16.702179074287418 9.8271661847829801 8.5608452856540662 35.131212741136551 11.380245596170424 11.429494962096213 16.199869394302368 10.172538682818415 7.0335579216480246
leaf_count=30 248 50 39 40 59 397 90 34 68 69 32 31 119 43 45 43 31 27
internal_value=0.0220532 0.0523674 0.0172113 -0.00119665 0.0228552 0.028364 0.0188322 0.0171624 0.0366219 -0.0294334 0.003884 0.0437658 0.00232443 0.0127679 -0.0127006 0.0721328 0.0865175 -0.0481044
internal_weight=440.102 59.796 380.306 89.1253 291.181 229.237 142.489 54.0209 32.7405 35.1044 17.5639 86.7476 61.9441 46.5115 21.2804 42.2321 26.3724 23.7357
internal_count=1495 186 1309 322 987 766 487 186 107 136 62 279 221 162 79 124 74 96
is_linear=0
shrinkage=0.05


Tree=3
num_leaves=14
num_cat=0
split_feature=68 83 45 50 39 7 55 61 29 54 85 83 45
split_gain=23.236 16.5312 19.096 25.8735 19.5924 15.4653 14.1845 13.6151 12.7478 12.4959 13.5597 12.0726 9.52271
threshold=-0.093118025789726874 0.80434782608695665 0.042670439308470261 0.018481434992583062 70.103822090534095 0.0037657122178414077 0.024860333935149685 0.73725950310171207 -0.01716709430975832 0.0070844398526476353 0.25000000000000006 0.065217391304347838 0.02471533628671874
decision_type=2 2 2 2 2 2 2 2 2 2 2 2 2
left_child=-1 2 3 7 6 -6 -4 -2 -3 12 -11 -5 -10
right_child=1 8 4 11 5 -7 -8 -9 9 10 -12 -13 -14
leaf_value=0.077210158590764064 0.023984725982310107 0.039309215390989451 -0.013728561490113013 0.0070335936498930295 -0.017635521369839004 0.055659975271552531 0.024758836598953823 -0.028689948823704566 -0.0042985513270616931 0.014602647242975376 -0.043925819262564683 0.061452826924212833 0.05748666029669805
leaf_weight=17.183618620038033 87.717320337891579 15.63809624314308 72.848881706595421 12.185246676206587 8.8929441571235639 31.61067408323288 35.022423297166824 13.735549524426458 17.678250372409824 13.928309321403502 31.220598444342613 75.076122745871544 8.9774191230535489
leaf_count=48 295 51 271 42 33 96 118 52 64 48 124 225 28
internal_value=0.0208811 0.0185012 0.0235203 0.0340674 0.0100027 0.0394265 -0.0011302 0.0166984 -0.000814176 -0.00983308 -0.0257982 0.053994 0.0170014
internal_weight=441.715 424.532 337.089 188.714 148.375 40.5036 107.871 101.453 87.4427 71.8046 45.1489 87.2614 26.6557
internal_count=1495 1447 1132 614 518 129 389 347 315 264 172 267 92
is_linear=0
shrinkage=0.05


end of trees

feature_importances:
Column_68=6
Column_45=5
Column_83=4
Column_7=3
Column_23=3
Column_39=3
Column_47=3
Column_50=3
Column_71=3
Column_85=3
Column_5=2
Column_6=2
Column_28=2
Column_54=2
Column_55=2
Column_65=2
Column_72=2
Column_20=1
Column_21=1
Column_29=1
Column_32=1
Column_36=1
Column_49=1
Column_51=1
Column_53=1
Column_61=1
Column_69=1

parameters:
[boosting: gbdt]
[objective: binary]
[metric: binary_logloss]
[tree_learner: serial]
[device_type: cpu]
[data_sample_strategy: bagging]
[data: ]
[valid: ]
[num_iterations: 500]
[learning_rate: 0.05]
[num_leaves: 31]
[num_threads: 8]
[seed: 42]
[deterministic: 0]
[force_col_wise: 0]
[force_row_wise: 0]
[histogram_pool_size: -1]
[max_depth: 5]
[min_data_in_leaf: 30]
[min_sum_hessian_in_leaf: 0.001]
[bagging_fraction: 0.8]
[pos_bagging_fraction: 1]
[neg_bagging_fraction: 1]
[bagging_freq: 0]
[bagging_seed: 400]
[bagging_by_query: 0]
[feature_fraction: 0.8]
[feature_fraction_bynode: 1]
[feature_fraction_seed: 30056]
[extra_trees: 0]
[extra_seed: 12879]
[early_stopping_round: 0]
[early_stopping_min_delta: 0]
[first_metric_only: 0]
[max_delta_step: 0]
[lambda_l1: 0.1]
[lambda_l2: 0.5]
[linear_lambda: 0]
[min_gain_to_split: 0]
[drop_rate: 0.1]
[max_drop: 50]
[skip_drop: 0.5]
[xgboost_dart_mode: 0]
[uniform_drop: 0]
[drop_seed: 17869]
[top_rate: 0.2]
[other_rate: 0.1]
[min_data_per_group: 100]
[max_cat_threshold: 32]
[cat_l2: 10]
[cat_smooth: 10]
[max_cat_to_onehot: 4]
[top_k: 20]
[monotone_constraints: ]
[monotone_constraints_method: basic]
[monotone_penalty: 0]
[feature_contri: ]
[forcedsplits_filename: ]
[refit_decay_rate: 0.9]
[cegb_tradeoff: 1]
[cegb_penalty_split: 0]
[cegb_penalty_feature_lazy: ]
[cegb_penalty_feature_coupled: ]
[path_smooth: 0]
[interaction_constraints: ]
[verbosity: -1]
[saved_feature_importance_type: 0]
[use_quantized_grad: 0]
[num_grad_quant_bins: 4]
[quant_train_renew_leaf: 0]
[stochastic_rounding: 1]
[linear_tree: 0]
[max_bin: 255]
[max_bin_by_feature: ]
[min_data_in_bin: 3]
[bin_construct_sample_cnt: 200000]
[data_random_seed: 175]
[is_enable_sparse: 1]
[enable_bundle: 1]
[use_missing: 1]
[zero_as_missing: 0]
[feature_pre_filter: 1]
[pre_partition: 0]
[two_round: 0]
[header: 0]
[label_column: ]
[weight_column: ]
[group_column: ]
[ignore_column: ]
[categorical_feature: ]
[forcedbins_filename: ]
[precise_float_parser: 0]
[parser_config_file: ]
[objective_seed: 16083]
[num_class: 1]
[is_unbalance: 0]
[scale_pos_weight: 1.60908]
[sigmoid: 1]
[boost_from_average: 1]
[reg_sqrt: 0]
[alpha: 0.9]
[fair_c: 1]
[poisson_max_delta_step: 0.7]
[tweedie_variance_power: 1.5]
[lambdarank_truncation_level: 30]
[lambdarank_norm: 1]
[label_gain: ]
[lambdarank_position_bias_regularization: 0]
[eval_at: ]
[multi_error_top_k: 1]
[auc_mu_weights: ]
[num_machines: 1]
[local_listen_port: 12400]
[time_out: 120]
[machine_list_filename: ]
[machines: ]
[gpu_platform_id: -1]
[gpu_device_id: -1]
[gpu_use_dp: 0]
[num_gpu: 1]

end of parameters

pandas_categorical:null
