tree
version=v4
num_class=1
num_tree_per_iteration=1
label_index=0
max_feature_idx=85
objective=binary sigmoid:1
feature_names=Column_0 Column_1 Column_2 Column_3 Column_4 Column_5 Column_6 Column_7 Column_8 Column_9 Column_10 Column_11 Column_12 Column_13 Column_14 Column_15 Column_16 Column_17 Column_18 Column_19 Column_20 Column_21 Column_22 Column_23 Column_24 Column_25 Column_26 Column_27 Column_28 Column_29 Column_30 Column_31 Column_32 Column_33 Column_34 Column_35 Column_36 Column_37 Column_38 Column_39 Column_40 Column_41 Column_42 Column_43 Column_44 Column_45 Column_46 Column_47 Column_48 Column_49 Column_50 Column_51 Column_52 Column_53 Column_54 Column_55 Column_56 Column_57 Column_58 Column_59 Column_60 Column_61 Column_62 Column_63 Column_64 Column_65 Column_66 Column_67 Column_68 Column_69 Column_70 Column_71 Column_72 Column_73 Column_74 Column_75 Column_76 Column_77 Column_78 Column_79 Column_80 Column_81 Column_82 Column_83 Column_84 Column_85
feature_infos=[-0.095392646096274805:0.10715018316324473] [-0.14075747665454433:0.10436258272163353] [-0.20103051484850065:0.13935415954299041] [-0.26365139434595769:0.17871984099360486] [-0.2607805192542747:0.22560827277913584] [0:0.11310141098233834] [0:0.07271370205988506] [0:0.050489973375790184] [0:1] [0.00070410729230369561:0.18563826329234911] none [0:0.99999999412455931] [0:0.99999999358563185] [0:5] [0:5] [-0.12644916263883632:0.085599295103069517] [-0.18174552833363544:0.14665951944135225] [-0.20986983306458873:0.15935688163417105] [-0.22202543015495224:0.17018764104526252] [-0.21704026096531315:0.24694597303257915] [-0.11587076830514365:0.10476064182469158] [-0.062043010473986193:0.067876430454289816] [-0.030147206970440599:0.039428413571410692] [-0.012381097393979412:0.014773473236842749] [-0.006427388796970801:0.010975313540015685] [0:1] [-0.21704026096531315:0.24694597303257915] [-0.10536439985811397:0.068588287399276249] [-0.15603287285415968:0.10804452309831625] [-0.19024337431166094:0.12219778633182465] [-0.060341767586198324:0.038241166150182609] [-0.048732882401499207:0.034073002472582194] [-0.031637035959696039:0.025224527758847762] [-0.0027431445505929292:0.00276430026866889] [0:1] [0:1] [-0.052304589754138743:0.039840059162793762] [-0.0045087322639620411:0.0069742980933116538] [10.43279834388612:87.61426133750183] [3.8548250431265103:96.034749126513574] [-25.203589657180622:26.287936283690534] [-0.79134403312227763:0.75228522675003662] [0:1] [0:1] [-0.30739641132321394:0.025979168352580961] [-0.08037618734976304:0.43236629985743824] [-0.46039075240703747:1.5313975570221856] [0.0037808248390681916:0.40555364739550342] [0:1] [0.0025024310893202988:0.079001813960038872] [0.0020900451119091946:0.10135278362635461] [0.66184279401885016:1.5212773288485848] [0.104444826352297:4.8335581113606931] [0.0003486271273881364:0.090465382822645837] [0.00063597668444109691:0.06726921663744681] [0.0010528031192466041:0.053323576137562459] [0:1] [0.030331392124237366:4.7791880746349333] [0.017120670151945922:8.3285901502051001] [-0.97831516802906449:445.66666666666669] [-2.0389560735391856:2.843279434036079] [0:1] [0:0.9999999938800489] [0:0.99999999443826471] [0:0.9999999951385512] [0:0.99699360955093286] [-0.27679346695215234:-1.693939433167202e-10] [-4.2940573319327768e-10:0.40567972065966784] [-0.23284875056436105:-1.6698675775472793e-10] [-4.2940573319327768e-10:0.21044357828909721] [0:0.99999999500748871] [0.0080865441220614523:0.97248866185938321] [-0.44903445736242986:0.48203665324253542] [0:1] [0:1] [-0.99999999814126384:0] [-3.5186973689648795:4.6666456389749866] [-3.6581479356567663:4.6883946515461714] [-0.18211252653927812:0.14953114534494305] [-0.2317586937554531:0.1956857151174638] [-0.22955000000000003:0.25308470173485498] [-0.2317586937554531:0.1956857151174638] [-0.22955000000000003:0.25308470173485498] [0:1] [0:0.96610169491525422] [0:1]
tree_sizes=3007 3011 3352 2576 2929

Tree=0
num_leaves=27
num_cat=0
split_feature=49 50 1 85 76 46 49 32 22 83 50 37 23 84 83 24 23 23 85 31 17 64 75 29 24 63
split_gain=452.501 120.951 58.945 55.8819 49.8837 43.4297 41.4805 41.1477 46.2784 40.0344 39.0542 37.7782 39.0776 35.0583 34.3564 35.8609 24.99 22.8659 23.6417 21.6588 20.8585 22.5869 15.6158 14.2437 13.6227 5.90888
threshold=0.0074836159851620829 0.012407774544917219 -0.004092000716817105 0.75000000000000011 -1.4944160268361213 0.81371564465620783 0.020448284893628949 -0.0059002917486982243 -0.0028797885094316573 0.76086956521739146 0.0047168331544004899 -0.00046497619554415241 -0.0029676226446102567 0.83898305084745772 0.19565217391304349 5.6584569349316112e-05 -0.0005843879286885344 -0.0013498308591265438 0.91666666666666685 0.025942148745176256 -0.0086514517064343859 0.31644492907152427 -0.86781437863343203 0.027593122051102318 0.00089736533590090161 0.097787344930076028
decision_type=2 2 2 2 2 2 2 2 2 2 2 2 2 2 2 2 2 2 2 2 2 2 2 2 2 2
left_child=3 2 20 5 -5 9 7 25 -9 10 -1 -4 -13 -11 15 -7 -16 18 -6 23 22 -22 -2 -8 -19 -3
right_child=1 6 11 4 17 14 19 8 -10 13 -12 12 -14 -15 16 -17 -18 24 -20 -21 21 -23 -24 -25 -26 -27
leaf_value=-1.004746805610214 -0.94407406247145731 -1.0549727092615397 -1.0891490246206736 -0.93418482516835633 -1.0385819862923729 -1.0424091645581184 -0.91667427171640514 -0.91009725518338291 -0.94820480326921741 -1.0134193781540659 -0.96179421749790583 -1.0193730069779485 -0.96690790320860398 -0.95465275470735089 -0.97543528168050353 -0.92558661024197786 -1.0553321155727025 -1.0450444822851828 -0.93680568252018026 -0.96975435021830636 -0.99910693027481134 -0.94578631478207453 -0.90351171465074764 -0.87923480650847452 -1.0092168628270226 -0.99230066523511196
leaf_weight=71.148470222949982 61.758894234895706 7.4914920032024366 6.4071840941905966 14.458858758211134 10.129056662321091 10.905685037374498 117.24215552210808 110.02545526623726 332.11135113239288 142.27148219943047 219.1257925927639 38.761383265256882 474.65019553899765 30.591926246881485 11.440409451723097 15.349009573459623 53.565069258213043 112.55167806148529 12.055768519639969 16.481064349412918 26.067967057228088 99.017937242984772 48.556211858987808 42.383502185344696 34.101613014936447 6.5939116477966309
leaf_count=284 198 35 33 44 45 49 335 305 1085 584 754 162 1665 102 41 45 249 508 37 58 102 320 130 100 138 25
internal_value=-0.966043 -0.949221 -0.96284 -0.997724 -1.02171 -0.989815 -0.933025 -0.941267 -0.938589 -0.983607 -0.972249 -0.972374 -0.970848 -1.00281 -1.02144 -0.973683 -1.04091 -1.02942 -0.982728 -0.912006 -0.941969 -0.956704 -0.925699 -0.906272 -1.03665 -1.0258
internal_weight=2125.24 1387.55 755.22 737.695 183.297 554.398 632.329 456.222 442.137 463.138 290.274 519.819 513.412 172.863 91.2602 26.2547 65.0055 168.838 22.1848 176.107 235.401 125.086 110.315 159.626 146.653 14.0854
internal_count=7433 4553 2610 2880 772 2108 1943 1450 1390 1724 1038 1860 1827 686 384 94 290 728 82 493 750 422 328 435 646 60
is_linear=0
shrinkage=1


Tree=1
num_leaves=27
num_cat=0
split_feature=49 50 85 36 76 17 55 23 29 85 45 49 32 65 15 39 40 31 83 12 31 47 4 62 12 67
split_gain=377.369 97.8321 48.7125 45.8985 43.6215 38.942 47.0787 35.5855 35.56 34.0417 32.9358 32.7337 34.2187 36.9886 32.4798 27.3549 26.001 23.2346 22.1371 20.465 20.4972 19.7211 18.0909 17.7197 20.3593 5.38282
threshold=0.0074836159851620829 0.012407774544917219 0.75000000000000011 0.0011414823110837164 -1.3157133600510504 0.0027274588838741569 0.0025411535555601747 -0.00077875889252682063 0.0027735292370592028 1.0000000180025095e-35 0.011838129415390421 0.020448284893628949 -0.0059002917486982243 0.25933843887493002 0.0076611578442362669 27.495704931767971 -1.3799163277305124 0.0044415075078523677 0.93478260869565222 0.80503161525394096 0.025942148745176256 0.039695781339574597 0.027066801876294077 0.94885092432351004 0.73150069070838464 0.0092838193115458729
decision_type=2 2 2 2 2 2 2 2 2 2 2 2 2 2 2 2 2 2 2 2 2 2 2 2 2 2
left_child=2 3 5 15 7 8 -7 -4 10 -8 -1 12 25 -14 16 21 -5 -16 -17 20 -13 -2 -21 24 -6 -3
right_child=1 11 4 14 23 6 9 -9 -10 -11 -12 19 13 -15 17 18 -18 -19 -20 22 -22 -23 -24 -25 -26 -27
leaf_value=0.044752090412691715 0.12954839312762667 -0.027178969269573944 0.12274964832337586 0.052332621210630349 0.0016280805236899851 -0.065586605356430391 0.078991568719468538 -0.00063169452073501308 0.1198981421917593 0.014377989795681674 -0.013712705468495907 0.11619299387337563 0.10823507792150983 0.072887907809343108 0.051176056499177752 0.065452029450009927 0.0092894136549263109 0.12989524663262469 0.026419409532228405 0.019394930107601942 0.053016211046207351 0.067646960479502874 0.10614698910466927 0.055229307868927879 -0.040822490062787153 0.032581875011461515
leaf_weight=338.2471941113472 28.397136658430099 7.3973071277141553 12.733360677957537 57.296771332621574 112.45533156394958 15.744456946849821 23.329150810837746 10.313309535384176 14.454832240939139 146.5712076574564 25.575018286705017 144.98691327869892 97.61913289129734 362.61106167733669 36.937772810459137 482.16052295267582 90.907244279980659 12.984800159931181 40.762704357504845 13.895857095718386 15.766627788543699 28.237604737281799 10.737124428153036 11.066601499915121 37.113195911049843 6.6952610462903976
leaf_count=1216 67 35 31 198 480 81 73 43 37 590 111 360 255 1135 128 1577 365 31 154 52 54 90 27 39 179 25
internal_value=0.0561733 0.0711598 0.0273243 0.0590414 0.0049126 0.0346046 0.0157483 0.0684836 0.0438124 0.0234852 0.0406154 0.0853821 0.0781579 0.0805055 0.0380428 0.0661724 0.0260839 0.072835 0.0624471 0.103579 0.110211 0.0996345 0.0587671 -0.00436124 -0.00897299 0.00101383
internal_weight=2185 1437.39 747.604 777.685 183.682 563.922 185.645 23.0467 378.277 169.9 363.822 659.709 474.323 460.23 198.127 579.558 148.204 49.9226 522.923 185.387 160.754 56.6347 24.633 160.635 149.569 14.0926
internal_count=7433 4553 2880 2610 772 2108 744 74 1364 663 1327 1943 1450 1390 722 1888 563 159 1731 493 414 157 79 698 659 60
is_linear=0
shrinkage=0.05


Tree=2
num_leaves=30
num_cat=0
split_feature=49 50 1 85 39 83 23 54 47 54 54 36 55 1 49 30 32 22 24 24 47 12 49 78 53 31 12 31 69
split_gain=319.944 85.7999 52.8558 35.1449 36.4616 34.8127 37.3996 44.4733 36.9035 34.2687 40.7033 32.2967 45.6641 36.9118 26.838 25.7127 24.9033 30.6063 23.9281 20.7496 32.1609 19.7766 17.9333 15.9298 15.2492 14.2808 17.0189 14.05 13.4582
threshold=0.0072840618401165619 0.012407774544917219 -0.0049027283145921139 0.75000000000000011 36.17626433180012 0.71739130434782616 -0.0011001214034200844 0.0049050483858374423 0.024126477489653388 0.0024332019534393998 0.002886726501356819 0.0011414823110837164 0.0092435868196631254 0.0065221286082413977 0.020814982254562246 -0.0010098200190593592 -0.0059002917486982243 -0.0028797885094316573 0.00047697824747816592 -0.00047562777818360708 0.01944313093139725 0.6690911773078253 0.0060599254395146251 -0.0015928076303869385 0.011306063821143674 0.025942148745176256 0.7881904029765241 -0.00050620370967196387 0.0092559293011371686
decision_type=2 2 2 2 2 2 2 2 2 2 2 2 2 2 2 2 2 2 2 2 2 2 2 2 2 2 2 2 2
left_child=3 2 21 5 18 6 8 -8 -1 15 -11 12 -4 -13 16 -7 24 -18 22 20 -6 23 -5 -2 -3 26 -16 -21 -23
right_child=1 14 11 4 19 9 7 -9 -10 10 -12 13 -14 -15 25 -17 17 -19 -20 27 -22 28 -24 -25 -26 -27 -28 -29 -30
leaf_value=0.10260013604401497 0.083079799869535398 -0.033649834094940455 0.057950378412000472 0.045684646117741798 0.062881673940776456 0.01017528046454704 0.027342057070624912 0.097349879827131808 -0.0077908568663493626 0.078763695357002617 0.015213698257031486 0.00995169302487354 -0.019628522751469937 0.054258103478966972 0.1069591989024952 -0.055375123845361564 0.095995947908220067 0.066494040621952105 0.1068084216171858 -0.050399810065192688 -0.026799928361514319 -0.0049690250810631338 -0.044959050972196851 0.030117285657663168 0.06157790783521519 0.049103995881778315 0.061045234063193711 -0.0076869005526439549 0.074723622314870675
leaf_weight=39.358290687203407 196.51658894121647 8.6994798928499204 393.17802095413208 19.168803647160534 22.113645777106285 36.808149576187134 243.72714830935001 24.735488191246986 9.1607002764940244 30.933256298303604 130.71787863969803 109.08319029211998 19.598593443632126 82.947851553559303 138.02015271782875 24.454589381814003 122.57684673368931 362.43930640816689 11.52380622923374 26.071017220616341 17.43302384018898 12.821023523807527 7.0531958490610114 16.431271806359291 7.2231276333332053 17.331626579165459 27.083528161048889 72.202238157391548 8.3369036316871625
leaf_count=106 558 41 1274 67 76 146 909 68 38 97 513 432 83 275 324 122 311 1103 30 130 81 51 34 58 24 58 82 318 24
internal_value=0.0520761 0.0650382 0.0542339 0.0244636 0.00497867 0.0307801 0.0414309 0.03398 0.0817887 0.0155535 0.0276107 0.0463278 0.0542356 0.029207 0.0782449 -0.0161463 0.0720311 0.0740515 0.0481941 -0.00695235 0.0233822 0.0744958 0.0207312 0.0790967 0.00980435 0.0950361 0.0996647 -0.0192666 0.0272017
internal_weight=2237.75 1522.29 838.913 715.461 175.566 539.896 316.982 268.463 48.519 222.914 161.651 604.808 412.777 192.031 683.374 61.2627 500.939 485.016 37.7458 137.82 39.5467 234.106 26.222 212.948 15.9226 182.435 165.104 98.2733 21.1579
internal_count=7433 4698 2755 2735 736 1999 1121 977 144 878 610 2064 1357 707 1943 268 1479 1414 131 605 157 691 101 616 65 464 406 448 75
is_linear=0
shrinkage=0.05


Tree=3
num_leaves=23
num_cat=0
split_feature=50 50 36 41 85 38 45 31 66 54 60 54 18 21 54 84 50 53 62 27 76 83
split_gain=245.573 87.3249 46.4871 30.8023 30.799 26.9388 28.548 26.6328 33.1189 25.1223 24.4255 24.2527 22.8496 22.53 20.1401 19.2874 19.0701 27.0565 18.2958 14.3805 13.761 13.211
threshold=0.0068029257350487645 0.012407774544917219 0.0011414823110837164 0.20711968199351777 0.75000000000000011 59.615820826938752 0.01262815573622811 0.0044415075078523677 -0.0075614095125692829 0.0025939525608103735 -1.323556681060188 0.0052667092484239798 -0.0065382682195213584 -0.0032559435694864409 0.0076716118755887569 0.68644067796610175 0.028249519413734936 0.018153661631436845 0.94885092432351004 0.0059616987548084541 -1.7323588268324535 0.45652173913043487
decision_type=2 2 2 2 2 2 2 2 2 2 2 2 2 2 2 2 2 2 2 2 2 2
left_child=3 2 10 4 5 6 -1 8 -4 -5 -2 -3 13 -6 -12 21 17 -13 -14 -9 -18 -11
right_child=1 11 7 9 12 -7 -8 19 -10 15 14 16 18 -15 -16 -17 20 -19 -20 -21 -22 -23
leaf_value=0.037032282709927304 -0.023946886342549174 0.011447200592695439 0.035370167363252165 -0.064984138773260744 -0.019886956708364722 0.10718253873762129 0.0042489638065973442 0.037313472691423037 -0.0087594687488134395 0.066181636839475838 0.05952512712376358 0.072457409183983953 -0.0096569219166067494 0.060434167011039854 0.032023113133029434 -0.043796286825259934 0 0.019085176107038807 0.066785483568722701 0.1039283680511016 0.10020449904555528 -0.00014186353472519662
leaf_weight=339.92363998293877 9.2487148344516736 16.479801461100578 146.61991070210934 15.814175486564634 11.699655428528784 11.463761061429976 83.113903746008873 17.979429662227631 59.327256932854652 13.159761667251589 600.42707614600658 574.64508382976055 110.19147028028965 30.873879328370094 77.980640828609467 12.09648124873638 3.6711131185293189 25.479250371456146 7.9164969474077216 16.31721305847168 83.515848100185394 16.335569143295288
leaf_count=1197 39 59 518 83 52 29 333 63 244 43 1846 1594 485 102 267 57 13 87 25 39 190 68
internal_value=0.0484378 0.0588069 0.048661 0.0224788 0.0258541 0.0327683 0.0306158 0.029583 0.0226431 -0.0123511 0.0552927 0.0721325 0.00708271 0.0382704 0.0563971 0.00807658 0.0735709 0.0702175 -0.00423107 0.0701883 0.0960637 0.0298926
internal_weight=2284.28 1631.69 927.9 652.589 595.183 434.501 423.038 240.244 205.947 57.406 687.656 703.791 160.682 42.5735 678.408 41.5918 687.311 600.124 118.108 34.2966 87.187 29.4953
internal_count=7433 4959 3016 2474 2223 1559 1530 864 762 251 2152 1943 664 154 2113 168 1884 1681 510 102 203 111
is_linear=0
shrinkage=0.05


Tree=4
num_leaves=26
num_cat=0
split_feature=49 49 1 32 83 22 53 85 39 83 54 49 22 45 67 71 30 21 24 47 12 31 31 63 45
split_gain=238.475 56.5365 38.8707 33.0001 32.4125 32.9905 29.4513 27.9846 31.0465 29.6198 29.7844 37.0299 27.3304 27.0817 42.3793 22.9116 22.7485 20.4487 17.7143 28.1418 14.1874 14.1649 13.3635 9.61581 9.20388
threshold=0.0072840618401165619 0.020448284893628949 -0.004092000716817105 -0.0059002917486982243 0.93478260869565222 -0.00038068976061078613 0.0033684460707584952 0.75000000000000011 36.17626433180012 0.71739130434782616 0.0024332019534393998 0.0048394271857547366 -0.0021841109885955552 0.013082878898923346 0.021536307921035117 0.74126209106686891 -0.0010098200190593592 -0.0035191118372164261 -0.00047562777818360708 0.01944313093139725 0.85135588942308704 0.025942148745176256 -0.00050620370967196387 0.22673241449713052 0.0031443158047808066
decision_type=2 2 2 2 2 2 2 2 2 2 2 2 2 2 2 2 2 2 2 2 2 2 2 2 2
left_child=7 2 3 -2 6 -6 -4 9 17 13 16 -12 -5 15 -15 -1 -11 -9 19 -10 21 24 -20 -19 -3
right_child=1 20 4 12 5 -7 -8 8 18 10 11 -13 -14 14 -16 -17 -18 23 22 -21 -22 -23 -24 -25 -26
leaf_value=0.049900464823548804 -0.024787387163967552 0.046174183207088534 0.022947982724055245 0.084599424417582406 0.035499469644645433 -0.046508106929481714 0.052029577281474504 -0.015140569658871922 0.05648198643078689 0.0076419200859887369 0.066814263235254315 0.010941772612721064 0.057628599803022811 -0.012579815094089272 0.050351677691849242 -0.033259524637629392 -0.054230532430199298 0.042981004671170518 -0.049324310870831889 -0.026738088887252223 0.037018588886570419 0.039452122708249021 -0.0073247956656477724 0.10758002251377452 0.092840173277528526
leaf_weight=211.44563890993595 9.8433743566274625 13.442954003810881 100.06566397845745 143.21454358100891 37.377970352768898 17.619279429316521 776.14972528815269 10.575932681560515 22.973362803459167 37.579491958022118 38.397570252418518 127.35794223845005 306.19498640298843 58.757299825549126 48.24156691133976 8.2168562114238721 23.838779002428055 19.299589887261394 25.519447535276413 17.411700829863548 18.52963724732399 17.20351068675518 71.913103684782982 8.9886811077594739 155.75717742741108
leaf_count=678 44 38 353 352 124 78 2363 46 76 146 119 491 891 247 159 37 122 64 130 81 57 55 318 21 343
internal_value=0.0451702 0.056005 0.0523411 0.0643306 0.0463914 0.00895458 0.0487291 0.0214786 0.00410425 0.0270036 0.0130626 0.0240768 0.066319 0.0366487 0.0158492 0.0466985 -0.0165364 0.0432907 -0.00702662 0.0205918 0.0806522 0.0848522 -0.018572 0.0651932 0.089309
internal_weight=2325.92 1595.4 1390.47 459.253 931.213 54.9972 876.215 730.517 176.682 553.835 227.174 165.756 449.41 326.661 106.999 219.662 61.4183 38.8642 137.818 40.3851 204.933 186.404 97.4326 28.2883 169.2
internal_count=7433 4698 4205 1287 2918 202 2716 2735 736 1999 878 610 1243 1121 406 715 268 131 605 157 493 436 448 85 381
is_linear=0
shrinkage=0.05


end of trees

feature_importances:
Column_49=10
Column_31=8
Column_50=7
Column_54=7
Column_83=7
Column_85=7
Column_12=5
Column_23=5
Column_24=5
Column_1=4
Column_22=4
Column_32=4
Column_45=4
Column_47=4
Column_36=3
Column_39=3
Column_53=3
Column_76=3
Column_17=2
Column_21=2
Column_29=2
Column_30=2
Column_55=2
Column_62=2
Column_63=2
Column_67=2
Column_84=2
Column_4=1
Column_15=1
Column_18=1
Column_27=1
Column_37=1
Column_38=1
Column_40=1
Column_41=1
Column_46=1
Column_60=1
Column_64=1
Column_65=1
Column_66=1
Column_69=1
Column_71=1
Column_75=1
Column_78=1

parameters:
[boosting: gbdt]
[objective: binary]
[metric: binary_logloss]
[tree_learner: serial]
[device_type: cpu]
[data_sample_strategy: bagging]
[data: ]
[valid: ]
[num_iterations: 500]
[learning_rate: 0.05]
[num_leaves: 31]
[num_threads: 8]
[seed: 42]
[deterministic: 0]
[force_col_wise: 0]
[force_row_wise: 0]
[histogram_pool_size: -1]
[max_depth: 5]
[min_data_in_leaf: 30]
[min_sum_hessian_in_leaf: 0.001]
[bagging_fraction: 0.8]
[pos_bagging_fraction: 1]
[neg_bagging_fraction: 1]
[bagging_freq: 0]
[bagging_seed: 400]
[bagging_by_query: 0]
[feature_fraction: 0.8]
[feature_fraction_bynode: 1]
[feature_fraction_seed: 30056]
[extra_trees: 0]
[extra_seed: 12879]
[early_stopping_round: 0]
[early_stopping_min_delta: 0]
[first_metric_only: 0]
[max_delta_step: 0]
[lambda_l1: 0.1]
[lambda_l2: 0.5]
[linear_lambda: 0]
[min_gain_to_split: 0]
[drop_rate: 0.1]
[max_drop: 50]
[skip_drop: 0.5]
[xgboost_dart_mode: 0]
[uniform_drop: 0]
[drop_seed: 17869]
[top_rate: 0.2]
[other_rate: 0.1]
[min_data_per_group: 100]
[max_cat_threshold: 32]
[cat_l2: 10]
[cat_smooth: 10]
[max_cat_to_onehot: 4]
[top_k: 20]
[monotone_constraints: ]
[monotone_constraints_method: basic]
[monotone_penalty: 0]
[feature_contri: ]
[forcedsplits_filename: ]
[refit_decay_rate: 0.9]
[cegb_tradeoff: 1]
[cegb_penalty_split: 0]
[cegb_penalty_feature_lazy: ]
[cegb_penalty_feature_coupled: ]
[path_smooth: 0]
[interaction_constraints: ]
[verbosity: -1]
[saved_feature_importance_type: 0]
[use_quantized_grad: 0]
[num_grad_quant_bins: 4]
[quant_train_renew_leaf: 0]
[stochastic_rounding: 1]
[linear_tree: 0]
[max_bin: 255]
[max_bin_by_feature: ]
[min_data_in_bin: 3]
[bin_construct_sample_cnt: 200000]
[data_random_seed: 175]
[is_enable_sparse: 1]
[enable_bundle: 1]
[use_missing: 1]
[zero_as_missing: 0]
[feature_pre_filter: 1]
[pre_partition: 0]
[two_round: 0]
[header: 0]
[label_column: ]
[weight_column: ]
[group_column: ]
[ignore_column: ]
[categorical_feature: ]
[forcedbins_filename: ]
[precise_float_parser: 0]
[parser_config_file: ]
[objective_seed: 16083]
[num_class: 1]
[is_unbalance: 0]
[scale_pos_weight: 2.79235]
[sigmoid: 1]
[boost_from_average: 1]
[reg_sqrt: 0]
[alpha: 0.9]
[fair_c: 1]
[poisson_max_delta_step: 0.7]
[tweedie_variance_power: 1.5]
[lambdarank_truncation_level: 30]
[lambdarank_norm: 1]
[label_gain: ]
[lambdarank_position_bias_regularization: 0]
[eval_at: ]
[multi_error_top_k: 1]
[auc_mu_weights: ]
[num_machines: 1]
[local_listen_port: 12400]
[time_out: 120]
[machine_list_filename: ]
[machines: ]
[gpu_platform_id: -1]
[gpu_device_id: -1]
[gpu_use_dp: 0]
[num_gpu: 1]

end of parameters

pandas_categorical:null
