tree
version=v4
num_class=1
num_tree_per_iteration=1
label_index=0
max_feature_idx=85
objective=binary sigmoid:1
feature_names=Column_0 Column_1 Column_2 Column_3 Column_4 Column_5 Column_6 Column_7 Column_8 Column_9 Column_10 Column_11 Column_12 Column_13 Column_14 Column_15 Column_16 Column_17 Column_18 Column_19 Column_20 Column_21 Column_22 Column_23 Column_24 Column_25 Column_26 Column_27 Column_28 Column_29 Column_30 Column_31 Column_32 Column_33 Column_34 Column_35 Column_36 Column_37 Column_38 Column_39 Column_40 Column_41 Column_42 Column_43 Column_44 Column_45 Column_46 Column_47 Column_48 Column_49 Column_50 Column_51 Column_52 Column_53 Column_54 Column_55 Column_56 Column_57 Column_58 Column_59 Column_60 Column_61 Column_62 Column_63 Column_64 Column_65 Column_66 Column_67 Column_68 Column_69 Column_70 Column_71 Column_72 Column_73 Column_74 Column_75 Column_76 Column_77 Column_78 Column_79 Column_80 Column_81 Column_82 Column_83 Column_84 Column_85
feature_infos=[-0.080053610955969606:0.088772921852238215] [-0.12484045962128837:0.11990896036876939] [-0.144450398693828:0.12647238639841973] [-0.14959546192907791:0.12959529770290368] [-0.11305134577623174:0.15173308905191127] [0:0.092832469641864576] [0:0.037564766785312675] [0:0.037641723299105367] [0:1] [0:0.13687392035567952] none [0:0.99999997198879631] [0:0.99999995098039451] [0:5] [0:5] [-0.072282061213561621:0.094218352123849547] [-0.056470351902110916:0.11857515192973711] [-0.037283544826711701:0.13243003238987039] [-0.045314434248073576:0.169008352423198] [-0.068501462191693174:0.19943441370924786] [-0.064304571349173556:0.063815945114738648] [-0.028379236676482567:0.037234042553191626] [-0.012196636972836905:0.0202946482260975] [-0.0078998505673127939:0.01110713448271583] [-0.0029715263256810953:0.0058197638676524832] [0:1] [-0.068501462191693174:0.19943441370924786] [-0.041619825536874266:0.076335629806154381] [-0.044532643648212855:0.10317750287230876] [-0.037585597870013365:0.12572439056867113] [-0.012869286838882431:0.027663538684949474] [-0.011333863021913198:0.019991512016665731] [-0.0063202825828569094:0.012124054507657987] [-0.00040097999687416252:0.00048292174246501339] [0:1] [0:1] [-0.017728338931236286:0.021962106083241242] [-0.00094597537525169359:0.0009608339747338684] [16.04677055840034:84.722524778371593] [10.119227696478191:92.174929446706287] [-29.38414018621723:25.029328068059158] [-0.67906458883199317:0.69445049556743188] [0:1] [0:1] [-0.11794203393556302:0.058571788922787027] [-0.012331604751443459:0.24530277861089256] [-0.41679361579120644:1.449025398466814] [0.0066466219652239634:0.18403473367650983] [0:1] [0.00092126940395339673:0.046847319119903995] [0.00048266373187744427:0.060102151782458015] [0.52011784593877686:1.5054738548179012] [0:4.684664629128239] [0.00020342909989064288:0.066100670535280764] [0.00084348795718936929:0.045719726906907926] [0.0012744364505327703:0.033957927204712482] [0:1] [0:4.9722753744426944] [0:9.6593803189812615] [-1:4699.9482758620688] [-1.8162123273858508:2.8455408871929246] [0:1] [0:0.99999996350365095] [0:0.99999997530864271] [0:0.99999997959183728] [0:0.99999998387096811] [-0.16755793332371027:-1.3968430856436953e-09] [-1.7761989656861488e-09:0.18221190845752222] [-0.16168739689487455:-1.3873473481140763e-09] [-1.7761989656861488e-09:0.14108688990581242] [0:0.99999997830802667] [0:0.9999999025934494] [-0.48957843701962922:0.59393934115593694] [0:1] [0:1] [-0.99999998185118:0] [-3.7059050566843239:3.6971973977299384] [-3.3872629166172104:3.6936395766944363] [-0.13450215883815253:0.13481811432813662] [-0.13894376399315167:0.13836759011021726] [-0.10689519822059401:0.16384955078422392] [-0.13894376399315167:0.13836759011021726] [-0.10689519822059401:0.16384955078422392] [0:1] [0:0.76271186440677963] [0:1]
tree_sizes=1905 1914

Tree=0
num_leaves=17
num_cat=0
split_feature=50 69 21 32 61 24 76 4 79 9 1 37 7 44 24 5
split_gain=488.53 180.212 114.953 117.04 80.2002 72.5773 91.7014 91.4066 88.2521 63.1143 54.2078 49.5876 49.5514 72.1174 9.49566 7.92499
threshold=0.0054604658419796096 0.0020380987140117273 0.0062580789027373305 0.0011774868959296275 0.089411186648698335 0.00058039575912871577 0.36226853244430685 -0.0083103095455769726 0.010357012161635539 0.0090765865546726787 -0.0042339143510103528 -8.5756771449969007e-05 0.00032674403042897869 -0.0047868733263645704 0.00033560136289556569 0.0090863797853953255
decision_type=2 2 2 2 2 2 2 2 2 2 2 2 2 2 2 2
left_child=4 10 3 11 14 6 7 -6 -8 -5 15 -3 13 -7 -1 -2
right_child=1 2 -4 9 5 12 8 -9 -10 -11 -12 -13 -14 -15 -16 -17
leaf_value=-1.9930493994160308 -1.99118416886529 -1.9011952343093319 -1.6177041365247691 -1.9909119041463585 -1.9575697143099671 -1.9433727258608149 -1.9945753481245574 -1.782479464376457 -1.7831975376893001 -1.7777169821813992 -1.7437174921890808 -1.6987141547321478 -1.6709178892232077 -1.7065784006823246 -1.9011952343093319 -1.9011952343093319
leaf_weight=9.7839909195899946 6.0462865233421308 3.4027030467987052 36.289427995681763 5.7164890766143781 9.3390570878982526 6.7006775140762329 18.798454463481907 33.749922573566437 6.1354033946990958 7.5593217611312866 3.7220926880836478 89.524069964885712 9.1874933838844282 5.5805370807647723 3.4027030467987052 3.4027030467987061
leaf_count=89 55 25 92 52 79 55 171 182 32 39 16 356 30 21 25 25
internal_value=-1.76925 -1.71345 -1.69712 -1.72568 -1.85458 -1.83767 -1.86407 -1.82032 -1.94032 -1.86843 -1.89288 -1.70583 -1.75788 -1.83128 -1.96846 -1.958
internal_weight=258.341 155.663 142.492 106.203 102.678 89.4915 68.0228 43.089 24.9339 13.2758 13.1711 92.9268 21.4687 12.2812 13.1867 9.44899
internal_count=1344 660 564 472 684 570 464 261 203 91 96 381 106 76 114 80
is_linear=0
shrinkage=1


Tree=1
num_leaves=17
num_cat=0
split_feature=67 50 84 11 30 83 22 19 63 4 57 58 29 47 24 24
split_gain=315.275 126.2 90.1184 58.3947 53.1792 52.5065 62.9685 62.53 45.169 78.3876 23.6905 8.95584 8.613 8.18435 2.58314 1.7897
threshold=0.028799849003322667 0.0049067171359700864 1.0000000180025095e-35 0.9999997700846196 0.0042040184581012682 0.23913043478260873 -0.00097780880898518086 0.0078053562290033582 0.10726269056944063 0.0004880034696470858 1.8642343073898242 0.16289050006810218 -0.0057135862355291991 0.028674901841731215 0.0023588011184741968 0.0016026729720161061
decision_type=2 2 2 2 2 2 2 2 2 2 2 2 2 2 2 2
left_child=1 2 12 5 -2 6 -3 -7 13 -10 -5 -6 -1 -4 15 -13
right_child=4 3 8 10 11 7 -8 -9 9 -11 -12 14 -14 -15 -16 -17
leaf_value=0.024342302279585146 0.1156685878427804 0.17311725428341657 -0.05191278469479739 -0.052177192704981161 0.17252288162897317 0.1191766897719214 -0.019579944296640287 0.2047154956769085 0.15332407245901974 0.039848518052996357 0.10283136255342672 0.24721863678614261 -0.055270698231599746 0.041865379642902663 0.27726013532793087 0.18832706241872368
leaf_weight=4.0391957536339786 11.601091153919695 7.1033697798848179 5.6027739420533162 4.9962375313043577 10.115796454250811 42.656777210533619 9.2896570041775686 50.994454093277454 34.129169218242168 28.237545996904373 3.9662744253873825 22.239541813731194 13.781507104635237 3.2512658387422562 25.386507384479046 15.029703766107557
leaf_count=30 57 27 50 41 37 213 69 162 159 198 21 46 121 24 42 47
internal_value=0.141994 0.108431 0.0627756 0.142143 0.223568 0.152107 0.0662755 0.166647 0.0878389 0.102751 0.0177009 0.239794 -0.036781 -0.0165451 0.249124 0.226409
internal_weight=292.421 208.048 89.0415 119.007 84.3726 110.044 16.393 93.6512 71.2208 62.3667 8.96251 72.7715 17.8207 8.85404 62.6558 37.2692
internal_count=1344 1115 582 533 229 471 96 375 431 357 62 172 151 74 135 93
is_linear=0
shrinkage=0.05


end of trees

feature_importances:
Column_24=4
Column_4=2
Column_50=2
Column_1=1
Column_5=1
Column_7=1
Column_9=1
Column_11=1
Column_19=1
Column_21=1
Column_22=1
Column_29=1
Column_30=1
Column_32=1
Column_37=1
Column_44=1
Column_47=1
Column_57=1
Column_58=1
Column_61=1
Column_63=1
Column_67=1
Column_69=1
Column_76=1
Column_79=1
Column_83=1
Column_84=1

parameters:
[boosting: gbdt]
[objective: binary]
[metric: binary_logloss]
[tree_learner: serial]
[device_type: cpu]
[data_sample_strategy: bagging]
[data: ]
[valid: ]
[num_iterations: 500]
[learning_rate: 0.05]
[num_leaves: 31]
[num_threads: 8]
[seed: 42]
[deterministic: 0]
[force_col_wise: 0]
[force_row_wise: 0]
[histogram_pool_size: -1]
[max_depth: 5]
[min_data_in_leaf: 30]
[min_sum_hessian_in_leaf: 0.001]
[bagging_fraction: 0.8]
[pos_bagging_fraction: 1]
[neg_bagging_fraction: 1]
[bagging_freq: 0]
[bagging_seed: 400]
[bagging_by_query: 0]
[feature_fraction: 0.8]
[feature_fraction_bynode: 1]
[feature_fraction_seed: 30056]
[extra_trees: 0]
[extra_seed: 12879]
[early_stopping_round: 0]
[early_stopping_min_delta: 0]
[first_metric_only: 0]
[max_delta_step: 0]
[lambda_l1: 0.1]
[lambda_l2: 0.5]
[linear_lambda: 0]
[min_gain_to_split: 0]
[drop_rate: 0.1]
[max_drop: 50]
[skip_drop: 0.5]
[xgboost_dart_mode: 0]
[uniform_drop: 0]
[drop_seed: 17869]
[top_rate: 0.2]
[other_rate: 0.1]
[min_data_per_group: 100]
[max_cat_threshold: 32]
[cat_l2: 10]
[cat_smooth: 10]
[max_cat_to_onehot: 4]
[top_k: 20]
[monotone_constraints: ]
[monotone_constraints_method: basic]
[monotone_penalty: 0]
[feature_contri: ]
[forcedsplits_filename: ]
[refit_decay_rate: 0.9]
[cegb_tradeoff: 1]
[cegb_penalty_split: 0]
[cegb_penalty_feature_lazy: ]
[cegb_penalty_feature_coupled: ]
[path_smooth: 0]
[interaction_constraints: ]
[verbosity: -1]
[saved_feature_importance_type: 0]
[use_quantized_grad: 0]
[num_grad_quant_bins: 4]
[quant_train_renew_leaf: 0]
[stochastic_rounding: 1]
[linear_tree: 0]
[max_bin: 255]
[max_bin_by_feature: ]
[min_data_in_bin: 3]
[bin_construct_sample_cnt: 200000]
[data_random_seed: 175]
[is_enable_sparse: 1]
[enable_bundle: 1]
[use_missing: 1]
[zero_as_missing: 0]
[feature_pre_filter: 1]
[pre_partition: 0]
[two_round: 0]
[header: 0]
[label_column: ]
[weight_column: ]
[group_column: ]
[ignore_column: ]
[categorical_feature: ]
[forcedbins_filename: ]
[precise_float_parser: 0]
[parser_config_file: ]
[objective_seed: 16083]
[num_class: 1]
[is_unbalance: 0]
[scale_pos_weight: 6.95266]
[sigmoid: 1]
[boost_from_average: 1]
[reg_sqrt: 0]
[alpha: 0.9]
[fair_c: 1]
[poisson_max_delta_step: 0.7]
[tweedie_variance_power: 1.5]
[lambdarank_truncation_level: 30]
[lambdarank_norm: 1]
[label_gain: ]
[lambdarank_position_bias_regularization: 0]
[eval_at: ]
[multi_error_top_k: 1]
[auc_mu_weights: ]
[num_machines: 1]
[local_listen_port: 12400]
[time_out: 120]
[machine_list_filename: ]
[machines: ]
[gpu_platform_id: -1]
[gpu_device_id: -1]
[gpu_use_dp: 0]
[num_gpu: 1]

end of parameters

pandas_categorical:null
