tree
version=v4
num_class=1
num_tree_per_iteration=1
label_index=0
max_feature_idx=85
objective=binary sigmoid:1
feature_names=Column_0 Column_1 Column_2 Column_3 Column_4 Column_5 Column_6 Column_7 Column_8 Column_9 Column_10 Column_11 Column_12 Column_13 Column_14 Column_15 Column_16 Column_17 Column_18 Column_19 Column_20 Column_21 Column_22 Column_23 Column_24 Column_25 Column_26 Column_27 Column_28 Column_29 Column_30 Column_31 Column_32 Column_33 Column_34 Column_35 Column_36 Column_37 Column_38 Column_39 Column_40 Column_41 Column_42 Column_43 Column_44 Column_45 Column_46 Column_47 Column_48 Column_49 Column_50 Column_51 Column_52 Column_53 Column_54 Column_55 Column_56 Column_57 Column_58 Column_59 Column_60 Column_61 Column_62 Column_63 Column_64 Column_65 Column_66 Column_67 Column_68 Column_69 Column_70 Column_71 Column_72 Column_73 Column_74 Column_75 Column_76 Column_77 Column_78 Column_79 Column_80 Column_81 Column_82 Column_83 Column_84 Column_85
feature_infos=[-0.080053610955969606:0.088772921852238215] [-0.12484045962128837:0.11990896036876939] [-0.144450398693828:0.12647238639841973] [-0.14959546192907791:0.12959529770290368] [-0.11305134577623174:0.15173308905191127] [0:0.092832469641864576] [0:0.037564766785312675] [0:0.037641723299105367] [0:1] [0:0.13687392035567952] none [0:0.99999997198879631] [0:0.99999995098039451] [0:5] [0:5] [-0.072282061213561621:0.094218352123849547] [-0.056470351902110916:0.11857515192973711] [-0.037283544826711701:0.13243003238987039] [-0.045314434248073576:0.169008352423198] [-0.068501462191693174:0.19943441370924786] [-0.064304571349173556:0.063815945114738648] [-0.028379236676482567:0.037234042553191626] [-0.012196636972836905:0.0202946482260975] [-0.0078998505673127939:0.01110713448271583] [-0.0029715263256810953:0.0058197638676524832] [0:1] [-0.068501462191693174:0.19943441370924786] [-0.041619825536874266:0.076335629806154381] [-0.044532643648212855:0.10317750287230876] [-0.037585597870013365:0.12572439056867113] [-0.012869286838882431:0.027663538684949474] [-0.011333863021913198:0.019991512016665731] [-0.0063202825828569094:0.012124054507657987] [-0.00040097999687416252:0.00048292174246501339] [0:1] [0:1] [-0.017728338931236286:0.021962106083241242] [-0.00094597537525169359:0.0009608339747338684] [16.04677055840034:84.722524778371593] [10.119227696478191:92.174929446706287] [-29.38414018621723:25.029328068059158] [-0.67906458883199317:0.69445049556743188] [0:1] [0:1] [-0.11794203393556302:0.058571788922787027] [-0.012331604751443459:0.24530277861089256] [-0.41679361579120644:1.449025398466814] [0.0066466219652239634:0.18403473367650983] [0:1] [0.00092126940395339673:0.046847319119903995] [0.00048266373187744427:0.060102151782458015] [0.52011784593877686:1.5054738548179012] [0:4.684664629128239] [0.00020342909989064288:0.066100670535280764] [0.00084348795718936929:0.045719726906907926] [0.0012744364505327703:0.033957927204712482] [0:1] [0:4.9722753744426944] [0:9.6593803189812615] [-1:4699.9482758620688] [-1.8162123273858508:2.8455408871929246] [0:1] [0:0.99999996350365095] [0:0.99999997530864271] [0:0.99999997959183728] [0:0.99999998387096811] [-0.16755793332371027:-1.3968430856436953e-09] [-1.7761989656861488e-09:0.18221190845752222] [-0.16168739689487455:-1.3873473481140763e-09] [-1.7761989656861488e-09:0.14108688990581242] [0:0.99999997830802667] [0:0.9999999025934494] [-0.48957843701962922:0.59393934115593694] [0:1] [0:1] [-0.99999998185118:0] [-3.7059050566843239:3.6971973977299384] [-3.3872629166172104:3.6936395766944363] [-0.13450215883815253:0.13481811432813662] [-0.13894376399315167:0.13836759011021726] [-0.10689519822059401:0.16384955078422392] [-0.13894376399315167:0.13836759011021726] [-0.10689519822059401:0.16384955078422392] [0:1] [0:0.76271186440677963] [0:1]
tree_sizes=2209 2551 1715

Tree=0
num_leaves=20
num_cat=0
split_feature=19 71 71 49 64 77 67 29 69 69 64 22 23 7 16 7 2 1 27
split_gain=189.914 86.0523 63.8856 69.2091 47.9112 57.2641 42.0357 53.3655 37.3863 32.6197 29.3944 28.2265 21.2579 24.144 19.4855 18.8507 15.54 13.3783 22.0055
threshold=0.010773573463837562 0.31738891544710396 0.32217797838511492 0.0033377096586408033 0.66485501860399154 0.16698287305500611 0.0027280638755159408 -0.011541636946787058 0.0020380987140117273 0.00029649853771929196 0.74596671848977125 0.001999663507249894 0.0027964836382926577 0.0017019714153129006 -0.0032309818582266221 0.0018465672690054127 -0.0061859225429658328 -0.0024490495838242051 0.00082212747950072284
decision_type=2 2 2 2 2 2 2 2 2 2 2 2 2 2 2 2 2 2 2
left_child=1 6 12 -4 9 10 7 16 -5 -3 -6 -10 13 -2 -9 -11 -1 -8 -19
right_child=2 4 3 8 5 -7 17 14 11 15 -12 -13 -14 -15 -16 -17 -18 18 -20
leaf_value=-1.3435458790567267 -1.3620684049917708 -1.3308418848969839 -1.4579336180209561 -1.3865387760884131 -1.2482986996267795 -1.4416069833464067 -1.3326320152236337 -1.4629903909887745 -1.2138729724856931 -1.4430254796963959 -1.3536070261328534 -1.2664351988285458 -1.4117511889218153 -1.2426404035914613 -1.3457826095674696 -1.3567413057065649 -1.248138701861284 -1.2510623441231685 -1.342391060094549
leaf_weight=11.318432092666628 11.465378165245061 10.210363090038298 3.7990937232971183 4.9298617243766776 13.625366091728212 9.1924926638603193 13.398973524570463 10.289212167263029 53.631137430667877 35.978492796421051 14.17910188436508 70.919403254985809 7.6208864450454703 6.8975055813789359 4.7829156517982474 7.1686987280845633 8.0169240832328779 34.611774981021881 9.5658313035964948
leaf_count=50 54 43 24 25 40 55 57 65 133 215 65 233 42 19 21 33 23 105 42
internal_value=-1.30856 -1.34372 -1.26866 -1.25462 -1.37866 -1.33534 -1.30977 -1.35478 -1.24843 -1.40897 -1.29998 -1.24309 -1.34236 -1.31385 -1.4248 -1.4282 -1.3008 -1.28361 -1.26981
internal_weight=341.602 182.339 159.263 133.279 90.3545 36.997 91.9841 34.4075 129.48 53.3576 27.8045 124.551 25.9838 18.3629 15.0721 43.1472 19.3354 57.5766 44.1776
internal_count=1344 814 530 415 451 160 363 159 391 291 105 366 115 73 86 248 73 204 147
is_linear=0
shrinkage=1


Tree=1
num_leaves=23
num_cat=0
split_feature=19 71 30 9 19 37 31 37 49 54 27 85 12 65 62 68 83 71 71 27 65 23
split_gain=143.357 69.8574 47.27 46.6532 44.6662 48.5116 42.9123 42.5405 39.7177 33.8324 52.0442 26.4168 25.6761 24.6186 34.5906 23.1716 20.847 19.8671 17.5615 16.3253 11.569 0.00307508
threshold=0.010773573463837562 0.31738891544710396 0.0035757804588621958 0.0082613058228126549 -0.0013857741712149927 2.328206413658053e-06 0.0031761648655235773 -8.8960416527384309e-05 0.0063281299805136955 0.0045471633446050388 -0.0015388423174214625 0.25000000000000006 0.73363886561941183 0.1792554089372497 0.28474899600722842 -0.0010412554427068341 0.1521739130434783 0.2845126478474061 0.1976693918441281 -0.0051449361435801358 0.5240015221239992 0.0014283092809969091
decision_type=2 2 2 2 2 2 2 2 2 2 2 2 2 2 2 2 2 2 2 2 2 2
left_child=1 9 4 6 5 -3 16 -5 -8 10 11 -1 -10 14 -11 -6 -2 -18 -12 -15 -9 -22
right_child=3 2 -4 7 15 -7 8 20 12 13 18 -13 -14 19 -16 -17 17 -19 -20 -21 21 -23
leaf_value=0.065382695137931171 0.052298161082268951 0.073478342381225428 0.13839185146452115 0.048173069573693536 -0.060885810202765268 -0.026658153863197351 -0.038837716840230636 0.11508397458807662 0.11455281267656769 0.10539161807143356 0.044742127835416812 -0.059465985419290435 0.0072050603833154966 0.061227030639075079 -0.028275798266994064 0.035647248310750557 0.042220849024068051 0.15013466673840381 0.13220404223526214 0.16020725224734644 0.14386208413715326 0.17996409837026894
leaf_weight=6.0551373809576061 10.24619586765766 35.500411137938499 7.7077773064374915 10.662771731615065 22.612108871340755 17.803843438625336 9.3732646405696851 17.828410819172859 16.750840082764629 17.717715471982959 11.013894289731981 11.462458401918409 8.4828055351972562 6.2678049504756954 6.2726431190967551 8.0565309673547727 5.5331167727708808 35.665528282523155 14.165069088339804 24.161711573600769 17.22665274143219 40.473286598920822
leaf_count=25 42 144 22 45 142 105 54 55 52 59 47 72 41 26 34 38 24 88 40 60 44 85
internal_value=0.0857189 0.0553417 0.0237687 0.11873 0.0124315 0.0400025 0.0914924 0.145182 0.04721 0.084822 0.0503783 -0.0154164 0.0795011 0.11105 0.0703743 -0.0352015 0.120444 0.136441 0.0957569 0.141301 0.158404 0.1706
internal_weight=361.04 188.797 91.6807 172.243 83.9729 53.3043 86.0518 86.1911 34.6069 97.1164 42.6966 17.5176 25.2336 54.4199 23.9904 30.6686 51.4448 41.1986 25.179 30.4295 75.5284 57.6999
internal_count=1344 814 451 530 429 249 301 229 147 363 184 97 93 179 93 180 154 112 87 86 184 129
is_linear=0
shrinkage=0.05


Tree=2
num_leaves=15
num_cat=0
split_feature=19 53 69 76 64 76 3 65 28 24 69 69 78 21
split_gain=112.571 60.2222 45.1653 40.2446 58.1199 38.9313 36.9352 23.7628 22.7317 21.3545 16.8916 16.8743 46.692 7.80617
threshold=0.010773573463837562 0.0086511448982200968 0.0022123092022744433 -0.26439712026618961 0.66485501860399154 -1.3950436612684844 0.001052163994052133 0.29862367334896622 -0.0050802317900900942 -0.00031725582361452615 -1.5918498186273664e-09 0.016455852359626769 0.0079067376421755337 0.00322402184058368
decision_type=2 2 2 2 2 2 2 2 2 2 2 2 2 2
left_child=1 3 -2 5 7 9 -6 -5 -4 -1 -7 12 -10 -13
right_child=2 -3 8 4 6 10 -8 -9 11 -11 -12 13 -14 -15
leaf_value=-0.059078768834304463 0.0078397510660656294 0.13794126112725671 0.029339122524187633 0.019642275927318514 0.12673036054858622 0.12815384729968715 0.02092500872984206 -0.060727528371538081 0.11414046156505649 0.04800352064324219 0.065417930171895733 0.10673222764051796 0.0054970004829944831 0.15200637896558059
leaf_weight=8.76656222343445 11.21853858232498 17.71266034245491 8.4425795376300794 14.620296716690062 12.400355517864226 13.394874975085257 23.991431772708893 23.119369730353355 87.850965023040771 8.8434457629919034 71.680667623877525 21.996848493814468 11.304260879755018 42.492836132645607
leaf_count=54 54 46 36 72 34 38 115 147 243 37 271 60 50 87
internal_value=0.0777505 0.050997 0.105899 0.0418948 0.0136002 0.062108 0.0583423 -0.0296119 0.112221 -0.00518712 0.076045 0.116364 0.101894 0.137581
internal_weight=377.836 194.53 183.306 176.817 74.1315 102.686 36.3918 37.7397 172.087 17.61 85.0755 163.645 99.1552 64.4897
internal_count=1344 814 530 768 368 400 149 219 476 91 309 440 293 147
is_linear=0
shrinkage=0.05


end of trees

feature_importances:
Column_69=5
Column_71=5
Column_19=4
Column_27=3
Column_64=3
Column_65=3
Column_7=2
Column_23=2
Column_37=2
Column_49=2
Column_76=2
Column_1=1
Column_2=1
Column_3=1
Column_9=1
Column_12=1
Column_16=1
Column_21=1
Column_22=1
Column_24=1
Column_28=1
Column_29=1
Column_30=1
Column_31=1
Column_53=1
Column_54=1
Column_62=1
Column_67=1
Column_68=1
Column_77=1
Column_78=1
Column_83=1
Column_85=1

parameters:
[boosting: gbdt]
[objective: binary]
[metric: binary_logloss]
[tree_learner: serial]
[device_type: cpu]
[data_sample_strategy: bagging]
[data: ]
[valid: ]
[num_iterations: 500]
[learning_rate: 0.05]
[num_leaves: 31]
[num_threads: 8]
[seed: 42]
[deterministic: 0]
[force_col_wise: 0]
[force_row_wise: 0]
[histogram_pool_size: -1]
[max_depth: 5]
[min_data_in_leaf: 30]
[min_sum_hessian_in_leaf: 0.001]
[bagging_fraction: 0.8]
[pos_bagging_fraction: 1]
[neg_bagging_fraction: 1]
[bagging_freq: 0]
[bagging_seed: 400]
[bagging_by_query: 0]
[feature_fraction: 0.8]
[feature_fraction_bynode: 1]
[feature_fraction_seed: 30056]
[extra_trees: 0]
[extra_seed: 12879]
[early_stopping_round: 0]
[early_stopping_min_delta: 0]
[first_metric_only: 0]
[max_delta_step: 0]
[lambda_l1: 0.1]
[lambda_l2: 0.5]
[linear_lambda: 0]
[min_gain_to_split: 0]
[drop_rate: 0.1]
[max_drop: 50]
[skip_drop: 0.5]
[xgboost_dart_mode: 0]
[uniform_drop: 0]
[drop_seed: 17869]
[top_rate: 0.2]
[other_rate: 0.1]
[min_data_per_group: 100]
[max_cat_threshold: 32]
[cat_l2: 10]
[cat_smooth: 10]
[max_cat_to_onehot: 4]
[top_k: 20]
[monotone_constraints: ]
[monotone_constraints_method: basic]
[monotone_penalty: 0]
[feature_contri: ]
[forcedsplits_filename: ]
[refit_decay_rate: 0.9]
[cegb_tradeoff: 1]
[cegb_penalty_split: 0]
[cegb_penalty_feature_lazy: ]
[cegb_penalty_feature_coupled: ]
[path_smooth: 0]
[interaction_constraints: ]
[verbosity: -1]
[saved_feature_importance_type: 0]
[use_quantized_grad: 0]
[num_grad_quant_bins: 4]
[quant_train_renew_leaf: 0]
[stochastic_rounding: 1]
[linear_tree: 0]
[max_bin: 255]
[max_bin_by_feature: ]
[min_data_in_bin: 3]
[bin_construct_sample_cnt: 200000]
[data_random_seed: 175]
[is_enable_sparse: 1]
[enable_bundle: 1]
[use_missing: 1]
[zero_as_missing: 0]
[feature_pre_filter: 1]
[pre_partition: 0]
[two_round: 0]
[header: 0]
[label_column: ]
[weight_column: ]
[group_column: ]
[ignore_column: ]
[categorical_feature: ]
[forcedbins_filename: ]
[precise_float_parser: 0]
[parser_config_file: ]
[objective_seed: 16083]
[num_class: 1]
[is_unbalance: 0]
[scale_pos_weight: 4.0717]
[sigmoid: 1]
[boost_from_average: 1]
[reg_sqrt: 0]
[alpha: 0.9]
[fair_c: 1]
[poisson_max_delta_step: 0.7]
[tweedie_variance_power: 1.5]
[lambdarank_truncation_level: 30]
[lambdarank_norm: 1]
[label_gain: ]
[lambdarank_position_bias_regularization: 0]
[eval_at: ]
[multi_error_top_k: 1]
[auc_mu_weights: ]
[num_machines: 1]
[local_listen_port: 12400]
[time_out: 120]
[machine_list_filename: ]
[machines: ]
[gpu_platform_id: -1]
[gpu_device_id: -1]
[gpu_use_dp: 0]
[num_gpu: 1]

end of parameters

pandas_categorical:null
