tree
version=v4
num_class=1
num_tree_per_iteration=1
label_index=0
max_feature_idx=85
objective=binary sigmoid:1
feature_names=Column_0 Column_1 Column_2 Column_3 Column_4 Column_5 Column_6 Column_7 Column_8 Column_9 Column_10 Column_11 Column_12 Column_13 Column_14 Column_15 Column_16 Column_17 Column_18 Column_19 Column_20 Column_21 Column_22 Column_23 Column_24 Column_25 Column_26 Column_27 Column_28 Column_29 Column_30 Column_31 Column_32 Column_33 Column_34 Column_35 Column_36 Column_37 Column_38 Column_39 Column_40 Column_41 Column_42 Column_43 Column_44 Column_45 Column_46 Column_47 Column_48 Column_49 Column_50 Column_51 Column_52 Column_53 Column_54 Column_55 Column_56 Column_57 Column_58 Column_59 Column_60 Column_61 Column_62 Column_63 Column_64 Column_65 Column_66 Column_67 Column_68 Column_69 Column_70 Column_71 Column_72 Column_73 Column_74 Column_75 Column_76 Column_77 Column_78 Column_79 Column_80 Column_81 Column_82 Column_83 Column_84 Column_85
feature_infos=[-0.12484045962128837:0.095336347881888564] [-0.15615888795872818:0.13078754821671021] [-0.12099373198985811:0.12974425130413253] [-0.11305134577623174:0.15173308905191127] [-0.099229928401020781:0.1535620790450839] [0:0.11736229214004662] [0:0.031906077303997027] [0:0.036910761878282183] [0:1] [0:0.13687392035567952] none [0:0.99999993197279369] [0:0.99999993006993493] [0:5] [0:5] [-0.054683208908528957:0.10294966361269098] [-0.034154702130008485:0.13108979883518379] [-0.037241445887495006:0.15854813718472927] [-0.062787801482478089:0.19936100844972682] [-0.069322033492797752:0.2115860772834568] [-0.030998354835916508:0.048762824381412218] [-0.014995462468128995:0.027086183310533585] [-0.0098482507359758387:0.018385446013013285] [-0.0050016704051925043:0.0086228727714747766] [-0.0028395875329508824:0.0049956569288862607] [0:1] [-0.069322033492797752:0.2115860772834568] [-0.040179579757027684:0.084143545097784767] [-0.034714699906138846:0.11690501722915791] [-0.034231142665867909:0.14728037756469448] [-0.017944560172668739:0.02634217247276124] [-0.015809445828443038:0.020123027103413509] [-0.0054166106371266159:0.010482415153673234] [-0.00036268573733335796:0.00050758435486535254] none [0:1] [-0.008808072932381639:0.018659567434231677] [-0.00087254192173725977:0.0010163074589894354] [20.323510763528475:89.804262250975597] [12.376212952847524:93.472403612858969] [-36.264912843660689:14.251954406087933] [-0.59352978472943052:0.79608524501951194] [0:1] none [-0.089063851774902281:0.066126036176647363] [-0.01379874771324896:0.26851529361721882] [-0.33792106453933385:1.4144582129832239] [0.012824409062652939:0.17337931515025601] [0:1] [0.0021209752624535986:0.05569800732538506] [0.0011688602382272915:0.078895805801847602] [0.52478427721983412:1.5154740241340456] [0:3.9905840806760917] [0.0006749425075496747:0.082463865475467871] [0.0021469576392531111:0.055994401416062822] [0.0028627045885565991:0.040165695041085372] [0:1] [0:4.893250015759941] [0:9.3437067734359829] [-1:4498.804347826087] [-1.6577386171886721:2.8449110484854412] [0:1] [0:0.99999997530864271] [0:0.99999997674418672] [0:0.99999997946611963] [0:0.99999998601398632] [-0.16755793332371027:-1.3968430856436953e-09] [-1.7755682479858592e-09:0.21029295136929083] [-0.16755793332371027:-1.3968430856436953e-09] [-1.7755682479858592e-09:0.16687022722615241] [0:0.99999997946611952] [0.0028129394031107913:0.97826655381470229] [-0.50022662012306196:0.54183529977203226] [0:1] [0:1] [-0.99999997802197849:0] [-2.8932535044460126:3.4091835074946664] [-2.5539047061207896:2.4108623580569253] [-0.11396048671987435:0.13853716669149407] [-0.10689519822059401:0.16384955078422392] [-0.094465524008897073:0.16598016781083147] [-0.10689519822059401:0.16384955078422392] [-0.094465524008897073:0.16598016781083147] [0:1] [0:0.50847457627118642] [0:1]
tree_sizes=1712 1278 1509

Tree=0
num_leaves=15
num_cat=0
split_feature=12 19 77 31 53 50 9 20 6 6 51 65 7 37
split_gain=31.1654 28.9383 17.403 22.1002 16.5722 22.5426 14.8847 13.8802 13.381 12.9565 20.8494 25.215 12.4702 6.95345
threshold=0.65300982879812286 -0.0027943586785859616 0.21098179120269941 -0.0012317941035166625 0.0067313455719485247 0.016481947544044796 0.0065008966097264247 -0.0017065539549469542 0.00050667209450163861 0.002427321333165301 1.0640162222243259 0.52430071072762841 0.00031718398718606408 4.1765619306443094e-05
decision_type=2 2 2 2 2 2 2 2 2 2 2 2 2 2
left_child=2 12 3 6 7 -6 8 -5 -1 10 11 -3 -2 -4
right_child=1 9 13 4 5 -7 -8 -9 -10 -11 -12 -13 -14 -15
leaf_value=-0.87814268253969052 -0.95133740450404702 -0.79890695796445854 -0.76167820650711748 -0.7624415435259182 -0.87452726674035375 -0.79091602507717962 -0.92217576820064473 -0.82620031632372237 -0.80286789960155547 -0.89223403402871926 -0.76426857877825249 -0.89039214791078092 -0.8742204762415009 -0.82116255968103957
leaf_weight=14.02261918783188 9.7208388745784777 12.859610587358477 15.920432746410372 19.753475964069366 20.870754212141037 12.94691416621208 8.0340088009834272 18.499006658792496 10.028479963541029 9.7437040507793409 9.1689553260803205 16.918188214302063 10.331963926553724 10.561655461788176
leaf_count=55 47 38 40 50 81 37 36 61 30 40 23 69 40 34
internal_value=-0.834559 -0.862148 -0.82022 -0.830017 -0.814685 -0.841472 -0.865154 -0.791995 -0.845526 -0.841415 -0.82864 -0.850286 -0.912074 -0.783601
internal_weight=199.381 68.7433 130.637 104.155 72.0702 33.8177 32.0851 38.2525 24.0511 48.6905 38.9468 29.7778 20.0528 26.4821
internal_count=681 257 424 350 229 118 121 111 85 170 130 107 87 74
is_linear=0
shrinkage=1


Tree=1
num_leaves=11
num_cat=0
split_feature=12 19 12 66 55 31 7 30 51 15
split_gain=26.7067 25.8455 14.5433 19.545 16.371 15.205 11.7207 11.6376 20.5038 14.4088
threshold=0.65300982879812286 -0.0027943586785859616 0.5653845115823134 -0.010357140485510561 0.01063433965125571 -0.0012317941035166625 0.00031718398718606408 0.00065041178469280991 1.0640162222243259 0.0054305314944399505
decision_type=2 2 2 2 2 2 2 2 2 2
left_child=2 6 3 4 5 -1 -2 -3 9 -9
right_child=1 7 -4 -5 -6 -7 -8 8 -10 -11
leaf_value=0.040368246558111831 -0.065324314856366736 0.086694694417782436 0.1060285221055034 0 0.010888857828128831 0.084765816591654275 0.0098801614960704904 0.026354835209952205 0.072505702709608308 -0.052641382929336705
leaf_weight=32.256275415420525 9.4464875757694262 10.376565501093863 15.291020065546034 15.145253941416739 14.47414383292198 56.750633552670486 10.3765622228384 15.961375996470453 14.782888367772101 8.3852300792932493
leaf_count=111 47 29 39 59 54 161 40 58 44 39
internal_value=0.0467065 0.0211926 0.0597499 0.0533226 0.0610521 0.0690473 -0.0264372 0.040438 0.0271061 -0.00116289
internal_weight=203.246 69.3291 133.917 118.626 103.481 89.0069 19.823 49.5061 39.1295 24.3466
internal_count=681 257 424 385 326 272 87 170 141 97
is_linear=0
shrinkage=0.05


Tree=2
num_leaves=13
num_cat=0
split_feature=12 19 11 12 17 22 80 11 30 51 51 49
split_gain=22.9707 23.1294 14.529 20.6174 26.1737 21.9774 18.0994 11.9715 9.97359 17.9189 13.9414 8.26042
threshold=0.65300982879812286 -0.0027943586785859616 0.063508056058008702 0.53752328317011944 -0.0033762104618293427 0.0018813306430753853 -0.012654608944361599 0.27793093092036797 0.00065041178469280991 1.0640162222243259 0.96088557271845365 0.0063400870692425964
decision_type=2 2 2 2 2 2 2 2 2 2 2 2
left_child=2 7 11 4 6 -6 -4 -2 -3 10 -10 -1
right_child=1 8 3 -5 5 -7 -8 -9 9 -11 -12 -13
leaf_value=0.048136891255792839 -0.055914072207766112 0.080004811577443158 0.030463088985135618 0.09752905892171948 -0.044032350988994558 0.032959389290372051 0.090768977391915695 0.022188952779633023 0.02577202047547842 0.067180539392776517 -0.052097773588447173 0.10805739797773695
leaf_weight=10.733201920986177 11.968707531690599 10.714573085308073 26.688400253653526 16.577473357319832 13.721146881580351 26.058259323239326 24.776969954371452 7.6192747950553885 16.021055012941364 15.185605496168135 8.3101868629455549 18.31268721818924
leaf_count=34 59 29 91 41 60 88 66 28 58 44 39 44
internal_value=0.0436399 0.0199911 0.0555507 0.0465953 0.036806 0.0060615 0.0601864 -0.0254888 0.0379011 0.0255032 -0.00113607 0.0872738
internal_weight=206.688 69.8194 136.868 107.822 91.2448 39.7794 51.4654 19.588 50.2314 39.5168 24.3312 29.0459
internal_count=681 257 424 346 305 148 157 87 170 141 97 78
is_linear=0
shrinkage=0.05


end of trees

feature_importances:
Column_12=5
Column_51=4
Column_19=3
Column_6=2
Column_7=2
Column_11=2
Column_30=2
Column_31=2
Column_9=1
Column_15=1
Column_17=1
Column_20=1
Column_22=1
Column_37=1
Column_49=1
Column_50=1
Column_53=1
Column_55=1
Column_65=1
Column_66=1
Column_77=1
Column_80=1

parameters:
[boosting: gbdt]
[objective: binary]
[metric: binary_logloss]
[tree_learner: serial]
[device_type: cpu]
[data_sample_strategy: bagging]
[data: ]
[valid: ]
[num_iterations: 500]
[learning_rate: 0.05]
[num_leaves: 31]
[num_threads: 8]
[seed: 42]
[deterministic: 0]
[force_col_wise: 0]
[force_row_wise: 0]
[histogram_pool_size: -1]
[max_depth: 5]
[min_data_in_leaf: 30]
[min_sum_hessian_in_leaf: 0.001]
[bagging_fraction: 0.8]
[pos_bagging_fraction: 1]
[neg_bagging_fraction: 1]
[bagging_freq: 0]
[bagging_seed: 400]
[bagging_by_query: 0]
[feature_fraction: 0.8]
[feature_fraction_bynode: 1]
[feature_fraction_seed: 30056]
[extra_trees: 0]
[extra_seed: 12879]
[early_stopping_round: 0]
[early_stopping_min_delta: 0]
[first_metric_only: 0]
[max_delta_step: 0]
[lambda_l1: 0.1]
[lambda_l2: 0.5]
[linear_lambda: 0]
[min_gain_to_split: 0]
[drop_rate: 0.1]
[max_drop: 50]
[skip_drop: 0.5]
[xgboost_dart_mode: 0]
[uniform_drop: 0]
[drop_seed: 17869]
[top_rate: 0.2]
[other_rate: 0.1]
[min_data_per_group: 100]
[max_cat_threshold: 32]
[cat_l2: 10]
[cat_smooth: 10]
[max_cat_to_onehot: 4]
[top_k: 20]
[monotone_constraints: ]
[monotone_constraints_method: basic]
[monotone_penalty: 0]
[feature_contri: ]
[forcedsplits_filename: ]
[refit_decay_rate: 0.9]
[cegb_tradeoff: 1]
[cegb_penalty_split: 0]
[cegb_penalty_feature_lazy: ]
[cegb_penalty_feature_coupled: ]
[path_smooth: 0]
[interaction_constraints: ]
[verbosity: -1]
[saved_feature_importance_type: 0]
[use_quantized_grad: 0]
[num_grad_quant_bins: 4]
[quant_train_renew_leaf: 0]
[stochastic_rounding: 1]
[linear_tree: 0]
[max_bin: 255]
[max_bin_by_feature: ]
[min_data_in_bin: 3]
[bin_construct_sample_cnt: 200000]
[data_random_seed: 175]
[is_enable_sparse: 1]
[enable_bundle: 1]
[use_missing: 1]
[zero_as_missing: 0]
[feature_pre_filter: 1]
[pre_partition: 0]
[two_round: 0]
[header: 0]
[label_column: ]
[weight_column: ]
[group_column: ]
[ignore_column: ]
[categorical_feature: ]
[forcedbins_filename: ]
[precise_float_parser: 0]
[parser_config_file: ]
[objective_seed: 16083]
[num_class: 1]
[is_unbalance: 0]
[scale_pos_weight: 2.42211]
[sigmoid: 1]
[boost_from_average: 1]
[reg_sqrt: 0]
[alpha: 0.9]
[fair_c: 1]
[poisson_max_delta_step: 0.7]
[tweedie_variance_power: 1.5]
[lambdarank_truncation_level: 30]
[lambdarank_norm: 1]
[label_gain: ]
[lambdarank_position_bias_regularization: 0]
[eval_at: ]
[multi_error_top_k: 1]
[auc_mu_weights: ]
[num_machines: 1]
[local_listen_port: 12400]
[time_out: 120]
[machine_list_filename: ]
[machines: ]
[gpu_platform_id: -1]
[gpu_device_id: -1]
[gpu_use_dp: 0]
[num_gpu: 1]

end of parameters

pandas_categorical:null
