{"learner":{"attributes":{"best_iteration":"7","best_score":"0.6856279728347308","scikit_learn":"{\"_estimator_type\": \"classifier\"}"},"feature_names":[],"feature_types":[],"gradient_booster":{"model":{"cats":{"enc":[],"feature_segments":[],"sorted_idx":[]},"gbtree_model_param":{"num_parallel_tree":"1","num_trees":"58"},"iteration_indptr":[0,1,2,3,4,5,6,7,8,9,10,11,12,13,14,15,16,17,18,19,20,21,22,23,24,25,26,27,28,29,30,31,32,33,34,35,36,37,38,39,40,41,42,43,44,45,46,47,48,49,50,51,52,53,54,55,56,57,58],"tree_info":[0,0,0,0,0,0,0,0,0,0,0,0,0,0,0,0,0,0,0,0,0,0,0,0,0,0,0,0,0,0,0,0,0,0,0,0,0,0,0,0,0,0,0,0,0,0,0,0,0,0,0,0,0,0,0,0,0,0],"trees":[{"base_weights":[-2.882269E-2,3.656645E-2,-1.2350236E-1,-1.0092938E0,2.8963303E-2,-7.508646E-2,-2.2669403E-2,4.6356478E-1,-2.850188E-1,9.254867E-2,9.5020807E-1,-6.2813956E-1,3.923319E-1,-3.4267053E-2,2.4516132E-2,7.022814E-2,1.801688E-2,-5.687161E-2,-5.075092E-3,3.9144706E-2,-1.2214451E-2],"categories":[],"categories_nodes":[],"categories_segments":[],"categories_sizes":[],"default_left":[0,0,0,0,0,0,0,0,0,0,0,0,0,0,0,0,0,0,0,0,0],"id":0,"left_children":[1,-1,3,5,7,-1,-1,9,11,13,15,17,19,-1,-1,-1,-1,-1,-1,-1,-1],"loss_changes":[1.286766E1,0E0,2.168099E1,5.5732136E0,1.8849306E1,0E0,0E0,1.0278273E1,1.8873085E1,1.0876973E1,5.980686E0,1.4140095E1,7.065568E0,0E0,0E0,0E0,0E0,0E0,0E0,0E0,0E0],"parents":[2147483647,0,0,2,2,3,3,4,4,7,7,8,8,9,9,10,10,11,11,12,12],"right_children":[2,-1,4,6,8,-1,-1,10,12,14,16,18,20,-1,-1,-1,-1,-1,-1,-1,-1],"split_conditions":[-7.221517E-3,3.656645E-2,-1.2347685E-2,-3.0526819E-2,2.9642863E-4,-7.508646E-2,-2.2669403E-2,3.9240506E-1,6.112573E1,4.5739454E-3,6.077629E-1,5.217391E-1,2.4585354E-3,-3.4267053E-2,2.4516132E-2,7.022814E-2,1.801688E-2,-5.687161E-2,-5.075092E-3,3.9144706E-2,-1.2214451E-2],"split_indices":[21,0,80,72,28,0,0,70,38,9,71,83,32,0,0,0,0,0,0,0,0],"split_type":[0,0,0,0,0,0,0,0,0,0,0,0,0,0,0,0,0,0,0,0,0],"sum_hessian":[1.7737932E2,1.8784483E1,1.5859483E2,2.2560345E1,1.3603448E2,1.0965517E1,1.1594828E1,5.6991383E1,7.9043106E1,3.312931E1,2.386207E1,5.261207E1,2.6431036E1,1.0879311E1,2.225E1,1.2603449E1,1.1258621E1,2.6060345E1,2.6551725E1,1.6336208E1,1.0094828E1],"tree_param":{"num_deleted":"0","num_feature":"86","num_nodes":"21","size_leaf_vector":"1"}},{"base_weights":[-8.163962E-2,1.5768915E-1,-4.8753998E-1,-2.5781438E-1,4.6075612E-1,-1.273731E0,4.1126222E-3,3.0866707E-2,-6.436828E-1,9.055193E-1,-2.0945391E-1,-2.8703013E-2,-8.545087E-2,4.8532724E-2,-3.7192038E-1,-6.6739894E-2,8.312962E-3,7.6006755E-2,5.797105E-1,2.1156617E-2,-3.5269745E-2,-5.4319996E-2,8.779983E-3,5.355681E-2,4.752476E-3],"categories":[],"categories_nodes":[],"categories_segments":[],"categories_sizes":[],"default_left":[0,0,0,0,0,0,0,0,0,0,0,0,0,0,0,0,0,0,0,0,0,0,0,0,0],"id":1,"left_children":[1,3,5,7,9,11,13,-1,15,17,19,-1,-1,-1,21,-1,-1,-1,23,-1,-1,-1,-1,-1,-1],"loss_changes":[1.686681E1,1.3879392E1,2.5017925E1,1.6110336E1,1.9215076E1,6.359623E0,1.5151349E1,0E0,1.8730175E1,6.6188335E0,8.511587E0,0E0,0E0,0E0,1.1949644E1,0E0,0E0,0E0,6.1851997E0,0E0,0E0,0E0,0E0,0E0,0E0],"parents":[2147483647,0,0,1,1,2,2,3,3,4,4,5,5,6,6,8,8,9,9,10,10,14,14,18,18],"right_children":[2,4,6,8,10,12,14,-1,16,18,20,-1,-1,-1,22,-1,-1,-1,24,-1,-1,-1,-1,-1,-1],"split_conditions":[6.230993E-1,-1.3452427E-3,1.1063275E-3,-1.3486132E-3,3.7346203E-3,2.186528E-2,5.229001E-3,3.0866707E-2,-2.4308898E-5,8.701358E-1,2.7999997E-1,-2.8703013E-2,-8.545087E-2,4.8532724E-2,6.909091E-1,-6.6739894E-2,8.312962E-3,7.6006755E-2,3.9294778E-4,2.1156617E-2,-3.5269745E-2,-5.4319996E-2,8.779983E-3,5.355681E-2,4.752476E-3],"split_indices":[46,31,23,24,31,47,54,0,24,51,64,0,0,0,65,0,0,0,24,0,0,0,0,0,0],"split_type":[0,0,0,0,0,0,0,0,0,0,0,0,0,0,0,0,0,0,0,0,0,0,0,0,0],"sum_hessian":[1.7149657E2,1.0811466E2,6.338191E1,4.552265E1,6.259201E1,2.3852528E1,3.952938E1,1.3666976E1,3.1855679E1,3.750268E1,2.508933E1,1.0125516E1,1.3727012E1,1.0703113E1,2.8826267E1,1.6905684E1,1.4949995E1,1.1616431E1,2.588625E1,1.1001626E1,1.4087704E1,1.21585455E1,1.666772E1,1.2150128E1,1.3736122E1],"tree_param":{"num_deleted":"0","num_feature":"86","num_nodes":"25","size_leaf_vector":"1"}},{"base_weights":[3.0483069E-2,2.2604953E-1,-4.4034436E-1,-2.0634103E-1,4.720102E-1,-1.0377629E0,1.02059804E-1,2.411042E-1,-4.2971797E-2,6.418829E-1,-2.7414812E-2,-3.1735238E-2,-7.213133E-2,3.489646E-2,-4.0527474E-2,-1.4281953E-2,5.4296624E-2,8.126598E-1,-1.4427178E-2,2.1659186E-2,6.28682E-2],"categories":[],"categories_nodes":[],"categories_segments":[],"categories_sizes":[],"default_left":[0,0,0,0,0,0,0,0,0,0,0,0,0,0,0,0,0,0,0,0,0],"id":2,"left_children":[1,3,5,7,9,11,13,15,-1,17,-1,-1,-1,-1,-1,-1,-1,19,-1,-1,-1],"loss_changes":[1.6566256E1,1.3665337E1,1.7289448E1,1.3920427E1,1.4506418E1,3.0009995E0,1.6033836E1,1.3033972E1,0E0,1.1490297E1,0E0,0E0,0E0,0E0,0E0,0E0,0E0,9.399124E0,0E0,0E0,0E0],"parents":[2147483647,0,0,1,1,2,2,3,3,4,4,5,5,6,6,7,7,9,9,17,17],"right_children":[2,4,6,8,10,12,14,16,-1,18,-1,-1,-1,-1,-1,-1,-1,20,-1,-1,-1],"split_conditions":[2.0769963E-3,-2.585879E-3,2.6570084E-3,-5.003371E-3,1.1671504E-2,7.1252165E-3,6.419973E-2,-2.7843697E-2,-4.2971797E-2,8.7830687E-1,-2.7414812E-2,-3.1735238E-2,-7.213133E-2,3.489646E-2,-4.0527474E-2,-1.4281953E-2,5.4296624E-2,7.092841E-3,-1.4427178E-2,2.1659186E-2,6.28682E-2],"split_indices":[22,31,23,30,50,55,67,66,0,63,0,0,0,0,0,0,0,55,0,0,0],"split_type":[0,0,0,0,0,0,0,0,0,0,0,0,0,0,0,0,0,0,0,0,0],"sum_hessian":[1.7806702E2,1.2632712E2,5.1739906E1,4.5715435E1,8.061168E1,2.4274462E1,2.7465445E1,2.7412455E1,1.8302979E1,6.950806E1,1.1103624E1,1.3574848E1,1.0699615E1,1.6824833E1,1.0640613E1,1.7219667E1,1.0192787E1,5.8926357E1,1.05817E1,3.298148E1,2.594488E1],"tree_param":{"num_deleted":"0","num_feature":"86","num_nodes":"21","size_leaf_vector":"1"}},{"base_weights":[3.0022673E-2,1.2903373E-1,-6.820183E-1,5.7972472E-2,9.742166E-3,1.13131795E-2,-7.372213E-2,-3.511115E-1,5.194253E-1,-9.17386E-1,-4.7940735E-2,1.0379375E0,8.576488E-2,-8.014395E-3,-6.656324E-2,1.3919018E-2,-3.831897E-2,7.6568015E-2,2.2633329E-2,3.399464E-2,-2.630422E-2],"categories":[],"categories_nodes":[],"categories_segments":[],"categories_sizes":[],"default_left":[0,0,0,0,0,0,0,0,0,0,0,0,0,0,0,0,0,0,0,0,0],"id":3,"left_children":[1,3,5,-1,7,-1,-1,9,11,13,15,17,19,-1,-1,-1,-1,-1,-1,-1,-1],"loss_changes":[1.299037E1,1.9824589E1,1.6633411E1,0E0,2.7157738E1,0E0,0E0,1.467524E1,1.3577234E1,9.013443E0,1.3713854E1,7.1115494E0,1.2937613E1,0E0,0E0,0E0,0E0,0E0,0E0,0E0,0E0],"parents":[2147483647,0,0,1,1,2,2,4,4,7,7,8,8,9,9,10,10,11,11,12,12],"right_children":[2,4,6,-1,8,-1,-1,10,12,14,16,18,20,-1,-1,-1,-1,-1,-1,-1,-1],"split_conditions":[1.0673974E-2,-7.221517E-3,-5.8007218E-2,5.7972472E-2,8.453468E-4,1.13131795E-2,-7.372213E-2,1E0,1.7226121E-3,-7.4301887E-4,-1.0614005E-2,-6.7493343E-3,1.1676755E-3,-8.014395E-3,-6.656324E-2,1.3919018E-2,-3.831897E-2,7.6568015E-2,2.2633329E-2,3.399464E-2,-2.630422E-2],"split_indices":[55,21,66,0,23,0,0,48,22,24,44,68,24,0,0,0,0,0,0,0,0],"split_type":[0,0,0,0,0,0,0,0,0,0,0,0,0,0,0,0,0,0,0,0,0],"sum_hessian":[1.8279684E2,1.6132362E2,2.1473225E1,1.5746956E1,1.4557668E2,1.0279298E1,1.1193927E1,8.529972E1,6.027695E1,2.892208E1,5.637764E1,2.6713066E1,3.3563885E1,1.0798164E1,1.8123915E1,3.9094093E1,1.7283548E1,1.35240345E1,1.3189031E1,1.7055044E1,1.650884E1],"tree_param":{"num_deleted":"0","num_feature":"86","num_nodes":"21","size_leaf_vector":"1"}},{"base_weights":[-3.5103343E-2,-3.164078E-1,3.0353746E-1,-1.3082767E-1,-7.268821E-2,7.1728677E-1,-2.8131652E-1,-4.1819876E-1,3.6322206E-1,9.689477E-1,6.9773467E-3,-4.348284E-2,2.2636745E-2,1.7096862E-1,-8.4412014E-1,6.448736E-2,-9.399337E-3,6.5177195E-2,1.2983071E-2,-2.1153916E-2,4.4165693E-2,-4.3900576E-4,-7.83405E-2],"categories":[],"categories_nodes":[],"categories_segments":[],"categories_sizes":[],"default_left":[0,0,0,0,0,0,0,0,0,0,0,0,0,0,0,0,0,0,0,0,0,0,0],"id":4,"left_children":[1,3,5,7,-1,9,11,13,15,17,-1,-1,-1,19,21,-1,-1,-1,-1,-1,-1,-1,-1],"loss_changes":[1.7151068E1,2.042912E1,1.9986603E1,1.2339656E1,0E0,6.7563705E0,1.5300219E1,1.3973828E1,1.6676159E1,7.398451E0,0E0,0E0,0E0,1.0467639E1,1.9206125E1,0E0,0E0,0E0,0E0,0E0,0E0,0E0,0E0],"parents":[2147483647,0,0,1,1,2,2,3,3,5,5,6,6,7,7,8,8,9,9,13,13,14,14],"right_children":[2,4,6,8,-1,10,12,14,16,18,-1,-1,-1,20,22,-1,-1,-1,-1,-1,-1,-1,-1],"split_conditions":[8.9635217E-4,1.9528539E-3,6.101477E-3,-1.2189902E-3,-7.268821E-2,8.274574E-1,1.1031703E0,-5.336657E-3,-7.608283E-3,8.690131E-3,6.9773467E-3,-4.348284E-2,2.2636745E-2,5E-4,4.5848507E-3,6.448736E-2,-9.399337E-3,6.5177195E-2,1.2983071E-2,-2.1153916E-2,4.4165693E-2,-4.3900576E-4,-7.83405E-2],"split_indices":[23,30,5,31,0,57,51,30,19,54,0,0,0,6,55,0,0,0,0,0,0,0,0],"split_type":[0,0,0,0,0,0,0,0,0,0,0,0,0,0,0,0,0,0,0,0,0,0,0],"sum_hessian":[1.7802089E2,9.743984E1,8.058104E1,8.480529E1,1.2634556E1,4.716158E1,3.341946E1,5.3842793E1,3.0962494E1,3.225933E1,1.4902246E1,1.852401E1,1.4895451E1,2.2744562E1,3.1098232E1,1.1117198E1,1.9845297E1,2.125416E1,1.1005173E1,1.2546958E1,1.0197604E1,1.4958536E1,1.6139696E1],"tree_param":{"num_deleted":"0","num_feature":"86","num_nodes":"23","size_leaf_vector":"1"}},{"base_weights":[2.3627024E-2,1.2422879E-1,-4.3914165E-2,-1.5457347E-1,5.4485923E-1,1.6848248E-1,-8.4617287E-1,1.0177177E0,7.56171E-2,5.2385356E-2,-9.060195E-3,-7.005071E-2,-1.3092135E-2,6.734686E-2,2.6301539E-2,4.6066397E-1,-3.790537E-2,-3.0715832E-2,2.2616016E-2,4.5139182E-2,-0E0],"categories":[],"categories_nodes":[],"categories_segments":[],"categories_sizes":[],"default_left":[0,0,0,0,0,0,0,0,0,0,0,0,0,0,0,0,0,0,0,0,0],"id":5,"left_children":[1,3,-1,5,7,9,11,13,15,-1,17,-1,-1,-1,-1,19,-1,-1,-1,-1,-1],"loss_changes":[1.6528301E1,1.9417461E1,0E0,2.2458796E1,1.4445997E1,1.0823284E1,9.83173E0,4.390896E0,1.1325971E1,0E0,1.648504E1,0E0,0E0,0E0,0E0,4.980644E0,0E0,0E0,0E0,0E0,0E0],"parents":[2147483647,0,0,1,1,3,3,4,4,5,5,6,6,7,7,8,8,10,10,15,15],"right_children":[2,4,-1,6,8,10,12,14,16,-1,18,-1,-1,-1,-1,20,-1,-1,-1,-1,-1],"split_conditions":[1.0673974E-2,8.453468E-4,-4.3914165E-2,1.932024E-1,1.8102877E-3,-3.046706E-2,7.1009576E-1,3.095844E-2,1.0183278E-5,5.2385356E-2,-7.4999994E-1,-7.005071E-2,-1.3092135E-2,6.734686E-2,2.6301539E-2,4.1093724E-3,-3.790537E-2,-3.0715832E-2,2.2616016E-2,4.5139182E-2,-0E0],"split_indices":[55,23,0,76,22,4,76,19,37,0,75,0,0,0,0,5,0,0,0,0,0],"split_type":[0,0,0,0,0,0,0,0,0,0,0,0,0,0,0,0,0,0,0,0,0],"sum_hessian":[1.8079117E2,1.635243E2,1.7266851E1,9.857897E1,6.4945335E1,6.7609436E1,3.0969538E1,3.1659687E1,3.328565E1,1.0629961E1,5.6979477E1,1.5080917E1,1.588862E1,1.7799109E1,1.3860578E1,2.3157846E1,1.0127802E1,2.4597202E1,3.2382275E1,1.1401208E1,1.1756638E1],"tree_param":{"num_deleted":"0","num_feature":"86","num_nodes":"21","size_leaf_vector":"1"}},{"base_weights":[-1.4321444E-2,3.5076275E-1,-1.8138833E-1,-6.6739954E-2,8.476889E-1,-2.9852626E-1,3.380437E-2,2.6834968E-2,-2.5754735E-2,6.622474E-2,5.0299293E-3,-1.3315785E-1,-5.2634694E-2,-3.021774E-1,2.2294242E-2,4.5207995E-3,-4.1462533E-2],"categories":[],"categories_nodes":[],"categories_segments":[],"categories_sizes":[],"default_left":[0,0,0,0,0,0,0,0,0,0,0,0,0,0,0,0,0],"id":6,"left_children":[1,3,5,7,9,11,-1,-1,-1,-1,-1,13,-1,15,-1,-1,-1],"loss_changes":[1.0985415E1,1.184767E1,1.2607513E1,8.796204E0,8.971283E0,1.3434041E1,0E0,0E0,0E0,0E0,0E0,9.055943E0,0E0,1.4923718E1,0E0,0E0,0E0],"parents":[2147483647,0,0,1,1,2,2,3,3,4,4,5,5,11,11,13,13],"right_children":[2,4,6,8,10,12,-1,-1,-1,-1,-1,14,-1,16,-1,-1,-1],"split_conditions":[-3.4467053E-2,6.751053E-3,1.1669936E0,-3.4665125E-3,3.991637E-2,1.071723E-2,3.380437E-2,2.6834968E-2,-2.5754735E-2,6.622474E-2,5.0299293E-3,8.459554E-3,-5.2634694E-2,2.9642863E-4,2.2294242E-2,4.5207995E-3,-4.1462533E-2],"split_indices":[66,69,51,32,19,9,0,0,0,0,0,50,0,28,0,0,0],"split_type":[0,0,0,0,0,0,0,0,0,0,0,0,0,0,0,0,0],"sum_hessian":[1.783426E2,5.54569E1,1.22885704E2,3.0497911E1,2.4958988E1,1.087923E2,1.4093406E1,1.2821464E1,1.7676449E1,1.4681976E1,1.0277011E1,9.030092E1,1.8491373E1,7.040183E1,1.9899088E1,4.07143E1,2.9687536E1],"tree_param":{"num_deleted":"0","num_feature":"86","num_nodes":"17","size_leaf_vector":"1"}},{"base_weights":[3.4193244E-2,2.4121772E-1,-3.7352607E-1,4.4942224E-1,-1.413049E-1,1.8873855E-2,-7.7552307E-1,8.057374E-1,8.126005E-2,3.4043822E-2,-4.2064637E-1,-2.2163646E-2,3.4345835E-2,-6.1027765E-2,-7.6133544E-3,1.2324202E-2,1.1778704E0,-3.9824244E-1,3.0107548E-2,1.5593268E-2,-4.677105E-2,7.432187E-2,3.674394E-2,2.7443545E-3,-4.1148257E-2],"categories":[],"categories_nodes":[],"categories_segments":[],"categories_sizes":[],"default_left":[0,0,0,0,0,0,0,0,0,0,0,0,0,0,0,0,0,0,0,0,0,0,0,0,0],"id":7,"left_children":[1,3,5,7,9,11,13,15,17,-1,19,-1,-1,-1,-1,-1,21,23,-1,-1,-1,-1,-1,-1,-1],"loss_changes":[1.5171315E1,9.601679E0,9.626317E0,1.0039843E1,1.0059395E1,1.0036015E1,8.000929E0,7.733677E0,1.01184E1,0E0,1.2629787E1,0E0,0E0,0E0,0E0,0E0,1.8553619E0,4.1737413E0,0E0,0E0,0E0,0E0,0E0,0E0,0E0],"parents":[2147483647,0,0,1,1,2,2,3,3,4,4,5,5,6,6,7,7,8,8,10,10,16,16,17,17],"right_children":[2,4,6,8,10,12,14,16,18,-1,20,-1,-1,-1,-1,-1,22,24,-1,-1,-1,-1,-1,-1,-1],"split_conditions":[6.666665E-1,6.5217394E-1,2.74995E-1,-3.9191127E-1,3.406581E1,1.23650506E-1,8.737384E-5,1.18279554E-1,8.453468E-4,3.4043822E-2,4.8868163E-3,-2.2163646E-2,3.4345835E-2,-6.1027765E-2,-7.6133544E-3,1.2324202E-2,4.4047615E-1,4.1070385E1,3.0107548E-2,1.5593268E-2,-4.677105E-2,7.432187E-2,3.674394E-2,2.7443545E-3,-4.1148257E-2],"split_indices":[12,83,77,60,39,77,37,12,23,0,53,0,0,0,0,0,12,38,0,0,0,0,0,0,0],"split_type":[0,0,0,0,0,0,0,0,0,0,0,0,0,0,0,0,0,0,0,0,0,0,0,0,0],"sum_hessian":[1.7782744E2,1.18374825E2,5.9452625E1,7.67091E1,4.166572E1,3.0441835E1,2.901079E1,3.8239727E1,3.846937E1,1.0110939E1,3.1554785E1,1.8104237E1,1.2337598E1,1.6272621E1,1.2738168E1,1.605014E1,2.2189587E1,2.0053106E1,1.8416265E1,1.310566E1,1.8449123E1,1.1557785E1,1.0631801E1,1.000948E1,1.0043625E1],"tree_param":{"num_deleted":"0","num_feature":"86","num_nodes":"25","size_leaf_vector":"1"}},{"base_weights":[4.84445E-3,7.766626E-2,-3.7173223E-2,-1.8581045E-1,2.7489462E-1,-4.1451412E-1,3.92415E-2,4.3959212E-1,-3.0665746E-2,-7.2412604E-1,1.4231673E-2,-1.8134573E-2,6.134303E-1,1.378753E-3,-6.418695E-2,5.5532545E-2,7.8877825E-3],"categories":[],"categories_nodes":[],"categories_segments":[],"categories_sizes":[],"default_left":[0,0,0,0,0,0,0,0,0,0,0,0,0,0,0,0,0],"id":8,"left_children":[1,3,-1,5,7,9,-1,11,-1,13,-1,-1,15,-1,-1,-1,-1],"loss_changes":[9.657308E0,8.513595E0,0E0,1.5832523E1,1.3952802E1,1.2676776E1,0E0,1.1360855E1,0E0,1.7058653E1,0E0,0E0,1.46441E1,0E0,0E0,0E0,0E0],"parents":[2147483647,0,0,1,1,3,3,4,4,5,5,7,7,9,9,12,12],"right_children":[2,4,-1,6,8,10,-1,12,-1,14,-1,-1,16,-1,-1,-1,-1],"split_conditions":[1.9337164E0,1E0,-3.7173223E-2,1.1669936E0,7.6763155E-3,4.240289E-3,3.92415E-2,5.031201E-3,-3.0665746E-2,1.5151514E-1,1.4231673E-2,-1.8134573E-2,4.240261E-1,1.378753E-3,-6.418695E-2,5.5532545E-2,7.8877825E-3],"split_indices":[60,48,0,51,5,1,0,49,0,62,0,0,46,0,0,0,0],"split_type":[0,0,0,0,0,0,0,0,0,0,0,0,0,0,0,0,0],"sum_hessian":[1.7638257E2,1.6167863E2,1.47039385E1,6.902253E1,9.26561E1,5.640765E1,1.2614879E1,7.868372E1,1.3972372E1,3.916919E1,1.723846E1,1.371692E1,6.4966805E1,1.704521E1,2.2123981E1,3.0274841E1,3.4691963E1],"tree_param":{"num_deleted":"0","num_feature":"86","num_nodes":"17","size_leaf_vector":"1"}},{"base_weights":[1.3239022E-2,4.031686E-2,-8.586008E-2,-6.527804E-1,5.6691375E-2,-6.9335834E-3,-5.548818E-2,4.2744163E-1,-3.0784708E-1,-1.7455999E-2,6.150095E-1,-9.003762E-1,1.1253725E-1,5.0181367E-2,3.7834884E-3,-2.2461155E-2,-7.3181204E-2,3.1501483E-2,-1.4624543E-2],"categories":[],"categories_nodes":[],"categories_segments":[],"categories_sizes":[],"default_left":[0,0,0,0,0,0,0,0,0,0,0,0,0,0,0,0,0,0,0],"id":9,"left_children":[1,-1,3,5,7,-1,-1,9,11,-1,13,15,17,-1,-1,-1,-1,-1,-1],"loss_changes":[1.4092721E1,0E0,1.2912709E1,7.2592173E0,1.7375547E1,0E0,0E0,9.529361E0,1.6304699E1,0E0,1.0678816E1,6.0315456E0,8.320699E0,0E0,0E0,0E0,0E0,0E0,0E0],"parents":[2147483647,0,0,2,2,3,3,4,4,7,7,8,8,10,10,11,11,12,12],"right_children":[2,-1,4,6,8,-1,-1,10,12,-1,14,16,18,-1,-1,-1,-1,-1,-1],"split_conditions":[-3.2908258E-3,4.031686E-2,-2.783519E-3,-5.626044E-3,6.2372863E-1,-6.9335834E-3,-5.548818E-2,4.032561E-3,1.4926823E-2,-1.7455999E-2,1.6649262E-3,1.9532554E-3,4.49925E-3,5.0181367E-2,3.7834884E-3,-2.2461155E-2,-7.3181204E-2,3.1501483E-2,-1.4624543E-2],"split_indices":[32,0,21,21,46,0,0,54,4,0,30,21,5,0,0,0,0,0,0],"split_type":[0,0,0,0,0,0,0,0,0,0,0,0,0,0,0,0,0,0,0],"sum_hessian":[1.7650983E2,1.8924881E1,1.5758495E2,3.1084723E1,1.2650022E2,1.5344428E1,1.5740295E1,6.2766216E1,6.3734E1,1.1939655E1,5.082656E1,2.6076052E1,3.7657948E1,2.8932896E1,2.1893667E1,1.557545E1,1.0500602E1,1.6398037E1,2.1259912E1],"tree_param":{"num_deleted":"0","num_feature":"86","num_nodes":"19","size_leaf_vector":"1"}},{"base_weights":[1.9463442E-2,2.1376891E-1,-3.6621773E-1,3.3517915E-1,-3.5600446E-2,-5.816538E-1,1.0934557E-2,7.4694194E-2,7.410487E-1,-1.7416933E-1,-6.1180394E-2,3.243661E-1,-3.92577E-2,1.0480331E0,-0E0,-3.696915E-2,1.9148039E-2,2.5338235E-3,5.2684367E-2,7.1158245E-2,2.2419466E-2],"categories":[],"categories_nodes":[],"categories_segments":[],"categories_sizes":[],"default_left":[0,0,0,0,0,0,0,0,0,0,0,0,0,0,0,0,0,0,0,0,0],"id":10,"left_children":[1,3,5,7,-1,9,-1,11,13,15,-1,17,-1,19,-1,-1,-1,-1,-1,-1,-1],"loss_changes":[1.3852348E1,1.4044447E1,7.9560976E0,1.1456616E1,0E0,1.1573565E1,0E0,1.4818589E1,9.591381E0,9.498351E0,0E0,1.0522837E1,0E0,5.9306183E0,0E0,0E0,0E0,0E0,0E0,0E0,0E0],"parents":[2147483647,0,0,1,1,2,2,3,3,5,5,7,7,8,8,9,9,11,11,13,13],"right_children":[2,4,6,8,-1,10,-1,12,14,16,-1,18,-1,20,-1,-1,-1,-1,-1,-1,-1],"split_conditions":[6.666665E-1,1.0673974E-2,4.4991924E-5,8.453468E-4,-3.5600446E-2,1.7602635E-5,1.0934557E-2,1.1346071E-3,2.4713108E-3,4.761739E-6,-6.1180394E-2,3.8775504E-1,-3.92577E-2,2.336905E-3,-0E0,-3.696915E-2,1.9148039E-2,2.5338235E-3,5.2684367E-2,7.1158245E-2,2.2419466E-2],"split_indices":[12,55,33,23,0,33,0,17,24,33,0,12,0,22,0,0,0,0,0,0,0],"split_type":[0,0,0,0,0,0,0,0,0,0,0,0,0,0,0,0,0,0,0,0,0],"sum_hessian":[1.8300471E2,1.22163826E2,6.084089E1,1.0865972E2,1.3504108E1,4.459281E1,1.6248077E1,6.705475E1,4.160497E1,2.815092E1,1.6441893E1,5.253838E1,1.451637E1,2.903353E1,1.2571439E1,1.3900796E1,1.4250125E1,3.907969E1,1.3458689E1,1.6912874E1,1.2120655E1],"tree_param":{"num_deleted":"0","num_feature":"86","num_nodes":"21","size_leaf_vector":"1"}},{"base_weights":[2.2327164E-2,3.8504053E-2,-4.7039546E-2,4.8689954E-2,-4.534584E-2,-2.4409504E-1,4.6915382E-1,-2.7130753E-2,-8.126661E-1,7.508026E-1,-2.4296934E-2,-1.9849334E-2,4.400743E-2,-6.013775E-2,-1.701325E-2,5.270147E-2,-3.7632838E-3],"categories":[],"categories_nodes":[],"categories_segments":[],"categories_sizes":[],"default_left":[0,0,0,0,0,0,0,0,0,0,0,0,0,0,0,0,0],"id":11,"left_children":[1,-1,3,5,-1,7,9,11,13,15,-1,-1,-1,-1,-1,-1,-1],"loss_changes":[8.990649E0,0E0,1.3096651E1,1.7690393E1,0E0,1.0326981E1,1.6266155E1,2.1232319E1,3.7112246E0,1.1711664E1,0E0,0E0,0E0,0E0,0E0,0E0,0E0],"parents":[2147483647,0,0,2,2,3,3,5,5,6,6,7,7,8,8,9,9],"right_children":[2,-1,4,6,-1,8,10,12,14,16,-1,-1,-1,-1,-1,-1,-1],"split_conditions":[-1.1625356E-2,3.8504053E-2,1.0612667E-2,8.453468E-4,-4.534584E-2,7.4142497E-4,2.786772E-3,-1.5053393E-3,8.333333E-1,7.971241E-3,-2.4296934E-2,-1.9849334E-2,4.400743E-2,-6.013775E-2,-1.701325E-2,5.270147E-2,-3.7632838E-3],"split_indices":[20,0,55,23,0,30,24,30,85,5,0,0,0,0,0,0,0],"split_type":[0,0,0,0,0,0,0,0,0,0,0,0,0,0,0,0,0],"sum_hessian":[1.7024068E2,1.3716851E1,1.5652382E2,1.4158801E2,1.493581E1,8.357393E1,5.801408E1,6.1376514E1,2.2197418E1,4.504831E1,1.2965772E1,4.4079853E1,1.7296658E1,1.1195181E1,1.1002237E1,3.283909E1,1.2209223E1],"tree_param":{"num_deleted":"0","num_feature":"86","num_nodes":"17","size_leaf_vector":"1"}},{"base_weights":[1.564011E-2,-1.0333961E-1,6.129655E-1,3.9325904E-2,-1.7919719E-1,5.1357206E-2,1.1305639E-3,3.020439E-2,-2.7451116E-1,2.356662E-2,-3.7428233E-1,-3.7391786E-2,-7.172627E-3],"categories":[],"categories_nodes":[],"categories_segments":[],"categories_sizes":[],"default_left":[0,0,0,0,0,0,0,0,0,0,0,0,0],"id":12,"left_children":[1,3,5,-1,7,-1,-1,-1,9,-1,11,-1,-1],"loss_changes":[1.2771664E1,1.0153715E1,7.1744757E0,0E0,1.04675865E1,0E0,0E0,0E0,9.409754E0,0E0,9.308595E0,0E0,0E0],"parents":[2147483647,0,0,1,1,2,2,4,4,8,8,10,10],"right_children":[2,4,6,-1,8,-1,-1,-1,10,-1,12,-1,-1],"split_conditions":[4.668384E-3,-1.3213531E-2,3.991637E-2,3.9325904E-2,8.695652E-2,5.1357206E-2,1.1305639E-3,3.020439E-2,1.8668497E-2,2.356662E-2,6.588368E-3,-3.7391786E-2,-7.172627E-3],"split_indices":[6,20,19,0,83,0,0,0,47,0,55,0,0],"split_type":[0,0,0,0,0,0,0,0,0,0,0,0,0],"sum_hessian":[1.7709802E2,1.482317E2,2.8866314E1,1.0804259E1,1.3742744E2,1.6430086E1,1.2436227E1,1.4215793E1,1.2321166E2,1.3979665E1,1.09231995E2,4.0697678E1,6.853432E1],"tree_param":{"num_deleted":"0","num_feature":"86","num_nodes":"13","size_leaf_vector":"1"}},{"base_weights":[1.6994636E-3,-2.2749221E-1,2.6731667E-1,4.1019812E-2,-3.9416626E-1,4.9587244E-1,-2.6425332E-2,-1.4288339E-1,-8.0769897E-1,8.835298E-1,1.4591403E-1,-8.1230146E-1,3.0418566E-1,-1.8583007E-2,-6.400738E-2,6.041484E-2,1.3780844E-2,-1.8606996E-2,3.8698647E-2,-5.8383018E-2,-1.9053465E-2,4.1160293E-2,-2.8741532E-3],"categories":[],"categories_nodes":[],"categories_segments":[],"categories_sizes":[],"default_left":[0,0,0,0,0,0,0,0,0,0,0,0,0,0,0,0,0,0,0,0,0,0,0],"id":13,"left_children":[1,3,5,-1,7,9,-1,11,13,15,17,19,21,-1,-1,-1,-1,-1,-1,-1,-1,-1,-1],"loss_changes":[1.0675201E1,1.668081E1,1.5063287E1,0E0,8.286699E0,8.429741E0,0E0,1.5928874E1,5.6508904E0,5.4332047E0,1.1679653E1,2.660533E0,6.1219654E0,0E0,0E0,0E0,0E0,0E0,0E0,0E0,0E0,0E0,0E0],"parents":[2147483647,0,0,1,1,2,2,4,4,5,5,7,7,8,8,9,9,10,10,11,11,12,12],"right_children":[2,4,6,-1,8,10,-1,12,14,16,18,20,22,-1,-1,-1,-1,-1,-1,-1,-1,-1,-1],"split_conditions":[8.453468E-4,-2.6556707E-3,1.0635226E-2,4.1019812E-2,5.1011306E-1,3.0379804E-2,-2.6425332E-2,-8.052069E-3,2.8372032E-3,3.0542687E-3,1.1329416E-2,1.1128192E-6,-4.819672E-3,-1.8583007E-2,-6.400738E-2,6.041484E-2,1.3780844E-2,-1.8606996E-2,3.8698647E-2,-5.8383018E-2,-1.9053465E-2,4.1160293E-2,-2.8741532E-3],"split_indices":[23,32,55,0,46,19,0,17,20,31,49,37,29,0,0,0,0,0,0,0,0,0,0],"split_type":[0,0,0,0,0,0,0,0,0,0,0,0,0,0,0,0,0,0,0,0,0,0,0],"sum_hessian":[1.7329181E2,9.289933E1,8.039248E1,1.2127975E1,8.0771355E1,6.2846035E1,1.7546448E1,5.1229267E1,2.9542088E1,2.8958067E1,3.388797E1,2.0275906E1,3.0953362E1,1.6402239E1,1.313985E1,1.8123688E1,1.0834378E1,1.8706324E1,1.5181644E1,1.00524845E1,1.022342E1,1.2300968E1,1.8652393E1],"tree_param":{"num_deleted":"0","num_feature":"86","num_nodes":"23","size_leaf_vector":"1"}},{"base_weights":[3.586749E-2,4.3213405E-2,-3.1361625E-2,-3.332512E-1,1.8721399E-1,-6.766784E-1,3.0851763E-1,3.187946E-1,-3.6943324E-2,-6.284242E-4,-1.109734E0,5.3632475E-2,-1.4898802E-2,1.7448817E-1,5.74241E-2,-2.9943293E-2,-7.6619685E-2,2.0118512E-2,-2.085251E-2],"categories":[],"categories_nodes":[],"categories_segments":[],"categories_sizes":[],"default_left":[0,0,0,0,0,0,0,0,0,0,0,0,0,0,0,0,0,0,0],"id":14,"left_children":[1,-1,3,5,7,9,11,13,-1,-1,15,-1,-1,17,-1,-1,-1,-1,-1],"loss_changes":[9.808445E0,0E0,1.0761223E1,1.535428E1,1.1692483E1,1.2835686E1,1.1742765E1,9.655079E0,0E0,0E0,4.737507E0,0E0,0E0,9.918121E0,0E0,0E0,0E0,0E0,0E0],"parents":[2147483647,0,0,2,2,3,3,4,4,5,5,6,6,7,7,10,10,13,13],"right_children":[2,-1,4,6,8,10,12,14,-1,-1,16,-1,-1,18,-1,-1,-1,-1,-1],"split_conditions":[-3.046706E-2,4.3213405E-2,1E0,9.556413E-3,2.7155809E-3,5.066662E-3,4.9878073E-1,1E0,-3.6943324E-2,-6.284242E-4,6.5217394E-1,5.3632475E-2,-1.4898802E-2,1E0,5.74241E-2,-2.9943293E-2,-7.6619685E-2,2.0118512E-2,-2.085251E-2],"split_indices":[4,0,48,54,22,54,61,85,0,0,83,0,0,56,0,0,0,0,0],"split_type":[0,0,0,0,0,0,0,0,0,0,0,0,0,0,0,0,0,0,0],"sum_hessian":[1.7313522E2,1.2217872E1,1.6091736E2,6.755098E1,9.336638E1,4.4069607E1,2.348137E1,8.2419655E1,1.0946721E1,1.7891754E1,2.6177853E1,1.0123222E1,1.3358148E1,7.134206E1,1.1077598E1,1.3053545E1,1.3124309E1,5.1854614E1,1.9487442E1],"tree_param":{"num_deleted":"0","num_feature":"86","num_nodes":"19","size_leaf_vector":"1"}},{"base_weights":[1.5670182E-2,6.036168E-1,-6.643376E-2,4.5771673E-2,1.1634081E-2,-5.5346835E-2,1.9848242E-2,5.713293E-1,-9.3134016E-2,4.6306206E-3,4.7412127E-2,-5.10476E-1,9.728686E-2,8.327419E-3,-4.002118E-2,2.722764E-2,-9.06598E-3],"categories":[],"categories_nodes":[],"categories_segments":[],"categories_sizes":[],"default_left":[0,0,0,0,0,0,0,0,0,0,0,0,0,0,0,0,0],"id":15,"left_children":[1,3,5,-1,-1,-1,7,9,11,-1,-1,13,15,-1,-1,-1,-1],"loss_changes":[8.570306E0,2.189587E0,1.4030887E1,0E0,0E0,0E0,9.065133E0,4.2744713E0,9.636611E0,0E0,0E0,7.647998E0,1.0497322E1,0E0,0E0,0E0,0E0],"parents":[2147483647,0,0,1,1,2,2,6,6,7,7,8,8,11,11,12,12],"right_children":[2,4,6,-1,-1,-1,8,10,12,-1,-1,14,16,-1,-1,-1,-1],"split_conditions":[-6.679004E-3,-1.6229497E-1,-1.3258678E-2,4.5771673E-2,1.1634081E-2,-5.5346835E-2,-5.5446546E-3,-8.516177E-3,-2.9875014E-6,4.6306206E-3,4.7412127E-2,2.2987856E-2,-5.7803486E-3,8.327419E-3,-4.002118E-2,2.722764E-2,-9.06598E-3],"split_indices":[21,59,17,0,0,0,15,15,33,0,0,47,68,0,0,0,0],"split_type":[0,0,0,0,0,0,0,0,0,0,0,0,0,0,0,0,0],"sum_hessian":[1.7459576E2,2.0764833E1,1.5383093E2,1.0337443E1,1.0427389E1,1.0962327E1,1.428686E2,2.3753412E1,1.191152E2,1.1129227E1,1.2624186E1,3.6958435E1,8.215676E1,1.1106225E1,2.585221E1,3.130503E1,5.085173E1],"tree_param":{"num_deleted":"0","num_feature":"86","num_nodes":"17","size_leaf_vector":"1"}},{"base_weights":[-5.333725E-2,4.1799787E-2,-1.2558666E-1,4.8026573E-2,-4.516323E-1,-4.499051E-1,2.3889266E-1,-4.866813E-2,-1.2466215E-1,8.180062E-3,-4.485685E-2,4.312733E-1,-2.0234337E-2,2.289751E-2,-4.4090143E-1,-2.8664258E-3,4.058776E-2,-4.5557532E-2,6.871992E-3],"categories":[],"categories_nodes":[],"categories_segments":[],"categories_sizes":[],"default_left":[0,0,0,0,0,0,0,0,0,0,0,0,0,0,0,0,0,0,0],"id":16,"left_children":[1,-1,3,5,7,9,11,-1,13,-1,-1,15,-1,-1,17,-1,-1,-1,-1],"loss_changes":[1.0851878E1,0E0,8.931384E0,9.87028E0,9.106773E0,8.102581E0,9.490181E0,0E0,6.633097E0,0E0,0E0,1.0999644E1,0E0,0E0,6.526229E0,0E0,0E0,0E0,0E0],"parents":[2147483647,0,0,2,2,3,3,4,4,5,5,6,6,8,8,11,11,14,14],"right_children":[2,-1,4,6,8,10,12,-1,14,-1,-1,16,-1,-1,18,-1,-1,-1,-1],"split_conditions":[-1.2724507E-2,4.1799787E-2,6.6666645E-1,-2.4360195E-3,4.140793E-3,-6.171395E-3,-5.7803486E-3,-4.866813E-2,6.016949E-1,8.180062E-3,-4.485685E-2,1E0,-2.0234337E-2,2.289751E-2,7.716049E-1,-2.8664258E-3,4.058776E-2,-4.5557532E-2,6.871992E-3],"split_indices":[20,0,12,21,1,21,68,0,63,0,0,48,0,0,65,0,0,0,0],"split_type":[0,0,0,0,0,0,0,0,0,0,0,0,0,0,0,0,0,0,0],"sum_hessian":[1.6736252E2,1.1676688E1,1.5568584E2,1.0194697E2,5.373887E1,2.7728283E1,7.421868E1,1.982397E1,3.3914898E1,1.1864004E1,1.5864279E1,5.7512226E1,1.6706459E1,1.1663228E1,2.2251669E1,2.5435425E1,3.20768E1,1.2050699E1,1.020097E1],"tree_param":{"num_deleted":"0","num_feature":"86","num_nodes":"19","size_leaf_vector":"1"}},{"base_weights":[2.9316658E-2,3.560264E-2,-4.994221E-2,2.2201008E-1,-3.6651447E-1,-4.8000893E-1,4.8389328E-1,-7.391022E-1,1.4116253E-1,5.6606256E-3,-5.3059835E-2,-7.63029E-3,7.315382E-1,-2.50789E-3,-1.0430573E0,4.3823466E-2,-1.3697073E-2,5.4518778E-2,7.5019547E-3,-7.3002085E-2,-2.5541112E-2],"categories":[],"categories_nodes":[],"categories_segments":[],"categories_sizes":[],"default_left":[0,0,0,0,0,0,0,0,0,0,0,0,0,0,0,0,0,0,0,0,0],"id":17,"left_children":[1,-1,3,5,7,9,11,13,15,-1,-1,-1,17,-1,19,-1,-1,-1,-1,-1,-1],"loss_changes":[9.424045E0,0E0,1.345382E1,1.5659988E1,1.3829507E1,8.212605E0,9.897729E0,8.620895E0,9.8555E0,0E0,0E0,0E0,9.042973E0,0E0,5.4819717E0,0E0,0E0,0E0,0E0,0E0,0E0],"parents":[2147483647,0,0,2,2,3,3,4,4,5,5,6,6,7,7,8,8,12,12,14,14],"right_children":[2,-1,4,6,8,10,12,14,16,-1,-1,-1,18,-1,20,-1,-1,-1,-1,-1,-1],"split_conditions":[8.695652E-2,3.560264E-2,3.5393154E-4,3.3333334E-1,6.909091E-1,7.2897454E-3,-1.1191673E-2,8.831632E-1,1.8102877E-3,5.6606256E-3,-5.3059835E-2,-7.63029E-3,-8.244023E-4,-2.50789E-3,5.652174E-1,4.3823466E-2,-1.3697073E-2,5.4518778E-2,7.5019547E-3,-7.3002085E-2,-2.5541112E-2],"split_indices":[83,0,28,85,65,54,29,51,22,0,0,0,20,0,83,0,0,0,0,0,0],"split_type":[0,0,0,0,0,0,0,0,0,0,0,0,0,0,0,0,0,0,0,0,0],"sum_hessian":[1.7127449E2,1.7115896E1,1.541586E2,8.2913956E1,7.1244644E1,2.2196903E1,6.0717052E1,4.0939777E1,3.0304867E1,1.12980585E1,1.0898846E1,1.7000973E1,4.3716076E1,1.2990206E1,2.7949572E1,1.062082E1,1.9684048E1,2.6386284E1,1.7329794E1,1.4588764E1,1.3360808E1],"tree_param":{"num_deleted":"0","num_feature":"86","num_nodes":"21","size_leaf_vector":"1"}},{"base_weights":[-9.847843E-3,1.1599971E-1,-3.9711308E-1,-8.149459E-2,4.2617854E-1,-5.0318725E-2,-1.2246769E-2,3.2716304E-2,-2.728995E-1,7.8475744E-1,-8.067677E-2,-3.584067E-2,2.8137717E-2,-1.0911372E-2,-4.5184813E-2,1.9617723E-2,5.480622E-2,-2.2649506E-2,1.6858283E-2,3.0038042E-2,-1.47744855E-2],"categories":[],"categories_nodes":[],"categories_segments":[],"categories_sizes":[],"default_left":[0,0,0,0,0,0,0,0,0,0,0,0,0,0,0,0,0,0,0,0,0],"id":18,"left_children":[1,3,5,7,9,-1,11,-1,13,15,17,-1,-1,19,-1,-1,-1,-1,-1,-1,-1],"loss_changes":[8.670122E0,8.259274E0,1.0127975E1,1.1735579E1,9.651487E0,0E0,1.1714686E1,0E0,1.0830277E1,3.1939182E0,3.6629066E0,0E0,0E0,8.478025E0,0E0,0E0,0E0,0E0,0E0,0E0,0E0],"parents":[2147483647,0,0,1,1,2,2,3,3,4,4,6,6,8,8,9,9,10,10,13,13],"right_children":[2,4,6,8,10,-1,12,-1,14,16,18,-1,-1,20,-1,-1,-1,-1,-1,-1,-1],"split_conditions":[1.9988069E-5,-2.6165542E-6,3.505135E-5,-5.093621E-2,-5.7803486E-3,-5.0318725E-2,1.0591259E-3,3.2716304E-2,7.87721E-3,1.602821E-4,3.520507E-4,-3.584067E-2,2.8137717E-2,-1.5921524E-1,-4.5184813E-2,1.9617723E-2,5.480622E-2,-2.2649506E-2,1.6858283E-2,3.0038042E-2,-1.47744855E-2],"split_indices":[33,33,33,66,68,0,24,0,55,7,0,0,0,72,0,0,0,0,0,0,0],"split_type":[0,0,0,0,0,0,0,0,0,0,0,0,0,0,0,0,0,0,0,0,0],"sum_hessian":[1.7537637E2,1.3269682E2,4.267955E1,8.132876E1,5.1368057E1,1.5797178E1,2.688237E1,1.6181395E1,6.514737E1,2.9878958E1,2.1489101E1,1.204749E1,1.483488E1,4.6860622E1,1.8286743E1,1.4361286E1,1.5517671E1,1.1445731E1,1.004337E1,1.4414871E1,3.244575E1],"tree_param":{"num_deleted":"0","num_feature":"86","num_nodes":"21","size_leaf_vector":"1"}},{"base_weights":[5.9023373E-2,1.9274727E-1,-3.1491482E-1,7.644047E-1,6.627702E-2,-4.8162412E-2,3.3324458E-2,1.7454823E-2,5.2827615E-2,-5.320648E-2,2.2332291E-1,3.0320335E-2,-1.8506339E-2,3.5184968E-1,-3.1719927E-2,5.2114125E-2,1.0684685E-2],"categories":[],"categories_nodes":[],"categories_segments":[],"categories_sizes":[],"default_left":[0,0,0,0,0,0,0,0,0,0,0,0,0,0,0,0,0],"id":19,"left_children":[1,3,5,7,9,-1,11,-1,-1,-1,13,-1,-1,15,-1,-1,-1],"loss_changes":[8.65664E0,9.092854E0,1.0404261E1,2.2667637E0,1.8924871E1,0E0,7.2965975E0,0E0,0E0,0E0,1.0529371E1,0E0,0E0,7.4994354E0,0E0,0E0,0E0],"parents":[2147483647,0,0,1,1,2,2,3,3,4,4,6,6,10,10,13,13],"right_children":[2,4,6,8,10,-1,12,-1,-1,-1,14,-1,-1,16,-1,-1,-1],"split_conditions":[2.0424277E-5,-4.9349416E-2,3.505135E-5,1.9696967E-1,-3.1572945E-2,-4.8162412E-2,-3.2498103E-2,1.7454823E-2,5.2827615E-2,-5.320648E-2,7.89177E-3,3.0320335E-2,-1.8506339E-2,-2.8810939E-5,-3.1719927E-2,5.2114125E-2,1.0684685E-2],"split_indices":[33,66,33,12,44,0,66,0,0,0,5,0,0,33,0,0,0],"split_type":[0,0,0,0,0,0,0,0,0,0,0,0,0,0,0,0,0],"sum_hessian":[1.7114775E2,1.2661941E2,4.4528343E1,2.1880886E1,1.04738525E2,1.5043068E1,2.9485275E1,1.0083586E1,1.17973E1,1.1993973E1,9.274455E1,1.2076304E1,1.7408972E1,8.127251E1,1.1472046E1,1.2339238E1,6.8933266E1],"tree_param":{"num_deleted":"0","num_feature":"86","num_nodes":"17","size_leaf_vector":"1"}},{"base_weights":[-1.6150094E-3,2.185347E-1,-3.059256E-1,-2.2015019E-1,4.9361038E-1,-1.24536775E-1,-4.0843066E-2,2.703903E-2,-5.0240964E-1,6.51266E-1,-1.688245E-3,1.389181E-1,-3.2774296E-2,-4.2475607E-2,6.976038E-3,2.8372413E-1,1.0704911E0,3.6697856E-1,-1.9969614E-2,-5.2938983E-3,2.6708428E-2,6.903978E-2,3.3185523E-2,-3.0548614E-3,5.0277468E-2],"categories":[],"categories_nodes":[],"categories_segments":[],"categories_sizes":[],"default_left":[0,0,0,0,0,0,0,0,0,0,0,0,0,0,0,0,0,0,0,0,0,0,0,0,0],"id":20,"left_children":[1,3,5,7,9,11,-1,-1,13,15,-1,17,-1,-1,-1,19,21,23,-1,-1,-1,-1,-1,-1,-1],"loss_changes":[1.1839052E1,1.2477846E1,6.6913857E0,8.8521E0,5.347451E0,7.999545E0,0E0,0E0,6.822234E0,7.10071E0,0E0,4.837915E0,0E0,0E0,0E0,2.7886982E0,1.7030182E0,7.6764135E0,0E0,0E0,0E0,0E0,0E0,0E0,0E0],"parents":[2147483647,0,0,1,1,2,2,3,3,4,4,5,5,8,8,9,9,11,11,15,15,16,16,17,17],"right_children":[2,4,6,8,10,12,-1,-1,14,16,-1,18,-1,-1,-1,20,22,24,-1,-1,-1,-1,-1,-1,-1],"split_conditions":[8.274574E-1,1.7539166E-1,8.3333266E-1,3.5793833E-3,9.629443E-3,1.9088482E-3,-4.0843066E-2,2.703903E-2,1.0181209E0,4.4731863E-2,-1.688245E-3,-2.9798439E-3,-3.2774296E-2,-4.2475607E-2,6.976038E-3,4.0051678E-1,1.9528539E-3,5.442739E-1,-1.9969614E-2,-5.2938983E-3,2.6708428E-2,6.903978E-2,3.3185523E-2,-3.0548614E-3,5.0277468E-2],"split_indices":[57,58,11,53,55,22,0,0,51,47,0,68,0,0,0,71,30,63,0,0,0,0,0,0,0],"split_type":[0,0,0,0,0,0,0,0,0,0,0,0,0,0,0,0,0,0,0,0,0,0,0,0,0],"sum_hessian":[1.7459003E2,1.01276245E2,7.3313774E1,3.896763E1,6.2308613E1,5.516791E1,1.8145864E1,1.01999235E1,2.8767706E1,4.7933796E1,1.4374815E1,3.7239723E1,1.792819E1,1.8562864E1,1.0204843E1,2.6561869E1,2.137193E1,2.651179E1,1.0727935E1,1.0463049E1,1.609882E1,1.0625897E1,1.0746031E1,1.6319489E1,1.0192299E1],"tree_param":{"num_deleted":"0","num_feature":"86","num_nodes":"25","size_leaf_vector":"1"}},{"base_weights":[-2.1609278E-2,3.7404217E-2,-8.066869E-2,-1.4332614E-2,-4.9852185E-2,-4.6965268E-1,1.587632E-1,-3.5149075E-2,-6.0984887E-2,-5.3614136E-2,4.8074412E-1,-1.9839456E-2,2.2233618E-2,1.7397258E-2,-2.3528947E-2,5.18168E-2,6.3437046E-3],"categories":[],"categories_nodes":[],"categories_segments":[],"categories_sizes":[],"default_left":[0,0,0,0,0,0,0,0,0,0,0,0,0,0,0,0,0],"id":21,"left_children":[1,-1,3,5,-1,7,9,11,-1,13,15,-1,-1,-1,-1,-1,-1],"loss_changes":[8.013072E0,0E0,9.906663E0,1.2310385E1,0E0,1.3866805E1,7.7811403E0,5.096784E0,0E0,1.1674511E1,8.622058E0,0E0,0E0,0E0,0E0,0E0,0E0],"parents":[2147483647,0,0,2,2,3,3,5,5,6,6,7,7,9,9,10,10],"right_children":[2,-1,4,6,-1,8,10,12,-1,14,16,-1,-1,-1,-1,-1,-1],"split_conditions":[-1.2355619E-2,3.7404217E-2,8.6186185E-2,3.3333334E-1,-4.9852185E-2,1E0,8.1195246E-4,3.013862E-3,-6.0984887E-2,2.406747E-4,3.0542687E-3,-1.9839456E-2,2.2233618E-2,1.7397258E-2,-2.3528947E-2,5.18168E-2,6.3437046E-3],"split_indices":[20,0,47,85,0,56,23,16,0,32,31,0,0,0,0,0,0],"split_type":[0,0,0,0,0,0,0,0,0,0,0,0,0,0,0,0,0],"sum_hessian":[1.7541623E2,1.1548621E1,1.6386761E2,1.5385487E2,1.0012736E1,4.2066216E1,1.1178866E2,2.7383217E1,1.4683001E1,6.767404E1,4.411462E1,1.5832081E1,1.1551135E1,3.443602E1,3.323802E1,1.6304562E1,2.7810059E1],"tree_param":{"num_deleted":"0","num_feature":"86","num_nodes":"17","size_leaf_vector":"1"}},{"base_weights":[3.0909302E-2,-3.8430635E-2,8.8343576E-2,3.3389008E-1,-1.2188636E-1,5.519362E-1,-1.330105E-1,2.4698744E-2,-2.666719E-1,-3.611665E-3,8.4537965E-1,-3.634468E-2,2.5438039E-2,-5.0235994E-2,-1.2212355E-1,6.71682E-2,2.9457763E-2,-2.9188544E-2,7.695656E-3],"categories":[],"categories_nodes":[],"categories_segments":[],"categories_sizes":[],"default_left":[0,0,0,0,0,0,0,0,0,0,0,0,0,0,0,0,0,0,0],"id":22,"left_children":[1,-1,3,5,7,9,11,-1,13,-1,15,-1,-1,-1,17,-1,-1,-1,-1],"loss_changes":[7.917371E0,0E0,8.418201E0,7.766406E0,7.931109E0,9.583773E0,9.761619E0,0E0,7.4252057E0,0E0,3.5150642E0,0E0,0E0,0E0,7.9441433E0,0E0,0E0,0E0,0E0],"parents":[2147483647,0,0,2,2,3,3,4,4,5,5,6,6,8,8,10,10,14,14],"right_children":[2,-1,4,6,8,10,12,-1,14,-1,16,-1,-1,-1,18,-1,-1,-1,-1],"split_conditions":[2.7553964E-2,-3.8430635E-2,6.102396E-1,7.272726E-1,3.723404E-2,-7.1096286E-2,4.240289E-3,2.4698744E-2,-5.129412E-3,-3.611665E-3,-9.899846E-4,-3.634468E-2,2.5438039E-2,-5.0235994E-2,6.4724917E-4,6.71682E-2,2.9457763E-2,-2.9188544E-2,7.695656E-3],"split_indices":[58,0,57,12,12,72,1,0,0,0,24,0,0,0,7,0,0,0,0],"split_type":[0,0,0,0,0,0,0,0,0,0,0,0,0,0,0,0,0,0,0],"sum_hessian":[1.7141948E2,1.0542166E1,1.608773E2,7.4153824E1,8.672348E1,5.0569523E1,2.3584305E1,1.5916872E1,7.080661E1,1.6303719E1,3.4265804E1,1.2261201E1,1.1323103E1,1.0508551E1,6.0298058E1,1.006697E1,2.4198833E1,2.2281548E1,3.8016514E1],"tree_param":{"num_deleted":"0","num_feature":"86","num_nodes":"19","size_leaf_vector":"1"}},{"base_weights":[-1.3565068E-2,-1.0473239E-1,3.9476007E-1,1.2989174E-1,-5.727257E-1,8.021185E-1,-1.8965837E-2,-1.1837243E-1,7.0227414E-1,-1.2760967E-1,-9.1419166E-1,5.6842245E-2,1.951026E-2,2.8828204E-2,-4.0352866E-1,1.090551E-2,5.4287143E-2,1.5349934E-2,-2.8231233E-2,-1.3753194E-3,-7.224962E-2,-3.410592E-2,2.4354344E-2],"categories":[],"categories_nodes":[],"categories_segments":[],"categories_sizes":[],"default_left":[0,0,0,0,0,0,0,0,0,0,0,0,0,0,0,0,0,0,0,0,0,0,0],"id":23,"left_children":[1,3,5,7,9,11,-1,13,15,17,19,-1,-1,-1,21,-1,-1,-1,-1,-1,-1,-1,-1],"loss_changes":[6.5232058E0,1.5926831E1,1.0415699E1,1.3863801E1,7.1359596E0,2.3443413E0,0E0,1.3707805E1,5.106039E0,4.434848E0,1.2568167E1,0E0,0E0,0E0,1.2501352E1,0E0,0E0,0E0,0E0,0E0,0E0,0E0,0E0],"parents":[2147483647,0,0,1,1,2,2,3,3,4,4,5,5,7,7,8,8,9,9,10,10,14,14],"right_children":[2,4,6,8,10,12,-1,14,16,18,20,-1,-1,-1,22,-1,-1,-1,-1,-1,-1,-1,-1],"split_conditions":[5.995393E-3,1.6649262E-3,2.945566E-3,5.7933846E-4,3.3637233E-2,5.7142776E-1,-1.8965837E-2,-1.3791613E-3,4.7766216E-2,5.6340396E-3,-4.828424E-2,5.6842245E-2,1.951026E-2,2.8828204E-2,6.483867E-4,1.090551E-2,5.4287143E-2,1.5349934E-2,-2.8231233E-2,-1.3753194E-3,-7.224962E-2,-3.410592E-2,2.4354344E-2],"split_indices":[21,30,32,24,47,12,0,24,47,53,66,0,0,0,21,0,0,0,0,0,0,0,0],"split_type":[0,0,0,0,0,0,0,0,0,0,0,0,0,0,0,0,0,0,0,0,0,0,0],"sum_hessian":[1.7390143E2,1.4296895E2,3.0932468E1,9.55664E1,4.7402557E1,2.0327871E1,1.0604596E1,6.708678E1,2.847962E1,2.1301575E1,2.6100983E1,1.0109815E1,1.0218058E1,1.911942E1,4.7967358E1,1.3395786E1,1.5083833E1,1.0714633E1,1.0586943E1,1.0238357E1,1.5862626E1,3.68019E1,1.116546E1],"tree_param":{"num_deleted":"0","num_feature":"86","num_nodes":"23","size_leaf_vector":"1"}},{"base_weights":[5.6900594E-2,1.3624865E-1,-3.0873567E-2,5.1672976E-2,4.13137E-2,-3.3444476E-1,2.8477648E-1,2.1849683E-2,-5.4014254E-1,5.824145E-1,-2.4129266E-1,-4.5273323E-2,6.8370765E-4,-5.018315E-3,4.0525958E-2,-3.207474E-2,9.967994E-3],"categories":[],"categories_nodes":[],"categories_segments":[],"categories_sizes":[],"default_left":[0,0,0,0,0,0,0,0,0,0,0,0,0,0,0,0,0],"id":24,"left_children":[1,3,-1,5,-1,7,9,-1,11,13,15,-1,-1,-1,-1,-1,-1],"loss_changes":[9.409442E0,9.071732E0,0E0,1.2840544E1,0E0,8.75593E0,1.4115578E1,0E0,8.778539E0,9.073065E0,5.948893E0,0E0,0E0,0E0,0E0,0E0,0E0],"parents":[2147483647,0,0,1,1,3,3,5,5,6,6,8,8,9,9,10,10],"right_children":[2,4,-1,6,-1,8,10,-1,12,14,16,-1,-1,-1,-1,-1,-1],"split_conditions":[1.0673974E-2,9.860151E-3,-3.0873567E-2,1E0,4.13137E-2,3.7330795E1,4.865326E-2,2.1849683E-2,1.0617482E-3,-2.9847575E-3,3.1194061E-2,-4.5273323E-2,6.8370765E-4,-5.018315E-3,4.0525958E-2,-3.207474E-2,9.967994E-3],"split_indices":[55,54,0,48,0,38,72,0,23,31,47,0,0,0,0,0,0],"split_type":[0,0,0,0,0,0,0,0,0,0,0,0,0,0,0,0,0],"sum_hessian":[1.7417134E2,1.5668205E2,1.7489298E1,1.4066116E2,1.6020882E1,5.2626213E1,8.803496E1,1.073934E1,4.188687E1,5.6277435E1,3.175752E1,2.4964622E1,1.6922249E1,1.4123489E1,4.2153946E1,1.6522701E1,1.5234818E1],"tree_param":{"num_deleted":"0","num_feature":"86","num_nodes":"17","size_leaf_vector":"1"}},{"base_weights":[-1.5630078E-2,3.692758E-2,-7.582029E-2,-5.935083E-1,6.065188E-2,-6.1512332E-2,7.582974E-5,4.1808616E-2,-4.648308E-2,1.4559087E-1,-3.787079E-1,-3.4190793E-2,1.9998347E-2,-4.068653E-2,-2.3324278E-3],"categories":[],"categories_nodes":[],"categories_segments":[],"categories_sizes":[],"default_left":[0,0,0,0,0,0,0,0,0,0,0,0,0,0,0],"id":25,"left_children":[1,-1,3,5,7,-1,-1,-1,9,11,13,-1,-1,-1,-1],"loss_changes":[7.8667393E0,0E0,1.1515411E1,1.3001086E1,1.08144865E1,0E0,0E0,0E0,7.3498197E0,1.5591234E1,5.9738865E0,0E0,0E0,0E0,0E0],"parents":[2147483647,0,0,2,2,3,3,4,4,8,8,9,9,10,10],"right_children":[2,-1,4,6,8,-1,-1,-1,10,12,14,-1,-1,-1,-1],"split_conditions":[-1.2724507E-2,3.692758E-2,-3.1572945E-2,4.885478E-4,-2.550829E-3,-6.1512332E-2,7.582974E-5,4.1808616E-2,1.1964741E-3,-2.585879E-3,2.8846148E-1,-3.4190793E-2,1.9998347E-2,-4.068653E-2,-2.3324278E-3],"split_indices":[20,0,44,24,22,0,0,0,24,31,11,0,0,0,0],"split_type":[0,0,0,0,0,0,0,0,0,0,0,0,0,0,0],"sum_hessian":[1.7252411E2,1.1795473E1,1.6072864E2,3.298573E1,1.27742905E2,1.549982E1,1.7485909E1,1.4792516E1,1.1295039E2,7.173688E1,4.1213516E1,1.6348946E1,5.538793E1,1.7082476E1,2.4131039E1],"tree_param":{"num_deleted":"0","num_feature":"86","num_nodes":"15","size_leaf_vector":"1"}},{"base_weights":[4.7716517E-2,-3.6558677E-2,1.05241515E-1,3.7831437E-2,2.1913702E-2,4.3913305E-2,-4.894813E-2,-3.447635E-1,1.2527826E-1,6.1981855E-3,-4.7757704E-2,4.3167252E-2,-7.5051845E-5],"categories":[],"categories_nodes":[],"categories_segments":[],"categories_sizes":[],"default_left":[0,0,0,0,0,0,0,0,0,0,0,0,0],"id":26,"left_children":[1,-1,3,-1,5,-1,7,9,11,-1,-1,-1,-1],"loss_changes":[7.605905E0,0E0,8.523593E0,0E0,8.738759E0,0E0,6.86438E0,1.432908E1,7.905007E0,0E0,0E0,0E0,0E0],"parents":[2147483647,0,0,2,2,4,4,6,6,7,7,8,8],"right_children":[2,-1,4,-1,6,-1,8,10,12,-1,-1,-1,-1],"split_conditions":[2.7553964E-2,-3.6558677E-2,8.695652E-2,3.7831437E-2,1.8148763E-2,4.3913305E-2,7.829826E-3,1.4677411E-2,8.1984293E-1,6.1981855E-3,-4.7757704E-2,4.3167252E-2,-7.5051845E-5],"split_indices":[58,0,83,0,47,0,49,45,51,0,0,0,0],"split_type":[0,0,0,0,0,0,0,0,0,0,0,0,0],"sum_hessian":[1.6843286E2,1.0659123E1,1.5777374E2,1.6841413E1,1.4093233E2,1.0007739E1,1.3092459E2,4.837864E1,8.2545944E1,2.7722916E1,2.0655724E1,1.136451E1,7.1181435E1],"tree_param":{"num_deleted":"0","num_feature":"86","num_nodes":"13","size_leaf_vector":"1"}},{"base_weights":[5.6314073E-3,-3.0002838E-2,7.3946886E-2,3.5032025E-1,-9.0607524E-2,-2.1811046E-2,7.5062966E-1,-3.131277E-2,4.0795937E-2,1.8669909E-2,-3.2717466E-2,4.9583502E-2,1.5458967E-2,6.7693853E-1,-2.0338619E-1,1.36334E-2,5.0032794E-2,-2.890402E-2,6.590293E-3],"categories":[],"categories_nodes":[],"categories_segments":[],"categories_sizes":[],"default_left":[0,0,0,0,0,0,0,0,0,0,0,0,0,0,0,0,0,0,0],"id":27,"left_children":[1,-1,3,5,7,9,11,-1,13,-1,-1,-1,-1,15,17,-1,-1,-1,-1],"loss_changes":[7.272817E0,0E0,7.296437E0,9.002573E0,7.1462216E0,8.234602E0,2.6473484E0,0E0,1.2822783E1,0E0,0E0,0E0,0E0,2.5982409E0,7.5869975E0,0E0,0E0,0E0,0E0],"parents":[2147483647,0,0,2,2,3,3,4,4,5,5,6,6,8,8,13,13,14,14],"right_children":[2,-1,4,6,8,10,12,-1,14,-1,-1,-1,-1,16,18,-1,-1,-1,-1],"split_conditions":[-8.106399E-3,-3.0002838E-2,-9.9411E-2,8.453468E-4,2.6056337E-1,5.4163966E-2,-1.711743E-3,-3.131277E-2,2.9629627E-1,1.8669909E-2,-3.2717466E-2,4.9583502E-2,1.5458967E-2,3.3239156E-4,7.045516E-1,1.36334E-2,5.0032794E-2,-2.890402E-2,6.590293E-3],"split_indices":[0,0,77,23,62,76,0,0,64,0,0,0,0,7,76,0,0,0,0],"split_type":[0,0,0,0,0,0,0,0,0,0,0,0,0,0,0,0,0,0,0],"sum_hessian":[1.7496495E2,1.6796753E1,1.581682E2,5.883392E1,9.933428E1,3.0850613E1,2.7983305E1,1.8976076E1,8.035821E1,1.9142187E1,1.1708426E1,1.7147514E1,1.0835791E1,2.1911552E1,5.844665E1,1.0700089E1,1.1211464E1,2.7395887E1,3.1050766E1],"tree_param":{"num_deleted":"0","num_feature":"86","num_nodes":"19","size_leaf_vector":"1"}},{"base_weights":[2.9102046E-2,2.420774E-1,-1.9226527E-1,-2.8420413E-2,3.6151382E-1,3.0473046E-2,-6.7421097E-1,5.886312E-1,-3.9185017E-2,-1.9323346E-1,3.5142478E-2,-4.660449E-2,-1.5637644E-2,2.0787582E-1,1.0741469E0,-3.2390084E-2,2.2434723E-2,7.954392E-2,-5.004224E-2,4.0416323E-2,-2.916043E-2,3.5913646E-2,6.604742E-2,-1.5919253E-2,4.2648103E-2],"categories":[],"categories_nodes":[],"categories_segments":[],"categories_sizes":[],"default_left":[0,0,0,0,0,0,0,0,0,0,0,0,0,0,0,0,0,0,0,0,0,0,0,0,0],"id":28,"left_children":[1,3,5,-1,7,9,11,13,15,17,-1,-1,-1,19,21,-1,-1,23,-1,-1,-1,-1,-1,-1,-1],"loss_changes":[8.005191E0,8.573085E0,9.000063E0,0E0,7.016614E0,8.852731E0,2.0481234E0,8.685263E0,8.731563E0,9.843531E0,0E0,0E0,0E0,1.4151821E1,7.031822E-1,0E0,0E0,1.0682044E1,0E0,0E0,0E0,0E0,0E0,0E0,0E0],"parents":[2147483647,0,0,1,1,2,2,4,4,5,5,6,6,7,7,8,8,9,9,13,13,14,14,17,17],"right_children":[2,4,6,-1,8,10,12,14,16,18,-1,-1,-1,20,22,-1,-1,24,-1,-1,-1,-1,-1,-1,-1],"split_conditions":[6.102396E-1,-8.6384046E-1,1.9088482E-3,-2.8420413E-2,6.5217364E-1,6.6344464E-1,1.6292663E0,-5.017868E-6,2.9022917E-3,3.2971245E-1,3.5142478E-2,-4.660449E-2,-1.5637644E-2,-5.5446546E-3,3.951807E-1,-3.2390084E-2,2.2434723E-2,6.168932E-3,-5.004224E-2,4.0416323E-2,-2.916043E-2,3.5913646E-2,6.604742E-2,-1.5919253E-2,4.2648103E-2],"split_indices":[57,60,22,0,12,71,58,33,3,64,0,0,0,15,64,0,0,69,0,0,0,0,0,0,0],"split_type":[0,0,0,0,0,0,0,0,0,0,0,0,0,0,0,0,0,0,0,0,0,0,0,0,0],"sum_hessian":[1.6770367E2,8.5654495E1,8.204918E1,1.0410868E1,7.524363E1,5.6613632E1,2.5435549E1,4.7883602E1,2.7360025E1,4.290319E1,1.3710443E1,1.3761899E1,1.167365E1,2.775301E1,2.0130592E1,1.2119033E1,1.5240993E1,3.2652294E1,1.02508955E1,1.5836995E1,1.1916016E1,1.0010922E1,1.0119671E1,2.1862783E1,1.078951E1],"tree_param":{"num_deleted":"0","num_feature":"86","num_nodes":"25","size_leaf_vector":"1"}},{"base_weights":[8.507664E-2,1.5909524E-1,-3.0863082E-2,6.480894E-2,6.983772E-1,2.478407E-1,-1.8578362E-1,5.1758744E-2,1.2787848E-2,7.9637E-3,4.5302164E-2,3.920543E-2,-4.119707E-1,-8.984966E-3,3.3152148E-2,-1.0243186E-2,-5.282721E-2],"categories":[],"categories_nodes":[],"categories_segments":[],"categories_sizes":[],"default_left":[0,0,0,0,0,0,0,0,0,0,0,0,0,0,0,0,0],"id":29,"left_children":[1,3,-1,5,7,9,11,-1,-1,13,-1,-1,15,-1,-1,-1,-1],"loss_changes":[8.995062E0,7.8381863E0,0E0,6.2216196E0,3.040269E0,1.2278387E1,1.2815797E1,0E0,0E0,7.368121E0,0E0,0E0,5.938955E0,0E0,0E0,0E0,0E0],"parents":[2147483647,0,0,1,1,3,3,4,4,5,5,6,6,9,9,12,12],"right_children":[2,4,-1,6,8,10,12,-1,-1,14,-1,-1,16,-1,-1,-1,-1],"split_conditions":[1.8021549E0,4.43787E-3,-3.0863082E-2,3.5393154E-4,3.7113253E-2,3.9240506E-1,1.3043478E-1,5.1758744E-2,1.2787848E-2,1.0499177E0,4.5302164E-2,3.920543E-2,4.405216E-2,-8.984966E-3,3.3152148E-2,-1.0243186E-2,-5.282721E-2],"split_indices":[60,6,0,28,19,70,83,0,0,51,0,0,67,0,0,0,0],"split_type":[0,0,0,0,0,0,0,0,0,0,0,0,0,0,0,0,0],"sum_hessian":[1.710205E2,1.5554378E2,1.5476718E1,1.3350739E2,2.203639E1,7.739121E1,5.611618E1,1.1625597E1,1.0410794E1,5.757314E1,1.9818073E1,1.0061903E1,4.6054276E1,4.51981E1,1.237504E1,3.596983E1,1.0084446E1],"tree_param":{"num_deleted":"0","num_feature":"86","num_nodes":"17","size_leaf_vector":"1"}},{"base_weights":[2.939499E-2,-5.288807E-2,5.920967E-1,9.053802E-2,-5.22196E-1,9.22341E-3,4.6445567E-2,1.655691E-1,-3.0731862E-2,-9.226606E-1,5.446663E-3,3.6678517E-1,-2.2491336E-1,-2.0508109E-2,-6.560498E-2,-9.777781E-3,2.842859E-2,-3.646068E-2,1.6007839E-2],"categories":[],"categories_nodes":[],"categories_segments":[],"categories_sizes":[],"default_left":[0,0,0,0,0,0,0,0,0,0,0,0,0,0,0,0,0,0,0],"id":30,"left_children":[1,3,5,7,9,-1,-1,11,-1,13,-1,15,17,-1,-1,-1,-1,-1,-1],"loss_changes":[8.108507E0,1.0317815E1,2.784997E0,6.250781E0,9.24958E0,0E0,0E0,8.482065E0,0E0,3.7108517E0,0E0,8.202728E0,1.0374442E1,0E0,0E0,0E0,0E0,0E0,0E0],"parents":[2147483647,0,0,1,1,2,2,3,3,4,4,7,7,9,9,11,11,12,12],"right_children":[2,4,6,8,10,-1,-1,12,-1,14,-1,16,18,-1,-1,-1,-1,-1,-1],"split_conditions":[1.1669936E0,2.336905E-3,9.663536E-3,9.689749E-3,5.4891292E-2,9.22341E-3,4.6445567E-2,4.865326E-2,-3.0731862E-2,5.161746E-3,5.446663E-3,-3.255761E-2,6.287113E-3,-2.0508109E-2,-6.560498E-2,-9.777781E-3,2.842859E-2,-3.646068E-2,1.6007839E-2],"split_indices":[51,22,53,53,45,0,0,72,0,4,0,44,55,0,0,0,0,0,0],"split_type":[0,0,0,0,0,0,0,0,0,0,0,0,0,0,0,0,0,0,0],"sum_hessian":[1.7228577E2,1.5094203E2,2.134374E1,1.1606514E2,3.4876884E1,1.0491288E1,1.0852451E1,1.0572315E2,1.034199E1,2.115202E1,1.3724867E1,6.997944E1,3.574371E1,1.013044E1,1.102158E1,1.8357077E1,5.162236E1,1.8486023E1,1.7257687E1],"tree_param":{"num_deleted":"0","num_feature":"86","num_nodes":"19","size_leaf_vector":"1"}},{"base_weights":[3.289188E-2,1.0360746E-1,-2.47793E-2,4.283105E-2,4.2755343E-2,-5.2790666E-1,1.4681482E-1,-5.2757715E-3,-4.3417577E-2,4.3126367E-2,4.1931104E-2,-2.5949671E-3,3.8926225E-2],"categories":[],"categories_nodes":[],"categories_segments":[],"categories_sizes":[],"default_left":[0,0,0,0,0,0,0,0,0,0,0,0,0],"id":31,"left_children":[1,3,-1,-1,5,7,9,-1,-1,-1,11,-1,-1],"loss_changes":[6.539691E0,6.9780293E0,0E0,0E0,8.627855E0,3.0285168E0,9.125636E0,0E0,0E0,0E0,7.624008E0,0E0,0E0],"parents":[2147483647,0,0,1,1,4,4,5,5,6,6,10,10],"right_children":[2,4,-1,-1,6,8,10,-1,-1,-1,12,-1,-1],"split_conditions":[1.0673974E-2,-3.046706E-2,-2.47793E-2,4.283105E-2,-8.542133E-3,-4.255637E-2,8.695652E-2,-5.2757715E-3,-4.3417577E-2,4.3126367E-2,1.0783748E-2,-2.5949671E-3,3.8926225E-2],"split_indices":[55,4,0,0,29,44,83,0,0,0,53,0,0],"split_type":[0,0,0,0,0,0,0,0,0,0,0,0,0],"sum_hessian":[1.7366576E2,1.5404604E2,1.9619715E1,1.0417272E1,1.4362877E2,2.1374878E1,1.2225389E2,1.0255057E1,1.111982E1,1.4580618E1,1.0767327E2,9.621125E1,1.1462024E1],"tree_param":{"num_deleted":"0","num_feature":"86","num_nodes":"13","size_leaf_vector":"1"}},{"base_weights":[5.3442237E-3,3.925972E-1,-9.209422E-2,4.454632E-2,-2.6634375E-3,-1.1570663E-2,-4.545464E-2,-2.6336318E-1,3.5482046E-1,1.6395603E-1,-5.201481E-1,6.8051934E-1,-1.5925372E-2,3.553712E-2,-1.0690341E-2,-3.944018E-2,3.4869928E-3,5.1104974E-2,1.566312E-2],"categories":[],"categories_nodes":[],"categories_segments":[],"categories_sizes":[],"default_left":[0,0,0,0,0,0,0,0,0,0,0,0,0,0,0,0,0,0,0],"id":32,"left_children":[1,3,5,-1,-1,7,-1,9,11,13,15,17,-1,-1,-1,-1,-1,-1,-1],"loss_changes":[6.384786E0,7.6989117E0,8.738861E0,0E0,0E0,1.1474096E1,0E0,8.23093E0,1.1338894E1,6.058909E0,7.5044394E0,3.8729029E0,0E0,0E0,0E0,0E0,0E0,0E0,0E0],"parents":[2147483647,0,0,1,1,2,2,5,5,7,7,8,8,9,9,10,10,11,11],"right_children":[2,4,6,-1,-1,8,-1,10,12,14,16,18,-1,-1,-1,-1,-1,-1,-1],"split_conditions":[-5.84424E-3,4.9525965E-3,2.786772E-3,4.454632E-2,-2.6634375E-3,7.4067374E-4,-4.545464E-2,-8.149792E-4,1.1240368E-2,2.549505E-1,5.7933846E-4,-6.1005787E-3,-1.5925372E-2,3.553712E-2,-1.0690341E-2,-3.944018E-2,3.4869928E-3,5.1104974E-2,1.566312E-2],"split_indices":[15,5,24,0,0,23,0,24,50,65,24,68,0,0,0,0,0,0,0],"split_type":[0,0,0,0,0,0,0,0,0,0,0,0,0,0,0,0,0,0,0],"sum_hessian":[1.6645355E2,3.305983E1,1.3339372E2,1.5245993E1,1.7813837E1,1.2246055E2,1.0933176E1,7.2909546E1,4.9551006E1,2.7356798E1,4.5552742E1,3.3489475E1,1.606153E1,1.092576E1,1.6431038E1,3.118316E1,1.4369583E1,1.6286394E1,1.7203083E1],"tree_param":{"num_deleted":"0","num_feature":"86","num_nodes":"19","size_leaf_vector":"1"}},{"base_weights":[7.750262E-2,3.1448927E-2,1.2216474E-2,6.464803E-2,-3.1659987E-2,3.2446858E-2,-7.720243E-3,1.01821125E-1,-5.1712245E-1,3.8883593E-2,-5.957286E-4,-5.3319093E-2,6.2537803E-3],"categories":[],"categories_nodes":[],"categories_segments":[],"categories_sizes":[],"default_left":[0,0,0,0,0,0,0,0,0,0,0,0,0],"id":33,"left_children":[1,-1,3,5,-1,-1,7,9,11,-1,-1,-1,-1],"loss_changes":[6.198635E0,0E0,5.2938504E0,6.2497406E0,0E0,0E0,7.398267E0,8.418669E0,8.513995E0,0E0,0E0,0E0,0E0],"parents":[2147483647,0,0,2,2,3,3,6,6,7,7,8,8],"right_children":[2,-1,4,6,-1,-1,8,10,12,-1,-1,-1,-1],"split_conditions":[1.8668497E-2,3.1448927E-2,9.447297E-1,8.695652E-2,-3.1659987E-2,3.2446858E-2,-9.83768E-3,-1.3486132E-3,1.8947724E-2,3.8883593E-2,-5.957286E-4,-5.3319093E-2,6.2537803E-3],"split_indices":[47,0,61,83,0,0,66,24,82,0,0,0,0],"split_type":[0,0,0,0,0,0,0,0,0,0,0,0,0],"sum_hessian":[1.7316078E2,1.7253508E1,1.5590727E2,1.4516899E2,1.0738292E1,1.5272897E1,1.2989609E2,1.0740387E2,2.249222E1,1.4756735E1,9.264714E1,1.1851264E1,1.0640956E1],"tree_param":{"num_deleted":"0","num_feature":"86","num_nodes":"13","size_leaf_vector":"1"}},{"base_weights":[4.7993427E-3,-3.8929492E-2,6.576659E-2,2.6523012E-1,-1.9099073E-1,-9.6294925E-2,4.6056098E-1,2.6413016E-2,-6.687054E-1,-3.391926E-2,1.4901585E-2,6.558889E-1,-9.331314E-3,-3.436154E-2,2.3651797E-1,-5.1997818E-2,-1.0634276E-2,4.766506E-2,1.3086435E-2,2.1204785E-2,-8.64139E-3],"categories":[],"categories_nodes":[],"categories_segments":[],"categories_sizes":[],"default_left":[0,0,0,0,0,0,0,0,0,0,0,0,0,0,0,0,0,0,0,0,0],"id":34,"left_children":[1,-1,3,5,7,9,11,13,15,-1,-1,17,-1,-1,19,-1,-1,-1,-1,-1,-1],"loss_changes":[7.93249E0,0E0,8.023098E0,6.3067975E0,7.1814504E0,7.4874887E0,7.449772E0,7.2842097E0,3.303897E0,0E0,0E0,4.855047E0,0E0,0E0,2.999184E0,0E0,0E0,0E0,0E0,0E0,0E0],"parents":[2147483647,0,0,2,2,3,3,4,4,5,5,6,6,7,7,8,8,11,11,14,14],"right_children":[2,-1,4,6,8,10,12,14,16,-1,-1,18,-1,-1,20,-1,-1,-1,-1,-1,-1],"split_conditions":[2.7553964E-2,-3.8929492E-2,8.274574E-1,5E-1,1.9088482E-3,-3.7109695E-4,1.0673974E-2,2E0,7.8190835E-3,-3.391926E-2,1.4901585E-2,4.2598508E-4,-9.331314E-3,-3.436154E-2,7.891317E-3,-5.1997818E-2,-1.0634276E-2,4.766506E-2,1.3086435E-2,2.1204785E-2,-8.64139E-3],"split_indices":[58,0,57,85,22,36,55,13,54,0,0,72,0,0,3,0,0,0,0,0,0],"split_type":[0,0,0,0,0,0,0,0,0,0,0,0,0,0,0,0,0,0,0,0,0],"sum_hessian":[1.6550728E2,1.098221E1,1.5452505E2,8.7166046E1,6.735902E1,3.0573896E1,5.6592148E1,4.679734E1,2.0561678E1,1.2158785E1,1.8415112E1,4.3580242E1,1.3011906E1,1.0019203E1,3.6778137E1,1.0507559E1,1.0054119E1,2.3885357E1,1.9694885E1,2.536376E1,1.1414375E1],"tree_param":{"num_deleted":"0","num_feature":"86","num_nodes":"21","size_leaf_vector":"1"}},{"base_weights":[5.6938897E-3,8.08619E-2,-5.230436E-1,3.9166015E-2,1.1960182E-2,4.5712343E-3,-5.6579925E-2,-3.3993553E-2,1.2048337E-1,6.788554E-1,5.4889377E-3,2.3192031E-2,4.1157123E-2,4.2197183E-2,-4.672784E-3],"categories":[],"categories_nodes":[],"categories_segments":[],"categories_sizes":[],"default_left":[0,0,0,0,0,0,0,0,0,0,0,0,0,0,0],"id":35,"left_children":[1,3,5,-1,7,-1,-1,-1,9,11,13,-1,-1,-1,-1],"loss_changes":[6.987358E0,7.413181E0,8.3807E0,0E0,1.0709785E1,0E0,0E0,0E0,7.8884897E0,1.4148808E-1,8.778758E0,0E0,0E0,0E0,0E0],"parents":[2147483647,0,0,1,1,2,2,4,4,8,8,9,9,10,10],"right_children":[2,4,6,-1,8,-1,-1,-1,10,12,14,-1,-1,-1,-1],"split_conditions":[1.0673974E-2,-8.205875E-3,-6.1054276E-3,3.9166015E-2,-3.1572945E-2,4.5712343E-3,-5.6579925E-2,-3.3993553E-2,1.3043478E-1,5.7300884E-1,8.230432E-1,2.3192031E-2,4.1157123E-2,4.2197183E-2,-4.672784E-3],"split_indices":[55,21,16,0,44,0,0,0,83,64,51,0,0,0,0],"split_type":[0,0,0,0,0,0,0,0,0,0,0,0,0,0,0],"sum_hessian":[1.7485693E2,1.5399974E2,2.085719E1,1.2700201E1,1.4129955E2,1.0719236E1,1.0137953E1,1.8320545E1,1.22979E2,2.0015905E1,1.0296309E2,1.0008753E1,1.0007153E1,1.0179914E1,9.278317E1],"tree_param":{"num_deleted":"0","num_feature":"86","num_nodes":"15","size_leaf_vector":"1"}},{"base_weights":[-2.7573796E-2,3.3440348E-2,-2.7264467E-2,-1.509226E-1,3.2351744E-1,2.449231E-3,-4.2592533E-2,7.1268034E-1,-9.779588E-2,-2.6734558E-1,5.2462983E-1,5.6438394E-2,1.35840075E-2,-3.0073468E-2,1.80433E-2,9.226116E-3,-3.608909E-2,4.5771528E-2,-4.6893912E-3],"categories":[],"categories_nodes":[],"categories_segments":[],"categories_sizes":[],"default_left":[0,0,0,0,0,0,0,0,0,0,0,0,0,0,0,0,0,0,0],"id":36,"left_children":[1,3,-1,5,7,9,-1,11,13,15,17,-1,-1,-1,-1,-1,-1,-1,-1],"loss_changes":[5.3299737E0,8.074555E0,0E0,9.980357E0,9.758846E0,1.0927507E1,0E0,5.1991625E0,6.929286E0,1.0639208E1,6.5690722E0,0E0,0E0,0E0,0E0,0E0,0E0,0E0,0E0],"parents":[2147483647,0,0,1,1,3,3,4,4,5,5,7,7,8,8,9,9,10,10],"right_children":[2,4,-1,6,8,10,-1,12,14,16,18,-1,-1,-1,-1,-1,-1,-1,-1],"split_conditions":[1.0673974E-2,8.9635217E-4,-2.7264467E-2,1.3977783E-3,3.2488693E-2,-1.5053393E-3,-4.2592533E-2,4.2358413E-1,3.1143688E-2,-5.003371E-3,5.6696427E-1,5.6438394E-2,1.35840075E-2,-3.0073468E-2,1.80433E-2,9.226116E-3,-3.608909E-2,4.5771528E-2,-4.6893912E-3],"split_indices":[55,23,0,30,26,30,0,57,18,30,63,0,0,0,0,0,0,0,0],"split_type":[0,0,0,0,0,0,0,0,0,0,0,0,0,0,0,0,0,0,0],"sum_hessian":[1.6553665E2,1.487485E2,1.6788153E1,9.1028755E1,5.771974E1,7.538698E1,1.5641777E1,2.9768583E1,2.7951159E1,4.990111E1,2.5485868E1,1.4397808E1,1.5370774E1,1.3277412E1,1.4673745E1,2.5208742E1,2.469237E1,1.5421735E1,1.0064134E1],"tree_param":{"num_deleted":"0","num_feature":"86","num_nodes":"19","size_leaf_vector":"1"}},{"base_weights":[-4.750471E-2,7.098886E-2,-4.2187494E-1,-2.825736E-1,2.4699692E-1,-4.766979E-2,-1.2927686E-1,2.639136E-2,-6.0004026E-1,4.297525E-2,1.1820134E-1,1.2704742E-2,-3.073789E-2,-2.779575E-3,-4.662239E-2,-3.8552873E-2,3.543417E-2,-1.0832505E-2,2.737993E-2],"categories":[],"categories_nodes":[],"categories_segments":[],"categories_sizes":[],"default_left":[0,0,0,0,0,0,0,0,0,0,0,0,0,0,0,0,0,0,0],"id":37,"left_children":[1,3,5,7,9,-1,11,-1,13,-1,15,-1,-1,-1,-1,17,-1,-1,-1],"loss_changes":[7.407903E0,7.9311266E0,6.0115604E0,1.1202239E1,6.514173E0,0E0,5.248871E0,0E0,5.4484587E0,0E0,6.722632E0,0E0,0E0,0E0,0E0,6.0779147E0,0E0,0E0,0E0],"parents":[2147483647,0,0,1,1,2,2,3,3,4,4,6,6,8,8,10,10,15,15],"right_children":[2,4,6,8,10,-1,12,-1,14,-1,16,-1,-1,-1,-1,18,-1,-1,-1],"split_conditions":[2.0424277E-5,2.819835E-1,3.4297038E-5,-3.0007616E-2,2.881356E-1,-4.766979E-2,9.292407E-1,2.639136E-2,3.234963E1,4.297525E-2,7.6019186E-1,1.2704742E-2,-3.073789E-2,-2.779575E-3,-4.662239E-2,1E0,3.543417E-2,-1.0832505E-2,2.737993E-2],"split_indices":[33,71,33,82,64,0,59,0,39,0,65,0,0,0,0,85,0,0,0],"split_type":[0,0,0,0,0,0,0,0,0,0,0,0,0,0,0,0,0,0,0],"sum_hessian":[1.6452727E2,1.2538452E2,3.9142746E1,4.1282738E1,8.410178E1,1.2974213E1,2.6168531E1,1.134489E1,2.9937849E1,1.3491406E1,7.061038E1,1.4773172E1,1.139536E1,1.1905678E1,1.8032171E1,5.640263E1,1.4207747E1,4.3873135E1,1.2529496E1],"tree_param":{"num_deleted":"0","num_feature":"86","num_nodes":"19","size_leaf_vector":"1"}},{"base_weights":[2.3062637E-2,-3.121248E-1,1.2893547E-1,1.6152386E-2,-6.0336995E-1,2.629565E-1,-4.298496E-1,-5.1913258E-2,-4.216846E-3,4.4348562E-1,-2.6602897E-1,-4.870162E-2,2.9668512E-3,9.0491605E-1,1.5648225E-1,2.0018537E-2,-4.5170672E-2,2.9886251E-2,5.9377175E-2,-1.807694E-2,4.3839924E-2],"categories":[],"categories_nodes":[],"categories_segments":[],"categories_sizes":[],"default_left":[0,0,0,0,0,0,0,0,0,0,0,0,0,0,0,0,0,0,0,0,0],"id":38,"left_children":[1,3,5,-1,7,9,11,-1,-1,13,15,-1,-1,17,19,-1,-1,-1,-1,-1,-1],"loss_changes":[5.9680033E0,7.6754713E0,9.70231E0,0E0,6.1379757E0,1.0088547E1,6.817356E0,0E0,0E0,1.0110941E1,1.1881237E1,0E0,0E0,1.68606E0,1.8863825E1,0E0,0E0,0E0,0E0,0E0,0E0],"parents":[2147483647,0,0,1,1,2,2,4,4,5,5,6,6,9,9,10,10,13,13,14,14],"right_children":[2,4,6,-1,8,10,12,-1,-1,14,16,-1,-1,18,20,-1,-1,-1,-1,-1,-1],"split_conditions":[8.271436E-3,-2.8644755E-2,2.9463759E-3,1.6152386E-2,-1.814943E-3,7.3913044E-1,2.4064349E-3,-5.1913258E-2,-4.216846E-3,4.9472187E1,5.514309E-3,-4.870162E-2,2.9668512E-3,2.5581393E-1,1.611824E-2,2.0018537E-2,-4.5170672E-2,2.9886251E-2,5.9377175E-2,-1.807694E-2,4.3839924E-2],"split_indices":[67,4,7,0,21,83,23,0,0,39,53,0,0,62,4,0,0,0,0,0,0],"split_type":[0,0,0,0,0,0,0,0,0,0,0,0,0,0,0,0,0,0,0,0,0],"sum_hessian":[1.6655537E2,3.9285873E1,1.2726949E2,1.2208337E1,2.7077538E1,1.0322098E2,2.4048517E1,1.408377E1,1.2993768E1,7.721885E1,2.6002134E1,1.1011906E1,1.3036611E1,2.8652044E1,4.8566803E1,1.2816822E1,1.3185312E1,1.5391528E1,1.3260515E1,2.8459316E1,2.0107487E1],"tree_param":{"num_deleted":"0","num_feature":"86","num_nodes":"21","size_leaf_vector":"1"}},{"base_weights":[5.9031375E-2,-3.3347926E-1,1.7841864E-1,2.0321516E-2,-4.4419978E-2,4.357445E-2,1.01504184E-1,-1.8646477E-2,1.9995658E-2,-1.924345E-1,2.69986E-1,2.0517988E-2,-6.1587507E-1,-1.6035253E-1,5.059371E-1,-7.513275E-3,-5.0234865E-2,1.828005E-2,-3.499058E-2,5.624891E-2,1.1882546E-2],"categories":[],"categories_nodes":[],"categories_segments":[],"categories_sizes":[],"default_left":[0,0,0,0,0,0,0,0,0,0,0,0,0,0,0,0,0,0,0,0,0],"id":39,"left_children":[1,3,5,7,-1,-1,9,-1,-1,11,13,-1,15,17,19,-1,-1,-1,-1,-1,-1],"loss_changes":[7.421512E0,7.3437705E0,6.2944674E0,3.6423616E0,0E0,0E0,5.5410767E0,0E0,0E0,1.06604595E1,7.323728E0,0E0,4.1510077E0,7.5947685E0,7.2759323E0,0E0,0E0,0E0,0E0,0E0,0E0],"parents":[2147483647,0,0,1,1,2,2,3,3,6,6,9,9,10,10,12,12,13,13,14,14],"right_children":[2,4,6,8,-1,-1,10,-1,-1,12,14,-1,16,18,20,-1,-1,-1,-1,-1,-1],"split_conditions":[8.271436E-3,1.801103E-1,9.890227E-3,-2.3172779E-2,-4.4419978E-2,4.357445E-2,-2.9875014E-6,-1.8646477E-2,1.9995658E-2,-5.5446546E-3,6.287113E-3,2.0517988E-2,6.162079E-1,4.592862E-3,2.451381E-3,-7.513275E-3,-5.0234865E-2,1.828005E-2,-3.499058E-2,5.624891E-2,1.1882546E-2],"split_indices":[67,46,45,72,0,0,33,0,0,15,55,0,71,54,5,0,0,0,0,0,0],"split_type":[0,0,0,0,0,0,0,0,0,0,0,0,0,0,0,0,0,0,0,0,0],"sum_hessian":[1.5643488E2,3.5870903E1,1.2056397E2,2.2383207E1,1.3487698E1,1.0881433E1,1.0968254E2,1.0873029E1,1.1510178E1,3.9694523E1,6.998802E1,1.6293884E1,2.3400637E1,2.4748022E1,4.524E1,1.1396785E1,1.2003852E1,1.2600191E1,1.214783E1,1.2600284E1,3.2639717E1],"tree_param":{"num_deleted":"0","num_feature":"86","num_nodes":"21","size_leaf_vector":"1"}},{"base_weights":[1.9008728E-2,8.919376E-2,-2.4923218E-2,-1.057255E-1,2.9615518E-1,1.5638337E-2,-3.8508225E-2,6.3568276E-1,1.0668316E-1,-2.7131094E-2,2.3449934E-1,4.2608228E-2,1.7989786E-2,-2.2136902E-2,3.1614718E-1,2.5623992E-2,-1.6124105E-2,3.1854067E-2,-2.1266397E-2],"categories":[],"categories_nodes":[],"categories_segments":[],"categories_sizes":[],"default_left":[0,0,0,0,0,0,0,0,0,0,0,0,0,0,0,0,0,0,0],"id":40,"left_children":[1,3,-1,5,7,9,-1,11,13,-1,15,-1,-1,-1,17,-1,-1,-1,-1],"loss_changes":[6.038326E0,5.993954E0,0E0,6.245316E0,4.4879713E0,8.089763E0,0E0,1.0884542E0,5.6035132E0,0E0,7.588852E0,0E0,0E0,0E0,8.660303E0,0E0,0E0,0E0,0E0],"parents":[2147483647,0,0,1,1,3,3,4,4,5,5,7,7,8,8,10,10,14,14],"right_children":[2,4,-1,6,8,10,-1,12,14,-1,16,-1,-1,-1,18,-1,-1,-1,-1],"split_conditions":[1.3333333E-1,-2.6165542E-6,-2.4923218E-2,-4.709946E-4,9.086121E-6,-2.4360195E-3,-3.8508225E-2,4.347826E-1,4.2656916E-3,-2.7131094E-2,8.680888E-1,4.2608228E-2,1.7989786E-2,-2.2136902E-2,3.296181E-3,2.5623992E-2,-1.6124105E-2,3.1854067E-2,-2.1266397E-2],"split_indices":[72,33,0,1,33,21,0,83,9,0,58,0,0,0,31,0,0,0,0],"split_type":[0,0,0,0,0,0,0,0,0,0,0,0,0,0,0,0,0,0,0],"sum_hessian":[1.6516139E2,1.4633484E2,1.8826555E1,7.536292E1,7.097192E1,6.4421844E1,1.0941081E1,2.4387508E1,4.6584404E1,1.7597858E1,4.6823982E1,1.2291438E1,1.209607E1,1.2418851E1,3.4165554E1,3.1408127E1,1.5415857E1,2.403716E1,1.0128393E1],"tree_param":{"num_deleted":"0","num_feature":"86","num_nodes":"19","size_leaf_vector":"1"}},{"base_weights":[1.4227821E-2,3.6555555E-2,-3.6302943E-2,3.3263147E-2,-3.7621133E-2,-2.8104916E-1,1.9581406E-1,9.7619675E-2,-6.8758434E-1,4.2786203E-2,2.046536E-2,-2.535968E-2,2.6301954E-2,-5.6414574E-2,-1.242521E-2,-3.348918E-2,9.5333E-3],"categories":[],"categories_nodes":[],"categories_segments":[],"categories_sizes":[],"default_left":[0,0,0,0,0,0,0,0,0,0,0,0,0,0,0,0,0],"id":41,"left_children":[1,-1,3,5,-1,7,9,11,13,-1,15,-1,-1,-1,-1,-1,-1],"loss_changes":[6.113774E0,0E0,7.8688474E0,7.353869E0,0E0,7.6622605E0,1.089582E1,7.03005E0,4.1990185E0,0E0,9.0383835E0,0E0,0E0,0E0,0E0,0E0,0E0],"parents":[2147483647,0,0,2,2,3,3,5,5,6,6,7,7,8,8,10,10],"right_children":[2,-1,4,6,-1,8,10,12,14,-1,16,-1,-1,-1,-1,-1,-1],"split_conditions":[-1.2724507E-2,3.6555555E-2,1.0673974E-2,-1.5053393E-3,-3.7621133E-2,-5.003371E-3,6.414073E-4,-1.1191673E-2,5.084746E-1,4.2786203E-2,-2.5314747E-3,-2.535968E-2,2.6301954E-2,-5.6414574E-2,-1.242521E-2,-3.348918E-2,9.5333E-3],"split_indices":[20,0,55,30,0,30,30,29,84,0,20,0,0,0,0,0,0],"split_type":[0,0,0,0,0,0,0,0,0,0,0,0,0,0,0,0,0],"sum_hessian":[1.651231E2,1.0116073E1,1.5500702E2,1.4202425E2,1.2982767E1,4.7954365E1,9.4069885E1,2.5094181E1,2.2860184E1,1.881412E1,7.525577E1,1.0232023E1,1.4862159E1,1.0511905E1,1.2348278E1,1.4189091E1,6.1066677E1],"tree_param":{"num_deleted":"0","num_feature":"86","num_nodes":"17","size_leaf_vector":"1"}},{"base_weights":[7.3978245E-2,1.4500251E-1,-2.6307533E-2,3.9648965E-2,8.153992E-2,-5.422056E-1,1.9686744E-1,-6.113581E-2,1.0588951E-2,3.9012685E-2,1.13544926E-1,-2.783863E-2,1.1603723E-2],"categories":[],"categories_nodes":[],"categories_segments":[],"categories_sizes":[],"default_left":[0,0,0,0,0,0,0,0,0,0,0,0,0],"id":42,"left_children":[1,3,-1,-1,5,7,9,-1,-1,-1,11,-1,-1],"loss_changes":[7.140476E0,6.013252E0,0E0,0E0,9.985481E0,1.1460951E1,5.5177383E0,0E0,0E0,0E0,8.347872E0,0E0,0E0],"parents":[2147483647,0,0,1,1,4,4,5,5,6,6,10,10],"right_children":[2,4,-1,-1,6,8,10,-1,-1,-1,12,-1,-1],"split_conditions":[1.0673974E-2,-3.2908258E-3,-2.6307533E-2,3.9648965E-2,-3.1572945E-2,6.077146E-2,-2.5322571E-2,-6.113581E-2,1.0588951E-2,3.9012685E-2,2.973376E-1,-2.783863E-2,1.1603723E-2],"split_indices":[55,32,0,0,44,47,44,0,0,0,71,0,0],"split_type":[0,0,0,0,0,0,0,0,0,0,0,0,0],"sum_hessian":[1.6562785E2,1.4892754E2,1.6700315E1,1.2118826E1,1.3680872E2,2.0635216E1,1.161735E2,1.0589023E1,1.0046192E1,1.3323563E1,1.0284994E2,1.4771573E1,8.807836E1],"tree_param":{"num_deleted":"0","num_feature":"86","num_nodes":"13","size_leaf_vector":"1"}},{"base_weights":[-1.1290472E-2,4.2943723E-2,-3.7873115E-2,-4.504666E-2,5.356413E-1,8.959165E-2,-6.5769213E-1,4.507871E-2,5.4307296E-3,-1.9375256E-1,3.1188652E-1,-3.6242143E-3,-5.445828E-2,1.6300512E-2,-2.0015547E-2,4.3014612E-2,5.2587367E-3],"categories":[],"categories_nodes":[],"categories_segments":[],"categories_sizes":[],"default_left":[0,0,0,0,0,0,0,0,0,0,0,0,0,0,0,0,0],"id":43,"left_children":[1,3,-1,5,7,9,11,-1,-1,13,15,-1,-1,-1,-1,-1,-1],"loss_changes":[6.6815405E0,6.677764E0,0E0,1.0839765E1,3.4473553E0,6.8327274E0,5.783577E0,0E0,0E0,5.2489915E0,6.6971135E0,0E0,0E0,0E0,0E0,0E0,0E0],"parents":[2147483647,0,0,1,1,3,3,4,4,5,5,6,6,9,9,10,10],"right_children":[2,4,-1,6,8,10,12,-1,-1,14,16,-1,-1,-1,-1,-1,-1],"split_conditions":[9.447297E-1,2.1362415E-2,-3.7873115E-2,6.92749E-1,9.101663E-3,2.7539682E-1,-5.4522147E-3,4.507871E-2,5.4307296E-3,-2.8238384E-2,-5.193553E-1,-3.6242143E-3,-5.445828E-2,1.6300512E-2,-2.0015547E-2,4.3014612E-2,5.2587367E-3],"split_indices":[61,80,0,46,21,71,68,0,0,80,76,0,0,0,0,0,0],"split_type":[0,0,0,0,0,0,0,0,0,0,0,0,0,0,0,0,0],"sum_hessian":[1.6153722E2,1.5134538E2,1.0191845E1,1.2901103E2,2.2334349E1,1.063332E2,2.2677828E1,1.1302991E1,1.1031358E1,4.6606102E1,5.9727097E1,1.0218383E1,1.2459446E1,1.2952162E1,3.3653942E1,1.5352199E1,4.4374897E1],"tree_param":{"num_deleted":"0","num_feature":"86","num_nodes":"17","size_leaf_vector":"1"}},{"base_weights":[-1.4483617E-2,-4.23316E-1,1.0353528E-1,-5.1278245E-2,8.832357E-3,3.9176688E-1,-1.7846781E-1,1.7392594E-2,-1.5828295E-2,-1.1423569E-2,5.730532E-1,-4.3420997E-2,1.6236207E-1,1.9062887E-3,7.7596617E-1,4.9196768E-1,-1.6218488E-1,5.4821737E-2,2.4881205E-2,4.0398125E-2,5.815211E-3,1.0977252E-2,-2.7854845E-2],"categories":[],"categories_nodes":[],"categories_segments":[],"categories_sizes":[],"default_left":[0,0,0,0,0,0,0,0,0,0,0,0,0,0,0,0,0,0,0,0,0,0,0],"id":44,"left_children":[1,3,5,-1,7,9,11,-1,-1,-1,13,-1,15,-1,17,19,21,-1,-1,-1,-1,-1,-1],"loss_changes":[7.5448103E0,9.23609E0,9.904922E0,0E0,2.4639628E0,6.933962E0,1.4682877E1,0E0,0E0,0E0,4.989641E0,0E0,4.598816E0,0E0,2.3171844E0,2.3310242E0,3.4317915E0,0E0,0E0,0E0,0E0,0E0,0E0],"parents":[2147483647,0,0,1,1,2,2,4,4,5,5,6,6,10,10,12,12,14,14,15,15,16,16],"right_children":[2,4,6,-1,8,10,12,-1,-1,-1,14,-1,16,-1,18,20,22,-1,-1,-1,-1,-1,-1],"split_conditions":[8.271436E-3,9.1955304E-1,5.307519E1,-5.1278245E-2,-6.2801335E-3,-9.04545E-3,7.7712154E-1,1.7392594E-2,-1.5828295E-2,-1.1423569E-2,-3.7842323E-3,-4.3420997E-2,1.96809E-3,1.9062887E-3,2.9533372E-5,8.861386E-1,1.9428208E-2,5.4821737E-2,2.4881205E-2,4.0398125E-2,5.815211E-3,1.0977252E-2,-2.7854845E-2],"split_indices":[67,51,39,0,15,2,76,0,0,0,20,0,22,0,20,70,69,0,0,0,0,0,0],"split_type":[0,0,0,0,0,0,0,0,0,0,0,0,0,0,0,0,0,0,0,0,0,0,0],"sum_hessian":[1.5379817E2,3.406235E1,1.19735825E2,1.375349E1,2.0308863E1,5.919687E1,6.0538956E1,1.0062968E1,1.0245894E1,1.320533E1,4.599154E1,1.9602491E1,4.0936462E1,1.3110312E1,3.2881226E1,2.0206882E1,2.0729582E1,1.3750819E1,1.9130405E1,1.0205457E1,1.0001426E1,1.0637756E1,1.00918255E1],"tree_param":{"num_deleted":"0","num_feature":"86","num_nodes":"23","size_leaf_vector":"1"}},{"base_weights":[2.4883011E-2,-9.084102E-2,3.7182534E-1,4.597685E-2,-7.588103E-1,-1.111329E-2,5.956109E-1,-2.797054E-1,3.4541312E-1,-8.895169E-3,-6.349102E-2,4.9313847E-2,3.7462164E-3,1.4898104E-2,-5.682583E-1,-1.0801056E-2,6.044445E-1,-5.7957854E-2,-5.651476E-3,4.061183E-2,4.4517824E-3],"categories":[],"categories_nodes":[],"categories_segments":[],"categories_sizes":[],"default_left":[0,0,0,0,0,0,0,0,0,0,0,0,0,0,0,0,0,0,0,0,0],"id":45,"left_children":[1,3,5,7,9,-1,11,13,15,-1,-1,-1,-1,-1,17,-1,19,-1,-1,-1,-1],"loss_changes":[6.658287E0,1.1419273E1,5.6880164E0,1.0202755E1,5.930291E0,0E0,6.0330524E0,8.5307255E0,8.104458E0,0E0,0E0,0E0,0E0,0E0,8.83472E0,0E0,3.87749E0,0E0,0E0,0E0,0E0],"parents":[2147483647,0,0,1,1,2,2,3,3,4,4,6,6,7,7,8,8,14,14,16,16],"right_children":[2,4,6,8,10,-1,12,14,16,-1,-1,-1,-1,-1,18,-1,20,-1,-1,-1,-1],"split_conditions":[2.3285667E-3,2.0769963E-3,3.755602E-1,-1.2189902E-3,5.001866E-1,-1.111329E-2,6.1542224E-2,-1.3791613E-3,3.3333334E-1,-8.895169E-3,-6.349102E-2,4.9313847E-2,3.7462164E-3,1.4898104E-2,9.55686E-1,-1.0801056E-2,3.7299104E-3,-5.7957854E-2,-5.651476E-3,4.061183E-2,4.4517824E-3],"split_indices":[23,22,71,31,58,0,45,24,85,0,0,0,0,0,51,0,17,0,0,0,0],"split_type":[0,0,0,0,0,0,0,0,0,0,0,0,0,0,0,0,0,0,0,0,0],"sum_hessian":[1.6329597E2,1.227891E2,4.050687E1,1.0256294E2,2.0226156E1,1.0962989E1,2.9543882E1,4.8999985E1,5.356296E1,1.0188212E1,1.0037944E1,1.6258814E1,1.32850685E1,1.619643E1,3.2803555E1,1.6841043E1,3.6721916E1,1.3506186E1,1.9297369E1,2.5622166E1,1.1099752E1],"tree_param":{"num_deleted":"0","num_feature":"86","num_nodes":"21","size_leaf_vector":"1"}},{"base_weights":[-2.2767844E-2,3.953923E-2,-3.192611E-2,-1.5754774E-1,3.2464436E-1,-1.1034986E-2,-4.160674E-2,7.3964596E-1,-0E0,-1.8826567E-1,3.5146236E-1,4.872556E-2,1.6493728E-2,-2.7606381E-2,3.5073227E-1,9.529046E-3,-2.9968187E-2,4.3151382E-2,-1.1358286E-2,-2.3325112E-4,3.5523225E-2],"categories":[],"categories_nodes":[],"categories_segments":[],"categories_sizes":[],"default_left":[0,0,0,0,0,0,0,0,0,0,0,0,0,0,0,0,0,0,0,0,0],"id":46,"left_children":[1,3,-1,5,7,9,-1,11,13,15,17,-1,-1,-1,19,-1,-1,-1,-1,-1,-1],"loss_changes":[6.345659E0,8.43906E0,0E0,8.65864E0,8.250261E0,4.7967587E0,0E0,2.1383657E0,7.063551E0,8.01407E0,7.4898186E0,0E0,0E0,0E0,2.9334185E0,0E0,0E0,0E0,0E0,0E0,0E0],"parents":[2147483647,0,0,1,1,3,3,4,4,5,5,7,7,8,8,9,9,10,10,14,14],"right_children":[2,4,-1,6,8,10,-1,12,14,16,18,-1,-1,-1,20,-1,-1,-1,-1,-1,-1],"split_conditions":[1.0673974E-2,8.9635217E-4,-3.192611E-2,5.3927456E1,3.0379804E-2,-1.4492923E-3,-4.160674E-2,2.9109716E-3,2.4887945E-3,-5.003371E-3,4.7160705E-4,4.872556E-2,1.6493728E-2,-2.7606381E-2,2.0372765E-2,9.529046E-3,-2.9968187E-2,4.3151382E-2,-1.1358286E-2,-2.3325112E-4,3.5523225E-2],"split_indices":[55,23,0,38,26,30,0,31,23,30,30,0,0,0,72,0,0,0,0,0,0],"split_type":[0,0,0,0,0,0,0,0,0,0,0,0,0,0,0,0,0,0,0,0,0],"sum_hessian":[1.621793E2,1.4797897E2,1.4200339E1,8.755249E1,6.042648E1,7.288687E1,1.4665617E1,2.5914423E1,3.4512054E1,4.9461075E1,2.3425797E1,1.5441646E1,1.0472777E1,1.31454315E1,2.1366623E1,2.5892788E1,2.3568287E1,1.2264268E1,1.1161528E1,1.1104744E1,1.026188E1],"tree_param":{"num_deleted":"0","num_feature":"86","num_nodes":"21","size_leaf_vector":"1"}},{"base_weights":[-1.6078398E-2,-9.458799E-2,4.4007716E-1,4.8158965E-3,-3.6740914E-2,4.7633078E-2,-6.344367E-3,-9.3103334E-2,4.831174E-1,6.424519E-2,-5.6930506E-1,3.0743666E-3,4.2658124E-2,3.108794E-2,-2.334826E-3,-4.9239174E-2,-9.032396E-3],"categories":[],"categories_nodes":[],"categories_segments":[],"categories_sizes":[],"default_left":[0,0,0,0,0,0,0,0,0,0,0,0,0,0,0,0,0],"id":47,"left_children":[1,3,5,7,-1,-1,-1,9,11,13,15,-1,-1,-1,-1,-1,-1],"loss_changes":[5.8385143E0,8.982013E0,7.1491923E0,5.797096E0,0E0,0E0,0E0,7.7238927E0,3.1425748E0,4.870615E0,3.834896E0,0E0,0E0,0E0,0E0,0E0,0E0],"parents":[2147483647,0,0,1,1,2,2,3,3,7,7,8,8,9,9,10,10],"right_children":[2,4,6,8,-1,-1,-1,10,12,14,16,-1,-1,-1,-1,-1,-1],"split_conditions":[7.0850486E-3,2.9201237E-3,2.5003048E-2,1.128121E-2,-3.6740914E-2,4.7633078E-2,-6.344367E-3,1.9988069E-5,-6.069931E-3,1.8231815E-2,7.213146E-3,3.0743666E-3,4.2658124E-2,3.108794E-2,-2.334826E-3,-4.9239174E-2,-9.032396E-3],"split_indices":[21,22,17,49,0,0,0,33,16,47,1,0,0,0,0,0,0],"split_type":[0,0,0,0,0,0,0,0,0,0,0,0,0,0,0,0,0],"sum_hessian":[1.6183208E2,1.3893213E2,2.2899946E1,1.2098409E2,1.7948034E1,1.1762096E1,1.1137849E1,1.00919785E2,2.006431E1,7.634774E1,2.457204E1,1.0049869E1,1.0014441E1,1.2056649E1,6.429109E1,1.1010548E1,1.3561493E1],"tree_param":{"num_deleted":"0","num_feature":"86","num_nodes":"17","size_leaf_vector":"1"}},{"base_weights":[9.9192355E-3,-2.713559E-2,6.215119E-2,2.1963565E-1,-1.2923317E-1,3.2139838E-1,-2.0089265E-2,-2.518096E-1,1.7482832E-2,4.530222E-2,1.7968091E-1,-5.1879543E-1,9.395122E-3,-1.7805656E-2,2.2347517E-2,5.021738E-4,-3.8531E-2],"categories":[],"categories_nodes":[],"categories_segments":[],"categories_sizes":[],"default_left":[0,0,0,0,0,0,0,0,0,0,0,0,0,0,0,0,0],"id":48,"left_children":[1,-1,3,5,7,9,-1,11,-1,-1,13,15,-1,-1,-1,-1,-1],"loss_changes":[4.6053176E0,0E0,4.476616E0,5.272149E0,4.001207E0,5.585412E0,0E0,6.4650354E0,0E0,0E0,8.514174E0,4.6091003E0,0E0,0E0,0E0,0E0,0E0],"parents":[2147483647,0,0,2,2,3,3,4,4,5,5,7,7,10,10,11,11],"right_children":[2,-1,4,6,8,10,-1,12,-1,-1,14,16,-1,-1,-1,-1,-1],"split_conditions":[4.9439684E-4,-2.713559E-2,4.973625E-3,2.5762432E0,1E0,-1.3791613E-3,-2.0089265E-2,1.0547132E-2,1.7482832E-2,4.530222E-2,-6.2211104E-2,-7.9771085E-4,9.395122E-3,-1.7805656E-2,2.2347517E-2,5.021738E-4,-3.8531E-2],"split_indices":[5,0,5,40,85,24,0,5,0,0,41,23,0,0,0,0,0],"split_type":[0,0,0,0,0,0,0,0,0,0,0,0,0,0,0,0,0],"sum_hessian":[1.590431E2,1.2757687E1,1.4628542E2,8.045571E1,6.5829704E1,6.968753E1,1.0768179E1,5.2957676E1,1.2872029E1,1.2406481E1,5.728105E1,3.298021E1,1.9977467E1,1.8828688E1,3.8452366E1,1.0820296E1,2.2159914E1],"tree_param":{"num_deleted":"0","num_feature":"86","num_nodes":"17","size_leaf_vector":"1"}},{"base_weights":[8.974692E-2,3.8973786E-2,3.671371E-2,3.3251878E-2,-2.778206E-2,-2.412285E-1,1.951917E-1,1.9046606E-2,-3.7707502E-1,3.794999E-1,-3.1732883E-2,-1.0551209E-2,-4.2880066E-2,2.9782156E-2,-2.5889654E-2],"categories":[],"categories_nodes":[],"categories_segments":[],"categories_sizes":[],"default_left":[0,0,0,0,0,0,0,0,0,0,0,0,0,0,0],"id":49,"left_children":[1,-1,3,-1,5,7,9,-1,11,13,-1,-1,-1,-1,-1],"loss_changes":[5.961618E0,0E0,6.3767085E0,0E0,6.794798E0,6.318534E0,1.086336E1,0E0,4.5479107E0,1.1504976E1,0E0,0E0,0E0,0E0,0E0],"parents":[2147483647,0,0,2,2,4,4,5,5,6,6,8,8,9,9],"right_children":[2,-1,4,-1,6,8,10,-1,12,14,-1,-1,-1,-1,-1],"split_conditions":[-1.2724507E-2,3.8973786E-2,1.8231815E-2,3.3251878E-2,8.9635217E-4,-7.5152224E-1,1.0635226E-2,1.9046606E-2,1.055082E0,2.8995906E-3,-3.1732883E-2,-1.0551209E-2,-4.2880066E-2,2.9782156E-2,-2.5889654E-2],"split_indices":[20,0,47,0,23,60,55,0,51,24,0,0,0,0,0],"split_type":[0,0,0,0,0,0,0,0,0,0,0,0,0,0,0],"sum_hessian":[1.64995E2,1.0667984E1,1.5432701E2,1.3644097E1,1.4068292E2,7.206436E1,6.861855E1,1.2459785E1,5.960458E1,5.6690807E1,1.1927746E1,4.552143E1,1.4083147E1,4.604657E1,1.064424E1],"tree_param":{"num_deleted":"0","num_feature":"86","num_nodes":"15","size_leaf_vector":"1"}},{"base_weights":[-4.7735058E-2,-2.5742036E-1,1.1071736E-1,7.5981855E-2,-5.260602E-1,5.0552404E-1,-1.0748821E-1,-2.4712604E-2,2.6030788E-2,-2.7419955E-1,-5.4065444E-2,4.355751E-3,4.8431005E-2,-2.7014917E-2,9.14605E-2,-4.414345E-2,9.918382E-3,-2.224145E-1,2.5041565E-2,-3.6049806E-2,1.4389658E-2],"categories":[],"categories_nodes":[],"categories_segments":[],"categories_sizes":[],"default_left":[0,0,0,0,0,0,0,0,0,0,0,0,0,0,0,0,0,0,0,0,0],"id":50,"left_children":[1,3,5,7,9,11,13,-1,-1,15,-1,-1,-1,-1,17,-1,-1,19,-1,-1,-1],"loss_changes":[5.2773147E0,6.2092857E0,7.861109E0,8.175398E0,4.90434E0,6.0939035E0,5.15109E0,0E0,0E0,8.215488E0,0E0,0E0,0E0,0E0,5.3983736E0,0E0,0E0,6.285054E0,0E0,0E0,0E0],"parents":[2147483647,0,0,1,1,2,2,3,3,4,4,5,5,6,6,9,9,14,14,17,17],"right_children":[2,4,6,8,10,12,14,-1,-1,16,-1,-1,-1,-1,18,-1,-1,20,-1,-1,-1],"split_conditions":[-2.6165542E-6,-2.9524432E-5,1.142039E-5,-7.304407E-3,1.0128814E0,7.639686E-3,3.4066305E-2,-2.4712604E-2,2.6030788E-2,3.755602E-1,-5.4065444E-2,4.355751E-3,4.8431005E-2,-2.7014917E-2,1E0,-4.414345E-2,9.918382E-3,8.287059E-5,2.5041565E-2,-3.6049806E-2,1.4389658E-2],"split_indices":[33,33,33,0,52,49,47,0,0,71,0,0,0,0,48,0,0,37,0,0,0],"split_type":[0,0,0,0,0,0,0,0,0,0,0,0,0,0,0,0,0,0,0,0,0],"sum_hessian":[1.565356E2,6.737825E1,8.915735E1,3.0219055E1,3.71592E1,3.1430552E1,5.77268E1,1.3092147E1,1.7126907E1,2.6715143E1,1.0444055E1,1.7249561E1,1.418099E1,1.7796858E1,3.9929943E1,1.138918E1,1.5325964E1,2.2721333E1,1.720861E1,1.1381772E1,1.13395605E1],"tree_param":{"num_deleted":"0","num_feature":"86","num_nodes":"21","size_leaf_vector":"1"}},{"base_weights":[-9.698303E-3,2.50881E-2,-8.175256E-2,-1.6370767E-1,2.3324443E-2,1.8271249E-2,-2.6616943E-1,-1.5518357E-1,-4.4826116E-2,-1.8198822E-3,-3.870861E-2],"categories":[],"categories_nodes":[],"categories_segments":[],"categories_sizes":[],"default_left":[0,0,0,0,0,0,0,0,0,0,0],"id":51,"left_children":[1,-1,3,5,-1,-1,7,9,-1,-1,-1],"loss_changes":[5.906427E0,0E0,6.4053926E0,6.8115745E0,0E0,0E0,7.0765853E0,6.531844E0,0E0,0E0,0E0],"parents":[2147483647,0,0,2,2,3,3,6,6,7,7],"right_children":[2,-1,4,6,-1,-1,8,10,-1,-1,-1],"split_conditions":[8.1668466E-1,2.50881E-2,1.1669936E0,1.3043478E-1,2.3324443E-2,1.8271249E-2,9.774054E-3,9.629443E-3,-4.4826116E-2,-1.8198822E-3,-3.870861E-2],"split_indices":[51,0,51,83,0,0,2,55,0,0,0],"split_type":[0,0,0,0,0,0,0,0,0,0,0],"sum_hessian":[1.59297E2,1.876272E1,1.4053429E2,1.2302709E2,1.7507189E1,1.9383656E1,1.0364344E2,8.932149E1,1.4321953E1,7.596409E1,1.3357401E1],"tree_param":{"num_deleted":"0","num_feature":"86","num_nodes":"11","size_leaf_vector":"1"}},{"base_weights":[1.3040114E-2,3.9932045E-1,-9.0757266E-2,-7.437908E-3,3.9076187E-2,-3.390157E-2,2.0642761E-2,2.9222269E-2,-6.726756E-2,5.954E-2,-4.168354E-2,1.5704675E-2,-9.600657E-3],"categories":[],"categories_nodes":[],"categories_segments":[],"categories_sizes":[],"default_left":[0,0,0,0,0,0,0,0,0,0,0,0,0],"id":52,"left_children":[1,3,5,-1,-1,-1,7,-1,9,11,-1,-1,-1],"loss_changes":[6.4819665E0,7.3594217E0,8.369856E0,0E0,0E0,0E0,5.411235E0,0E0,9.224027E0,5.2679996E0,0E0,0E0,0E0],"parents":[2147483647,0,0,1,1,2,2,6,6,8,8,9,9],"right_children":[2,4,6,-1,-1,-1,8,-1,10,12,-1,-1,-1],"split_conditions":[4.290558E-3,3.935149E-3,5.506141E-3,-7.437908E-3,3.9076187E-2,-3.390157E-2,-7.581912E-1,2.9222269E-2,1.0673974E-2,4.7945203E-3,-4.168354E-2,1.5704675E-2,-9.600657E-3],"split_indices":[54,9,55,0,0,0,60,0,55,5,0,0,0],"split_type":[0,0,0,0,0,0,0,0,0,0,0,0,0],"sum_hessian":[1.589922E2,3.3275234E1,1.25716965E2,1.3814466E1,1.9460768E1,1.937705E1,1.0633992E2,1.3735865E1,9.260405E1,8.0136635E1,1.2467417E1,3.9904797E1,4.023184E1],"tree_param":{"num_deleted":"0","num_feature":"86","num_nodes":"13","size_leaf_vector":"1"}},{"base_weights":[6.9759384E-2,-1.4614471E-2,4.831287E-1,2.7934069E-2,-7.812739E-2,4.0970605E-2,-3.9865994E-3,7.918554E-2,-3.7587914E-1,-2.9086837E-1,3.4372252E-1,-6.865698E-1,1.3881943E-2,1.2351629E-2,-3.074953E-2,5.5327263E-2,3.071196E-3,-1.2745735E-2,-6.0459103E-2],"categories":[],"categories_nodes":[],"categories_segments":[],"categories_sizes":[],"default_left":[0,0,0,0,0,0,0,0,0,0,0,0,0,0,0,0,0,0,0],"id":53,"left_children":[1,3,5,-1,7,-1,-1,9,11,13,15,17,-1,-1,-1,-1,-1,-1,-1],"loss_changes":[5.6464167E0,4.8724174E0,5.327694E0,0E0,5.7557535E0,0E0,0E0,7.9540854E0,8.847428E0,6.0828357E0,1.0016184E1,6.1218204E0,0E0,0E0,0E0,0E0,0E0,0E0,0E0],"parents":[2147483647,0,0,1,1,2,2,4,4,7,7,8,8,9,9,10,10,11,11],"right_children":[2,4,6,-1,8,-1,-1,10,12,14,16,18,-1,-1,-1,-1,-1,-1,-1],"split_conditions":[4.227053E-3,3.9991783E-3,6.442992E-1,2.7934069E-2,4.754589E-3,4.0970605E-2,-3.9865994E-3,2.5303513E-1,7.759103E-1,-4.9349416E-2,-3.2498103E-2,5.912864E-1,1.3881943E-2,1.2351629E-2,-3.074953E-2,5.5327263E-2,3.071196E-3,-1.2745735E-2,-6.0459103E-2],"split_indices":[6,55,61,0,4,0,0,70,65,66,66,57,0,0,0,0,0,0,0],"split_type":[0,0,0,0,0,0,0,0,0,0,0,0,0,0,0,0,0,0,0],"sum_hessian":[1.5934677E2,1.3293567E2,2.6411104E1,1.2323895E1,1.2061178E2,1.6359137E1,1.0051968E1,7.917761E1,4.1434166E1,3.280708E1,4.637053E1,2.8152538E1,1.328163E1,1.2308942E1,2.0498138E1,1.164084E1,3.472969E1,1.6337547E1,1.1814992E1],"tree_param":{"num_deleted":"0","num_feature":"86","num_nodes":"19","size_leaf_vector":"1"}},{"base_weights":[6.499182E-2,-1.0417643E-1,2.510362E-1,3.2226145E-1,-2.6655263E-1,4.838317E-2,7.765213E-2,3.395013E-2,-4.784668E-3,-4.1934047E-2,-8.259481E-2,3.2133013E-1,-2.4518989E-1,-3.2452545E-1,2.478168E-2,5.6155235E-1,-1.046742E-2,-4.284557E-2,2.356143E-2,2.2845282E-3,-4.7093917E-2,4.668156E-2,5.960525E-3],"categories":[],"categories_nodes":[],"categories_segments":[],"categories_sizes":[],"default_left":[0,0,0,0,0,0,0,0,0,0,0,0,0,0,0,0,0,0,0,0,0,0,0],"id":54,"left_children":[1,3,5,7,9,-1,11,-1,-1,-1,13,15,17,19,-1,21,-1,-1,-1,-1,-1,-1,-1],"loss_changes":[5.0862923E0,5.923719E0,9.378067E0,3.6353548E0,6.346524E0,0E0,5.0533295E0,0E0,0E0,0E0,6.862914E0,4.817165E0,1.2515125E1,8.038193E0,0E0,3.9949493E0,0E0,0E0,0E0,0E0,0E0,0E0,0E0],"parents":[2147483647,0,0,1,1,2,2,3,3,4,4,6,6,10,10,11,11,12,12,13,13,15,15],"right_children":[2,4,6,8,10,-1,12,-1,-1,-1,14,16,18,20,-1,22,-1,-1,-1,-1,-1,-1,-1],"split_conditions":[7.882569E-4,-1.3791613E-3,5.0703115E-3,4.87296E-4,3.3333334E-1,4.838317E-2,2.8910467E-3,3.395013E-2,-4.784668E-3,-4.1934047E-2,5.7933846E-4,2.163193E-3,1.1676036E-2,6.3081534E-4,2.478168E-2,1.0553828E-2,-1.046742E-2,-4.284557E-2,2.356143E-2,2.2845282E-3,-4.7093917E-2,4.668156E-2,5.960525E-3],"split_indices":[23,24,54,32,85,0,22,0,0,0,24,24,53,2,0,50,0,0,0,0,0,0,0],"split_type":[0,0,0,0,0,0,0,0,0,0,0,0,0,0,0,0,0,0,0,0,0,0,0],"sum_hessian":[1.5931157E2,8.338918E1,7.5922386E1,2.2554714E1,6.083447E1,1.3785728E1,6.2136654E1,1.19605665E1,1.0594148E1,1.3802996E1,4.7031475E1,3.5588917E1,2.6547735E1,3.3589382E1,1.3442091E1,2.4588638E1,1.1000279E1,1.4289756E1,1.2257979E1,2.1475124E1,1.2114259E1,1.2628971E1,1.1959668E1],"tree_param":{"num_deleted":"0","num_feature":"86","num_nodes":"23","size_leaf_vector":"1"}},{"base_weights":[4.861824E-2,1.4589247E-1,-2.4624522E-1,3.2160494E-2,6.160931E-2,-5.84547E-1,1.0172504E-2,-3.136254E-1,1.8890347E-1,-4.6278066E-3,-5.185417E-2,1.1839947E-2,-3.8433306E-2,5.5196476E-1,-4.5522694E-2,1.2785199E-3,4.616734E-2,-3.7168078E-2,8.072573E-3],"categories":[],"categories_nodes":[],"categories_segments":[],"categories_sizes":[],"default_left":[0,0,0,0,0,0,0,0,0,0,0,0,0,0,0,0,0,0,0],"id":55,"left_children":[1,3,5,-1,7,9,-1,11,13,-1,-1,-1,-1,15,17,-1,-1,-1,-1],"loss_changes":[4.643138E0,5.000559E0,6.2498393E0,0E0,5.0877433E0,4.965393E0,0E0,6.9752474E0,6.852863E0,0E0,0E0,0E0,0E0,6.0366573E0,7.275895E0,0E0,0E0,0E0,0E0],"parents":[2147483647,0,0,1,1,2,2,4,4,5,5,7,7,8,8,13,13,14,14],"right_children":[2,4,6,-1,8,10,-1,12,14,-1,-1,-1,-1,16,18,-1,-1,-1,-1],"split_conditions":[7.6763155E-3,-3.007721E-5,1.1463568E-2,3.2160494E-2,8.271436E-3,1.6594213E-2,1.0172504E-2,8.902691E-2,3.5393154E-4,-4.6278066E-3,-5.185417E-2,1.1839947E-2,-3.8433306E-2,5.683662E-3,3.013862E-3,1.2785199E-3,4.616734E-2,-3.7168078E-2,8.072573E-3],"split_indices":[5,33,81,0,67,26,0,71,28,0,0,0,0,69,16,0,0,0,0],"split_type":[0,0,0,0,0,0,0,0,0,0,0,0,0,0,0,0,0,0,0],"sum_hessian":[1.599772E2,1.2092794E2,3.9049267E1,1.6391426E1,1.0453651E2,2.2240463E1,1.6808804E1,2.5910065E1,7.862645E1,1.1338701E1,1.0901763E1,1.184365E1,1.4066415E1,3.0485254E1,4.814119E1,1.3164334E1,1.732092E1,1.0529904E1,3.7611286E1],"tree_param":{"num_deleted":"0","num_feature":"86","num_nodes":"19","size_leaf_vector":"1"}},{"base_weights":[8.329099E-2,2.0746103E-2,2.6316443E-2,4.282075E-1,-6.530441E-2,-3.3896745E-3,4.0965304E-2,8.0538124E-2,-4.2048866E-1,-4.4912156E-2,3.5927515E-2,-6.4809704E-1,3.9521544E-3,1.0385022E-2,-1.7937267E-2,-1.0330061E-2,-4.8979413E-2],"categories":[],"categories_nodes":[],"categories_segments":[],"categories_sizes":[],"default_left":[0,0,0,0,0,0,0,0,0,0,0,0,0,0,0,0,0],"id":56,"left_children":[1,3,-1,5,7,-1,-1,9,11,13,-1,15,-1,-1,-1,-1,-1],"loss_changes":[4.208949E0,4.8473687E0,0E0,4.8098617E0,5.936729E0,0E0,0E0,6.579336E0,3.898756E0,5.5173616E0,0E0,3.0670242E0,0E0,0E0,0E0,0E0,0E0],"parents":[2147483647,0,0,1,1,3,3,4,4,7,7,8,8,9,9,11,11],"right_children":[2,4,-1,6,8,-1,-1,10,12,14,-1,16,-1,-1,-1,-1,-1],"split_conditions":[1.1669936E0,-7.5152224E-1,2.6316443E-2,-8.6384046E-1,7.697838E-3,-3.3896745E-3,4.0965304E-2,6.8580937E-3,5.7219947E-3,1.5803853E-2,3.5927515E-2,-4.218112E-2,3.9521544E-3,1.0385022E-2,-1.7937267E-2,-1.0330061E-2,-4.8979413E-2],"split_indices":[51,60,0,60,54,0,0,54,2,45,0,44,0,0,0,0,0],"split_type":[0,0,0,0,0,0,0,0,0,0,0,0,0,0,0,0,0],"sum_hessian":[1.5326251E2,1.3541776E2,1.7844759E1,2.3121246E1,1.122965E2,1.0445267E1,1.2675979E1,7.995699E1,3.233951E1,6.746453E1,1.2492463E1,2.2149853E1,1.0189658E1,3.7388824E1,3.0075706E1,1.0324331E1,1.1825521E1],"tree_param":{"num_deleted":"0","num_feature":"86","num_nodes":"17","size_leaf_vector":"1"}},{"base_weights":[-6.0888794E-3,-2.7872248E-2,4.718386E-2,-3.0897582E-1,1.4906515E-1,-3.192981E-2,5.9623723E-3,3.1425614E-2,5.1200632E-2,2.4839145E-1,-5.0601065E-1,-1.0504488E-2,2.2189246E-2,-4.965177E-2,2.5104904E-3],"categories":[],"categories_nodes":[],"categories_segments":[],"categories_sizes":[],"default_left":[0,0,0,0,0,0,0,0,0,0,0,0,0,0,0],"id":57,"left_children":[1,-1,3,5,7,-1,-1,-1,9,11,13,-1,-1,-1,-1],"loss_changes":[4.697271E0,0E0,5.2620535E0,4.6701164E0,5.2023263E0,0E0,0E0,0E0,1.0550748E1,6.482069E0,6.932241E0,0E0,0E0,0E0,0E0],"parents":[2147483647,0,0,2,2,3,3,4,4,8,8,9,9,10,10],"right_children":[2,-1,4,6,8,-1,-1,-1,10,12,14,-1,-1,-1,-1],"split_conditions":[-5.5392942E0,-2.7872248E-2,3.977092E-3,-2.0583286E-3,-2.8810939E-5,-3.192981E-2,5.9623723E-3,3.1425614E-2,2.3792183E-3,3.3333334E-1,6.648492E1,-1.0504488E-2,2.2189246E-2,-4.965177E-2,2.5104904E-3],"split_indices":[40,0,9,18,33,0,0,0,22,85,38,0,0,0,0],"split_type":[0,0,0,0,0,0,0,0,0,0,0,0,0,0,0],"sum_hessian":[1.5628938E2,1.310191E1,1.4318747E2,3.1178497E1,1.1200897E2,1.7471922E1,1.3706575E1,1.7895111E1,9.411386E1,7.005564E1,2.4058216E1,2.07589E1,4.9296745E1,1.2504114E1,1.1554102E1],"tree_param":{"num_deleted":"0","num_feature":"86","num_nodes":"15","size_leaf_vector":"1"}}]},"name":"gbtree"},"learner_model_param":{"base_score":"[5E-1]","boost_from_average":"1","num_class":"0","num_feature":"86","num_target":"1"},"objective":{"name":"binary:logistic","reg_loss_param":{"scale_pos_weight":"1.93103456"}}},"version":[3,2,0]}