tree
version=v4
num_class=1
num_tree_per_iteration=1
label_index=0
max_feature_idx=85
objective=binary sigmoid:1
feature_names=Column_0 Column_1 Column_2 Column_3 Column_4 Column_5 Column_6 Column_7 Column_8 Column_9 Column_10 Column_11 Column_12 Column_13 Column_14 Column_15 Column_16 Column_17 Column_18 Column_19 Column_20 Column_21 Column_22 Column_23 Column_24 Column_25 Column_26 Column_27 Column_28 Column_29 Column_30 Column_31 Column_32 Column_33 Column_34 Column_35 Column_36 Column_37 Column_38 Column_39 Column_40 Column_41 Column_42 Column_43 Column_44 Column_45 Column_46 Column_47 Column_48 Column_49 Column_50 Column_51 Column_52 Column_53 Column_54 Column_55 Column_56 Column_57 Column_58 Column_59 Column_60 Column_61 Column_62 Column_63 Column_64 Column_65 Column_66 Column_67 Column_68 Column_69 Column_70 Column_71 Column_72 Column_73 Column_74 Column_75 Column_76 Column_77 Column_78 Column_79 Column_80 Column_81 Column_82 Column_83 Column_84 Column_85
feature_infos=[-0.040097892925501734:0.057334308303724289] [-0.048110034395385429:0.083139370179074176] [-0.052266425242309511:0.12078498598345795] [-0.081805291478430603:0.14084671420089553] [-0.12484045962128837:0.15266369070568012] [0:0.059009786904131091] [0:0.024055449817809851] [0:0.027045392733018026] [0:1] [0:0.068946943079791337] none [0:0.99999996466431218] [0:0.99999998046875049] [0:5] [0:5] [-0.038286926394844212:0.078612110889838327] [-0.062563382691883995:0.11774853350002368] [-0.10111882897761093:0.1416755236683962] [-0.088719045716450173:0.16455936703144425] [-0.065515386917045615:0.17654650408632833] [-0.041574145910805327:0.078083970567017547] [-0.031926332331614904:0.043719488345815849] [-0.025320094801351889:0.02255793638559167] [-0.0081050922815647519:0.010030562802832543] [-0.0038971889990594422:0.0055774771577572491] [0:1] [-0.065515386917045615:0.17654650408632833] [-0.034288685777552841:0.062775745271615557] [-0.055968227432026008:0.097421417395729071] [-0.079137233613891023:0.1262484107501034] [-0.02762844478709903:0.03449147535451759] [-0.021873633404605592:0.030367277223144206] [-0.014957056426813772:0.014859637431247918] [-0.00030864349900986028:0.00035883980000470247] [0:1] [0:1] [-0.023271029584962629:0.022711964897374936] [-0.00049558423909215263:0.00062318020229447661] [1.6768207459413844:97.558836722832353] [0.068473679489017059:99.966769313818233] [-39.019105034253357:52.513377147744244] [-0.96646358508117236:0.95117673445664708] [0:1] [0:1] [-0.193399459919117:0.047879407070990254] [-0.015301897586841084:0.25899563377165347] [-0.56128949788155347:1.4886926586988358] [0.00054748855004932309:0.25157447100531999] [0:1] [6.9261874755320954e-05:0.030403810787837427] [6.00994459605798e-05:0.039797494730283607] [0.30497324784467827:1.8135401543915222] [0:7.0473294209100086] [0:0.037570251259152948] [7.8955619366268104e-05:0.027405026629704704] [0.00019069315857923573:0.024108672968368702] [0:1] [0:4.9996653055758413] [0:9.9394497570151739] [-1:72666] [-1.6142450065207206:2.8460299075859505] [0:1] [0:0.99999999080882362] [0:0.99999999111900539] [0:0.99999999124343264] [0:0.99999999224806213] [-0.18515194360154907:-1.2755101419514858e-09] [-1.7761989656861488e-09:0.17049865456778357] [-0.088383513259615465:-1.2755101419514858e-09] [-1.7761989656861488e-09:0.16113743903859978] [0:0.99999999124343264] [0:0.99999995255205665] [-0.66666636777141774:0.63333320416669403] [0:1] [0:1] [-0.99999999102333959:0] [-4.6658472167976592:4.6634022850700303] [-9.2969860967897802:9.3200392720768495] [-0.050924024640657151:0.1283822682786413] [-0.078548644338118034:0.15124816446402356] [-0.11736229229360184:0.16493313521545327] [-0.078548644338118034:0.15124816446402356] [-0.11736229229360184:0.16493313521545327] [0:1] [0:0.96610169491525422] [0:1]
tree_sizes=2433

Tree=0
num_leaves=22
num_cat=0
split_feature=49 50 54 31 2 85 20 19 70 53 79 83 79 46 36 67 47 84 46 21 44
split_gain=8501.08 2074.82 1655.04 1114.08 939.168 780.093 710.533 665.15 661.401 539.388 490.333 487.606 468.091 428.989 278.472 263.491 247.587 219.565 91.3238 32.8983 1.81337
threshold=0.0024160600960449895 0.0053396616813773277 0.0016330272811072579 0.0022928879959802618 -0.0053363648532897285 1.0000000180025095e-35 0.0022839421239931883 -0.0042064348612538263 0.012270398976102489 0.0048425096976019875 -0.01431195469156593 0.93478260869565222 0.010087405732798429 1.1165300831019398 0.0023662182506335064 0.010077128401860815 0.0047441087999085087 0.48305084745762716 0.1260365604682129 0.0017988587635000555 -0.0023724264273661251
decision_type=2 2 2 2 2 2 2 2 2 2 2 2 2 2 2 2 2 2 2 2 2
left_child=2 4 5 6 10 7 8 -1 -4 12 -2 -11 -6 16 -8 18 -7 19 -3 -5 -19
right_child=1 15 3 17 9 13 14 -9 -10 11 -12 -13 -14 -15 -16 -17 -18 20 -20 -21 -22
leaf_value=-2.3689887558297658 -2.4601339924688412 -2.8220496930783412 -3.2121145541691103 -2.5404540578870716 -2.4774853808519146 -2.9066828479408335 -3.2141902060747394 -3.208814828207796 -2.6800348372322134 -3.2103601838025986 -3.212335685142873 -2.3774720351596135 -2.1577914265473765 -2.6326983955501175 -2.5507143915090804 -2.0741283544711937 -3.215889180800374 -2.8780907452291782 -2.3497508974749017 -2.1684408674832572 -2.6153212177491163
leaf_weight=6.5081077963113785 2.6576750427484512 2.5535558164119703 6.3374311774969092 4.78355145454407 58.789774894714355 7.2066287100315085 12.091663166880606 3.4603151828050596 61.313017040491104 4.4323138296604148 6.6873506903648359 2.3466354757547379 18.527283519506454 3.5907937437295905 1.3093975484371174 62.72719432413578 39.968584358692169 3.0589951127767563 6.3525880128145218 9.6850608587264997 1.5037972778081883
leaf_count=54 23 43 163 55 673 140 311 89 942 114 172 15 91 47 11 230 1028 56 50 45 16
internal_value=-2.57457 -2.32275 -2.8349 -2.71032 -2.48548 -3.04231 -2.7954 -2.64918 -2.72994 -2.4327 -2.97401 -2.88847 -2.39484 -3.12387 -3.12998 -2.11672 -3.16634 -2.36697 -2.45923 -2.26615 -2.74481
internal_weight=325.892 165.074 160.817 100.083 93.441 60.7344 81.0515 9.96842 67.6504 84.096 9.34503 6.77895 77.3171 50.766 13.4011 71.6333 47.1752 19.0314 8.90614 14.4686 4.56279
internal_count=4368 1411 2957 1599 1088 1358 1427 143 1105 893 195 129 764 1215 322 323 1168 172 93 100 72
is_linear=0
shrinkage=1


end of trees

feature_importances:
Column_46=2
Column_79=2
Column_2=1
Column_19=1
Column_20=1
Column_21=1
Column_31=1
Column_36=1
Column_44=1
Column_47=1
Column_49=1
Column_50=1
Column_53=1
Column_54=1
Column_67=1
Column_70=1
Column_83=1
Column_84=1
Column_85=1

parameters:
[boosting: gbdt]
[objective: binary]
[metric: binary_logloss]
[tree_learner: serial]
[device_type: cpu]
[data_sample_strategy: bagging]
[data: ]
[valid: ]
[num_iterations: 500]
[learning_rate: 0.05]
[num_leaves: 31]
[num_threads: 8]
[seed: 42]
[deterministic: 0]
[force_col_wise: 0]
[force_row_wise: 0]
[histogram_pool_size: -1]
[max_depth: 5]
[min_data_in_leaf: 30]
[min_sum_hessian_in_leaf: 0.001]
[bagging_fraction: 0.8]
[pos_bagging_fraction: 1]
[neg_bagging_fraction: 1]
[bagging_freq: 0]
[bagging_seed: 400]
[bagging_by_query: 0]
[feature_fraction: 0.8]
[feature_fraction_bynode: 1]
[feature_fraction_seed: 30056]
[extra_trees: 0]
[extra_seed: 12879]
[early_stopping_round: 0]
[early_stopping_min_delta: 0]
[first_metric_only: 0]
[max_delta_step: 0]
[lambda_l1: 0.1]
[lambda_l2: 0.5]
[linear_lambda: 0]
[min_gain_to_split: 0]
[drop_rate: 0.1]
[max_drop: 50]
[skip_drop: 0.5]
[xgboost_dart_mode: 0]
[uniform_drop: 0]
[drop_seed: 17869]
[top_rate: 0.2]
[other_rate: 0.1]
[min_data_per_group: 100]
[max_cat_threshold: 32]
[cat_l2: 10]
[cat_smooth: 10]
[max_cat_to_onehot: 4]
[top_k: 20]
[monotone_constraints: ]
[monotone_constraints_method: basic]
[monotone_penalty: 0]
[feature_contri: ]
[forcedsplits_filename: ]
[refit_decay_rate: 0.9]
[cegb_tradeoff: 1]
[cegb_penalty_split: 0]
[cegb_penalty_feature_lazy: ]
[cegb_penalty_feature_coupled: ]
[path_smooth: 0]
[interaction_constraints: ]
[verbosity: -1]
[saved_feature_importance_type: 0]
[use_quantized_grad: 0]
[num_grad_quant_bins: 4]
[quant_train_renew_leaf: 0]
[stochastic_rounding: 1]
[linear_tree: 0]
[max_bin: 255]
[max_bin_by_feature: ]
[min_data_in_bin: 3]
[bin_construct_sample_cnt: 200000]
[data_random_seed: 175]
[is_enable_sparse: 1]
[enable_bundle: 1]
[use_missing: 1]
[zero_as_missing: 0]
[feature_pre_filter: 1]
[pre_partition: 0]
[two_round: 0]
[header: 0]
[label_column: ]
[weight_column: ]
[group_column: ]
[ignore_column: ]
[categorical_feature: ]
[forcedbins_filename: ]
[precise_float_parser: 0]
[parser_config_file: ]
[objective_seed: 16083]
[num_class: 1]
[is_unbalance: 0]
[scale_pos_weight: 23.678]
[sigmoid: 1]
[boost_from_average: 1]
[reg_sqrt: 0]
[alpha: 0.9]
[fair_c: 1]
[poisson_max_delta_step: 0.7]
[tweedie_variance_power: 1.5]
[lambdarank_truncation_level: 30]
[lambdarank_norm: 1]
[label_gain: ]
[lambdarank_position_bias_regularization: 0]
[eval_at: ]
[multi_error_top_k: 1]
[auc_mu_weights: ]
[num_machines: 1]
[local_listen_port: 12400]
[time_out: 120]
[machine_list_filename: ]
[machines: ]
[gpu_platform_id: -1]
[gpu_device_id: -1]
[gpu_use_dp: 0]
[num_gpu: 1]

end of parameters

pandas_categorical:null
