tree
version=v4
num_class=1
num_tree_per_iteration=1
label_index=0
max_feature_idx=85
objective=binary sigmoid:1
feature_names=Column_0 Column_1 Column_2 Column_3 Column_4 Column_5 Column_6 Column_7 Column_8 Column_9 Column_10 Column_11 Column_12 Column_13 Column_14 Column_15 Column_16 Column_17 Column_18 Column_19 Column_20 Column_21 Column_22 Column_23 Column_24 Column_25 Column_26 Column_27 Column_28 Column_29 Column_30 Column_31 Column_32 Column_33 Column_34 Column_35 Column_36 Column_37 Column_38 Column_39 Column_40 Column_41 Column_42 Column_43 Column_44 Column_45 Column_46 Column_47 Column_48 Column_49 Column_50 Column_51 Column_52 Column_53 Column_54 Column_55 Column_56 Column_57 Column_58 Column_59 Column_60 Column_61 Column_62 Column_63 Column_64 Column_65 Column_66 Column_67 Column_68 Column_69 Column_70 Column_71 Column_72 Column_73 Column_74 Column_75 Column_76 Column_77 Column_78 Column_79 Column_80 Column_81 Column_82 Column_83 Column_84 Column_85
feature_infos=[-0.12484045962128837:0.095336347881888564] [-0.15615888795872818:0.13078754821671021] [-0.12099373198985811:0.12974425130413253] [-0.11305134577623174:0.15173308905191127] [-0.099229928401020781:0.1535620790450839] [0:0.11736229214004662] [0:0.031906077303997027] [0:0.036910761878282183] [0:1] [0:0.13687392035567952] none [0:0.99999993197279369] [0:0.99999993006993493] [0:5] [0:5] [-0.054683208908528957:0.10294966361269098] [-0.034154702130008485:0.13108979883518379] [-0.037241445887495006:0.15854813718472927] [-0.062787801482478089:0.19936100844972682] [-0.069322033492797752:0.2115860772834568] [-0.030998354835916508:0.048762824381412218] [-0.014995462468128995:0.027086183310533585] [-0.0098482507359758387:0.018385446013013285] [-0.0050016704051925043:0.0086228727714747766] [-0.0028395875329508824:0.0049956569288862607] [0:1] [-0.069322033492797752:0.2115860772834568] [-0.040179579757027684:0.084143545097784767] [-0.034714699906138846:0.11690501722915791] [-0.034231142665867909:0.14728037756469448] [-0.017944560172668739:0.02634217247276124] [-0.015809445828443038:0.020123027103413509] [-0.0054166106371266159:0.010482415153673234] [-0.00036268573733335796:0.00050758435486535254] none [0:1] [-0.008808072932381639:0.018659567434231677] [-0.00087254192173725977:0.0010163074589894354] [20.323510763528475:89.804262250975597] [12.376212952847524:93.472403612858969] [-36.264912843660689:14.251954406087933] [-0.59352978472943052:0.79608524501951194] [0:1] none [-0.089063851774902281:0.066126036176647363] [-0.01379874771324896:0.26851529361721882] [-0.33792106453933385:1.4144582129832239] [0.012824409062652939:0.17337931515025601] [0:1] [0.0021209752624535986:0.05569800732538506] [0.0011688602382272915:0.078895805801847602] [0.52478427721983412:1.5154740241340456] [0:3.9905840806760917] [0.0006749425075496747:0.082463865475467871] [0.0021469576392531111:0.055994401416062822] [0.0028627045885565991:0.040165695041085372] [0:1] [0:4.893250015759941] [0:9.3437067734359829] [-1:4498.804347826087] [-1.6577386171886721:2.8449110484854412] [0:1] [0:0.99999997530864271] [0:0.99999997674418672] [0:0.99999997946611963] [0:0.99999998601398632] [-0.16755793332371027:-1.3968430856436953e-09] [-1.7755682479858592e-09:0.21029295136929083] [-0.16755793332371027:-1.3968430856436953e-09] [-1.7755682479858592e-09:0.16687022722615241] [0:0.99999997946611952] [0.0028129394031107913:0.97826655381470229] [-0.50022662012306196:0.54183529977203226] [0:1] [0:1] [-0.99999997802197849:0] [-2.8932535044460126:3.4091835074946664] [-2.5539047061207896:2.4108623580569253] [-0.11396048671987435:0.13853716669149407] [-0.10689519822059401:0.16384955078422392] [-0.094465524008897073:0.16598016781083147] [-0.10689519822059401:0.16384955078422392] [-0.094465524008897073:0.16598016781083147] [0:1] [0:0.50847457627118642] [0:1]
tree_sizes=1580 1585 1697 1512 1588

Tree=0
num_leaves=14
num_cat=0
split_feature=19 63 6 2 29 51 24 54 18 68 2 7 3
split_gain=70.5389 40.9419 21.7392 37.6608 32.9056 19.3732 17.491 17.6877 20.2498 14.8579 9.80273 7.43585 13.0151
threshold=0.010280405222217738 0.068164220282515328 0.0036104957508127657 -1.0000000180025095e-35 -0.0078603738578623111 1.0328803422396626 0.0027881438665675611 0.007524693157967376 0.022519435472610153 -0.0047614361788916306 0.0074949385033488873 0.00089400293929350243 0.0054018286744686233
decision_type=2 2 2 2 2 2 2 2 2 2 2 2 2
left_child=1 -1 3 4 -3 6 7 9 -9 -2 -5 -7 -13
right_child=5 2 -4 10 -6 11 -8 8 -10 -11 -12 12 -14
leaf_value=-1.1041276977057684 -1.0580303251340297 -1.2422394752297639 -1.1120416236216619 -1.2665377965479268 -1.1365468099862128 -1.0566132384102007 -1.1880892278053838 -1.2156446512005397 -1.107608629187425 -1.1390370753841677 -1.2025451430044798 -1.0699543224363839 -1.1502312772352665
leaf_weight=18.002969801425934 15.65962904691696 9.8420310914516431 7.7567974030971518 16.841488003730777 25.790332555770874 20.108580261468887 10.983136117458342 8.1405619382858294 8.5277225375175458 11.771041959524156 8.734887480735777 11.740476608276369 11.529915601015089
leaf_count=57 39 51 25 93 94 50 48 39 27 43 40 31 44
internal_value=-1.13707 -1.17035 -1.18838 -1.19888 -1.16587 -1.10809 -1.12956 -1.11555 -1.15919 -1.09066 -1.2447 -1.0822 -1.10735
internal_weight=185.43 86.9685 68.9655 61.2087 35.6324 98.4611 55.0821 44.099 16.6683 27.4307 25.5764 43.379 23.2704
internal_count=681 360 303 278 145 321 196 148 66 82 133 125 75
is_linear=0
shrinkage=1


Tree=1
num_leaves=14
num_cat=0
split_feature=23 21 37 45 21 51 77 0 53 70 52 7 9
split_gain=59.1646 43.4507 34.4705 31.4509 21.2033 19.976 17.6212 21.2669 22.8045 16.2472 4.53441 4.11262 8.80846
threshold=0.00054224580771677921 -0.0083905105457802148 1.0026085151464483e-05 0.021941498633447635 0.001832390464174827 1.0246023623402973 0.3095239558289728 0.0018140913375018475 0.0067107167185367815 0.42928568814749785 0.89663371596919672 0.00077333576898309128 0.017621351034050461
decision_type=2 2 2 2 2 2 2 2 2 2 2 2 2
left_child=1 -1 4 -4 9 6 7 8 -2 -3 -6 -7 -13
right_child=5 2 3 -5 10 11 -8 -9 -10 -11 -12 12 -14
leaf_value=0.12230428210989075 0.091148511443678429 0.044088510927941429 -0.062637195418019376 0.046594911016411458 0.021483848485183175 0.13947170733390757 0.013824029715089099 0.13726091130220378 0 0.11742728054328666 -0.034444743697083821 0.065341689976530462 0.1309847144358767
leaf_weight=13.059031516313551 21.037531182169918 24.201611265540123 16.549344688653949 10.242707788944243 7.5342685431241971 22.444265395402908 10.399976924061773 14.522057935595511 10.20418608188629 11.593549117445944 6.071004182100296 12.502670899033548 12.419297888875006
leaf_count=36 66 94 94 40 32 52 45 36 47 33 31 44 31
internal_value=0.0698887 0.039625 0.0246839 -0.0206055 0.049307 0.0956147 0.0739427 0.0871998 0.0619768 0.0692701 -0.0034547 0.120167 0.100183
internal_weight=192.782 89.2515 76.1925 26.7921 49.4004 103.53 56.1638 45.7638 31.2417 35.7952 13.6053 47.3662 24.922
internal_count=681 360 324 134 190 321 194 149 113 127 63 127 75
is_linear=0
shrinkage=0.05


Tree=2
num_leaves=15
num_cat=0
split_feature=19 63 7 52 72 33 51 52 54 47 1 22 22 7
split_gain=48.6311 30.6564 16.6874 23.7054 17.2616 16.2121 12.0597 17.2901 19.3208 23.7966 8.08928 7.11828 14.0147 7.4663
threshold=0.010280405222217738 0.068164220282515328 0.0027063662132470628 0.87160728737030546 0.082305335363615742 1.0603114097300139e-06 1.035488504094759 1.1059015334690352 0.0076997738644806876 0.059676385918823335 0.0048834254672825324 0.00084842505603532914 0.0067622159805613711 0.0018492114406906473
decision_type=2 2 2 2 2 2 2 2 2 2 2 2 2 2
left_child=1 -1 3 5 -5 -3 7 8 10 -10 -2 -8 13 -13
right_child=6 2 -4 4 -6 -7 11 -9 9 -11 -12 12 -14 -15
leaf_value=0.091335224325168302 0.11880747384305433 0.037501551259498056 -0.042551225675326931 0.084402402012364236 0.0036098151760096358 -0.033714071059340843 0.14703539677719765 0 -0.023443528415905746 0.086628339799851836 0.059737205270628674 0.085526358099688282 0.12705574438755035 0.019582025410485614
leaf_weight=19.761049002408981 24.845657721161842 14.341801881790163 8.5060689151287061 21.954301536083225 9.6223735809326154 16.807460427284241 10.546760827302931 7.5450370460748664 8.410998150706293 10.576586455106733 10.307179570198057 11.644841685891153 16.811554402112961 7.5624015480279914
leaf_count=57 61 56 45 70 44 88 20 33 42 31 35 32 37 30
internal_value=0.0642576 0.0369116 0.0212123 0.0302063 0.0603784 -0.000692413 0.0869226 0.0709578 0.080755 0.0382624 0.102708 0.106987 0.0932702 0.0609716
internal_weight=199.244 90.9931 71.232 62.7259 31.5767 31.1493 108.251 61.6855 54.1404 18.9876 35.1528 46.5656 36.0188 19.2072
internal_count=681 360 303 258 114 144 321 202 169 73 96 119 99 62
is_linear=0
shrinkage=0.05


Tree=3
num_leaves=13
num_cat=0
split_feature=50 61 21 2 47 6 55 30 69 79 54 11
split_gain=40.9211 16.224 25.3208 27.3524 22.5885 16.4347 15.0155 28.341 9.93033 16.7618 18.1666 6.83912
threshold=0.0082436284998481085 0.087479400841428648 0.0039561753887793491 -0.0010334987211928117 0.022392266465972002 0.00067018517985158166 0.010797481276912499 0.011385040640489086 0.0026901682373828843 -0.0038336569127889737 0.0079413785753644304 0.063508056058008702
decision_type=2 2 2 2 2 2 2 2 2 2 2 2
left_child=1 -1 3 4 -3 -5 8 -8 -2 10 -10 -11
right_child=6 2 -4 5 -6 -7 7 -9 9 11 -12 -13
leaf_value=0.082497367242511097 0.12328817058179281 0.093839484015510385 0.092505599418812826 -0.053455915481128879 0.0094034115329757629 0.016109700036008614 -0.027623521557499815 0.089372175984953908 0.080224644784054847 0.11235778949220687 -0.021963813478825384 0.073662941781111352
leaf_weight=14.190683484077452 17.950327783823013 13.14908844232559 11.171035692095755 16.876091808080673 19.535785809159279 16.098322480916977 8.8172919750213641 11.274014726281164 8.7029532641172427 25.422282218933105 7.81302586197853 33.850846797227859
leaf_count=42 39 36 31 93 81 68 41 29 25 58 37 101
internal_value=0.0593987 0.0340288 0.0245363 0.012285 0.0444247 -0.0196108 0.0794036 0.0383605 0.0878972 0.0786963 0.0323647 0.0911439
internal_weight=204.852 91.021 76.8303 65.6593 32.6849 32.9744 113.831 20.0913 93.7394 75.7891 16.516 59.2731
internal_count=681 351 309 278 117 161 330 70 260 221 62 159
is_linear=0
shrinkage=0.05


Tree=4
num_leaves=14
num_cat=0
split_feature=23 21 37 21 53 21 21 29 51 58 27 61 77
split_gain=37.1175 33.0409 25.9538 26.355 18.7362 17.7718 13.1936 11.9302 12.5424 15.3688 9.21831 5.98919 4.86151
threshold=0.00054224580771677921 -0.0083905105457802148 1.0026085151464483e-05 0.0019114172073725346 0.007175603965544796 0.001832390464174827 -0.0026728718535689029 0.00037775589540667292 1.0328803422396626 0.29386679545854499 -0.0027113709060168074 0.85427261179321268 -0.065916075938937987
decision_type=2 2 2 2 2 2 2 2 2 2 2 2 2
left_child=1 -1 4 11 5 -3 10 -8 9 -9 -2 -4 -10
right_child=6 2 3 -5 -6 -7 7 8 12 -11 -12 -13 -14
leaf_value=0.099674514245946061 0 0.069277993717904926 -0.062236180534237309 0.068606615423729422 -0.027338715526655191 -0.0039269082911640224 0.11563685577020477 0.078603376213760762 0.063860208137129296 0.011269873374975273 0.074006700823625399 0 0.10383148027120651
leaf_weight=14.529290050268171 9.8398566544055956 33.766838729381561 15.84164240956307 5.8385898470878592 8.5803358852863294 10.701372176408766 21.19833792746067 17.764998510479927 17.081460639834404 16.54006789624691 6.7138773649930945 5.1414162665605536 26.290391102433205
leaf_count=36 41 104 92 18 39 47 44 49 48 64 19 24 56
internal_value=0.0551134 0.0315146 0.0185104 -0.0211929 0.0386884 0.0517021 0.0741505 0.0811198 0.0709566 0.0469107 0.0310717 -0.0474277 0.0891105
internal_weight=209.828 94.3995 79.8702 26.8216 53.0485 44.4682 115.429 98.8753 77.6769 34.3051 16.5537 20.9831 43.3719
internal_count=681 360 324 134 190 151 321 261 217 113 60 116 104
is_linear=0
shrinkage=0.05


end of trees

feature_importances:
Column_21=7
Column_7=4
Column_51=4
Column_2=3
Column_52=3
Column_54=3
Column_6=2
Column_19=2
Column_22=2
Column_23=2
Column_29=2
Column_37=2
Column_47=2
Column_53=2
Column_61=2
Column_63=2
Column_77=2
Column_0=1
Column_1=1
Column_3=1
Column_9=1
Column_11=1
Column_18=1
Column_24=1
Column_27=1
Column_30=1
Column_33=1
Column_45=1
Column_50=1
Column_55=1
Column_58=1
Column_68=1
Column_69=1
Column_70=1
Column_72=1
Column_79=1

parameters:
[boosting: gbdt]
[objective: binary]
[metric: binary_logloss]
[tree_learner: serial]
[device_type: cpu]
[data_sample_strategy: bagging]
[data: ]
[valid: ]
[num_iterations: 500]
[learning_rate: 0.05]
[num_leaves: 31]
[num_threads: 8]
[seed: 42]
[deterministic: 0]
[force_col_wise: 0]
[force_row_wise: 0]
[histogram_pool_size: -1]
[max_depth: 5]
[min_data_in_leaf: 30]
[min_sum_hessian_in_leaf: 0.001]
[bagging_fraction: 0.8]
[pos_bagging_fraction: 1]
[neg_bagging_fraction: 1]
[bagging_freq: 0]
[bagging_seed: 400]
[bagging_by_query: 0]
[feature_fraction: 0.8]
[feature_fraction_bynode: 1]
[feature_fraction_seed: 30056]
[extra_trees: 0]
[extra_seed: 12879]
[early_stopping_round: 0]
[early_stopping_min_delta: 0]
[first_metric_only: 0]
[max_delta_step: 0]
[lambda_l1: 0.1]
[lambda_l2: 0.5]
[linear_lambda: 0]
[min_gain_to_split: 0]
[drop_rate: 0.1]
[max_drop: 50]
[skip_drop: 0.5]
[xgboost_dart_mode: 0]
[uniform_drop: 0]
[drop_seed: 17869]
[top_rate: 0.2]
[other_rate: 0.1]
[min_data_per_group: 100]
[max_cat_threshold: 32]
[cat_l2: 10]
[cat_smooth: 10]
[max_cat_to_onehot: 4]
[top_k: 20]
[monotone_constraints: ]
[monotone_constraints_method: basic]
[monotone_penalty: 0]
[feature_contri: ]
[forcedsplits_filename: ]
[refit_decay_rate: 0.9]
[cegb_tradeoff: 1]
[cegb_penalty_split: 0]
[cegb_penalty_feature_lazy: ]
[cegb_penalty_feature_coupled: ]
[path_smooth: 0]
[interaction_constraints: ]
[verbosity: -1]
[saved_feature_importance_type: 0]
[use_quantized_grad: 0]
[num_grad_quant_bins: 4]
[quant_train_renew_leaf: 0]
[stochastic_rounding: 1]
[linear_tree: 0]
[max_bin: 255]
[max_bin_by_feature: ]
[min_data_in_bin: 3]
[bin_construct_sample_cnt: 200000]
[data_random_seed: 175]
[is_enable_sparse: 1]
[enable_bundle: 1]
[use_missing: 1]
[zero_as_missing: 0]
[feature_pre_filter: 1]
[pre_partition: 0]
[two_round: 0]
[header: 0]
[label_column: ]
[weight_column: ]
[group_column: ]
[ignore_column: ]
[categorical_feature: ]
[forcedbins_filename: ]
[precise_float_parser: 0]
[parser_config_file: ]
[objective_seed: 16083]
[num_class: 1]
[is_unbalance: 0]
[scale_pos_weight: 3.36538]
[sigmoid: 1]
[boost_from_average: 1]
[reg_sqrt: 0]
[alpha: 0.9]
[fair_c: 1]
[poisson_max_delta_step: 0.7]
[tweedie_variance_power: 1.5]
[lambdarank_truncation_level: 30]
[lambdarank_norm: 1]
[label_gain: ]
[lambdarank_position_bias_regularization: 0]
[eval_at: ]
[multi_error_top_k: 1]
[auc_mu_weights: ]
[num_machines: 1]
[local_listen_port: 12400]
[time_out: 120]
[machine_list_filename: ]
[machines: ]
[gpu_platform_id: -1]
[gpu_device_id: -1]
[gpu_use_dp: 0]
[num_gpu: 1]

end of parameters

pandas_categorical:null
